svm_type epsilon_svr
kernel_type rbf
gamma 2
nr_class 2
total_sv 1020
rho -10.6854
SV
-0.9323080254702643 1:0.489239 2:-0.0322581 3:-0.2 4:0.207547 5:-0.045045 6:-0.333333 7:-1 8:-1 9:-1 10:-1 11:-1 12:-1 13:-1 15:-1 16:-1 17:-1 18:-1 19:0.872217 20:-0.861117 21:-0.131647 
-1.90618417064497 1:0.340883 2:0.0322581 3:0.2 4:0.132075 5:0.459459 6:-0.15942 7:-1 8:-1 9:-1 10:-1 11:-1 12:-1 13:-1 15:-1 16:-1 17:1 18:-1 19:0.855567 20:-0.8889 21:0.131647 
83.2019616240043 1:-0.0337017 2:0.548387 3:0.2 4:-0.132075 5:-0.045045 6:-0.15942 7:-1 8:-1 9:-1 10:-1 11:-1 12:-1 13:-1 15:-1 16:-1 17:-1 18:-1 19:-0.269445 20:0.28055 21:-0.728286 
-11.39071407910686 1:0.489239 2:-0.0322581 3:-0.2 4:0.207547 5:-0.045045 6:-0.333333 7:-1 8:-1 9:-1 10:-1 11:-1 12:-1 13:-1 15:-1 16:-1 17:-1 18:-1 19:0.872217 20:-0.861117 21:-0.131647 
253.958057649663 1:-0.459577 2:-0.0322581 3:-0.2 4:0.207547 5:-0.045045 6:-0.333333 7:-1 8:-1 9:-1 10:-1 11:-1 12:-1 13:-1 15:-1 16:-1 17:-1 18:-1 19:0.866667 20:-0.855567 21:-0.137244 
25.51591782251241 1:0.0552667 2:-0.0322581 3:-0.6 4:0.0188679 5:-0.045045 6:0.333333 7:-1 8:-1 9:-1 10:-1 11:-1 12:-1 13:-1 15:-1 16:-1 17:-1 18:-1 19:0.83055 20:-0.85 21:0.165277 
255.5492076128139 1:-0.747432 2:-0.0322581 3:0.2 4:0.396226 5:-0.045045 6:-0.492754 7:-1 8:-1 9:-1 10:-1 11:-1 12:-1 13:-1 15:-1 16:-1 17:-1 18:-1 19:0.491672 20:-0.475 21:-0.518202 
-17.82832275073378 1:0.999982 2:-0.0322581 3:0.6 4:0.584906 5:-0.045045 6:-0.666667 7:-1 8:-1 9:-1 10:-1 11:-1 12:-1 13:-1 15:-1 16:-1 17:-1 18:-1 19:-0.944445 20:0.96945 21:-0.0392151 
2863.427331536272 1:-0.670541 2:-0.225806 3:0.2 4:0.584906 5:-0.045045 6:0.173913 7:-1 8:-1 9:-1 10:-1 11:-1 12:-1 13:-1 15:-1 16:-1 17:-1 18:-1 19:0.436117 20:-0.44445 21:0.568639 
-2772.796106438766 1:-0.695788 2:-0.225806 3:0.2 4:0.584906 5:-0.045045 6:0.173913 7:-1 8:-1 9:-1 10:-1 11:-1 12:-1 13:-1 15:-1 16:-1 17:-1 18:-1 19:0.4389 20:-0.447233 21:0.565832 
289.7358620840042 1:0.999887 2:-0.225806 3:0.6 4:0.773585 5:-0.045045 6:-0.826087 7:-1 8:-1 9:-1 10:-1 11:-1 12:-1 13:-1 15:-1 16:-1 17:-1 18:-1 19:-0.927778 20:0.902783 21:0.0896353 
-309.2011383745105 1:0.999883 2:-0.225806 3:0.6 4:0.773585 5:-0.045045 6:-0.826087 7:-1 8:-1 9:-1 10:-1 11:-1 12:-1 13:-1 15:-1 16:-1 17:-1 18:-1 19:-0.941667 20:0.916667 21:0.0756303 
-5.833917707321397 1:0.993342 2:0.0322581 3:0.644444 4:0.471698 5:0.63964 6:-0.666667 7:-1 8:-1 9:-1 10:-1 11:-1 12:-1 13:-1 15:-1 16:-1 17:1 18:-1 19:-0.858333 20:0.883333 21:-0.128845 
-1.904074057276124 1:0.998139 2:-0.612903 3:-0.2 4:0.773585 5:-0.153153 6:-0.666667 7:-1 8:-1 9:-1 10:-1 11:-1 12:1 13:-1 15:-1 16:-1 17:-1 18:-1 19:-0.249995 20:0.272217 21:-0.742303 
-53.30080920917784 1:-0.526758 2:-0.612903 3:-0.6 4:0.584906 5:-0.045045 6:-0.666667 7:-1 8:-1 9:-1 10:-1 11:-1 12:-1 13:-1 15:-1 16:-1 17:-1 18:-1 19:0.75 20:-0.777783 21:0.240908 
23.19681938773048 1:-0.800648 2:0.935484 3:0.2 4:-0.396226 5:-0.603604 6:-0.333333 7:-1 8:-1 9:-1 10:-1 11:-1 12:-1 13:-1 15:-1 16:-1 17:1 18:-1 19:-0.038895 20:0.0722333 21:-0.949563 
-19.72711854508819 1:-0.721416 2:0.935484 3:0.2 4:-0.396226 5:-0.603604 6:-0.333333 7:-1 8:-1 9:-1 10:-1 11:-1 12:-1 13:-1 15:-1 16:-1 17:1 18:-1 19:-0.038895 20:0.0722333 21:-0.949563 
11.67989027894752 1:-0.670541 2:0.0322581 3:0.2 4:0.0943396 5:0.459459 6:-0.15942 7:-1 8:-1 9:-1 10:-1 11:-1 12:-1 13:-1 15:-1 16:-1 17:1 18:-1 19:0.916667 20:-0.947233 21:0.0700336 
-177.6744212224839 1:-0.747432 2:0.354839 3:0.2 4:0.0188679 5:-0.045045 7:-1 8:-1 9:-1 10:-1 11:-1 12:-1 13:-1 15:-1 16:-1 17:-1 18:-1 19:-0.18055 20:0.194433 21:-0.817933 
100.7751014743714 1:-0.747432 2:0.548387 3:-0.2 4:-0.283019 5:-0.045045 6:-0.333333 7:-1 8:-1 9:-1 10:-1 11:-1 12:-1 13:-1 15:-1 16:-1 17:-1 18:-1 19:-0.10555 20:0.119433 21:-0.893563 
-126.6050006700487 1:-0.481636 2:0.16129 3:-0.2 4:0.0188679 5:-0.045045 6:-0.666667 7:-1 8:-1 9:-1 10:-1 11:-1 12:-1 13:-1 15:-1 16:-1 17:-1 18:-1 19:0.961117 20:-0.933333 21:-0.0504034 
4.825847865218747 1:-0.773841 2:0.0322581 3:0.2 4:0.0943396 5:0.63964 6:-0.15942 7:-1 8:-1 9:-1 10:-1 11:-1 12:-1 13:-1 15:-1 16:-1 17:1 18:-1 19:0.147222 20:-0.113883 21:-0.87395 
32768 1:-0.800648 2:-0.0322581 3:-0.2 4:0.207547 5:-0.261261 6:-0.826087 7:-1 8:-1 9:-1 10:-1 11:-1 12:-1 13:-1 15:-1 16:-1 17:-1 18:-1 19:0.777767 20:-0.808333 21:0.212891 
-6.69734820403338 1:-0.800648 2:0.0322581 3:-0.0222222 4:-0.0188679 5:-0.441441 6:-0.347826 7:-1 8:-1 9:-1 10:-1 11:-1 12:-1 13:-1 15:-1 16:-1 17:1 18:-1 19:0.85 20:-0.880567 21:0.14005 
289.3282565773135 1:-0.827862 2:-0.0322581 3:-0.2 4:0.207547 5:-0.261261 6:-0.826087 7:-1 8:-1 9:-1 10:-1 11:-1 12:-1 13:-1 15:-1 16:-1 17:-1 18:-1 19:0.777767 20:-0.808333 21:0.212891 
-806.1237628617292 1:-0.800648 2:-0.0322581 3:-0.2 4:0.207547 5:-0.261261 6:-0.826087 7:-1 8:-1 9:-1 10:-1 11:-1 12:-1 13:-1 15:-1 16:-1 17:-1 18:-1 19:0.777767 20:-0.808333 21:0.212891 
32768 1:-0.800648 2:-0.0322581 3:-0.2 4:0.207547 5:-0.261261 6:-0.826087 7:-1 8:-1 9:-1 10:-1 11:-1 12:-1 13:-1 15:-1 16:-1 17:-1 18:-1 19:0.783333 20:-0.8139 21:0.207277 
21184.44763056003 1:-0.773841 2:-0.0322581 3:-0.2 4:0.207547 5:-0.261261 6:-0.826087 7:-1 8:-1 9:-1 10:-1 11:-1 12:-1 13:-1 15:-1 16:-1 17:-1 18:-1 19:0.7861 20:-0.816667 21:0.204487 
199.9559818784441 1:-0.827862 2:-0.0322581 3:-0.2 4:0.207547 5:-0.261261 6:-0.826087 7:-1 8:-1 9:-1 10:-1 11:-1 12:-1 13:-1 15:-1 16:-1 17:-1 18:-1 19:0.777767 20:-0.808333 21:0.212891 
-29783.62875497196 1:-0.800648 2:-0.0322581 3:-0.2 4:0.207547 5:-0.261261 6:-0.826087 7:-1 8:-1 9:-1 10:-1 11:-1 12:-1 13:-1 15:-1 16:-1 17:-1 18:-1 19:0.783333 20:-0.8139 21:0.207277 
-32768 1:-0.773841 2:-0.0322581 3:-0.2 4:0.207547 5:-0.261261 6:-0.826087 7:-1 8:-1 9:-1 10:-1 11:-1 12:-1 13:-1 15:-1 16:-1 17:-1 18:-1 19:0.7861 20:-0.816667 21:0.204487 
2095.579055909776 1:-0.800648 2:-0.0322581 3:-0.2 4:0.207547 5:-0.261261 6:-0.826087 7:-1 8:-1 9:-1 10:-1 11:-1 12:-1 13:-1 15:-1 16:-1 17:-1 18:-1 19:0.633333 20:-0.6639 21:0.358538 
32768 1:-0.800648 2:-0.0322581 3:-0.2 4:0.207547 5:-0.261261 6:-0.826087 7:-1 8:-1 9:-1 10:-1 11:-1 12:-1 13:-1 15:-1 16:-1 17:-1 18:-1 19:0.783333 20:-0.8139 21:0.207277 
32768 1:-0.800648 2:-0.0322581 3:-0.2 4:0.207547 5:-0.261261 6:-0.826087 7:-1 8:-1 9:-1 10:-1 11:-1 12:-1 13:-1 15:-1 16:-1 17:-1 18:-1 19:0.783333 20:-0.8139 21:0.207277 
-8422.717312342262 1:-0.800648 2:-0.0322581 3:-0.2 4:0.207547 5:-0.261261 6:-0.826087 7:-1 8:-1 9:-1 10:-1 11:-1 12:-1 13:-1 15:-1 16:-1 17:-1 18:-1 19:0.777767 20:-0.808333 21:0.212891 
32768 1:-0.800648 2:-0.0322581 3:-0.2 4:0.207547 5:-0.261261 6:-0.826087 7:-1 8:-1 9:-1 10:-1 11:-1 12:-1 13:-1 15:-1 16:-1 17:-1 18:-1 19:0.777767 20:-0.808333 21:0.212891 
-32768 1:-0.800648 2:-0.0322581 3:-0.2 4:0.207547 5:-0.261261 6:-0.826087 7:-1 8:-1 9:-1 10:-1 11:-1 12:-1 13:-1 15:-1 16:-1 17:-1 18:-1 19:0.783333 20:-0.8139 21:0.207277 
-1054.236754535542 1:-0.800648 2:-0.0322581 3:-0.2 4:0.207547 5:-0.261261 6:-0.826087 7:-1 8:-1 9:-1 10:-1 11:-1 12:-1 13:-1 15:-1 16:-1 17:-1 18:-1 19:0.777767 20:-0.808333 21:0.212891 
-32768 1:-0.800648 2:-0.0322581 3:-0.2 4:0.207547 5:-0.261261 6:-0.826087 7:-1 8:-1 9:-1 10:-1 11:-1 12:-1 13:-1 15:-1 16:-1 17:-1 18:-1 19:0.777767 20:-0.808333 21:0.212891 
18098.98434554308 1:-0.827862 2:-0.0322581 3:-0.2 4:0.207547 5:-0.261261 6:-0.826087 7:-1 8:-1 9:-1 10:-1 11:-1 12:-1 13:-1 15:-1 16:-1 17:-1 18:-1 19:0.777767 20:-0.808333 21:0.212891 
-1923.642093166278 1:-0.773841 2:-0.0322581 3:-0.2 4:0.207547 5:-0.261261 6:-0.826087 7:-1 8:-1 9:-1 10:-1 11:-1 12:-1 13:-1 15:-1 16:-1 17:-1 18:-1 19:0.625 20:-0.655567 21:0.366941 
-32768 1:-0.800648 2:-0.0322581 3:-0.2 4:0.207547 5:-0.261261 6:-0.826087 7:-1 8:-1 9:-1 10:-1 11:-1 12:-1 13:-1 15:-1 16:-1 17:-1 18:-1 19:0.783333 20:-0.8139 21:0.207277 
32768 1:-0.773841 2:-0.0322581 3:-0.2 4:0.207547 5:-0.261261 6:-0.826087 7:-1 8:-1 9:-1 10:-1 11:-1 12:-1 13:-1 15:-1 16:-1 17:-1 18:-1 19:0.7861 20:-0.816667 21:0.204487 
37.04305101562869 1:-0.800648 2:-0.0322581 3:-0.2 4:0.207547 5:-0.387387 6:-0.666667 7:-1 8:-1 9:-1 10:-1 11:-1 12:-1 13:-1 15:-1 16:-1 17:-1 18:-1 19:0.847217 20:-0.877783 21:0.142857 
-32674.52783324015 1:-0.800648 2:-0.0322581 3:-0.2 4:0.207547 5:-0.261261 6:-0.826087 7:-1 8:-1 9:-1 10:-1 11:-1 12:-1 13:-1 15:-1 16:-1 17:-1 18:-1 19:0.783333 20:-0.8139 21:0.207277 
-32768 1:-0.800648 2:-0.0322581 3:-0.2 4:0.207547 5:-0.261261 6:-0.826087 7:-1 8:-1 9:-1 10:-1 11:-1 12:-1 13:-1 15:-1 16:-1 17:-1 18:-1 19:0.777767 20:-0.808333 21:0.212891 
32768 1:-0.970224 2:0.548387 3:-0.6 4:-0.433962 5:-0.045045 7:-1 8:-1 9:-1 10:-1 11:-1 12:-1 13:-1 15:-1 16:-1 17:-1 18:-1 19:-0.416662 20:0.447217 21:-0.571429 
-32705.22675038422 1:-0.970224 2:0.548387 3:-0.6 4:-0.433962 5:-0.045045 7:-1 8:-1 9:-1 10:-1 11:-1 12:-1 13:-1 15:-1 16:-1 17:-1 18:-1 19:-0.416662 20:0.447217 21:-0.571429 
-5.898437905918523 1:-0.200991 2:-0.0752688 3:-0.0222222 4:0.132075 5:0.63964 6:-0.666667 7:-1 8:-1 9:-1 10:-1 11:-1 12:-1 13:-1 15:-1 16:-1 17:1 18:-1 19:0.880567 20:-0.911117 21:0.106437 
-5.799817326792131 1:-0.827862 2:0.16129 3:-0.2 4:0.0188679 5:-0.261261 6:-0.333333 7:-1 8:-1 9:-1 10:-1 11:-1 12:-1 13:-1 15:-1 16:-1 17:-1 18:-1 19:0.630562 20:-0.6 21:-0.383748 
7.165940888394299 1:-0.670541 2:0.354839 3:-0.6 4:-0.283019 5:-0.045045 6:-0.666667 7:-1 8:-1 9:-1 10:-1 11:-1 12:-1 13:-1 15:-1 16:1 17:-1 18:-1 19:0.741667 20:-0.772233 21:0.246504 
3.451181221772384 1:-0.25627 2:0.0322581 3:-0.466667 4:-0.207547 5:0.0990991 6:-0.15942 7:-1 8:-1 9:-1 10:-1 11:-1 12:-1 13:-1 15:-1 16:-1 17:1 18:-1 19:0.647222 20:-0.627783 21:-0.364134 
32299.44432543407 1:-0.970224 2:0.16129 3:1 4:0.584906 5:-0.045045 6:-0.666667 7:-1 8:-1 9:-1 10:-1 11:-1 12:-1 13:-1 15:-1 16:-1 17:-1 18:-1 19:0.586112 20:-0.558333 21:-0.428571 
475.4365917408959 1:-0.970224 2:0.16129 3:1 4:0.584906 5:-0.045045 6:-0.666667 7:-1 8:-1 9:-1 10:-1 11:-1 12:-1 13:-1 15:-1 16:-1 17:-1 18:-1 19:0.577778 20:-0.55 21:-0.436975 
-32768 1:-0.970224 2:0.16129 3:1 4:0.584906 5:-0.045045 6:-0.666667 7:-1 8:-1 9:-1 10:-1 11:-1 12:-1 13:-1 15:-1 16:-1 17:-1 18:-1 19:0.586112 20:-0.558333 21:-0.428571 
-845.968104918226 1:-0.773841 2:1 3:-0.466667 4:-1 5:0.63964 6:-0.333333 7:-1 8:-1 9:-1 10:-1 11:-1 12:-1 13:-1 15:-1 16:-1 17:1 18:-1 19:0.138883 20:-0.10555 21:-0.882353 
56.46438930618717 1:-0.855487 2:0.935484 3:-0.2 4:-0.54717 5:-0.045045 6:-0.333333 7:-1 8:-1 9:-1 10:-1 11:-1 12:-1 13:-1 15:-1 16:-1 17:-1 18:-1 19:0.13055 20:-0.0972167 21:-0.890756 
512.1346008552273 1:-0.721416 2:1 3:-0.466667 4:-1 5:0.63964 6:-0.333333 7:-1 8:-1 9:-1 10:-1 11:-1 12:-1 13:-1 15:-1 16:-1 17:1 18:-1 19:0.138883 20:-0.10555 21:-0.882353 
342.9064093639163 1:-0.855487 2:1 3:-0.466667 4:-1 5:0.63964 6:-0.333333 7:-1 8:-1 9:-1 10:-1 11:-1 12:-1 13:-1 15:-1 16:-1 17:1 18:-1 19:0.138883 20:-0.10555 21:-0.882353 
-25.3412542602884 1:-0.773841 2:0.935484 3:-0.2 4:-0.54717 5:-0.045045 6:-0.333333 7:-1 8:-1 9:-1 10:-1 11:-1 12:-1 13:-1 15:-1 16:-1 17:-1 18:-1 19:0.13055 20:-0.0972167 21:-0.890756 
-141.6307710322904 1:0.110284 2:-0.225806 3:0.6 4:0.773585 5:-0.045045 6:-0.666667 7:-1 8:-1 9:-1 10:-1 11:-1 12:-1 13:-1 15:-1 16:-1 17:-1 18:-1 19:-0.936112 20:0.96945 21:-0.0448067 
-119.9103621200451 1:-0.573255 2:-0.225806 3:0.6 4:0.773585 5:-0.045045 6:-0.666667 7:-1 8:-1 9:-1 10:-1 11:-1 12:-1 13:-1 15:-1 16:-1 17:-1 18:-1 19:-0.966667 20:1 21:-0.013995 
223.2020727775742 1:0.0505322 2:-0.225806 3:0.6 4:0.773585 5:-0.045045 6:-0.666667 7:-1 8:-1 9:-1 10:-1 11:-1 12:-1 13:-1 15:-1 16:-1 17:-1 18:-1 19:-0.961112 20:0.99445 21:-0.0195966 
-355.17837388535 1:-0.41644 2:-0.419355 3:0.2 4:0.773585 5:-0.153153 6:-0.666667 7:-1 8:-1 9:-1 10:-1 11:-1 12:-1 13:-1 15:-1 16:-1 17:-1 18:-1 19:0.21945 20:-0.25 21:0.775916 
651.7299474108574 1:-0.94089 2:-0.225806 3:0.2 4:0.584906 5:-0.045045 6:-0.492754 7:-1 8:-1 9:-1 10:-1 11:-1 12:-1 13:-1 15:-1 16:-1 17:-1 18:-1 19:0.752783 20:-0.761117 21:0.249311 
736.5027129502686 1:-1 2:-0.225806 3:0.2 4:0.584906 5:-0.045045 6:-0.333333 7:-1 8:-1 9:-1 10:-1 11:-1 12:-1 13:-1 15:-1 16:-1 17:-1 18:-1 19:0.791667 20:-0.8 21:0.210101 
-407.888257301208 1:-0.970224 2:-0.0322581 3:0.2 4:0.396226 5:-0.045045 7:-1 8:-1 9:-1 10:-1 11:-1 12:-1 13:-1 15:-1 16:-1 17:-1 18:-1 19:0.966667 20:-0.95555 21:-0.0364202 
-19.45174286557616 1:0.941391 2:0.354839 3:0.2 4:0.0188679 5:-0.261261 6:-0.492754 7:-1 8:-1 9:-1 10:-1 11:-1 12:-1 13:-1 15:-1 16:-1 17:-1 18:-1 19:0.969433 20:-1 21:0.0196134 
-1372.470475852837 1:-0.94089 2:-0.0322581 3:0.2 4:0.396226 5:-0.045045 6:-0.666667 7:-1 8:-1 9:-1 10:-1 11:-1 12:-1 13:-1 15:-1 16:-1 17:-1 18:-1 19:-0.744445 20:0.713883 21:0.274521 
1362.720361950312 1:-0.94089 2:-0.0322581 3:0.2 4:0.396226 5:-0.045045 6:-0.666667 7:-1 8:-1 9:-1 10:-1 11:-1 12:-1 13:-1 15:-1 16:-1 17:-1 18:-1 19:-0.755557 20:0.725 21:0.263316 
-5.913509359427818 1:0.781693 2:-0.0322581 3:0.6 4:0.584906 5:-0.81982 6:0.507246 7:-1 8:-1 9:-1 10:1 11:-1 12:-1 13:-1 15:-1 16:-1 17:-1 18:-1 19:0.225005 20:-0.202783 21:-0.789899 
-21.80846913775825 1:0.632803 2:-0.225806 3:0.6 4:0.773585 5:-0.045045 6:-0.666667 7:-1 8:-1 9:-1 10:-1 11:-1 12:-1 13:-1 15:-1 16:-1 17:-1 18:-1 19:-0.438888 20:0.416667 21:0.579832 
-9.644340987974829 1:0.579728 2:-0.225806 3:0.6 4:0.773585 5:-0.045045 6:-0.666667 7:-1 8:-1 9:-1 10:-1 11:-1 12:-1 13:-1 15:-1 16:-1 17:-1 18:-1 19:-0.458333 20:0.436117 21:0.560224 
65.62613507666224 1:-0.911994 2:0.354839 3:0.2 4:0.0188679 5:-0.045045 6:0.173913 7:-1 8:-1 9:-1 10:-1 11:-1 12:-1 13:-1 15:-1 16:-1 17:-1 18:-1 19:0.788883 20:-0.763883 21:-0.221294 
-6.885669629896382 1:0.320808 2:0.16129 3:0.6 4:0.396226 5:-0.045045 6:-0.333333 7:-1 8:1 9:-1 10:-1 11:-1 12:-1 13:-1 15:-1 16:-1 17:-1 18:-1 19:0.9389 20:-0.908333 21:-0.0728235 
766.0249972901307 1:-0.573255 2:-0.612903 3:0.2 4:1 5:-0.603604 6:-0.333333 7:-1 8:-1 9:1 10:-1 11:1 12:-1 13:-1 15:-1 16:-1 17:-1 18:-1 19:0.261112 20:-0.233333 21:-0.756303 
-227.2793989968409 1:-0.504029 2:-0.612903 3:0.2 4:1 5:-0.603604 6:-0.333333 7:-1 8:-1 9:1 10:-1 11:1 12:-1 13:-1 15:-1 16:-1 17:-1 18:-1 19:0.283328 20:-0.25555 21:-0.733899 
1.650026158291806 1:-0.573255 2:-0.419355 3:0.2 4:0.773585 5:-0.153153 6:-0.666667 7:-1 8:-1 9:-1 10:-1 11:-1 12:1 13:-1 15:-1 16:-1 17:-1 18:-1 19:0.461112 20:-0.433333 21:-0.554622 
-533.1155780707315 1:-0.597032 2:-0.612903 3:0.2 4:1 5:-0.603604 6:-0.333333 7:-1 8:-1 9:1 10:-1 11:1 12:-1 13:-1 15:-1 16:-1 17:-1 18:-1 19:0.272228 20:-0.24445 21:-0.745092 
-35.19380099485073 1:-0.0812816 2:-0.225806 3:1 4:1 5:-0.045045 6:-0.666667 7:-1 8:-1 9:-1 10:-1 11:-1 12:-1 13:-1 15:-1 16:-1 17:-1 18:-1 19:-0.947223 20:0.91945 21:0.0700387 
31.65254480226023 1:-0.549832 2:0.548387 3:-0.2 4:-0.283019 5:-0.045045 6:1 7:-1 8:-1 9:-1 10:-1 11:-1 12:-1 13:-1 15:-1 16:-1 17:-1 18:-1 19:0.191672 20:-0.175 21:-0.820723 
74.0862869800914 1:-0.573255 2:0.354839 3:0.2 4:0.0188679 5:-0.045045 6:0.666667 7:-1 8:-1 9:-1 10:-1 11:-1 12:-1 13:-1 15:-1 16:-1 17:-1 18:-1 19:-0.094445 20:0.111117 21:-0.90195 
-509.3670999475056 1:-0.88353 2:-0.0322581 3:0.6 4:0.584906 5:-0.045045 6:-0.666667 7:-1 8:-1 9:-1 10:-1 11:-1 12:-1 13:-1 15:-1 16:-1 17:-1 18:-1 19:0.527778 20:-0.5 21:-0.487395 
-217.1716530444275 1:-0.294529 2:-0.225806 3:-0.2 4:0.396226 5:-0.045045 6:-0.492754 7:-1 8:-1 9:-1 10:-1 11:-1 12:-1 13:-1 15:-1 16:-1 17:-1 18:-1 19:0.716667 20:-0.727767 21:0.282924 
-32768 1:-0.237566 2:-0.225806 3:0.2 4:0.584906 5:-0.045045 6:-0.492754 7:-1 8:-1 9:-1 10:-1 11:-1 12:-1 13:-1 15:-1 16:-1 17:-1 18:-1 19:-0.613888 20:0.588883 21:0.403361 
15871.45079872486 1:-0.275257 2:-0.225806 3:0.2 4:0.584906 5:-0.045045 6:-0.492754 7:-1 8:-1 9:-1 10:-1 11:-1 12:-1 13:-1 15:-1 16:-1 17:-1 18:-1 19:-0.605555 20:0.58055 21:0.411765 
17032.26497256125 1:-0.200991 2:-0.225806 3:0.2 4:0.584906 5:-0.045045 6:-0.492754 7:-1 8:-1 9:-1 10:-1 11:-1 12:-1 13:-1 15:-1 16:-1 17:-1 18:-1 19:-0.619443 20:0.594433 21:0.39776 
-32768 1:-0.670541 2:0.16129 3:0.2 4:0.207547 5:-0.045045 6:-0.333333 7:-1 8:-1 9:-1 10:-1 11:-1 12:-1 13:-1 15:-1 16:-1 17:-1 18:-1 19:0.572222 20:-0.55555 21:-0.436975 
32675.60026845238 1:-0.670541 2:0.16129 3:0.2 4:0.207547 5:-0.045045 6:-0.333333 7:-1 8:-1 9:-1 10:-1 11:-1 12:-1 13:-1 15:-1 16:-1 17:-1 18:-1 19:0.572222 20:-0.55555 21:-0.436975 
-50.91168480414468 1:-0.549832 2:0.354839 3:-0.2 4:-0.132075 5:-0.045045 6:-0.333333 7:-1 8:-1 9:-1 10:-1 11:-1 12:-1 13:-1 15:-1 16:-1 17:-1 18:-1 19:0.513883 20:-0.488883 21:-0.498605 
0.9424040300684431 1:-0.504029 2:0.139785 3:-0.0222222 4:-0.132075 5:-0.261261 7:-1 8:-1 9:1 10:-1 11:-1 12:-1 13:-1 15:-1 16:-1 17:-1 18:-1 19:0.63055 20:-0.6111 21:-0.380958 
495.1158509449255 1:-0.18311 2:-0.225806 3:0.2 4:0.584906 5:-0.045045 6:-0.666667 7:-1 8:-1 9:-1 10:-1 11:-1 12:-1 13:-1 15:-1 16:-1 17:-1 18:-1 19:0.0583333 20:-0.0833333 21:0.941176 
-132.437636540763 1:-0.314095 2:-0.419355 3:-0.6 4:0.358491 5:-0.045045 6:-0.492754 7:-1 8:-1 9:-1 10:-1 11:-1 12:-1 13:-1 15:-1 16:-1 17:-1 18:-1 19:0.194433 20:-0.219433 21:0.803933 
167.5633543756282 1:-0.333955 2:-0.419355 3:-0.6 4:0.358491 5:-0.045045 6:-0.492754 7:-1 8:-1 9:-1 10:-1 11:-1 12:-1 13:-1 15:-1 16:-1 17:-1 18:-1 19:0.202767 20:-0.227767 21:0.795529 
1.059225859683924 1:-0.855487 2:-0.182796 3:-0.0222222 4:0.283019 5:0.459459 6:-0.666667 7:-1 8:-1 9:-1 10:-1 11:-1 12:-1 13:-1 15:-1 16:-1 17:1 18:-1 19:0.858333 20:-0.883333 21:0.134471 
-32188.26460309818 1:-0.800648 2:-0.225806 3:0.2 4:0.584906 5:-0.045045 6:-0.666667 7:-1 8:-1 9:-1 10:-1 11:-1 12:-1 13:-1 15:-1 16:1 17:-1 18:-1 19:0.822233 20:-0.847233 21:0.170874 
-32768 1:-0.855487 2:-0.0322581 3:-0.2 4:0.207547 5:-0.045045 6:-0.492754 7:-1 8:-1 9:-1 10:-1 11:-1 12:-1 13:-1 15:-1 16:1 17:-1 18:-1 19:0.875 20:-0.9 21:0.117664 
31268.64080637238 1:-0.855487 2:-0.0322581 3:-0.2 4:0.207547 5:-0.045045 6:-0.492754 7:-1 8:-1 9:-1 10:-1 11:-1 12:-1 13:-1 15:-1 16:1 17:-1 18:-1 19:0.875 20:-0.9 21:0.117664 
-32768 1:-0.773841 2:-0.0322581 3:-0.2 4:0.207547 5:-0.045045 6:-0.333333 7:-1 8:-1 9:-1 10:-1 11:-1 12:-1 13:-1 15:-1 16:1 17:-1 18:-1 19:0.9889 20:-0.9861 21:0.00280672 
5834.817251634232 1:-0.88353 2:-0.0322581 3:-0.2 4:0.207547 5:-0.045045 6:-0.492754 7:-1 8:-1 9:-1 10:-1 11:-1 12:-1 13:-1 15:-1 16:1 17:-1 18:-1 19:0.877783 20:-0.902783 21:0.114857 
-540.1949936452007 1:-0.855487 2:-0.225806 3:0.2 4:0.584906 5:-0.045045 6:-0.666667 7:-1 8:-1 9:-1 10:-1 11:-1 12:-1 13:-1 15:-1 16:1 17:-1 18:-1 19:0.825 20:-0.85 21:0.168084 
32768 1:-0.855487 2:-0.225806 3:0.2 4:0.584906 5:-0.045045 6:-0.666667 7:-1 8:-1 9:-1 10:-1 11:-1 12:-1 13:-1 15:-1 16:1 17:-1 18:-1 19:0.827783 20:-0.852783 21:0.165277 
18936.718429822 1:-0.773841 2:-0.0322581 3:-0.2 4:0.207547 5:-0.045045 6:-0.333333 7:-1 8:-1 9:-1 10:-1 11:-1 12:-1 13:-1 15:-1 16:1 17:-1 18:-1 19:0.991667 20:-0.983333 21:1.68067e-05 
-32768 1:-0.88353 2:-0.0322581 3:-0.2 4:0.207547 5:-0.045045 6:-0.492754 7:-1 8:-1 9:-1 10:-1 11:-1 12:-1 13:-1 15:-1 16:1 17:-1 18:-1 19:0.880567 20:-0.905567 21:0.11205 
32768 1:-0.88353 2:-0.0322581 3:-0.2 4:0.207547 5:-0.045045 6:-0.492754 7:-1 8:-1 9:-1 10:-1 11:-1 12:-1 13:-1 15:-1 16:1 17:-1 18:-1 19:0.880567 20:-0.905567 21:0.11205 
-32768 1:-0.855487 2:-0.225806 3:0.2 4:0.584906 5:-0.045045 6:-0.666667 7:-1 8:-1 9:-1 10:-1 11:-1 12:-1 13:-1 15:-1 16:1 17:-1 18:-1 19:0.822233 20:-0.847233 21:0.170874 
32768 1:-0.800648 2:-0.225806 3:0.2 4:0.584906 5:-0.045045 6:-0.666667 7:-1 8:-1 9:-1 10:-1 11:-1 12:-1 13:-1 15:-1 16:1 17:-1 18:-1 19:0.816667 20:-0.841667 21:0.176487 
14106.50733097549 1:-0.773841 2:-0.0322581 3:-0.2 4:0.207547 5:-0.045045 6:-0.333333 7:-1 8:-1 9:-1 10:-1 11:-1 12:-1 13:-1 15:-1 16:1 17:-1 18:-1 19:0.986117 20:-0.988883 21:0.00561345 
-4570.465058775099 1:-0.88353 2:-0.0322581 3:-0.2 4:0.207547 5:-0.045045 6:-0.492754 7:-1 8:-1 9:-1 10:-1 11:-1 12:-1 13:-1 15:-1 16:1 17:-1 18:-1 19:0.8889 20:-0.9139 21:0.103647 
3.070237452455009 1:0.300124 2:-0.612903 3:-0.2 4:0.773585 5:-0.657658 6:1 7:-1 8:-1 9:-1 10:-1 11:-1 12:-1 13:-1 15:1 16:-1 17:-1 18:-1 19:-0.602778 20:0.630562 21:-0.383753 
-9.898912771274858 1:-0.64567 2:0.16129 3:-0.2 4:0.0188679 5:-0.045045 6:-0.666667 7:-1 8:-1 9:-1 10:-1 11:-1 12:1 13:-1 15:-1 16:-1 17:-1 18:-1 19:0.108338 20:-0.0833333 21:-0.907546 
10.29184186689562 1:-0.88353 2:0.16129 3:-0.2 4:0.0188679 5:-0.045045 6:-0.666667 7:-1 8:-1 9:-1 10:-1 11:-1 12:1 13:-1 15:-1 16:-1 17:-1 18:-1 19:0.108338 20:-0.0833333 21:-0.907546 
-12.16326002990732 1:-0.395353 2:0.354839 3:-1 4:-0.433962 5:-0.045045 6:0.84058 7:-1 8:-1 9:-1 10:-1 11:-1 12:-1 13:-1 15:-1 16:-1 17:-1 18:-1 19:-0.038895 20:0.0472333 21:-0.960773 
-7.679701733842769 1:-0.695788 2:-0.419355 3:0.2 4:0.773585 5:-0.045045 6:-0.826087 7:-1 8:-1 9:-1 10:-1 11:-1 12:1 13:-1 15:-1 16:-1 17:-1 18:-1 19:0.369433 20:-0.38055 21:0.633059 
56.03029995452425 1:0.123531 2:-0.0322581 3:-0.2 4:0.207547 5:-0.045045 6:0.173913 7:-1 8:-1 9:-1 10:-1 11:-1 12:-1 13:-1 15:-1 16:-1 17:-1 18:-1 19:0.855567 20:-0.84445 21:-0.148454 
6.037426665352191 1:0.473684 2:0.16129 3:-0.2 4:0.0188679 5:-0.045045 6:-0.333333 7:-1 8:-1 9:-1 10:-1 11:-1 12:-1 13:-1 15:-1 16:1 17:-1 18:-1 19:0.7389 20:-0.7139 21:-0.271697 
301.3762301930927 1:-0.294529 2:0.0322581 3:-0.0222222 4:-0.0188679 5:0.63964 6:-0.492754 7:-1 8:-1 9:-1 10:-1 11:-1 12:1 13:-1 15:-1 16:-1 17:-1 18:-1 19:0.652778 20:-0.627783 21:-0.358538 
-453.6207199392425 1:-0.41644 2:0.0322581 3:-0.0222222 4:-0.0188679 5:0.63964 6:-0.492754 7:-1 8:-1 9:-1 10:-1 11:-1 12:1 13:-1 15:-1 16:-1 17:-1 18:-1 19:0.647228 20:-0.622233 21:-0.364134 
-11.31194673982567 1:-0.437847 2:0.0322581 3:-0.0222222 4:-0.0188679 5:0.63964 6:-0.492754 7:-1 8:-1 9:-1 10:-1 11:-1 12:1 13:-1 15:-1 16:-1 17:-1 18:-1 19:0.666662 20:-0.641667 21:-0.344538 
-31.37427936360716 1:0.132251 2:0.0322581 3:-0.0222222 4:-0.0188679 5:0.63964 6:-0.492754 7:-1 8:-1 9:-1 10:-1 11:-1 12:1 13:-1 15:-1 16:-1 17:-1 18:-1 19:0.661112 20:-0.636117 21:-0.350134 
199.7213940329597 1:-0.549832 2:0.0322581 3:-0.0222222 4:-0.0188679 5:0.63964 6:-0.492754 7:-1 8:-1 9:-1 10:-1 11:-1 12:1 13:-1 15:-1 16:-1 17:-1 18:-1 19:0.633328 20:-0.608333 21:-0.378151 
1.572442829663093 1:-0.481636 2:0.16129 3:-0.2 4:0.0188679 5:-0.045045 6:-0.492754 7:-1 8:-1 9:-1 10:-1 11:-1 12:1 13:-1 15:-1 16:-1 17:-1 18:-1 19:0.675 20:-0.65 21:-0.336134 
141.106773483605 1:-0.855487 2:-0.225806 3:0.6 4:0.773585 5:-0.495495 6:-0.15942 7:1 8:-1 9:-1 10:-1 11:1 12:-1 13:-1 15:-1 16:-1 17:-1 18:-1 19:0.394438 20:-0.375 21:-0.619042 
-21510.82668286258 1:-0.88353 2:-0.225806 3:0.6 4:0.773585 5:-0.495495 6:-0.15942 7:1 8:-1 9:-1 10:-1 11:1 12:-1 13:-1 15:-1 16:-1 17:-1 18:-1 19:0.386105 20:-0.366667 21:-0.627445 
32768 1:-0.88353 2:-0.225806 3:0.6 4:0.773585 5:-0.495495 6:-0.15942 7:1 8:-1 9:-1 10:-1 11:1 12:-1 13:-1 15:-1 16:-1 17:-1 18:-1 19:0.391672 20:-0.372233 21:-0.621832 
-11416.04207869591 1:-0.88353 2:-0.225806 3:0.6 4:0.773585 5:-0.495495 6:-0.15942 7:1 8:-1 9:-1 10:-1 11:1 12:-1 13:-1 15:-1 16:-1 17:-1 18:-1 19:0.402772 20:-0.383333 21:-0.610639 
-33.05644702655722 1:0.933254 2:-0.225806 3:0.2 4:0.584906 5:-0.045045 6:-0.666667 7:-1 8:-1 9:-1 10:-1 11:-1 12:-1 13:-1 15:-1 16:-1 17:-1 18:-1 19:0.797233 20:-0.81945 21:0.196084 
29.44778829575957 1:0.5332 2:0.741935 3:0.2 4:-0.283019 5:-0.153153 6:-0.15942 7:-1 8:-1 9:-1 10:-1 11:-1 12:-1 13:-1 15:-1 16:-1 17:-1 18:-1 19:-0.04445 20:0.0639 21:-0.95237 
-81.6828381556912 1:-0.200991 2:0.16129 3:0.6 4:0.396226 5:-0.045045 6:-0.15942 7:-1 8:-1 9:-1 10:-1 11:-1 12:-1 13:-1 15:-1 16:-1 17:-1 18:-1 19:-0.7 20:0.71945 21:-0.291316 
157.6693359053924 1:-0.219143 2:0.16129 3:0.2 4:0.207547 5:-0.045045 6:-0.15942 7:-1 8:-1 9:-1 10:-1 11:-1 12:-1 13:-1 15:-1 16:-1 17:-1 18:-1 19:0.994433 20:-0.983333 21:-0.00278992 
-17.39627007563567 1:-0.695788 2:-0.0322581 3:0.6 4:0.584906 5:-0.045045 6:-0.492754 7:-1 8:-1 9:-1 10:-1 11:-1 12:-1 13:-1 15:-1 16:1 17:-1 18:-1 19:0.6139 20:-0.630567 21:0.383748 
-8.363508564356064 1:0.363552 2:-0.0322581 3:0.6 4:0.584906 5:-0.045045 6:-0.492754 7:-1 8:-1 9:-1 10:-1 11:-1 12:-1 13:-1 15:-1 16:1 17:-1 18:-1 19:0.636117 20:-0.652783 21:0.361345 
3.261329861134647 1:0.592148 2:-0.0322581 3:0.2 4:0.396226 5:-0.045045 6:0.666667 7:-1 8:-1 9:1 10:-1 11:1 12:-1 13:-1 15:-1 16:-1 17:-1 18:-1 19:0.424995 20:-0.408333 21:-0.585429 
-0.4207686803220735 1:0.6159 2:0.0322581 3:0.2 4:0.207547 5:0.63964 6:-0.492754 7:-1 8:-1 9:1 10:-1 11:-1 12:-1 13:-1 15:-1 16:-1 17:-1 18:-1 19:0.597228 20:-0.580567 21:-0.411748 
-16.8899307245846 1:-0.41644 2:-0.419355 3:0.2 4:0.773585 5:-0.387387 6:-0.492754 7:-1 8:-1 9:-1 10:-1 11:-1 12:1 13:-1 15:-1 16:-1 17:-1 18:-1 19:0.194438 20:-0.177767 21:-0.817933 
-0.604315813557371 1:0.245615 2:0.0322581 3:-0.244444 4:-0.0943396 5:-0.441441 6:-0.15942 7:-1 8:-1 9:-1 10:-1 11:-1 12:1 13:-1 15:-1 16:-1 17:-1 18:-1 19:0.486105 20:-0.472217 21:-0.521008 
4.386515475552012 1:-0.94089 2:-0.419355 3:0.2 4:0.773585 5:-0.045045 6:-0.666667 7:-1 8:-1 9:-1 10:-1 11:-1 12:-1 13:-1 15:-1 16:1 17:-1 18:-1 19:-0.783333 20:0.766667 21:0.229692 
32768 1:-0.911994 2:0.354839 3:0.6 4:0.207547 5:-0.045045 6:-0.333333 7:-1 8:-1 9:-1 10:-1 11:-1 12:-1 13:-1 15:-1 16:1 17:-1 18:-1 19:0.238883 20:-0.2111 21:-0.778706 
13582.6212950298 1:-0.827862 2:0.354839 3:0.6 4:0.207547 5:-0.045045 6:-0.333333 7:-1 8:-1 9:-1 10:-1 11:-1 12:-1 13:-1 15:-1 16:1 17:-1 18:-1 19:0.24445 20:-0.216667 21:-0.773092 
-32768 1:-0.88353 2:0.354839 3:0.6 4:0.207547 5:-0.045045 6:-0.333333 7:-1 8:-1 9:-1 10:-1 11:-1 12:-1 13:-1 15:-1 16:1 17:-1 18:-1 19:0.238883 20:-0.2111 21:-0.778706 
-32768 1:-0.911994 2:0.354839 3:0.6 4:0.207547 5:-0.045045 6:-0.333333 7:-1 8:-1 9:-1 10:-1 11:-1 12:-1 13:-1 15:-1 16:1 17:-1 18:-1 19:0.241667 20:-0.213883 21:-0.775899 
-32768 1:-0.911994 2:0.354839 3:0.6 4:0.207547 5:-0.045045 6:-0.333333 7:-1 8:-1 9:-1 10:-1 11:-1 12:-1 13:-1 15:-1 16:1 17:-1 18:-1 19:0.241667 20:-0.213883 21:-0.775899 
32768 1:-0.911994 2:0.354839 3:0.6 4:0.207547 5:-0.045045 6:-0.333333 7:-1 8:-1 9:-1 10:-1 11:-1 12:-1 13:-1 15:-1 16:1 17:-1 18:-1 19:0.238883 20:-0.2111 21:-0.778706 
25734.75784854263 1:-0.911994 2:0.354839 3:0.6 4:0.207547 5:-0.045045 6:-0.333333 7:-1 8:-1 9:-1 10:-1 11:-1 12:-1 13:-1 15:-1 16:1 17:-1 18:-1 19:0.24445 20:-0.216667 21:-0.773092 
-6376.7821092249 1:-0.88353 2:0.354839 3:0.6 4:0.207547 5:-0.045045 6:-0.333333 7:-1 8:-1 9:-1 10:-1 11:-1 12:-1 13:-1 15:-1 16:1 17:-1 18:-1 19:0.241667 20:-0.213883 21:-0.775899 
116.807079042324 1:0.296616 2:0.16129 3:0.6 4:0.396226 5:-0.045045 7:-1 8:-1 9:-1 10:-1 11:-1 12:-1 13:-1 15:-1 16:-1 17:-1 18:-1 19:0.477767 20:-0.50555 21:0.515412 
-72.09380896637192 1:0.149434 2:0.16129 3:0.6 4:0.396226 5:-0.045045 6:0.173913 7:-1 8:-1 9:-1 10:-1 11:-1 12:-1 13:-1 15:-1 16:-1 17:-1 18:-1 19:0.413883 20:-0.441667 21:0.579832 
5.579587956691558 1:0.621618 2:-0.0322581 3:-0.2 4:0.207547 5:-0.045045 6:-0.492754 7:-1 8:-1 9:-1 10:-1 11:-1 12:1 13:-1 15:-1 16:-1 17:-1 18:-1 19:0.244438 20:-0.23055 21:-0.764706 
-214.2277466403705 1:0.987246 2:0.354839 3:0.2 4:0.0188679 5:-0.045045 6:-0.492754 7:-1 8:-1 9:-1 10:-1 11:-1 12:-1 13:-1 15:-1 16:-1 17:-1 18:-1 19:-0.0777717 20:0.0861 21:-0.92437 
-27.56528946152759 1:-0.721416 2:-0.225806 3:0.2 4:0.584906 5:-0.045045 6:-0.826087 7:-1 8:-1 9:-1 10:-1 11:-1 12:-1 13:-1 15:-1 16:-1 17:-1 18:-1 19:0.2861 20:-0.297217 21:0.717092 
-32768 1:0.654185 2:-0.225806 3:0.2 4:0.584906 5:-0.261261 6:-0.666667 7:-1 8:-1 9:-1 10:-1 11:-1 12:-1 13:-1 15:-1 16:-1 17:-1 18:-1 19:0.138888 20:-0.152783 21:0.862756 
162.948437112678 1:0.693291 2:-0.225806 3:-0.2 4:0.396226 5:-0.045045 6:-0.666667 7:-1 8:-1 9:-1 10:-1 11:-1 12:-1 13:-1 15:-1 16:-1 17:-1 18:-1 19:0.8889 20:-0.902783 21:0.109244 
-202.449802318593 1:0.465729 2:-0.225806 3:-0.2 4:0.396226 5:-0.045045 6:-0.666667 7:-1 8:-1 9:-1 10:-1 11:-1 12:-1 13:-1 15:-1 16:-1 17:-1 18:-1 19:0.883333 20:-0.897217 21:0.114857 
-1474.569640292234 1:-0.855487 2:-0.0322581 3:-0.2 4:0.207547 5:-0.045045 7:-1 8:-1 9:-1 10:-1 11:-1 12:-1 13:-1 15:-1 16:-1 17:-1 18:-1 19:0.986117 20:-0.972233 21:-0.0195966 
3467.201273568915 1:-0.773841 2:-0.0322581 3:-0.2 4:0.207547 5:-0.045045 7:-1 8:-1 9:-1 10:-1 11:-1 12:-1 13:-1 15:-1 16:-1 17:-1 18:-1 19:0.986117 20:-0.972233 21:-0.0195966 
-225.3017426123309 1:-0.773841 2:-0.0322581 3:-0.2 4:0.207547 5:-0.045045 6:-0.492754 7:-1 8:-1 9:-1 10:-1 11:-1 12:-1 13:-1 15:-1 16:-1 17:-1 18:-1 19:0.986117 20:-1 21:0.00840336 
-1987.265669485933 1:-0.670541 2:-0.0322581 3:-0.2 4:0.207547 5:-0.045045 7:-1 8:-1 9:-1 10:-1 11:-1 12:-1 13:-1 15:-1 16:-1 17:-1 18:-1 19:0.975 20:-0.961117 21:-0.0308067 
-32.14426977060293 1:-0.41644 2:0.16129 3:-0.6 4:-0.132075 5:-0.045045 6:-0.15942 7:-1 8:-1 9:-1 10:-1 11:-1 12:-1 13:-1 15:-1 16:-1 17:-1 18:-1 19:-0.386112 20:0.402783 21:-0.607832 
365.4838456963131 1:-0.695788 2:-0.225806 3:0.2 4:0.584906 5:-0.045045 6:-0.492754 7:-1 8:-1 9:-1 10:-1 11:-1 12:-1 13:-1 15:-1 16:-1 17:-1 18:-1 19:0.497217 20:-0.508333 21:0.504202 
-61.54511281417307 1:0.913001 2:-0.0322581 3:0.2 4:0.396226 5:-0.045045 6:-0.333333 7:-1 8:-1 9:-1 10:-1 11:-1 12:-1 13:-1 15:-1 16:-1 17:-1 18:-1 19:0.769433 20:-0.78055 21:0.229697 
-90.06005312090896 1:-0.695788 2:0.354839 3:-0.6 4:-0.283019 5:-0.045045 6:0.666667 7:-1 8:-1 9:-1 10:-1 11:-1 12:-1 13:-1 15:-1 16:-1 17:-1 18:-1 19:0.31945 20:-0.308333 21:-0.689059 
-0.12085528657961 1:-0.747432 2:0.548387 3:-0.6 4:-0.433962 5:-0.045045 6:0.84058 7:-1 8:-1 9:-1 10:-1 11:-1 12:-1 13:-1 15:-1 16:-1 17:-1 18:-1 19:0.36945 20:-0.358333 21:-0.638639 
-1280.877844271284 1:0.300124 2:-0.225806 3:-0.2 4:0.396226 5:-0.045045 6:-0.492754 7:-1 8:-1 9:-1 10:-1 11:-1 12:-1 13:-1 15:-1 16:-1 17:-1 18:-1 19:-0.63889 20:0.649995 21:-0.355736 
8213.677714642623 1:-0.597032 2:-0.225806 3:-0.2 4:0.396226 5:-0.045045 6:-0.492754 7:-1 8:-1 9:-1 10:-1 11:-1 12:-1 13:-1 15:-1 16:-1 17:-1 18:-1 19:-0.652778 20:0.663883 21:-0.341731 
-31399.2267084811 1:-0.526758 2:-0.225806 3:-0.2 4:0.396226 5:-0.045045 6:-0.492754 7:-1 8:-1 9:-1 10:-1 11:-1 12:-1 13:-1 15:-1 16:-1 17:-1 18:-1 19:-0.644445 20:0.65555 21:-0.350134 
1258.040608009667 1:0.369885 2:-0.225806 3:-0.2 4:0.396226 5:-0.045045 6:-0.492754 7:-1 8:-1 9:-1 10:-1 11:-1 12:-1 13:-1 15:-1 16:-1 17:-1 18:-1 19:-0.661112 20:0.672217 21:-0.333328 
32768 1:-0.481636 2:-0.225806 3:-0.2 4:0.396226 5:-0.045045 6:-0.492754 7:-1 8:-1 9:-1 10:-1 11:-1 12:-1 13:-1 15:-1 16:-1 17:-1 18:-1 19:-0.647223 20:0.658328 21:-0.347333 
-18.30785608290293 1:-0.437847 2:-0.419355 3:-0.2 4:0.584906 5:-0.045045 6:-0.15942 7:-1 8:-1 9:-1 10:-1 11:-1 12:-1 13:-1 15:-1 16:-1 17:-1 18:-1 19:-0.666667 20:0.677767 21:-0.327726 
18.39363879924127 1:-1 2:0.354839 3:-1 4:-0.433962 5:-0.045045 6:0.666667 7:-1 8:-1 9:-1 10:-1 11:-1 12:-1 13:-1 15:-1 16:-1 17:-1 18:-1 19:0.400005 20:-0.391667 21:-0.607832 
1.684431346824329 1:0.518983 2:-0.225806 3:-0.2 4:0.396226 5:-0.045045 6:-0.333333 7:-1 8:-1 9:-1 10:-1 11:-1 12:-1 13:-1 15:-1 16:1 17:-1 18:-1 19:0.661117 20:-0.672217 21:0.338941 
5234.195240338565 1:-0.88353 2:-0.225806 3:-0.2 4:0.396226 5:-0.045045 7:-1 8:-1 9:-1 10:-1 11:-1 12:-1 13:-1 15:-1 16:-1 17:-1 18:-1 19:0.6 20:-0.608333 21:0.400571 
-32768 1:-0.88353 2:-0.225806 3:-0.2 4:0.396226 5:-0.045045 7:-1 8:-1 9:-1 10:-1 11:-1 12:-1 13:-1 15:-1 16:-1 17:-1 18:-1 19:0.616667 20:-0.625 21:0.383765 
-32768 1:-0.88353 2:-0.225806 3:-0.2 4:0.396226 5:-0.045045 7:-1 8:-1 9:-1 10:-1 11:-1 12:-1 13:-1 15:-1 16:-1 17:-1 18:-1 19:0.625 20:-0.633333 21:0.375361 
28195.22169364308 1:-0.88353 2:-0.225806 3:-0.2 4:0.396226 5:-0.045045 7:-1 8:-1 9:-1 10:-1 11:-1 12:-1 13:-1 15:-1 16:-1 17:-1 18:-1 19:0.622217 20:-0.63055 21:0.378168 
31905.81987781038 1:-0.88353 2:-0.225806 3:-0.2 4:0.396226 5:-0.045045 7:-1 8:-1 9:-1 10:-1 11:-1 12:-1 13:-1 15:-1 16:-1 17:-1 18:-1 19:0.622217 20:-0.63055 21:0.378168 
511.5784345016085 1:-0.670541 2:-0.806452 3:-0.2 4:1 5:-0.261261 6:-0.15942 7:-1 8:-1 9:-1 10:-1 11:-1 12:-1 13:-1 15:-1 16:-1 17:-1 18:-1 19:0.933333 20:-0.925 21:-0.0672269 
1532.465516600488 1:-0.911994 2:-0.806452 3:-0.2 4:1 5:-0.261261 6:-0.15942 7:-1 8:-1 9:-1 10:-1 11:-1 12:-1 13:-1 15:-1 16:-1 17:-1 18:-1 19:0.933333 20:-0.925 21:-0.0672269 
-2017.143626238403 1:-0.855487 2:-0.806452 3:-0.2 4:1 5:-0.261261 6:-0.15942 7:-1 8:-1 9:-1 10:-1 11:-1 12:-1 13:-1 15:-1 16:-1 17:-1 18:-1 19:0.933333 20:-0.925 21:-0.0672269 
2.293664978085674 1:0.596206 2:0.16129 3:-0.6 4:-0.132075 5:-0.045045 6:0.507246 7:-1 8:-1 9:-1 10:-1 11:-1 12:-1 13:-1 15:-1 16:1 17:-1 18:-1 19:-0.0277783 20:0.0361167 21:-0.97479 
42.0915103526879 1:0.0552667 2:-0.0322581 3:-0.2 4:0.207547 5:-0.261261 6:-0.492754 7:-1 8:-1 9:-1 10:-1 11:-1 12:-1 13:-1 15:-1 16:-1 17:-1 18:-1 19:0.533333 20:-0.55 21:0.464992 
-2.447396385489628 1:-0.294529 2:0.16129 3:-0.2 4:0.0188679 5:-0.387387 6:-0.666667 7:-1 8:-1 9:-1 10:-1 11:-1 12:-1 13:-1 15:-1 16:1 17:-1 18:-1 19:0.680567 20:-0.697233 21:0.316521 
87.04157173468877 1:-0.481636 2:-0.0322581 3:0.2 4:0.396226 5:-0.045045 6:-0.15942 7:-1 8:-1 9:-1 10:-1 11:-1 12:-1 13:-1 15:-1 16:-1 17:-1 18:-1 19:-0.527783 20:0.536117 21:-0.467782 
-9.224957260211829 1:0.174572 2:0.354839 3:0.2 4:0.0188679 5:-0.045045 6:-0.333333 7:-1 8:-1 9:-1 10:-1 11:-1 12:-1 13:-1 15:-1 16:-1 17:-1 18:-1 19:0.302772 20:-0.291667 21:-0.705882 
-16.10793460555028 1:-0.549832 2:-0.612903 3:-0.2 4:0.773585 5:-0.045045 6:-0.826087 7:-1 8:-1 9:-1 10:-1 11:-1 12:-1 13:-1 15:-1 16:1 17:-1 18:-1 19:-0.727777 20:0.719433 21:0.280113 
4.186552165373035 1:-0.200991 2:-0.806452 3:-0.2 4:1 5:-0.045045 6:-0.666667 7:-1 8:-1 9:-1 10:-1 11:-1 12:-1 13:-1 15:-1 16:-1 17:-1 18:-1 19:-0.95 20:0.958333 21:-0.0448185 
-60.36090334593339 1:-0.597032 2:-0.806452 3:-0.2 4:1 5:-0.045045 6:-0.666667 7:-1 8:-1 9:-1 10:-1 11:-1 12:-1 13:-1 15:-1 16:-1 17:-1 18:-1 19:-0.936112 20:0.94445 21:-0.0588235 
36.9263089768109 1:-0.827862 2:0.548387 3:0.2 4:-0.132075 5:-0.261261 7:-1 8:-1 9:-1 10:-1 11:-1 12:-1 13:-1 15:-1 16:-1 17:-1 18:-1 19:-0.011105 20:0.03055 21:-0.983193 
27.63574409598112 1:0.999129 2:0.548387 3:-0.2 4:-0.283019 5:-0.045045 6:0.173913 7:-1 8:-1 9:-1 10:-1 11:-1 12:-1 13:-1 15:-1 16:-1 17:-1 18:-1 19:-0.0444383 20:0.0638833 21:-0.94958 
244.9792708379592 1:0.918883 2:0.354839 3:0.2 4:0.0188679 5:-0.045045 6:-0.492754 7:-1 8:-1 9:-1 10:-1 11:-1 12:-1 13:-1 15:-1 16:-1 17:-1 18:-1 19:-0.0833383 20:0.0916667 21:-0.918756 
-6.241168050833602 1:0.526145 2:-0.612903 3:-0.2 4:0.773585 5:0.63964 6:-0.826087 7:-1 8:-1 9:-1 10:-1 11:-1 12:-1 13:-1 15:-1 16:-1 17:-1 18:-1 19:-0.791667 20:0.783333 21:0.218499 
-7.40944754026333 1:0.553739 2:-0.419355 3:-0.2 4:0.584906 5:0.63964 6:-0.492754 7:-1 8:-1 9:-1 10:-1 11:-1 12:-1 13:-1 15:-1 16:-1 17:-1 18:-1 19:-0.808333 20:0.8 21:0.201692 
-120.3282137249683 1:-0.64567 2:-0.225806 3:0.6 4:0.773585 5:-0.045045 6:-0.15942 7:-1 8:-1 9:-1 10:-1 11:-1 12:-1 13:-1 15:-1 16:-1 17:-1 18:-1 19:0.0555617 20:-0.04445 21:-0.955176 
125.5739577443863 1:-0.597032 2:-0.225806 3:0.6 4:0.773585 5:-0.045045 6:-0.15942 7:-1 8:-1 9:-1 10:-1 11:-1 12:-1 13:-1 15:-1 16:-1 17:-1 18:-1 19:0.0527783 20:-0.0416667 21:-0.957983 
372.8264227244603 1:-0.597032 2:-0.612903 3:-0.2 4:0.773585 5:-0.045045 6:-0.666667 7:-1 8:-1 9:-1 10:-1 11:-1 12:-1 13:-1 15:-1 16:-1 17:-1 18:-1 19:-0.0194433 20:0.0111 21:0.994403 
-4.681463550220951 1:-0.333955 2:-0.612903 3:-0.0222222 4:0.811321 5:-0.0810811 7:-1 8:-1 9:-1 10:-1 11:-1 12:1 13:-1 15:-1 16:-1 17:-1 18:-1 19:0.34445 20:-0.352783 21:0.658269 
-160.8652365789486 1:-0.165496 2:-0.612903 3:-0.2 4:0.773585 5:-0.045045 6:-0.666667 7:-1 8:-1 9:-1 10:-1 11:-1 12:-1 13:-1 15:-1 16:-1 17:-1 18:-1 19:-0.0194433 20:0.0111 21:0.994403 
-237.1819010742564 1:-0.64567 2:-0.612903 3:-0.2 4:0.773585 5:-0.045045 6:-0.666667 7:-1 8:-1 9:-1 10:-1 11:-1 12:-1 13:-1 15:-1 16:-1 17:-1 18:-1 19:-0.0194433 20:0.0111 21:0.994403 
246.9459059425105 1:-0.237566 2:0.16129 3:0.2 4:0.207547 5:-0.045045 6:0.173913 7:-1 8:-1 9:-1 10:-1 11:-1 12:-1 13:-1 15:-1 16:-1 17:-1 18:-1 19:-0.183328 20:0.20555 21:-0.809529 
32768 1:-0.800648 2:-0.0322581 3:0.2 4:0.396226 5:-0.045045 6:-0.333333 7:-1 8:-1 9:-1 10:-1 11:-1 12:-1 13:-1 15:-1 16:-1 17:-1 18:-1 19:0.688883 20:-0.7 21:0.310924 
-32768 1:-0.855487 2:-0.0322581 3:0.2 4:0.396226 5:-0.045045 6:-0.333333 7:-1 8:-1 9:-1 10:-1 11:-1 12:-1 13:-1 15:-1 16:-1 17:-1 18:-1 19:0.7 20:-0.711117 21:0.299714 
32768 1:-0.911994 2:-0.0322581 3:0.2 4:0.396226 5:-0.045045 6:-0.333333 7:-1 8:-1 9:-1 10:-1 11:-1 12:-1 13:-1 15:-1 16:-1 17:-1 18:-1 19:0.691667 20:-0.702783 21:0.308118 
-14653.42422402579 1:-0.855487 2:-0.0322581 3:0.2 4:0.396226 5:-0.045045 6:-0.333333 7:-1 8:-1 9:-1 10:-1 11:-1 12:-1 13:-1 15:-1 16:-1 17:-1 18:-1 19:0.691667 20:-0.702783 21:0.308118 
15573.89729503893 1:-0.94089 2:-0.0322581 3:0.2 4:0.396226 5:-0.045045 6:-0.333333 7:-1 8:-1 9:-1 10:-1 11:-1 12:-1 13:-1 15:-1 16:-1 17:-1 18:-1 19:0.675 20:-0.686117 21:0.324924 
32768 1:-0.911994 2:-0.0322581 3:0.2 4:0.396226 5:-0.045045 6:-0.333333 7:-1 8:-1 9:-1 10:-1 11:-1 12:-1 13:-1 15:-1 16:-1 17:-1 18:-1 19:0.702767 20:-0.713883 21:0.296924 
-15631.4408837272 1:-0.88353 2:-0.419355 3:0.6 4:1 5:-0.261261 6:-0.666667 7:-1 8:-1 9:-1 10:-1 11:-1 12:-1 13:-1 15:-1 16:-1 17:-1 18:-1 19:-0.994445 20:0.983333 21:0.0140168 
-32768 1:-0.911994 2:-0.0322581 3:0.2 4:0.396226 5:-0.045045 6:-0.333333 7:-1 8:-1 9:-1 10:-1 11:-1 12:-1 13:-1 15:-1 16:-1 17:-1 18:-1 19:0.691667 20:-0.702783 21:0.308118 
-32768 1:-0.911994 2:-0.0322581 3:0.2 4:0.396226 5:-0.045045 6:-0.333333 7:-1 8:-1 9:-1 10:-1 11:-1 12:-1 13:-1 15:-1 16:-1 17:-1 18:-1 19:0.688883 20:-0.7 21:0.310924 
307.8438174324739 1:-0.88353 2:-0.419355 3:0.6 4:1 5:-0.261261 6:-0.666667 7:-1 8:-1 9:-1 10:-1 11:-1 12:-1 13:-1 15:-1 16:-1 17:-1 18:-1 19:-0.98611 20:0.997217 21:-0.0055916 
32768 1:-0.911994 2:-0.0322581 3:0.2 4:0.396226 5:-0.045045 6:-0.333333 7:-1 8:-1 9:-1 10:-1 11:-1 12:-1 13:-1 15:-1 16:-1 17:-1 18:-1 19:0.691667 20:-0.702783 21:0.308118 
382.9140236593945 1:-0.94089 2:-0.0322581 3:0.2 4:0.396226 5:-0.045045 6:-0.492754 7:-1 8:-1 9:-1 10:-1 11:-1 12:-1 13:-1 15:-1 16:-1 17:-1 18:-1 19:0.669433 20:-0.68055 21:0.330538 
-32768 1:-0.911994 2:-0.0322581 3:0.2 4:0.396226 5:-0.045045 6:-0.333333 7:-1 8:-1 9:-1 10:-1 11:-1 12:-1 13:-1 15:-1 16:-1 17:-1 18:-1 19:0.691667 20:-0.702783 21:0.308118 
-32768 1:-0.911994 2:-0.0322581 3:0.2 4:0.396226 5:-0.045045 6:-0.333333 7:-1 8:-1 9:-1 10:-1 11:-1 12:-1 13:-1 15:-1 16:-1 17:-1 18:-1 19:0.688883 20:-0.7 21:0.310924 
32768 1:-0.911994 2:-0.0322581 3:0.2 4:0.396226 5:-0.045045 6:-0.333333 7:-1 8:-1 9:-1 10:-1 11:-1 12:-1 13:-1 15:-1 16:-1 17:-1 18:-1 19:0.691667 20:-0.702783 21:0.308118 
15379.60218166835 1:-0.88353 2:-0.419355 3:0.6 4:1 5:-0.261261 6:-0.666667 7:-1 8:-1 9:-1 10:-1 11:-1 12:-1 13:-1 15:-1 16:-1 17:-1 18:-1 19:-1 20:0.988883 21:0.00841513 
-618.0652370251005 1:-0.800648 2:-0.419355 3:0.6 4:1 5:-0.261261 6:-0.666667 7:-1 8:-1 9:-1 10:-1 11:-1 12:-1 13:-1 15:-1 16:-1 17:-1 18:-1 19:-0.988888 20:1 21:-0.00278992 
-2212.162259455606 1:-0.395353 2:-0.0322581 3:0.2 4:0.396226 5:-0.045045 6:-0.333333 7:-1 8:-1 9:-1 10:-1 11:-1 12:-1 13:-1 15:-1 16:-1 17:-1 18:-1 19:0.691667 20:-0.702783 21:0.308118 
-29143.52333109784 1:-0.597032 2:-0.419355 3:0.2 4:0.773585 5:-0.153153 6:-0.666667 7:-1 8:-1 9:-1 10:-1 11:-1 12:1 13:-1 15:-1 16:-1 17:-1 18:-1 19:-0.630557 20:0.61945 21:0.380963 
-644.1255629898128 1:-0.64567 2:-0.419355 3:0.6 4:1 5:-0.261261 6:-0.666667 7:-1 8:-1 9:-1 10:-1 11:-1 12:-1 13:-1 15:-1 16:-1 17:-1 18:-1 19:-0.75 20:0.738883 21:0.260516 
-30557.01598143947 1:-0.670541 2:-0.419355 3:0.2 4:0.773585 5:-0.153153 6:-0.666667 7:-1 8:-1 9:-1 10:-1 11:-1 12:1 13:-1 15:-1 16:-1 17:-1 18:-1 19:-0.630557 20:0.61945 21:0.380963 
3316.408049268914 1:-0.827862 2:-0.419355 3:0.6 4:1 5:-0.261261 6:-0.666667 7:-1 8:-1 9:-1 10:-1 11:-1 12:-1 13:-1 15:-1 16:-1 17:-1 18:-1 19:-0.752778 20:0.741667 21:0.257714 
32768 1:-0.621169 2:-0.419355 3:0.2 4:0.773585 5:-0.153153 6:-0.666667 7:-1 8:-1 9:-1 10:-1 11:-1 12:1 13:-1 15:-1 16:-1 17:-1 18:-1 19:-0.625 20:0.613883 21:0.386566 
-32768 1:-0.64567 2:-0.419355 3:0.2 4:0.773585 5:-0.153153 6:-0.666667 7:-1 8:-1 9:-1 10:-1 11:-1 12:1 13:-1 15:-1 16:-1 17:-1 18:-1 19:-0.616667 20:0.60555 21:0.39497 
32768 1:-0.670541 2:-0.419355 3:0.2 4:0.773585 5:-0.153153 6:-0.666667 7:-1 8:-1 9:-1 10:-1 11:-1 12:1 13:-1 15:-1 16:-1 17:-1 18:-1 19:-0.633333 20:0.622217 21:0.378163 
32768 1:-0.800648 2:-0.419355 3:0.6 4:1 5:-0.261261 6:-0.666667 7:-1 8:-1 9:-1 10:-1 11:-1 12:-1 13:-1 15:-1 16:-1 17:-1 18:-1 19:-0.755557 20:0.74445 21:0.254913 
-32768 1:-0.800648 2:-0.419355 3:0.6 4:1 5:-0.261261 6:-0.666667 7:-1 8:-1 9:-1 10:-1 11:-1 12:-1 13:-1 15:-1 16:-1 17:-1 18:-1 19:-0.758333 20:0.747217 21:0.252113 
-17229.66608363054 1:-0.773841 2:-0.419355 3:0.6 4:1 5:-0.261261 6:-0.666667 7:-1 8:-1 9:-1 10:-1 11:-1 12:-1 13:-1 15:-1 16:-1 17:-1 18:-1 19:-0.75 20:0.738883 21:0.260516 
3298.089945510129 1:-0.695788 2:-0.419355 3:0.6 4:1 5:-0.261261 6:-0.666667 7:-1 8:-1 9:-1 10:-1 11:-1 12:-1 13:-1 15:-1 16:-1 17:-1 18:-1 19:-0.75 20:0.738883 21:0.260516 
11874.88052863222 1:-0.773841 2:-0.419355 3:0.6 4:1 5:-0.261261 6:-0.666667 7:-1 8:-1 9:-1 10:-1 11:-1 12:-1 13:-1 15:-1 16:-1 17:-1 18:-1 19:-0.766667 20:0.75555 21:0.243709 
26870.36796388401 1:-0.621169 2:-0.419355 3:0.2 4:0.773585 5:-0.153153 6:-0.666667 7:-1 8:-1 9:-1 10:-1 11:-1 12:1 13:-1 15:-1 16:-1 17:-1 18:-1 19:-0.616667 20:0.60555 21:0.39497 
-23.83459184241656 1:0.891048 2:0.16129 3:0.6 4:0.396226 5:-0.045045 7:-1 8:-1 9:-1 10:-1 11:-1 12:-1 13:-1 15:-1 16:-1 17:-1 18:-1 19:0.522217 20:-0.55 21:0.470588 
1.334066040249247 1:0.788145 2:-0.806452 3:-0.2 4:1 5:-0.261261 6:-0.492754 7:-1 8:-1 9:-1 10:-1 11:-1 12:1 13:-1 15:-1 16:-1 17:-1 18:-1 19:0.216667 20:-0.225 21:0.789916 
-1.432314773382022 1:-0.911994 2:-0.612903 3:0.2 4:1 5:-0.387387 6:-0.333333 7:-1 8:-1 9:-1 10:1 11:-1 12:-1 13:-1 15:-1 16:-1 17:-1 18:-1 19:-0.458328 20:0.466667 21:-0.537815 
10.28724202252416 1:0.441137 2:0.548387 3:0.2 4:-0.132075 5:-0.045045 6:0.666667 7:-1 8:-1 9:-1 10:-1 11:-1 12:-1 13:-1 15:-1 16:-1 17:-1 18:-1 19:0.63055 20:-0.622217 21:-0.372555 
-5.459664440969001 1:-0.374578 2:-0.0322581 3:-0.6 4:0.0188679 5:-0.387387 6:0.173913 7:-1 8:-1 9:-1 10:-1 11:-1 12:1 13:-1 15:-1 16:-1 17:-1 18:-1 19:0.474995 20:-0.4611 21:-0.535008 
-34.71536365783355 1:0.0117827 2:-0.419355 3:-0.2 4:0.584906 5:-0.495495 6:-0.492754 7:-1 8:-1 9:-1 10:-1 11:-1 12:1 13:-1 15:-1 16:-1 17:-1 18:-1 19:0.527778 20:-0.513883 21:-0.481782 
39.28990972648842 1:-0.0493244 2:-0.419355 3:-0.2 4:0.584906 5:-0.495495 6:-0.492754 7:-1 8:-1 9:-1 10:-1 11:-1 12:1 13:-1 15:-1 16:-1 17:-1 18:-1 19:0.533328 20:-0.519433 21:-0.476185 
7.80116254581309 1:-0.200991 2:-0.0322581 3:-0.6 4:0.0188679 5:-0.387387 6:0.173913 7:-1 8:-1 9:-1 10:-1 11:-1 12:1 13:-1 15:-1 16:-1 17:-1 18:-1 19:0.483328 20:-0.469433 21:-0.526605 
1.685932376498038 1:-0.481636 2:-0.419355 3:-0.2 4:0.584906 5:-0.495495 6:-0.492754 7:-1 8:-1 9:-1 10:-1 11:-1 12:1 13:-1 15:-1 16:-1 17:-1 18:-1 19:0.486112 20:-0.472217 21:-0.523798 
11.29575496576886 1:-0.597032 2:-0.612903 3:0.2 4:1 5:-0.153153 6:-0.666667 7:-1 8:-1 9:-1 10:-1 11:-1 12:-1 13:-1 15:-1 16:-1 17:-1 18:-1 19:-0.763888 20:0.752783 21:0.246504 
4.864744923083967 1:-0.0337017 2:0.569892 3:0.2 4:-0.433962 5:0.63964 6:0.507246 7:-1 8:-1 9:-1 10:-1 11:-1 12:-1 13:-1 15:-1 16:-1 17:1 18:-1 19:0.588888 20:-0.577783 21:-0.417361 
-176.8442563703854 1:-0.64567 2:0.16129 3:-0.2 4:0.0188679 5:-0.045045 6:0.333333 7:-1 8:-1 9:-1 10:-1 11:-1 12:-1 13:-1 15:-1 16:-1 17:-1 18:-1 19:0.936117 20:-0.947217 21:0.0616303 
109.9810674729201 1:-0.64567 2:0.16129 3:-0.2 4:0.0188679 5:-0.045045 6:-0.15942 7:-1 8:-1 9:-1 10:-1 11:-1 12:-1 13:-1 15:-1 16:-1 17:-1 18:-1 19:0.649995 20:-0.6361 21:-0.355748 
2568.854955965397 1:-0.695788 2:-0.0322581 3:-0.2 4:0.207547 5:-0.045045 6:-0.492754 7:-1 8:-1 9:-1 10:-1 11:-1 12:-1 13:-1 15:-1 16:-1 17:-1 18:-1 19:-0.61111 20:0.622222 21:-0.383743 
-2704.282933197846 1:-0.670541 2:-0.0322581 3:-0.2 4:0.207547 5:-0.045045 6:-0.492754 7:-1 8:-1 9:-1 10:-1 11:-1 12:-1 13:-1 15:-1 16:-1 17:-1 18:-1 19:-0.602777 20:0.613888 21:-0.392146 
32768 1:0.978438 2:-0.225806 3:0.2 4:0.584906 5:-0.261261 6:-0.666667 7:-1 8:-1 9:-1 10:-1 11:-1 12:-1 13:-1 15:-1 16:-1 17:-1 18:-1 19:0.138888 20:-0.152783 21:0.862756 
-32768 1:0.897394 2:-0.225806 3:0.2 4:0.584906 5:-0.261261 6:-0.666667 7:-1 8:-1 9:-1 10:-1 11:-1 12:-1 13:-1 15:-1 16:-1 17:-1 18:-1 19:0.138888 20:-0.152783 21:0.862756 
32768 1:0.432691 2:-0.225806 3:0.2 4:0.584906 5:-0.261261 6:-0.666667 7:-1 8:-1 9:-1 10:-1 11:-1 12:-1 13:-1 15:-1 16:-1 17:-1 18:-1 19:0.138888 20:-0.152783 21:0.862756 
-10.92191165277578 1:-0.0183133 2:0.16129 3:-0.2 4:0.0188679 5:-0.045045 6:0.333333 7:-1 8:-1 9:-1 10:-1 11:-1 12:-1 13:-1 15:-1 16:-1 17:-1 18:-1 19:0.969433 20:-0.95555 21:-0.0364202 
-32768 1:0.990115 2:-0.225806 3:0.2 4:0.584906 5:-0.261261 6:-0.666667 7:-1 8:-1 9:-1 10:-1 11:-1 12:-1 13:-1 15:-1 16:-1 17:-1 18:-1 19:0.138888 20:-0.152783 21:0.862756 
-1747.143624660677 1:0.727973 2:-0.225806 3:0.2 4:0.584906 5:-0.261261 6:-0.666667 7:-1 8:-1 9:-1 10:-1 11:-1 12:-1 13:-1 15:-1 16:-1 17:-1 18:-1 19:0.138888 20:-0.152783 21:0.862756 
-32768 1:0.530859 2:-0.225806 3:0.2 4:0.584906 5:-0.261261 6:-0.666667 7:-1 8:-1 9:-1 10:-1 11:-1 12:-1 13:-1 15:-1 16:-1 17:-1 18:-1 19:0.138888 20:-0.152783 21:0.862756 
32768 1:0.894268 2:-0.225806 3:0.2 4:0.584906 5:-0.261261 6:-0.666667 7:-1 8:-1 9:-1 10:-1 11:-1 12:-1 13:-1 15:-1 16:-1 17:-1 18:-1 19:0.138888 20:-0.152783 21:0.862756 
-32768 1:0.921672 2:-0.225806 3:0.2 4:0.584906 5:-0.261261 6:-0.666667 7:-1 8:-1 9:-1 10:-1 11:-1 12:-1 13:-1 15:-1 16:-1 17:-1 18:-1 19:0.138888 20:-0.152783 21:0.862756 
-27716.72125684409 1:0.961297 2:-0.225806 3:0.2 4:0.584906 5:-0.261261 6:-0.666667 7:-1 8:-1 9:-1 10:-1 11:-1 12:-1 13:-1 15:-1 16:-1 17:-1 18:-1 19:0.138888 20:-0.152783 21:0.862756 
-32768 1:0.906224 2:-0.225806 3:0.2 4:0.584906 5:-0.261261 6:-0.666667 7:-1 8:-1 9:-1 10:-1 11:-1 12:-1 13:-1 15:-1 16:-1 17:-1 18:-1 19:0.138888 20:-0.152783 21:0.862756 
-32768 1:0.853664 2:-0.225806 3:0.2 4:0.584906 5:-0.261261 6:-0.666667 7:-1 8:-1 9:-1 10:-1 11:-1 12:-1 13:-1 15:-1 16:-1 17:-1 18:-1 19:0.138888 20:-0.152783 21:0.862756 
32768 1:0.942838 2:-0.225806 3:0.2 4:0.584906 5:-0.261261 6:-0.666667 7:-1 8:-1 9:-1 10:-1 11:-1 12:-1 13:-1 15:-1 16:-1 17:-1 18:-1 19:0.138888 20:-0.152783 21:0.862756 
32768 1:0.98199 2:-0.225806 3:0.2 4:0.584906 5:-0.261261 6:-0.666667 7:-1 8:-1 9:-1 10:-1 11:-1 12:-1 13:-1 15:-1 16:-1 17:-1 18:-1 19:0.138888 20:-0.152783 21:0.862756 
32768 1:0.732023 2:-0.225806 3:0.2 4:0.584906 5:-0.261261 6:-0.666667 7:-1 8:-1 9:-1 10:-1 11:-1 12:-1 13:-1 15:-1 16:-1 17:-1 18:-1 19:0.138888 20:-0.152783 21:0.862756 
32768 1:0.904807 2:-0.225806 3:0.2 4:0.584906 5:-0.261261 6:-0.666667 7:-1 8:-1 9:-1 10:-1 11:-1 12:-1 13:-1 15:-1 16:-1 17:-1 18:-1 19:0.138888 20:-0.152783 21:0.862756 
-22875.1163146633 1:0.994735 2:-0.225806 3:0.2 4:0.584906 5:-0.261261 6:-0.666667 7:-1 8:-1 9:-1 10:-1 11:-1 12:-1 13:-1 15:-1 16:-1 17:-1 18:-1 19:0.138888 20:-0.152783 21:0.862756 
-20560.44052314973 1:0.300124 2:-0.225806 3:0.2 4:0.584906 5:-0.261261 6:-0.666667 7:-1 8:-1 9:-1 10:-1 11:-1 12:-1 13:-1 15:-1 16:-1 17:-1 18:-1 19:0.138888 20:-0.152783 21:0.862756 
32768 1:0.944527 2:-0.225806 3:0.2 4:0.584906 5:-0.261261 6:-0.666667 7:-1 8:-1 9:-1 10:-1 11:-1 12:-1 13:-1 15:-1 16:-1 17:-1 18:-1 19:0.138888 20:-0.152783 21:0.862756 
-19.07054751425155 1:-0.695788 2:-0.612903 3:0.2 4:1 5:-0.495495 6:-0.826087 7:-1 8:-1 9:-1 10:-1 11:-1 12:-1 13:-1 15:-1 16:-1 17:-1 18:-1 19:-0.783333 20:0.772217 21:0.226903 
32768 1:0.632803 2:-0.225806 3:0.2 4:0.584906 5:-0.261261 6:-0.666667 7:-1 8:-1 9:-1 10:-1 11:-1 12:-1 13:-1 15:-1 16:-1 17:-1 18:-1 19:0.138888 20:-0.152783 21:0.862756 
7495.438445035945 1:0.186862 2:-0.225806 3:0.2 4:0.584906 5:-0.261261 6:-0.666667 7:-1 8:-1 9:-1 10:-1 11:-1 12:-1 13:-1 15:-1 16:-1 17:-1 18:-1 19:0.138888 20:-0.152783 21:0.862756 
-5.198327577069003 1:-0.41644 2:-0.806452 3:-0.6 4:0.773585 5:-0.045045 6:-0.333333 7:-1 8:-1 9:-1 10:-1 11:-1 12:-1 13:-1 15:-1 16:-1 17:-1 18:-1 19:-0.075 20:0.0444333 21:0.952387 
-12356.16613076276 1:0.174572 2:-0.0322581 3:0.2 4:0.396226 5:-0.045045 6:-0.15942 7:-1 8:-1 9:-1 10:-1 11:-1 12:-1 13:-1 15:-1 16:-1 17:-1 18:-1 19:0.138888 20:-0.15555 21:0.862756 
-32633.68876371531 1:0.945352 2:-0.0322581 3:0.2 4:0.396226 5:-0.045045 6:-0.15942 7:-1 8:-1 9:-1 10:-1 11:-1 12:-1 13:-1 15:-1 16:-1 17:-1 18:-1 19:0.138888 20:-0.15555 21:0.862756 
-32768 1:0.848452 2:-0.0322581 3:0.2 4:0.396226 5:-0.045045 6:-0.15942 7:-1 8:-1 9:-1 10:-1 11:-1 12:-1 13:-1 15:-1 16:-1 17:-1 18:-1 19:0.138888 20:-0.15555 21:0.862756 
32768 1:0.300124 2:-0.0322581 3:0.2 4:0.396226 5:-0.045045 6:-0.15942 7:-1 8:-1 9:-1 10:-1 11:-1 12:-1 13:-1 15:-1 16:-1 17:-1 18:-1 19:0.138888 20:-0.15555 21:0.862756 
8697.046631896548 1:-0.0183133 2:-0.0322581 3:0.2 4:0.396226 5:-0.045045 6:-0.15942 7:-1 8:-1 9:-1 10:-1 11:-1 12:-1 13:-1 15:-1 16:-1 17:-1 18:-1 19:0.138888 20:-0.15555 21:0.862756 
32768 1:0.966184 2:-0.0322581 3:0.2 4:0.396226 5:-0.045045 6:-0.15942 7:-1 8:-1 9:-1 10:-1 11:-1 12:-1 13:-1 15:-1 16:-1 17:-1 18:-1 19:0.138888 20:-0.15555 21:0.862756 
10583.46472647486 1:0.758732 2:-0.0322581 3:0.2 4:0.396226 5:-0.045045 6:-0.15942 7:-1 8:-1 9:-1 10:-1 11:-1 12:-1 13:-1 15:-1 16:-1 17:-1 18:-1 19:0.138888 20:-0.15555 21:0.862756 
-32768 1:0.424118 2:-0.0322581 3:0.2 4:0.396226 5:-0.045045 6:-0.15942 7:-1 8:-1 9:-1 10:-1 11:-1 12:-1 13:-1 15:-1 16:-1 17:-1 18:-1 19:0.138888 20:-0.15555 21:0.862756 
32768 1:0.789202 2:-0.0322581 3:0.2 4:0.396226 5:-0.045045 6:-0.15942 7:-1 8:-1 9:-1 10:-1 11:-1 12:-1 13:-1 15:-1 16:-1 17:-1 18:-1 19:0.138888 20:-0.15555 21:0.862756 
32768 1:0.360362 2:-0.0322581 3:0.2 4:0.396226 5:-0.045045 6:-0.15942 7:-1 8:-1 9:-1 10:-1 11:-1 12:-1 13:-1 15:-1 16:-1 17:-1 18:-1 19:0.138888 20:-0.15555 21:0.862756 
-17773.81240375877 1:0.123531 2:-0.0322581 3:0.2 4:0.396226 5:-0.045045 6:-0.15942 7:-1 8:-1 9:-1 10:-1 11:-1 12:-1 13:-1 15:-1 16:-1 17:-1 18:-1 19:0.138888 20:-0.15555 21:0.862756 
-32768 1:0.886035 2:-0.0322581 3:0.2 4:0.396226 5:-0.045045 6:-0.15942 7:-1 8:-1 9:-1 10:-1 11:-1 12:-1 13:-1 15:-1 16:-1 17:-1 18:-1 19:0.138888 20:-0.15555 21:0.862756 
32768 1:0.882562 2:-0.0322581 3:0.2 4:0.396226 5:-0.045045 6:-0.15942 7:-1 8:-1 9:-1 10:-1 11:-1 12:-1 13:-1 15:-1 16:-1 17:-1 18:-1 19:0.138888 20:-0.15555 21:0.862756 
-21765.13692765597 1:0.465729 2:-0.0322581 3:0.2 4:0.396226 5:-0.045045 6:-0.15942 7:-1 8:-1 9:-1 10:-1 11:-1 12:-1 13:-1 15:-1 16:-1 17:-1 18:-1 19:0.138888 20:-0.15555 21:0.862756 
-147.9169500074683 1:0.49432 2:0.16129 3:0.2 4:0.207547 5:-0.045045 6:0.173913 7:-1 8:-1 9:-1 10:-1 11:-1 12:-1 13:-1 15:-1 16:-1 17:-1 18:-1 19:0.875 20:-0.866667 21:-0.12884 
6.570735583551691 1:0.210892 2:-0.225806 3:-0.2 4:0.396226 5:-0.603604 6:0.507246 7:-1 8:-1 9:1 10:-1 11:1 12:-1 13:-1 15:-1 16:-1 17:-1 18:-1 19:0.322228 20:-0.308333 21:-0.689059 
6637.721329346114 1:-0.573255 2:0.548387 3:-0.6 4:-0.433962 5:-0.045045 6:0.173913 7:-1 8:-1 9:-1 10:-1 11:-1 12:-1 13:-1 15:-1 16:-1 17:-1 18:-1 19:0.0222283 20:-0.00833333 21:-0.99158 
4224.834497948503 1:-0.333955 2:0.548387 3:-0.6 4:-0.433962 5:-0.045045 6:0.173913 7:-1 8:-1 9:-1 10:-1 11:-1 12:-1 13:-1 15:-1 16:-1 17:-1 18:-1 19:-0.011105 20:0.025 21:-0.986 
-6882.821101964522 1:-0.374578 2:0.548387 3:-0.6 4:-0.433962 5:-0.045045 6:0.173913 7:-1 8:-1 9:-1 10:-1 11:-1 12:-1 13:-1 15:-1 16:-1 17:-1 18:-1 19:0.019445 20:-0.00555 21:-0.994387 
-13572.73652207721 1:-0.549832 2:0.548387 3:-0.6 4:-0.433962 5:-0.045045 6:0.173913 7:-1 8:-1 9:-1 10:-1 11:-1 12:-1 13:-1 15:-1 16:-1 17:-1 18:-1 19:-0.005555 20:0.01945 21:-0.991597 
9702.773052029735 1:-0.504029 2:0.548387 3:-0.6 4:-0.433962 5:-0.045045 6:0.173913 7:-1 8:-1 9:-1 10:-1 11:-1 12:-1 13:-1 15:-1 16:-1 17:-1 18:-1 19:-0.00277167 20:0.0166667 21:-0.994403 
0.5910659922833346 1:-0.526758 2:0.548387 3:-0.6 4:-0.433962 5:-0.045045 6:0.507246 7:-1 8:-1 9:-1 10:-1 11:-1 12:-1 13:-1 15:-1 16:-1 17:-1 18:-1 19:-0.0222217 20:0.0361167 21:-0.97479 
-32.05838232764884 1:-0.721416 2:0.16129 3:-0.2 4:0.0188679 5:-0.387387 6:-0.333333 7:-1 8:-1 9:-1 10:-1 11:-1 12:-1 13:-1 15:-1 16:-1 17:-1 18:-1 19:0.975 20:-0.991667 21:0.0196134 
-4730.928440078624 1:-0.911994 2:-0.0322581 3:-0.2 4:0.207547 5:-0.045045 6:-0.492754 7:-1 8:-1 9:-1 10:-1 11:-1 12:-1 13:-1 15:-1 16:-1 17:-1 18:-1 19:0.458333 20:-0.475 21:0.540622 
28.61874917395849 1:-0.88353 2:0.0322581 3:-0.244444 4:-0.0566038 5:0.63964 6:-0.333333 7:-1 8:-1 9:-1 10:-1 11:-1 12:-1 13:-1 15:-1 16:-1 17:1 18:-1 19:0.3139 20:-0.330567 21:0.686269 
-39.83739205928837 1:-1 2:0.0322581 3:-0.244444 4:-0.0566038 5:0.63964 6:-0.333333 7:-1 8:-1 9:-1 10:-1 11:-1 12:-1 13:-1 15:-1 16:-1 17:1 18:-1 19:0.3139 20:-0.330567 21:0.686269 
10.51956560220633 1:-0.970224 2:-0.0322581 3:-0.2 4:0.207547 5:-0.045045 6:-0.492754 7:-1 8:-1 9:-1 10:-1 11:-1 12:-1 13:-1 15:-1 16:-1 17:-1 18:-1 19:0.461117 20:-0.477783 21:0.537815 
-68.229546095339 1:0.465729 2:0.741935 3:-0.2 4:-0.433962 5:-0.045045 7:-1 8:-1 9:-1 10:-1 11:-1 12:-1 13:-1 15:-1 16:-1 17:-1 18:-1 19:-0.086105 20:0.102767 21:-0.91037 
74.57564294530771 1:0.186862 2:0.16129 3:0.2 4:0.207547 5:-0.045045 6:-0.15942 7:-1 8:-1 9:-1 10:-1 11:-1 12:-1 13:-1 15:-1 16:-1 17:-1 18:-1 19:0.46945 20:-0.502783 21:0.521008 
30129.32128088073 1:0.986389 2:0.16129 3:0.2 4:0.207547 5:-0.045045 6:-0.15942 7:-1 8:-1 9:-1 10:-1 11:-1 12:1 13:-1 15:-1 16:-1 17:-1 18:-1 19:0.069445 20:-0.0361167 21:-0.95237 
-32768 1:0.980295 2:0.16129 3:0.2 4:0.207547 5:-0.045045 6:-0.15942 7:-1 8:-1 9:-1 10:-1 11:-1 12:1 13:-1 15:-1 16:-1 17:-1 18:-1 19:0.069445 20:-0.0361167 21:-0.95237 
-12.39836101153811 1:0.99996 2:0.16129 3:0.2 4:0.207547 5:-0.045045 6:0.173913 7:-1 8:-1 9:-1 10:-1 11:-1 12:-1 13:-1 15:-1 16:-1 17:-1 18:-1 19:0.752783 20:-0.783333 21:0.235294 
-105.1918953189685 1:-0.0337017 2:0.354839 3:0.2 4:0.0188679 5:-0.045045 6:-0.492754 7:-1 8:-1 9:-1 10:-1 11:-1 12:-1 13:-1 15:-1 16:1 17:-1 18:-1 19:0.322228 20:-0.3 21:-0.691866 
-915.5475494179608 1:-0.165496 2:0.354839 3:0.2 4:0.0188679 5:-0.045045 6:-0.492754 7:-1 8:-1 9:-1 10:-1 11:-1 12:-1 13:-1 15:-1 16:1 17:-1 18:-1 19:0.322228 20:-0.3 21:-0.691866 
964.3265416939237 1:-0.131052 2:0.354839 3:0.2 4:0.0188679 5:-0.045045 6:-0.492754 7:-1 8:-1 9:-1 10:-1 11:-1 12:-1 13:-1 15:-1 16:1 17:-1 18:-1 19:0.319445 20:-0.297217 21:-0.694672 
19.73002520006821 1:0.923986 2:-0.225806 3:-0.2 4:0.396226 5:-0.045045 6:-0.666667 7:-1 8:-1 9:-1 10:-1 11:-1 12:-1 13:-1 15:-1 16:-1 17:-1 18:-1 19:0.491667 20:-0.511117 21:0.504202 
4042.057242449765 1:-0.773841 2:-0.0322581 3:0.2 4:0.396226 5:-0.045045 6:0.173913 7:-1 8:-1 9:-1 10:-1 11:-1 12:-1 13:-1 15:-1 16:-1 17:-1 18:-1 19:0.797217 20:-0.786117 21:-0.207277 
-32768 1:-0.773841 2:-0.0322581 3:0.2 4:0.396226 5:-0.045045 6:0.173913 7:-1 8:-1 9:-1 10:-1 11:-1 12:-1 13:-1 15:-1 16:-1 17:-1 18:-1 19:0.766667 20:-0.755567 21:-0.238084 
29471.5273524395 1:-0.773841 2:-0.0322581 3:0.2 4:0.396226 5:-0.045045 6:0.173913 7:-1 8:-1 9:-1 10:-1 11:-1 12:-1 13:-1 15:-1 16:-1 17:-1 18:-1 19:0.763883 20:-0.752783 21:-0.240891 
-85.29691930351468 1:-0.219143 2:-0.225806 3:-0.6 4:0.207547 5:-0.261261 6:-0.492754 7:-1 8:-1 9:-1 10:-1 11:-1 12:-1 13:-1 15:-1 16:-1 17:-1 18:-1 19:0.883333 20:-0.8611 21:-0.12605 
75.75295650572379 1:-0.354113 2:-0.225806 3:-0.6 4:0.207547 5:-0.261261 6:-0.492754 7:-1 8:-1 9:-1 10:-1 11:-1 12:-1 13:-1 15:-1 16:-1 17:-1 18:-1 19:0.91945 20:-0.897217 21:-0.0896303 
9.983557048871353 1:-0.459577 2:-0.225806 3:0.2 4:0.584906 5:-0.045045 6:-0.492754 7:-1 8:-1 9:-1 10:-1 11:-1 12:1 13:-1 15:-1 16:-1 17:-1 18:-1 19:0.161105 20:-0.1361 21:-0.857143 
605.5812621670241 1:-0.827862 2:0.741935 3:-0.6 4:-0.54717 5:-0.045045 6:0.173913 7:-1 8:-1 9:-1 10:-1 11:-1 12:-1 13:-1 15:-1 16:-1 17:-1 18:-1 19:0.316662 20:-0.288883 21:-0.700286 
-756.3434655491702 1:-0.800648 2:0.741935 3:-0.6 4:-0.54717 5:-0.045045 6:0.173913 7:-1 8:-1 9:-1 10:-1 11:-1 12:-1 13:-1 15:-1 16:-1 17:-1 18:-1 19:0.305562 20:-0.277783 21:-0.711479 
44.62283530420235 1:-0.41644 2:0.741935 3:-0.6 4:-0.54717 5:-0.045045 6:0.173913 7:-1 8:-1 9:-1 10:-1 11:-1 12:-1 13:-1 15:-1 16:-1 17:-1 18:-1 19:0.311112 20:-0.283333 21:-0.705882 
1485.392185591938 1:-0.64567 2:-0.182796 3:-0.0222222 4:0.320755 5:0.459459 6:0.173913 7:-1 8:-1 9:-1 10:-1 11:-1 12:-1 13:-1 15:-1 16:-1 17:1 18:-1 19:0.391667 20:-0.41945 21:0.602252 
-5921.086554273193 1:-0.721416 2:-0.182796 3:-0.0222222 4:0.320755 5:0.459459 6:0.173913 7:-1 8:-1 9:-1 10:-1 11:-1 12:-1 13:-1 15:-1 16:-1 17:1 18:-1 19:0.377783 20:-0.405567 21:0.616252 
4470.530254451985 1:-0.747432 2:-0.182796 3:-0.0222222 4:0.320755 5:0.459459 6:0.173913 7:-1 8:-1 9:-1 10:-1 11:-1 12:-1 13:-1 15:-1 16:-1 17:1 18:-1 19:0.375 20:-0.402783 21:0.619059 
-79.29355053380488 1:0.198968 2:0.354839 3:0.6 4:0.207547 5:-0.045045 6:-0.15942 7:-1 8:-1 9:-1 10:-1 11:-1 12:-1 13:-1 15:-1 16:-1 17:-1 18:-1 19:-0.538888 20:0.56945 21:-0.448168 
99.9127436089254 1:0.0117827 2:0.354839 3:0.6 4:0.207547 5:-0.045045 6:-0.15942 7:-1 8:-1 9:-1 10:-1 11:-1 12:-1 13:-1 15:-1 16:-1 17:-1 18:-1 19:-0.544443 20:0.575005 21:-0.442566 
1.818871690130829 1:-0.911994 2:0.741935 3:0.2 4:-0.283019 5:-0.045045 6:0.666667 7:-1 8:-1 9:-1 10:-1 11:-1 12:-1 13:-1 15:-1 16:-1 17:-1 18:-1 19:0.433333 20:-0.40555 21:-0.582622 
32768 1:-1 2:0.0322581 3:-0.0222222 4:0.0566038 5:0.0990991 6:0.173913 7:-1 8:-1 9:-1 10:-1 11:-1 12:-1 13:-1 15:-1 16:-1 17:1 18:-1 19:0.113888 20:-0.08055 21:-0.907563 
-32768 1:-1 2:0.0322581 3:-0.0222222 4:0.0566038 5:0.0990991 6:0.173913 7:-1 8:-1 9:-1 10:-1 11:-1 12:-1 13:-1 15:-1 16:-1 17:1 18:-1 19:0.113888 20:-0.08055 21:-0.907563 
5.118823985637299 1:0.702355 2:0.354839 3:0.6 4:0.207547 5:-0.045045 6:-0.492754 7:-1 8:-1 9:-1 10:-1 11:-1 12:-1 13:-1 15:-1 16:-1 17:-1 18:-1 19:-0.322222 20:0.341667 21:-0.669462 
88.90978031284146 1:0.598222 2:0.354839 3:0.6 4:0.207547 5:-0.045045 7:-1 8:-1 9:-1 10:-1 11:-1 12:-1 13:-1 15:-1 16:-1 17:-1 18:-1 19:-0.530555 20:0.561117 21:-0.456571 
-86.46715883177905 1:-0.721416 2:-0.0322581 3:0.2 4:0.396226 5:-0.045045 6:-0.15942 7:-1 8:-1 9:-1 10:-1 11:-1 12:-1 13:-1 15:-1 16:-1 17:-1 18:-1 19:-0.0333333 20:0.0666667 21:-0.955176 
2668.725521823459 1:0.911686 2:0.16129 3:0.2 4:0.207547 5:-0.045045 6:-0.15942 7:-1 8:-1 9:-1 10:-1 11:-1 12:1 13:-1 15:-1 16:-1 17:-1 18:-1 19:0.0666617 20:-0.0333333 21:-0.955176 
33.21610536586478 1:0.995285 2:0.354839 3:0.2 4:0.0188679 5:-0.045045 6:0.333333 7:-1 8:-1 9:-1 10:-1 11:-1 12:-1 13:-1 15:-1 16:-1 17:-1 18:-1 19:0.711117 20:-0.683333 21:-0.302521 
89.70485586035196 1:-0.827862 2:-0.225806 3:0.6 4:0.773585 5:-0.045045 6:-0.15942 7:-1 8:-1 9:-1 10:-1 11:-1 12:-1 13:-1 15:-1 16:-1 17:-1 18:-1 19:0.822217 20:-0.83055 21:0.176487 
-129.8738866942418 1:-1 2:-0.225806 3:0.6 4:0.773585 5:-0.045045 6:-0.15942 7:-1 8:-1 9:-1 10:-1 11:-1 12:-1 13:-1 15:-1 16:-1 17:-1 18:-1 19:0.83055 20:-0.838883 21:0.168084 
24.0697684574973 1:-1 2:0.548387 3:0.2 4:-0.132075 5:-0.045045 6:-0.492754 7:-1 8:-1 9:-1 10:-1 11:-1 12:-1 13:-1 15:-1 16:-1 17:-1 18:-1 19:0.361117 20:-0.333333 21:-0.655445 
27.65627953763162 1:-0.911994 2:0.548387 3:0.6 4:0.0566038 5:-0.045045 6:0.333333 7:-1 8:-1 9:-1 10:-1 11:-1 12:-1 13:-1 15:-1 16:-1 17:-1 18:-1 19:-0.0277783 20:0.0472167 21:-0.966387 
-4.746905927476121 1:-0.670541 2:0.548387 3:-0.2 4:-0.283019 5:-0.045045 6:-0.15942 7:-1 8:-1 9:-1 10:-1 11:-1 12:-1 13:-1 15:-1 16:1 17:-1 18:-1 19:0.727767 20:-0.697217 21:-0.285714 
-0.2822209952794826 1:-0.94089 2:-0.419355 3:-0.6 4:0.358491 5:-0.045045 6:-0.492754 7:-1 8:-1 9:-1 10:-1 11:-1 12:-1 13:-1 15:-1 16:-1 17:-1 18:-1 19:0.902767 20:-0.9111 21:0.0952437 
3.435227665854885 1:-0.670541 2:0.139785 3:0.422222 4:0.207547 5:0.459459 6:0.333333 7:-1 8:-1 9:-1 10:-1 11:-1 12:-1 13:-1 15:-1 16:-1 17:1 18:-1 19:-0.858333 20:0.8889 21:-0.123249 
18.72365079652829 1:-0.64567 2:0.16129 3:-0.6 4:-0.132075 5:-0.045045 6:-0.333333 7:-1 8:-1 9:-1 10:-1 11:-1 12:-1 13:-1 15:-1 16:-1 17:-1 18:-1 19:-0.208338 20:0.216667 21:-0.792706 
-87.63042751652829 1:0.310544 2:0.16129 3:0.6 4:0.396226 5:-0.045045 6:0.173913 7:-1 8:-1 9:-1 10:-1 11:-1 12:-1 13:-1 15:-1 16:-1 17:-1 18:-1 19:-0.622222 20:0.652783 21:-0.364134 
-32768 1:-0.64567 2:-0.0322581 3:0.2 4:0.396226 5:-0.045045 6:-0.666667 7:-1 8:-1 9:-1 10:-1 11:-1 12:-1 13:-1 15:-1 16:-1 17:-1 18:-1 19:0.4861 20:-0.513883 21:0.507008 
-6289.315604189068 1:-0.395353 2:-0.0322581 3:0.2 4:0.396226 5:-0.045045 6:-0.666667 7:-1 8:-1 9:-1 10:-1 11:-1 12:-1 13:-1 15:-1 16:-1 17:-1 18:-1 19:0.483333 20:-0.511117 21:0.509798 
18216.41522585623 1:-0.573255 2:-0.0322581 3:0.2 4:0.396226 5:-0.045045 6:-0.666667 7:-1 8:-1 9:-1 10:-1 11:-1 12:-1 13:-1 15:-1 16:-1 17:-1 18:-1 19:0.477767 20:-0.50555 21:0.515412 
16701.7864333342 1:-0.695788 2:-0.0322581 3:0.2 4:0.396226 5:-0.045045 6:-0.666667 7:-1 8:-1 9:-1 10:-1 11:-1 12:-1 13:-1 15:-1 16:-1 17:-1 18:-1 19:0.488883 20:-0.516667 21:0.504202 
3805.379122369352 1:-0.333955 2:-0.0322581 3:0.2 4:0.396226 5:-0.045045 6:-0.666667 7:-1 8:-1 9:-1 10:-1 11:-1 12:-1 13:-1 15:-1 16:-1 17:-1 18:-1 19:0.508333 20:-0.536117 21:0.484588 
-32768 1:-0.621169 2:-0.0322581 3:0.2 4:0.396226 5:-0.045045 6:-0.666667 7:-1 8:-1 9:-1 10:-1 11:-1 12:-1 13:-1 15:-1 16:-1 17:-1 18:-1 19:0.766667 20:-0.79445 21:0.224084 
-4846.439037032095 1:-0.855487 2:-0.0322581 3:0.2 4:0.396226 5:-0.045045 6:-0.666667 7:-1 8:-1 9:-1 10:-1 11:-1 12:-1 13:-1 15:-1 16:-1 17:-1 18:-1 19:0.7611 20:-0.788883 21:0.229697 
21252.1183794967 1:-0.94089 2:-0.0322581 3:0.2 4:0.396226 5:-0.045045 6:-0.666667 7:-1 8:-1 9:-1 10:-1 11:-1 12:-1 13:-1 15:-1 16:-1 17:-1 18:-1 19:0.763883 20:-0.791667 21:0.226891 
-32768 1:-0.970224 2:-0.0322581 3:0.2 4:0.396226 5:-0.045045 6:-0.666667 7:-1 8:-1 9:-1 10:-1 11:-1 12:-1 13:-1 15:-1 16:-1 17:-1 18:-1 19:0.7611 20:-0.788883 21:0.229697 
16810.95237812712 1:-0.970224 2:-0.0322581 3:0.2 4:0.396226 5:-0.045045 6:-0.666667 7:-1 8:-1 9:-1 10:-1 11:-1 12:-1 13:-1 15:-1 16:-1 17:-1 18:-1 19:0.763883 20:-0.791667 21:0.226891 
32768 1:-0.621169 2:-0.0322581 3:0.2 4:0.396226 5:-0.045045 6:-0.666667 7:-1 8:-1 9:-1 10:-1 11:-1 12:-1 13:-1 15:-1 16:-1 17:-1 18:-1 19:0.763883 20:-0.791667 21:0.226891 
-12.28973610966381 1:-0.773841 2:-0.0322581 3:0.6 4:0.584906 5:-0.045045 6:-0.333333 7:-1 8:-1 9:-1 10:-1 11:-1 12:-1 13:-1 15:-1 16:-1 17:-1 18:-1 19:0.638883 20:-0.666667 21:0.352941 
-0.9613988393523106 1:-0.18311 2:-0.505376 3:0.2 4:0.773585 5:0.0990991 6:-0.666667 7:-1 8:-1 9:-1 10:-1 11:-1 12:1 13:-1 15:-1 16:-1 17:-1 18:-1 19:-0.388888 20:0.416667 21:-0.599429 
-10.0661555205477 1:-0.0493244 2:-0.612903 3:-0.2 4:0.773585 5:-0.153153 6:-0.666667 7:-1 8:-1 9:-1 10:-1 11:-1 12:-1 13:-1 15:-1 16:1 17:-1 18:-1 19:-0.391672 20:0.41945 21:-0.596622 
7.642916145270039 1:-0.165496 2:-0.419355 3:0.6 4:1 5:-0.045045 6:-0.333333 7:-1 8:-1 9:-1 10:-1 11:-1 12:-1 13:-1 15:-1 16:-1 17:-1 18:-1 19:0.505567 20:-0.5139 21:0.495798 
-169.881033490044 1:0.0646673 2:-0.0322581 3:0.2 4:0.396226 5:-0.045045 6:-0.666667 7:-1 8:-1 9:-1 10:-1 11:-1 12:-1 13:-1 15:-1 16:-1 17:-1 18:-1 19:0.7611 20:-0.788883 21:0.229697 
59.33136326284118 1:-0.911994 2:-0.0322581 3:0.6 4:0.584906 5:-0.045045 6:-0.492754 7:-1 8:-1 9:-1 10:-1 11:-1 12:-1 13:-1 15:-1 16:-1 17:-1 18:-1 19:0.313883 20:-0.341667 21:0.680672 
-84.15914908097837 1:-0.88353 2:-0.0752688 3:0.644444 4:0.509434 5:0.0990991 6:-0.492754 7:-1 8:-1 9:-1 10:-1 11:-1 12:-1 13:-1 15:-1 16:1 17:-1 18:-1 19:0.35 20:-0.377783 21:0.644252 
112.29997429588 1:-0.855487 2:-0.0752688 3:0.644444 4:0.509434 5:0.0990991 6:-0.492754 7:-1 8:-1 9:-1 10:-1 11:-1 12:-1 13:-1 15:-1 16:1 17:-1 18:-1 19:0.35555 20:-0.383333 21:0.638655 
32768 1:-0.670541 2:-0.419355 3:0.2 4:0.773585 5:-0.045045 6:-0.666667 7:-1 8:-1 9:-1 10:-1 11:-1 12:-1 13:-1 15:-1 16:1 17:-1 18:-1 19:0.716667 20:-0.7389 21:0.277311 
-32768 1:-0.670541 2:-0.419355 3:0.2 4:0.773585 5:-0.045045 6:-0.666667 7:-1 8:-1 9:-1 10:-1 11:-1 12:-1 13:-1 15:-1 16:1 17:-1 18:-1 19:0.75555 20:-0.777783 21:0.238101 
-32768 1:-0.670541 2:-0.419355 3:0.2 4:0.773585 5:-0.045045 6:-0.666667 7:-1 8:-1 9:-1 10:-1 11:-1 12:-1 13:-1 15:-1 16:1 17:-1 18:-1 19:0.777767 20:-0.8 21:0.215697 
32768 1:-0.670541 2:-0.419355 3:0.2 4:0.773585 5:-0.045045 6:-0.666667 7:-1 8:-1 9:-1 10:-1 11:-1 12:-1 13:-1 15:-1 16:1 17:-1 18:-1 19:0.766667 20:-0.7889 21:0.226891 
-5681.946056179121 1:-0.670541 2:-0.419355 3:0.2 4:0.773585 5:-0.045045 6:-0.666667 7:-1 8:-1 9:-1 10:-1 11:-1 12:-1 13:-1 15:-1 16:1 17:-1 18:-1 19:0.75555 20:-0.777783 21:0.238101 
-32768 1:-0.721416 2:-0.419355 3:0.2 4:0.773585 5:-0.045045 6:-0.666667 7:-1 8:-1 9:-1 10:-1 11:-1 12:-1 13:-1 15:-1 16:1 17:-1 18:-1 19:0.763883 20:-0.786117 21:0.229697 
32768 1:-0.695788 2:-0.419355 3:0.2 4:0.773585 5:-0.045045 6:-0.666667 7:-1 8:-1 9:-1 10:-1 11:-1 12:-1 13:-1 15:-1 16:1 17:-1 18:-1 19:0.783333 20:-0.805567 21:0.210084 
-3986.891305471459 1:-0.773841 2:-0.419355 3:0.2 4:0.773585 5:-0.045045 6:-0.666667 7:-1 8:-1 9:-1 10:-1 11:-1 12:-1 13:-1 15:-1 16:1 17:-1 18:-1 19:0.788883 20:-0.811117 21:0.204487 
32768 1:-0.721416 2:-0.419355 3:0.2 4:0.773585 5:-0.045045 6:-0.666667 7:-1 8:-1 9:-1 10:-1 11:-1 12:-1 13:-1 15:-1 16:1 17:-1 18:-1 19:0.763883 20:-0.786117 21:0.229697 
-32768 1:-0.670541 2:-0.419355 3:0.2 4:0.773585 5:-0.045045 6:-0.666667 7:-1 8:-1 9:-1 10:-1 11:-1 12:-1 13:-1 15:-1 16:1 17:-1 18:-1 19:0.719433 20:-0.741667 21:0.274521 
32768 1:-0.721416 2:-0.419355 3:0.2 4:0.773585 5:-0.045045 6:-0.666667 7:-1 8:-1 9:-1 10:-1 11:-1 12:-1 13:-1 15:-1 16:1 17:-1 18:-1 19:0.772217 20:-0.79445 21:0.221294 
6906.92027896284 1:-0.670541 2:-0.419355 3:0.2 4:0.773585 5:-0.045045 6:-0.666667 7:-1 8:-1 9:-1 10:-1 11:-1 12:-1 13:-1 15:-1 16:1 17:-1 18:-1 19:0.777767 20:-0.8 21:0.215697 
-796.9499042468706 1:-0.459577 2:-0.419355 3:0.2 4:0.773585 5:-0.045045 6:-0.666667 7:-1 8:-1 9:-1 10:-1 11:-1 12:-1 13:-1 15:-1 16:1 17:-1 18:-1 19:0.769433 20:-0.791667 21:0.224101 
32768 1:-0.670541 2:-0.419355 3:0.2 4:0.773585 5:-0.045045 6:-0.666667 7:-1 8:-1 9:-1 10:-1 11:-1 12:-1 13:-1 15:-1 16:1 17:-1 18:-1 19:0.78055 20:-0.802783 21:0.212891 
-19743.46554951734 1:-0.670541 2:-0.419355 3:0.2 4:0.773585 5:-0.045045 6:-0.666667 7:-1 8:-1 9:-1 10:-1 11:-1 12:-1 13:-1 15:-1 16:1 17:-1 18:-1 19:0.716667 20:-0.7389 21:0.277311 
-341.6912589139712 1:-0.695788 2:-0.419355 3:0.2 4:0.773585 5:-0.045045 6:-0.666667 7:-1 8:-1 9:-1 10:-1 11:-1 12:-1 13:-1 15:-1 16:-1 17:-1 18:-1 19:0.708333 20:-0.730567 21:0.285714 
-32506.84683257496 1:-0.670541 2:-0.419355 3:0.2 4:0.773585 5:-0.045045 6:-0.666667 7:-1 8:-1 9:-1 10:-1 11:-1 12:-1 13:-1 15:-1 16:-1 17:-1 18:-1 19:0.70555 20:-0.727783 21:0.288521 
-32768 1:-0.695788 2:-0.419355 3:0.2 4:0.773585 5:-0.045045 6:-0.666667 7:-1 8:-1 9:-1 10:-1 11:-1 12:-1 13:-1 15:-1 16:1 17:-1 18:-1 19:0.783333 20:-0.805567 21:0.210084 
-32768 1:-0.695788 2:-0.419355 3:0.2 4:0.773585 5:-0.045045 6:-0.666667 7:-1 8:-1 9:-1 10:-1 11:-1 12:-1 13:-1 15:-1 16:1 17:-1 18:-1 19:0.783333 20:-0.805567 21:0.210084 
32768 1:-0.670541 2:-0.419355 3:0.2 4:0.773585 5:-0.045045 6:-0.666667 7:-1 8:-1 9:-1 10:-1 11:-1 12:-1 13:-1 15:-1 16:-1 17:-1 18:-1 19:0.70555 20:-0.727783 21:0.288521 
23237.35638178266 1:-0.64567 2:-0.419355 3:0.2 4:0.773585 5:-0.045045 6:-0.666667 7:-1 8:-1 9:-1 10:-1 11:-1 12:-1 13:-1 15:-1 16:1 17:-1 18:-1 19:0.722217 20:-0.74445 21:0.271714 
792.1865953663863 1:-0.747432 2:-0.0322581 3:0.2 4:0.396226 5:-0.045045 6:-0.826087 7:-1 8:-1 9:-1 10:-1 11:-1 12:-1 13:-1 15:-1 16:-1 17:-1 18:-1 19:0.422233 20:-0.44445 21:0.574235 
-623.6612336580515 1:-0.800648 2:-0.0322581 3:0.2 4:0.396226 5:-0.045045 6:-0.826087 7:-1 8:-1 9:-1 10:-1 11:-1 12:-1 13:-1 15:-1 16:-1 17:-1 18:-1 19:0.41945 20:-0.441667 21:0.577042 
-37.13255895061913 1:0.330921 2:-0.0322581 3:0.2 4:0.396226 5:-0.045045 7:-1 8:-1 9:-1 10:-1 11:-1 12:-1 13:-1 15:-1 16:-1 17:-1 18:-1 19:-0.547223 20:0.558328 21:-0.448173 
125.0676966644614 1:0.397611 2:-0.225806 3:0.2 4:0.584906 5:-0.045045 6:-0.492754 7:-1 8:-1 9:-1 10:-1 11:-1 12:-1 13:-1 15:-1 16:-1 17:-1 18:-1 19:0.6861 20:-0.702767 21:0.310941 
-3.091669045427891 1:-0.747432 2:-0.419355 3:0.2 4:0.773585 5:-0.045045 6:-0.333333 7:-1 8:-1 9:-1 10:-1 11:-1 12:-1 13:-1 15:-1 16:1 17:-1 18:-1 19:0.8139 20:-0.791667 21:-0.196067 
-239.3026096668331 1:0.186862 2:-0.0322581 3:0.2 4:0.396226 5:-0.045045 7:-1 8:-1 9:-1 10:-1 11:-1 12:-1 13:-1 15:-1 16:-1 17:-1 18:-1 19:0.805567 20:-0.825 21:0.190471 
361.5728946612331 1:0.123531 2:-0.0322581 3:0.2 4:0.396226 5:-0.045045 7:-1 8:-1 9:-1 10:-1 11:-1 12:-1 13:-1 15:-1 16:-1 17:-1 18:-1 19:0.805567 20:-0.825 21:0.190471 
-85.74275609935053 1:-0.437847 2:-0.225806 3:0.2 4:0.584906 5:-0.045045 6:0.333333 7:-1 8:-1 9:-1 10:-1 11:-1 12:-1 13:-1 15:-1 16:-1 17:-1 18:-1 19:0.936117 20:-0.947217 21:0.0616303 
236.7704390483049 1:-0.695788 2:-0.0322581 3:-0.2 4:0.207547 5:-0.045045 6:0.173913 7:-1 8:-1 9:-1 10:-1 11:-1 12:-1 13:-1 15:-1 16:-1 17:-1 18:-1 19:0.811117 20:-0.827783 21:0.184874 
-170.8385605394304 1:0.643653 2:0.354839 3:0.2 4:0.0188679 5:-0.045045 6:-0.15942 7:-1 8:-1 9:-1 10:-1 11:-1 12:-1 13:-1 15:-1 16:-1 17:-1 18:-1 19:-0.0972167 20:0.108333 21:-0.901966 
13.46706400216418 1:0.873416 2:-0.612903 3:-0.2 4:0.773585 5:-0.045045 6:-0.492754 7:-1 8:-1 9:-1 10:-1 11:-1 12:-1 13:-1 15:-1 16:-1 17:-1 18:-1 19:-0.936112 20:0.927783 21:0.0700387 
986.6339593475302 1:0.518983 2:-0.612903 3:-0.2 4:0.773585 5:-0.045045 6:-0.492754 7:-1 8:-1 9:-1 10:-1 11:-1 12:-1 13:-1 15:-1 16:-1 17:-1 18:-1 19:-0.930555 20:0.922217 21:0.075642 
123.2978117832054 1:0.496842 2:0.354839 3:0.2 4:0.0188679 5:-0.045045 6:-0.15942 7:-1 8:-1 9:-1 10:-1 11:-1 12:-1 13:-1 15:-1 16:-1 17:-1 18:-1 19:-0.111117 20:0.122233 21:-0.88795 
-1033.637328879766 1:0.518983 2:-0.612903 3:-0.2 4:0.773585 5:-0.045045 6:-0.492754 7:-1 8:-1 9:-1 10:-1 11:-1 12:-1 13:-1 15:-1 16:-1 17:-1 18:-1 19:-0.933333 20:0.925 21:0.0728403 
1.31460957479932 1:0.68395 2:-0.0322581 3:0.2 4:0.396226 5:-0.261261 6:-0.666667 7:-1 8:-1 9:-1 10:-1 11:-1 12:-1 13:-1 15:-1 16:-1 17:-1 18:-1 19:-0.633333 20:0.641672 21:-0.364146 
178.4657005319735 1:0.540149 2:0.548387 3:0.6 4:0.0566038 5:-0.045045 6:-0.492754 7:-1 8:-1 9:-1 10:-1 11:-1 12:-1 13:-1 15:-1 16:-1 17:-1 18:-1 19:-0.227783 20:0.2389 21:-0.770303 
-212.7579569886788 1:0.610096 2:0.548387 3:0.6 4:0.0566038 5:-0.045045 6:-0.492754 7:-1 8:-1 9:-1 10:-1 11:-1 12:-1 13:-1 15:-1 16:-1 17:-1 18:-1 19:-0.225 20:0.236117 21:-0.773109 
12056.55348609584 1:-0.970224 2:-0.0322581 3:0.2 4:0.396226 5:-0.045045 6:-0.333333 7:-1 8:-1 9:-1 10:-1 11:-1 12:-1 13:-1 15:-1 16:-1 17:-1 18:-1 19:-0.625 20:0.636105 21:-0.369743 
-32768 1:-1 2:-0.0322581 3:0.2 4:0.396226 5:-0.045045 6:-0.333333 7:-1 8:-1 9:-1 10:-1 11:-1 12:-1 13:-1 15:-1 16:-1 17:-1 18:-1 19:-0.616667 20:0.627772 21:-0.378146 
22707.40083725946 1:-1 2:-0.0322581 3:0.2 4:0.396226 5:-0.045045 6:-0.333333 7:-1 8:-1 9:-1 10:-1 11:-1 12:-1 13:-1 15:-1 16:-1 17:-1 18:-1 19:-0.611112 20:0.622217 21:-0.383748 
-5.25509084742031 1:0.738638 2:-0.0322581 3:0.2 4:0.396226 5:-0.045045 6:0.84058 7:-1 8:-1 9:-1 10:-1 11:-1 12:1 13:-1 15:-1 16:-1 17:-1 18:-1 19:0.233338 20:-0.21945 21:-0.775899 
2.419244824133729 1:0.26791 2:0.247312 3:-0.466667 4:-0.396226 5:0.63964 6:-0.15942 7:-1 8:-1 9:-1 10:-1 11:-1 12:-1 13:-1 15:-1 16:-1 17:1 18:-1 19:-0.386117 20:0.397233 21:-0.610639 
18.19505478294663 1:0.49432 2:-0.225806 3:-0.2 4:0.396226 5:-0.045045 6:-0.492754 7:-1 8:-1 9:-1 10:-1 11:-1 12:-1 13:-1 15:-1 16:-1 17:-1 18:-1 19:-0.313895 20:0.327783 21:-0.683462 
8.971263995773832 1:-0.333955 2:0.139785 3:0.2 4:0.0188679 5:0.81982 6:-0.15942 7:-1 8:-1 9:-1 10:-1 11:-1 12:-1 13:-1 15:-1 16:-1 17:1 18:-1 19:-0.399995 20:0.413883 21:-0.596639 
3.909249941728571 1:-0.131052 2:0.139785 3:0.2 4:0.0188679 5:0.81982 6:-0.15942 7:-1 8:-1 9:-1 10:-1 11:-1 12:-1 13:-1 15:-1 16:-1 17:1 18:-1 19:-0.397228 20:0.411117 21:-0.599429 
-7.916210460648384 1:0.990692 2:-0.290323 3:-0.0222222 4:0.320755 5:-0.0810811 6:0.507246 7:-1 8:-1 9:-1 10:-1 11:-1 12:-1 13:-1 15:-1 16:-1 17:1 18:-1 19:0.8861 20:-0.894433 21:0.11205 
245.6257135431667 1:0.941097 2:-0.225806 3:-0.2 4:0.396226 5:-0.261261 6:-0.333333 7:-1 8:-1 9:-1 10:-1 11:-1 12:-1 13:-1 15:-1 16:-1 17:-1 18:-1 19:-0.66389 20:0.675 21:-0.330526 
-34.44992061825851 1:-0.0183133 2:-0.225806 3:-0.2 4:0.396226 5:-0.261261 6:-0.333333 7:-1 8:-1 9:-1 10:-1 11:-1 12:-1 13:-1 15:-1 16:-1 17:-1 18:-1 19:-0.666667 20:0.677767 21:-0.327726 
-221.0312064182654 1:0.801478 2:-0.225806 3:-0.2 4:0.396226 5:-0.261261 6:-0.333333 7:-1 8:-1 9:-1 10:-1 11:-1 12:-1 13:-1 15:-1 16:-1 17:-1 18:-1 19:-0.669445 20:0.68055 21:-0.324924 
-17810.44598554511 1:-0.855487 2:0.548387 3:0.2 4:-0.132075 5:-0.045045 7:-1 8:-1 9:-1 10:-1 11:-1 12:-1 13:-1 15:-1 16:-1 17:-1 18:-1 19:-0.105555 20:0.116667 21:-0.893546 
7160.638697802524 1:-0.911994 2:0.548387 3:0.2 4:-0.132075 5:-0.045045 7:-1 8:-1 9:-1 10:-1 11:-1 12:-1 13:-1 15:-1 16:-1 17:-1 18:-1 19:-0.0944383 20:0.10555 21:-0.904756 
9915.754982308012 1:-0.800648 2:0.548387 3:0.2 4:-0.132075 5:-0.045045 7:-1 8:-1 9:-1 10:-1 11:-1 12:-1 13:-1 15:-1 16:-1 17:-1 18:-1 19:-0.102772 20:0.113883 21:-0.896353 
4.930244121481142 1:-0.200991 2:-0.505376 3:0.2 4:0.849057 5:-0.0810811 6:-0.333333 7:-1 8:-1 9:-1 10:-1 11:-1 12:-1 13:-1 15:-1 16:-1 17:-1 18:1 19:-0.894443 20:0.90555 21:-0.0980286 
3563.218043063103 1:-0.219143 2:-0.612903 3:0.2 4:1 5:-0.153153 6:-0.492754 7:-1 8:-1 9:-1 10:-1 11:-1 12:-1 13:-1 15:-1 16:-1 17:-1 18:-1 19:-0.930555 20:0.941667 21:-0.0616134 
-4721.977459971522 1:-0.165496 2:-0.612903 3:0.2 4:1 5:-0.153153 6:-0.492754 7:-1 8:-1 9:-1 10:-1 11:-1 12:-1 13:-1 15:-1 16:-1 17:-1 18:-1 19:-0.95 20:0.961117 21:-0.042005 
-32768 1:-0.374578 2:-0.612903 3:0.2 4:1 5:-0.153153 6:-0.492754 7:-1 8:-1 9:-1 10:-1 11:-1 12:-1 13:-1 15:-1 16:-1 17:-1 18:-1 19:-0.997223 20:0.986117 21:0.0112151 
73.35988874768137 1:-0.114211 2:-0.612903 3:0.2 4:1 5:-0.153153 6:-0.492754 7:-1 8:-1 9:-1 10:-1 11:-1 12:-1 13:-1 15:-1 16:-1 17:-1 18:-1 19:-0.961112 20:0.95 21:0.0476303 
917.6515620559509 1:0.132251 2:-0.612903 3:0.2 4:1 5:-0.153153 6:-0.492754 7:-1 8:-1 9:-1 10:-1 11:-1 12:-1 13:-1 15:-1 16:-1 17:-1 18:-1 19:-0.916667 20:0.90555 21:0.0924487 
7377.318798380069 1:-0.374578 2:-0.612903 3:0.2 4:1 5:-0.153153 6:-0.492754 7:-1 8:-1 9:-1 10:-1 11:-1 12:-1 13:-1 15:-1 16:-1 17:-1 18:-1 19:-0.961112 20:0.95 21:0.0476303 
29731.13319121538 1:-0.354113 2:-0.612903 3:0.2 4:1 5:-0.153153 6:-0.492754 7:-1 8:-1 9:-1 10:-1 11:-1 12:-1 13:-1 15:-1 16:-1 17:-1 18:-1 19:-1 20:0.988883 21:0.00841513 
-4199.085921441954 1:-0.25627 2:-0.612903 3:0.2 4:1 5:-0.153153 6:-0.492754 7:-1 8:-1 9:-1 10:-1 11:-1 12:-1 13:-1 15:-1 16:-1 17:-1 18:-1 19:-0.936112 20:0.925 21:0.0728403 
338.044990763512 1:-0.0493244 2:-0.419355 3:0.2 4:0.773585 5:-0.153153 6:-0.492754 7:-1 8:-1 9:-1 10:-1 11:-1 12:-1 13:-1 15:-1 16:-1 17:-1 18:-1 19:-0.883333 20:0.872217 21:0.126062 
-450.0871427044158 1:0.210892 2:-0.419355 3:0.2 4:0.773585 5:-0.153153 6:-0.492754 7:-1 8:-1 9:-1 10:-1 11:-1 12:-1 13:-1 15:-1 16:-1 17:-1 18:-1 19:-0.86389 20:0.852783 21:0.145669 
1949.172193786993 1:-0.354113 2:-0.0322581 3:0.6 4:0.584906 5:-0.045045 6:-0.826087 7:-1 8:-1 9:-1 10:-1 11:-1 12:-1 13:-1 15:-1 16:-1 17:-1 18:-1 19:-0.68889 20:0.702783 21:-0.305316 
693.0991637587243 1:-0.437847 2:-0.0322581 3:0.6 4:0.584906 5:-0.045045 6:-0.826087 7:-1 8:-1 9:-1 10:-1 11:-1 12:-1 13:-1 15:-1 16:-1 17:-1 18:-1 19:-0.686112 20:0.7 21:-0.308118 
-2577.379681912196 1:-0.374578 2:-0.0322581 3:0.6 4:0.584906 5:-0.045045 6:-0.826087 7:-1 8:-1 9:-1 10:-1 11:-1 12:-1 13:-1 15:-1 16:-1 17:-1 18:-1 19:-0.686112 20:0.7 21:-0.308118 
66.03491456703821 1:-0.314095 2:-0.0322581 3:0.2 4:0.396226 5:-0.045045 6:-0.666667 7:-1 8:-1 9:-1 10:-1 11:-1 12:-1 13:-1 15:-1 16:-1 17:-1 18:-1 19:-0.669445 20:0.683333 21:-0.324924 
-6.812454503440186 1:0.218744 2:-0.225806 3:-0.6 4:0.207547 5:-0.045045 6:-0.333333 7:-1 8:-1 9:-1 10:-1 11:-1 12:-1 13:-1 15:-1 16:1 17:-1 18:-1 19:0.647217 20:-0.65555 21:0.355748 
-45.25476781878317 1:-0.621169 2:0.247312 3:0.2 4:-0.0566038 5:0.63964 6:-0.15942 7:-1 8:-1 9:-1 10:-1 11:-1 12:-1 13:-1 15:-1 16:-1 17:1 18:-1 19:-0.341662 20:0.3611 21:-0.652655 
851.0702798908752 1:-0.670541 2:0.16129 3:-0.2 4:0.0188679 5:-0.045045 6:-0.15942 7:-1 8:-1 9:-1 10:-1 11:-1 12:-1 13:-1 15:-1 16:-1 17:-1 18:-1 19:-0.372228 20:0.391667 21:-0.621832 
32.86326998951679 1:-0.670541 2:0.247312 3:0.2 4:-0.0566038 5:0.63964 6:-0.15942 7:-1 8:-1 9:-1 10:-1 11:-1 12:-1 13:-1 15:-1 16:-1 17:1 18:-1 19:-0.352778 20:0.372217 21:-0.641445 
-627.9352992681052 1:-0.695788 2:0.16129 3:-0.2 4:0.0188679 5:-0.045045 6:-0.15942 7:-1 8:-1 9:-1 10:-1 11:-1 12:-1 13:-1 15:-1 16:-1 17:-1 18:-1 19:-0.355562 20:0.375 21:-0.638639 
-235.9475089694414 1:-0.721416 2:0.16129 3:-0.2 4:0.0188679 5:-0.045045 6:-0.15942 7:-1 8:-1 9:-1 10:-1 11:-1 12:-1 13:-1 15:-1 16:-1 17:-1 18:-1 19:-0.383328 20:0.402767 21:-0.610639 
-13.45580829184662 1:-0.219143 2:-0.290323 3:-0.0222222 4:0.471698 5:0.459459 6:0.333333 7:-1 8:-1 9:-1 10:-1 11:-1 12:-1 13:-1 15:-1 16:-1 17:1 18:-1 19:0.883333 20:-0.894433 21:0.114857 
24342.4155017804 1:-0.970224 2:0.548387 3:-0.2 4:-0.283019 5:-0.045045 6:0.333333 7:-1 8:-1 9:-1 10:-1 11:-1 12:-1 13:-1 15:-1 16:-1 17:-1 18:-1 19:0.438888 20:-0.413883 21:-0.574218 
26189.02288569712 1:-0.911994 2:0.548387 3:-0.2 4:-0.283019 5:-0.045045 6:0.333333 7:-1 8:-1 9:-1 10:-1 11:-1 12:-1 13:-1 15:-1 16:-1 17:-1 18:-1 19:0.419438 20:-0.394433 21:-0.593832 
-32768 1:-0.94089 2:0.548387 3:-0.2 4:-0.283019 5:-0.045045 6:0.333333 7:-1 8:-1 9:-1 10:-1 11:-1 12:-1 13:-1 15:-1 16:-1 17:-1 18:-1 19:0.419438 20:-0.394433 21:-0.593832 
-17618.23704243629 1:-0.94089 2:0.548387 3:-0.2 4:-0.283019 5:-0.045045 6:0.333333 7:-1 8:-1 9:-1 10:-1 11:-1 12:-1 13:-1 15:-1 16:-1 17:-1 18:-1 19:0.450005 20:-0.425 21:-0.563008 
-4150.591866739219 1:-0.148144 2:-0.419355 3:-0.2 4:0.584906 5:-0.261261 6:-0.492754 7:-1 8:-1 9:-1 10:-1 11:-1 12:-1 13:-1 15:-1 16:-1 17:-1 18:-1 19:-0.75 20:0.758333 21:-0.246499 
9629.124147649069 1:-0.200991 2:-0.419355 3:-0.2 4:0.584906 5:-0.261261 6:-0.492754 7:-1 8:-1 9:-1 10:-1 11:-1 12:-1 13:-1 15:-1 16:-1 17:-1 18:-1 19:-0.76389 20:0.772233 21:-0.232492 
-5746.860820587316 1:-0.25627 2:-0.419355 3:-0.2 4:0.584906 5:-0.261261 6:-0.492754 7:-1 8:-1 9:-1 10:-1 11:-1 12:-1 13:-1 15:-1 16:-1 17:-1 18:-1 19:-0.76389 20:0.772233 21:-0.232492 
-10.34456410790686 1:0.982434 2:-0.225806 3:0.2 4:0.584906 5:-0.045045 6:-0.666667 7:-1 8:-1 9:-1 10:-1 11:-1 12:-1 13:-1 15:-1 16:-1 17:-1 18:-1 19:0.455567 20:-0.46945 21:0.546218 
46.85579652333687 1:0.638269 2:0.354839 3:-0.2 4:-0.132075 5:-0.045045 6:0.666667 7:-1 8:-1 9:-1 10:-1 11:-1 12:-1 13:-1 15:-1 16:-1 17:-1 18:-1 19:0.575005 20:-0.55 21:-0.436958 
-0.7962977244607967 1:0.26791 2:0.548387 3:-0.2 4:-0.283019 5:-0.045045 7:-1 8:-1 9:-1 10:-1 11:-1 12:-1 13:-1 15:-1 16:-1 17:-1 18:-1 19:0.73055 20:-0.722217 21:-0.274504 
1.881176221077187 1:0.696341 2:0.354839 3:0.6 4:0.207547 5:-0.045045 6:0.507246 7:-1 8:-1 9:-1 10:-1 11:-1 12:-1 13:-1 15:-1 16:1 17:-1 18:-1 19:-0.436117 20:0.46945 21:-0.549008 
-0.4458667829530346 1:-0.597032 2:0.569892 3:0.644444 4:-0.207547 5:0.63964 6:-0.15942 7:-1 8:-1 9:-1 10:-1 11:-1 12:-1 13:-1 15:-1 16:-1 17:1 18:-1 19:0.174995 20:-0.166667 21:-0.834739 
25.64167370053928 1:0.0693311 2:0.354839 3:0.2 4:0.0188679 5:-0.045045 6:0.333333 7:-1 8:-1 9:-1 10:-1 11:-1 12:-1 13:-1 15:-1 16:1 17:-1 18:-1 19:0.280562 20:-0.272233 21:-0.728286 
1.834965107103609 1:-0.237566 2:0.354839 3:0.2 4:0.0188679 5:-0.045045 6:0.333333 7:-1 8:-1 9:-1 10:-1 11:-1 12:-1 13:-1 15:-1 16:1 17:-1 18:-1 19:0.305562 20:-0.297233 21:-0.703076 
0.7208011662963499 1:-0.549832 2:0.354839 3:0.2 4:0.0188679 5:-0.045045 6:0.333333 7:-1 8:-1 9:-1 10:-1 11:-1 12:-1 13:-1 15:-1 16:1 17:-1 18:-1 19:0.280562 20:-0.272233 21:-0.728286 
-48.52286055461774 1:-0.0493244 2:0.548387 3:0.6 4:0.0566038 5:-0.045045 6:-0.15942 7:-1 8:-1 9:-1 10:-1 11:-1 12:-1 13:-1 15:-1 16:1 17:-1 18:-1 19:0.227778 20:-0.21945 21:-0.781513 
-71.65484797358283 1:-0.827862 2:0.354839 3:-0.2 4:-0.132075 5:-0.045045 6:0.666667 7:-1 8:-1 9:-1 10:-1 11:-1 12:-1 13:-1 15:-1 16:-1 17:-1 18:-1 19:-0.158333 20:0.166667 21:-0.840336 
1.133618709829762 1:-0.88353 2:-0.225806 3:0.6 4:0.773585 5:-0.045045 6:0.173913 7:-1 8:-1 9:-1 10:-1 11:-1 12:-1 13:-1 15:-1 16:1 17:-1 18:-1 19:0.84445 20:-0.836117 21:-0.159647 
16.42984569454635 1:0.186862 2:-0.419355 3:0.2 4:0.773585 5:-0.045045 7:-1 8:-1 9:-1 10:-1 11:-1 12:-1 13:-1 15:-1 16:-1 17:-1 18:-1 19:0.405567 20:-0.4139 21:0.599445 
320.4417940298338 1:-0.549832 2:-0.419355 3:-0.2 4:0.584906 5:-0.261261 6:-0.492754 7:-1 8:-1 9:-1 10:-1 11:-1 12:-1 13:-1 15:-1 16:-1 17:-1 18:-1 19:-0.786112 20:0.79445 21:-0.210084 
-7.594728398625957 1:0.998283 2:-0.612903 3:0.2 4:1 5:-0.387387 6:-0.15942 7:-1 8:-1 9:-1 10:-1 11:1 12:-1 13:-1 15:-1 16:-1 17:-1 18:-1 19:0.288883 20:-0.297217 21:0.717092 
447.468343468013 1:-0.773841 2:-0.225806 3:-0.2 4:0.396226 5:-0.045045 6:-0.333333 7:-1 8:-1 9:-1 10:-1 11:-1 12:-1 13:-1 15:-1 16:-1 17:-1 18:-1 19:0.7389 20:-0.75 21:0.260504 
213.1742538950301 1:-0.721416 2:0.16129 3:-0.2 4:0.0188679 5:-0.045045 6:-0.666667 7:-1 8:-1 9:-1 10:-1 11:-1 12:-1 13:-1 15:-1 16:-1 17:-1 18:-1 19:0.852783 20:-0.863883 21:0.145664 
-101.5132851791509 1:-1 2:0.548387 3:0.6 4:0.0566038 5:-0.153153 6:-0.15942 7:-1 8:-1 9:-1 10:-1 11:-1 12:-1 13:-1 15:-1 16:-1 17:-1 18:-1 19:-0.0416617 20:0.0611 21:-0.955176 
6.168685749072323 1:-1 2:-0.419355 3:0.2 4:0.773585 5:-0.045045 6:-0.492754 7:-1 8:-1 9:-1 10:-1 11:-1 12:-1 13:-1 15:-1 16:1 17:-1 18:-1 19:-0.777777 20:0.758333 21:0.235306 
4.294961131835267 1:-1 2:-0.397849 3:0.2 4:0.660377 5:0.459459 6:-0.492754 7:-1 8:-1 9:-1 10:-1 11:-1 12:-1 13:-1 15:-1 16:-1 17:-1 18:1 19:-0.625 20:0.605567 21:0.389366 
-708.7173556868171 1:-0.695788 2:0.16129 3:0.6 4:0.396226 5:-0.045045 6:-0.666667 7:-1 8:-1 9:-1 10:-1 11:-1 12:-1 13:-1 15:-1 16:-1 17:-1 18:-1 19:0.647217 20:-0.675 21:0.344555 
633.8062800734983 1:-0.721416 2:0.16129 3:0.6 4:0.396226 5:-0.045045 6:-0.666667 7:-1 8:-1 9:-1 10:-1 11:-1 12:-1 13:-1 15:-1 16:-1 17:-1 18:-1 19:0.633333 20:-0.661117 21:0.358555 
-19835.15636816134 1:-0.773841 2:-0.419355 3:0.2 4:0.773585 5:-0.045045 6:-0.492754 7:-1 8:-1 9:-1 10:-1 11:-1 12:-1 13:-1 15:-1 16:-1 17:-1 18:-1 19:0.3139 20:-0.3389 21:0.683479 
30521.72371409434 1:-0.721416 2:-0.419355 3:0.2 4:0.773585 5:-0.045045 6:-0.492754 7:-1 8:-1 9:-1 10:-1 11:-1 12:-1 13:-1 15:-1 16:-1 17:-1 18:-1 19:0.297233 20:-0.322233 21:0.700286 
-32768 1:-0.747432 2:-0.419355 3:0.2 4:0.773585 5:-0.045045 6:-0.492754 7:-1 8:-1 9:-1 10:-1 11:-1 12:-1 13:-1 15:-1 16:-1 17:-1 18:-1 19:0.3139 20:-0.3389 21:0.683479 
32768 1:-0.800648 2:-0.419355 3:0.2 4:0.773585 5:-0.045045 6:-0.492754 7:-1 8:-1 9:-1 10:-1 11:-1 12:-1 13:-1 15:-1 16:-1 17:-1 18:-1 19:0.31945 20:-0.34445 21:0.677882 
-10279.50282275038 1:-0.800648 2:-0.419355 3:0.2 4:0.773585 5:-0.045045 6:-0.492754 7:-1 8:-1 9:-1 10:-1 11:-1 12:-1 13:-1 15:-1 16:-1 17:-1 18:-1 19:0.2889 20:-0.3139 21:0.708689 
-32767.82845772288 1:-1 2:0.0322581 3:-0.0222222 4:0.0188679 5:0.0990991 6:-0.333333 7:-1 8:-1 9:1 10:-1 11:-1 12:-1 13:-1 15:-1 16:-1 17:-1 18:-1 19:0.172222 20:-0.161117 21:-0.837529 
32767.6712514446 1:-1 2:0.16129 3:0.2 4:0.207547 5:-0.045045 6:-0.492754 7:-1 8:-1 9:-1 10:-1 11:-1 12:-1 13:-1 15:-1 16:-1 17:-1 18:-1 19:0.569438 20:-0.558333 21:-0.436975 
-32768 1:-1 2:0.16129 3:0.2 4:0.207547 5:-0.045045 6:-0.492754 7:-1 8:-1 9:-1 10:-1 11:-1 12:-1 13:-1 15:-1 16:-1 17:-1 18:-1 19:0.280555 20:-0.26945 21:-0.728286 
-32768 1:-1 2:0.16129 3:0.2 4:0.207547 5:-0.045045 6:-0.492754 7:-1 8:-1 9:-1 10:-1 11:-1 12:-1 13:-1 15:-1 16:-1 17:-1 18:-1 19:0.569438 20:-0.558333 21:-0.436975 
-626.9739699073465 1:-0.970224 2:0.354839 3:-0.6 4:-0.283019 5:-0.045045 6:-0.333333 7:-1 8:-1 9:-1 10:-1 11:-1 12:-1 13:-1 15:-1 16:-1 17:-1 18:-1 19:0.883333 20:-0.872233 21:-0.120437 
32768 1:-1 2:0.0322581 3:-0.0222222 4:0.0188679 5:0.0990991 6:-0.333333 7:-1 8:-1 9:1 10:-1 11:-1 12:-1 13:-1 15:-1 16:-1 17:-1 18:-1 19:0.172222 20:-0.161117 21:-0.837529 
32758.92226518941 1:-1 2:0.16129 3:0.2 4:0.207547 5:-0.045045 6:-0.492754 7:-1 8:-1 9:-1 10:-1 11:-1 12:-1 13:-1 15:-1 16:-1 17:-1 18:-1 19:0.280555 20:-0.26945 21:-0.728286 
99.61147326013662 1:-0.114211 2:-0.0322581 3:0.2 4:0.396226 5:-0.045045 6:-0.15942 7:-1 8:-1 9:-1 10:-1 11:-1 12:-1 13:-1 15:-1 16:-1 17:-1 18:-1 19:0.833333 20:-0.825 21:-0.168067 
32768 1:-0.131052 2:-0.225806 3:0.2 4:0.584906 5:-0.045045 7:-1 8:-1 9:-1 10:-1 11:-1 12:-1 13:-1 15:-1 16:-1 17:-1 18:-1 19:0.925 20:-0.916667 21:-0.0756303 
203.6137161479125 1:0.162097 2:-0.225806 3:0.6 4:0.773585 5:-0.045045 6:-0.333333 7:-1 8:-1 9:-1 10:-1 11:-1 12:-1 13:-1 15:-1 16:-1 17:-1 18:-1 19:0.88055 20:-0.888883 21:0.120454 
-235.1553444198003 1:0.289547 2:-0.225806 3:0.6 4:0.773585 5:-0.045045 6:-0.333333 7:-1 8:-1 9:-1 10:-1 11:-1 12:-1 13:-1 15:-1 16:-1 17:-1 18:-1 19:0.908333 20:-0.916667 21:0.092437 
-28851.61175063237 1:-0.131052 2:-0.225806 3:0.2 4:0.584906 5:-0.045045 7:-1 8:-1 9:-1 10:-1 11:-1 12:-1 13:-1 15:-1 16:-1 17:-1 18:-1 19:0.91945 20:-0.911117 21:-0.0812269 
-112.4182400114403 1:0.256848 2:-0.225806 3:0.2 4:0.584906 5:-0.045045 7:-1 8:-1 9:-1 10:-1 11:-1 12:-1 13:-1 15:-1 16:-1 17:-1 18:-1 19:0.977783 20:-0.96945 21:-0.0224034 
-3892.019255289692 1:-0.131052 2:-0.225806 3:0.2 4:0.584906 5:-0.045045 7:-1 8:-1 9:-1 10:-1 11:-1 12:-1 13:-1 15:-1 16:-1 17:-1 18:-1 19:0.961117 20:-0.952783 21:-0.0392101 
290.6201660295245 1:-0.314095 2:-0.419355 3:-0.2 4:0.584906 5:-0.045045 6:-0.492754 7:-1 8:-1 9:-1 10:-1 11:-1 12:-1 13:-1 15:-1 16:-1 17:-1 18:-1 19:0.54445 20:-0.55555 21:0.456588 
8.958693976084026 1:0.998877 2:0.354839 3:0.2 4:0.0188679 5:-0.045045 6:-0.492754 7:-1 8:-1 9:-1 10:-1 11:-1 12:-1 13:-1 15:-1 16:-1 17:-1 18:-1 19:0.0111117 21:-1 
-32768 1:-0.855487 2:0.16129 3:0.6 4:0.396226 5:-0.045045 6:0.173913 7:-1 8:-1 9:-1 10:-1 11:-1 12:-1 13:-1 15:-1 16:1 17:-1 18:-1 19:0.249995 20:-0.238883 21:-0.759109 
-2437.969657031627 1:-0.800648 2:0.16129 3:0.6 4:0.396226 5:-0.045045 6:0.173913 7:-1 8:-1 9:-1 10:-1 11:-1 12:-1 13:-1 15:-1 16:1 17:-1 18:-1 19:0.255562 20:-0.24445 21:-0.753496 
32768 1:-0.855487 2:0.16129 3:0.6 4:0.396226 5:-0.045045 6:0.173913 7:-1 8:-1 9:-1 10:-1 11:-1 12:-1 13:-1 15:-1 16:1 17:-1 18:-1 19:0.252778 20:-0.241667 21:-0.756303 
10782.3386485107 1:-0.88353 2:0.16129 3:0.6 4:0.396226 5:-0.045045 6:0.173913 7:-1 8:-1 9:-1 10:-1 11:-1 12:-1 13:-1 15:-1 16:1 17:-1 18:-1 19:0.247228 20:-0.236117 21:-0.761899 
-32768 1:-0.88353 2:0.16129 3:0.6 4:0.396226 5:-0.045045 6:0.173913 7:-1 8:-1 9:-1 10:-1 11:-1 12:-1 13:-1 15:-1 16:1 17:-1 18:-1 19:0.247228 20:-0.236117 21:-0.761899 
-1559.070422228899 1:-0.911994 2:0.16129 3:0.6 4:0.396226 5:-0.045045 6:0.173913 7:-1 8:-1 9:-1 10:-1 11:-1 12:-1 13:-1 15:-1 16:1 17:-1 18:-1 19:0.249995 20:-0.238883 21:-0.759109 
-1104.725863816879 1:-0.855487 2:0.16129 3:0.6 4:0.396226 5:-0.045045 6:-0.333333 7:-1 8:-1 9:-1 10:-1 11:-1 12:-1 13:-1 15:-1 16:-1 17:-1 18:-1 19:0.241662 20:-0.23055 21:-0.767513 
-6662.603011898376 1:-0.911994 2:0.16129 3:0.6 4:0.396226 5:-0.045045 6:0.173913 7:-1 8:-1 9:-1 10:-1 11:-1 12:-1 13:-1 15:-1 16:1 17:-1 18:-1 19:0.244445 20:-0.233333 21:-0.764706 
-184.8057597294413 1:-0.695788 2:0.16129 3:0.6 4:0.396226 5:-0.045045 6:0.173913 7:-1 8:-1 9:-1 10:-1 11:-1 12:-1 13:-1 15:-1 16:1 17:-1 18:-1 19:0.244445 20:-0.233333 21:-0.764706 
32768 1:-0.88353 2:0.16129 3:0.6 4:0.396226 5:-0.045045 6:0.173913 7:-1 8:-1 9:-1 10:-1 11:-1 12:-1 13:-1 15:-1 16:1 17:-1 18:-1 19:0.244445 20:-0.233333 21:-0.764706 
1199.455029098646 1:-0.88353 2:0.16129 3:0.6 4:0.396226 5:-0.045045 6:-0.333333 7:-1 8:-1 9:-1 10:-1 11:-1 12:-1 13:-1 15:-1 16:-1 17:-1 18:-1 19:0.238895 20:-0.227783 21:-0.770303 
-6.055711762292045 1:0.441137 2:-0.612903 3:0.2 4:1 5:-0.045045 7:-1 8:-1 9:1 10:-1 11:1 12:-1 13:-1 15:-1 16:-1 17:-1 18:-1 19:0.0333383 20:-0.0222333 21:-0.97758 
32710.10406296588 1:-1 2:0.16129 3:0.2 4:0.207547 5:-0.045045 6:-0.492754 7:-1 8:-1 9:-1 10:-1 11:-1 12:-1 13:-1 15:-1 16:-1 17:-1 18:-1 19:0.280555 20:-0.26945 21:-0.728286 
32603.72655021574 1:-1 2:0.16129 3:0.2 4:0.207547 5:-0.045045 6:-0.492754 7:-1 8:-1 9:-1 10:-1 11:-1 12:-1 13:-1 15:-1 16:-1 17:-1 18:-1 19:0.569438 20:-0.558333 21:-0.436975 
-32768 1:-1 2:0.16129 3:0.2 4:0.207547 5:-0.045045 6:-0.492754 7:-1 8:-1 9:-1 10:-1 11:-1 12:-1 13:-1 15:-1 16:-1 17:-1 18:-1 19:0.280555 20:-0.26945 21:-0.728286 
-32768 1:-1 2:0.16129 3:0.2 4:0.207547 5:-0.045045 6:-0.492754 7:-1 8:-1 9:-1 10:-1 11:-1 12:-1 13:-1 15:-1 16:-1 17:-1 18:-1 19:0.569438 20:-0.558333 21:-0.436975 
32768 1:-1 2:0.0322581 3:-0.0222222 4:0.0188679 5:0.0990991 6:-0.333333 7:-1 8:-1 9:1 10:-1 11:-1 12:-1 13:-1 15:-1 16:-1 17:-1 18:-1 19:0.172222 20:-0.161117 21:-0.837529 
-32765.46631556514 1:-1 2:0.0322581 3:-0.0222222 4:0.0188679 5:0.0990991 6:-0.333333 7:-1 8:-1 9:1 10:-1 11:-1 12:-1 13:-1 15:-1 16:-1 17:-1 18:-1 19:0.172222 20:-0.161117 21:-0.837529 
575.2208230883276 1:-1 2:0.354839 3:-0.6 4:-0.283019 5:-0.045045 6:-0.333333 7:-1 8:-1 9:-1 10:-1 11:-1 12:-1 13:-1 15:-1 16:-1 17:-1 18:-1 19:0.883333 20:-0.872233 21:-0.120437 
1.821396252264206 1:-1 2:-0.0322581 3:0.6 4:0.584906 5:-0.045045 6:-0.492754 7:-1 8:-1 9:-1 10:-1 11:-1 12:1 13:-1 15:-1 16:-1 17:-1 18:-1 19:-0.147228 20:0.158333 21:-0.851529 
117.8629810314279 1:-0.395353 2:-0.0322581 3:0.2 4:0.396226 5:-0.045045 7:-1 8:-1 9:-1 10:-1 11:-1 12:-1 13:-1 15:-1 16:-1 17:-1 18:-1 19:0.90555 20:-0.93055 21:0.0840336 
-23.88325524678737 1:-0.148144 2:0.354839 3:0.6 4:0.207547 5:-0.045045 7:-1 8:-1 9:-1 10:-1 11:-1 12:-1 13:-1 15:-1 16:1 17:-1 18:-1 19:0.394445 20:-0.38055 21:-0.616235 
2.521236940871089 1:0.968153 2:0.354839 3:1 4:0.396226 5:-0.045045 6:0.173913 7:-1 8:-1 9:-1 10:-1 11:-1 12:-1 13:-1 15:-1 16:-1 17:-1 18:-1 19:0.9111 20:-0.938883 21:0.078437 
-6.043177669597624 1:0.999936 2:0.354839 3:1 4:0.396226 5:-0.045045 6:0.173913 7:-1 8:-1 9:-1 10:-1 11:-1 12:-1 13:-1 15:-1 16:-1 17:-1 18:-1 19:0.922217 20:-0.95 21:0.0672269 
2.71234352175317 1:-0.970224 2:-0.505376 3:0.2 4:0.886792 5:-0.801802 6:-0.333333 7:-1 8:-1 9:-1 10:-1 11:-1 12:1 13:-1 15:-1 16:-1 17:-1 18:-1 19:-0.833333 20:0.85 21:-0.156852 
-37.75356566473634 1:-0.911994 2:0.354839 3:-0.2 4:-0.132075 5:-0.045045 7:-1 8:-1 9:-1 10:-1 11:-1 12:-1 13:-1 15:-1 16:1 17:-1 18:-1 19:0.48055 20:-0.463883 21:-0.529412 
41.61824852046285 1:-0.747432 2:0.354839 3:-0.2 4:-0.132075 5:-0.045045 7:-1 8:-1 9:-1 10:-1 11:-1 12:-1 13:-1 15:-1 16:1 17:-1 18:-1 19:0.475 20:-0.458333 21:-0.535008 
-39.46033320032917 1:-0.911994 2:-0.225806 3:0.2 4:0.584906 5:-0.153153 6:-0.492754 7:-1 8:-1 9:-1 10:-1 11:-1 12:-1 13:-1 15:-1 16:-1 17:-1 18:-1 19:0.4639 20:-0.480567 21:0.535008 
39.14764914664175 1:-0.911994 2:0.16129 3:-0.6 4:-0.132075 5:-0.387387 6:-0.666667 7:-1 8:-1 9:-1 10:-1 11:-1 12:-1 13:-1 15:-1 16:-1 17:-1 18:-1 19:0.972233 20:-0.9889 21:0.0224034 
136.9837559796532 1:0.48152 2:0.548387 3:-0.6 4:-0.433962 5:-0.045045 6:0.507246 7:-1 8:-1 9:-1 10:-1 11:-1 12:-1 13:-1 15:-1 16:-1 17:-1 18:-1 19:0.463883 20:-0.447217 21:-0.546218 
-13.37938629466382 1:0.991988 2:0.16129 3:0.2 4:0.207547 5:-0.045045 6:0.84058 7:-1 8:-1 9:-1 10:-1 11:-1 12:-1 13:-1 15:-1 16:-1 17:-1 18:-1 19:0.50555 20:-0.483333 21:-0.507008 
-1.730939982534813 1:0.9954 2:0.354839 3:-0.2 4:-0.132075 5:-0.045045 6:0.507246 7:-1 8:1 9:-1 10:-1 11:-1 12:-1 13:-1 15:-1 16:-1 17:-1 18:-1 19:0.752767 20:-0.7361 21:-0.254908 
194.2652218804395 1:0.0409901 2:-0.225806 3:-0.2 4:0.396226 5:-0.045045 6:-0.492754 7:-1 8:-1 9:-1 10:-1 11:-1 12:-1 13:-1 15:-1 16:-1 17:-1 18:-1 19:0.869433 20:-0.888883 21:0.126067 
-34.61729930663294 1:-0.597032 2:-0.0322581 3:0.2 4:0.396226 5:-0.045045 6:-0.15942 7:-1 8:-1 9:-1 10:-1 11:-1 12:-1 13:-1 15:-1 16:1 17:-1 18:-1 19:0.588883 20:-0.608333 21:0.406168 
18.08308565527245 1:-0.670541 2:0.354839 3:0.6 4:0.207547 5:-0.045045 6:0.84058 7:-1 8:-1 9:-1 10:-1 11:-1 12:-1 13:-1 15:-1 16:-1 17:-1 18:-1 19:-0.419445 20:0.441667 21:-0.571429 
-0.262969433198712 1:-0.374578 2:0.16129 3:0.2 4:0.207547 5:-0.261261 6:0.507246 7:-1 8:-1 9:-1 10:-1 11:-1 12:-1 13:1 15:-1 16:-1 17:-1 18:-1 19:0.930567 20:-0.908333 21:-0.0784202 
-0.3359927855611134 1:-0.131052 2:0.16129 3:0.2 4:0.207547 5:-0.261261 6:0.507246 7:-1 8:-1 9:-1 10:-1 11:-1 12:-1 13:1 15:-1 16:-1 17:-1 18:-1 19:0.930567 20:-0.908333 21:-0.0784202 
0.3554693590901171 1:0.0409901 2:0.16129 3:0.2 4:0.207547 5:-0.261261 6:0.507246 7:-1 8:-1 9:-1 10:-1 11:-1 12:-1 13:1 15:-1 16:-1 17:-1 18:-1 19:0.930567 20:-0.908333 21:-0.0784202 
-26.94562184231467 1:0.0552667 2:-0.0322581 3:0.2 4:0.396226 5:-0.045045 7:-1 8:-1 9:-1 10:-1 11:-1 12:-1 13:-1 15:-1 16:-1 17:-1 18:-1 19:-0.0277783 21:0.997193 
-197.9804441921236 1:-0.670541 2:0.354839 3:-0.2 4:-0.132075 5:-0.045045 6:0.666667 7:-1 8:-1 9:-1 10:-1 11:-1 12:-1 13:-1 15:-1 16:-1 17:-1 18:-1 19:0.569438 20:-0.544433 21:-0.442571 
313.5252234062722 1:-0.747432 2:0.354839 3:-0.2 4:-0.132075 5:-0.045045 6:0.666667 7:-1 8:-1 9:-1 10:-1 11:-1 12:-1 13:-1 15:-1 16:-1 17:-1 18:-1 19:0.591672 20:-0.566667 21:-0.420151 
-32768 1:-1 2:0.16129 3:0.2 4:0.207547 5:-0.045045 6:0.666667 7:-1 8:-1 9:-1 10:-1 11:-1 12:-1 13:-1 15:-1 16:-1 17:-1 18:-1 19:0.95555 20:-0.927767 21:-0.0560168 
-32768 1:-1 2:0.16129 3:0.2 4:0.207547 5:-0.045045 6:0.666667 7:-1 8:-1 9:-1 10:-1 11:-1 12:-1 13:-1 15:-1 16:-1 17:-1 18:-1 19:0.95555 20:-0.927767 21:-0.0560168 
-9.830521235305154 1:-1 2:-0.0322581 3:0.2 4:0.396226 5:-0.045045 7:-1 8:-1 9:-1 10:-1 11:-1 12:-1 13:-1 15:-1 16:-1 17:-1 18:-1 19:0.347217 20:-0.375 21:0.647059 
-188.5864071596649 1:-1 2:0.16129 3:0.2 4:0.207547 5:-0.045045 6:0.666667 7:-1 8:-1 9:-1 10:-1 11:-1 12:-1 13:-1 15:-1 16:-1 17:-1 18:-1 19:0.986117 20:-0.9861 21:0.00280672 
32768 1:-1 2:0.16129 3:0.2 4:0.207547 5:-0.045045 6:0.666667 7:-1 8:-1 9:-1 10:-1 11:-1 12:-1 13:-1 15:-1 16:-1 17:-1 18:-1 19:0.963883 20:-0.9361 21:-0.0476134 
32768 1:-1 2:0.16129 3:0.2 4:0.207547 5:-0.045045 6:0.666667 7:-1 8:-1 9:-1 10:-1 11:-1 12:-1 13:-1 15:-1 16:-1 17:-1 18:-1 19:0.961117 20:-0.933333 21:-0.0504034 
12139.60596382629 1:-1 2:0.16129 3:0.2 4:0.207547 5:-0.045045 6:0.666667 7:-1 8:-1 9:-1 10:-1 11:-1 12:-1 13:-1 15:-1 16:-1 17:-1 18:-1 19:0.958333 20:-0.93055 21:-0.0532101 
-57.43227546582411 1:-1 2:-0.0322581 3:0.2 4:0.396226 5:-0.045045 7:-1 8:-1 9:-1 10:-1 11:-1 12:-1 13:-1 15:-1 16:-1 17:-1 18:-1 19:0.347217 20:-0.375 21:0.647059 
73.70759401448744 1:-1 2:-0.0322581 3:0.6 4:0.584906 5:-0.045045 7:-1 8:-1 9:-1 10:-1 11:-1 12:-1 13:-1 15:-1 16:-1 17:-1 18:-1 19:0.616667 20:-0.647233 21:0.375345 
-196.6658216788659 1:-0.395353 2:0.16129 3:0.2 4:0.207547 5:-0.045045 6:0.666667 7:-1 8:-1 9:-1 10:-1 11:-1 12:-1 13:-1 15:-1 16:-1 17:-1 18:-1 19:0.997217 20:-0.975 21:-0.00840336 
-25853.84793770508 1:-0.721416 2:0.16129 3:0.2 4:0.207547 5:-0.045045 6:0.666667 7:-1 8:-1 9:-1 10:-1 11:-1 12:-1 13:-1 15:-1 16:-1 17:-1 18:-1 19:0.988883 20:-0.983333 21:2.22045e-16 
32768 1:-0.747432 2:0.16129 3:0.2 4:0.207547 5:-0.045045 6:0.666667 7:-1 8:-1 9:-1 10:-1 11:-1 12:-1 13:-1 15:-1 16:-1 17:-1 18:-1 19:0.991667 20:-0.98055 21:-0.00280672 
1085.529416100144 1:-0.911994 2:0.354839 3:0.2 4:0.0188679 5:-0.045045 6:0.666667 7:-1 8:-1 9:-1 10:-1 11:-1 12:-1 13:-1 15:-1 16:-1 17:-1 18:-1 19:0.816667 20:-0.788883 21:-0.196084 
-27382.41927880912 1:-0.88353 2:0.354839 3:0.2 4:0.0188679 5:-0.045045 6:0.84058 7:-1 8:-1 9:-1 10:-1 11:-1 12:-1 13:-1 15:-1 16:-1 17:-1 18:-1 19:0.741667 20:-0.713883 21:-0.271714 
-32768 1:-0.911994 2:0.354839 3:0.2 4:0.0188679 5:-0.045045 6:0.84058 7:-1 8:-1 9:-1 10:-1 11:-1 12:-1 13:-1 15:-1 16:-1 17:-1 18:-1 19:0.7639 20:-0.736117 21:-0.249294 
32768 1:-0.855487 2:0.354839 3:0.2 4:0.0188679 5:-0.045045 6:0.666667 7:-1 8:-1 9:-1 10:-1 11:-1 12:-1 13:-1 15:-1 16:-1 17:-1 18:-1 19:0.84445 20:-0.816667 21:-0.168067 
-32768 1:-0.88353 2:0.354839 3:0.2 4:0.0188679 5:-0.045045 6:0.84058 7:-1 8:-1 9:-1 10:-1 11:-1 12:-1 13:-1 15:-1 16:-1 17:-1 18:-1 19:0.752783 20:-0.725 21:-0.260504 
32768 1:-0.911994 2:0.354839 3:0.2 4:0.0188679 5:-0.045045 6:0.84058 7:-1 8:-1 9:-1 10:-1 11:-1 12:-1 13:-1 15:-1 16:-1 17:-1 18:-1 19:0.76945 20:-0.741667 21:-0.243697 
-17337.77355995736 1:-0.855487 2:0.16129 3:0.2 4:0.207547 5:-0.045045 6:0.666667 7:-1 8:-1 9:-1 10:-1 11:-1 12:-1 13:-1 15:-1 16:-1 17:-1 18:-1 19:0.977783 20:-0.95 21:-0.0336134 
32768 1:-0.88353 2:0.16129 3:0.2 4:0.207547 5:-0.045045 6:0.507246 7:-1 8:-1 9:-1 10:-1 11:-1 12:-1 13:-1 15:-1 16:-1 17:-1 18:-1 19:0.905567 20:-0.877783 21:-0.106437 
-32768 1:-0.911994 2:0.16129 3:0.2 4:0.207547 5:-0.045045 6:0.666667 7:-1 8:-1 9:-1 10:-1 11:-1 12:-1 13:-1 15:-1 16:-1 17:-1 18:-1 19:0.972233 20:-0.94445 21:-0.0392101 
32768 1:-0.88353 2:0.16129 3:0.2 4:0.207547 5:-0.045045 6:0.507246 7:-1 8:-1 9:-1 10:-1 11:-1 12:-1 13:-1 15:-1 16:-1 17:-1 18:-1 19:0.902783 20:-0.875 21:-0.109244 
32768 1:-0.827862 2:0.16129 3:0.2 4:0.207547 5:-0.045045 6:0.507246 7:-1 8:-1 9:-1 10:-1 11:-1 12:-1 13:-1 15:-1 16:-1 17:-1 18:-1 19:0.880567 20:-0.852783 21:-0.131647 
-9798.690574476484 1:-0.800648 2:0.16129 3:0.2 4:0.207547 5:-0.045045 6:0.507246 7:-1 8:-1 9:-1 10:-1 11:-1 12:-1 13:-1 15:-1 16:-1 17:-1 18:-1 19:0.872233 20:-0.84445 21:-0.14005 
21197.74756027457 1:-0.747432 2:0.16129 3:0.2 4:0.207547 5:-0.045045 6:0.666667 7:-1 8:-1 9:-1 10:-1 11:-1 12:-1 13:-1 15:-1 16:-1 17:-1 18:-1 19:0.94445 20:-0.916667 21:-0.0672269 
32768 1:-0.855487 2:0.354839 3:0.2 4:0.0188679 5:-0.045045 6:0.666667 7:-1 8:-1 9:-1 10:-1 11:-1 12:-1 13:-1 15:-1 16:-1 17:-1 18:-1 19:0.79445 20:-0.766667 21:-0.218487 
9138.307098891764 1:-0.911994 2:0.16129 3:0.2 4:0.207547 5:-0.045045 6:0.507246 7:-1 8:-1 9:-1 10:-1 11:-1 12:-1 13:-1 15:-1 16:-1 17:-1 18:-1 19:0.922233 20:-0.89445 21:-0.0896303 
-32768 1:-0.827862 2:0.16129 3:0.2 4:0.207547 5:-0.045045 6:0.507246 7:-1 8:-1 9:-1 10:-1 11:-1 12:-1 13:-1 15:-1 16:-1 17:-1 18:-1 19:0.880567 20:-0.852783 21:-0.131647 
641.194228255736 1:-0.747432 2:0.354839 3:0.2 4:0.0188679 5:-0.045045 6:0.84058 7:-1 8:-1 9:-1 10:-1 11:-1 12:-1 13:-1 15:-1 16:-1 17:-1 18:-1 19:0.702783 20:-0.675 21:-0.310924 
32768 1:-0.855487 2:0.16129 3:0.2 4:0.207547 5:-0.045045 6:0.666667 7:-1 8:-1 9:-1 10:-1 11:-1 12:-1 13:-1 15:-1 16:-1 17:-1 18:-1 19:0.955567 20:-0.927783 21:-0.0560168 
-32768 1:-0.911994 2:0.16129 3:0.2 4:0.207547 5:-0.045045 6:0.507246 7:-1 8:-1 9:-1 10:-1 11:-1 12:-1 13:-1 15:-1 16:-1 17:-1 18:-1 19:0.908333 20:-0.88055 21:-0.103647 
-16720.22032335317 1:-0.855487 2:0.354839 3:0.2 4:0.0188679 5:-0.045045 6:0.84058 7:-1 8:-1 9:-1 10:-1 11:-1 12:-1 13:-1 15:-1 16:-1 17:-1 18:-1 19:0.6889 20:-0.661117 21:-0.324924 
32768 1:-0.88353 2:0.354839 3:0.2 4:0.0188679 5:-0.045045 6:0.84058 7:-1 8:-1 9:-1 10:-1 11:-1 12:-1 13:-1 15:-1 16:-1 17:-1 18:-1 19:0.74445 20:-0.716667 21:-0.268908 
32768 1:-0.88353 2:0.16129 3:0.2 4:0.207547 5:-0.045045 6:0.507246 7:-1 8:-1 9:-1 10:-1 11:-1 12:-1 13:-1 15:-1 16:-1 17:-1 18:-1 19:0.908333 20:-0.88055 21:-0.103647 
32768 1:-0.88353 2:0.16129 3:0.2 4:0.207547 5:-0.045045 6:0.666667 7:-1 8:-1 9:-1 10:-1 11:-1 12:-1 13:-1 15:-1 16:-1 17:-1 18:-1 19:0.958333 20:-0.93055 21:-0.0532269 
-32768 1:-0.773841 2:0.16129 3:0.2 4:0.207547 5:-0.045045 6:0.666667 7:-1 8:-1 9:-1 10:-1 11:-1 12:-1 13:-1 15:-1 16:-1 17:-1 18:-1 19:0.94445 20:-0.916667 21:-0.0672269 
-22095.38247592873 1:-0.827862 2:0.16129 3:0.2 4:0.207547 5:-0.045045 6:0.666667 7:-1 8:-1 9:-1 10:-1 11:-1 12:-1 13:-1 15:-1 16:-1 17:-1 18:-1 19:0.95 20:-0.922217 21:-0.0616303 
-32768 1:-0.88353 2:0.16129 3:0.2 4:0.207547 5:-0.045045 6:0.666667 7:-1 8:-1 9:-1 10:-1 11:-1 12:-1 13:-1 15:-1 16:-1 17:-1 18:-1 19:0.966667 20:-0.938883 21:-0.0448235 
-16968.9954274888 1:-0.827862 2:0.354839 3:0.2 4:0.0188679 5:-0.045045 6:0.666667 7:-1 8:-1 9:-1 10:-1 11:-1 12:-1 13:-1 15:-1 16:-1 17:-1 18:-1 19:0.822233 20:-0.79445 21:-0.190471 
82.89858798913015 1:0.400615 2:0.16129 3:0.2 4:0.207547 5:-0.045045 6:0.666667 7:-1 8:-1 9:-1 10:-1 11:-1 12:-1 13:-1 15:-1 16:-1 17:-1 18:-1 19:0.95 20:-0.922217 21:-0.0616303 
