svm_type c_svc
kernel_type rbf
gamma 0.05
nr_class 16
total_sv 1080
rho -0.614118 0.366261 -0.164918 0.609588 -0.878253 0.0212287 -0.200199 -0.718173 -0.733857 -0.878052 -0.337499 0.382103 -1.06295 -0.25116 -1.04621 0.277173 -0.109674 0.183338 -1.05536 0.564743 0.0400612 -1.13828 -0.926889 -1.06404 -0.316824 0.663899 -1.1162 0.2072 -1.09409 -1.06869 -1.08835 -0.835803 -0.268616 -0.654353 -1.47383 -1.32143 -1.11701 -1.0422 -0.0982271 -1.03097 0.0452168 -1.05309 0.342298 -0.640781 0.69282 -0.472739 -0.910764 -0.852409 -0.956775 -1.05499 0.987177 -1.06329 0.266874 -1.00144 -0.947878 0.276815 -0.0293733 -0.915892 -0.633245 -0.757622 -0.963455 0.71042 -1.01234 0.313228 -1.03391 0.798724 0.817835 0.165428 -0.0476178 -0.292085 -0.0723395 0.860305 -1.0902 1.38688 -0.954472 -0.645692 -1.18675 -1.34864 -0.890241 -0.916785 0.553903 -1.08991 -0.155733 -1.0255 -1.05311 -0.919056 -1.03879 -1.08382 1.04129 -1.04424 0.236899 -1.00591 0.32035 -0.671328 0.135238 1.46705 -1.10244 1.25883 -0.992064 -0.721598 -0.326925 1.4802 -1.11595 0.999923 -0.944203 0.324459 1.10914 -0.88767 0.930108 -0.892671 1.08464 -1.04796 0.409189 -1.02796 -1.03955 -0.359881 -1.02734 1.10734 -0.565798 -1.03035
label 10 8 13 4 14 7 11 5 6 3 2 15 12 16 9 1
nr_sv 68 43 153 147 109 43 88 95 50 67 24 37 108 5 39 4
SV
1 1 1 1 1 1 1 1 1 1 0 1 0 0 0 1:-0.0322581 2:-0.2 3:0.207547 4:-0.045045 5:-0.333333 6:-1 7:-1 8:-1 9:-1 10:-1 11:-1 12:-1 14:-1 15:-1 16:-1 17:-1 18:0.872217 19:-0.861117 20:-0.131647 
1 1 1 1 1 1 1 1 1 0.3376901821639784 0 1 0 0 0 1:-0.0322581 2:-0.2 3:0.207547 4:-0.045045 5:-0.333333 6:-1 7:-1 8:-1 9:-1 10:-1 11:-1 12:-1 14:-1 15:-1 16:-1 17:-1 18:0.866667 19:-0.855567 20:-0.137244 
1 1 1 1 1 1 1 1 1 1 0 1 0 0 0 1:-0.0322581 2:-0.2 3:0.207547 4:-0.045045 5:-0.333333 6:-1 7:-1 8:-1 9:-1 10:-1 11:-1 12:-1 14:-1 15:-1 16:-1 17:-1 18:0.872217 19:-0.861117 20:-0.131647 
1 1 1 1 1 1 1 1 1 1 0 1 0 0.4079248188140376 0 1:-0.0322581 2:-0.2 3:0.207547 4:-0.045045 5:-0.333333 6:-1 7:-1 8:-1 9:-1 10:-1 11:-1 12:-1 14:-1 15:-1 16:-1 17:-1 18:0.866667 19:-0.855567 20:-0.137244 
1 1 1 1 0 1 1 1 1 0 1 1 1 1 0 1:-0.225806 2:0.6 3:0.773585 4:-0.045045 5:-0.666667 6:-1 7:-1 8:-1 9:-1 10:-1 11:-1 12:-1 14:-1 15:-1 16:-1 17:-1 18:-0.936112 19:0.96945 20:-0.0448067 
1 1 1 0 1 1 1 1 1 1 0 1 0 0 0 1:-0.0322581 2:0.2 3:0.396226 4:-0.045045 6:-1 7:-1 8:-1 9:-1 10:-1 11:-1 12:-1 14:-1 15:-1 16:-1 17:-1 18:0.966667 19:-0.95555 20:-0.0364202 
1 1 1 1 0 1 1 0.9796934325200047 0.7597915560328971 0 1 1 0 0.958182937812294 0.4819491220838086 1:-0.419355 2:0.2 3:0.773585 4:-0.153153 5:-0.666667 6:-1 7:-1 8:-1 9:-1 10:-1 11:1 12:-1 14:-1 15:-1 16:-1 17:-1 18:0.461112 19:-0.433333 20:-0.554622 
1 1 1 1 0 1 1 1 1 0 1 1 1 1 0 1:-0.225806 2:0.2 3:0.584906 4:-0.045045 5:-0.492754 6:-1 7:-1 8:-1 9:-1 10:-1 11:-1 12:-1 14:-1 15:-1 16:-1 17:-1 18:-0.613888 19:0.588883 20:0.403361 
0.9192054103176479 1 1 1 1 1 1 1 1 1 1 1 0 1 0.1388306547543029 1:-0.0322581 2:-0.2 3:0.207547 4:-0.045045 5:-0.333333 6:-1 7:-1 8:-1 9:-1 10:-1 11:-1 12:-1 14:-1 15:1 16:-1 17:-1 18:0.991667 19:-0.983333 20:1.68067e-05 
0.1754897635857476 1 1 1 0.6162913296640796 1 1 0 0.01253430683832947 0 1 1 0 0.4514393993826803 0 1:0.0322581 2:0.2 3:0.207547 4:0.63964 5:-0.492754 6:-1 7:-1 8:1 9:-1 10:-1 11:-1 12:-1 14:-1 15:-1 16:-1 17:-1 18:0.597228 19:-0.580567 20:-0.411748 
0 1 1 0 0 1 1 1 1 0 0 1 0 0 0 1:-0.225806 2:0.2 3:0.584906 4:-0.261261 5:-0.666667 6:-1 7:-1 8:-1 9:-1 10:-1 11:-1 12:-1 14:-1 15:-1 16:-1 17:-1 18:0.138888 19:-0.152783 20:0.862756 
0 1 1 1 1 1 1 0 0 0 1 1 0.1391874925673956 1 0 1:0.354839 2:0.2 3:0.0188679 4:-0.045045 5:-0.333333 6:-1 7:-1 8:-1 9:-1 10:-1 11:-1 12:-1 14:-1 15:-1 16:-1 17:-1 18:0.302772 19:-0.291667 20:-0.705882 
1 1 1 1 0 1 1 1 1 0.4212516922052873 1 1 0 0.6070893164485226 0.5101982603963062 1:-0.419355 2:0.2 3:0.773585 4:-0.153153 5:-0.666667 6:-1 7:-1 8:-1 9:-1 10:-1 11:1 12:-1 14:-1 15:-1 16:-1 17:-1 18:-0.630557 19:0.61945 20:0.380963 
0 1 1 0 0 1 1 1 1 0 0 1 0 0 0 1:-0.225806 2:0.2 3:0.584906 4:-0.261261 5:-0.666667 6:-1 7:-1 8:-1 9:-1 10:-1 11:-1 12:-1 14:-1 15:-1 16:-1 17:-1 18:0.138888 19:-0.152783 20:0.862756 
0 1 1 0 0 1 1 1 1 0 0 1 0 0 0 1:-0.225806 2:0.2 3:0.584906 4:-0.261261 5:-0.666667 6:-1 7:-1 8:-1 9:-1 10:-1 11:-1 12:-1 14:-1 15:-1 16:-1 17:-1 18:0.138888 19:-0.152783 20:0.862756 
0 1 1 0 0 1 1 1 1 0.7530411572857927 0 1 0 0 0 1:-0.225806 2:0.2 3:0.584906 4:-0.261261 5:-0.666667 6:-1 7:-1 8:-1 9:-1 10:-1 11:-1 12:-1 14:-1 15:-1 16:-1 17:-1 18:0.138888 19:-0.152783 20:0.862756 
0 1 1 0 0 1 1 1 1 1 0 1 0 0 0 1:-0.225806 2:0.2 3:0.584906 4:-0.261261 5:-0.666667 6:-1 7:-1 8:-1 9:-1 10:-1 11:-1 12:-1 14:-1 15:-1 16:-1 17:-1 18:0.138888 19:-0.152783 20:0.862756 
0 1 1 0.4464991732398958 0 1 1 1 1 1 0 1 0 0 0 1:-0.225806 2:0.2 3:0.584906 4:-0.261261 5:-0.666667 6:-1 7:-1 8:-1 9:-1 10:-1 11:-1 12:-1 14:-1 15:-1 16:-1 17:-1 18:0.138888 19:-0.152783 20:0.862756 
0 1 1 1 0 1 1 1 1 1 0 1 0 0 0 1:-0.225806 2:0.2 3:0.584906 4:-0.261261 5:-0.666667 6:-1 7:-1 8:-1 9:-1 10:-1 11:-1 12:-1 14:-1 15:-1 16:-1 17:-1 18:0.138888 19:-0.152783 20:0.862756 
0 1 1 1 0.7635485854133373 1 1 1 1 1 0.3424729928741045 1 0 0 0 1:-0.225806 2:0.2 3:0.584906 4:-0.261261 5:-0.666667 6:-1 7:-1 8:-1 9:-1 10:-1 11:-1 12:-1 14:-1 15:-1 16:-1 17:-1 18:0.138888 19:-0.152783 20:0.862756 
0 1 1 1 1 1 1 1 1 1 1 1 0 0 0 1:-0.225806 2:0.2 3:0.584906 4:-0.261261 5:-0.666667 6:-1 7:-1 8:-1 9:-1 10:-1 11:-1 12:-1 14:-1 15:-1 16:-1 17:-1 18:0.138888 19:-0.152783 20:0.862756 
0 1 1 1 1 1 1 1 1 1 1 1 0 0 0 1:-0.225806 2:0.2 3:0.584906 4:-0.261261 5:-0.666667 6:-1 7:-1 8:-1 9:-1 10:-1 11:-1 12:-1 14:-1 15:-1 16:-1 17:-1 18:0.138888 19:-0.152783 20:0.862756 
0 1 1 1 1 1 1 1 1 1 1 1 0 0 0.8802645880986257 1:-0.225806 2:0.2 3:0.584906 4:-0.261261 5:-0.666667 6:-1 7:-1 8:-1 9:-1 10:-1 11:-1 12:-1 14:-1 15:-1 16:-1 17:-1 18:0.138888 19:-0.152783 20:0.862756 
0.1067655285261621 1 1 1 0.9796977807426215 1 1 1 1 0.9515738521853538 1 1 0.2933614353247807 0.06721862548261515 0 1:-0.225806 2:0.2 3:0.584906 4:-0.261261 5:-0.666667 6:-1 7:-1 8:-1 9:-1 10:-1 11:-1 12:-1 14:-1 15:-1 16:-1 17:-1 18:0.138888 19:-0.152783 20:0.862756 
0.1395410986840206 1 1 1 1 1 1 1 1 0.8463433026550993 1 1 0 1 0.6270545775456553 1:0.354839 2:0.2 3:0.0188679 4:-0.045045 5:-0.492754 6:-1 7:-1 8:-1 9:-1 10:-1 11:-1 12:-1 14:-1 15:1 16:-1 17:-1 18:0.319445 19:-0.297217 20:-0.694672 
1 1 1 1 0 1 1 0.8453294678387105 1 0 1 1 0.4937583807223746 1 0 1:-0.0322581 2:0.2 3:0.396226 4:-0.045045 5:-0.15942 6:-1 7:-1 8:-1 9:-1 10:-1 11:-1 12:-1 14:-1 15:-1 16:-1 17:-1 18:-0.0333333 19:0.0666667 20:-0.955176 
1 1 1 0 1 1 1 1 1 0 0 1 0 1 0 1:-0.0322581 2:0.2 3:0.396226 4:-0.045045 5:-0.666667 6:-1 7:-1 8:-1 9:-1 10:-1 11:-1 12:-1 14:-1 15:-1 16:-1 17:-1 18:0.766667 19:-0.79445 20:0.224084 
1 1 1 0 1 1 1 1 1 0 0 1 0 1 0 1:-0.0322581 2:0.2 3:0.396226 4:-0.045045 5:-0.666667 6:-1 7:-1 8:-1 9:-1 10:-1 11:-1 12:-1 14:-1 15:-1 16:-1 17:-1 18:0.763883 19:-0.791667 20:0.226891 
1 1 1 1 0 1 1 1 1 0 1 1 0.1788289700970081 1 0.7945456107114579 1:-0.612903 2:0.2 3:1 4:-0.153153 5:-0.492754 6:-1 7:-1 8:-1 9:-1 10:-1 11:-1 12:-1 14:-1 15:-1 16:-1 17:-1 18:-1 19:0.988883 20:0.00841513 
1 1 1 1 1 1 1 1 1 0 1 1 1 1 0 1:0.16129 2:-0.2 3:0.0188679 4:-0.045045 5:-0.15942 6:-1 7:-1 8:-1 9:-1 10:-1 11:-1 12:-1 14:-1 15:-1 16:-1 17:-1 18:-0.372228 19:0.391667 20:-0.621832 
0 1 1 1 0 1 1 0.03890211035258056 1 0 1 1 0 0 0 1:0.569892 2:0.644444 3:-0.207547 4:0.63964 5:-0.15942 6:-1 7:-1 8:-1 9:-1 10:-1 11:-1 12:-1 14:-1 15:-1 16:1 17:-1 18:0.174995 19:-0.166667 20:-0.834739 
0 1 1 1 1 1 1 0 1 0 1 1 0 1 0 1:0.16129 2:0.2 3:0.207547 4:-0.045045 5:-0.492754 6:-1 7:-1 8:-1 9:-1 10:-1 11:-1 12:-1 14:-1 15:-1 16:-1 17:-1 18:0.569438 19:-0.558333 20:-0.436975 
0 1 1 1 1 1 1 0 1 0 1 1 0 1 0 1:0.16129 2:0.2 3:0.207547 4:-0.045045 5:-0.492754 6:-1 7:-1 8:-1 9:-1 10:-1 11:-1 12:-1 14:-1 15:-1 16:-1 17:-1 18:0.569438 19:-0.558333 20:-0.436975 
0.219188493535857 1 1 1 1 1 1 0 1 0 1 1 0 1 0 1:0.16129 2:0.2 3:0.207547 4:-0.045045 5:-0.492754 6:-1 7:-1 8:-1 9:-1 10:-1 11:-1 12:-1 14:-1 15:-1 16:-1 17:-1 18:0.569438 19:-0.558333 20:-0.436975 
1 1 1 1 1 1 1 0.9372229522209107 1 0 1 1 0 1 0 1:0.16129 2:0.2 3:0.207547 4:-0.045045 5:-0.492754 6:-1 7:-1 8:-1 9:-1 10:-1 11:-1 12:-1 14:-1 15:-1 16:-1 17:-1 18:0.569438 19:-0.558333 20:-0.436975 
1 1 1 0.7747462644487688 1 1 1 1 1 0 0 1 0 1 0 1:0.16129 2:-0.6 3:-0.132075 4:-0.387387 5:-0.666667 6:-1 7:-1 8:-1 9:-1 10:-1 11:-1 12:-1 14:-1 15:-1 16:-1 17:-1 18:0.972233 19:-0.9889 20:0.0224034 
1 1 1 0 1 1 1 1 1 1 0 1 0 1 0.2769370010400101 1:-0.225806 2:-0.2 3:0.396226 4:-0.045045 5:-0.492754 6:-1 7:-1 8:-1 9:-1 10:-1 11:-1 12:-1 14:-1 15:-1 16:-1 17:-1 18:0.869433 19:-0.888883 20:0.126067 
0 1 1 0 1 1 1 0 0 0 0 1 0 0 0 1:0.16129 2:0.2 3:0.207547 4:-0.261261 5:0.507246 6:-1 7:-1 8:-1 9:-1 10:-1 11:-1 12:1 14:-1 15:-1 16:-1 17:-1 18:0.930567 19:-0.908333 20:-0.0784202 
0.2084091959153704 1 1 1 1 1 1 0 0.6442256167768396 0 0 1 0 0.3189210688585331 0 1:0.16129 2:0.2 3:0.207547 4:-0.261261 5:0.507246 6:-1 7:-1 8:-1 9:-1 10:-1 11:-1 12:1 14:-1 15:-1 16:-1 17:-1 18:0.930567 19:-0.908333 20:-0.0784202 
0.9961958010713663 1 1 0.9856123392533005 1 1 1 0.6840305589920981 0.5918546539880212 0.1398763074219953 0.9179708442658354 1 0 0.9742657947709719 0 1:0.16129 2:0.2 3:0.207547 4:-0.261261 5:0.507246 6:-1 7:-1 8:-1 9:-1 10:-1 11:-1 12:1 14:-1 15:-1 16:-1 17:-1 18:0.930567 19:-0.908333 20:-0.0784202 
0 1 1 1 1 1 1 0 0 0 1 1 0 1 0 1:0.354839 2:-0.2 3:-0.132075 4:-0.045045 5:0.666667 6:-1 7:-1 8:-1 9:-1 10:-1 11:-1 12:-1 14:-1 15:-1 16:-1 17:-1 18:0.569438 19:-0.544433 20:-0.442571 
0.9342158083554898 1 1 1 1 1 1 0.02701967382107513 0.198465970686941 0 1 1 0 1 0 1:0.354839 2:-0.2 3:-0.132075 4:-0.045045 5:0.666667 6:-1 7:-1 8:-1 9:-1 10:-1 11:-1 12:-1 14:-1 15:-1 16:-1 17:-1 18:0.575005 19:-0.55 20:-0.436958 
1 1 1 1 1 1 1 1 1 1 1 1 0 0 0 1:0.16129 2:0.2 3:0.207547 4:-0.045045 5:0.666667 6:-1 7:-1 8:-1 9:-1 10:-1 11:-1 12:-1 14:-1 15:-1 16:-1 17:-1 18:0.988883 19:-0.983333 20:2.22045e-16 
0.5055034234776943 1 1 1 1 1 1 1 1 1 1 1 0.2188372512601426 0.9573087506479088 0 1:0.354839 2:0.2 3:0.0188679 4:-0.045045 5:0.84058 6:-1 7:-1 8:-1 9:-1 10:-1 11:-1 12:-1 14:-1 15:-1 16:-1 17:-1 18:0.752783 19:-0.725 20:-0.260504 
1 1 1 1 1 1 1 1 1 0 1 1 0 1 0 1:-0.0322581 2:0.6 3:0.584906 4:-0.045045 5:0.333333 6:-1 7:-1 8:-1 9:-1 10:-1 11:-1 12:-1 14:-1 15:-1 16:-1 17:-1 18:0.902783 19:-0.883333 20:-0.106437 
1 1 1 1 1 1 1 1 1 0.586185561793784 1 1 0.567823149630296 0.1733648582802164 0 1:-0.0322581 2:0.6 3:0.584906 4:-0.045045 5:0.333333 6:-1 7:-1 8:-1 9:-1 10:-1 11:-1 12:-1 14:-1 15:-1 16:-1 17:-1 18:0.902783 19:-0.883333 20:-0.106437 
0.836236894144335 0.195109734716514 0.5521317035366344 0.1351902281440583 0 1 1 0 0 0 0 0.8862350143980844 0 1 0 1:-0.225806 2:0.6 3:0.773585 4:-0.81982 6:-1 7:-1 8:1 9:-1 10:1 11:-1 12:-1 14:-1 15:-1 16:-1 17:-1 18:0.880567 19:-0.858333 20:-0.12884 
1 1 1 1 0 1 1 0.4472780826304612 0 0 0 1 0 1 0 1:-0.225806 2:0.6 3:0.773585 4:-0.81982 6:-1 7:-1 8:1 9:-1 10:1 11:-1 12:-1 14:-1 15:-1 16:-1 17:-1 18:0.880567 19:-0.858333 20:-0.12884 
0.3627385203957568 0.9369600536197066 0.9351745407615168 0.988542964340657 0.125386980461857 1 1 1 0.7561134570732948 0 0 1 0 1 0 1:-0.225806 2:0.6 3:0.773585 4:-0.81982 6:-1 7:-1 8:1 9:-1 10:1 11:-1 12:-1 14:-1 15:-1 16:-1 17:-1 18:0.880567 19:-0.858333 20:-0.12884 
1 1 0.324131970221361 1 1 1 0.7849169774300699 0.5584546855222291 0.2755890041542776 0.4982412252866146 0 1 0 1 0 1:-0.225806 2:0.2 3:0.584906 4:-0.045045 5:-0.15942 6:-1 7:-1 8:1 9:-1 10:1 11:-1 12:-1 14:-1 15:-1 16:-1 17:-1 18:0.836117 19:-0.813883 20:-0.173664 
0 0.1267387880977543 1 0 0 1 1 0 0.6382209961039829 0 0 1 0 1 0 1:-0.505376 2:0.2 3:0.849057 4:0.459459 5:-0.666667 6:-1 7:-1 8:-1 9:-1 10:-1 11:-1 12:-1 14:-1 15:-1 16:-1 17:1 18:0.49445 19:-0.5139 20:0.501395 
1 1 1 0 0 1 1 0 1 0 0 1 0 1 0 1:-0.505376 2:0.2 3:0.849057 4:0.459459 5:-0.666667 6:-1 7:-1 8:-1 9:-1 10:-1 11:-1 12:-1 14:-1 15:-1 16:-1 17:1 18:0.49445 19:-0.5139 20:0.501395 
1 1 1 0 0 1 1 1 1 0 0 1 0 1 0 1:-0.505376 2:0.2 3:0.849057 4:0.459459 5:-0.666667 6:-1 7:-1 8:-1 9:-1 10:-1 11:-1 12:-1 14:-1 15:-1 16:-1 17:1 18:0.49445 19:-0.5139 20:0.501395 
1 1 1 0 0 1 1 1 1 0 0 1 0 1 0 1:-0.505376 2:0.2 3:0.849057 4:0.459459 5:-0.666667 6:-1 7:-1 8:-1 9:-1 10:-1 11:-1 12:-1 14:-1 15:-1 16:-1 17:1 18:0.49445 19:-0.5139 20:0.501395 
0.5382081011549501 0.9951751013523171 1 0.3004770223708172 0 1 0.9718487048878908 0.5973413204701452 0.8400127959824836 0.5614957417617846 0.3853216914840449 1 0 1 0.06115985102974894 1:-0.505376 2:0.2 3:0.849057 4:0.459459 5:-0.666667 6:-1 7:-1 8:-1 9:-1 10:-1 11:-1 12:-1 14:-1 15:-1 16:-1 17:1 18:0.49445 19:-0.5139 20:0.501395 
0.9330753352521565 1 1 1 1 1 1 0.8847277156317848 0 0 1 1 0.1082033203980028 1 0 1:0.354839 2:-0.2 3:-0.132075 4:-0.045045 5:0.84058 6:-1 7:-1 8:-1 9:-1 10:-1 11:-1 12:-1 14:-1 15:-1 16:-1 17:-1 18:-0.211117 19:0.227783 20:-0.784303 
1 1 1 1 1 1 1 1 1 1 1 1 0 1 0.2290603343400841 1:-0.0322581 2:-1 3:-0.132075 4:-0.045045 5:0.666667 6:-1 7:-1 8:-1 9:-1 10:-1 11:-1 12:-1 14:-1 15:-1 16:-1 17:-1 18:0.7861 19:-0.775 20:-0.218487 
0.827569567816366 1 1 1 1 1 1 1 1 1 0 1 0 0.3731851839168319 0 1:0.16129 2:0.2 3:0.207547 4:-1 5:-0.826087 6:-1 7:-1 8:-1 9:-1 10:-1 11:-1 12:-1 14:-1 15:-1 16:1 17:-1 18:0.972217 19:-0.986117 20:0.0252101 
0.2976570577670797 1 1 1 0 1 1 0 0 0 1 1 0 0 0 1:0.569892 2:0.422222 3:-0.358491 4:0.81982 5:0.173913 6:-1 7:-1 8:-1 9:-1 10:-1 11:-1 12:-1 14:-1 15:-1 16:1 17:-1 18:0.113895 19:-0.0833333 20:-0.904756 
1 1 1 1 1 1 1 0 1 0.9673536886199459 1 1 0 0.4690218163854216 0 1:0.569892 2:0.422222 3:-0.358491 4:0.81982 5:0.173913 6:-1 7:-1 8:-1 9:-1 10:-1 11:-1 12:-1 14:-1 15:-1 16:1 17:-1 18:0.113895 19:-0.0833333 20:-0.904756 
1 1 1 1 0.5150753237181048 1 1 0 0.9170437733346235 0.9369472886203641 1 1 0 0.9695349759220103 0 1:0.569892 2:0.422222 3:-0.358491 4:0.81982 5:0.173913 6:-1 7:-1 8:-1 9:-1 10:-1 11:-1 12:-1 14:-1 15:-1 16:1 17:-1 18:0.113895 19:-0.0833333 20:-0.904756 
1 1 1 1 1 1 1 1 1 0 0 1 0 0 0 1:0.16129 2:0.2 3:0.207547 4:-0.045045 5:-0.333333 6:-1 7:-1 8:-1 9:-1 10:-1 11:-1 12:-1 14:-1 15:-1 16:-1 17:-1 18:0.91945 19:-0.8889 20:-0.0924202 
1 1 1 1 1 1 1 1 1 0 0 1 0 0 0 1:0.16129 2:0.2 3:0.207547 4:-0.045045 5:-0.333333 6:-1 7:-1 8:-1 9:-1 10:-1 11:-1 12:-1 14:-1 15:-1 16:-1 17:-1 18:0.913883 19:-0.883333 20:-0.0980336 
1 1 1 1 1 1 1 1 1 0 0 1 0 0 0 1:0.16129 2:0.2 3:0.207547 4:-0.045045 5:-0.333333 6:-1 7:-1 8:-1 9:-1 10:-1 11:-1 12:-1 14:-1 15:-1 16:-1 17:-1 18:0.908333 19:-0.877783 20:-0.10363 
1 1 1 1 1 1 1 1 1 0 0 1 0 0.2725424532779558 0 1:0.16129 2:0.2 3:0.207547 4:-0.045045 5:-0.333333 6:-1 7:-1 8:-1 9:-1 10:-1 11:-1 12:-1 14:-1 15:-1 16:-1 17:-1 18:0.927783 19:-0.897233 20:-0.0840168 
1 1 1 1 1 1 1 1 1 0 0 1 0 0 0 1:0.16129 2:0.2 3:0.207547 4:-0.045045 5:-0.333333 6:-1 7:-1 8:-1 9:-1 10:-1 11:-1 12:-1 14:-1 15:-1 16:-1 17:-1 18:0.911117 19:-0.880567 20:-0.100824 
1 1 1 0 0 1 1 1 1 0 0 1 0 1 0 1:-0.225806 2:0.6 3:0.773585 4:-0.045045 5:-0.666667 6:-1 7:-1 8:-1 9:-1 10:-1 11:-1 12:-1 14:-1 15:-1 16:-1 17:-1 18:0.786117 19:-0.758333 20:-0.226891 
1 1 1 1 1 1 1 1 1 0 1 1 0 1 0 1:-0.0322581 2:-0.2 3:0.207547 4:-0.045045 6:-1 7:-1 8:-1 9:-1 10:-1 11:-1 12:-1 14:-1 15:-1 16:-1 17:-1 18:0.297228 19:-0.286117 20:-0.711479 
-1 1 1 1 1 1 1 1 1 1 1 1 0 1 0 1:-0.0322581 2:-0.6 3:0.0188679 4:-0.045045 5:0.333333 6:-1 7:-1 8:-1 9:-1 10:-1 11:-1 12:-1 14:-1 15:-1 16:-1 17:-1 18:0.83055 19:-0.85 20:0.165277 
-1 1 1 1 1 1 1 1 1 1 1 1 0 1 0.5629310673603065 1:-0.0322581 2:-0.6 3:0.0188679 4:-0.045045 5:0.333333 6:-1 7:-1 8:-1 9:-1 10:-1 11:-1 12:-1 14:-1 15:-1 16:-1 17:-1 18:0.83055 19:-0.85 20:0.165277 
-1 1 1 1 0 1 1 1 1 0 1 1 0 1 0.8749749678804739 1:-0.612903 2:-0.2 3:0.773585 4:-0.153153 5:-0.666667 6:-1 7:-1 8:-1 9:-1 10:-1 11:1 12:-1 14:-1 15:-1 16:-1 17:-1 18:-0.249995 19:0.272217 20:-0.742303 
-1 1 1 1 1 1 1 1 1 1 0 1 0 1 0.1622124577865903 1:0.16129 2:-0.2 3:0.0188679 4:-0.045045 5:-0.666667 6:-1 7:-1 8:-1 9:-1 10:-1 11:-1 12:-1 14:-1 15:-1 16:-1 17:-1 18:0.961117 19:-0.933333 20:-0.0504034 
-1 1 1 1 1 1 1 1 1 1 0.09382872973235398 1 0 0.06486992617399591 0.023343017973823 1:-0.182796 2:-0.0222222 3:0.283019 4:0.459459 5:-0.666667 6:-1 7:-1 8:-1 9:-1 10:-1 11:-1 12:-1 14:-1 15:-1 16:1 17:-1 18:0.858333 19:-0.883333 20:0.134471 
-1 1 1 1 1 1 1 1 1 1 0 1 0 0 0 1:-0.0322581 2:-0.2 3:0.207547 4:-0.045045 6:-1 7:-1 8:-1 9:-1 10:-1 11:-1 12:-1 14:-1 15:-1 16:-1 17:-1 18:0.99445 19:-0.980567 20:-0.0111933 
-1 1 1 1 1 1 1 1 1 1 0 1 0 0 0 1:-0.0322581 2:-0.2 3:0.207547 4:-0.045045 6:-1 7:-1 8:-1 9:-1 10:-1 11:-1 12:-1 14:-1 15:-1 16:-1 17:-1 18:0.986117 19:-0.972233 20:-0.0195966 
-1 1 1 1 1 1 1 1 1 1 0.5662518997919423 1 0 0 0 1:-0.0322581 2:-0.2 3:0.207547 4:-0.045045 6:-1 7:-1 8:-1 9:-1 10:-1 11:-1 12:-1 14:-1 15:-1 16:-1 17:-1 18:0.975 19:-0.961117 20:-0.0308067 
-1 1 1 1 1 1 1 1 1 1 0 1 0 1 0 1:-0.806452 2:-0.2 3:1 4:-0.261261 5:-0.15942 6:-1 7:-1 8:-1 9:-1 10:-1 11:-1 12:-1 14:-1 15:-1 16:-1 17:-1 18:0.933333 19:-0.925 20:-0.0672269 
-1 1 1 1 1 1 1 1 1 1 0 1 0 1 0.2433367943173524 1:-0.806452 2:-0.2 3:1 4:-0.261261 5:-0.15942 6:-1 7:-1 8:-1 9:-1 10:-1 11:-1 12:-1 14:-1 15:-1 16:-1 17:-1 18:0.933333 19:-0.925 20:-0.0672269 
-1 1 1 1 1 1 1 1 1 0 1 1 0.8911549006660539 1 0 1:0.354839 2:0.2 3:0.0188679 4:-0.045045 5:-0.15942 6:-1 7:-1 8:-1 9:-1 10:-1 11:-1 12:-1 14:-1 15:-1 16:-1 17:-1 18:-0.111117 19:0.122233 20:-0.88795 
-1 1 1 1 0 1 1 1 1 1 1 1 1 1 0 1:-0.612903 2:0.2 3:1 4:-0.153153 5:-0.492754 6:-1 7:-1 8:-1 9:-1 10:-1 11:-1 12:-1 14:-1 15:-1 16:-1 17:-1 18:-0.997223 19:0.986117 20:0.0112151 
-1 1 1 1 1 1 1 0.2000700846465867 1 0.7675103389180055 1 1 0 1 0 1:0.247312 2:0.2 3:-0.0566038 4:0.63964 5:-0.15942 6:-1 7:-1 8:-1 9:-1 10:-1 11:-1 12:-1 14:-1 15:-1 16:1 17:-1 18:-0.341662 19:0.3611 20:-0.652655 
-1 1 1 1 0.5097730008114049 1 1 1 1 1 1 1 0.01282743569037197 1 0 1:0.247312 2:0.2 3:-0.0566038 4:0.63964 5:-0.15942 6:-1 7:-1 8:-1 9:-1 10:-1 11:-1 12:-1 14:-1 15:-1 16:1 17:-1 18:-0.352778 19:0.372217 20:-0.641445 
-1 1 1 1 1 1 1 1 1 0 1 1 1 1 0 1:0.16129 2:-0.2 3:0.0188679 4:-0.045045 5:-0.15942 6:-1 7:-1 8:-1 9:-1 10:-1 11:-1 12:-1 14:-1 15:-1 16:-1 17:-1 18:-0.383328 19:0.402767 20:-0.610639 
-1 1 1 1 1 1 1 1 1 1 1 1 0 1 0 1:0.354839 2:-0.6 3:-0.283019 4:-0.045045 5:-0.333333 6:-1 7:-1 8:-1 9:-1 10:-1 11:-1 12:-1 14:-1 15:-1 16:-1 17:-1 18:0.883333 19:-0.872233 20:-0.120437 
-1 1 1 1 1 1 1 1 1 0 1 1 0 1 0 1:0.16129 2:0.2 3:0.207547 4:-0.045045 5:-0.492754 6:-1 7:-1 8:-1 9:-1 10:-1 11:-1 12:-1 14:-1 15:-1 16:-1 17:-1 18:0.280555 19:-0.26945 20:-0.728286 
-1 1 1 1 1 1 1 1 1 0 1 1 0 1 0 1:0.16129 2:0.2 3:0.207547 4:-0.045045 5:-0.492754 6:-1 7:-1 8:-1 9:-1 10:-1 11:-1 12:-1 14:-1 15:-1 16:-1 17:-1 18:0.280555 19:-0.26945 20:-0.728286 
-1 1 1 1 1 1 1 1 1 1 1 1 0 1 0 1:0.354839 2:-0.6 3:-0.283019 4:-0.045045 5:-0.333333 6:-1 7:-1 8:-1 9:-1 10:-1 11:-1 12:-1 14:-1 15:-1 16:-1 17:-1 18:0.883333 19:-0.872233 20:-0.120437 
-1 1 1 1 1 1 1 0.2549711171060067 1 0 1 1 0 1 0 1:0.354839 2:-0.2 3:-0.132075 4:-0.045045 5:0.507246 6:-1 7:1 8:-1 9:-1 10:-1 11:-1 12:-1 14:-1 15:-1 16:-1 17:-1 18:0.752767 19:-0.7361 20:-0.254908 
-1 1 1 1 1 1 1 1 1 0.1431857583300176 0.5021016630582674 1 0 1 0 1:0.354839 2:0.2 3:0.0188679 4:-0.045045 5:-0.666667 6:-1 7:-1 8:-1 9:-1 10:-1 11:-1 12:1 14:-1 15:-1 16:-1 17:-1 18:0.977783 19:-0.94445 20:-0.0364034 
-1 1 1 1 1 1 1 1 1 1 1 1 0.02493267392232138 1 0 1:0.354839 2:0.2 3:0.0188679 4:-0.045045 5:0.666667 6:-1 7:-1 8:-1 9:-1 10:-1 11:-1 12:-1 14:-1 15:-1 16:-1 17:-1 18:0.88055 19:-0.847217 20:-0.134454 
-1 1 1 1 1 1 1 1 1 0 1 1 0 1 0 1:0.548387 2:-0.2 3:-0.283019 4:-0.045045 6:-1 7:-1 8:-1 9:-1 10:-1 11:-1 12:-1 14:-1 15:-1 16:-1 17:-1 18:0.84445 19:-0.811117 20:-0.170857 
-1 1 1 1 1 1 1 1 1 0.2941250542497236 1 1 0 1 0 1:0.548387 2:-0.2 3:-0.283019 4:-0.045045 6:-1 7:-1 8:-1 9:-1 10:-1 11:-1 12:-1 14:-1 15:-1 16:-1 17:-1 18:0.858333 19:-0.825 20:-0.156857 
-1 1 1 1 1 1 1 1 1 1 1 1 0 1 0 1:0.354839 2:0.2 3:0.0188679 4:-0.045045 5:0.666667 6:-1 7:-1 8:-1 9:-1 10:-1 11:-1 12:-1 14:-1 15:-1 16:-1 17:-1 18:0.875 19:-0.841667 20:-0.14005 
-1 1 1 1 1 1 1 1 1 0 1 1 0 1 0 1:0.548387 2:-0.2 3:-0.283019 4:-0.045045 6:-1 7:-1 8:-1 9:-1 10:-1 11:-1 12:-1 14:-1 15:-1 16:-1 17:-1 18:0.85555 19:-0.822217 20:-0.159664 
-1 1 1 1 1 1 1 1 1 0.5623753284704094 1 1 0 0.9973107397335939 0.0105695531431728 1:-0.0322581 2:0.6 3:0.584906 4:-0.045045 5:-0.15942 6:-1 7:-1 8:-1 9:-1 10:-1 11:1 12:-1 14:-1 15:-1 16:-1 17:-1 18:0.680567 19:-0.652783 20:-0.333328 
-1 1 1 1 1 1 1 1 1 0.4905396438499633 1 1 0 0.9378193340924103 0 1:-0.0322581 2:0.6 3:0.584906 4:-0.045045 5:0.333333 6:-1 7:-1 8:-1 9:-1 10:-1 11:-1 12:-1 14:-1 15:-1 16:-1 17:-1 18:0.89445 19:-0.875 20:-0.11484 
-1 1 1 1 1 1 1 1 1 0 1 1 0 1 0 1:-0.0322581 2:0.6 3:0.584906 4:-0.045045 5:0.333333 6:-1 7:-1 8:-1 9:-1 10:-1 11:-1 12:-1 14:-1 15:-1 16:-1 17:-1 18:0.86945 19:-0.85 20:-0.14005 
-1 1 1 1 1 1 1 1 1 0 1 1 0.7529891043287666 1 0 1:-0.0322581 2:0.6 3:0.584906 4:-0.045045 5:0.333333 6:-1 7:-1 8:-1 9:-1 10:-1 11:-1 12:-1 14:-1 15:-1 16:-1 17:-1 18:0.86945 19:-0.85 20:-0.14005 
-1 1 1 1 1 1 1 1 0.4652611049307049 0 0 1 0 1 0 1:-0.225806 2:0.6 3:0.773585 4:-0.81982 6:-1 7:-1 8:1 9:-1 10:1 11:-1 12:-1 14:-1 15:-1 16:-1 17:-1 18:0.877783 19:-0.85555 20:-0.131647 
-1 1 1 1 1 1 1 1 0 0 0.6565580479799734 1 0 1 0 1:-0.225806 2:0.6 3:0.773585 4:-0.81982 6:-1 7:-1 8:1 9:-1 10:1 11:-1 12:-1 14:-1 15:-1 16:-1 17:-1 18:0.872233 19:-0.85 20:-0.137244 
-1 1 1 1 0 1 1 0.5348435091388282 1 0.5587083748468437 0 1 0 1 0 1:-0.612903 2:-0.2 3:0.773585 4:-0.045045 5:-0.492754 6:-1 7:-1 8:1 9:-1 10:1 11:-1 12:-1 14:-1 15:-1 16:-1 17:-1 18:0.99445 19:-0.986117 20:2.22045e-16 
-1 1 1 0.7187792035346243 0.4603079931558267 1 1 1 1 0.4850515562092732 0.3726178528374222 1 0 1 0 1:-0.505376 2:0.2 3:0.849057 4:0.459459 5:-0.666667 6:-1 7:-1 8:-1 9:-1 10:-1 11:-1 12:-1 14:-1 15:-1 16:-1 17:1 18:0.527783 19:-0.547233 20:0.467782 
-1 1 1 1 1 1 1 1 1 1 1 1 0.01512855802344172 1 0.1476442634473076 1:-0.505376 2:0.2 3:0.849057 4:0.459459 5:-0.666667 6:-1 7:-1 8:-1 9:-1 10:-1 11:-1 12:-1 14:-1 15:-1 16:-1 17:1 18:0.525 19:-0.54445 20:0.470588 
-1 1 1 0 0 1 1 1 1 0 0 1 0 1 0 1:-0.505376 2:0.2 3:0.849057 4:0.459459 5:-0.666667 6:-1 7:-1 8:-1 9:-1 10:-1 11:-1 12:-1 14:-1 15:-1 16:-1 17:1 18:0.533333 19:-0.552783 20:0.462185 
-1 1 1 1 1 1 1 1 1 0.2357561289538699 1 1 0.06276001202373714 1 0.1271696079957295 1:-0.419355 2:-0.2 3:0.584906 4:-0.045045 5:-0.666667 6:-1 7:-1 8:-1 9:-1 10:-1 11:-1 12:-1 14:-1 15:-1 16:-1 17:-1 18:-0.71111 19:0.722217 20:-0.282903 
-1 1 1 1 1 1 1 1 1 1 1 1 0.1120568819115202 1 0.85413001185829 1:-0.225806 2:0.6 3:0.773585 4:-0.045045 5:-0.492754 6:-1 7:-1 8:-1 9:-1 10:-1 11:-1 12:-1 14:-1 15:1 16:-1 17:-1 18:-0.813888 19:0.841667 20:-0.170857 
-1 1 1 1 1 1 1 1 1 0 0.4076758172589932 1 0 1 0 1:-0.225806 2:1 3:1 4:-0.045045 5:-0.826087 6:-1 7:-1 8:-1 9:-1 10:-1 11:-1 12:-1 14:-1 15:-1 16:-1 17:-1 18:0.947233 19:-0.91945 20:-0.0644202 
-1 1 1 1 1 1 1 1 1 1 0 1 0.3740243091320633 1 0.3817601778918599 1:-0.0322581 2:0.6 3:0.584906 4:-0.045045 5:-0.492754 6:-1 7:-1 8:-1 9:-1 10:-1 11:-1 12:-1 14:-1 15:-1 16:-1 17:-1 18:0.988883 19:-0.977783 20:-0.00278992 
-1 1 1 0 1 1 1 1 1 1 0 1 0 1 0.0694571982256198 1:-0.225806 2:1 3:1 4:-0.045045 5:-0.826087 6:-1 7:-1 8:-1 9:-1 10:-1 11:-1 12:-1 14:-1 15:-1 16:-1 17:-1 18:0.966667 19:-0.938883 20:-0.0448235 
-1 1 1 0.971087633685155 1 1 1 1 1 0.4627478161718938 0 1 0 1 0 1:-0.225806 2:1 3:1 4:-0.045045 5:-0.826087 6:-1 7:-1 8:-1 9:-1 10:-1 11:-1 12:-1 14:-1 15:-1 16:-1 17:-1 18:0.958333 19:-0.93055 20:-0.0532269 
-1 1 1 1 0.4324251436727318 1 1 1 1 1 1 1 0.7541261243017235 1 0.5424708821194744 1:-0.612903 2:-0.2 3:0.773585 4:-0.045045 5:-0.492754 6:-1 7:-1 8:-1 9:-1 10:-1 11:-1 12:-1 14:-1 15:-1 16:-1 17:-1 18:-0.969445 19:0.977783 20:-0.0224034 
-1 -1 1 0 0 1 1 1 1 0 0 1 0 1 0 1:-0.0322581 2:0.2 3:0.396226 4:-0.045045 5:-0.492754 6:-1 7:-1 8:-1 9:-1 10:-1 11:-1 12:-1 14:-1 15:-1 16:-1 17:-1 18:0.491672 19:-0.475 20:-0.518202 
-0 -0 0 1 0 0 0 0 0 0 1 0 0 0 0 1:0.548387 2:0.2 3:-0.132075 4:-0.045045 5:-0.15942 6:-1 7:-1 8:-1 9:-1 10:-1 11:-1 12:-1 14:-1 15:-1 16:-1 17:-1 18:-0.269445 19:0.28055 20:-0.728286 
-1 -1 1 0 0.3950958288096595 1 1 1 1 0 0 1 0 1 0 1:-0.0322581 2:0.2 3:0.396226 4:-0.045045 5:-0.492754 6:-1 7:-1 8:-1 9:-1 10:-1 11:-1 12:-1 14:-1 15:-1 16:-1 17:-1 18:0.491672 19:-0.475 20:-0.518202 
-1 -1 1 1 1 1 1 1 1 1 0 1 0.1287383022861542 1 0.4710571048248208 1:-0.225806 2:0.2 3:0.584906 4:-0.045045 5:0.173913 6:-1 7:-1 8:-1 9:-1 10:-1 11:-1 12:-1 14:-1 15:-1 16:-1 17:-1 18:0.436117 19:-0.44445 20:0.568639 
-1 -0 0 1 0 0.4984756652164519 0 0 0 0 0 1 0 0.6531846604214934 0 1:0.935484 2:0.2 3:-0.396226 4:-0.603604 5:-0.333333 6:-1 7:-1 8:-1 9:-1 10:-1 11:-1 12:-1 14:-1 15:-1 16:1 17:-1 18:-0.038895 19:0.0722333 20:-0.949563 
-0 -0 0 1 0 0 0 0 0 0 0 1 0 0 0 1:0.548387 2:-0.2 3:-0.283019 4:-0.045045 5:-0.333333 6:-1 7:-1 8:-1 9:-1 10:-1 11:-1 12:-1 14:-1 15:-1 16:-1 17:-1 18:-0.10555 19:0.119433 20:-0.893563 
-1 -0.3171998165009898 1 1 0 0.2327942022311654 0 0 0.1456987747599655 0 1 0.1338049485190084 0 0 0 1:0.0322581 2:0.2 3:0.0943396 4:0.63964 5:-0.15942 6:-1 7:-1 8:-1 9:-1 10:-1 11:-1 12:-1 14:-1 15:-1 16:1 17:-1 18:0.147222 19:-0.113883 20:-0.87395 
-1 -1 1 0 1 1 1 1 1 0 0 1 0 0.3297579099032519 0 1:0.16129 2:-0.2 3:0.0188679 4:-0.261261 5:-0.333333 6:-1 7:-1 8:-1 9:-1 10:-1 11:-1 12:-1 14:-1 15:-1 16:-1 17:-1 18:0.630562 19:-0.6 20:-0.383748 
-1 -0.5357941748335469 1 0.4832790937093089 1 1 1 1 1 1 0 1 0 1 0 1:0.354839 2:-0.6 3:-0.283019 4:-0.045045 5:-0.666667 6:-1 7:-1 8:-1 9:-1 10:-1 11:-1 12:-1 14:-1 15:1 16:-1 17:-1 18:0.741667 19:-0.772233 20:0.246504 
-1 -1 1 1 1 1 1 0.9578438744450529 1 1 0 1 0 0 0 1:0.0322581 2:-0.466667 3:-0.207547 4:0.0990991 5:-0.15942 6:-1 7:-1 8:-1 9:-1 10:-1 11:-1 12:-1 14:-1 15:-1 16:1 17:-1 18:0.647222 19:-0.627783 20:-0.364134 
-1 -1 1 0 1 1 1 1 1 0 0 1 0 1 0 1:0.16129 2:1 3:0.584906 4:-0.045045 5:-0.666667 6:-1 7:-1 8:-1 9:-1 10:-1 11:-1 12:-1 14:-1 15:-1 16:-1 17:-1 18:0.586112 19:-0.558333 20:-0.428571 
-1 -1 1 0 1 1 1 1 1 0 0 1 0 1 0 1:0.16129 2:1 3:0.584906 4:-0.045045 5:-0.666667 6:-1 7:-1 8:-1 9:-1 10:-1 11:-1 12:-1 14:-1 15:-1 16:-1 17:-1 18:0.577778 19:-0.55 20:-0.436975 
-0.4899997539826832 -0.4935359972852726 0 1 0.335689907593805 0 0 0 0 0 0.3010879865172384 1 0 0.643374870165243 0 1:1 2:-0.466667 3:-1 4:0.63964 5:-0.333333 6:-1 7:-1 8:-1 9:-1 10:-1 11:-1 12:-1 14:-1 15:-1 16:1 17:-1 18:0.138883 19:-0.10555 20:-0.882353 
-1 -0 1 1 1 1 1 1 1 0.7283864775648449 0.2603382027524432 1 0.7721712462660597 0 0 1:-0.0322581 2:0.2 3:0.396226 4:-0.045045 5:-0.666667 6:-1 7:-1 8:-1 9:-1 10:-1 11:-1 12:-1 14:-1 15:-1 16:-1 17:-1 18:-0.744445 19:0.713883 20:0.274521 
-1 -0 1 1 0.0811700469961778 1 1 1 1 0 1 1 0 0 0 1:-0.0322581 2:0.2 3:0.396226 4:-0.045045 5:-0.666667 6:-1 7:-1 8:-1 9:-1 10:-1 11:-1 12:-1 14:-1 15:-1 16:-1 17:-1 18:-0.755557 19:0.725 20:0.263316 
-1 -0 1 1 1 1 1 0.2521179599898621 1 0 1 1 0 0 0 1:0.354839 2:0.2 3:0.0188679 4:-0.045045 5:0.173913 6:-1 7:-1 8:-1 9:-1 10:-1 11:-1 12:-1 14:-1 15:-1 16:-1 17:-1 18:0.788883 19:-0.763883 20:-0.221294 
-1 -1 0.9113785370052847 1 0.7108160025718506 1 1 1 0 0.2109508229234944 0 1 0 1 0 1:-0.612903 2:0.2 3:1 4:-0.603604 5:-0.333333 6:-1 7:-1 8:1 9:-1 10:1 11:-1 12:-1 14:-1 15:-1 16:-1 17:-1 18:0.261112 19:-0.233333 20:-0.756303 
-1 -1 1 1 1 1 1 1 1 0 0 1 0.0308648750893845 0 0 1:0.16129 2:0.2 3:0.207547 4:-0.045045 5:-0.333333 6:-1 7:-1 8:-1 9:-1 10:-1 11:-1 12:-1 14:-1 15:-1 16:-1 17:-1 18:0.572222 19:-0.55555 20:-0.436975 
-0 -0.06173593937851742 0 0.951472888575967 0 0.6194355917094443 0 0 0 0 0 1 0 0.6576604102248674 0 1:-0.612903 2:-0.2 3:0.773585 4:-0.657658 5:1 6:-1 7:-1 8:-1 9:-1 10:-1 11:-1 12:-1 14:1 15:-1 16:-1 17:-1 18:-0.602778 19:0.630562 20:-0.383753 
-0 -0 0 1 0 0 0 0 0 0 0 0 0 0 0 1:0.16129 2:-0.2 3:0.0188679 4:-0.045045 5:-0.666667 6:-1 7:-1 8:-1 9:-1 10:-1 11:1 12:-1 14:-1 15:-1 16:-1 17:-1 18:0.108338 19:-0.0833333 20:-0.907546 
-1 -0 1 0 1 1 1 1 1 0.8399695905015717 0 1 0 1 0 1:0.16129 2:-0.2 3:0.0188679 4:-0.045045 5:-0.333333 6:-1 7:-1 8:-1 9:-1 10:-1 11:-1 12:-1 14:-1 15:1 16:-1 17:-1 18:0.7389 19:-0.7139 20:-0.271697 
-1 -1 1 1 0.4351013361162088 0.4639960817371427 1 0 0 0.1966634683598793 0.6185595794117803 1 0 0.5262542560024849 0 1:0.0322581 2:-0.0222222 3:-0.0188679 4:0.63964 5:-0.492754 6:-1 7:-1 8:-1 9:-1 10:-1 11:1 12:-1 14:-1 15:-1 16:-1 17:-1 18:0.666662 19:-0.641667 20:-0.344538 
-1 -0.04205429145020136 1 1 0 0 0.9454740614737126 0 0 0 0 0.1737205565985123 0 0 0 1:0.0322581 2:-0.0222222 3:-0.0188679 4:0.63964 5:-0.492754 6:-1 7:-1 8:-1 9:-1 10:-1 11:1 12:-1 14:-1 15:-1 16:-1 17:-1 18:0.661112 19:-0.636117 20:-0.350134 
-0 -0 0 1 0 0 0 0 0 0 0 0.1253758056050451 0 0 0 1:0.0322581 2:-0.244444 3:-0.0943396 4:-0.441441 5:-0.15942 6:-1 7:-1 8:-1 9:-1 10:-1 11:1 12:-1 14:-1 15:-1 16:-1 17:-1 18:0.486105 19:-0.472217 20:-0.521008 
-0 -0 1 0.09483959099548965 0 1 1 0.6748270960786475 0.3774642185856219 0 0.4055751988542399 1 0 0 0.2503406220092948 1:-0.419355 2:0.2 3:0.773585 4:-0.045045 5:-0.666667 6:-1 7:-1 8:-1 9:-1 10:-1 11:-1 12:-1 14:-1 15:1 16:-1 17:-1 18:-0.783333 19:0.766667 20:0.229692 
-0 -0 0 0 0 1 0.6938705956075536 0 0 0 0 1 0 0 0 1:0.354839 2:0.6 3:0.207547 4:-0.045045 5:-0.333333 6:-1 7:-1 8:-1 9:-1 10:-1 11:-1 12:-1 14:-1 15:1 16:-1 17:-1 18:0.241667 19:-0.213883 20:-0.775899 
-0 -0 0 0 0 1 1 0 0 0 0 1 0 0 0 1:0.354839 2:0.6 3:0.207547 4:-0.045045 5:-0.333333 6:-1 7:-1 8:-1 9:-1 10:-1 11:-1 12:-1 14:-1 15:1 16:-1 17:-1 18:0.241667 19:-0.213883 20:-0.775899 
-0 -0 0 0 0 0.07315608909052926 0 0 0 0 0 0.02071263384522085 0 0.2819761876740312 0 1:0.354839 2:0.6 3:0.207547 4:-0.045045 5:-0.333333 6:-1 7:-1 8:-1 9:-1 10:-1 11:-1 12:-1 14:-1 15:1 16:-1 17:-1 18:0.238883 19:-0.2111 20:-0.778706 
-0 -0 0 0 0 1 1 0 0 0 0 1 0 0.8621081388901118 0 1:0.354839 2:0.6 3:0.207547 4:-0.045045 5:-0.333333 6:-1 7:-1 8:-1 9:-1 10:-1 11:-1 12:-1 14:-1 15:1 16:-1 17:-1 18:0.241667 19:-0.213883 20:-0.775899 
-0 -0 0 1 0 0 0 0 0 0 0 0 0 0 0 1:-0.0322581 2:-0.2 3:0.207547 4:-0.045045 5:-0.492754 6:-1 7:-1 8:-1 9:-1 10:-1 11:1 12:-1 14:-1 15:-1 16:-1 17:-1 18:0.244438 19:-0.23055 20:-0.764706 
-0 -0 0 1 0 0 0 0 0 0 0 0 0 0 0 1:-0.0322581 2:-0.2 3:0.207547 4:-0.045045 5:-0.492754 6:-1 7:-1 8:-1 9:-1 10:-1 11:1 12:-1 14:-1 15:-1 16:-1 17:-1 18:0.244438 19:-0.23055 20:-0.764706 
-0 -0 0 1 0 1 0 0 0 0 0 1 0 0 0 1:-0.225806 2:-0.2 3:0.396226 4:-0.045045 5:-0.492754 6:-1 7:-1 8:-1 9:-1 10:-1 11:-1 12:-1 14:-1 15:-1 16:-1 17:-1 18:-0.652778 19:0.663883 20:-0.341731 
-0 -0 0 1 0 1 0 0 0 0 1 1 0 0 0 1:-0.225806 2:-0.2 3:0.396226 4:-0.045045 5:-0.492754 6:-1 7:-1 8:-1 9:-1 10:-1 11:-1 12:-1 14:-1 15:-1 16:-1 17:-1 18:-0.644445 19:0.65555 20:-0.350134 
-0 -0 0 1 0 1 0 0 0 0 1 1 0 0 0 1:-0.225806 2:-0.2 3:0.396226 4:-0.045045 5:-0.492754 6:-1 7:-1 8:-1 9:-1 10:-1 11:-1 12:-1 14:-1 15:-1 16:-1 17:-1 18:-0.647223 19:0.658328 20:-0.347333 
-0 -0 0 1 0 1 0 0 0 0 1 0.9375389833236587 0 0 0 1:-0.419355 2:-0.2 3:0.584906 4:-0.045045 5:-0.15942 6:-1 7:-1 8:-1 9:-1 10:-1 11:-1 12:-1 14:-1 15:-1 16:-1 17:-1 18:-0.666667 19:0.677767 20:-0.327726 
-0 -0 0 1 0 0 0 0 0 0 0.8386746843339792 1 0.01848144512931003 0 0 1:0.354839 2:0.2 3:0.0188679 4:-0.045045 5:-0.492754 6:-1 7:-1 8:-1 9:-1 10:-1 11:-1 12:-1 14:-1 15:-1 16:-1 17:-1 18:-0.080555 19:0.0888833 20:-0.921563 
-0.05653519854648655 -0.4072737880269832 0 1 0 1 0 0 0 0 0.2698365493213683 1 0.08043496660677094 1 0.1554101336814079 1:-0.225806 2:0.6 3:0.773585 4:-0.045045 5:-0.15942 6:-1 7:-1 8:-1 9:-1 10:-1 11:-1 12:-1 14:-1 15:-1 16:-1 17:-1 18:0.0527783 19:-0.0416667 20:-0.957983 
-1 -0 1 1 0 1 1 1 1 0 0 1 0 0 0 1:-0.419355 2:0.6 3:1 4:-0.261261 5:-0.666667 6:-1 7:-1 8:-1 9:-1 10:-1 11:-1 12:-1 14:-1 15:-1 16:-1 17:-1 18:-0.991667 19:0.98055 20:0.0168185 
-1 -0 1 1 0 1 1 0.3115160685086604 1 0 0 1 0 0 0 1:-0.419355 2:0.6 3:1 4:-0.261261 5:-0.666667 6:-1 7:-1 8:-1 9:-1 10:-1 11:-1 12:-1 14:-1 15:-1 16:-1 17:-1 18:-0.994445 19:0.983333 20:0.0140168 
-0.06844283883753555 -0.6995466950233673 1 1 0 1 1 0 0.7502109938851508 0 1 1 0 0 0 1:-0.419355 2:0.6 3:1 4:-0.261261 5:-0.666667 6:-1 7:-1 8:-1 9:-1 10:-1 11:-1 12:-1 14:-1 15:-1 16:-1 17:-1 18:-0.98611 19:0.997217 20:-0.0055916 
-1 -0 1 1 0 1 1 0 1 0 0 1 0 0 0 1:-0.419355 2:0.6 3:1 4:-0.261261 5:-0.666667 6:-1 7:-1 8:-1 9:-1 10:-1 11:-1 12:-1 14:-1 15:-1 16:-1 17:-1 18:-1 19:0.988883 20:0.00841513 
-0 -0 0.3558046774255793 1 0 1 0.6651579867086526 0 1 0 0.6952981712557884 1 0 0.6421881911492993 0 1:-0.419355 2:0.6 3:1 4:-0.261261 5:-0.666667 6:-1 7:-1 8:-1 9:-1 10:-1 11:-1 12:-1 14:-1 15:-1 16:-1 17:-1 18:-0.988888 19:1 20:-0.00278992 
-1 -0 1 0 0 1 1 0.6100431885532586 0.9493160271720232 0 0 1 0 0 0 1:-0.419355 2:0.2 3:0.773585 4:-0.153153 5:-0.666667 6:-1 7:-1 8:-1 9:-1 10:-1 11:1 12:-1 14:-1 15:-1 16:-1 17:-1 18:-0.616667 19:0.60555 20:0.39497 
-0.2003036176318522 -0 0.9720844936983637 0 0 1 1 0 0 0 0 0 0 0 0.3532103303864573 1:-0.419355 2:0.2 3:0.773585 4:-0.153153 5:-0.666667 6:-1 7:-1 8:-1 9:-1 10:-1 11:1 12:-1 14:-1 15:-1 16:-1 17:-1 18:-0.633333 19:0.622217 20:0.378163 
-1 -0 1 0 0 1 1 1 1 0.6696160498203669 0 1 0.4239002017972325 0 0 1:-0.419355 2:0.6 3:1 4:-0.261261 5:-0.666667 6:-1 7:-1 8:-1 9:-1 10:-1 11:-1 12:-1 14:-1 15:-1 16:-1 17:-1 18:-0.755557 19:0.74445 20:0.254913 
-1 -0 1 0.1002806377503378 0 1 1 1 1 0.5308897503936882 0 0.7033508554601592 0 0 0 1:-0.419355 2:0.2 3:0.773585 4:-0.153153 5:-0.666667 6:-1 7:-1 8:-1 9:-1 10:-1 11:1 12:-1 14:-1 15:-1 16:-1 17:-1 18:-0.616667 19:0.60555 20:0.39497 
-0 -0 0 1 0 0 0 0 0 0 0.8699276088109981 0 0 0 0 1:0.548387 2:0.2 3:-0.132075 4:-0.045045 5:0.666667 6:-1 7:-1 8:-1 9:-1 10:-1 11:-1 12:-1 14:-1 15:-1 16:-1 17:-1 18:0.63055 19:-0.622217 20:-0.372555 
-0 -0 0 1 0 0 0 0 0 0 0 0 0 0 0 1:-0.0322581 2:-0.6 3:0.0188679 4:-0.387387 5:0.173913 6:-1 7:-1 8:-1 9:-1 10:-1 11:1 12:-1 14:-1 15:-1 16:-1 17:-1 18:0.474995 19:-0.4611 20:-0.535008 
-0 -0 0 1 0 0.2739774423326789 0 0 0 0 1 1 0.5457584217973988 0 0 1:-0.0322581 2:-0.2 3:0.207547 4:-0.045045 5:-0.492754 6:-1 7:-1 8:-1 9:-1 10:-1 11:-1 12:-1 14:-1 15:-1 16:-1 17:-1 18:-0.602777 19:0.613888 20:-0.392146 
-0 -0 0 1 0 0 0 0 0 0 0 1 0 0 0 1:0.548387 2:-0.6 3:-0.433962 4:-0.045045 5:0.173913 6:-1 7:-1 8:-1 9:-1 10:-1 11:-1 12:-1 14:-1 15:-1 16:-1 17:-1 18:0.0222283 19:-0.00833333 20:-0.99158 
-0 -0 0 1 0 0 0 0 0 0 0 1 0 0.7982785309476782 0 1:0.548387 2:-0.6 3:-0.433962 4:-0.045045 5:0.173913 6:-1 7:-1 8:-1 9:-1 10:-1 11:-1 12:-1 14:-1 15:-1 16:-1 17:-1 18:-0.011105 19:0.025 20:-0.986 
-0 -0 0 1 0 0 0 0 0 0 0 0.5458979700308029 0 1 0 1:0.548387 2:-0.6 3:-0.433962 4:-0.045045 5:0.507246 6:-1 7:-1 8:-1 9:-1 10:-1 11:-1 12:-1 14:-1 15:-1 16:-1 17:-1 18:-0.0222217 19:0.0361167 20:-0.97479 
-0 -0 0 1 0 0 0 0 0 0 0 0 0 0 0 1:0.16129 2:0.2 3:0.207547 4:-0.045045 5:-0.15942 6:-1 7:-1 8:-1 9:-1 10:-1 11:1 12:-1 14:-1 15:-1 16:-1 17:-1 18:0.069445 19:-0.0361167 20:-0.95237 
-1 -1 1 0 0 1 1 1 1 1 0 1 0 1 0 1:-0.0322581 2:0.2 3:0.396226 4:-0.045045 5:0.173913 6:-1 7:-1 8:-1 9:-1 10:-1 11:-1 12:-1 14:-1 15:-1 16:-1 17:-1 18:0.766667 19:-0.755567 20:-0.238084 
-0 -0.9681745872721561 0 0 0 0 0 0 0 0 0 1 0 0.3995327512700813 0.5405635729595277 1:-0.225806 2:0.2 3:0.584906 4:-0.045045 5:-0.492754 6:-1 7:-1 8:-1 9:-1 10:-1 11:1 12:-1 14:-1 15:-1 16:-1 17:-1 18:0.161105 19:-0.1361 20:-0.857143 
-1 -0.695895224667309 1 1 0 1 1 1 1 1 0.03468140835637734 0.4266613044308877 0 0.2498160712693993 0 1:-0.182796 2:-0.0222222 3:0.320755 4:0.459459 5:0.173913 6:-1 7:-1 8:-1 9:-1 10:-1 11:-1 12:-1 14:-1 15:-1 16:1 17:-1 18:0.377783 19:-0.405567 20:0.616252 
-0 -0 0 1 0 0 0 0 0 0 0 0 0 0 0 1:0.741935 2:0.2 3:-0.283019 4:-0.045045 5:0.666667 6:-1 7:-1 8:-1 9:-1 10:-1 11:-1 12:-1 14:-1 15:-1 16:-1 17:-1 18:0.433333 19:-0.40555 20:-0.582622 
-0 -0 0 1 0 0 0 0 0 0 0.617887768033422 0 0 0 0 1:0.548387 2:0.6 3:0.0566038 4:-0.045045 5:0.333333 6:-1 7:-1 8:-1 9:-1 10:-1 11:-1 12:-1 14:-1 15:-1 16:-1 17:-1 18:-0.0277783 19:0.0472167 20:-0.966387 
-0 -0 0 1 0 0 0 0 0 0 0 1 0 0 0 1:0.16129 2:-0.6 3:-0.132075 4:-0.045045 5:-0.333333 6:-1 7:-1 8:-1 9:-1 10:-1 11:-1 12:-1 14:-1 15:-1 16:-1 17:-1 18:-0.208338 19:0.216667 20:-0.792706 
-0 -0 0 1 0 0 0 0 0 0 1 0 0.5769234829825693 0 0 1:0.16129 2:0.6 3:0.396226 4:-0.045045 5:0.173913 6:-1 7:-1 8:-1 9:-1 10:-1 11:-1 12:-1 14:-1 15:-1 16:-1 17:-1 18:-0.622222 19:0.652783 20:-0.364134 
-1 -1 1 0 1 1 1 1 1 1 0 1 0 1 0.2543485932548278 1:-0.419355 2:0.2 3:0.773585 4:-0.045045 5:-0.333333 6:-1 7:-1 8:-1 9:-1 10:-1 11:-1 12:-1 14:-1 15:1 16:-1 17:-1 18:0.8139 19:-0.791667 20:-0.196067 
-0 -0 1 1 0 1 1 1 1 0 0 1 0 0 0 1:-0.612903 2:-0.2 3:0.773585 4:-0.045045 5:-0.492754 6:-1 7:-1 8:-1 9:-1 10:-1 11:-1 12:-1 14:-1 15:-1 16:-1 17:-1 18:-0.936112 19:0.927783 20:0.0700387 
-0.2172938182310733 -0 1 1 0 1 1 1 1 0 0 1 0 0 0 1:-0.612903 2:-0.2 3:0.773585 4:-0.045045 5:-0.492754 6:-1 7:-1 8:-1 9:-1 10:-1 11:-1 12:-1 14:-1 15:-1 16:-1 17:-1 18:-0.933333 19:0.925 20:0.0728403 
-0 -0 0 1 0 0 0 0 0 0 1 0.1661111225931516 1 0 0 1:-0.0322581 2:0.2 3:0.396226 4:-0.045045 5:-0.333333 6:-1 7:-1 8:-1 9:-1 10:-1 11:-1 12:-1 14:-1 15:-1 16:-1 17:-1 18:-0.616667 19:0.627772 20:-0.378146 
-0 -0 0 1 0 1 0 0 1 0 0 1 0 0 0 1:-0.612903 2:0.2 3:1 4:-0.153153 5:-0.492754 6:-1 7:-1 8:-1 9:-1 10:-1 11:-1 12:-1 14:-1 15:-1 16:-1 17:-1 18:-0.95 19:0.961117 20:-0.042005 
-0 -0 0 1 0.5392518307203953 0 0 0 0 0 0 0 0 0 0 1:0.548387 2:-0.2 3:-0.283019 4:-0.045045 5:0.333333 6:-1 7:-1 8:-1 9:-1 10:-1 11:-1 12:-1 14:-1 15:-1 16:-1 17:-1 18:0.447222 19:-0.422217 20:-0.565815 
-0 -0 0 1 0 0 0 0 0 0 0 0 0 0 0 1:0.548387 2:-0.2 3:-0.283019 4:-0.045045 5:0.333333 6:-1 7:-1 8:-1 9:-1 10:-1 11:-1 12:-1 14:-1 15:-1 16:-1 17:-1 18:0.438888 19:-0.413883 20:-0.574218 
-0 -0 0 1 0 0 0 0 0 0 0 0 0 0 0 1:0.548387 2:-0.2 3:-0.283019 4:-0.045045 5:0.333333 6:-1 7:-1 8:-1 9:-1 10:-1 11:-1 12:-1 14:-1 15:-1 16:-1 17:-1 18:0.438888 19:-0.413883 20:-0.574218 
-0 -0 0 1 0 1 0 0 0 0 0 1 0 0 0 1:-0.419355 2:-0.2 3:0.584906 4:-0.261261 5:-0.492754 6:-1 7:-1 8:-1 9:-1 10:-1 11:-1 12:-1 14:-1 15:-1 16:-1 17:-1 18:-0.769445 19:0.777783 20:-0.226891 
-1 -0.8649520713589399 1 1 1 1 1 0 0.7516815020984389 0 0 1 0 0 0 1:0.548387 2:-0.2 3:-0.283019 4:-0.045045 6:-1 7:-1 8:-1 9:-1 10:-1 11:-1 12:-1 14:-1 15:-1 16:-1 17:-1 18:0.73055 19:-0.722217 20:-0.274504 
-0 -0 0 1 0 0 0 0 0 0 0 0 0 0 0 1:0.548387 2:0.6 3:0.0566038 4:-0.045045 5:-0.15942 6:-1 7:-1 8:-1 9:-1 10:-1 11:-1 12:-1 14:-1 15:1 16:-1 17:-1 18:0.227778 19:-0.21945 20:-0.781513 
-1 -1 1 0 1 1 1 1 1 1 0 1 0 1 0.5613690705083825 1:-0.225806 2:-0.2 3:0.396226 4:-0.045045 5:-0.333333 6:-1 7:-1 8:-1 9:-1 10:-1 11:-1 12:-1 14:-1 15:-1 16:-1 17:-1 18:0.7389 19:-0.75 20:0.260504 
-1 -0.9670372307753324 0 0.7685353589536064 0 1 0 0 0.02465590944669314 0 0.994900689889278 1 0 1 0 1:-0.397849 2:0.2 3:0.660377 4:0.459459 5:-0.492754 6:-1 7:-1 8:-1 9:-1 10:-1 11:-1 12:-1 14:-1 15:-1 16:-1 17:1 18:-0.625 19:0.605567 20:0.389366 
-0 -0 0 0.8851836256050973 0 0 0 0 0 0 0 0 0 0 0 1:-0.0322581 2:0.6 3:0.584906 4:-0.045045 5:-0.492754 6:-1 7:-1 8:-1 9:-1 10:-1 11:1 12:-1 14:-1 15:-1 16:-1 17:-1 18:-0.147228 19:0.158333 20:-0.851529 
-1 -0.6232572945380768 0 1 0 0.9009095971623838 0 0 0 0 0 1 0 1 0 1:0.0322581 2:-0.0222222 3:0.0188679 4:0.0990991 5:-0.333333 6:-1 7:-1 8:1 9:-1 10:-1 11:-1 12:-1 14:-1 15:-1 16:-1 17:-1 18:0.172222 19:-0.161117 20:-0.837529 
-0 -0 0 0.6323535235939786 0 0 0 0 0 0 1 1 0 0 0 1:0.16129 2:0.6 3:0.396226 4:-0.045045 5:0.173913 6:-1 7:-1 8:-1 9:-1 10:-1 11:-1 12:-1 14:-1 15:1 16:-1 17:-1 18:0.255562 19:-0.24445 20:-0.753496 
-0 -0 0 1 0 0 0 0 0 0 0.6584899421879846 1 0 0 0 1:0.16129 2:0.6 3:0.396226 4:-0.045045 5:0.173913 6:-1 7:-1 8:-1 9:-1 10:-1 11:-1 12:-1 14:-1 15:1 16:-1 17:-1 18:0.252778 19:-0.241667 20:-0.756303 
-1 -0 1 1 0 1 1 0 0 0 0 1 0 0 0 1:0.16129 2:0.6 3:0.396226 4:-0.045045 5:-0.333333 6:-1 7:-1 8:-1 9:-1 10:-1 11:-1 12:-1 14:-1 15:-1 16:-1 17:-1 18:0.241662 19:-0.23055 20:-0.767513 
-0 -0 0 1 0 0 0 0 0 0 0.9889196364557704 0.3806350408168044 0 0 0 1:0.16129 2:0.6 3:0.396226 4:-0.045045 5:0.173913 6:-1 7:-1 8:-1 9:-1 10:-1 11:-1 12:-1 14:-1 15:1 16:-1 17:-1 18:0.244445 19:-0.233333 20:-0.764706 
-0 -0 0 1 0 0 0 0 0 0 0.7222936793657558 0 0 0 0 1:0.16129 2:0.6 3:0.396226 4:-0.045045 5:0.173913 6:-1 7:-1 8:-1 9:-1 10:-1 11:-1 12:-1 14:-1 15:1 16:-1 17:-1 18:0.244445 19:-0.233333 20:-0.764706 
-1 -0 1 1 0 1 1 0 0 0 0.04502578027164283 1 0.193439774919838 0 0 1:0.16129 2:0.6 3:0.396226 4:-0.045045 5:-0.333333 6:-1 7:-1 8:-1 9:-1 10:-1 11:-1 12:-1 14:-1 15:-1 16:-1 17:-1 18:0.238895 19:-0.227783 20:-0.770303 
-1 -0.9740443811200223 0 1 0 0.653382092211607 0 0 0 0 0 0.7649483448557847 0 1 0 1:0.0322581 2:-0.0222222 3:0.0188679 4:0.0990991 5:-0.333333 6:-1 7:-1 8:1 9:-1 10:-1 11:-1 12:-1 14:-1 15:-1 16:-1 17:-1 18:0.172222 19:-0.161117 20:-0.837529 
-0 -0 0 1 0 0 0 0 0 0 0 0 0 0 0 1:-0.0322581 2:0.6 3:0.584906 4:-0.045045 5:-0.492754 6:-1 7:-1 8:-1 9:-1 10:-1 11:1 12:-1 14:-1 15:-1 16:-1 17:-1 18:-0.147228 19:0.158333 20:-0.851529 
-0 -0 1 1 0.1803638735806846 0.3003115989614226 1 0 0 0 0.8906850378489402 0 0 0 0 1:0.354839 2:-0.2 3:-0.132075 4:-0.045045 6:-1 7:-1 8:-1 9:-1 10:-1 11:-1 12:-1 14:-1 15:1 16:-1 17:-1 18:0.48055 19:-0.463883 20:-0.529412 
-0 -0 0 1 0 0 0 0 0 0 1 0 0.0444717283133718 0 0 1:0.16129 2:0.2 3:0.207547 4:-0.045045 5:0.84058 6:-1 7:-1 8:-1 9:-1 10:-1 11:-1 12:-1 14:-1 15:-1 16:-1 17:-1 18:0.50555 19:-0.483333 20:-0.507008 
-1 -0.1457153560274754 1 0 1 1 1 1 1 0 0 1 0 0 0 1:0.16129 2:0.2 3:0.207547 4:-0.045045 5:0.666667 6:-1 7:-1 8:-1 9:-1 10:-1 11:-1 12:-1 14:-1 15:-1 16:-1 17:-1 18:0.95555 19:-0.927767 20:-0.0560168 
-1 -1 1 0 1 1 1 1 1 1 0.1952816171124825 1 0.02350673002677925 1 0 1:0.16129 2:0.2 3:0.207547 4:-0.045045 5:0.666667 6:-1 7:-1 8:-1 9:-1 10:-1 11:-1 12:-1 14:-1 15:-1 16:-1 17:-1 18:0.963883 19:-0.9361 20:-0.0476134 
-1 -1 1 0 1 1 1 1 1 1 1 1 0 1 0 1:0.16129 2:0.2 3:0.207547 4:-0.045045 5:0.666667 6:-1 7:-1 8:-1 9:-1 10:-1 11:-1 12:-1 14:-1 15:-1 16:-1 17:-1 18:0.961117 19:-0.933333 20:-0.0504034 
-1 -1 1 0 1 1 1 1 1 0 0.2469902588267761 1 0 1 0 1:0.16129 2:0.2 3:0.207547 4:-0.045045 5:0.666667 6:-1 7:-1 8:-1 9:-1 10:-1 11:-1 12:-1 14:-1 15:-1 16:-1 17:-1 18:0.958333 19:-0.93055 20:-0.0532101 
-1 -1 1 0.1611058669870801 1 1 1 1 1 1 0 1 0.4430684505301084 1 0 1:-0.0322581 2:0.6 3:0.584906 4:-0.045045 6:-1 7:-1 8:-1 9:-1 10:-1 11:-1 12:-1 14:-1 15:-1 16:-1 17:-1 18:0.616667 19:-0.647233 20:0.375345 
-1 -0 1 1 0 1 1 0 0 0 0.2307002299695009 1 0 0 0 1:0.354839 2:0.2 3:0.0188679 4:-0.045045 5:0.666667 6:-1 7:-1 8:-1 9:-1 10:-1 11:-1 12:-1 14:-1 15:-1 16:-1 17:-1 18:0.816667 19:-0.788883 20:-0.196084 
-1 -0 1 1 1 1 1 0 0 0 1 1 0.0451573506692465 0 0 1:0.354839 2:0.2 3:0.0188679 4:-0.045045 5:0.666667 6:-1 7:-1 8:-1 9:-1 10:-1 11:-1 12:-1 14:-1 15:-1 16:-1 17:-1 18:0.84445 19:-0.816667 20:-0.168067 
-1 -0 1 0 1 1 1 1 1 0 0.1065029086135145 1 0.06765150826716289 0 0 1:0.16129 2:0.2 3:0.207547 4:-0.045045 5:0.507246 6:-1 7:-1 8:-1 9:-1 10:-1 11:-1 12:-1 14:-1 15:-1 16:-1 17:-1 18:0.872233 19:-0.84445 20:-0.14005 
-1 -1 1 0 1 1 1 1 1 0.1279615708979594 0 1 0 0 0 1:0.16129 2:0.2 3:0.207547 4:-0.045045 5:0.507246 6:-1 7:-1 8:-1 9:-1 10:-1 11:-1 12:-1 14:-1 15:-1 16:-1 17:-1 18:0.908333 19:-0.88055 20:-0.103647 
-1 -1 1 0 1 1 1 1 1 0 0 1 0 0.9123507176942466 0 1:0.16129 2:0.2 3:0.207547 4:-0.045045 5:0.666667 6:-1 7:-1 8:-1 9:-1 10:-1 11:-1 12:-1 14:-1 15:-1 16:-1 17:-1 18:0.958333 19:-0.93055 20:-0.0532269 
-1 -0 1 0 0.8746414299097065 1 1 0.07305494393149012 1 0 0.08724303378501527 1 0.03846596859895302 0 0 1:0.16129 2:0.2 3:0.207547 4:-0.045045 5:0.666667 6:-1 7:-1 8:-1 9:-1 10:-1 11:-1 12:-1 14:-1 15:-1 16:-1 17:-1 18:0.94445 19:-0.916667 20:-0.0672269 
-1 -0 1 0 1 1 1 1 1 0 0 1 0 0 0 1:0.16129 2:0.2 3:0.207547 4:-0.045045 5:0.666667 6:-1 7:-1 8:-1 9:-1 10:-1 11:-1 12:-1 14:-1 15:-1 16:-1 17:-1 18:0.95 19:-0.922217 20:-0.0616303 
-0.4441429701964518 -0 1 1 0 1 1 0 0 0 0 1 0.02562115046573933 0 0 1:0.354839 2:0.2 3:0.0188679 4:-0.045045 5:0.666667 6:-1 7:-1 8:-1 9:-1 10:-1 11:-1 12:-1 14:-1 15:-1 16:-1 17:-1 18:0.8139 19:-0.786117 20:-0.198874 
-0 -0 1 1 0 0 0 0 0 0 0.9391387290715921 0.03349632769036781 0 0 0 1:0.354839 2:0.2 3:0.0188679 4:-0.045045 5:0.84058 6:-1 7:-1 8:-1 9:-1 10:-1 11:-1 12:-1 14:-1 15:-1 16:-1 17:-1 18:0.736117 19:-0.708333 20:-0.277311 
-1 -1 1 0 1 1 1 1 1 1 0 1 0.02675786887585046 0 0 1:0.16129 2:0.2 3:0.207547 4:-0.045045 5:0.507246 6:-1 7:-1 8:-1 9:-1 10:-1 11:-1 12:-1 14:-1 15:-1 16:-1 17:-1 18:0.911117 19:-0.883333 20:-0.10084 
-0 -0 0 1 0 0 0 0 0 0 0.5612560479955107 0 0 0 0 1:0.354839 2:0.2 3:0.0188679 4:-0.045045 5:0.84058 6:-1 7:-1 8:-1 9:-1 10:-1 11:-1 12:-1 14:-1 15:-1 16:-1 17:-1 18:0.6889 19:-0.661117 20:-0.324924 
-1 -1 1 0 1 1 1 1 1 0 0 1 0 0 0 1:0.16129 2:0.2 3:0.207547 4:-0.045045 5:0.666667 6:-1 7:-1 8:-1 9:-1 10:-1 11:-1 12:-1 14:-1 15:-1 16:-1 17:-1 18:0.955567 19:-0.927783 20:-0.0560168 
-0 -0 1 1 0 0 0.2797915268235978 0 0.4292068307547628 0.4429167504945234 0 0 0 0 0 1:0.354839 2:0.422222 3:-0.132075 4:-0.0810811 5:0.84058 6:-1 7:-1 8:-1 9:-1 10:-1 11:-1 12:-1 14:-1 15:-1 16:1 17:-1 18:0.636112 19:-0.608333 20:-0.378151 
-0 -0 1 1 0 0 0 0 0 0 0.0491047840922828 0 0 0 0 1:0.354839 2:0.422222 3:-0.132075 4:-0.0810811 5:0.84058 6:-1 7:-1 8:-1 9:-1 10:-1 11:-1 12:-1 14:-1 15:-1 16:1 17:-1 18:0.611112 19:-0.583333 20:-0.403361 
-0 -0 1 1 0 0 0 0 0 0 0 0 0 0 0 1:0.354839 2:0.422222 3:-0.132075 4:-0.0810811 5:0.84058 6:-1 7:-1 8:-1 9:-1 10:-1 11:-1 12:-1 14:-1 15:-1 16:1 17:-1 18:0.633328 19:-0.60555 20:-0.380958 
-1 -0.3865679028872909 1 0 0 1 1 1 1 0.1791377131831324 0 1 0 0.5071015863364218 0.3982263614962516 1:-0.806452 2:-0.6 3:0.773585 4:-0.261261 5:-0.826087 6:-1 7:-1 8:-1 9:-1 10:-1 11:-1 12:-1 14:-1 15:1 16:-1 17:-1 18:-0.744445 19:0.716667 20:0.274509 
-0 -0.7263654030763623 0 0 0 1 0.9238785574492862 0.9281165381816036 0.1255244120434018 0.5159289046051024 0 1 0 0.8263939830935421 0.01162843191094341 1:-1 2:-0.6 3:1 4:-0.261261 5:-0.492754 6:-1 7:-1 8:-1 9:-1 10:-1 11:1 12:-1 14:-1 15:-1 16:-1 17:-1 18:-0.688888 19:0.6611 20:0.330533 
-1 -0 1 1 1 1 1 0 0 0 0.8307476150163799 1 0 0 0 1:0.354839 2:-0.2 3:-0.132075 4:-0.045045 5:0.333333 6:-1 7:-1 8:-1 9:-1 10:-1 11:-1 12:-1 14:-1 15:-1 16:-1 17:-1 18:0.783333 19:-0.752767 20:-0.232487 
-1 -0 1 1 1 1 1 0 0 0 0.9166322992116321 1 0.05849577958334598 0 0 1:0.354839 2:-0.2 3:-0.132075 4:-0.045045 5:0.333333 6:-1 7:-1 8:-1 9:-1 10:-1 11:-1 12:-1 14:-1 15:-1 16:-1 17:-1 18:0.780567 19:-0.75 20:-0.235277 
-1 -1 1 1 1 1 1 1 1 1 0 1 0 1 0.4629021941098462 1:-0.419355 2:-0.6 3:0.358491 4:-0.045045 5:-0.666667 6:-1 7:-1 8:-1 9:-1 10:-1 11:-1 12:-1 14:-1 15:-1 16:-1 17:-1 18:-0.030555 19:-0.00278333 20:0.99721 
-0 -0.4918221249321182 1 0.3116865837326795 0 1 1 0 0 0 0 1 0.06254403911371599 0.04775770425751466 0 1:-0.0322581 2:-0.6 3:0.0188679 4:-0.045045 5:1 6:-1 7:-1 8:-1 9:-1 10:-1 11:-1 12:-1 14:-1 15:-1 16:-1 17:-1 18:0.866667 19:-0.85555 20:-0.137261 
-1 -1 1 0 0 1 1 1 1 1 0 1 0 1 0 1:-0.0322581 2:0.6 3:0.584906 4:-0.045045 5:0.333333 6:-1 7:-1 8:-1 9:-1 10:-1 11:-1 12:-1 14:-1 15:-1 16:-1 17:-1 18:0.872233 19:-0.852783 20:-0.137244 
-1 -1 1 0 0.4478697437015118 1 1 1 1 0.3768030568614906 0 1 0 1 0 1:-0.505376 2:0.2 3:0.849057 4:0.459459 5:-0.666667 6:-1 7:-1 8:-1 9:-1 10:-1 11:-1 12:-1 14:-1 15:-1 16:-1 17:1 18:0.497217 19:-0.516667 20:0.498605 
-1 -1 1 0 0 1 1 1 1 1 0 1 0 1 0.008795436035890713 1:-0.505376 2:0.2 3:0.849057 4:0.459459 5:-0.666667 6:-1 7:-1 8:-1 9:-1 10:-1 11:-1 12:-1 14:-1 15:-1 16:-1 17:1 18:0.49445 19:-0.5139 20:0.501395 
-0 -0 0 1 0 0 0 0 0 0 1 0 0 0 0 1:0.354839 2:-0.2 3:-0.132075 4:-0.045045 5:0.333333 6:-1 7:-1 8:-1 9:-1 10:-1 11:-1 12:-1 14:-1 15:-1 16:-1 17:-1 18:-0.0888833 19:0.0972167 20:-0.91316 
-0 -0 0 1 0 0 0 0 0 0 1 0 0 0 0 1:0.354839 2:-0.2 3:-0.132075 4:-0.045045 5:0.333333 6:-1 7:-1 8:-1 9:-1 10:-1 11:-1 12:-1 14:-1 15:-1 16:-1 17:-1 18:-0.0777833 19:0.0861167 20:-0.924353 
-1 -0 0 1 0 1 1 0 0 0 0 1 0 0 0.1143545832003358 1:-0.225806 2:0.2 3:0.584906 4:-0.387387 5:-0.666667 6:-1 7:-1 8:-1 9:-1 10:-1 11:-1 12:-1 14:-1 15:-1 16:-1 17:-1 18:-0.605555 19:0.613883 20:-0.389345 
-1 -1 1 0 1 1 1 1 1 0.6065666836560696 0 1 0 1 0 1:0.16129 2:0.2 3:0.207547 4:-0.045045 5:-0.492754 6:-1 7:-1 8:-1 9:-1 10:-1 11:-1 12:-1 14:-1 15:-1 16:-1 17:-1 18:0.633333 19:-0.622217 20:-0.372538 
-1 -1 1 0 1 1 1 1 1 0 0 1 0 1 0 1:-0.0322581 2:0.2 3:0.396226 4:-0.045045 5:-0.666667 6:-1 7:-1 8:-1 9:-1 10:-1 11:-1 12:-1 14:-1 15:-1 16:-1 17:-1 18:0.508333 19:-0.497217 20:-0.498588 
-1 -1 1 0 1 1 1 1 1 1 0.4594286769830143 1 0 1 0 1:0.354839 2:0.2 3:0.0188679 4:-0.045045 5:-0.666667 6:-1 7:-1 8:-1 9:-1 10:-1 11:-1 12:-1 14:-1 15:-1 16:-1 17:-1 18:0.808333 19:-0.78055 20:-0.204471 
-0 -0 0 1 0 0 0 0 0 0 0.4587536481286896 0 0.003450557713278503 0 0.09575051704193314 1:0.0322581 2:0.2 3:0.0943396 4:1 5:-0.333333 6:-1 7:-1 8:-1 9:-1 10:-1 11:1 12:-1 14:-1 15:-1 16:-1 17:-1 18:-0.38055 19:0.40555 20:-0.607849 
-1 -1 1 0 1 1 1 1 1 1 0 1 0 1 0 1:0.354839 2:-0.2 3:-0.132075 4:-0.045045 6:-1 7:-1 8:-1 9:-1 10:-1 11:-1 12:-1 14:-1 15:-1 16:-1 17:-1 18:0.977783 19:-0.95 20:-0.0335966 
-1 -1 1 0 1 1 1 1 1 1 0.3163904609967222 1 0 1 0 1:0.354839 2:-0.2 3:-0.132075 4:-0.045045 6:-1 7:-1 8:-1 9:-1 10:-1 11:-1 12:-1 14:-1 15:-1 16:-1 17:-1 18:0.991667 19:-0.963883 20:-0.0195966 
-0 -0 0 1 0 0.4595335830475164 0 0 0 0 0.1848862239166673 0.02608450175213937 0 0 0 1:0.354839 2:1 3:0.396226 4:-0.045045 5:-0.492754 6:-1 7:-1 8:-1 9:-1 10:-1 11:-1 12:-1 14:-1 15:1 16:-1 17:-1 18:-0.425005 19:0.45 20:-0.565815 
-0 -0 0 1 0 0 0 0 0 0 0 0 0 0 0.09119758613428458 1:0.354839 2:1 3:0.396226 4:-0.045045 5:-0.492754 6:-1 7:-1 8:-1 9:-1 10:-1 11:-1 12:-1 14:-1 15:1 16:-1 17:-1 18:-0.419438 19:0.444433 20:-0.571429 
-0 -0 0 1 0 0 0 0 0 0 0 1 0 0 0 1:0.741935 2:0.2 3:-0.283019 4:-0.045045 5:-0.333333 6:-1 7:-1 8:-1 9:-1 10:-1 11:-1 12:-1 14:-1 15:-1 16:-1 17:-1 18:-0.0194383 19:0.0444333 20:-0.971983 
-0 -0 0 1 0 0 0 0 0 0 0 1 0 0 0 1:0.741935 2:0.2 3:-0.283019 4:-0.045045 5:-0.333333 6:-1 7:-1 8:-1 9:-1 10:-1 11:-1 12:-1 14:-1 15:-1 16:-1 17:-1 18:-0.0194383 19:0.0444333 20:-0.971983 
-0 -0 0 1 0 0 0 0 0 0 0 1 0 0 0 1:0.741935 2:0.6 3:-0.132075 4:-0.045045 5:-0.492754 6:-1 7:-1 8:-1 9:-1 10:-1 11:-1 12:-1 14:-1 15:-1 16:-1 17:-1 18:-0.0472217 19:0.0722167 20:-0.943966 
-0 -0 0 1 0 0 0 0 0 0 0.2376294157779354 1 0 0 0 1:0.741935 2:0.6 3:-0.132075 4:-0.045045 5:-0.492754 6:-1 7:-1 8:-1 9:-1 10:-1 11:-1 12:-1 14:-1 15:-1 16:-1 17:-1 18:-0.0638883 19:0.0888833 20:-0.92716 
-0 -0 0 1 0 0 0 0 0 0 0 0 0 0 0 1:-0.0322581 2:0.2 3:0.396226 4:-0.261261 5:0.173913 6:-1 7:-1 8:-1 9:-1 10:-1 11:-1 12:-1 14:-1 15:-1 16:-1 17:-1 18:-0.474995 19:0.483333 20:-0.521008 
-0 -0 0 1 0 0 0 0 0 0 0 0 0 0 0 1:-0.0322581 2:0.2 3:0.396226 4:-0.261261 5:0.173913 6:-1 7:-1 8:-1 9:-1 10:-1 11:-1 12:-1 14:-1 15:-1 16:-1 17:-1 18:-0.474995 19:0.483333 20:-0.521008 
-0 -0 0 1 0 0 0 0 0 0 0 0 0 0 0 1:-0.0322581 2:0.2 3:0.396226 4:-0.261261 5:0.173913 6:-1 7:-1 8:-1 9:-1 10:-1 11:-1 12:-1 14:-1 15:-1 16:-1 17:-1 18:-0.477778 19:0.486117 20:-0.518202 
-0 -0 0 1 0 0 0 0 0 0 0 0 0 0 0 1:-0.0322581 2:0.2 3:0.396226 4:-0.261261 5:0.173913 6:-1 7:-1 8:-1 9:-1 10:-1 11:-1 12:-1 14:-1 15:-1 16:-1 17:-1 18:-0.483328 19:0.491667 20:-0.512605 
-0 -0 0 1 0 0 0 0 0 0 1 1 0 0 0 1:0.548387 2:0.6 3:0.0566038 4:-0.045045 5:-0.492754 6:-1 7:-1 8:-1 9:-1 10:-1 11:-1 12:-1 14:-1 15:-1 16:-1 17:-1 18:-0.0638833 19:0.0833333 20:-0.932773 
-0 -0.7407851788601466 1 1 0 1 1 0 1 0.5742091607378765 0.6477787430585039 1 0 0.159858971960568 0 1:-0.505376 2:-0.244444 3:0.471698 4:0.0990991 5:-0.333333 6:-1 7:-1 8:-1 9:-1 10:-1 11:-1 12:-1 14:-1 15:-1 16:1 17:-1 18:-0.891667 19:0.9 20:-0.100835 
-1 -1 1 0.2414371391451158 0 1 1 1 1 0 1 1 0.1413762349985013 1 0.2308454624457956 1:-0.612903 2:0.2 3:1 4:-0.045045 5:-0.826087 6:-1 7:-1 8:-1 9:-1 10:-1 11:-1 12:-1 14:-1 15:-1 16:-1 17:-1 18:-0.919445 19:0.927783 20:-0.0728286 
-0 -0 0 1 0 0 0 0 0 0 0 0 0 0 0 1:0.354839 2:-0.6 3:-0.283019 4:-0.045045 5:0.84058 6:-1 7:-1 8:-1 9:-1 10:-1 11:-1 12:-1 14:-1 15:-1 16:-1 17:-1 18:0.124995 19:-0.113883 20:-0.88516 
-0.7772654803602096 -0 1 1 1 0.5041291133075101 0.813591990854582 0 0 0 0 1 0 0 0 1:0.548387 2:-0.2 3:-0.283019 4:-0.045045 5:0.173913 6:-1 7:-1 8:-1 9:-1 10:-1 11:-1 12:-1 14:-1 15:-1 16:-1 17:-1 18:0.552783 19:-0.54445 20:-0.450975 
-0 -0 1 1 1 0 0 0 0 0 0 1 0 0 0 1:0.548387 2:-0.2 3:-0.283019 4:-0.045045 5:0.173913 6:-1 7:-1 8:-1 9:-1 10:-1 11:-1 12:-1 14:-1 15:-1 16:-1 17:-1 18:0.55 19:-0.541667 20:-0.453782 
-0 -0 1 1 1 0 0 0 0 0 0.07320821426429512 0.2620207752139359 0 0 0 1:0.354839 2:-0.6 3:-0.283019 4:-0.045045 5:0.666667 6:-1 7:-1 8:-1 9:-1 10:-1 11:-1 12:-1 14:-1 15:-1 16:-1 17:-1 18:0.694433 19:-0.6861 20:-0.308118 
-0 -0 0.2230656776512072 1 1 0 0 0 0 0 0.01097543914688051 0 0 0 0 1:0.354839 2:-0.6 3:-0.283019 4:-0.045045 5:0.666667 6:-1 7:-1 8:-1 9:-1 10:-1 11:-1 12:-1 14:-1 15:-1 16:-1 17:-1 18:0.688883 19:-0.68055 20:-0.313714 
-1 -0.2098930692295763 1 1 1 1 1 1 1 1 0 1 0 0 0 1:-0.225806 2:-0.6 3:0.207547 4:-0.045045 5:-0.492754 6:-1 7:-1 8:-1 9:-1 10:-1 11:-1 12:-1 14:-1 15:-1 16:-1 17:-1 18:-0.0416667 19:0.0305667 20:0.97479 
-0 -0 0 1 0 0 0 0 0 0 0 1 0.04840787162977436 0 0 1:-0.225806 2:-0.2 3:0.396226 4:-0.045045 5:0.333333 6:-1 7:-1 8:-1 9:-1 10:-1 11:-1 12:-1 14:-1 15:-1 16:-1 17:-1 18:0.116662 19:-0.10555 20:-0.893563 
-0 -0 0 1 0 0 0 0 0 0 1 0 0 0 0 1:0.548387 2:0.2 3:-0.132075 4:-0.045045 5:-0.15942 6:-1 7:-1 8:-1 9:-1 10:-1 11:-1 12:-1 14:-1 15:-1 16:-1 17:-1 18:-0.266662 19:0.277767 20:-0.731092 
-0 -0 0 1 0 0 0 0 0 0 0 1 0 0 0 1:0.935484 2:0.2 3:-0.396226 4:-0.045045 6:-1 7:1 8:-1 9:-1 10:-1 11:-1 12:-1 14:-1 15:-1 16:-1 17:-1 18:-0.086105 19:0.0972167 20:-0.91316 
-0 -0 0 1 0 0 0 0 0 0 0 0 0 0 0 1:0.935484 2:0.2 3:-0.396226 4:-0.045045 5:0.333333 6:-1 7:-1 8:-1 9:-1 10:-1 11:-1 12:-1 14:-1 15:-1 16:-1 17:-1 18:-0.130555 19:0.141667 20:-0.868336 
-0 -0 0 1 0 0 0 0 0 0 0 0 0 0 0 1:0.935484 2:0.2 3:-0.396226 4:-0.045045 5:0.333333 6:-1 7:-1 8:-1 9:-1 10:-1 11:-1 12:-1 14:-1 15:-1 16:-1 17:-1 18:-0.136105 19:0.147217 20:-0.862739 
-0 -0 0 1 0 0 0 0 0 0 0 0 0 0 0 1:0.935484 2:0.2 3:-0.396226 4:-0.045045 5:0.333333 6:-1 7:-1 8:-1 9:-1 10:-1 11:-1 12:-1 14:-1 15:-1 16:-1 17:-1 18:-0.130555 19:0.141667 20:-0.868336 
-0 -0.6637535842655991 0 0.3698256909513391 0 0.4585110879153693 0 0 0 0 0 1 0 0.5024050587397649 0 1:0.935484 2:0.2 3:-0.396226 4:-0.045045 6:-1 7:1 8:-1 9:-1 10:-1 11:-1 12:-1 14:-1 15:-1 16:-1 17:-1 18:-0.0833383 19:0.09445 20:-0.91595 
-0 -0 0 1 0 0 0 0 0 0 0.9459109962999455 0 0 0 0 1:0.935484 2:0.2 3:-0.396226 4:-0.045045 5:0.333333 6:-1 7:-1 8:-1 9:-1 10:-1 11:-1 12:-1 14:-1 15:-1 16:-1 17:-1 18:-0.144438 19:0.15555 20:-0.854336 
-1 -0.9845958884907162 1 1 1 1 1 1 1 0 0.2892587340656522 1 0.2003120443394543 0 0 1:0.16129 2:0.2 3:0.207547 4:-0.045045 5:0.173913 6:-1 7:-1 8:-1 9:-1 10:-1 11:-1 12:-1 14:-1 15:-1 16:-1 17:-1 18:0.70555 19:-0.69445 20:-0.299714 
-0 -0 0 1 0 0 0 0 0 0 0 1 0 0 0 1:0.548387 2:0.2 3:-0.132075 4:-0.045045 5:-0.492754 6:-1 7:-1 8:-1 9:-1 10:-1 11:-1 12:-1 14:-1 15:-1 16:-1 17:-1 18:-0.0277717 19:0.0416667 20:-0.971983 
-0 -0 0 1 0 0 0 0 0 0 0 0 0 0 0 1:0.935484 2:-0.2 3:-0.54717 4:-0.045045 5:0.666667 6:-1 7:-1 8:-1 9:-1 10:-1 11:-1 12:-1 14:-1 15:-1 16:-1 17:-1 18:0.244445 19:-0.23055 20:-0.767496 
-1 -0 -1 0.9866842338971878 0 0 0 0 0 0.5160736744655116 0 0 0 0 0 1:0.0322581 2:0.2 3:0.132075 4:0.459459 5:-0.15942 6:-1 7:-1 8:-1 9:-1 10:-1 11:-1 12:-1 14:-1 15:-1 16:1 17:-1 18:0.855567 19:-0.8889 20:0.131647 
-0 -0 -0 0 0.005748759044484934 0 0 0 0 0 0 0 0 0 0 1:0.0322581 2:-0.0222222 3:-0.0188679 4:-0.441441 5:-0.347826 6:-1 7:-1 8:-1 9:-1 10:-1 11:-1 12:-1 14:-1 15:-1 16:1 17:-1 18:0.85 19:-0.880567 20:0.14005 
-0.2398464848549539 -0 -0 0 0 0 0.08380165755253295 0 0 0 0 0 0 0 0 1:-0.0322581 2:-0.2 3:0.207547 4:-0.261261 5:-0.826087 6:-1 7:-1 8:-1 9:-1 10:-1 11:-1 12:-1 14:-1 15:-1 16:-1 17:-1 18:0.783333 19:-0.8139 20:0.207277 
-0 -0.4185185265426585 -0 0 1 0.4808127107601367 0 1 0 0 0 0 0 0 0 1:-0.0322581 2:-0.2 3:0.207547 4:-0.387387 5:-0.666667 6:-1 7:-1 8:-1 9:-1 10:-1 11:-1 12:-1 14:-1 15:-1 16:-1 17:-1 18:0.847217 19:-0.877783 20:0.142857 
-1 -0 -0 0 0 0 1 0 0 0 0 0 0 0 0 1:-0.0322581 2:-0.2 3:0.207547 4:-0.261261 5:-0.826087 6:-1 7:-1 8:-1 9:-1 10:-1 11:-1 12:-1 14:-1 15:-1 16:-1 17:-1 18:0.783333 19:-0.8139 20:0.207277 
-1 -0 -0 0 1 0 1 0 0 0 0 0 0 1 0 1:-0.0322581 2:-0.2 3:0.207547 4:-0.261261 5:-0.826087 6:-1 7:-1 8:-1 9:-1 10:-1 11:-1 12:-1 14:-1 15:-1 16:-1 17:-1 18:0.7861 19:-0.816667 20:0.204487 
-0 -0 -0 0 0 0 0 1 0 0 0 0 0 0 0 1:-0.0322581 2:-0.2 3:0.207547 4:-0.261261 5:-0.826087 6:-1 7:-1 8:-1 9:-1 10:-1 11:-1 12:-1 14:-1 15:-1 16:-1 17:-1 18:0.633333 19:-0.6639 20:0.358538 
-1 -0 -0 0 0 0 1 0 0 0 0 0 0 0 0 1:-0.0322581 2:-0.2 3:0.207547 4:-0.261261 5:-0.826087 6:-1 7:-1 8:-1 9:-1 10:-1 11:-1 12:-1 14:-1 15:-1 16:-1 17:-1 18:0.783333 19:-0.8139 20:0.207277 
-1 -0 -0 0 0 0 1 0 0 0 0 0 0 0 0 1:-0.0322581 2:-0.2 3:0.207547 4:-0.261261 5:-0.826087 6:-1 7:-1 8:-1 9:-1 10:-1 11:-1 12:-1 14:-1 15:-1 16:-1 17:-1 18:0.783333 19:-0.8139 20:0.207277 
-1 -0 -0 0 0.4134911807378199 0 1 0 0 0 0 0 0 0 0 1:-0.0322581 2:-0.2 3:0.207547 4:-0.261261 5:-0.826087 6:-1 7:-1 8:-1 9:-1 10:-1 11:-1 12:-1 14:-1 15:-1 16:-1 17:-1 18:0.783333 19:-0.8139 20:0.207277 
-0 -0 -0 0 0 0 0 1 0 0 0 0 0 0 0 1:-0.0322581 2:-0.2 3:0.207547 4:-0.261261 5:-0.826087 6:-1 7:-1 8:-1 9:-1 10:-1 11:-1 12:-1 14:-1 15:-1 16:-1 17:-1 18:0.625 19:-0.655567 20:0.366941 
-1 -0 -0 0 1 0 1 0 0 0 0 0 0 0 0 1:-0.0322581 2:-0.2 3:0.207547 4:-0.261261 5:-0.826087 6:-1 7:-1 8:-1 9:-1 10:-1 11:-1 12:-1 14:-1 15:-1 16:-1 17:-1 18:0.783333 19:-0.8139 20:0.207277 
-0 -0.9303865633119399 -0 0 1 1 0 1 0 0 0 0 0 0 0 1:-0.0322581 2:-0.2 3:0.207547 4:-0.387387 5:-0.666667 6:-1 7:-1 8:-1 9:-1 10:-1 11:-1 12:-1 14:-1 15:-1 16:-1 17:-1 18:0.847217 19:-0.877783 20:0.142857 
-1 -0 -0 0 1 0 1 0 0 0 0 0 0 0.6774307651969343 0 1:-0.0322581 2:-0.2 3:0.207547 4:-0.261261 5:-0.826087 6:-1 7:-1 8:-1 9:-1 10:-1 11:-1 12:-1 14:-1 15:-1 16:-1 17:-1 18:0.783333 19:-0.8139 20:0.207277 
-0 -0 -0 0 0 0 0 0.04037740245669416 0 0 0 0 0 0 0 1:-0.0322581 2:-0.2 3:0.207547 4:-0.261261 5:-0.826087 6:-1 7:-1 8:-1 9:-1 10:-1 11:-1 12:-1 14:-1 15:-1 16:-1 17:-1 18:0.777767 19:-0.808333 20:0.212891 
-1 -0.6713788283537433 -1 1 0.5347941855813689 1 1 0.1762765132910031 0.1116966515197815 0 1 1 0 1 0 1:-0.0322581 2:0.6 3:0.584906 4:-0.81982 5:0.507246 6:-1 7:-1 8:-1 9:1 10:-1 11:-1 12:-1 14:-1 15:-1 16:-1 17:-1 18:0.225005 19:-0.202783 20:-0.789899 
-1 -1 -1 1 1 1 1 0.6617304708443867 0 0 1 1 0 1 0 1:0.548387 2:-0.2 3:-0.283019 4:-0.045045 5:1 6:-1 7:-1 8:-1 9:-1 10:-1 11:-1 12:-1 14:-1 15:-1 16:-1 17:-1 18:0.191672 19:-0.175 20:-0.820723 
-1 -1 -1 1 1 1 1 0 0.2994604813821402 0 1 1 0.4796241625781144 1 0 1:0.548387 2:-0.2 3:-0.283019 4:-0.045045 5:0.666667 6:-1 7:-1 8:-1 9:-1 10:-1 11:-1 12:-1 14:-1 15:-1 16:-1 17:-1 18:-0.0555617 19:0.0722333 20:-0.94116 
-0 -0 -0 0 0 0 1 1 1 1 0 0 0 0 0 1:-0.419355 2:-0.6 3:0.358491 4:-0.045045 5:-0.492754 6:-1 7:-1 8:-1 9:-1 10:-1 11:-1 12:-1 14:-1 15:-1 16:-1 17:-1 18:0.194433 19:-0.219433 20:0.803933 
-0 -0 -0 0 0 0 1 1 1 1 0 0 0 0 0.2503351693877187 1:-0.419355 2:-0.6 3:0.358491 4:-0.045045 5:-0.492754 6:-1 7:-1 8:-1 9:-1 10:-1 11:-1 12:-1 14:-1 15:-1 16:-1 17:-1 18:0.202767 19:-0.227767 20:0.795529 
-1 -0.1725855366614825 -1 1 1 0 1 0.3002715432176475 0.9531143295878748 1 0.5620506934181715 1 0 1 0 1:-0.225806 2:0.2 3:0.584906 4:-0.045045 5:-0.666667 6:-1 7:-1 8:-1 9:-1 10:-1 11:-1 12:-1 14:-1 15:1 16:-1 17:-1 18:0.822233 19:-0.847233 20:0.170874 
-0.793493027559956 -0.4006283668362103 -1 1 0 1 1 0.6487639525516767 0 0.9407853396194096 0 1 0 0 0.1917504958085875 1:-0.419355 2:0.2 3:0.773585 4:-0.045045 5:-0.826087 6:-1 7:-1 8:-1 9:-1 10:-1 11:1 12:-1 14:-1 15:-1 16:-1 17:-1 18:0.369433 19:-0.38055 20:0.633059 
-1 -1 -1 1 1 1 1 1 1 0 1 1 0.09222042137868099 1 0 1:-0.0322581 2:-0.2 3:0.207547 4:-0.045045 5:0.173913 6:-1 7:-1 8:-1 9:-1 10:-1 11:-1 12:-1 14:-1 15:-1 16:-1 17:-1 18:0.855567 19:-0.84445 20:-0.148454 
-1 -1 -1 1 0.5827301013526256 1 1 1 0.1103647500341146 0.418021791342607 0.7713750400790271 1 0 1 0 1:-0.225806 2:0.6 3:0.773585 4:-0.495495 5:-0.15942 6:1 7:-1 8:-1 9:-1 10:1 11:-1 12:-1 14:-1 15:-1 16:-1 17:-1 18:0.402772 19:-0.383333 20:-0.610639 
-1 -1 -0 0 0 0 1 0 1 0 0 0 0 1 0 1:-0.225806 2:0.2 3:0.584906 4:-0.045045 5:-0.666667 6:-1 7:-1 8:-1 9:-1 10:-1 11:-1 12:-1 14:-1 15:-1 16:-1 17:-1 18:0.797233 19:-0.81945 20:0.196084 
-1 -1 -1 1 0 1 1 0.3230603100380859 0.1887872427105532 0 1 1 0 1 0.7565561028690857 1:-0.419355 2:0.2 3:0.773585 4:-0.387387 5:-0.492754 6:-1 7:-1 8:-1 9:-1 10:-1 11:1 12:-1 14:-1 15:-1 16:-1 17:-1 18:0.194438 19:-0.177767 20:-0.817933 
-0.0283027673290647 -0 -1 1 0.8230058623535789 1 1 1 0.8086620838529933 0 0 1 0.1651568291685539 0 0 1:0.16129 2:0.6 3:0.396226 4:-0.045045 6:-1 7:-1 8:-1 9:-1 10:-1 11:-1 12:-1 14:-1 15:-1 16:-1 17:-1 18:0.477767 19:-0.50555 20:0.515412 
-0 -0 -0 0 0 0 0 0 1 0 0 0 0 0 0 1:-0.225806 2:0.2 3:0.584906 4:-0.045045 5:-0.826087 6:-1 7:-1 8:-1 9:-1 10:-1 11:-1 12:-1 14:-1 15:-1 16:-1 17:-1 18:0.2861 19:-0.297217 20:0.717092 
-0 -0 -0 0 0 0 0 0 1 0 0 0 0 0 0 1:-0.225806 2:0.2 3:0.584906 4:-0.045045 5:-0.492754 6:-1 7:-1 8:-1 9:-1 10:-1 11:-1 12:-1 14:-1 15:-1 16:-1 17:-1 18:0.497217 19:-0.508333 20:0.504202 
-0 -0 -0 0 0 0 0 1 0 0 0 0 0 0 0 1:-0.0322581 2:-0.2 3:0.207547 4:-0.261261 5:-0.492754 6:-1 7:-1 8:-1 9:-1 10:-1 11:-1 12:-1 14:-1 15:-1 16:-1 17:-1 18:0.533333 19:-0.55 20:0.464992 
-0.6099408314057159 -0 -1 1 1 1 1 1 0 0.6140567876151363 1 1 0 1 0 1:0.16129 2:-0.2 3:0.0188679 4:-0.387387 5:-0.666667 6:-1 7:-1 8:-1 9:-1 10:-1 11:-1 12:-1 14:-1 15:1 16:-1 17:-1 18:0.680567 19:-0.697233 20:0.316521 
-0.5112563878590178 -0.6835790778224893 -1 1 0 1 1 0.004498011513632666 1 0 1 1 0 0.2948399373480795 0.7870335887103889 1:-0.612903 2:-0.2 3:0.773585 4:-0.045045 5:-0.826087 6:-1 7:-1 8:-1 9:-1 10:-1 11:-1 12:-1 14:-1 15:1 16:-1 17:-1 18:-0.727777 19:0.719433 20:0.280113 
-0 -0 -0 0 0 1 1 0.9347731827617531 1 0 0 0 0 0 0.09530873804689607 1:-0.612903 2:-0.2 3:0.773585 4:-0.045045 5:-0.666667 6:-1 7:-1 8:-1 9:-1 10:-1 11:-1 12:-1 14:-1 15:-1 16:-1 17:-1 18:-0.0194433 19:0.0111 20:0.994403 
-0 -0 -1 0 0 0 0 0 0 0 0 1 0 0 0 1:-0.0322581 2:0.2 3:0.396226 4:-0.045045 5:-0.333333 6:-1 7:-1 8:-1 9:-1 10:-1 11:-1 12:-1 14:-1 15:-1 16:-1 17:-1 18:0.7 19:-0.711117 20:0.299714 
-0 -0 -1 0 0 0 0 0 0 0 0 1 0 0 0 1:-0.0322581 2:0.2 3:0.396226 4:-0.045045 5:-0.333333 6:-1 7:-1 8:-1 9:-1 10:-1 11:-1 12:-1 14:-1 15:-1 16:-1 17:-1 18:0.691667 19:-0.702783 20:0.308118 
-0 -0 -1 0 0 0 0 0 0 0 0 0.1294206719755256 0 0 0 1:-0.0322581 2:0.2 3:0.396226 4:-0.045045 5:-0.333333 6:-1 7:-1 8:-1 9:-1 10:-1 11:-1 12:-1 14:-1 15:-1 16:-1 17:-1 18:0.688883 19:-0.7 20:0.310924 
-0 -0 -1 0 0 0 0 0 0 0 0 1 0 0 0 1:-0.0322581 2:0.2 3:0.396226 4:-0.045045 5:-0.333333 6:-1 7:-1 8:-1 9:-1 10:-1 11:-1 12:-1 14:-1 15:-1 16:-1 17:-1 18:0.691667 19:-0.702783 20:0.308118 
-0 -0 -1 0 0 0 0.9756957011564992 0 0 0 0 1 0 0 0 1:-0.0322581 2:0.2 3:0.396226 4:-0.045045 5:-0.333333 6:-1 7:-1 8:-1 9:-1 10:-1 11:-1 12:-1 14:-1 15:-1 16:-1 17:-1 18:0.691667 19:-0.702783 20:0.308118 
-0 -0 -1 0 0 0 0 0 0 0 0 1 0 0 0 1:-0.0322581 2:0.2 3:0.396226 4:-0.045045 5:-0.333333 6:-1 7:-1 8:-1 9:-1 10:-1 11:-1 12:-1 14:-1 15:-1 16:-1 17:-1 18:0.7 19:-0.711117 20:0.299714 
-0 -0 -1 0 0 0 0 0 0 0 0 1 0 0 0 1:-0.0322581 2:0.2 3:0.396226 4:-0.045045 5:-0.333333 6:-1 7:-1 8:-1 9:-1 10:-1 11:-1 12:-1 14:-1 15:-1 16:-1 17:-1 18:0.688883 19:-0.7 20:0.310924 
-0 -0 -1 0 0 0 0 0 0 0 0 1 0 0 0 1:-0.0322581 2:0.2 3:0.396226 4:-0.045045 5:-0.333333 6:-1 7:-1 8:-1 9:-1 10:-1 11:-1 12:-1 14:-1 15:-1 16:-1 17:-1 18:0.691667 19:-0.702783 20:0.308118 
-1 -0 -1 0.7718907975437305 1 1 1 1 0 0 0.6533275120484051 1 0.4444586376555996 0 0 1:0.16129 2:0.6 3:0.396226 4:-0.045045 6:-1 7:-1 8:-1 9:-1 10:-1 11:-1 12:-1 14:-1 15:-1 16:-1 17:-1 18:0.522217 19:-0.55 20:0.470588 
-1 -0 -1 1 0 1 1 1 1 0 1 1 0 0 0 1:-0.612903 2:0.2 3:1 4:-0.153153 5:-0.666667 6:-1 7:-1 8:-1 9:-1 10:-1 11:-1 12:-1 14:-1 15:-1 16:-1 17:-1 18:-0.763888 19:0.752783 20:0.246504 
-0.5834766099636517 -0 -0.4706903335144528 1 0 1 1 1 1 0.7059527188847987 0 1 0 0 0 1:-0.806452 2:-0.6 3:0.773585 4:-0.045045 5:-0.333333 6:-1 7:-1 8:-1 9:-1 10:-1 11:-1 12:-1 14:-1 15:-1 16:-1 17:-1 18:-0.075 19:0.0444333 20:0.952387 
-0 -0 -0 0 0 0 0.6061926591321403 0 1 0.03201159103266173 0 0 0 0 0 1:-0.0322581 2:0.2 3:0.396226 4:-0.045045 5:-0.15942 6:-1 7:-1 8:-1 9:-1 10:-1 11:-1 12:-1 14:-1 15:-1 16:-1 17:-1 18:0.138888 19:-0.15555 20:0.862756 
-0 -0 -0 0.8473101409148023 0 0 1 0 1 0 0 0 0 0 0 1:-0.0322581 2:0.2 3:0.396226 4:-0.045045 5:-0.15942 6:-1 7:-1 8:-1 9:-1 10:-1 11:-1 12:-1 14:-1 15:-1 16:-1 17:-1 18:0.138888 19:-0.15555 20:0.862756 
-0 -0 -0 0 0 0 1 0.7555956734329535 1 0 0 0 0 0 0 1:-0.0322581 2:0.2 3:0.396226 4:-0.045045 5:-0.15942 6:-1 7:-1 8:-1 9:-1 10:-1 11:-1 12:-1 14:-1 15:-1 16:-1 17:-1 18:0.138888 19:-0.15555 20:0.862756 
-0 -0 -0 0 0 0 1 0 1 0.3042696980054371 0 0 0 0 0 1:-0.0322581 2:0.2 3:0.396226 4:-0.045045 5:-0.15942 6:-1 7:-1 8:-1 9:-1 10:-1 11:-1 12:-1 14:-1 15:-1 16:-1 17:-1 18:0.138888 19:-0.15555 20:0.862756 
-0 -0 -0 0.04925280044684858 0 0.3337820679551663 1 0 1 1 0 0 0 0 0.1036580201633129 1:-0.0322581 2:0.2 3:0.396226 4:-0.045045 5:-0.15942 6:-1 7:-1 8:-1 9:-1 10:-1 11:-1 12:-1 14:-1 15:-1 16:-1 17:-1 18:0.138888 19:-0.15555 20:0.862756 
-1 -1 -1 1 1 1 1 0.02472615496370215 0 0 1 1 0 1 0 1:0.741935 2:-0.2 3:-0.433962 4:-0.045045 6:-1 7:-1 8:-1 9:-1 10:-1 11:-1 12:-1 14:-1 15:-1 16:-1 17:-1 18:-0.086105 19:0.102767 20:-0.91037 
-1 -1 -1 1 1 1 1 0.4708379779313669 0.3699636307569033 0 1 1 0 1 0 1:0.741935 2:-0.6 3:-0.54717 4:-0.045045 5:0.173913 6:-1 7:-1 8:-1 9:-1 10:-1 11:-1 12:-1 14:-1 15:-1 16:-1 17:-1 18:0.316662 19:-0.288883 20:-0.700286 
-1 -1 -1 0 0 1 1 1 1 0 0 1 0 1 0 1:-0.225806 2:0.6 3:0.773585 4:-0.045045 5:-0.15942 6:-1 7:-1 8:-1 9:-1 10:-1 11:-1 12:-1 14:-1 15:-1 16:-1 17:-1 18:0.83055 19:-0.838883 20:0.168084 
-1 -1 -1 0 0 1 1 1 0.8995021622977289 0.991740856860248 0 1 0 1 0 1:-0.419355 2:-0.6 3:0.358491 4:-0.045045 5:-0.492754 6:-1 7:-1 8:-1 9:-1 10:-1 11:-1 12:-1 14:-1 15:-1 16:-1 17:-1 18:0.902767 19:-0.9111 20:0.0952437 
-0.1151739054296771 -0 -0 0 0 1 1 1 1 0 0 0 0 0 0 1:-0.0322581 2:0.6 3:0.584906 4:-0.045045 5:-0.492754 6:-1 7:-1 8:-1 9:-1 10:-1 11:-1 12:-1 14:-1 15:-1 16:-1 17:-1 18:0.313883 19:-0.341667 20:0.680672 
-0.136323006070706 -0 -1 1 0.6335475343215096 1 0.3892169375724275 0.5627757616636843 0.3299218805568649 1 1 1 0 0 0 1:-0.0752688 2:0.644444 3:0.509434 4:0.0990991 5:-0.492754 6:-1 7:-1 8:-1 9:-1 10:-1 11:-1 12:-1 14:-1 15:1 16:-1 17:-1 18:0.35555 19:-0.383333 20:0.638655 
-0 -0 -0 0 0 1 0 0 0 0 0 0 0 0 0 1:-0.419355 2:0.2 3:0.773585 4:-0.045045 5:-0.666667 6:-1 7:-1 8:-1 9:-1 10:-1 11:-1 12:-1 14:-1 15:1 16:-1 17:-1 18:0.716667 19:-0.7389 20:0.277311 
-0 -0 -0 0 0 0.8805947136786082 0 0 0 0 0 0 0 0 0 1:-0.419355 2:0.2 3:0.773585 4:-0.045045 5:-0.666667 6:-1 7:-1 8:-1 9:-1 10:-1 11:-1 12:-1 14:-1 15:1 16:-1 17:-1 18:0.75555 19:-0.777783 20:0.238101 
-0 -0 -0 0 0 0 1 0 0 0 0 0 0 0 0 1:-0.419355 2:0.2 3:0.773585 4:-0.045045 5:-0.666667 6:-1 7:-1 8:-1 9:-1 10:-1 11:-1 12:-1 14:-1 15:1 16:-1 17:-1 18:0.777767 19:-0.8 20:0.215697 
-0 -0 -0 0 0 0.9952799618262529 0 0 0 0 0 0 0 0 0 1:-0.419355 2:0.2 3:0.773585 4:-0.045045 5:-0.666667 6:-1 7:-1 8:-1 9:-1 10:-1 11:-1 12:-1 14:-1 15:1 16:-1 17:-1 18:0.75555 19:-0.777783 20:0.238101 
-0 -0 -1 0.5735820085945916 0 0 1 1 0.9985691380688781 0 0 1 0 1 0 1:-0.419355 2:0.2 3:0.773585 4:-0.045045 5:-0.666667 6:-1 7:-1 8:-1 9:-1 10:-1 11:-1 12:-1 14:-1 15:1 16:-1 17:-1 18:0.788883 19:-0.811117 20:0.204487 
-0 -0 -0 0 0 0 1 0 0 0 0 0 0 0 0 1:-0.419355 2:0.2 3:0.773585 4:-0.045045 5:-0.666667 6:-1 7:-1 8:-1 9:-1 10:-1 11:-1 12:-1 14:-1 15:1 16:-1 17:-1 18:0.777767 19:-0.8 20:0.215697 
-0 -0 -0 0 0 0 0.9412508622402904 0 0 0 0 0 0 0 0 1:-0.419355 2:0.2 3:0.773585 4:-0.045045 5:-0.666667 6:-1 7:-1 8:-1 9:-1 10:-1 11:-1 12:-1 14:-1 15:1 16:-1 17:-1 18:0.763883 19:-0.786117 20:0.229697 
-0 -0 -0 0 0 1 0 0 0 0 0 0 0 0 0 1:-0.419355 2:0.2 3:0.773585 4:-0.045045 5:-0.666667 6:-1 7:-1 8:-1 9:-1 10:-1 11:-1 12:-1 14:-1 15:1 16:-1 17:-1 18:0.719433 19:-0.741667 20:0.274521 
-0 -0 -0 0 0 0 1 0 0 0 0 0 0 0 0 1:-0.419355 2:0.2 3:0.773585 4:-0.045045 5:-0.666667 6:-1 7:-1 8:-1 9:-1 10:-1 11:-1 12:-1 14:-1 15:1 16:-1 17:-1 18:0.772217 19:-0.79445 20:0.221294 
-0.4275805521904867 -0.7848735190466459 -0.9407014452068587 0.8457258461539492 0 0 1 1 0 0.2776694185198721 0 1 0 1 0.2010182784354655 1:-0.419355 2:0.2 3:0.773585 4:-0.045045 5:-0.666667 6:-1 7:-1 8:-1 9:-1 10:-1 11:-1 12:-1 14:-1 15:1 16:-1 17:-1 18:0.788883 19:-0.811117 20:0.204487 
-0 -0 -0 0 0 0 1 0 0 0 0 0.1248991812247323 0 0 0 1:-0.419355 2:0.2 3:0.773585 4:-0.045045 5:-0.666667 6:-1 7:-1 8:-1 9:-1 10:-1 11:-1 12:-1 14:-1 15:1 16:-1 17:-1 18:0.777767 19:-0.8 20:0.215697 
-0 -0 -0 0 0 0 1 0 0 0 0 1 0 0 0 1:-0.419355 2:0.2 3:0.773585 4:-0.045045 5:-0.666667 6:-1 7:-1 8:-1 9:-1 10:-1 11:-1 12:-1 14:-1 15:1 16:-1 17:-1 18:0.78055 19:-0.802783 20:0.212891 
-0 -0 -0 0 0 1 0 0 0 0 0 0 0 0 0 1:-0.419355 2:0.2 3:0.773585 4:-0.045045 5:-0.666667 6:-1 7:-1 8:-1 9:-1 10:-1 11:-1 12:-1 14:-1 15:1 16:-1 17:-1 18:0.716667 19:-0.7389 20:0.277311 
-0 -0 -0 0 0 0 1 0.2040973084846854 0 0 0 1 0 0.2552354237727049 0 1:-0.419355 2:0.2 3:0.773585 4:-0.045045 5:-0.666667 6:-1 7:-1 8:-1 9:-1 10:-1 11:-1 12:-1 14:-1 15:1 16:-1 17:-1 18:0.783333 19:-0.805567 20:0.210084 
-0 -0 -0 0 0 0 0 0 0.6744176334294459 0 0 0 0 0 0 1:-0.0322581 2:0.2 3:0.396226 4:-0.045045 5:-0.826087 6:-1 7:-1 8:-1 9:-1 10:-1 11:-1 12:-1 14:-1 15:-1 16:-1 17:-1 18:0.41945 19:-0.441667 20:0.577042 
-1 -0 -1 0 1 1 0.03002276531037966 1 0.2315443986271022 0 0 1 0 0 0 1:-0.0322581 2:0.2 3:0.396226 4:-0.045045 6:-1 7:-1 8:-1 9:-1 10:-1 11:-1 12:-1 14:-1 15:-1 16:-1 17:-1 18:0.805567 19:-0.825 20:0.190471 
-1 -0 -1 0 1 1 0.5586608869724108 1 1 0.01057689596252951 0 1 0 0 0 1:-0.0322581 2:0.2 3:0.396226 4:-0.045045 6:-1 7:-1 8:-1 9:-1 10:-1 11:-1 12:-1 14:-1 15:-1 16:-1 17:-1 18:0.805567 19:-0.825 20:0.190471 
-1 -0 -1 1 1 1 1 1 1 1 0.9531607780595448 1 0 0 0 1:-0.0322581 2:-0.2 3:0.207547 4:-0.045045 5:0.173913 6:-1 7:-1 8:-1 9:-1 10:-1 11:-1 12:-1 14:-1 15:-1 16:-1 17:-1 18:0.811117 19:-0.827783 20:0.184874 
-1 -1 -1 1 0.8021089621721824 1 1 0.1322864309394622 0 0.0771731421843217 1 1 0 1 0.006463669998179118 1:-0.0322581 2:0.2 3:0.396226 4:-0.045045 5:0.84058 6:-1 7:-1 8:-1 9:-1 10:-1 11:1 12:-1 14:-1 15:-1 16:-1 17:-1 18:0.233338 19:-0.21945 20:-0.775899 
-0 -0 -1 1 0 1 0 0 0 0 0 0.1637423682941383 0 0 0 1:-0.290323 2:-0.0222222 3:0.320755 4:-0.0810811 5:0.507246 6:-1 7:-1 8:-1 9:-1 10:-1 11:-1 12:-1 14:-1 15:-1 16:1 17:-1 18:0.8861 19:-0.894433 20:0.11205 
-0 -0.1454903401549754 -1 0.8106958733639842 0 0.5145142029852253 0 0 0.2620007255923149 0 0 1 0 0 0.004458225627080238 1:-0.290323 2:-0.0222222 3:0.471698 4:0.459459 5:0.333333 6:-1 7:-1 8:-1 9:-1 10:-1 11:-1 12:-1 14:-1 15:-1 16:1 17:-1 18:0.883333 19:-0.894433 20:0.114857 
-0 -0 -0 0 0 0 0 0 1 0 0 0 0 0 0 1:-0.225806 2:0.2 3:0.584906 4:-0.045045 5:-0.666667 6:-1 7:-1 8:-1 9:-1 10:-1 11:-1 12:-1 14:-1 15:-1 16:-1 17:-1 18:0.455567 19:-0.46945 20:0.546218 
-0 -0 -0 0 0 1 0.1686151324931787 0 1 1 0 0 0 0 0.1685426156617379 1:-0.419355 2:0.2 3:0.773585 4:-0.045045 5:-0.492754 6:-1 7:-1 8:-1 9:-1 10:-1 11:-1 12:-1 14:-1 15:-1 16:-1 17:-1 18:0.297233 19:-0.322233 20:0.700286 
-1 -1 -1 1 1 1 1 1 1 0 0 1 0 1 0 1:-0.225806 2:0.2 3:0.584906 4:-0.045045 6:-1 7:-1 8:-1 9:-1 10:-1 11:-1 12:-1 14:-1 15:-1 16:-1 17:-1 18:0.925 19:-0.916667 20:-0.0756303 
-1 -1 -1 1 1 1 1 1 1 0 0 1 0.2834083225527607 1 0 1:-0.225806 2:0.2 3:0.584906 4:-0.045045 6:-1 7:-1 8:-1 9:-1 10:-1 11:-1 12:-1 14:-1 15:-1 16:-1 17:-1 18:0.91945 19:-0.911117 20:-0.0812269 
-1 -1 -1 0 1 1 1 1 1 0.4951762627397581 0 1 0 1 0 1:-0.225806 2:0.2 3:0.584906 4:-0.045045 6:-1 7:-1 8:-1 9:-1 10:-1 11:-1 12:-1 14:-1 15:-1 16:-1 17:-1 18:0.977783 19:-0.96945 20:-0.0224034 
-1 -1 -1 0 1 1 1 1 1 0 0 1 0 0 0 1:-0.0322581 2:0.2 3:0.396226 4:-0.045045 6:-1 7:-1 8:-1 9:-1 10:-1 11:-1 12:-1 14:-1 15:-1 16:-1 17:-1 18:0.90555 19:-0.93055 20:0.0840336 
-0 -0 -1 0 0 0 0 0 1 1 0 0 0 0 0 1:-0.0322581 2:0.2 3:0.396226 4:-0.045045 6:-1 7:-1 8:-1 9:-1 10:-1 11:-1 12:-1 14:-1 15:-1 16:-1 17:-1 18:0.347217 19:-0.375 20:0.647059 
-0 -0 -1 0 0 0 0 0.6241963429640515 1 1 0 0 0 0 0.2225791377577706 1:-0.0322581 2:0.2 3:0.396226 4:-0.045045 6:-1 7:-1 8:-1 9:-1 10:-1 11:-1 12:-1 14:-1 15:-1 16:-1 17:-1 18:0.347217 19:-0.375 20:0.647059 
-0 -0 -0 0 0 0 0 0.1664440648117559 0.54765828566467 0.7878438195928933 0 0 0 0 0 1:-0.0322581 2:-0.2 3:0.207547 4:-0.045045 5:-0.492754 6:-1 7:-1 8:-1 9:-1 10:-1 11:-1 12:-1 14:-1 15:-1 16:-1 17:-1 18:0.4111 19:-0.441667 20:0.579849 
-1 -1 -1 1 0 0 0 0 0.8828303608178968 1 0 0 0 0 0 1:0.0322581 2:0.2 3:0.132075 4:0.459459 5:-0.15942 6:-1 7:-1 8:-1 9:-1 10:-1 11:-1 12:-1 14:-1 15:-1 16:1 17:-1 18:0.855567 19:-0.8889 20:0.131647 
-1 -1 -1 1 1 1 1 1 1 0.5089042377823532 1 1 0 1 0 1:0.354839 2:0.2 3:0.0188679 4:-0.045045 5:0.507246 6:-1 7:-1 8:-1 9:-1 10:-1 11:-1 12:-1 14:-1 15:-1 16:-1 17:-1 18:0.95 19:-0.916667 20:-0.0644202 
-1 -1 -1 1 1 1 1 1 0.1295812659816704 0.2730736288439609 1 1 0.189401253574935 0.7607511998870782 0 1:0.16129 2:0.6 3:0.396226 4:-0.045045 5:0.507246 6:-1 7:-1 8:-1 9:-1 10:-1 11:-1 12:-1 14:-1 15:-1 16:-1 17:-1 18:0.93055 19:-0.963883 20:0.0560336 
-1 -0 -1 0 1 1 0 0 0 0 0 1 0 0 0 1:0.16129 2:0.2 3:0.207547 4:-0.045045 5:-0.15942 6:-1 7:-1 8:-1 9:-1 10:-1 11:-1 12:-1 14:-1 15:-1 16:-1 17:-1 18:0.8139 19:-0.847233 20:0.173664 
-1 -1 -1 0.4000199238927273 1 1 0.1214248123534489 0 0 0 1 1 0 0 0 1:0.16129 2:0.2 3:0.207547 4:-0.045045 5:-0.15942 6:-1 7:-1 8:-1 9:-1 10:-1 11:-1 12:-1 14:-1 15:-1 16:-1 17:-1 18:0.827783 19:-0.861117 20:0.159664 
-1 -1 -0 0 0 0 1 0 0 0 0 1 0 0 0 1:-0.0322581 2:0.2 3:0.396226 4:-0.045045 5:-0.492754 6:-1 7:-1 8:-1 9:-1 10:-1 11:-1 12:-1 14:-1 15:-1 16:-1 17:-1 18:0.791667 19:-0.825 20:0.196084 
-1 -1 -1 1 1 1 0.881146643534536 0 0 0 1 1 0 0 0 1:0.16129 2:0.2 3:0.207547 4:-0.045045 5:-0.15942 6:-1 7:-1 8:-1 9:-1 10:-1 11:-1 12:-1 14:-1 15:-1 16:-1 17:-1 18:0.827783 19:-0.861117 20:0.159664 
-1 -0.9210798400703667 -1 0 1 1 0 0 0 0 1 1 0 0 0 1:0.16129 2:0.2 3:0.207547 4:-0.045045 5:-0.15942 6:-1 7:-1 8:-1 9:-1 10:-1 11:-1 12:-1 14:-1 15:-1 16:-1 17:-1 18:0.825 19:-0.858333 20:0.162471 
-1 -1 -1 1 0.6694488270751322 0 0.5791243209025794 0 1 0 0.7021579420245858 0.873078901151581 0 0.9447944593939183 0 1:0.0322581 2:0.2 3:0.132075 4:0.459459 5:-0.15942 6:-1 7:-1 8:-1 9:-1 10:-1 11:-1 12:-1 14:-1 15:-1 16:1 17:-1 18:0.861117 19:-0.89445 20:0.12605 
-1 -0.05548265769817512 -1 1 0 0 0 0 1 0.820305795007693 0 0 0 0 0 1:0.0322581 2:0.2 3:0.132075 4:0.459459 5:-0.15942 6:-1 7:-1 8:-1 9:-1 10:-1 11:-1 12:-1 14:-1 15:-1 16:1 17:-1 18:0.855567 19:-0.8889 20:0.131647 
-1 -0.2546964115620757 -1 1 0.5036141154517763 1 1 0.4779300751003029 1 0 1 1 0.3440591113073346 1 0 1:-0.0322581 2:0.6 3:0.584906 4:-0.045045 5:-0.666667 6:-1 7:-1 8:-1 9:-1 10:-1 11:-1 12:-1 14:-1 15:-1 16:-1 17:-1 18:-0.93889 19:0.908333 20:0.078442 
-0 -1 -0 0 0 0 0 0 0 0 0 0 0 0 0 1:-0.225806 2:-0.2 3:0.396226 4:-0.045045 5:-0.666667 6:-1 7:-1 8:-1 9:-1 10:-1 11:-1 12:-1 14:-1 15:-1 16:-1 17:-1 18:0.761117 19:-0.79445 20:0.226891 
-1 -0 -1 1 0 1 1 0 1 0 1 1 1 0.6015034841377408 0 1:-0.0322581 2:0.6 3:0.584906 4:-0.045045 5:-0.492754 6:-1 7:-1 8:-1 9:-1 10:-1 11:-1 12:-1 14:-1 15:-1 16:-1 17:-1 18:-0.875 19:0.841667 20:0.145664 
-0.0190666132526782 -0 -1 1 0 1 1 0.5538776014447491 0 0.1803940969663455 1 1 0 0 0 1:-0.419355 2:0.2 3:0.773585 4:-0.657658 5:-0.492754 6:-1 7:-1 8:-1 9:-1 10:-1 11:-1 12:-1 14:-1 15:-1 16:1 17:-1 18:-0.969445 19:0.941667 20:0.0476185 
-1 -0.6975973543333488 -1 1 0 1 1 0 0.798588350871087 0 1 1 0 0.2781962695380447 0 1:-0.419355 2:0.2 3:0.773585 4:-0.657658 5:-0.492754 6:-1 7:-1 8:-1 9:-1 10:-1 11:-1 12:-1 14:-1 15:-1 16:1 17:-1 18:-0.975 19:0.947217 20:0.0420168 
-1 -1 -0 0 0 1 1 0 1 1 0 0 0 0.8657162712784667 0 1:-0.612903 2:0.2 3:1 4:-0.045045 5:-0.666667 6:-1 7:-1 8:-1 9:-1 10:-1 11:-1 12:-1 14:-1 15:-1 16:-1 17:-1 18:0.677783 19:-0.697233 20:0.316521 
-1 -1 -1 1 0 1 1 1 1 0 1 1 1 1 0.6636128714605211 1:-0.225806 2:0.2 3:0.584906 4:-0.045045 5:-0.492754 6:-1 7:-1 8:-1 9:-1 10:-1 11:-1 12:-1 14:-1 15:-1 16:-1 17:-1 18:-0.555555 19:0.566672 20:-0.439776 
-1 -1 -1 1 0 1 1 1 1 0 1 1 0.8683905868549218 1 0 1:-0.225806 2:-0.2 3:0.396226 4:-0.045045 5:-0.492754 6:-1 7:-1 8:-1 9:-1 10:-1 11:-1 12:-1 14:-1 15:-1 16:-1 17:-1 18:-0.663888 19:0.675 20:-0.330521 
-0 -0 -0 0 0 0 0 0.2637349059123602 0 0 0 0 0 0 0 1:-0.0322581 2:0.2 3:0.396226 4:-0.963964 5:-0.492754 6:-1 7:-1 8:-1 9:-1 10:-1 11:-1 12:-1 14:-1 15:-1 16:1 17:-1 18:0.891667 19:-0.905567 20:0.106437 
-0 -0 -0 0 0 0 0 0.9900967692950096 0 0 0 0 0 0 0 1:-0.0322581 2:0.2 3:0.396226 4:-0.963964 5:-0.492754 6:-1 7:-1 8:-1 9:-1 10:-1 11:-1 12:-1 14:-1 15:-1 16:1 17:-1 18:0.891667 19:-0.905567 20:0.106437 
-0 -0 -0 0 0 0 1 0 0 0.355600740867344 0 0 0 0 0 1:0.16129 2:0.2 3:0.207547 4:-1 5:-0.826087 6:-1 7:-1 8:-1 9:-1 10:-1 11:-1 12:-1 14:-1 15:-1 16:1 17:-1 18:0.941667 19:-0.955567 20:0.0560168 
-0 -0 -0 0 0 0 0.9925580920696498 0 0 0 0 0 0 0 0 1:-0.0322581 2:0.2 3:0.396226 4:-0.963964 5:-0.492754 6:-1 7:-1 8:-1 9:-1 10:-1 11:-1 12:-1 14:-1 15:-1 16:1 17:-1 18:0.902767 19:-0.916667 20:0.0952437 
-0 -0 -0 0 0 0 1 0 0 0 0 0 0 0 0 1:0.16129 2:0.2 3:0.207547 4:-1 5:-0.826087 6:-1 7:-1 8:-1 9:-1 10:-1 11:-1 12:-1 14:-1 15:-1 16:1 17:-1 18:0.975 19:-0.9889 20:0.0224034 
-0 -0 -0 0 0 0 1 0 0 0 0 0 0 0 0 1:0.16129 2:0.2 3:0.207547 4:-1 5:-0.826087 6:-1 7:-1 8:-1 9:-1 10:-1 11:-1 12:-1 14:-1 15:-1 16:1 17:-1 18:0.966667 19:-0.980567 20:0.0308067 
-0 -0 -0 0 0 0 1 0 0 0 0 0 0 0 0 1:0.16129 2:0.2 3:0.207547 4:-1 5:-0.826087 6:-1 7:-1 8:-1 9:-1 10:-1 11:-1 12:-1 14:-1 15:-1 16:1 17:-1 18:0.997217 19:-0.988883 20:2.22045e-16 
-0 -0 -0 0 0 0 1 0 1 0 0 0 0 0 0 1:0.16129 2:0.2 3:0.207547 4:-1 5:-0.826087 6:-1 7:-1 8:-1 9:-1 10:-1 11:-1 12:-1 14:-1 15:-1 16:1 17:-1 18:1 19:-0.9861 20:-0.00280672 
-0.2330666685846152 -0 -0 0 0.03151047190952135 0.9237658316145905 1 0 0.3176273480067559 0 0 0 0 0.03514326879272154 0 1:0.16129 2:0.2 3:0.207547 4:-1 5:-0.826087 6:-1 7:-1 8:-1 9:-1 10:-1 11:-1 12:-1 14:-1 15:-1 16:1 17:-1 18:1 19:-0.9861 20:-0.00280672 
-0 -0 -0 0 0 0 1 0 0 0 0 0 0 0 0 1:0.16129 2:0.2 3:0.207547 4:-1 5:-0.826087 6:-1 7:-1 8:-1 9:-1 10:-1 11:-1 12:-1 14:-1 15:-1 16:1 17:-1 18:0.997217 19:-0.988883 20:2.22045e-16 
-0 -0 -0 0 0 0 1 0 0 0 0 0 0 0 0 1:0.16129 2:0.2 3:0.207547 4:-1 5:-0.826087 6:-1 7:-1 8:-1 9:-1 10:-1 11:-1 12:-1 14:-1 15:-1 16:1 17:-1 18:0.997217 19:-0.988883 20:2.22045e-16 
-0 -0 -1 1 1 0 0 0 0 0.8722499191935613 0 1 0 0 0 1:0.16129 2:-0.2 3:0.0188679 4:-0.045045 5:-0.15942 6:-1 7:-1 8:-1 9:-1 10:-1 11:-1 12:-1 14:-1 15:-1 16:-1 17:-1 18:0.69445 19:-0.70555 20:0.305328 
-0 -0 -1 1 1 0 0.5673813086605292 0 0 0 0 1 0 0 0 1:0.16129 2:-0.2 3:0.0188679 4:-0.045045 5:-0.15942 6:-1 7:-1 8:-1 9:-1 10:-1 11:-1 12:-1 14:-1 15:-1 16:-1 17:-1 18:0.702783 19:-0.713883 20:0.296924 
-0 -0 -1 1 1 0 1 0 0 0 0 1 0 0 0 1:0.16129 2:-0.2 3:0.0188679 4:-0.045045 5:-0.15942 6:-1 7:-1 8:-1 9:-1 10:-1 11:-1 12:-1 14:-1 15:-1 16:-1 17:-1 18:0.708333 19:-0.719433 20:0.291328 
-0 -0 -1 1 1 1 1 0 0 0 0.3579280343702658 1 0 0 0 1:0.16129 2:-0.2 3:0.0188679 4:-0.045045 5:-0.15942 6:-1 7:-1 8:-1 9:-1 10:-1 11:-1 12:-1 14:-1 15:-1 16:-1 17:-1 18:0.71945 19:-0.73055 20:0.280118 
-0 -0 -1 1 1 0.3428231721322983 0.7898138393405408 0 0 0 0 1 0 0 0 1:0.16129 2:-0.2 3:0.0188679 4:-0.045045 5:-0.15942 6:-1 7:-1 8:-1 9:-1 10:-1 11:-1 12:-1 14:-1 15:-1 16:-1 17:-1 18:0.716667 19:-0.727767 20:0.282924 
-0.8722156728710981 -0 -1 1 1 1 0.2802584143658601 0 0 0 1 1 0 0 0 1:0.16129 2:-0.2 3:0.0188679 4:-0.045045 5:-0.15942 6:-1 7:-1 8:-1 9:-1 10:-1 11:-1 12:-1 14:-1 15:-1 16:-1 17:-1 18:0.727783 19:-0.738883 20:0.271714 
-1 -1 -1 0.4777037774699358 1 1 1 0 1 0 0 1 0 1 0 1:0.16129 2:-0.2 3:0.0188679 4:-0.045045 5:-0.492754 6:-1 7:-1 8:-1 9:-1 10:-1 11:-1 12:-1 14:-1 15:-1 16:-1 17:-1 18:0.883333 19:-0.9 20:0.11205 
-1 -0.9606369774893125 -1 1 1 1 1 0 0 0.6521345294362396 1 1 0.007730773934356995 1 0 1:0.741935 2:0.2 3:-0.283019 4:-0.045045 5:1 6:-1 7:-1 8:-1 9:-1 10:-1 11:-1 12:-1 14:-1 15:-1 16:-1 17:-1 18:0.502783 19:-0.483333 20:-0.506992 
-1 -1 -1 1 1 1 1 0.1044198862358233 0.5200078085202836 1 1 1 0 1 0 1:0.741935 2:0.2 3:-0.283019 4:-0.045045 5:1 6:-1 7:-1 8:-1 9:-1 10:-1 11:-1 12:-1 14:-1 15:-1 16:-1 17:-1 18:0.51945 19:-0.5 20:-0.490185 
-1 -1 -0 -0 0 1 1 0.8635895118772431 0.4929557726559325 0 0 1 0 1 0 1:-0.225806 2:0.6 3:0.773585 4:-0.045045 5:-0.826087 6:-1 7:-1 8:-1 9:-1 10:-1 11:-1 12:-1 14:-1 15:-1 16:-1 17:-1 18:0.825 19:-0.852783 20:0.165261 
-1 -0 -0 0 0 0.8003261168524879 1 0 1 0 0 0 0 0 0 1:0.16129 2:0.6 3:0.396226 4:-0.045045 5:-0.333333 6:-1 7:-1 8:-1 9:-1 10:-1 11:-1 12:-1 14:-1 15:-1 16:-1 17:-1 18:0.327783 19:-0.355567 20:0.666672 
-1 -0 -1 1 1 1 0 0.7050956502137462 0 0 1 1 0 0 0 1:0.16129 2:0.2 3:0.207547 4:-0.045045 6:-1 7:-1 8:-1 9:-1 10:-1 11:-1 12:-1 14:-1 15:-1 16:-1 17:-1 18:0.797217 19:-0.827767 20:0.193294 
-1 -1 -0 0 0 1 1 0 0 0 0 1 0 1 0 1:-0.0322581 2:0.2 3:0.396226 4:-0.045045 5:-0.666667 6:-1 7:-1 8:-1 9:-1 10:-1 11:-1 12:-1 14:-1 15:-1 16:-1 17:-1 18:0.85 19:-0.88055 20:0.140067 
-0 -0 -1 0 0 1 1 1 1 0 0 0.1772793888483749 0.1191568080532613 0 0 1:-0.0322581 2:0.6 3:0.584906 4:-0.045045 6:-1 7:-1 8:-1 9:-1 10:-1 11:-1 12:-1 14:-1 15:-1 16:-1 17:-1 18:0.252767 19:-0.283333 20:0.742303 
-1 -0 -0 0 0 1 1 0.0621520009182539 1 0 0 0 0 0 0 1:-0.0322581 2:0.6 3:0.584906 4:-0.045045 5:-0.666667 6:-1 7:-1 8:-1 9:-1 10:-1 11:-1 12:-1 14:-1 15:-1 16:-1 17:-1 18:0.308333 19:-0.3389 20:0.686269 
-0 -0 -1 0 0 1 1 1 1 0 0 0 0 0 0.002127844056414893 1:-0.0322581 2:0.6 3:0.584906 4:-0.045045 6:-1 7:-1 8:-1 9:-1 10:-1 11:-1 12:-1 14:-1 15:-1 16:-1 17:-1 18:0.247217 19:-0.277783 20:0.747899 
-1 -0 -0 0 0 1 1 0 1 0 0 0 0 0 0 1:-0.0322581 2:0.6 3:0.584906 4:-0.045045 5:-0.666667 6:-1 7:-1 8:-1 9:-1 10:-1 11:-1 12:-1 14:-1 15:-1 16:-1 17:-1 18:0.313883 19:-0.34445 20:0.680672 
-1 -0 -0 0 0 1 1 0.1187593888515543 1 0 0 0 0 0 0 1:-0.0322581 2:0.6 3:0.584906 4:-0.045045 5:-0.666667 6:-1 7:-1 8:-1 9:-1 10:-1 11:-1 12:-1 14:-1 15:-1 16:-1 17:-1 18:0.327767 19:-0.358333 20:0.666672 
-1 -1 -1 1 0 1 1 0 1 0 1 1 0 1 0 1:-0.419355 2:0.2 3:0.773585 4:-0.045045 5:-1 6:-1 7:-1 8:-1 9:-1 10:-1 11:-1 12:-1 14:-1 15:-1 16:-1 17:-1 18:-0.986112 19:0.98055 20:0.0056084 
-1 -0 -1 1 0 1 1 1 1 0 1 1 0.006393092941480983 0 0 1:-0.225806 2:0.6 3:0.773585 4:-0.045045 5:-0.826087 6:-1 7:-1 8:-1 9:-1 10:-1 11:-1 12:-1 14:-1 15:-1 16:-1 17:-1 18:-0.797223 19:0.7639 20:0.224089 
-1 -1 -1 1 1 1 1 0 1 0 1 1 0 1 0 1:0.354839 2:0.2 3:0.0188679 4:-0.045045 5:-0.333333 6:-1 7:-1 8:-1 9:-1 10:-1 11:-1 12:-1 14:-1 15:-1 16:-1 17:-1 18:0.833333 19:-0.866667 20:0.154067 
-1 -1 -0 0 0 0.391344585467831 1 0 1 0 0 0 0 0 0 1:-0.225806 2:0.2 3:0.584906 4:-0.045045 5:-0.492754 6:-1 7:-1 8:-1 9:-1 10:-1 11:-1 12:-1 14:-1 15:-1 16:-1 17:-1 18:0.791667 19:-0.816667 20:0.201697 
-0.1000686737737933 -1 -0 0 0 1 0 0 1 0.103445539801592 0 0 0 0 0 1:-0.806452 2:-0.2 3:1 4:-0.261261 5:-0.826087 6:-1 7:-1 8:-1 9:-1 10:-1 11:-1 12:-1 14:-1 15:-1 16:-1 17:-1 18:0.669433 19:-0.677767 20:0.333345 
-0 -0 -0 0 0 1 0 1 1 0 0 0 0 0 0 1:-0.419355 2:-0.2 3:0.584906 4:-0.045045 5:-0.826087 6:-1 7:-1 8:-1 9:-1 10:-1 11:-1 12:-1 14:-1 15:-1 16:-1 17:-1 18:0.180555 19:-0.191667 20:0.823546 
-0 -0 -1 0 0 0 0.03483596634299541 1 1 1 0 0 0 0 0.5279982625157699 1:-0.225806 2:-0.2 3:0.396226 4:-0.045045 5:-0.15942 6:-1 7:-1 8:-1 9:-1 10:-1 11:-1 12:-1 14:-1 15:-1 16:-1 17:-1 18:0.54445 19:-0.552783 20:0.456588 
-0 -0 -0 0 0 1 0 1 1 0 0 0 0 0 0 1:-0.419355 2:-0.2 3:0.584906 4:-0.045045 5:-0.826087 6:-1 7:-1 8:-1 9:-1 10:-1 11:-1 12:-1 14:-1 15:-1 16:-1 17:-1 18:0.163888 19:-0.175 20:0.840353 
-0 -0 -0 0 0 0.5046363584025277 0 1 1 0.002872376547210741 0 0 0 0 0 1:-0.419355 2:-0.2 3:0.584906 4:-0.045045 5:-0.826087 6:-1 7:-1 8:-1 9:-1 10:-1 11:-1 12:-1 14:-1 15:-1 16:-1 17:-1 18:0.183333 19:-0.19445 20:0.820739 
-0 -0 -0 0 0 0.9937148410197156 0 0.259943045400348 1 0 0 0 0 0 0 1:-0.419355 2:-0.2 3:0.584906 4:-0.045045 5:-0.826087 6:-1 7:-1 8:-1 9:-1 10:-1 11:-1 12:-1 14:-1 15:-1 16:-1 17:-1 18:0.183333 19:-0.19445 20:0.820739 
-0.08576793850660129 -0.6760195042296538 -0.05094160705912319 0 0 0 1 0.4023306508981803 0.07274569906500827 1 0 0 0 0.6453674241072697 0.01622953088136834 1:-0.182796 2:-0.466667 3:-0.0566038 4:0.459459 5:-0.333333 6:-1 7:-1 8:-1 9:-1 10:-1 11:-1 12:-1 14:-1 15:-1 16:1 17:-1 18:0.811117 19:-0.81945 20:0.187681 
-1 -1 -1 1 0 1 1 0.8603521644136344 1 0 1 1 0 1 0.002327448619702966 1:-0.612903 2:0.2 3:1 4:-0.045045 5:-1 6:-1 7:-1 8:-1 9:-1 10:-1 11:-1 12:-1 14:-1 15:-1 16:-1 17:-1 18:-0.933333 19:0.925 20:0.0756303 
-0.8948698908747988 -0 -1 1 0 1 1 0.3609126534749872 1 0 1 1 0 0.2221640884925993 0 1:-0.612903 2:-0.2 3:0.773585 4:-0.153153 5:-0.333333 6:-1 7:-1 8:-1 9:-1 10:-1 11:-1 12:-1 14:-1 15:-1 16:-1 17:-1 18:-0.930555 19:0.922217 20:0.078437 
-0.1609891839926974 -0.227046495886922 -1 1 1 0.739898963154798 1 0 1 0.05966713872851444 0 1 0 0 0 1:-0.182796 2:-0.911111 3:-0.207547 4:0.0990991 5:0.173913 6:-1 7:-1 8:-1 9:-1 10:-1 11:-1 12:-1 14:-1 15:-1 16:1 17:-1 18:0.897217 19:-0.908333 20:0.100857 
-0 -0 -0 0 0 0 0 0.946094594097266 1 0 0 0 0 0 0 1:-0.612903 2:-0.2 3:0.773585 4:-0.261261 5:-0.826087 6:-1 7:-1 8:-1 9:-1 10:-1 11:-1 12:-1 14:-1 15:-1 16:-1 17:-1 18:0.616667 19:-0.6361 20:0.378168 
-0 -0 -1 -0 0 0 0 0 0 0 0.7070843793106989 1 0 0 0 1:0.548387 2:0.2 3:-0.132075 4:-0.045045 5:-0.15942 6:-1 7:-1 8:-1 9:-1 10:-1 11:-1 12:-1 14:-1 15:-1 16:-1 17:-1 18:-0.266662 19:0.277767 20:-0.731092 
-0 -0 -1 -0.4544780988176832 0 0 0 0 0 0 0.06332275996714001 0 0 0 0 1:0.935484 2:0.2 3:-0.396226 4:-0.603604 5:-0.333333 6:-1 7:-1 8:-1 9:-1 10:-1 11:-1 12:-1 14:-1 15:-1 16:1 17:-1 18:-0.038895 19:0.0722333 20:-0.949563 
-0 -0 -1 -0 0 0 0 0 0 0 0 1 0 0 0 1:0.354839 2:0.2 3:0.0188679 4:-0.045045 6:-1 7:-1 8:-1 9:-1 10:-1 11:-1 12:-1 14:-1 15:-1 16:-1 17:-1 18:-0.18055 19:0.194433 20:-0.817933 
-0 -0 -1 -0 0 0 0 0 0 0 0 1 0 0 0 1:0.354839 2:0.2 3:0.0188679 4:-0.045045 6:-1 7:-1 8:-1 9:-1 10:-1 11:-1 12:-1 14:-1 15:-1 16:-1 17:-1 18:-0.175 19:0.188883 20:-0.823529 
-0 -0 -1 -0 0 0 0 0 0 0 0 0 0 0 0 1:0.548387 2:-0.6 3:-0.433962 4:-0.045045 6:-1 7:-1 8:-1 9:-1 10:-1 11:-1 12:-1 14:-1 15:-1 16:-1 17:-1 18:-0.416662 19:0.447217 20:-0.571429 
-0 -0 -1 -0 0 0 0 0 0 0 0 0.5483207880502391 0 0 0 1:0.548387 2:-0.6 3:-0.433962 4:-0.045045 6:-1 7:-1 8:-1 9:-1 10:-1 11:-1 12:-1 14:-1 15:-1 16:-1 17:-1 18:-0.416662 19:0.447217 20:-0.571429 
-0 -0 -1 -0 0 0 0 0 0 0 0.2245811800113993 0.03105533001970386 0 0 0 1:0.548387 2:-0.6 3:-0.433962 4:-0.045045 6:-1 7:-1 8:-1 9:-1 10:-1 11:-1 12:-1 14:-1 15:-1 16:-1 17:-1 18:-0.416662 19:0.447217 20:-0.571429 
-1 -1 -1 -1 1 1 1 1 1 1 0 1 0.715222322767311 1 0 1:-0.225806 2:0.6 3:0.773585 4:-0.045045 5:-0.666667 6:-1 7:-1 8:-1 9:-1 10:-1 11:-1 12:-1 14:-1 15:-1 16:-1 17:-1 18:-0.438888 19:0.416667 20:0.579832 
-1 -1 -1 -1 1 1 1 1 1 1 0.1775356493055198 1 0.0191455814944546 1 0 1:0.16129 2:0.2 3:0.207547 4:-0.045045 5:-0.333333 6:-1 7:-1 8:-1 9:-1 10:-1 11:-1 12:-1 14:-1 15:-1 16:-1 17:-1 18:0.572222 19:-0.55555 20:-0.436975 
-1 -1 -1 -1 1 1 1 1 1 0 0 1 0 1 0 1:0.354839 2:-0.2 3:-0.132075 4:-0.045045 5:-0.333333 6:-1 7:-1 8:-1 9:-1 10:-1 11:-1 12:-1 14:-1 15:-1 16:-1 17:-1 18:0.513883 19:-0.488883 20:-0.498605 
-0 -0 -1 -0 0 0 0 0 0 0 0.04493438981835958 0 0 0 0 1:0.16129 2:-0.2 3:0.0188679 4:-0.045045 5:-0.666667 6:-1 7:-1 8:-1 9:-1 10:-1 11:1 12:-1 14:-1 15:-1 16:-1 17:-1 18:0.108338 19:-0.0833333 20:-0.907546 
-0 -0 -1 -0 0.008379014102968128 0 0 0 0 0 0.07430447533907901 0 0 0 0 1:0.354839 2:-1 3:-0.433962 4:-0.045045 5:0.84058 6:-1 7:-1 8:-1 9:-1 10:-1 11:-1 12:-1 14:-1 15:-1 16:-1 17:-1 18:-0.038895 19:0.0472333 20:-0.960773 
-1 -1 -1 -1 1 1 1 0.09826396499376586 0.3553848302658723 0.5577461973599636 0.001767963874308503 1 0 0 0 1:0.0322581 2:-0.0222222 3:-0.0188679 4:0.63964 5:-0.492754 6:-1 7:-1 8:-1 9:-1 10:-1 11:1 12:-1 14:-1 15:-1 16:-1 17:-1 18:0.647228 19:-0.622233 20:-0.364134 
-0.5833226488788199 -0.9814544947365171 -1 -1 1 0.2075107329331733 1 0 0 0 0 1 0 0 0 1:0.0322581 2:-0.0222222 3:-0.0188679 4:0.63964 5:-0.492754 6:-1 7:-1 8:-1 9:-1 10:-1 11:1 12:-1 14:-1 15:-1 16:-1 17:-1 18:0.638895 19:-0.6139 20:-0.372538 
-0 -0 -1 -0.06558174752782882 0.01436602365343101 0 0.1534129064109016 0 0 0 0.9102682170625304 1 0 0 0 1:0.0322581 2:-0.0222222 3:-0.0188679 4:0.63964 5:-0.492754 6:-1 7:-1 8:-1 9:-1 10:-1 11:1 12:-1 14:-1 15:-1 16:-1 17:-1 18:0.633328 19:-0.608333 20:-0.378151 
-1 -0 -1 -1 1 1 1 0.62921361420245 0.4544076718203515 0 0 1 0 0 0 1:0.16129 2:-0.2 3:0.0188679 4:-0.045045 5:-0.492754 6:-1 7:-1 8:-1 9:-1 10:-1 11:1 12:-1 14:-1 15:-1 16:-1 17:-1 18:0.675 19:-0.65 20:-0.336134 
-0 -0 -1 -0 0 1 1 0 0 0 0 1 0.1320025663762465 0 0 1:0.16129 2:0.6 3:0.396226 4:-0.045045 5:-0.15942 6:-1 7:-1 8:-1 9:-1 10:-1 11:-1 12:-1 14:-1 15:-1 16:-1 17:-1 18:-0.7 19:0.71945 20:-0.291316 
-1 -1 -1 -1 1 1 1 1 0.3464781678284037 0.3236298519771537 0 1 0 1 0 1:-0.0322581 2:0.2 3:0.396226 4:-0.045045 5:0.666667 6:-1 7:-1 8:1 9:-1 10:1 11:-1 12:-1 14:-1 15:-1 16:-1 17:-1 18:0.424995 19:-0.408333 20:-0.585429 
-1 -0.1163012477093786 -1 -1 0 1 1 0.7154674131987684 0 0 1 1 0 1 0 1:0.354839 2:0.6 3:0.207547 4:-0.045045 5:-0.333333 6:-1 7:-1 8:-1 9:-1 10:-1 11:-1 12:-1 14:-1 15:1 16:-1 17:-1 18:0.24445 19:-0.216667 20:-0.773092 
-0.8777153615568899 -0.884829319649617 -1 -1 0 1 1 0.9972514214180259 0.6511025748392738 0 0.9220906913112216 1 0 1 0.1195249086670675 1:0.354839 2:0.6 3:0.207547 4:-0.045045 5:-0.333333 6:-1 7:-1 8:-1 9:-1 10:-1 11:-1 12:-1 14:-1 15:1 16:-1 17:-1 18:0.24445 19:-0.216667 20:-0.773092 
-0 -0 -1 -0 0 0 0 0 0 0 1 1 0 0 0 1:0.16129 2:-0.6 3:-0.132075 4:-0.045045 5:-0.15942 6:-1 7:-1 8:-1 9:-1 10:-1 11:-1 12:-1 14:-1 15:-1 16:-1 17:-1 18:-0.386112 19:0.402783 20:-0.607832 
-1 -0.6837176386509579 -1 -1 1 1 1 0 0 0 0.1435645481081281 1 0 0 0 1:0.354839 2:-0.6 3:-0.283019 4:-0.045045 5:0.666667 6:-1 7:-1 8:-1 9:-1 10:-1 11:-1 12:-1 14:-1 15:-1 16:-1 17:-1 18:0.31945 19:-0.308333 20:-0.689059 
-0 -0 -1 -0 0 0.7439890699802904 0 0 0 0 0.2062174598685074 1 0 0 0.101349236541653 1:0.16129 2:-0.6 3:-0.132075 4:-0.045045 5:0.507246 6:-1 7:-1 8:-1 9:-1 10:-1 11:-1 12:-1 14:-1 15:1 16:-1 17:-1 18:-0.0277783 19:0.0361167 20:-0.97479 
-0 -0 -1 -0 0 0 0 0 0 0 0 1 0 0 0 1:0.548387 2:0.2 3:-0.132075 4:-0.261261 6:-1 7:-1 8:-1 9:-1 10:-1 11:-1 12:-1 14:-1 15:-1 16:-1 17:-1 18:-0.011105 19:0.03055 20:-0.983193 
-0 -0 -1 -0 0 0 0 0 0 0 0 1 0 0 0 1:0.548387 2:-0.2 3:-0.283019 4:-0.045045 5:0.173913 6:-1 7:-1 8:-1 9:-1 10:-1 11:-1 12:-1 14:-1 15:-1 16:-1 17:-1 18:-0.0444383 19:0.0638833 20:-0.94958 
-1 -1 -1 -0 0 1 0 0 0 0 1 1 0 0.7310630541773102 0 1:0.354839 2:0.2 3:0.0188679 4:-0.045045 5:-0.492754 6:-1 7:-1 8:-1 9:-1 10:-1 11:-1 12:-1 14:-1 15:-1 16:-1 17:-1 18:-0.0833383 19:0.0916667 20:-0.918756 
-0 -0 -1 -0 0 0 0 0 0 0 1 1 0 0 0 1:0.16129 2:0.2 3:0.207547 4:-0.045045 5:0.173913 6:-1 7:-1 8:-1 9:-1 10:-1 11:-1 12:-1 14:-1 15:-1 16:-1 17:-1 18:-0.183328 19:0.20555 20:-0.809529 
-1 -0.7435306117657247 -1 -1 0 1 1 1 1 0 1 1 0 1 0 1:-0.419355 2:0.6 3:1 4:-0.261261 5:-0.666667 6:-1 7:-1 8:-1 9:-1 10:-1 11:-1 12:-1 14:-1 15:-1 16:-1 17:-1 18:-0.983333 19:0.99445 20:-0.0083916 
-1 -1 -1 -1 0 1 1 1 1 0 1 1 0 0.9314293812675439 0 1:-0.419355 2:0.6 3:1 4:-0.261261 5:-0.666667 6:-1 7:-1 8:-1 9:-1 10:-1 11:-1 12:-1 14:-1 15:-1 16:-1 17:-1 18:-0.983333 19:0.99445 20:-0.0083916 
-1 -1 -1 -1 0 1 1 1 1 0.2392612274496515 0 1 0 1 0 1:-0.419355 2:-0.2 3:0.584906 4:-0.495495 5:-0.492754 6:-1 7:-1 8:-1 9:-1 10:-1 11:1 12:-1 14:-1 15:-1 16:-1 17:-1 18:0.527778 19:-0.513883 20:-0.481782 
-1 -1 -1 -1 0 1 1 1 1 1 0 1 0 1 0 1:-0.419355 2:-0.2 3:0.584906 4:-0.495495 5:-0.492754 6:-1 7:-1 8:-1 9:-1 10:-1 11:1 12:-1 14:-1 15:-1 16:-1 17:-1 18:0.533328 19:-0.519433 20:-0.476185 
-0 -0 -1 -0 0 0 0 0 0 0 0 0.3782137343203354 0 0 0 1:-0.0322581 2:-0.6 3:0.0188679 4:-0.387387 5:0.173913 6:-1 7:-1 8:-1 9:-1 10:-1 11:1 12:-1 14:-1 15:-1 16:-1 17:-1 18:0.483328 19:-0.469433 20:-0.526605 
-1 -1 -1 -1 0 1 1 0.9017360350062341 0 0 0.06512566746976556 1 0 0.6896367537383102 0.4422991053181946 1:-0.419355 2:-0.2 3:0.584906 4:-0.495495 5:-0.492754 6:-1 7:-1 8:-1 9:-1 10:-1 11:1 12:-1 14:-1 15:-1 16:-1 17:-1 18:0.486112 19:-0.472217 20:-0.523798 
-1 -0.430188298342779 -1 -1 0 0 0.7011171179183696 0 0.2976985243476201 0.372773179690212 0.3280681913681048 0.651901435111313 0 0 0 1:0.569892 2:0.2 3:-0.433962 4:0.63964 5:0.507246 6:-1 7:-1 8:-1 9:-1 10:-1 11:-1 12:-1 14:-1 15:-1 16:1 17:-1 18:0.588888 19:-0.577783 20:-0.417361 
-1 -1 -1 -1 1 1 1 1 1 1 0 1 0 1 0 1:0.16129 2:-0.2 3:0.0188679 4:-0.045045 5:-0.15942 6:-1 7:-1 8:-1 9:-1 10:-1 11:-1 12:-1 14:-1 15:-1 16:-1 17:-1 18:0.649995 19:-0.6361 20:-0.355748 
-1 -1 -1 -0.4750932837915698 0.5262506542612608 1 1 0.6665823054674057 0 0 0.02624095072054342 1 0 1 0 1:-0.225806 2:-0.2 3:0.396226 4:-0.603604 5:0.507246 6:-1 7:-1 8:1 9:-1 10:1 11:-1 12:-1 14:-1 15:-1 16:-1 17:-1 18:0.322228 19:-0.308333 20:-0.689059 
-0 -0 -1 -0 0 0 0 0 0 0 0 0 0 0 0 1:0.16129 2:0.2 3:0.207547 4:-0.045045 5:-0.15942 6:-1 7:-1 8:-1 9:-1 10:-1 11:1 12:-1 14:-1 15:-1 16:-1 17:-1 18:0.069445 19:-0.0361167 20:-0.95237 
-1 -1 -1 -1 1 1 1 1 1 1 0.8902143366340288 1 0 1 0 1:-0.0322581 2:0.2 3:0.396226 4:-0.045045 5:0.173913 6:-1 7:-1 8:-1 9:-1 10:-1 11:-1 12:-1 14:-1 15:-1 16:-1 17:-1 18:0.797217 19:-0.786117 20:-0.207277 
-1 -1 -1 -1 1 1 1 1 1 1 0.3061797667812534 1 0.09636935744122349 1 0 1:-0.0322581 2:0.2 3:0.396226 4:-0.045045 5:0.173913 6:-1 7:-1 8:-1 9:-1 10:-1 11:-1 12:-1 14:-1 15:-1 16:-1 17:-1 18:0.763883 19:-0.752783 20:-0.240891 
-1 -1 -1 -1 1 1 1 1 1 1 0 1 0 1 0 1:-0.182796 2:-0.0222222 3:0.320755 4:0.459459 5:0.173913 6:-1 7:-1 8:-1 9:-1 10:-1 11:-1 12:-1 14:-1 15:-1 16:1 17:-1 18:0.391667 19:-0.41945 20:0.602252 
-1 -1 -1 -1 1 1 1 1 1 1 0 1 0 0.5819612545907167 0.02322056404308784 1:-0.182796 2:-0.0222222 3:0.320755 4:0.459459 5:0.173913 6:-1 7:-1 8:-1 9:-1 10:-1 11:-1 12:-1 14:-1 15:-1 16:1 17:-1 18:0.375 19:-0.402783 20:0.619059 
-0 -0 -1 -0 0 0 0 0 0 0 0.2445298762773797 1 0 0 0 1:0.354839 2:0.6 3:0.207547 4:-0.045045 5:-0.15942 6:-1 7:-1 8:-1 9:-1 10:-1 11:-1 12:-1 14:-1 15:-1 16:-1 17:-1 18:-0.538888 19:0.56945 20:-0.448168 
-0 -0 -1 -0 0 0 0.1250622174567643 0 0 0 0.4896596900772437 1 0 0 0 1:0.354839 2:0.6 3:0.207547 4:-0.045045 5:-0.15942 6:-1 7:-1 8:-1 9:-1 10:-1 11:-1 12:-1 14:-1 15:-1 16:-1 17:-1 18:-0.544443 19:0.575005 20:-0.442566 
-0 -0 -1 -0 0 0 0 0 0 0 0 1 0 0 0 1:0.354839 2:0.6 3:0.207547 4:-0.045045 6:-1 7:-1 8:-1 9:-1 10:-1 11:-1 12:-1 14:-1 15:-1 16:-1 17:-1 18:-0.530555 19:0.561117 20:-0.456571 
-0 -0 -1 -0 0 0 0 0 0 0 0 0 0 0 0.4741498889928044 1:0.16129 2:0.2 3:0.207547 4:-0.045045 5:-0.15942 6:-1 7:-1 8:-1 9:-1 10:-1 11:1 12:-1 14:-1 15:-1 16:-1 17:-1 18:0.0666617 19:-0.0333333 20:-0.955176 
-1 -1 -1 -1 1 1 1 1 1 1 1 1 0.1367927708153209 1 0 1:0.354839 2:0.2 3:0.0188679 4:-0.045045 5:0.333333 6:-1 7:-1 8:-1 9:-1 10:-1 11:-1 12:-1 14:-1 15:-1 16:-1 17:-1 18:0.711117 19:-0.683333 20:-0.302521 
-1 -1 -1 -1 1 1 1 1 1 1 0.05225495726628004 1 0 1 0 1:0.548387 2:-0.2 3:-0.283019 4:-0.045045 5:-0.15942 6:-1 7:-1 8:-1 9:-1 10:-1 11:-1 12:-1 14:-1 15:1 16:-1 17:-1 18:0.727767 19:-0.697217 20:-0.285714 
-0 -0 -1 -0 0 0 0 0 0 0 0.4777332310192465 0 0 0 0 1:0.139785 2:0.422222 3:0.207547 4:0.459459 5:0.333333 6:-1 7:-1 8:-1 9:-1 10:-1 11:-1 12:-1 14:-1 15:-1 16:1 17:-1 18:-0.858333 19:0.8889 20:-0.123249 
-0 -0 -1 -0 0 1 0 0 0 0 1 1 0.01337110694636373 0 0 1:-0.0322581 2:0.2 3:0.396226 4:-0.045045 6:-1 7:-1 8:-1 9:-1 10:-1 11:-1 12:-1 14:-1 15:-1 16:-1 17:-1 18:-0.547223 19:0.558328 20:-0.448173 
-1 -1 -1 -1 1 1 1 1 1 1 0 1 0.1087430448254645 1 0.8387432772548601 1:-0.225806 2:0.2 3:0.584906 4:-0.045045 5:-0.492754 6:-1 7:-1 8:-1 9:-1 10:-1 11:-1 12:-1 14:-1 15:-1 16:-1 17:-1 18:0.6861 19:-0.702767 20:0.310941 
-1 -0.1834684896368083 -1 -1 0 1 1 1 1 0 0 1 0 0 0.02641897607757898 1:-0.612903 2:-0.2 3:0.773585 4:-0.045045 5:-0.492754 6:-1 7:-1 8:-1 9:-1 10:-1 11:-1 12:-1 14:-1 15:-1 16:-1 17:-1 18:-0.930555 19:0.922217 20:0.075642 
-0 -0 -1 -1 0 1 1 0 1 0 1 1 0.6509590563129691 0 0 1:-0.0322581 2:0.2 3:0.396226 4:-0.045045 5:-0.333333 6:-1 7:-1 8:-1 9:-1 10:-1 11:-1 12:-1 14:-1 15:-1 16:-1 17:-1 18:-0.625 19:0.636105 20:-0.369743 
-0 -0 -1 -0.7907950574463445 0 1 1 0 0.7509204679287126 0 1 1 0.9325900561448638 0 0 1:-0.0322581 2:0.2 3:0.396226 4:-0.045045 5:-0.333333 6:-1 7:-1 8:-1 9:-1 10:-1 11:-1 12:-1 14:-1 15:-1 16:-1 17:-1 18:-0.619445 19:0.63055 20:-0.375345 
-0 -0 -1 -0 0 0 0 0 0 0 0.07334124090977624 0 0 0 0 1:0.247312 2:-0.466667 3:-0.396226 4:0.63964 5:-0.15942 6:-1 7:-1 8:-1 9:-1 10:-1 11:-1 12:-1 14:-1 15:-1 16:1 17:-1 18:-0.386117 19:0.397233 20:-0.610639 
-0 -0 -1 -0.5688787954161717 0 0 0 0 0 0 1 0 0 0 0 1:0.139785 2:0.2 3:0.0188679 4:0.81982 5:-0.15942 6:-1 7:-1 8:-1 9:-1 10:-1 11:-1 12:-1 14:-1 15:-1 16:1 17:-1 18:-0.399995 19:0.413883 20:-0.596639 
-0 -0 -1 -0 0 0 0 0 0 0 0 1 0 0 0 1:0.548387 2:0.2 3:-0.132075 4:-0.045045 6:-1 7:-1 8:-1 9:-1 10:-1 11:-1 12:-1 14:-1 15:-1 16:-1 17:-1 18:-0.100005 19:0.111117 20:-0.899143 
-0 -0 -1 -0 0 0 0 0 0 0 0 1 0 0 0 1:0.548387 2:0.2 3:-0.132075 4:-0.045045 6:-1 7:-1 8:-1 9:-1 10:-1 11:-1 12:-1 14:-1 15:-1 16:-1 17:-1 18:-0.105555 19:0.116667 20:-0.893546 
-0 -0 -1 -0 0 0 0 0 0 0 0 1 0 0 0 1:0.548387 2:0.2 3:-0.132075 4:-0.045045 6:-1 7:-1 8:-1 9:-1 10:-1 11:-1 12:-1 14:-1 15:-1 16:-1 17:-1 18:-0.0944383 19:0.10555 20:-0.904756 
-0 -0 -1 -1 1 1 1 0 0 0 1 1 0 0.2065590825115434 0 1:0.354839 2:0.2 3:0.0188679 4:-0.045045 5:0.333333 6:-1 7:-1 8:-1 9:-1 10:-1 11:-1 12:-1 14:-1 15:1 16:-1 17:-1 18:0.305562 19:-0.297233 20:-0.703076 
-0 -0 -1 -0 0.8688548646100853 1 1 0 0 0 1 1 0 0 0 1:0.354839 2:0.2 3:0.0188679 4:-0.045045 5:0.333333 6:-1 7:-1 8:-1 9:-1 10:-1 11:-1 12:-1 14:-1 15:1 16:-1 17:-1 18:0.280562 19:-0.272233 20:-0.728286 
-0 -0 -1 -0 0 0 0 0 0 0 0 0 0 0 0 1:0.354839 2:-0.2 3:-0.132075 4:-0.045045 5:0.666667 6:-1 7:-1 8:-1 9:-1 10:-1 11:-1 12:-1 14:-1 15:-1 16:-1 17:-1 18:-0.158333 19:0.166667 20:-0.840336 
-1 -1 -1 -1 1 1 1 1 1 1 0.4729248497114139 1 0 1 0 1:0.16129 2:-0.2 3:0.0188679 4:-0.045045 5:-0.666667 6:-1 7:-1 8:-1 9:-1 10:-1 11:-1 12:-1 14:-1 15:-1 16:-1 17:-1 18:0.852783 19:-0.863883 20:0.145664 
-1 -0.8794037547933409 -1 -0 0 1 0 0 0 0 0 1 0 1 0 1:0.0322581 2:-0.0222222 3:0.0188679 4:0.0990991 5:-0.333333 6:-1 7:-1 8:1 9:-1 10:-1 11:-1 12:-1 14:-1 15:-1 16:-1 17:-1 18:0.172222 19:-0.161117 20:-0.837529 
-1 -1 -1 -0 0.9876342269656879 1 1 0 0 0 1 1 0.04839525960561512 1 0 1:0.354839 2:0.2 3:0.0188679 4:-0.045045 5:-0.492754 6:-1 7:-1 8:-1 9:-1 10:-1 11:-1 12:-1 14:-1 15:-1 16:-1 17:-1 18:0.0111117 20:-1 
-1 -0.9298983079015966 -1 -0 0.3228884582829185 1 0.2484890528181176 0 0 0 0 1 0 1 0 1:0.0322581 2:-0.0222222 3:0.0188679 4:0.0990991 5:-0.333333 6:-1 7:-1 8:1 9:-1 10:-1 11:-1 12:-1 14:-1 15:-1 16:-1 17:-1 18:0.172222 19:-0.161117 20:-0.837529 
-1 -0.4119333480590668 -1 -1 1 1 1 1 1 0.7193306595838574 0.013416812497584 1 0 1 0 1:0.354839 2:-0.2 3:-0.132075 4:-0.045045 6:-1 7:-1 8:-1 9:-1 10:-1 11:-1 12:-1 14:-1 15:1 16:-1 17:-1 18:0.475 19:-0.458333 20:-0.535008 
-0 -0 -1 -0 0 0 -0 0 0 0 0 0 0 0 0 1:0.354839 2:0.6 3:0.207547 4:-0.045045 5:0.84058 6:-1 7:-1 8:-1 9:-1 10:-1 11:-1 12:-1 14:-1 15:-1 16:-1 17:-1 18:-0.419445 19:0.441667 20:-0.571429 
-1 -1 -1 -1 1 1 1 1 1 1 1 1 0.1051484692678568 1 0 1:0.16129 2:0.2 3:0.207547 4:-0.045045 5:0.507246 6:-1 7:-1 8:-1 9:-1 10:-1 11:-1 12:-1 14:-1 15:-1 16:-1 17:-1 18:0.880567 19:-0.852783 20:-0.131647 
