svm_type epsilon_svr
kernel_type rbf
gamma 0.00012207
nr_class 2
total_sv 284
rho -1.22243
SV
-3176.538620917163 1:-0.0951355 2:-0.396008 3:-0.266722 4:-0.964665 5:-0.0549804 7:0.626272 8:0.0245553 9:-0.181073 10:-0.977107 11:-0.1048 12:0.227749 13:0.181601 14:-0.233906 15:-0.166718 16:-0.886354 17:-0.0367407 18:0.261726 19:-0.769446 20:-0.853148 21:-0.100533 22:-0.987006 23:-0.0539901 24:-0.424236 25:0.205385 26:-0.146835 27:-0.0891766 28:-0.968264 29:0.240171 30:0.309901 31:0.130272 32:-0.218386 33:-0.0950861 34:-0.995189 35:0.408896 36:0.295557 37:-0.0609103 38:-0.349977 39:-0.00633681 40:-0.872302 41:-0.216842 42:-0.814426 43:0.49264 44:0.0943822 45:0.0957943 46:-0.9676 47:-0.41704 48:0.172409 49:-0.262935 50:-0.476889 51:0.17183 52:-0.952471 53:-0.223041 54:0.118288 55:-0.16491 56:-0.374066 57:0.244375 58:-0.968573 59:-0.320056 60:-0.732211 61:0.569635 62:0.0484035 63:0.244932 64:-0.93755 65:-0.634624 66:0.0194264 67:0.388027 68:-0.0260967 69:0.180815 70:-0.985528 71:-0.0299155 72:0.323682 73:0.0997223 74:-0.262242 75:0.0862941 76:-0.940469 77:0.295824 78:-0.395857 79:0.715181 80:0.184883 81:0.162388 82:-0.991353 83:-0.175527 84:0.0405835 85:-0.234169 86:-0.447045 87:0.0947465 88:-0.907486 89:-0.0611469 90:-0.462841 91:-0.19399 92:-0.426348 93:-0.0582747 94:-0.991042 95:-0.404099 96:-0.575127 97:-0.0952284 98:-0.388294 99:0.0232097 100:-0.993047 101:-0.981589 102:0.0369175 103:-0.73937 104:-0.810342 105:0.0465978 106:-0.983828 107:-0.44903 108:-0.386377 109:-0.0592834 110:-0.33483 111:-0.158409 112:-0.936797 113:-0.521564 114:-0.470184 115:-0.0719444 116:-0.382621 117:-0.0564962 118:-0.986824 119:-0.737044 120:-0.257897 121:-0.153535 122:-0.41803 123:-0.0459444 124:-0.988108 125:-0.475488 126:-0.399908 127:-0.11602 128:-0.397418 129:-0.158581 130:-0.98425 131:-0.594717 132:-0.372686 133:-0.314708 134:-0.541925 135:-0.145108 136:-0.990924 137:-0.665244 138:-0.303479 139:0.653273 140:0.096651 141:-0.176917 142:-0.99168 143:-0.401224 144:-0.172607 145:0.820097 146:0.290835 147:-0.212042 148:-0.996045 149:-0.796661 150:-0.0694571 151:-0.0202855 152:-0.360669 153:-0.14003 154:-0.997425 155:-0.616627 156:-0.364324 157:0.715193 158:0.143107 159:-0.292453 160:-0.997234 161:-0.868499 162:-0.0773648 163:0.43255 164:-0.0490751 165:-0.133815 166:-0.998381 167:-0.812574 168:-0.122156 169:-0.161947 170:-0.433187 171:-0.0838258 172:-0.985554 173:-0.76259 174:-0.173498 175:-0.0317827 176:-0.354458 177:-0.0808595 178:-0.995582 179:-0.168288 180:-0.558562 
723.6533887630439 1:0.449871 2:-0.0322192 3:0.969514 4:-0.96513 5:0.75848 7:0.441049 8:-0.0931563 9:0.858414 10:-0.993063 11:-0.182706 12:0.0402027 13:0.524664 14:-0.0114797 15:0.598688 16:-0.99362 17:-0.139168 18:-0.0717606 19:0.56711 20:0.0467203 21:0.608047 22:-1 23:-0.234113 24:0.099136 25:0.649562 26:0.16755 27:0.506407 28:-1 29:0.506141 30:-0.711527 31:0.763324 32:0.219387 33:0.576522 34:-1 35:-0.0924875 36:0.00279185 37:0.575172 38:0.090308 39:0.671191 40:-0.886656 41:0.181363 42:-0.377971 43:0.417703 44:0.0394394 45:0.607827 46:-0.990895 47:-0.66909 48:0.580914 49:0.538881 50:0.0921769 51:0.655602 52:-0.983184 53:-0.182632 54:-0.0432302 55:0.554325 56:0.168141 57:0.482022 58:-0.980637 59:-0.579836 60:0.40732 61:0.743618 62:0.165228 63:0.42507 64:-0.989398 65:0.0496094 66:-0.268927 67:0.776028 68:0.246143 69:0.158199 70:-0.914051 71:0.202302 72:-0.34691 73:0.609403 74:0.0796815 75:0.126499 76:-0.9609 77:-0.389868 78:0.252771 79:0.441212 80:-0.00437984 81:0.0965236 82:-0.996796 83:-0.211503 84:0.149801 85:0.708043 86:0.239397 87:-0.0792858 88:-0.99049 89:-0.291507 90:0.162598 91:0.845353 92:0.313371 93:-0.159093 94:-0.978269 95:-0.30432 96:0.164719 97:0.641074 98:0.109512 99:-0.116209 100:-0.985164 101:-0.227191 102:0.0688093 103:0.386123 104:0.00866882 105:-0.6255 106:-1 107:-0.754871 108:0.701447 109:0.781473 110:0.261637 111:-0.667576 112:-0.977573 113:-0.931003 114:0.747022 115:0.9121 116:0.272004 117:-0.82418 118:-0.958344 119:-0.649221 120:0.548356 121:0.769385 122:0.222555 123:-0.835837 124:-0.999967 125:-0.550769 126:0.544305 127:0.440471 128:-0.0180749 129:-0.827876 130:-1 131:-0.349742 132:0.221427 133:-0.495655 134:-0.662877 135:-0.85409 136:-0.998582 137:-0.590079 138:0.571884 139:0.814906 140:0.203865 141:-0.981117 142:-0.997259 143:-0.958902 144:0.913555 145:0.399014 146:-0.00780259 147:-0.806587 148:-0.984359 149:-0.682905 150:0.574627 151:-0.693508 152:-0.807684 153:-0.769412 154:-0.983698 155:-0.545096 156:0.426225 157:0.405119 158:-0.0635444 159:-0.777514 160:-0.992379 161:-0.79902 162:1 163:-0.0506815 164:-0.369844 165:-0.852115 166:1 167:-1 168:0.819365 169:-0.546267 170:-0.695669 171:-0.789288 172:-0.977715 173:-0.695583 174:0.574233 175:0.648782 176:0.099296 177:-0.924284 178:-0.978629 179:-0.864271 180:0.797391 
-2406.959519951156 1:-0.757767 2:-0.838311 3:-0.689004 4:-0.990348 5:0.572541 7:0.602709 8:0.00958074 9:-0.83876 10:-0.985914 11:0.70165 12:-0.755047 13:0.435792 14:-0.0691002 15:-0.737287 16:-0.927553 17:0.270982 18:-0.553197 19:-0.202726 20:-0.471591 21:-0.757252 22:-0.992839 23:-0.0230119 24:-0.316472 25:-0.249191 26:-0.468582 27:-0.717782 28:0.706339 29:0.859186 30:-0.700303 31:-0.197576 32:-0.445102 33:-0.772471 34:-0.99502 35:0.591243 36:-0.745307 37:-0.133731 38:-0.400383 39:-0.685285 40:-0.892709 41:0.368888 42:-0.742274 43:0.299361 44:-0.0473276 45:-0.646966 46:-0.990832 47:-0.46714 48:0.26838 49:-0.320836 50:-0.517982 51:-0.640785 52:-0.954272 53:0.271397 54:-0.67511 55:0.54659 56:0.162311 57:-0.613547 58:-0.985832 59:0.757762 60:-0.769028 61:0.369793 62:-0.0857835 63:-0.649423 64:-0.969562 65:-0.940526 66:0.707343 67:-0.554752 68:-0.687594 69:-0.665959 70:-0.976714 71:0.103367 72:-0.439625 73:0.630688 74:0.0939605 75:-0.667008 76:-0.958128 77:0.0971853 78:-0.376319 79:-0.139521 80:-0.405563 81:-0.76994 82:-0.951811 83:-1 84:0.747077 85:0.596678 86:0.158263 87:-0.782794 88:-0.987365 89:-0.392084 90:0.138149 91:-0.653582 92:-0.753448 93:-0.799524 94:-0.993213 95:0.103059 96:-0.412038 97:0.221385 98:-0.174235 99:-0.694432 100:-0.99164 101:-0.440268 102:0.177904 103:0.682335 104:0.224219 105:-0.653052 106:-0.991184 107:-0.00244046 108:-0.327115 109:0.894202 110:0.341611 111:-0.715026 112:-0.979866 113:-0.479121 114:0.200963 115:0.253885 116:-0.165866 117:-0.634594 118:-0.973291 119:-0.898345 120:0.792753 121:-0.279285 122:-0.50531 123:-0.590487 124:-0.994173 125:0.0152325 126:-0.343742 127:-0.534004 128:-0.682345 129:-0.588647 130:-0.996441 131:-0.363564 132:0.0419381 133:-0.564133 134:-0.70865 135:-0.527804 136:-0.989334 137:0.124092 138:-0.453132 139:-0.527208 140:-0.686387 141:-0.52218 142:-0.987979 143:-0.168372 144:-0.165998 145:0.311096 146:-0.0701547 147:-0.385892 148:-0.994281 149:-0.318097 150:0.0313693 151:5.61815e-05 152:-0.347162 153:-0.275848 154:-0.994149 155:-0.75209 156:0.437212 157:0.741328 158:0.160525 159:-0.271446 160:-0.99479 161:-0.0237872 162:-0.319009 163:0.875664 164:0.245064 165:-0.107585 166:-0.997904 167:-0.493024 168:0.185323 169:0.504644 170:0.0220795 171:-0.0575523 172:-0.996732 173:-0.298944 174:0.0220407 175:-0.0722472 176:-0.381437 177:-0.0647383 178:-0.990089 179:0.848228 180:-0.932498 
-2113.344635868067 1:0.334985 2:-0.108905 3:0.413718 4:-0.975158 5:0.764644 7:0.451567 8:-0.086472 9:0.414009 10:-0.978946 11:0.413877 12:-0.642239 13:0.365206 14:-0.114865 15:0.452369 16:-0.951194 17:0.226262 18:-0.416539 19:0.276945 20:-0.14864 21:0.277814 22:-0.981081 23:-0.160717 24:0.00713276 25:0.200098 26:-0.150578 27:0.173771 28:-0.982644 29:0.124769 30:-0.297781 31:0.633886 32:0.129877 33:0.226178 34:-0.994106 35:0.30584 36:-0.548649 37:0.445772 38:0.000739839 39:0.413011 40:-0.975432 41:-0.144728 42:-0.0251517 43:0.237445 44:-0.0927234 45:0.532188 46:-0.996261 47:-0.504242 48:0.395078 49:0.655911 50:0.175236 51:0.517373 52:-0.973498 53:-0.140785 54:-0.08982 55:0.290878 56:-0.0304623 57:0.0766877 58:-0.989623 59:-0.54132 60:0.380961 61:0.291868 62:-0.138108 63:0.0323196 64:-0.937811 65:-0.733567 66:0.495956 67:-0.537982 68:-0.675827 69:-0.142569 70:-0.941388 71:0.140894 72:0.260443 73:0.705949 74:0.14445 75:-0.0861481 76:-0.923232 77:-0.194326 78:0.0550927 79:0.48808 80:0.0279971 81:-0.0494043 82:-0.994372 83:-0.565266 84:0.491185 85:-0.625175 86:-0.73191 87:-0.425896 88:-0.948978 89:-0.178164 90:0.412199 91:-0.859857 92:-0.900258 93:-0.442657 94:-0.952477 95:0.0307967 96:0.298062 97:0.707801 98:0.154626 99:-0.321995 100:-0.991625 101:-0.530394 102:0.394174 103:-0.177183 104:-0.401244 105:-0.28242 106:-0.977955 107:-0.474989 108:0.554375 109:-0.910069 110:-0.938413 111:-0.288618 112:-0.955739 113:-0.361011 114:0.459516 115:-0.342377 116:-0.562524 117:-0.160724 118:-0.975614 119:-0.0377607 120:0.274019 121:-0.457306 122:-0.628872 123:-0.149157 124:-0.997214 125:-0.790476 126:0.70066 127:-0.118381 128:-0.399027 129:-0.172482 130:-0.991536 131:-0.112155 132:0.313539 133:-0.820284 134:-0.879871 135:-0.25912 136:-0.989447 137:-0.960718 138:0.911551 139:-0.379446 140:-0.588374 141:-0.343924 142:-0.994787 143:-0.457581 144:0.509444 145:-0.832018 146:-0.880865 147:-0.231134 148:-0.993731 149:-0.709616 150:0.729497 151:-0.0722882 152:-0.395199 153:-0.130315 154:-0.998797 155:-0.406245 156:0.482883 157:-0.752416 158:-0.834995 159:-0.166513 160:-0.997935 161:-0.888277 162:0.794047 163:0.462473 164:-0.0292121 165:-0.289085 166:-0.997716 167:-0.624919 168:0.473529 169:0.0362851 170:-0.297799 171:-0.344621 172:-0.996911 173:-0.657447 174:0.666281 175:0.0171949 176:-0.321803 177:-0.877774 178:0.971938 179:-1 180:0.76711 
-4090.041841940377 1:0.711119 2:0.142163 3:0.0742642 4:-0.941816 5:-0.173825 7:0.485934 8:-0.0646313 9:-0.166372 10:-0.978091 11:-0.427221 12:-0.706741 13:0.214172 14:-0.212788 15:-0.170178 16:-0.965336 17:0.0481595 18:0.96859 19:0.649489 20:0.102184 21:-0.16073 22:-0.991971 23:-0.212306 24:-0.947082 25:0.842721 26:0.304267 27:-0.137199 28:-0.957712 29:-0.10208 30:0.811685 31:0.647998 32:0.139636 33:-0.0994151 34:-0.99293 35:-0.529418 36:-0.587587 37:-0.191222 38:-0.440177 39:0.0516344 40:-0.938596 41:-0.0801361 42:0.911615 43:0.792114 44:0.313952 45:0.128069 46:-0.994857 47:-0.148043 48:0.863439 49:0.828542 50:0.297756 51:0.137811 52:-0.922586 53:-0.097658 54:0.782518 55:-0.0112847 56:-0.258253 57:0.207745 58:-0.718849 59:-0.0217466 60:0.974615 61:0.77381 62:0.1855 63:0.135405 64:-0.88559 65:-0.280695 66:0.521206 67:0.730625 68:0.214286 69:-0.0174753 70:-0.984027 71:-0.582166 72:-0.540939 73:0.737723 74:0.165766 75:0.0145445 76:-0.858564 77:-0.333264 78:0.659781 79:0.923239 80:0.328615 81:0.0795097 82:-0.956579 83:-0.18838 84:0.815671 85:0.146816 86:-0.169481 87:0.0942979 88:-0.989382 89:-0.850064 90:0.0509888 91:0.0367583 92:-0.262121 93:0.0581124 94:-0.98824 95:-0.0667637 96:0.765235 97:0.974479 98:0.334924 99:0.126751 100:-0.966045 101:-0.0448186 102:0.891671 103:0.45403 104:0.0580838 105:0.155565 106:-0.957619 107:-0.354083 108:0.366571 109:0.894973 110:0.342158 111:0.160787 112:-0.97012 113:-0.266796 114:0.563974 115:-0.128946 116:-0.420541 117:0.288974 118:-0.986095 119:-0.594575 120:0.323956 121:0.128337 122:-0.222386 123:0.328378 124:-0.99445 125:-0.455262 126:0.360997 127:0.789756 128:0.220022 129:0.311198 130:-0.99506 131:-0.548863 132:0.331948 133:0.986145 134:0.327613 135:0.354254 136:-0.986042 137:-0.104566 138:0.850628 139:0.692441 140:0.122632 141:0.353888 142:-0.912166 143:-0.299894 144:0.27709 145:0.438562 146:0.0202452 147:0.424231 148:-0.925489 149:-0.349529 150:0.440504 151:0.42937 152:-0.0621009 153:0.530231 154:-0.99719 155:-0.805251 156:0.0188768 157:0.591942 158:0.0609658 159:0.535312 160:-0.99108 161:-0.259608 162:0.573296 163:0.910107 164:0.267926 165:0.615546 166:-0.947794 167:-0.2724 168:0.515592 169:0.584851 170:0.0768585 171:0.642563 172:-0.995556 173:-0.514662 174:0.316016 175:0.638421 176:0.0923882 177:0.639164 178:-0.996511 179:-0.290203 180:0.252284 
-144.9961428443543 1:0.913322 2:0.277132 3:-0.627317 4:-0.909702 5:-0.489687 7:0.917577 8:0.209684 9:-0.716978 10:-0.930428 11:-0.536629 12:-0.956336 13:0.956667 14:0.26861 15:-0.663225 16:-0.883259 17:-0.352538 18:-0.857379 19:0.99727 20:0.336336 21:-0.684642 22:-0.987781 23:-0.746245 24:-0.727324 25:-0.430053 26:-0.596595 27:-0.660913 28:-0.973135 29:-0.0682703 30:-0.492586 31:0.165416 32:-0.194083 33:-0.632657 34:-0.991716 35:-0.80813 36:-0.676915 37:0.612954 38:0.11646 39:-0.511933 40:-0.823418 41:-0.387193 42:-0.907062 43:-0.540678 44:-0.663232 45:-0.519694 46:-0.97737 47:-0.10202 48:-0.471566 49:-0.554415 50:-0.683758 51:-0.518711 52:-0.811175 53:0.371664 54:0.0403443 55:-0.0361906 56:-0.277028 57:-0.484284 58:-0.0569098 59:-0.309827 60:-0.7871 61:-0.623585 62:-0.752804 63:-0.469556 64:-0.941136 65:0.126924 66:-0.264415 67:-0.152693 68:-0.40549 69:-0.4824 70:0.210566 71:0.928564 72:0.560536 73:0.847908 74:0.239684 75:-0.493042 76:-0.885866 77:-0.375774 78:-0.926559 79:0.86718 80:0.289888 81:-0.460878 82:-0.897451 83:-0.206918 84:-0.688432 85:-0.447954 86:-0.602796 87:-0.467875 88:-0.983607 89:-0.0995233 90:-0.588738 91:-0.372974 92:-0.553734 93:-0.462568 94:-0.993281 95:0.675793 96:0.231436 97:0.90272 98:0.286409 99:-0.387513 100:-0.996054 101:-0.234422 102:-0.64097 103:0.76266 104:0.282671 105:-0.364968 106:-0.99252 107:-0.160122 108:-0.387491 109:-0.0535641 110:-0.330773 111:-0.359917 112:-0.974981 113:0.797507 114:0.337466 115:-0.0215833 116:-0.349119 117:-0.225646 118:-0.992318 119:0.49323 120:0.147068 121:-0.180737 122:-0.43691 123:-0.259624 124:-0.993221 125:-0.082956 126:-0.630386 127:0.751655 128:0.19405 129:-0.3038 130:-0.988488 131:0.228108 132:-0.165543 133:-0.307677 134:-0.537226 135:-0.24556 136:-0.991242 137:0.174314 138:-0.13551 139:0.385381 140:-0.0810474 141:-0.264939 142:-0.987889 143:0.835442 144:0.4878 145:0.288242 146:-0.0863632 147:-0.155266 148:-0.981046 149:-0.534303 150:-0.64697 151:-0.490703 152:-0.673023 153:-0.0552078 154:-0.979762 155:0.561536 156:0.225696 157:0.708568 158:0.138692 159:-0.0704664 160:-0.997879 161:0.548316 162:0.159984 163:1 164:0.327598 165:0.0614095 166:-0.998011 167:-0.0295525 168:-0.47308 169:0.514618 170:0.0288915 171:0.108206 172:-0.991515 173:-0.805609 174:-0.561573 175:-0.0667412 176:-0.377766 177:0.116259 178:-0.994115 179:0.584393 180:0.065549 
-1756.635689603568 1:-0.529211 2:-0.522344 3:-0.294861 4:-0.988486 5:0.463849 7:-0.540349 8:-0.55547 9:-0.227947 10:-0.954234 11:0.426226 12:-0.972324 13:-0.240195 14:-0.246706 15:-0.547077 16:-0.952048 17:0.234607 18:-0.484868 19:-0.284284 20:-0.270021 21:-0.503927 22:-0.972314 23:0.0327652 24:-0.109481 25:0.105532 26:0.180494 27:-0.526013 28:-0.905528 29:-1 30:0.554147 31:0.302893 32:0.362636 33:-0.583758 34:-0.94398 35:-1 36:0.461897 37:-0.522537 38:-0.477825 39:-0.493294 40:-0.951047 41:-0.176463 42:-0.130857 43:0.636283 44:0.820109 45:-0.551857 46:-0.934772 47:0.219574 48:-0.622381 49:-0.476146 50:-0.427836 51:-0.543113 52:-0.966781 53:-0.132377 54:-0.228945 55:0.153589 56:0.317999 57:-0.563855 58:-0.983025 59:-0.928507 60:0.674002 61:0.775447 62:0.795243 63:-0.557167 64:-0.969787 65:0.0969728 66:-0.478181 67:-0.0148133 68:0.0509151 69:-0.557217 70:-0.940686 71:-0.804948 72:0.354869 73:-0.130222 74:-0.0972258 75:-0.605114 76:-0.967229 77:-0.974185 78:0.562883 79:0.607223 80:0.685712 81:-0.587654 82:-0.990784 83:-0.644614 84:0.292309 85:0.466137 86:0.611018 87:-0.605015 88:-0.932464 89:-0.879412 90:0.67243 91:-0.180934 92:-0.10785 93:-0.616731 94:-0.994073 95:-0.137961 96:-0.0595055 97:0.499882 98:0.5316 99:-0.509593 100:-0.977148 101:-0.841774 102:0.71186 103:-0.524282 104:-0.461775 105:-0.571697 106:-0.99003 107:-0.838181 108:0.473977 109:0.814447 110:0.938437 111:-0.589442 112:-0.986471 113:-0.782328 114:0.295585 115:0.229415 116:0.24292 117:-0.46172 118:-0.959937 119:-0.532818 120:0.110264 121:-0.359238 122:-0.327397 123:-0.453171 124:-0.984871 125:-0.206641 126:-0.0785395 127:-0.611207 128:-0.577079 129:-0.439135 130:-0.992302 131:-0.421182 132:-0.0179318 133:-0.615935 134:-0.596931 135:-0.386596 136:-0.980765 137:-0.917017 138:0.661957 139:0.988032 140:0.996966 141:-0.380243 142:-0.995527 143:-0.190342 144:-0.218034 145:-0.628827 146:-0.590053 147:-0.258053 148:-0.985022 149:-0.14256 150:-0.269649 151:-0.0767543 152:-0.0736426 153:-0.166289 154:-0.998596 155:-0.451626 156:0.142353 157:0.211065 158:0.226215 159:-0.214154 160:-0.996469 161:-0.568984 162:0.131819 163:-0.0802857 164:-0.0575463 165:-0.0679235 166:-0.993728 167:0.285838 168:-0.570111 169:0.710522 170:0.775018 171:-0.0776392 172:-0.996067 173:0.2846 174:-0.572092 175:-0.417824 176:-0.40872 177:-0.0678715 178:-0.996947 179:-0.183183 180:0.0741433 
-20934.78102139029 1:-0.0117825 2:-0.34037 3:-0.120917 4:-0.756596 5:0.901599 7:0.594153 8:0.00414375 9:-0.190725 10:-0.98967 11:0.903874 12:-0.984049 13:0.319594 14:-0.144437 15:-0.313724 16:-0.907167 17:0.267751 18:-0.296344 19:0.582785 20:0.057274 21:-0.349738 22:-0.993411 23:0.857556 24:-0.932395 25:0.31428 26:-0.0697602 27:-0.305364 28:-0.83649 29:0.564888 30:-0.619315 31:-0.0491818 32:-0.342483 33:-0.276279 34:-0.988466 35:0.0926528 36:-0.158868 37:-0.259551 38:-0.487474 39:-0.336825 40:-0.886656 41:0.283487 42:-0.339122 43:0.714597 44:0.257118 45:-0.270373 46:-0.983193 47:0.586502 48:-0.682325 49:0.314897 50:-0.0667894 51:-0.274327 52:-0.919471 53:-0.446126 54:0.443501 55:0.476335 56:0.109348 57:-0.245533 58:-0.964049 59:0.289738 60:-0.277716 61:0.336392 62:-0.108211 63:-0.477831 64:-0.947075 65:-0.0846001 66:0.0169404 67:0.106329 68:-0.223748 69:-0.477464 70:-0.964487 71:0.163418 72:-0.0530772 73:0.656469 74:0.111256 75:-0.434823 76:-0.968193 77:-0.067688 78:0.0939542 79:0.655652 80:0.143759 81:-0.424958 82:-0.974787 83:0.0189117 84:0.213208 85:0.896454 86:0.376662 87:-0.406076 88:-0.977397 89:0.171513 90:-0.131722 91:0.395458 92:-0.00682723 93:-0.421478 94:-0.941662 95:0.431737 96:-0.394449 97:0.631096 98:0.102766 99:-0.308877 100:-0.993631 101:-0.570109 102:0.640985 103:0.456363 104:0.0597815 105:-0.392621 106:-0.989657 107:-0.230662 108:0.225679 109:0.608016 110:0.138579 111:-0.391049 112:-0.950356 113:0.266379 114:-0.240086 115:0.660328 116:0.104515 117:-0.271129 118:-0.988462 119:0.0448737 120:-0.0457775 121:-0.603227 122:-0.730153 123:-0.26835 124:-0.990376 125:0.0821603 126:-0.0761624 127:0.713324 128:0.167921 129:-0.311995 130:-0.987431 131:-0.0410848 132:0.0241322 133:0.629021 134:0.0888981 135:-0.336583 136:-0.995403 137:-0.0322221 138:0.0507465 139:0.604136 140:0.0640569 141:-0.340934 142:-0.994128 143:-0.258795 144:0.462659 145:0.994366 146:0.414428 147:-0.236424 148:-0.987836 149:0.253505 150:-0.248035 151:0.386256 152:-0.0907284 153:-0.140223 154:-0.997463 155:0.10347 156:0.0278635 157:0.460336 158:-0.0267443 159:-0.166095 160:-0.998124 161:-0.530576 162:0.528741 163:0.505186 164:-0.000859393 165:-0.0196305 166:-0.99572 167:-0.511581 168:0.512377 169:0.159487 170:-0.213655 171:0.0219172 172:-0.99898 173:-0.192158 174:0.30779 175:-0.729258 176:-0.819487 177:0.0162335 178:-0.995277 179:0.139532 180:0.127691 
9190.223325494635 1:-0.256924 2:-0.24865 3:-0.393341 4:-0.969425 5:-0.0408984 7:-0.045594 8:-0.0819853 9:-0.373124 10:-0.988426 11:-0.295603 12:-0.710148 13:-0.122593 14:-0.131886 15:-0.308982 16:-0.9505 17:-0.0214527 18:-0.962345 19:-0.0992168 20:-0.0823865 21:-0.379284 22:-0.966057 23:0.551244 24:0.11932 25:-0.607781 26:-0.579794 27:-0.494254 28:-0.981098 29:0.737936 30:0.17928 31:0.00634812 32:0.0538269 33:-0.499384 34:-0.983309 35:-0.937678 36:0.0280867 37:-0.931762 38:-0.90438 39:-0.380561 40:-0.915076 41:-0.0591423 42:-0.203566 43:-0.30743 44:-0.221836 45:-0.302203 46:-0.984472 47:0.31694 48:-0.370404 49:0.0091441 50:0.0908206 51:-0.342816 52:-0.97121 53:0.197578 54:0.00652896 55:-0.568627 56:-0.501885 57:-0.426244 58:-0.939439 59:-0.0127493 60:-0.307853 61:-0.379081 62:-0.372158 63:-0.463093 64:-0.945656 65:-0.25975 66:0.0800804 67:0.620366 68:0.722043 69:-0.454494 70:-0.973567 71:0.0287663 72:-0.245661 73:-0.125691 74:-0.0926489 75:-0.456114 76:-0.941373 77:-0.190556 78:-0.0895074 79:0.445708 80:0.517689 81:-0.445585 82:-0.991141 83:-0.0982309 84:-0.160087 85:0.167056 86:0.282896 87:-0.561314 88:-0.914289 89:-0.827305 90:0.154556 91:0.575501 92:0.70287 93:-0.623307 94:-0.989543 95:0.0460209 96:-0.354278 97:-0.658146 98:-0.6474 99:-0.51213 100:-0.997629 101:-0.725064 102:-0.126766 103:-0.903096 104:-0.876885 105:-0.516421 106:-0.988129 107:-0.398931 108:-0.206168 109:0.738259 110:0.857043 111:-0.510674 112:-0.982458 113:-0.871409 114:-0.112124 115:0.349337 116:0.363055 117:-0.387897 118:-0.988104 119:-0.447043 120:-0.0735689 121:-0.43115 122:-0.40256 123:-0.346308 124:-0.992892 125:-0.0633275 126:0.126113 127:0.635524 128:0.702709 129:-0.35582 130:-0.997179 131:-0.238398 132:-0.183155 133:0.419555 134:0.44538 135:-0.318986 136:-0.968917 137:-0.796972 138:0.202601 139:-0.441797 140:-0.431267 141:-0.391322 142:-0.977226 143:-0.00631777 144:-0.295927 145:-0.0156751 146:0.0647872 147:-0.264785 148:-0.987758 149:-0.306612 150:-0.102468 151:0.71182 152:0.71485 153:-0.156438 154:-0.994192 155:-0.852843 156:-0.100132 157:-0.610866 158:-0.598684 159:-0.149751 160:-0.996787 161:-0.322694 162:-0.213911 163:-0.705593 164:-0.682605 165:0.00041335 166:-0.996952 167:-0.259286 168:-0.361509 169:-0.392025 170:-0.358932 171:0.0262513 172:-0.996754 173:-0.844644 174:-0.0602637 175:-0.0510387 176:-0.0404602 177:0.0348696 178:-0.952293 179:-0.922428 180:-0.081986 
-7019.729994768055 1:-0.106086 2:-0.403317 3:-0.391511 4:-0.985588 5:-0.364697 7:0.0344368 8:-0.351564 9:-0.268611 10:-0.985137 11:-0.147095 12:0.0963045 13:-0.14709 14:-0.447013 15:-0.191065 16:-0.969445 17:-0.241161 18:-0.845523 19:0.157728 20:-0.228906 21:-0.260572 22:-0.97846 23:-0.911617 24:-0.433565 25:-0.0552085 26:-0.331282 27:-0.349635 28:-0.945458 29:-0.319942 30:-0.0565542 31:0.561434 32:0.0797746 33:-0.330257 34:-0.994928 35:-0.894858 36:-0.462116 37:0.931576 38:0.337006 39:-0.281753 40:-0.960559 41:-0.709379 42:-0.242105 43:0.869653 44:0.370803 45:-0.207146 46:-0.976375 47:0.442248 48:0.349398 49:0.899849 50:0.348364 51:-0.239367 52:-0.89937 53:-0.836617 54:-0.311203 55:0.0292513 56:-0.227694 57:-0.177839 58:-0.973286 59:-0.590046 60:-0.179138 61:0.0800639 62:-0.280327 63:-0.192872 64:-0.960934 65:0.629815 66:0.174836 67:0.940918 68:0.361837 69:-0.215361 70:-0.956085 71:0.783688 72:0.447729 73:0.0809014 74:-0.274868 75:-0.154961 76:-0.920641 77:-0.921267 78:-0.23794 79:-0.0210844 80:-0.323744 81:-0.113619 82:-0.983527 83:0.542307 84:0.215113 85:0.594249 86:0.156493 87:-0.224108 88:-0.989244 89:-0.600941 90:-0.536812 91:0.986007 92:0.413477 93:-0.202897 94:-0.988666 95:0.500081 96:0.213543 97:0.95226 98:0.319902 99:-0.112031 100:-0.99194 101:-0.935607 102:-0.277114 103:0.249619 104:-0.0906645 105:-0.102368 106:-0.98986 107:0.299895 108:0.170436 109:-0.794564 110:-0.856469 111:-0.108485 112:-0.956462 113:0.336664 114:-0.11327 115:0.978184 116:0.315965 117:0.0309579 118:-0.946017 119:0.373539 120:0.247872 121:-0.0787181 122:-0.3661 123:0.0900993 124:-0.98112 125:0.0474264 126:-0.221751 127:-0.00467889 128:-0.32152 129:0.0728259 130:-0.993515 131:-0.867345 132:-0.231092 133:0.390181 134:-0.0707514 135:0.109859 136:-0.979514 137:0.857702 138:0.524529 139:0.998913 140:0.325921 141:0.123092 142:-0.989297 143:-0.462227 144:-0.167954 145:0.161028 146:-0.176585 147:0.16899 148:-0.993223 149:-0.128434 150:-0.479347 151:0.163054 152:-0.238933 153:0.275023 154:-0.998097 155:-0.431175 156:-0.605024 157:1 158:0.33292 159:0.199813 160:-0.988812 161:0.0824893 162:-0.0206602 163:0.786628 164:0.185961 165:0.347497 166:-0.992384 167:-0.654762 168:-0.289843 169:1 170:0.360396 171:0.378262 172:-0.995374 173:0.96952 174:0.453158 175:0.92981 176:0.286667 177:0.373989 178:-0.998944 179:-0.795025 180:-0.380646 
-9289.685968931888 1:0.340577 2:-0.105172 3:0.191267 4:-0.960137 5:0.0727008 7:0.541122 8:-0.0295587 9:0.203266 10:-0.981225 11:0.643915 12:-0.0339085 13:0.314631 14:-0.147655 15:0.139844 16:-0.824289 17:0.106092 18:-0.934898 19:0.243883 20:-0.1709 21:0.196883 22:-0.961517 23:-0.196309 24:-0.717119 25:0.64212 26:0.162283 27:0.227729 28:-0.926285 29:0.390229 30:-0.45025 31:0.671589 32:0.15595 33:0.149223 34:-0.991947 35:-0.935296 36:0.12956 37:0.649978 38:0.142088 39:0.232867 40:-0.743231 41:-0.870759 42:0.293077 43:0.311308 44:-0.0385679 45:0.392723 46:-0.993594 47:-0.475559 48:-0.305518 49:0.53803 50:0.0915734 51:0.326898 52:-0.906379 53:0.570685 54:-0.160512 55:0.147604 56:-0.138472 57:0.375122 58:-0.95697 59:-0.00552792 60:-0.466026 61:0.190645 62:-0.206076 63:0.405816 64:-0.961494 65:-0.100786 66:-0.807946 67:0.425053 68:-0.000117374 69:0.341874 70:-0.974463 71:-0.122498 72:-0.734228 73:0.665805 74:0.117519 75:0.427525 76:-0.962226 77:-0.861147 78:0.0230795 79:0.426971 80:-0.014218 81:0.485369 82:-0.966749 83:-0.283484 84:-0.563512 85:0.569081 86:0.138157 87:0.479976 88:-0.984932 89:0.0548073 90:-0.641593 91:0.474948 92:0.049747 93:0.457979 94:-0.993784 95:0.628733 96:-0.293701 97:0.588229 98:0.0737843 99:0.607805 100:-0.991721 101:0.213778 102:-0.572173 103:0.149429 104:-0.163572 105:0.641124 106:-0.980592 107:0.231069 108:-0.353106 109:0.26312 110:-0.106104 111:0.632414 112:-0.973809 113:-0.426944 114:-0.424364 115:0.665432 116:0.107911 117:0.782755 118:-0.992511 119:-0.104431 120:-0.539948 121:0.942424 122:0.342659 123:0.778767 124:-0.996048 125:-0.397669 126:-0.118969 127:0.51618 128:0.0335334 129:0.781733 130:-0.996441 131:-0.883998 132:0.0207446 133:0.56648 134:0.0470933 135:0.798099 136:-0.98973 137:-0.539033 138:-0.310404 139:0.960921 140:0.300721 141:0.701513 142:-0.985759 143:-0.2463 144:-0.0339682 145:0.037719 146:-0.264037 147:0.689797 148:-0.990891 149:-0.111242 150:-0.0242029 151:0.0755757 152:-0.297018 153:0.791151 154:-0.996264 155:-0.567722 156:0.0876469 157:0.303687 158:-0.131145 159:0.765421 160:-0.986854 161:-0.351628 162:-0.48839 163:0.89932 164:0.260767 165:0.892139 166:-0.997243 167:-0.0293944 168:-0.513367 169:0.43698 170:-0.0241339 171:0.720607 172:-0.998083 173:0.0918943 174:-0.604628 175:0.671973 176:0.114759 177:0.665933 178:-0.992448 179:-0.861329 180:0.17603 
-5553.590976864756 1:0.206836 2:-0.194443 3:0.23795 4:-0.958635 5:0.0526668 7:0.162071 8:-0.270451 9:0.253822 10:-0.928589 11:0.102114 12:-0.931387 13:0.127074 14:-0.269259 15:0.174424 16:-0.884113 17:-0.239188 18:-0.701892 19:0.377874 20:-0.0806872 21:0.165308 22:-0.973532 23:0.729237 24:0.0202838 25:0.490457 26:0.0549364 27:0.201007 28:-0.926517 29:0.378982 30:-0.450713 31:0.224007 32:-0.153566 33:0.205477 34:-0.995643 35:-0.3486 36:-0.457391 37:0.418752 38:-0.0179631 39:0.294448 40:-0.933696 41:0.215969 42:-0.457415 43:0.148453 44:-0.15797 45:0.37347 46:-0.958793 47:-0.142464 48:-0.774864 49:0.550331 50:0.100303 51:0.433227 52:-0.982064 53:0.0786593 54:-0.659932 55:0.553633 56:0.16762 57:0.425008 58:-0.906828 59:-0.878646 60:0.27478 61:0.466946 62:-0.0205483 63:0.426328 64:-0.948532 65:0.634012 66:-0.159368 67:0.488018 68:0.0440616 69:0.429254 70:-0.969862 71:-0.0818672 72:-0.537578 73:0.0704101 74:-0.281906 75:0.490715 76:-0.838072 77:0.197265 78:-0.392645 79:0.543046 80:0.0659692 81:0.464432 82:-0.989989 83:-0.854321 84:0.0304511 85:0.758291 86:0.276005 87:0.402873 88:-0.939248 89:0.12485 90:-0.512692 91:0.448882 92:0.0311952 93:0.381919 94:-0.988028 95:-0.537821 96:-0.341036 97:0.0793052 98:-0.270293 99:0.485201 100:-0.99229 101:0.0530411 102:-0.396614 103:0.375865 104:0.00120413 105:0.517158 106:-0.992327 107:-0.893751 108:0.0365645 109:0.815731 110:0.285941 111:0.434575 112:-0.981212 113:-0.472809 114:-0.0986407 115:0.212114 116:-0.193654 117:0.573852 118:-0.89327 119:-0.415294 120:-0.481056 121:0.393495 122:-0.0383443 123:0.613967 124:-0.994462 125:0.536705 126:-0.383953 127:0.897804 128:0.293675 129:0.609952 130:-0.996923 131:-0.185288 132:-0.448115 133:-0.037151 134:-0.356396 135:0.578465 136:-0.99517 137:-0.344793 138:0.0537834 139:0.847323 140:0.225368 141:0.587486 142:-0.972314 143:-0.181795 144:-0.512836 145:0.865724 146:0.323194 147:0.631718 148:-0.988619 149:-0.345753 150:-0.541097 151:0.845554 152:0.214242 153:0.628249 154:-0.99343 155:-0.188688 156:-0.0668339 157:0.906054 158:0.270309 159:0.618808 160:-0.998148 161:-0.352462 162:-0.487645 163:0.155839 164:-0.232756 165:0.739552 166:-0.994307 167:-0.212205 168:-0.479684 169:0.882026 170:0.279822 171:0.745389 172:-0.99302 173:-0.657785 174:-0.192482 175:0.0106287 176:-0.326181 177:0.753147 178:-0.998885 179:-0.695421 180:0.0206355 
-1942.324321061254 1:0.261534 2:-0.157933 3:0.125227 4:-0.945413 5:0.0267591 7:0.581422 8:-0.00394713 9:0.0771871 10:-0.989903 11:0.0221598 12:-0.662889 13:0.263611 14:-0.180734 15:0.158497 16:-0.868263 17:0.135905 18:-0.883304 19:0.553736 20:0.0377158 21:0.184152 22:-0.975876 23:0.44128 24:-0.367941 25:0.210944 26:-0.142901 27:0.167804 28:-0.929416 29:-0.261037 30:-0.675991 31:0.638319 32:0.132943 33:0.101622 34:-0.959779 35:-0.878681 36:0.148525 37:0.082056 38:-0.251019 39:0.299262 40:-0.917785 41:-0.0696205 42:-0.876687 43:0.586293 44:0.163047 45:0.323492 46:-0.994115 47:0.078899 48:-0.612998 49:0.594769 50:0.131842 51:0.395429 52:-0.98221 53:0.248831 54:-0.535359 55:0.136795 56:-0.146621 57:0.489641 58:-0.956195 59:0.0715643 60:-0.457022 61:0.512623 62:0.0101221 63:0.503374 64:-0.939567 65:0.650023 66:-0.121794 67:0.483125 68:0.0406289 69:0.396394 70:-0.987053 71:0.182231 72:-0.483323 73:0.502336 74:0.00785497 75:0.443664 76:-0.952644 77:0.0804396 78:-0.65817 79:0.546865 80:0.0686069 81:0.401385 82:-0.981302 83:-0.522126 84:-0.370372 85:0.134388 86:-0.178536 87:0.40516 88:-0.964681 89:0.277296 90:-0.38192 91:0.588887 92:0.13084 93:0.378039 94:-0.994959 95:-0.838298 96:-0.0643706 97:0.497388 98:0.0123675 99:0.486747 100:-0.994911 101:0.4673 102:-0.283283 103:0.219886 104:-0.112301 105:0.497309 106:-0.990551 107:-0.239278 108:-0.462449 109:0.455463 110:0.0303519 111:0.487235 112:-0.981262 113:-0.881087 114:-0.0436762 115:0.661105 116:0.105032 117:0.510996 118:-0.990695 119:-0.527914 120:-0.380552 121:0.421142 122:-0.0191548 123:0.374781 124:-0.996325 125:-0.0344895 126:-0.64864 127:0.910229 128:0.302145 129:0.365391 130:-0.987077 131:-0.220463 132:-0.0809823 133:0.25282 134:-0.162569 135:0.367003 136:-0.936963 137:-0.431394 138:-0.447815 139:0.920459 140:0.273881 141:0.25155 142:-0.990378 143:-0.689719 144:-0.0408474 145:0.394625 146:-0.0109151 147:0.320323 148:-0.97349 149:-0.880627 150:0.199793 151:0.62824 152:0.0699476 153:0.41574 154:-0.991892 155:-0.861128 156:0.215938 157:0.0674061 158:-0.288617 159:0.250822 160:-0.986836 161:-0.617559 162:-0.0182552 163:0.892076 164:0.255957 165:0.337794 166:-0.99568 167:-0.832183 168:-0.100154 169:0.0726045 170:-0.272994 171:0.348664 172:-0.990615 173:-0.472971 174:-0.3154 175:0.352183 176:-0.0984559 177:0.327746 178:-0.998396 179:0.00151998 180:-0.653195 
3908.921728451662 1:-0.0974137 2:-0.0883151 3:0.366241 4:-0.953685 5:0.84742 7:-0.261761 8:-0.288859 9:0.299861 10:-0.966719 11:0.53398 12:-0.633636 13:-0.0088139 14:-0.0207981 15:0.288422 16:-0.964909 17:0.685669 18:-0.789132 19:0.275676 20:0.297707 21:0.132501 22:-0.986877 23:0.662386 24:-0.787128 25:-0.167464 26:-0.11048 27:0.165701 28:-0.965597 29:0.781325 30:-0.871871 31:0.140861 32:0.193903 33:0.228486 34:-0.993053 35:0.336941 36:-0.463347 37:-0.328654 38:-0.275732 39:0.457894 40:-0.948914 41:0.180789 42:-0.246455 43:0.0957906 44:0.223356 45:0.251282 46:-0.976644 47:0.638648 48:-0.759663 49:-0.169543 50:-0.100153 51:0.335964 52:-0.956901 53:0.558114 54:-0.670377 55:0.0744611 56:0.228171 57:0.444057 58:-0.981957 59:0.746461 60:-0.861899 61:0.0119558 62:0.0232391 63:0.411099 64:-0.851523 65:0.908878 66:-0.984924 67:0.444714 68:0.536449 69:0.250814 70:-0.982768 71:0.218879 72:-0.267165 73:-0.183114 74:-0.150659 75:0.296512 76:-0.961021 77:0.741228 78:-0.854009 79:-0.12097 80:-0.0718235 81:0.369426 82:-0.982269 83:0.667184 84:-0.705551 85:0.569315 86:0.724215 87:0.265106 88:-0.983311 89:0.207794 90:-0.156057 91:-0.101198 92:-0.0223922 93:0.249472 94:-0.990088 95:0.491318 96:-0.500601 97:-0.0295775 98:-0.00744834 99:0.260395 100:-0.994891 101:0.104813 102:-0.189496 103:0.265252 104:0.403409 105:0.288663 106:-0.978634 107:0.579808 108:-0.617841 109:0.534363 110:0.639214 111:0.280171 112:-0.977947 113:-0.623436 114:0.530753 115:0.329409 116:0.343091 117:0.385642 118:-0.703124 119:1 120:-0.838083 121:0.609723 122:0.68537 123:0.432333 124:-0.988985 125:0.579762 126:-0.568074 127:0.589781 128:0.655753 129:0.366051 130:-0.997155 131:0.751833 132:-0.804048 133:-0.204964 134:-0.183253 135:0.399935 136:-0.993319 137:0.37035 138:-0.415908 139:0.52048 140:0.529937 141:0.405194 142:-0.994958 143:-0.765322 144:0.73556 145:0.619873 146:0.743547 147:0.442698 148:-0.992982 149:0.528413 150:-0.581685 151:-0.0658609 152:-0.0627503 153:0.548011 154:-0.997516 155:0.588941 156:-0.631078 157:0.43289 158:0.448841 159:0.556345 160:-0.990518 161:1 162:-0.939642 163:-0.0727011 164:-0.0499648 165:0.647219 166:-0.997105 167:-0.546983 168:0.457289 169:-0.0565739 170:-0.0139266 171:0.573336 172:-0.996393 173:-0.668383 174:0.625656 175:0.575688 176:0.588786 177:0.577108 178:-0.999244 179:-0.569833 180:0.485785 
-11250.4283719923 1:0.131948 2:0.142232 3:-0.217233 4:-0.988232 5:0.860594 7:0.159375 8:0.114172 9:-0.350993 10:-0.921906 11:0.564817 12:-0.67959 13:0.112177 14:0.097331 15:-0.2373 16:-0.960426 17:0.703105 18:-0.81075 19:0.525707 20:0.551206 21:-0.340639 22:-0.980251 23:0.302599 24:-0.288823 25:0.135991 26:0.212959 27:-0.288487 28:-0.933784 29:0.414026 30:-0.503563 31:0.62005 32:0.692911 33:-0.242975 34:-0.974733 35:0.988634 36:-0.867751 37:0.212644 38:0.288489 39:-0.0806867 40:-0.694866 41:0.221693 42:-0.29701 43:0.150885 44:0.284186 45:0.0266148 46:-0.993831 47:0.84564 48:-0.963242 49:0.481141 50:0.595271 51:0.076252 52:-0.969117 53:1 54:-0.856641 55:0.481005 56:0.689693 57:0.0477466 58:-0.980554 59:-0.691975 60:0.657686 61:-0.99315 62:-0.993073 63:0.0391804 64:-0.974493 65:0.801689 66:-0.572806 67:0.248584 68:0.329219 69:0.0157429 70:-0.976497 71:0.549932 72:-0.56191 73:0.241945 74:0.27875 75:-0.0121183 76:-0.901837 77:-0.405528 78:0.385321 79:-0.894619 80:-0.876647 81:0.0543921 82:-0.985831 83:0.512163 84:0.148769 85:0.493325 86:0.640846 87:-0.0123739 88:-0.983904 89:1 90:-0.971356 91:0.651877 92:0.784726 93:-0.058502 94:-0.987423 95:0.673304 96:-0.564238 97:0.385203 98:0.414844 99:-0.0234806 100:-0.994017 101:0.252861 102:-0.206511 103:0.231145 104:0.366034 105:0.0202053 106:-0.954665 107:-0.13548 108:0.101056 109:0.202041 110:0.284182 111:0.0169088 112:-0.984826 113:0.189581 114:-0.228894 115:0.0425151 116:0.055689 117:0.0889344 118:-0.973708 119:0.14562 120:-0.237917 121:0.357279 122:0.421513 123:-0.00745619 124:-0.989401 125:0.00955977 126:0.010056 127:0.456301 128:0.518733 129:-0.00621327 130:-0.996128 131:0.0075937 132:-0.0106339 133:0.293743 134:0.31874 135:0.0414727 136:-0.979486 137:-0.0725473 138:0.0547746 139:0.425841 140:0.435403 141:0.0498219 142:-0.985824 143:0.49714 144:-0.451479 145:0.311773 146:0.414498 147:0.126117 148:-0.993593 149:-0.488711 150:0.521232 151:0.442209 152:0.445266 153:0.237574 154:-0.99869 155:0.402737 156:-0.361889 157:0.365349 158:0.381055 159:0.233614 160:-0.993363 161:0.676303 162:-0.67161 163:0.335181 164:0.357755 165:0.302746 166:-0.992619 167:-0.602476 168:0.528811 169:-0.231773 170:-0.194116 171:0.311734 172:-0.998911 173:-0.667603 174:0.670118 175:0.2446 176:0.256367 177:0.275898 178:-0.999234 179:-0.330536 180:0.271295 
-3042.620117047595 1:0.18899 2:-0.206356 3:-0.617245 4:-0.961724 5:0.718339 7:0.381735 8:-0.130851 9:-0.592818 10:-0.988297 11:0.605502 12:-0.869263 13:0.458251 14:-0.0545388 15:-0.512472 16:-0.966563 17:0.731683 18:-0.867053 19:0.426034 20:-0.0482625 21:-0.464319 22:-0.991344 23:0.28376 24:-0.422078 25:0.751125 26:0.239436 27:-0.441228 28:-0.965211 29:-0.710186 30:0.573514 31:0.958557 32:0.354396 33:-0.400888 34:-0.991601 35:-0.880378 36:0.659699 37:0.126185 38:-0.220473 39:-0.273703 40:-0.316935 41:0.793117 42:-0.904094 43:0.76503 44:0.294094 45:-0.352201 46:-0.990627 47:-0.19205 48:0.0509734 49:0.255957 50:-0.108621 51:-0.368968 52:-0.958507 53:-0.55415 54:0.417524 55:0.244325 56:-0.0655568 57:-0.398476 58:-0.903665 59:0.392713 60:-0.643264 61:0.936098 62:0.294471 63:-0.413175 64:-0.972626 65:-0.232204 66:0.150096 67:0.784047 68:0.251769 69:-0.418472 70:-0.958724 71:-0.416838 72:0.245576 73:0.292691 74:-0.132788 75:-0.44775 76:-0.959514 77:-0.574271 78:0.526628 79:0.0714682 80:-0.259807 81:-0.449709 82:-0.989579 83:-0.241107 84:0.190197 85:0.144337 86:-0.171287 87:-0.427497 88:-0.973699 89:-0.16914 90:0.139032 91:0.800368 92:0.281354 93:-0.445593 94:-0.996764 95:-0.740465 96:0.608932 97:0.161143 98:-0.214964 99:-0.385479 100:-0.996039 101:-0.517288 102:0.410737 103:0.420666 104:0.0338049 105:-0.347698 106:-0.988706 107:0.0382306 108:-0.242232 109:0.104893 110:-0.218357 111:-0.396023 112:-0.92922 113:-0.814187 114:0.639235 115:0.023913 116:-0.318853 117:-0.315281 118:-0.98998 119:-0.532235 120:0.386383 121:0.324366 122:-0.0863256 123:-0.269648 124:-0.993365 125:0.225078 126:-0.347863 127:0.486714 128:0.0134477 129:-0.266593 130:-0.992958 131:-0.620692 132:0.428266 133:0.381379 134:-0.0766353 135:-0.267215 136:-0.978158 137:0.322394 138:-0.475648 139:0.80833 140:0.199503 141:-0.267911 142:-0.973534 143:-0.377633 144:0.242729 145:0.941508 146:0.376941 147:-0.207598 148:-0.916797 149:-0.388912 150:0.333192 151:0.312454 152:-0.139733 153:-0.118423 154:-0.996694 155:-0.270695 156:0.146696 157:-0.0223776 158:-0.348454 159:-0.158407 160:-0.992934 161:-0.0577382 162:-0.109496 163:0.338425 164:-0.111555 165:-0.0282892 166:-0.997115 167:-0.437196 168:0.239595 169:0.472474 170:0.000107694 171:-0.00406506 172:-0.989934 173:0.148985 174:-0.24063 175:0.829025 176:0.21947 177:-0.0198194 178:-0.99714 179:-0.571108 180:0.367256 
-515.8964624864018 1:0.174465 2:0.184968 3:-0.325821 4:-0.955166 5:0.894698 7:0.188788 8:0.142321 9:-0.212464 10:-0.945193 11:0.653985 12:-0.726101 13:0.250585 14:0.232464 15:-0.334531 16:-0.860578 17:0.521852 18:-0.573068 19:0.803937 20:0.833295 21:-0.344525 22:-0.993134 23:0.976296 24:-0.898172 25:0.790433 26:0.910499 27:-0.296352 28:-0.980595 29:0.500826 30:-0.323069 31:0.208199 32:0.264026 33:-0.26987 34:-0.990779 35:0.906197 36:-0.992458 37:0.138896 38:0.211617 39:-0.156555 40:-0.945744 41:0.48146 42:-0.50156 43:0.0658926 44:0.190346 45:-0.108601 46:-0.973897 47:0.367445 48:-0.440419 49:0.266294 50:0.365652 51:-0.0301108 52:-0.675768 53:0.756384 54:-0.862666 55:-0.980079 56:-0.968979 57:0.0532369 58:-0.988932 59:-0.615362 60:0.814123 61:0.861554 62:0.88231 63:0.0741835 64:-0.97412 65:0.867302 66:-0.860692 67:-0.98345 68:-0.972543 69:-0.0120535 70:-0.965891 71:0.0398255 72:0.523461 73:-0.906565 74:-0.881514 75:0.057558 76:-0.927873 77:0.509019 78:0.182319 79:-0.178214 80:-0.131375 81:0.107413 82:-0.990426 83:-0.63577 84:0.719895 85:0.170544 86:0.286723 87:0.1187 88:-0.988037 89:0.0464886 90:0.0227579 91:0.489663 92:0.610871 93:0.122143 94:-0.992115 95:-0.383861 96:0.466371 97:0.571449 98:0.604464 99:0.253799 100:-0.960208 101:1 102:-0.923123 103:0.215924 104:0.349354 105:0.268245 106:-0.991558 107:0.339086 108:-0.37629 109:0.654715 110:0.76779 111:0.265733 112:-0.984676 113:-0.499812 114:0.467961 115:0.895865 116:0.910551 117:0.377841 118:-0.992318 119:0.512935 120:-0.584827 121:0.313471 122:0.375725 123:0.399983 124:-0.98138 125:0.428136 126:-0.387961 127:0.175057 128:0.230032 129:0.266731 130:-0.990682 131:-0.196657 132:0.196341 133:0.363389 134:0.388844 135:0.292482 136:-0.962036 137:0.204674 138:-0.169311 139:0.393456 140:0.403054 141:0.304175 142:-0.985482 143:-0.625262 144:0.677912 145:0.382913 146:0.490476 147:0.335668 148:-0.986442 149:0.49576 150:-0.393113 151:0.657283 152:0.660318 153:0.378559 154:-0.997318 155:0.903816 156:-0.900872 157:0.368951 158:0.38467 159:0.353701 160:-0.99233 161:-0.283304 162:0.286595 163:0.503688 164:0.526196 165:0.481761 166:-0.993737 167:0.530368 168:-0.501153 169:0.666615 170:0.729861 171:0.496408 172:-0.998478 173:0.669817 174:-0.401367 175:0.331491 176:0.343608 177:0.503771 178:-0.998876 179:-0.348134 180:0.385299 
10139.72504604494 1:0.791675 2:0.195933 3:-0.26361 4:-0.96788 5:-0.00924264 7:0.838336 8:0.159325 9:-0.251474 10:-0.95628 11:-0.468156 12:-0.487174 13:-0.11397 14:-0.42554 15:-0.222987 16:-0.938279 17:-0.263021 18:-0.684441 19:0.208839 20:-0.194494 21:-0.234922 22:-0.96901 23:0.70664 24:-0.0279753 25:0.493987 26:0.0574349 27:-0.211257 28:-0.971395 29:0.747681 30:-0.0342749 31:0.256048 32:-0.131408 33:-0.31126 34:-0.990018 35:0.316676 36:-0.158379 37:0.143146 38:-0.208733 39:-0.212961 40:-0.39862 41:0.774778 42:0.0663242 43:0.832808 44:0.343789 45:-0.166838 46:-0.989286 47:-0.194326 48:-0.694999 49:0.294265 50:-0.0814325 51:-0.11886 52:-0.97564 53:0.736162 54:-0.0190394 55:0.271998 56:-0.0446953 57:-0.171046 58:-0.978124 59:-0.666637 60:0.00290537 61:0.883861 62:0.259396 63:-0.154626 64:-0.969413 65:-0.7553 66:-0.0333984 67:0.981873 68:0.390573 69:-0.172028 70:-0.945456 71:-0.305169 72:-0.0706657 73:0.91644 74:0.28566 75:-0.203218 76:-0.818183 77:-0.735058 78:-0.208226 79:0.420345 80:-0.0187953 81:-0.155706 82:-0.993101 83:0.0676036 84:-0.312484 85:0.801411 86:0.307419 87:-0.216009 88:-0.984201 89:0.15617 90:-0.58585 91:0.334858 92:-0.0499574 93:-0.210304 94:-0.996526 95:-0.701548 96:-0.0322606 97:0.48333 98:0.00286356 99:-0.0938638 100:-0.996024 101:-0.0136383 102:-0.532143 103:0.185827 104:-0.137085 105:-0.0542755 106:-0.983206 107:0.421664 108:-0.140746 109:0.0875017 110:-0.230695 111:-0.133288 112:-0.972189 113:-0.173921 114:-0.231 115:0.353627 116:-0.0995142 117:-0.000286822 118:-0.939422 119:0.32191 120:-0.210058 121:0.166073 122:-0.196194 123:0.0349812 124:-0.996135 125:-0.52772 126:-0.0964489 127:0.167858 128:-0.203907 129:0.0348593 130:-0.993179 131:-0.21673 132:-0.0985081 133:0.950875 134:0.304037 135:0.032204 136:-0.978843 137:-0.511849 138:-0.0538793 139:0.393328 140:-0.0757761 141:0.0150314 142:-0.995771 143:0.253299 144:-0.33685 145:0.971884 146:0.398484 147:0.0926976 148:-0.981012 149:-0.119444 150:-0.237917 151:-0.148825 152:-0.446018 153:0.175939 154:-0.998768 155:-0.331091 156:-0.416279 157:0.103537 158:-0.264537 159:0.182234 160:-0.996309 161:-0.902838 162:0.0587156 163:0.484111 164:-0.0148486 165:0.294553 166:-0.99808 167:-0.148813 168:-0.43657 169:0.493019 170:0.0141394 171:0.317763 172:-0.998297 173:-0.520435 174:-0.258245 175:0.051896 176:-0.298667 177:0.319583 178:-0.99843 179:-0.49049 180:-0.219171 
-8404.365283842992 1:0.144638 2:0.154987 3:-0.370459 4:-0.939045 5:0.890978 7:0.0953606 8:0.0529095 9:-0.430468 10:-0.956306 11:0.824751 12:-0.942869 13:0.205067 14:0.188023 15:-0.3267 16:-0.822848 17:0.648943 18:-0.71017 19:0.187793 20:0.208605 21:-0.379701 22:-0.980712 23:0.39014 24:-0.451509 25:-0.989207 26:-0.986338 27:-0.365015 28:-0.966718 29:0.034786 30:0.541804 31:0.182041 32:0.236786 33:-0.357276 34:-0.992216 35:0.918221 36:-0.979407 37:0.812959 38:0.914224 39:-0.218047 40:-0.96494 41:0.846883 42:-0.879326 43:0.480396 44:0.647996 45:-0.169037 46:-0.989254 47:0.368321 48:-0.30074 49:-0.905032 50:-0.886212 51:-0.114087 52:-0.948821 53:0.520898 54:0.102086 55:0.0994239 56:0.256509 57:-0.0566864 58:-0.991885 59:0.600685 60:-0.661563 61:0.322251 62:0.336994 63:-0.148141 64:-0.889475 65:0.471529 66:-0.51003 67:0.137 68:0.211321 69:-0.279525 70:-0.822987 71:0.473724 72:-0.469289 73:0.53287 74:0.572652 75:-0.221142 76:-0.598503 77:1 78:-0.925016 79:0.319387 80:0.386278 81:-0.241748 82:-0.939019 83:0.896309 84:-0.925559 85:0.629041 86:0.78974 87:-0.242419 88:-0.986653 89:-0.101715 90:0.134832 91:0.266656 92:0.371861 93:-0.274366 94:-0.987414 95:0.389631 96:-0.340556 97:0.487713 98:0.519211 99:-0.217763 100:-0.993261 101:-0.462883 102:0.515204 103:0.629604 104:0.802672 105:-0.184013 106:-0.991411 107:0.813033 108:-0.857728 109:0.182423 110:0.263224 111:-0.190085 112:-0.985723 113:-0.594871 114:0.551593 115:0.827473 116:0.842038 117:-0.108477 118:-0.988417 119:-0.871628 120:0.891335 121:0.141504 122:0.195982 123:-0.0861184 124:-0.994865 125:-0.119752 126:0.129687 127:0.34323 128:0.402664 129:-0.104205 130:-0.988587 131:0.531229 132:-0.465967 133:0.238335 134:0.262966 135:-0.0916186 136:-0.989956 137:-0.62256 138:0.682103 139:0.521566 140:0.531021 141:-0.0906832 142:-0.994274 143:0.641432 144:-0.575212 145:0.272671 146:0.372738 147:0.0113184 148:-0.989901 149:0.12856 150:-0.098303 151:0.285064 152:0.288138 153:0.114251 154:-0.997321 155:-0.122326 156:0.233855 157:0.433012 158:0.448963 159:0.115341 160:-0.96653 161:0.251932 162:-0.241471 163:0.63991 164:0.662364 165:0.235146 166:-0.998487 167:0.536833 168:-0.415852 169:0.212068 170:0.262367 171:0.197825 172:-0.995249 173:0.215125 174:-0.123067 175:0.532098 176:0.545021 177:0.202242 178:-0.995838 179:-0.465872 180:0.470839 
-1166.208328857557 1:-0.967009 2:-0.977978 3:-0.0636685 4:-0.985757 5:0.0221068 7:-0.213001 8:-0.508814 9:-0.432204 10:-0.945919 11:0.609808 12:-0.0166326 13:-0.330389 14:-0.565856 15:-0.317267 16:-0.848838 17:0.353029 18:-0.232803 19:-0.21626 20:-0.480703 21:-0.283387 22:-0.976762 23:0.751181 24:0.104455 25:-0.0521167 26:-0.329094 27:-0.299663 28:-0.914882 29:0.621297 30:-0.0281827 31:0.388952 32:-0.0395018 33:-0.294097 34:-0.990963 35:0.192316 36:-0.441562 37:-0.0413294 38:-0.336424 39:-0.145543 40:-0.959925 41:0.0630143 42:-0.392702 43:0.667187 44:0.222358 45:-0.114717 46:-0.990406 47:0.717191 48:0.174721 49:-0.92498 50:-0.946757 51:-0.0875159 52:-0.972914 53:-0.153733 54:-0.321283 55:-0.0863718 56:-0.314858 57:-0.0321365 58:-0.973139 59:-0.910789 60:-0.00319696 61:-0.215031 62:-0.478474 63:-0.0596476 64:-0.962577 65:0.659707 66:-0.0633027 67:0.740918 68:0.221508 69:-0.104384 70:-0.977707 71:-0.639253 72:-0.201408 73:0.22891 74:-0.175576 75:-0.0569273 76:-0.915337 77:0.565596 78:-0.074853 79:0.953578 80:0.349573 81:-0.0878838 82:-0.991049 83:0.0166917 84:-0.729239 85:-0.0140382 86:-0.28667 87:-0.0829261 88:-0.986257 89:0.919141 90:0.191496 91:0.0218172 92:-0.272754 93:-0.112574 94:-0.983693 95:0.365568 96:-0.307241 97:0.569403 98:0.0610562 99:-0.00735714 100:-0.926282 101:0.988732 102:0.381908 103:-0.0864829 104:-0.335242 105:0.0266026 106:-0.986205 107:0.249178 108:-0.306023 109:0.00746966 110:-0.287473 111:0.0341674 112:-0.987219 113:0.602093 114:-0.154814 115:0.790059 116:0.190817 117:0.161904 118:-0.989027 119:0.0275625 120:-0.764059 121:0.184046 122:-0.18372 123:0.199435 124:-0.996943 125:0.328238 126:-0.397614 127:-0.0319395 128:-0.340103 129:0.169072 130:-0.997213 131:0.277612 132:-0.321284 133:-0.321324 134:-0.546348 135:0.183689 136:-0.986805 137:0.195282 138:-0.303002 139:0.109536 140:-0.264021 141:0.178386 142:-0.935949 143:0.854017 144:0.165552 145:0.193278 146:-0.153713 147:0.227072 148:-0.992311 149:0.617083 150:-0.0974706 151:-0.0415495 152:-0.374788 153:0.332234 154:-0.99664 155:0.858945 156:0.19086 157:-0.12428 158:-0.416368 159:0.308315 160:-0.998253 161:-0.229949 162:-0.527884 163:0.644347 164:0.0915153 165:0.435934 166:-0.997641 167:0.481358 168:-0.314615 169:0.836812 170:0.248942 171:0.4689 172:-0.997256 173:-0.72101 174:-0.174793 175:0.739528 176:0.1598 177:0.446512 178:-0.999446 179:-0.293669 180:-0.371602 
12453.09284459283 1:-0.0836671 2:-0.214638 3:-0.458456 4:-0.828084 5:0.882164 7:0.0922138 8:-0.112964 9:-0.366217 10:-0.987138 11:-0.887061 12:0.917178 13:0.160263 14:-0.0307625 15:-0.332073 16:-0.957998 17:0.862416 18:-0.967037 19:0.00757098 20:-0.133024 21:-0.306045 22:-0.970125 23:0.885367 24:-0.99559 25:0.239925 26:0.124537 27:-0.295224 28:-0.979474 29:0.158287 30:-0.0481749 31:-0.58173 32:-0.626524 33:-0.295749 34:-0.981145 35:0.0735523 36:-0.0716913 37:-0.357843 38:-0.417496 39:-0.132257 40:-0.947065 41:0.505698 42:-0.591641 43:0.558922 44:0.470487 45:-0.103302 46:-0.992673 47:0.741054 48:-0.851755 49:-0.18849 50:-0.255986 51:-0.0667143 52:-0.970907 53:0.466505 54:-0.539893 55:-0.0793077 56:-0.108539 57:-0.0290392 58:-0.973219 59:0.745832 60:-0.87156 61:0.879991 62:0.61333 63:-0.0113145 64:-0.747753 65:-0.9613 66:1 67:0.234707 68:0.114417 69:-0.0727756 70:-0.952545 71:0.941637 72:-0.949867 73:-0.445855 74:-0.51082 75:-0.150914 76:-0.95702 77:-0.063873 78:0.0804281 79:0.213506 80:0.0806414 81:-0.0769981 82:-0.986056 83:0.137379 84:0.343559 85:0.240971 86:0.156417 87:-0.076378 88:-0.975852 89:-0.22137 90:0.504414 91:0.642604 92:0.504328 93:-0.106781 94:-0.989264 95:0.755495 96:-0.684426 97:0.722244 98:0.49294 99:0.0220628 100:-0.986011 101:-0.790102 102:0.819596 103:0.579269 104:0.480368 105:0.0550251 106:-0.99041 107:0.828142 108:-0.917069 109:0.157873 110:0.0504583 111:0.0367471 112:-0.92846 113:-0.602847 114:0.680668 115:0.221221 116:0.0461461 117:0.17654 118:-0.975988 119:0.58591 120:-0.65706 121:0.113442 122:-0.0116744 123:0.056428 124:-0.996994 125:0.673121 126:-0.658933 127:-0.223324 128:-0.309137 129:0.0449544 130:-0.96588 131:-0.550821 132:0.580249 133:-0.320624 134:-0.409609 135:-0.0437043 136:-0.994607 137:-0.0691231 138:0.275534 139:0.435913 140:0.225337 141:-0.053236 142:-0.994765 143:0.379621 144:-0.191688 145:-0.362333 146:-0.413638 147:0.0430142 148:-0.995517 149:-0.405309 150:0.418251 151:-0.260768 152:-0.374941 153:0.149669 154:-0.998172 155:0.122302 156:-0.0819045 157:0.175814 158:0.00901508 159:0.0981654 160:-0.99245 161:0.533894 162:-0.536138 163:0.82901 164:0.566829 165:0.220744 166:-0.995256 167:0.0550043 168:0.236935 169:0.314021 170:0.154981 171:0.259761 172:-0.997427 173:-0.325121 174:0.396706 175:0.175667 176:0.00707789 177:0.26507 178:-0.99847 179:0.363016 180:-0.28684 
16611.57448522369 1:0.0609532 2:-0.091075 3:-0.0913101 4:-0.977501 5:0.17661 7:0.326764 8:0.0778324 9:-0.16327 10:-0.974472 11:0.727404 12:-0.318668 13:0.310622 14:0.0940199 15:-0.0716099 16:-0.904242 17:0.165142 18:-0.916687 19:0.655956 20:0.425748 21:-0.159749 22:-0.97193 23:0.70263 24:-0.373762 25:0.89432 26:0.717404 27:-0.0923803 28:-0.898575 29:0.00640996 30:-0.221302 31:0.529331 32:0.356937 33:-0.253109 34:-0.995249 35:0.0176008 36:-0.660911 37:0.850229 38:0.65285 39:-0.178988 40:-0.919158 41:-0.404015 42:-0.09078 43:0.656954 44:0.562489 45:-0.186756 46:-0.982615 47:0.363182 48:-0.659179 49:0.154645 50:0.0557329 51:-0.144753 52:-0.968368 53:-0.669961 54:-0.142251 55:0.650754 56:0.595934 57:-0.153275 58:-0.979637 59:0.623846 60:-0.408247 61:0.557782 62:0.336398 63:-0.185419 64:-0.952756 65:-0.349379 66:0.0166112 67:0.871543 68:0.686365 69:-0.184289 70:-0.974251 71:0.0889254 72:0.0346919 73:0.150091 74:0.000918043 75:-0.134204 76:-0.919592 77:-0.373258 78:-0.40897 79:0.252441 80:0.115069 81:-0.154615 82:-0.991668 83:-0.00575448 84:-0.479345 85:0.251801 86:0.166516 87:-0.240986 88:-0.980236 89:-0.323898 90:-0.408221 91:0.862164 92:0.704347 93:-0.249662 94:-0.983559 95:0.159285 96:-0.771729 97:0.889331 98:0.637537 99:-0.137983 100:-0.994829 101:-0.35914 102:0.190751 103:0.848538 104:0.731178 105:-0.215529 106:-0.974694 107:-0.146786 108:-0.628312 109:0.487994 110:0.350236 111:-0.243478 112:-0.981354 113:-0.937918 114:0.265444 115:0.748901 116:0.495469 117:-0.110618 118:-0.993581 119:-0.497021 120:-0.116071 121:0.542256 122:0.369296 123:-0.053689 124:-0.992037 125:-0.635542 126:0.0354663 127:0.404576 128:0.238728 129:-0.0813508 130:-0.96464 131:-0.44187 132:-0.256449 133:0.449285 134:0.249125 135:-0.0409732 136:-0.992753 137:0.0206946 138:-0.779263 139:0.854055 140:0.580361 141:-0.0356704 142:-0.985035 143:-0.29647 144:-0.439425 145:0.854004 146:0.690542 147:0.0175025 148:-0.976904 149:-0.79534 150:0.112998 151:0.896994 152:0.609055 153:0.124873 154:-0.991374 155:-0.853327 156:0.11789 157:0.629192 158:0.395778 159:0.113359 160:-0.997007 161:-0.447711 162:-0.26221 163:0.541182 164:0.322273 165:0.241142 166:-0.997063 167:-0.646104 168:-0.0663164 169:0.321745 170:0.161733 171:0.270975 172:-0.988197 173:-0.656384 174:-0.0318662 175:0.280839 176:0.0968339 177:0.275282 178:-0.998221 179:-0.228292 180:-0.415346 
20135.83780504333 1:-0.883066 2:-0.921947 3:-0.503002 4:-0.960383 5:0.173674 7:-0.440113 8:-0.653147 9:-0.592992 10:-0.962888 11:0.356039 12:-0.776439 13:-0.424278 14:-0.626729 15:-0.482118 16:-0.899703 17:0.369141 18:-0.77627 19:-0.439857 20:-0.631245 21:-0.457766 22:-0.970764 23:0.379662 24:-0.778008 25:-0.362271 26:-0.548619 27:-0.442085 28:-0.934316 29:0.405703 30:-0.76671 31:-0.885255 32:-0.920651 33:-0.456813 34:-0.988492 35:-0.125774 36:-0.697638 37:-0.670151 38:-0.771684 39:-0.659833 40:-0.820488 41:-0.124299 42:-0.672696 43:-0.963439 44:-0.973194 45:-0.644093 46:-0.99236 47:-0.158414 48:-0.512942 49:-1 50:-1 51:-0.625364 52:0.132599 53:-0.0522357 54:0.792039 55:-0.661862 56:-0.748701 57:-0.58474 58:-0.991895 59:-0.315508 60:-0.487408 61:-0.595396 62:-0.733876 63:-0.59738 64:-0.904637 65:-0.0026169 66:-0.808991 67:-0.66131 68:-0.762359 69:-0.7447 70:-0.905314 71:0.0640201 72:-0.821138 73:-0.906759 74:-0.937449 75:-0.728309 76:-0.203821 77:-0.295417 78:-0.278975 79:-0.888685 80:-0.923101 81:-0.677573 82:-0.973727 83:-0.455464 84:-0.268427 85:-0.0481101 86:-0.311493 87:-0.655132 88:-0.726554 89:-0.114488 90:-0.444262 91:0.845503 92:0.313478 93:-0.638605 94:-0.988506 95:-0.237339 96:-0.0420643 97:-0.580623 98:-0.716464 99:-0.544876 100:-0.996682 101:-0.050712 102:-0.727673 103:-0.562637 104:-0.681735 105:-0.50017 106:-0.983821 107:-0.16349 108:-0.611732 109:0.159674 110:-0.179493 111:-0.559858 112:-0.973135 113:-0.291763 114:-0.376385 115:0.530589 116:0.0182074 117:-0.447174 118:-0.983717 119:-0.262486 120:-0.105711 121:0.889321 122:0.305801 123:-0.41503 124:-0.981047 125:-0.24836 126:0.22826 127:0.524022 128:0.0388793 129:-0.427513 130:-0.996431 131:-0.615116 132:0.44552 133:-0.688445 134:-0.791745 135:-0.366012 136:-0.994729 137:-0.598758 138:-0.121628 139:-0.180807 140:-0.456612 141:-0.363757 142:-0.995927 143:-0.705926 144:0.17203 145:-0.61498 146:-0.726939 147:-0.262379 148:-0.994612 149:-0.26796 150:-0.490779 151:0.247422 152:-0.182913 153:-0.156575 154:-0.989677 155:-0.52355 156:0.53105 157:0.519274 158:0.0125355 159:-0.162237 160:-0.997 161:-0.660661 162:0.403438 163:0.524449 164:0.0119272 165:-0.0041366 166:-0.997963 167:-0.490082 168:0.494146 169:0.000410158 170:-0.322301 171:0.0447924 172:-0.994672 173:-0.693758 174:0.380587 175:-0.891765 176:-0.927836 177:0.0475892 178:-0.998149 179:-0.664394 180:-0.044687 
10197.16415014651 1:-0.264605 2:-0.509128 3:-0.747169 4:-0.35566 5:0.139311 7:0.674763 8:0.0553724 9:-0.789172 10:-0.985135 11:0.143736 12:-0.368976 13:0.64126 14:0.0641155 15:-0.662815 16:-0.778936 17:0.296734 18:-0.784807 19:0.71514 20:0.146385 21:-0.643554 22:-0.98325 23:0.221616 24:-0.763305 25:-0.268309 26:-0.482114 27:-0.732964 28:-0.927337 29:0.392265 30:-0.756423 31:-0.178492 32:-0.431904 33:-0.763768 34:-0.994496 35:-0.68535 36:-0.139028 37:0.147748 38:-0.205548 39:-0.694186 40:-0.385935 41:-0.721786 42:0.52513 43:0.388251 44:0.0178459 45:-0.715924 46:-0.937883 47:0.195238 48:-0.858931 49:0.275874 50:-0.0944848 51:-0.732486 52:-0.979502 53:-0.812491 54:-0.0319303 55:0.918737 56:0.44286 57:-0.720337 58:-0.853987 59:-0.911735 60:0.149204 61:-0.14955 62:-0.434505 63:-0.731368 64:-0.968463 65:-0.764247 66:-0.0373499 67:1 68:0.403292 69:-0.734364 70:-0.972331 71:-0.655885 72:-0.0403258 73:-0.248206 74:-0.495653 75:-0.727781 76:-0.918722 77:-0.764886 78:0.0705178 79:0.298341 80:-0.103078 81:-0.706973 82:-0.992406 83:0.138078 84:-0.929603 85:-0.226205 86:-0.441243 87:-0.683687 88:-0.985943 89:-0.517578 90:-0.198731 91:-0.418807 92:-0.586354 93:-0.664815 94:-0.980699 95:-0.641158 96:-0.136445 97:0.907647 98:0.28974 99:-0.55325 100:-0.986934 101:-0.865795 102:0.296066 103:-0.136908 104:-0.371936 105:-0.515455 106:-0.99198 107:-0.596727 108:-0.143242 109:0.61276 110:0.141945 111:-0.518836 112:-0.88566 113:0.419696 114:-0.799849 115:-0.236342 116:-0.491985 117:-0.391784 118:-0.697097 119:0.421517 120:-0.730541 121:0.651337 122:0.14062 123:-0.437742 124:-0.958717 125:0.35961 126:-0.8807 127:0.708514 128:0.164642 129:-0.426997 130:-0.991436 131:-0.0442836 132:-0.740638 133:0.625683 134:0.0866671 135:-0.376688 136:-0.993404 137:-0.773232 138:0.0480896 139:0.278064 140:-0.152233 141:-0.396539 142:-0.987699 143:0.202302 144:-0.968977 145:0.131217 146:-0.197727 147:-0.265996 148:-0.99263 149:0.26255 150:-0.966058 151:0.207821 152:-0.209208 153:-0.174242 154:-0.988123 155:0.28782 156:-0.928096 157:0.469357 158:-0.0207324 159:-0.168437 160:-0.995783 161:-0.584117 162:-0.0665009 163:0.202212 164:-0.201973 165:-0.0101186 166:-0.997043 167:0.232627 168:-0.958314 169:0.170346 170:-0.206238 171:0.0311955 172:-0.996952 173:0.405123 174:-0.910843 175:0.700037 176:0.133469 177:0.0320262 178:-0.999049 179:0.510316 180:-0.796194 
12966.05244970215 1:-0.189851 2:-0.45923 3:-0.804611 4:-0.99014 5:0.744425 7:-0.565337 8:-0.732729 9:-0.847949 10:-0.988694 11:0.63768 12:-0.90227 13:0.00120536 14:-0.350866 15:-0.909471 16:-0.832227 17:0.291288 18:-0.488404 19:-0.861344 20:-0.915021 21:-0.874969 22:-0.727839 23:0.704078 24:-0.95125 25:0.286727 26:-0.0892618 27:-0.858866 28:-0.979484 29:0.803333 30:-0.978057 31:-0.210457 32:-0.45401 33:-0.839129 34:-0.830655 35:0.736488 36:-0.995135 37:0.0506532 38:-0.272755 39:-0.767227 40:-0.95522 41:0.20833 42:-0.368796 43:-0.656175 44:-0.747912 45:-0.734112 46:-0.976035 47:0.674096 48:-0.948073 49:0.122778 50:-0.20314 51:-0.724042 52:-0.800738 53:-0.884402 54:0.666248 55:0.0507905 56:-0.211456 57:-0.694533 58:-0.982711 59:0.243071 60:-0.481687 61:0.433002 62:-0.0433409 63:-0.695163 64:-0.879169 65:-0.925976 66:0.661902 67:0.689722 68:0.185587 69:-0.700618 70:-0.971125 71:-0.878704 72:0.70962 73:0.11293 74:-0.253381 75:-0.690603 76:-0.816055 77:0.317776 78:-0.521236 79:0.258595 80:-0.130536 81:-0.635547 82:-0.985656 83:0.102584 84:-0.193091 85:0.045572 86:-0.243242 87:-0.635971 88:-0.985136 89:0.0331129 90:-0.0778327 91:0.338691 92:-0.0472294 93:-0.628175 94:-0.993094 95:0.887709 96:-0.982779 97:0.494718 98:0.0105625 99:-0.541748 100:-0.997599 101:0.715364 102:-0.92226 103:0.47637 104:0.0743405 105:-0.49582 106:-0.987733 107:0.576358 108:-0.795388 109:0.327861 110:-0.0601741 111:-0.496016 112:-0.983282 113:0.910566 114:-0.961771 115:0.422408 116:-0.0537585 117:-0.373481 118:-0.985895 119:0.737107 120:-0.995194 121:0.0805715 122:-0.25554 123:-0.325879 124:-0.986111 125:0.51435 126:-0.617535 127:0.411237 128:-0.0380027 129:-0.323781 130:-0.993516 131:0.0908929 132:-0.263335 133:0.420723 134:-0.050336 135:-0.358991 136:-0.995338 137:-0.438479 138:0.334498 139:0.297276 140:-0.13949 141:-0.380852 142:-0.995295 143:0.805156 144:-0.958602 145:0.410435 146:0.00029767 147:-0.269155 148:-0.107686 149:0.812443 150:-0.995921 151:-0.141015 152:-0.440833 153:-0.161714 154:-0.998228 155:-0.0922561 156:0.0411549 157:0.026385 158:-0.315956 159:-0.183851 160:-0.996203 161:-0.033831 162:-0.0555417 163:0.186466 164:-0.212426 165:-0.0397421 166:-0.996432 167:0.204087 168:-0.335556 169:-0.0107235 170:-0.329905 171:-0.0127577 172:-0.9989 173:0.208395 174:-0.282016 175:0.389669 176:-0.0734625 177:-0.00729938 178:-0.998947 179:1 180:-0.977591 
5789.118380094907 1:-0.126201 2:-0.416744 3:0.493805 4:-0.882382 5:0.446917 7:0.540517 8:-0.029943 9:0.563326 10:-0.947585 11:0.375252 12:-0.932963 13:0.0395597 14:-0.325999 15:0.271257 16:-0.144012 17:0.380964 18:-0.927673 19:0.574885 20:0.0519548 21:0.199263 22:-0.935288 23:0.385965 24:-0.929218 25:0.586204 26:0.122706 27:0.241811 28:-0.905401 29:0.397689 30:-0.921082 31:0.39749 32:-0.0335974 33:0.212173 34:-0.983318 35:0.259323 36:-0.813788 37:0.0465058 38:-0.275626 39:0.312094 40:-0.89599 41:0.0769346 42:-0.573826 43:0.204714 44:-0.116721 45:0.451363 46:-0.896022 47:0.371758 48:-0.930953 49:0.0509964 50:-0.254085 51:0.521978 52:-0.865139 53:0.216067 54:-0.757019 55:0.038572 56:-0.220667 57:0.399213 58:-0.968073 59:0.0808364 60:-0.610354 61:0.206946 62:-0.19513 63:0.246379 64:-0.972702 65:0.4796 66:-0.964447 67:0.170927 68:-0.178424 69:0.220838 70:-0.920767 71:0.638965 72:-0.89826 73:0.385672 74:-0.0704102 75:0.265846 76:-0.831056 77:0.267883 78:-0.81138 79:0.314434 80:-0.0919611 81:0.220853 82:-0.983731 83:-0.0215712 84:-0.44306 85:0.317813 86:-0.0449024 87:0.229371 88:-0.964481 89:-0.840932 90:0.375283 91:0.377939 92:-0.0192958 93:0.16936 94:-0.971128 95:0.38574 96:-0.821816 97:0.431103 98:-0.0324466 99:0.28075 100:-0.980632 101:-0.927213 102:0.497555 103:0.207802 104:-0.121094 105:0.262803 106:-0.983384 107:0.274827 108:-0.794528 109:0.156118 110:-0.182016 111:0.237113 112:-0.953082 113:0.641656 114:-0.9089 115:0.54002 116:0.0244814 117:0.250582 118:-0.972258 119:-0.941621 120:0.503523 121:0.388924 122:-0.0415169 123:0.0613487 124:-0.947451 125:-0.731917 126:0.241461 127:0.146172 128:-0.218689 129:0.0368647 130:-0.993499 131:0.355011 132:-0.811748 133:0.721073 134:0.150429 135:0.0846171 136:-0.996421 137:0.432568 138:-0.927378 139:0.311144 140:-0.130291 141:-0.0602908 142:-0.989181 143:-0.0495674 144:-0.422245 145:0.286721 146:-0.0874419 147:0.0221282 148:-0.988106 149:0.0487111 150:-0.526901 151:0.97313 152:0.298952 153:0.00843816 154:-0.974649 155:0.146135 156:-0.631092 157:0.655931 158:0.103611 159:-0.0221872 160:-0.995095 161:-0.751756 162:0.278821 163:0.364551 164:-0.094213 165:0.0708266 166:-0.996391 167:-0.468877 168:-0.0327647 169:0.330742 170:-0.0966919 171:-0.0885438 172:-0.990883 173:-0.687916 174:0.231363 175:-0.0773752 176:-0.384856 177:-0.112289 178:-0.952448 179:-0.790595 180:0.267396 
28515.5138425863 1:0.295227 2:-0.135443 3:0.0778945 4:-0.993426 5:0.639827 7:0.183444 8:-0.256868 9:0.107783 10:-0.993387 11:0.4887 12:-0.850711 13:0.294325 14:-0.160821 15:-0.0574271 16:-0.981474 17:0.687432 18:-0.897557 19:0.310206 20:-0.126246 21:-0.163572 22:-0.996224 23:0.739723 24:-0.873722 25:0.181921 26:-0.163443 27:-0.20595 28:-0.989183 29:-0.0152888 30:-0.19899 31:0.229857 32:-0.14952 33:-0.186201 34:-0.9924 35:-0.12777 36:-0.243358 37:0.172244 38:-0.188592 39:-0.247485 40:-0.802439 41:0.209304 42:-0.531231 43:0.22684 44:-0.100499 45:-0.248391 46:-0.967817 47:-0.151403 48:-0.130033 49:0.166341 50:-0.172222 51:-0.20051 52:-0.950427 53:-0.454887 54:0.106316 55:0.149529 56:-0.13702 57:-0.134826 58:-0.982795 59:0.0415406 60:-0.327863 61:0.27228 62:-0.15126 63:-0.162964 64:-0.964409 65:-0.498223 66:0.140313 67:0.382466 68:-0.0299982 69:-0.178107 70:-0.98665 71:-0.887473 72:0.607616 73:0.349236 74:-0.0948537 75:-0.242989 76:-0.982267 77:-0.884512 78:0.659837 79:0.281013 80:-0.115049 81:-0.178251 82:-0.992736 83:0.217095 84:-0.471861 85:0.248529 86:-0.0953785 87:-0.157517 88:-0.968695 89:-0.171221 90:-0.0733565 91:0.395496 92:-0.00680063 93:-0.1736 94:-0.989084 95:-0.73159 96:0.452567 97:0.4344 98:-0.0302175 99:-0.0916687 100:-0.997129 101:-0.414978 102:0.148554 103:0.415583 104:0.0301063 105:-0.107013 106:-0.98131 107:-0.828851 108:0.586885 109:0.456173 110:0.0308558 111:-0.134626 112:-0.991098 113:-0.0026288 114:-0.247518 115:0.273863 116:-0.152576 117:-0.0774698 118:-0.992031 119:-0.384593 120:0.0971987 121:0.156162 122:-0.203074 123:-0.1167 124:-0.997452 125:0.125749 126:-0.388764 127:0.0859224 128:-0.25976 129:-0.142406 130:-0.997267 131:-0.159694 132:-0.120877 133:0.100424 134:-0.264435 135:-0.0912549 136:-0.986729 137:-0.168372 138:-0.0911982 139:0.401464 140:-0.0703795 141:-0.281578 142:-0.993959 143:-0.648956 144:0.394258 145:0.197008 146:-0.151067 147:-0.522774 148:-0.992425 149:-0.819649 150:0.590952 151:-0.132362 152:-0.435088 153:-0.49767 154:-0.997388 155:-0.359438 156:0.211179 157:-0.0473276 158:-0.365082 159:-0.644867 160:-0.996871 161:-0.74268 162:0.470739 163:-0.0661073 164:-0.380083 165:-0.58066 166:-0.996694 167:-0.746468 168:0.448194 169:-0.0988981 170:-0.390126 171:-0.565031 172:-0.999062 173:-0.731173 174:0.470849 175:-0.0199413 176:-0.346563 177:-0.636633 178:0.970318 179:-1 180:0.643599 
32768 1:0.271004 2:-0.151612 3:0.690268 4:-0.909765 5:-0.211863 7:0.190492 8:-0.252389 9:-0.0853633 10:-0.944416 11:0.0127631 12:-0.707052 13:0.514887 14:-0.0178184 15:-0.0243129 16:-0.960533 17:0.185575 18:-0.559139 19:0.287485 20:-0.141544 21:0.0367805 22:-0.984127 23:0.186329 24:-0.580183 25:0.31199 26:-0.0713813 27:0.106331 28:-0.958871 29:0.173479 30:-0.596254 31:0.177339 32:-0.185838 33:0.0315351 34:-0.994967 35:-0.485152 36:-0.69834 37:0.2704 38:-0.12065 39:0.189594 40:-0.871091 41:0.14145 42:-0.599823 43:0.247458 44:-0.0853818 45:0.347717 46:-0.992568 47:0.0924019 48:-0.625321 49:0.349932 50:-0.0419238 51:0.34274 52:-0.911684 53:-0.590447 54:-0.533697 55:0.273718 56:-0.0433985 57:0.120018 58:-0.950959 59:-0.112349 60:-0.797107 61:0.526889 62:0.0197011 63:0.104235 64:-0.947187 65:-0.348772 66:-0.799724 67:0.418468 68:-0.00473756 69:0.0775754 70:-0.960879 71:-0.137701 72:-0.800274 73:0.289241 74:-0.135102 75:0.127934 76:-0.94517 77:0.0316367 78:-0.722703 79:0.392304 80:-0.0381666 81:0.209591 82:-0.992108 83:-0.201341 84:-0.781579 85:0.358253 86:-0.0154404 87:0.226936 88:-0.925384 89:0.088072 90:-0.726695 91:0.402081 92:-0.00211394 93:0.200245 94:-0.898559 95:0.0825707 96:-0.762376 97:-0.799873 98:-0.864696 99:0.337083 100:-0.997162 101:-0.244507 102:-0.852463 103:0.355355 104:-0.0137208 105:0.33605 106:-0.992305 107:-0.642531 108:-0.495749 109:0.450045 110:0.0265077 111:0.26405 112:-0.944897 113:0.00638197 114:-0.770851 115:0.496605 116:-0.00439984 117:0.403983 118:-0.986497 119:0.00400292 120:-0.749433 121:0.382148 122:-0.0462198 123:0.307005 124:-0.991778 125:0.0927819 126:-0.766328 127:0.433964 128:-0.0225101 129:0.286579 130:-0.990015 131:0.0642459 132:-0.718223 133:0.198865 134:-0.198634 135:0.313753 136:-0.983478 137:-0.172514 138:-0.838791 139:0.38782 140:-0.0794297 141:0.309562 142:-0.989557 143:-0.709272 144:-0.438794 145:-0.413489 146:-0.584039 147:0.357645 148:-0.989118 149:-0.183035 150:-0.885929 151:0.363024 152:-0.106154 153:0.451247 154:-0.979012 155:-0.236563 156:-0.846626 157:-0.727615 158:-0.818466 159:0.394921 160:-0.997666 161:-0.556195 162:-0.587938 163:0.391454 164:-0.0763542 165:0.445004 166:-0.997281 167:0.00767749 168:-0.775227 169:0.473638 170:0.000902758 171:0.460377 172:-0.998805 173:-0.297875 174:-0.750848 175:0.348762 176:-0.100737 177:0.457198 178:-0.959731 179:-0.13509 180:-0.851626 
2650.210331041178 1:-0.00394676 2:-0.33514 3:0.843793 4:-0.974481 5:-0.181628 7:0.0523647 8:-0.34017 9:0.298451 10:-0.886573 11:0.122993 12:-0.637935 13:0.130118 14:-0.267285 15:0.376305 16:-0.917413 17:0.273273 18:-0.492634 19:-0.00445217 20:-0.338098 21:0.221727 22:-0.974252 23:0.157248 24:-0.635529 25:0.0410049 26:-0.263183 27:0.208465 28:-0.964824 29:0.191709 30:-0.614346 31:-0.0386136 32:-0.335175 33:0.15927 34:-0.990287 35:0.00769308 36:-0.762666 37:0.0426334 38:-0.278306 39:0.32391 40:-0.898935 41:-0.0293542 42:-0.773421 43:0.108975 44:-0.186915 45:0.402502 46:-0.995741 47:-0.434971 48:-0.673913 49:0.0909175 50:-0.225752 51:0.494347 52:-0.939671 53:-0.284028 54:-0.818027 55:0.0526849 56:-0.210028 57:0.591468 58:-0.921468 59:-0.179258 60:-0.846785 61:0.0571798 62:-0.295693 63:0.62386 64:-0.764973 65:-0.0137311 66:-0.81634 67:0.0361073 68:-0.27302 69:0.611693 70:-0.95577 71:-0.0184325 72:-0.80429 73:-0.0480349 74:-0.361366 75:0.685827 76:-0.94294 77:0.0704972 78:-0.725045 79:0.0822686 80:-0.252346 81:0.784483 82:-0.976641 83:0.0319941 84:-0.736874 85:0.0515737 86:-0.238869 87:0.506308 88:-0.983469 89:0.0944375 90:-0.741988 91:-0.150472 92:-0.395376 93:0.525007 94:-0.991451 95:-0.278043 96:-0.791424 97:-0.0347012 98:-0.347372 99:0.659255 100:-0.997964 101:-0.189193 102:-0.837311 103:0.0883007 104:-0.208054 105:0.680714 106:-0.996141 107:0.0737101 108:-0.708566 109:0.0404377 110:-0.264084 111:0.638305 112:-0.807913 113:-0.166381 114:-0.839373 115:0.0221462 116:-0.320028 117:0.522697 118:-0.994208 119:-0.399441 120:-0.735464 121:0.0872312 122:-0.250917 123:0.479145 124:-0.996568 125:-0.196889 126:-0.838736 127:-0.650839 128:-0.761988 129:0.331556 130:-0.99474 131:-0.361774 132:-0.736638 133:-0.0791417 134:-0.384464 135:-0.221434 136:-0.994598 137:-0.383317 138:-0.712587 139:-0.164411 140:-0.445736 141:-0.325609 142:-0.994274 143:-0.504504 144:-0.611738 145:-0.218512 146:-0.44576 147:-0.232676 148:-0.9975 149:-0.4807 150:-0.628756 151:-0.361884 152:-0.587488 153:-0.196296 154:-0.998972 155:-0.805598 156:-0.307092 157:-0.188444 158:-0.459131 159:-0.29096 160:-0.990302 161:-0.938396 162:-0.186439 163:-0.285956 164:-0.526018 165:-0.205138 166:-0.998537 167:-0.608046 168:-0.52296 169:-0.508652 170:-0.669978 171:-0.1685 172:-0.984632 173:-0.977745 174:-0.145892 175:-0.537819 176:-0.691849 177:-0.446066 178:-0.0099432 179:-1 180:-0.169251 
-18088.01974685465 1:0.726372 2:0.152344 3:-0.410361 4:-0.973275 5:-0.105859 7:0.775042 8:0.119101 9:-0.390102 10:-0.957031 11:-0.543089 12:-0.523601 13:0.169175 14:-0.241962 15:-0.420849 16:-0.903111 17:0.726233 18:-0.00331226 19:0.79195 20:0.1981 21:-0.418779 22:-0.980675 23:-0.780727 24:-0.292403 25:0.444296 26:0.0222641 27:-0.378115 28:-0.976923 29:0.749674 30:-0.00654606 31:0.351844 32:-0.0651627 33:-0.366156 34:-0.995405 35:0.597104 36:-0.161171 37:0.0876715 38:-0.247132 39:-0.289977 40:-0.475867 41:0.811054 42:0.113888 43:0.756831 44:0.288083 45:-0.312646 46:-0.987234 47:-0.158212 48:-0.724913 49:0.917797 50:0.361102 51:-0.263552 52:-0.886471 53:-0.491664 54:-0.275642 55:0.149792 56:-0.136822 57:-0.225412 58:-0.961138 59:0.526742 60:-0.0893174 61:0.938711 62:0.296226 63:-0.256987 64:-0.885366 65:-0.275281 66:-0.300083 67:0.363983 68:-0.0429668 69:-0.266146 70:-0.985189 71:0.136698 72:-0.419208 73:0.021695 74:-0.314587 75:-0.208272 76:-0.941193 77:0.458589 78:-0.155134 79:0.240733 80:-0.142875 81:-0.185186 82:-0.992691 83:-0.604906 84:-0.150947 85:0.781239 86:0.292724 87:-0.172797 88:-0.98873 89:-0.715931 90:-0.153248 91:0.267929 92:-0.0975918 93:-0.210102 94:-0.981811 95:-0.878409 96:-0.076082 97:0.316321 98:-0.110049 99:-0.1434 100:-0.996765 101:-0.590419 102:-0.211737 103:0.030215 104:-0.250322 105:-0.161476 106:-0.990324 107:-0.15481 108:-0.372582 109:0.401689 110:-0.00779764 111:-0.158303 112:-0.979941 113:0.0556106 114:-0.566674 115:0.273692 116:-0.15269 117:-0.201791 118:-0.92443 119:0.238882 120:-0.318345 121:0.117243 122:-0.230086 123:-0.204793 124:-0.992875 125:-0.50426 126:-0.225655 127:0.166092 128:-0.20511 129:-0.219647 130:-0.991164 131:-0.0581651 132:-0.252648 133:0.752815 134:0.171646 135:-0.197665 136:-0.980864 137:-0.306414 138:-0.417863 139:-0.0516815 140:-0.37096 141:-0.186282 142:-0.993315 143:-0.261227 144:-0.593072 145:0.943755 146:0.378534 147:-0.0729317 148:-0.968422 149:-0.0665153 150:-0.342924 151:-0.00422915 152:-0.350008 153:0.0381156 154:-0.997808 155:-0.426301 156:-0.365273 157:-0.561395 158:-0.707687 159:0.0238979 160:-0.998221 161:0.437217 162:-0.405703 163:0.309456 164:-0.130785 165:0.146489 166:-0.998312 167:-0.251027 168:-0.438059 169:0.0660885 170:-0.277444 171:0.174052 172:-0.993587 173:-0.794846 174:-0.0874096 175:-0.0558417 176:-0.370499 177:0.164784 178:-0.987319 179:-0.914887 180:-0.139289 
32498.52645293927 1:-0.0107487 2:-0.33968 3:-0.503597 4:-0.989454 5:-0.0832199 7:-0.474881 8:-0.675242 9:-0.446855 10:-0.948211 11:0.461284 12:0.0717281 13:-0.81192 14:-0.878058 15:-0.435989 16:-0.891073 17:0.194627 18:-0.209172 19:-0.322867 20:-0.552478 21:-0.395568 22:-0.950189 23:0.566563 24:0.0899186 25:-0.344414 26:-0.53598 27:-0.430887 28:-0.929331 29:0.294262 30:-0.090837 31:-0.387369 32:-0.576349 33:-0.417905 34:-0.971539 35:0.603747 36:0.0638874 37:-0.72559 38:-0.810058 39:-0.380756 40:-0.952953 41:-0.0206324 42:-0.264875 43:-0.638891 44:-0.73524 45:-0.320429 46:-0.885588 47:0.347091 48:0.00301163 49:-0.521733 50:-0.660564 51:-0.364256 52:-0.825604 53:-0.000382828 54:-0.273746 55:-0.065187 56:-0.298888 57:-0.313057 58:-0.95632 59:-0.824315 60:-0.191069 61:-0.371776 62:-0.583722 63:-0.37859 64:-0.840763 65:0.527403 66:0.00126224 67:-0.661121 68:-0.762227 69:-0.394802 70:-0.979168 71:-0.273852 72:-0.343962 73:-0.278269 74:-0.515821 75:-0.353252 76:-0.950388 77:0.712883 78:0.247406 79:-0.0441922 80:-0.339708 81:-0.37786 82:-0.975779 83:0.419495 84:0.01388 85:-0.141349 86:-0.379422 87:-0.41563 88:-0.981498 89:0.22916 90:-0.147052 91:-0.0396988 92:-0.316536 93:-0.422064 94:-0.534989 95:0.806318 96:0.149033 97:0.04057 98:-0.296482 99:-0.30928 100:-0.996868 101:-0.5701 102:-0.387323 103:0.586167 104:0.154239 105:-0.353093 106:-0.99319 107:-0.307007 108:-0.410098 109:-0.47803 110:-0.631906 111:-0.358311 112:-0.986756 113:-0.444348 114:-0.287157 115:-0.677147 116:-0.785225 117:-0.223456 118:-0.981495 119:-0.0554727 120:-0.279034 121:0.0998329 122:-0.242171 123:-0.206737 124:-0.994464 125:-0.351696 126:-0.417419 127:-0.178389 128:-0.439933 129:-0.271541 130:-0.990036 131:-0.098881 132:-0.323042 133:-0.354583 134:-0.568579 135:-0.216372 136:-0.993353 137:0.30829 138:-0.0836074 139:-0.18819 140:-0.461509 141:-0.210169 142:-0.991406 143:0.228873 144:-0.135034 145:-0.581055 146:-0.702879 147:-0.103942 148:-0.994079 149:0.132967 150:-0.245085 151:-0.037889 152:-0.372358 153:0.00225195 154:-0.997603 155:0.386098 156:-0.13043 157:-0.00172685 158:-0.334691 159:-0.00478658 160:-0.988427 161:0.453821 162:-0.0523171 163:-0.401679 164:-0.602835 165:0.110035 166:-0.994511 167:0.0849639 168:-0.280773 169:-0.130975 170:-0.412034 171:0.143141 172:-0.988081 173:0.216648 174:-0.299481 175:0.226819 176:-0.18204 177:0.123002 178:-0.996617 179:-0.0439501 180:-0.360627 
10565.05194380624 1:-0.0679829 2:-0.377884 3:0.977281 4:-0.94267 5:0.0593091 7:-0.112852 8:-0.445168 9:0.280257 10:-0.974462 11:-0.69008 12:0.149264 13:-0.139244 14:-0.441926 15:0.231647 16:-0.964177 17:-0.21437 18:-0.693433 19:0.872417 20:0.252276 21:0.329749 22:-0.96149 23:-0.143214 24:-0.783436 25:0.164823 26:-0.175545 27:0.259469 28:-0.966895 29:-0.258478 30:-0.583557 31:0.555623 32:0.0757557 33:0.165412 34:-0.977588 35:-0.120806 36:-0.820307 37:0.637766 38:0.133635 39:0.133879 40:-0.539915 41:-0.631677 42:0.237826 43:-0.234394 44:-0.438668 45:0.0414337 46:-0.956483 47:-0.459307 48:-0.413507 49:0.128775 50:-0.198884 51:0.0386293 52:-0.93016 53:-0.60255 54:0.290461 55:-0.0862238 56:-0.314747 57:0.0768356 58:-0.891895 59:-0.594679 60:-0.248479 61:0.61117 62:0.0762933 63:-0.00270753 64:-0.854586 65:-0.470129 66:-0.427126 67:-0.624589 68:-0.736594 69:-0.0324111 70:-0.979681 71:-0.355718 72:-0.52981 73:-0.320009 74:-0.543823 75:-2.39192e-05 76:-0.859097 77:-0.658853 78:-0.129721 79:0.982134 80:0.3693 81:-0.0282902 82:-0.97984 83:-0.445777 84:-0.393303 85:0.961105 86:0.423763 87:-0.144304 88:-0.959309 89:-0.0110455 90:-0.84656 91:0.448154 92:0.0306775 93:-0.268685 94:-0.974997 95:-0.0523005 96:-0.799928 97:-0.206454 98:-0.463492 99:-0.232423 100:-0.996153 101:-0.609936 102:-0.155213 103:0.00821358 104:-0.266333 105:-0.184885 106:-0.985902 107:-0.147509 108:-0.755602 109:0.0227492 110:-0.276633 111:-0.180783 112:-0.861613 113:-0.507605 114:-0.335136 115:-0.379762 116:-0.587393 117:-0.0686123 118:-0.930643 119:-0.638599 120:0.336301 121:0.929734 122:0.333851 123:-0.0552429 124:-0.988122 125:-0.109648 126:-0.762023 127:-0.58905 128:-0.719868 129:-0.0464524 130:-0.991087 131:-0.560394 132:0.429768 133:0.440802 134:-0.0369147 135:0.00088341 136:-0.893862 137:-0.697002 138:0.0651454 139:0.957464 140:0.298427 141:0.00663915 142:-0.986164 143:-0.587454 144:-0.247294 145:-0.347159 146:-0.536997 147:0.0958926 148:-0.964545 149:-0.692188 150:0.090799 151:0.73591 152:0.14144 153:0.190099 154:-0.996387 155:-0.551144 156:-0.287101 157:0.818818 158:0.212169 159:0.189219 160:-0.970351 161:-0.290713 162:-0.58011 163:0.839854 164:0.221293 165:0.24578 166:-0.989098 167:-0.721123 168:-0.115395 169:0.596676 170:0.0849349 171:0.271031 172:-0.991889 173:-0.501449 174:-0.269921 175:-0.500979 176:-0.667287 177:0.176823 178:-0.997701 179:-0.613397 180:0.209942 
-5059.849225147537 1:-0.773767 2:-0.768164 3:-0.232482 4:-0.940695 5:-0.131012 7:0.834907 8:0.760662 9:-0.353961 10:-0.985551 11:-0.34092 12:-0.789826 13:-0.776504 14:-0.770327 15:-0.277889 16:-0.961654 17:-0.0205729 18:-0.449418 19:-0.102881 20:-0.0861013 21:-0.399934 22:-0.974492 23:0.454173 24:0.206915 25:0.7733 26:0.892237 27:-0.43741 28:-0.973676 29:-0.439092 30:-0.63031 31:0.798296 32:0.878529 33:-0.415645 34:-0.988788 35:0.290746 36:0.0660367 37:0.427511 38:0.512455 39:-0.288686 40:-0.860139 41:0.462348 42:0.282621 43:0.456474 44:0.621583 45:-0.215793 46:-0.980416 47:0.424201 48:0.285986 49:0.612699 50:0.735874 51:-0.149467 52:-0.961671 53:-0.554155 54:-0.549037 55:-0.0825471 56:0.0499294 57:-0.106398 58:-0.990209 59:0.0599247 60:-0.111174 61:0.83355 62:0.853994 63:-0.0924128 64:-0.974045 65:-0.0543062 66:-0.411915 67:0.586521 68:0.686283 69:-0.147515 70:-0.971823 71:-0.189055 72:-0.690284 73:0.0496994 74:0.0845366 75:-0.125477 76:-0.946737 77:0.471795 78:0.295467 79:0.788682 80:0.874484 81:-0.0497106 82:-0.993525 83:-0.103816 84:-0.757624 85:0.187471 86:0.305294 87:-0.0896554 88:-0.939979 89:-0.633265 90:0.163393 91:0.64798 92:0.78055 93:-0.0811006 94:-0.994542 95:-0.488588 96:-0.554527 97:0.65788 98:0.692459 99:-0.0588201 100:-0.99769 101:0.171358 102:-0.0961524 103:0.551532 104:0.717119 105:-0.0292115 106:-0.987631 107:-0.0134517 108:-0.322284 109:-1 110:-1 111:-0.0645894 112:-0.979467 113:0.609592 114:0.253586 115:0.845854 116:0.860451 117:0.0457641 118:-0.971132 119:-0.819213 120:-0.236818 121:0.582536 122:0.656954 123:0.0997828 124:-0.996354 125:0.138804 126:-0.344698 127:-0.107535 128:-0.0600524 129:0.0569463 130:-0.992552 131:-0.169822 132:-0.300911 133:0.930028 134:0.959216 135:0.00674702 136:-0.894319 137:-0.740708 138:0.117242 139:0.553951 140:0.56337 141:0.00672078 142:-0.995576 143:0.326602 144:0.062553 145:-0.193545 146:-0.125176 147:0.0833895 148:-0.996123 149:-0.794552 150:-0.0357703 151:0.518163 152:0.521213 153:0.186233 154:-0.992146 155:0.373841 156:0.128893 157:0.0308331 158:0.0453321 159:0.141976 160:-0.997506 161:0.533105 162:0.2498 163:0.698616 164:0.721046 165:0.283279 166:-0.972609 167:-0.778649 168:-0.289886 169:0.399401 170:0.455036 171:0.31626 172:-0.996017 173:-0.135862 174:-0.773983 175:0.503423 176:0.51623 177:0.316707 178:-0.99485 179:0.0165207 180:-0.472103 
-3877.712590237032 1:0.679941 2:0.121351 3:0.350545 4:-0.981039 5:0.335046 7:0.862144 8:0.174456 9:-0.508996 10:-0.949182 11:0.625054 12:-0.236417 13:0.498225 14:-0.0286215 15:-0.391346 16:-0.785065 17:0.555064 18:-0.255652 19:0.516051 20:0.0123436 21:-0.397647 22:-0.968272 23:0.602598 24:-0.275057 25:0.656056 26:0.172147 27:-0.434603 28:-0.953808 29:0.414508 30:-0.386154 31:0.812243 32:0.253216 33:-0.430293 34:-0.991078 35:0.612765 36:-0.244412 37:0.672139 38:0.157427 39:-0.314474 40:-0.949433 41:-0.739161 42:0.545118 43:0.52149 44:0.115535 45:-0.293482 46:-0.987107 47:0.342203 48:-0.185955 49:0.35311 50:-0.0396684 51:-0.234264 52:-0.790586 53:0.668516 54:-0.220535 55:0.55584 56:0.169284 57:-0.189668 58:-0.849251 59:0.727028 60:-0.124801 61:0.66155 62:0.110122 63:-0.168792 64:-0.80696 65:0.773904 66:-0.206677 67:0.565163 68:0.09819 69:-0.427951 70:-0.770154 71:0.781456 72:-0.177948 73:-0.062085 74:-0.370792 75:-0.390628 76:-0.845907 77:-0.81457 78:0.587443 79:0.783644 80:0.232179 81:-0.389855 82:-0.990678 83:0.484338 84:-0.343952 85:-0.081249 86:-0.335636 87:-0.375388 88:-0.91779 89:-0.824604 90:0.528836 91:0.904486 92:0.355457 93:-0.36092 94:-0.993281 95:0.0960845 96:-0.337043 97:0.753352 98:0.185422 99:-0.280061 100:-0.994764 101:-0.707913 102:0.126717 103:0.458244 104:0.0611499 105:-0.263032 106:-0.988321 107:0.565495 108:-0.173088 109:-0.114828 110:-0.374236 111:-0.261601 112:-0.78082 113:-0.0452668 114:-0.252221 115:0.197521 116:-0.203362 117:-0.204378 118:-0.983147 119:0.296149 120:-0.442752 121:-0.345219 122:-0.551074 123:-0.215599 124:-0.993348 125:-0.0673172 126:-0.260957 127:0.200222 128:-0.181845 129:-0.231527 130:-0.990137 131:0.192809 132:-0.366501 133:0.0265858 134:-0.313792 135:-0.212974 136:-0.990168 137:-0.840749 138:0.500667 139:0.0803162 140:-0.283403 141:-0.222208 142:-0.996072 143:0.106811 144:-0.39409 145:-0.0217172 146:-0.30619 147:-0.117401 148:-0.985254 149:-0.00133735 150:-0.25178 151:0.519313 152:-0.00237913 153:-0.0157379 154:-0.99762 155:0.317842 156:-0.398283 157:0.756553 158:0.170672 159:-0.0596269 160:-0.993618 161:0.876263 162:-0.127611 163:0.512969 164:0.00430716 165:0.0889292 166:-0.998359 167:0.434693 168:-0.302052 169:0.659911 170:0.128123 171:0.13275 172:-0.997478 173:0.957495 174:-0.15002 175:0.830145 176:0.220217 177:0.119262 178:-0.996801 179:0.502042 180:-0.437146 
13176.00164214802 1:0.558433 2:0.0402452 3:-0.291138 4:-0.989786 5:0.529236 7:0.798722 8:0.13415 9:-0.289177 10:-0.982939 11:0.633132 12:-0.721879 13:0.818708 14:0.179164 15:-0.227312 16:-0.957402 17:0.676253 18:-0.68397 19:0.862344 20:0.245494 21:-0.304419 22:-0.984655 23:0.712818 24:-0.566232 25:0.664289 26:0.177974 27:-0.293426 28:-0.962914 29:-0.514322 30:0.35129 31:0.862954 32:0.288284 33:-0.249861 34:-0.995164 35:0.67882 36:-0.595058 37:0.53912 38:0.0653539 39:-0.0915016 40:-0.922139 41:-0.689268 42:0.715666 43:0.177898 44:-0.136382 45:-0.100051 46:-0.984458 47:0.52337 48:-0.733353 49:-0.0227057 50:-0.306393 51:-0.0320542 52:-0.957481 53:0.150644 54:-0.408677 55:0.624842 56:0.221302 57:-0.0116108 58:-0.989642 59:-0.36117 60:0.218153 61:0.68234 62:0.124081 63:-0.0447178 64:-0.961048 65:-0.685327 66:0.415337 67:0.268692 68:-0.109828 69:-0.0458542 70:-0.97632 71:0.398806 72:-0.744116 73:0.540204 74:0.0332587 75:0.00223719 76:-0.894777 77:-0.715 78:0.813078 79:0.875015 80:0.2953 81:0.0272202 82:-0.991963 83:0.72262 84:-0.580957 85:0.546992 86:0.122065 87:-0.0261931 88:-0.984014 89:-0.579271 90:0.480716 91:0.443594 92:0.0274315 93:-0.00592372 94:-0.986216 95:-0.560557 96:0.439046 97:0.751083 98:0.183888 99:0.106005 100:-0.997025 101:-0.119363 102:-0.259532 103:0.589762 104:0.156855 105:0.142971 106:-0.97023 107:-0.729172 108:0.757923 109:0.740401 110:0.232499 111:0.122965 112:-0.965781 113:-0.617119 114:0.426083 115:0.767506 116:0.175814 117:0.267454 118:-0.980201 119:0.33009 120:-0.788914 121:0.650382 122:0.139957 123:0.325946 124:-0.997327 125:-0.612834 126:0.591529 127:0.464948 128:-0.00138976 129:0.276851 130:-0.997102 131:-0.0634319 132:-0.15874 133:-0.323886 134:-0.54806 135:0.314044 136:-0.982016 137:0.205213 138:-0.351226 139:-0.599364 140:-0.73425 141:0.327806 142:-0.995056 143:0.481438 144:-0.201921 145:-0.696136 146:-0.784496 147:0.396697 148:-0.993163 149:-0.328209 150:0.549613 151:0.733351 152:0.13974 153:0.478864 154:-0.997862 155:-0.457906 156:0.223333 157:0.440975 158:-0.0396482 159:0.422162 160:-0.99691 161:0.361722 162:-0.624 163:0.450457 164:-0.0371883 165:0.562686 166:-0.997865 167:0.469678 168:-0.821757 169:0.304015 170:-0.114946 171:0.557016 172:-0.995237 173:0.222514 174:-0.525224 175:0.917309 176:0.278332 177:0.530382 178:-0.999162 179:-0.608269 180:0.380045 
1514.084765600412 1:0.999098 2:0.334387 3:-0.520772 4:-0.929504 5:0.257413 7:0.463739 8:-0.0787366 9:-0.70054 10:-0.98467 11:-0.587577 12:0.781119 13:-0.403982 14:-0.61357 15:-0.58214 16:-0.946391 17:-0.00489277 18:-0.649918 19:0.593413 20:0.0644292 21:-0.613538 22:-0.988169 23:0.176792 24:-0.741171 25:0.739202 26:0.230997 27:-0.710382 28:-0.947429 29:-0.511759 30:0.819166 31:0.0985193 32:-0.240344 33:-0.692226 34:-0.969077 35:0.175665 36:-0.832665 37:-0.140571 38:-0.405117 39:-0.650512 40:-0.911905 41:-0.306707 42:-0.316525 43:0.0628194 44:-0.220756 45:-0.653032 46:-0.994194 47:-0.087124 48:-0.564436 49:0.47945 50:0.0499979 51:-0.633883 52:-0.971162 53:-0.596591 54:-0.127365 55:-0.0695058 56:-0.302144 57:-0.600993 58:-0.970039 59:-0.596446 60:-0.0581035 61:0.0885536 62:-0.274626 63:-0.654543 64:-0.720858 65:-0.466253 66:0.835373 67:0.942546 68:0.36298 69:-0.666249 70:-0.988022 71:0.330836 72:-0.993602 73:0.550195 74:0.0399615 75:-0.635109 76:-0.963311 77:-0.800429 78:0.402328 79:0.218172 80:-0.158461 81:-0.581026 82:-0.970112 83:-0.223261 84:-0.357903 85:0.126018 86:-0.184633 87:-0.565845 88:-0.889766 89:0.262142 90:-0.809362 91:-0.379846 92:-0.558625 93:-0.566877 94:-0.990139 95:-0.362849 96:-0.236267 97:0.311993 98:-0.112976 99:-0.483617 100:-0.98972 101:-0.51459 102:0.830549 103:-0.0814302 104:-0.331566 105:-0.441853 106:-0.992893 107:-0.222985 108:-0.401112 109:0.697709 110:0.202211 111:-0.435765 112:-0.987642 113:-0.20144 114:-0.409519 115:0.481675 116:-0.0143315 117:-0.363149 118:-0.993896 119:-0.386781 120:-0.249889 121:-0.376596 122:-0.572852 123:-0.335918 124:-0.971887 125:-0.369669 126:-0.264705 127:0.195675 128:-0.184945 129:-0.350228 130:-0.997121 131:0.28558 132:-0.844353 133:0.959175 134:0.309585 135:-0.303465 136:-0.995947 137:-0.112899 138:-0.55993 139:0.981504 140:0.314373 141:-0.301911 142:-0.9956 143:0.344902 144:-0.841495 145:0.156979 146:-0.179456 147:-0.180082 148:-0.994307 149:-0.0986054 150:-0.498421 151:0.793604 152:0.179748 153:-0.079946 154:-0.975431 155:0.383114 156:-0.86984 157:0.27651 158:-0.149257 159:-0.0739896 160:-0.996427 161:0.297456 162:-0.846231 163:0.513511 164:0.0046669 165:0.0463164 166:-0.9846 167:-0.226608 168:-0.384461 169:0.144661 170:-0.223781 171:0.0695969 172:-0.997447 173:-0.112381 174:-0.47497 175:0.517604 176:0.0118357 177:0.0776386 178:-0.997757 179:0.128204 180:-0.577884 
-149.9095997126984 1:0.448876 2:0.240364 3:0.507897 4:-0.984259 5:0.662818 7:0.705402 8:0.385838 9:0.43758 10:-0.976287 11:0.624245 12:-0.971264 13:0.446718 14:0.206965 15:0.41943 16:-0.965914 17:0.689677 18:-0.976371 19:0.436954 20:0.237014 21:-0.0739808 22:-0.990944 23:-0.19709 24:-0.122578 25:0.848492 26:0.675885 27:-0.492552 28:-0.974434 29:-0.301012 30:0.0254153 31:0.380788 32:0.225454 33:-0.464753 34:-0.991353 35:-0.72507 36:0.383677 37:0.486612 38:0.330687 39:-0.546494 40:-0.916527 41:-0.635924 42:0.3945 43:-0.559534 44:-0.579159 45:-0.550672 46:-0.956195 47:0.0176887 48:0.147168 49:0.158457 50:0.0591954 51:-0.514868 52:-0.944647 53:-0.174487 54:0.104705 55:0.446236 56:0.398584 57:-0.615815 58:-0.991244 59:-0.278357 60:-0.00785782 61:0.386911 62:0.189539 63:-0.624538 64:-0.912936 65:-0.718327 66:0.386369 67:-0.622543 68:-0.655485 69:-0.61823 70:-0.960359 71:0.0484689 72:0.183621 73:0.466911 74:0.272971 75:-0.605998 76:-0.814184 77:-0.698807 78:0.485189 79:-0.640222 80:-0.674269 81:-0.556876 82:-0.991711 83:0.110789 84:0.0801006 85:-0.868758 86:-0.878445 87:-0.577225 88:-0.981396 89:-0.535421 90:0.448359 91:0.602508 92:0.467801 93:-0.57169 94:-0.993289 95:-0.798652 96:0.878235 97:0.519611 98:0.317583 99:-0.517387 100:-0.988744 101:-0.888671 102:0.688839 103:0.83256 104:0.716295 105:-0.499777 106:-0.979213 107:-0.835215 108:0.688652 109:0.557736 110:0.413567 111:-0.536801 112:-0.985864 113:-0.96065 114:0.681565 115:0.465219 116:0.253912 117:-0.427219 118:-0.993023 119:-0.379986 120:0.122849 121:0.38415 122:0.22883 123:-0.406043 124:-0.985359 125:-0.8777 126:0.616823 127:-0.577475 128:-0.618147 129:-0.413375 130:-0.994892 131:-0.238887 132:0.185112 133:0.0790829 134:-0.0676192 135:-0.362599 136:-0.975814 137:-0.615809 138:0.40353 139:0.539321 140:0.313135 141:-0.401146 142:-0.980156 143:-0.628517 144:0.400098 145:0.444377 146:0.318686 147:-0.476531 148:-0.967702 149:-0.863929 150:0.643068 151:0.303518 152:0.104653 153:-0.388988 154:-0.992975 155:-0.736161 156:0.516966 157:0.0268718 158:-0.118043 159:-0.658031 160:1 161:-1 162:0.747859 163:-0.742534 164:-0.768453 165:-0.552975 166:-0.994724 167:-0.711016 168:0.524997 169:-0.714571 170:-0.744225 171:-0.581255 172:-0.997376 173:-0.84439 174:0.639826 175:-0.82045 176:-0.843025 177:-0.593049 178:-0.996245 179:-0.538814 180:0.395009 
3519.240189401023 1:0.00853993 2:-0.135856 3:-0.408576 4:-0.963776 5:0.699397 7:0.410565 8:0.146001 9:-0.288067 10:-0.931448 11:0.703361 12:-0.997444 13:-0.297742 14:-0.410857 15:-0.24377 16:-0.877885 17:0.482041 18:-0.771114 19:0.416403 20:0.219304 21:-0.22072 22:-0.987454 23:0.397865 24:-0.68344 25:0.0264195 26:-0.0688938 27:-0.345138 28:-0.974308 29:0.342149 30:-0.592957 31:0.955596 32:0.734247 33:-0.366873 34:-0.982661 35:0.125405 36:-0.103656 37:-0.767418 38:-0.780377 39:-0.231655 40:-0.937951 41:-0.0475526 42:0.268166 43:0.313862 44:0.240504 45:-0.271404 46:-0.977907 47:0.63191 48:-0.949677 49:0.516651 50:0.384594 51:-0.195576 52:-0.928701 53:0.229965 54:-0.52268 55:0.399116 56:0.353116 57:-0.192269 58:-0.983733 59:-0.572705 60:0.348147 61:0.471596 62:0.262323 63:-0.230459 64:-0.978632 65:-0.318624 66:0.0297046 67:-0.286041 68:-0.35327 69:-0.240933 70:-0.982026 71:0.184147 72:-0.392156 73:0.00365571 74:-0.124826 75:-0.193716 76:-0.962325 77:0.623125 78:-0.922983 79:-0.00881222 80:-0.115944 81:-0.156114 82:-0.990395 83:0.00977321 84:-0.174848 85:0.180248 86:0.0997902 87:-0.154309 88:-0.978334 89:-0.812239 90:1 91:-0.392797 92:-0.438921 93:-0.233921 94:-0.994552 95:-0.0145006 96:0.182177 97:-0.131344 98:-0.245749 99:-0.11941 100:-0.994605 101:0.354313 102:-0.603198 103:0.16947 104:0.0986632 105:-0.138497 106:-0.985743 107:-0.895801 108:0.931796 109:-0.0820522 110:-0.167414 111:-0.14686 112:-0.974732 113:-0.0912625 114:-0.126357 115:0.322817 116:0.132656 117:-0.0186711 118:-0.990766 119:0.454 120:-0.661998 121:0.909017 122:0.695137 123:0.00288211 124:-0.983035 125:-0.827041 126:0.926865 127:-0.11488 128:-0.214516 129:-0.0684349 130:-0.997172 131:0.370298 132:-0.472328 133:-0.182589 134:-0.291505 135:-0.0141482 136:-0.995171 137:0.174061 138:-0.386825 139:0.647703 140:0.405158 141:-0.0427598 142:-0.989913 143:-0.81915 144:0.755972 145:0.303827 146:0.191096 147:0.0514398 148:-0.992978 149:-0.0106841 150:-0.0518725 151:-0.711459 152:-0.757988 153:0.162233 154:-0.994085 155:-0.530052 156:0.571819 157:0.143288 158:-0.0187317 159:0.165431 160:-0.99835 161:0.0302356 162:-0.197308 163:0.770571 164:0.517176 165:0.308553 166:-0.997538 167:-0.761333 168:0.64167 169:0.463106 170:0.285313 171:0.311122 172:-0.992035 173:0.00769319 174:-0.121588 175:0.414959 176:0.211294 177:0.299421 178:-0.997677 179:0.0455839 180:0.0523603 
605.0064937427687 1:0.535459 2:0.31434 3:0.259484 4:-0.988673 5:0.117872 7:0.564513 8:0.271231 9:0.361443 10:-0.989545 11:0.344901 12:-0.463831 13:0.578848 14:0.316618 15:-0.0171194 16:-0.961565 17:0.0793434 18:-0.944294 19:0.033619 20:-0.110576 21:-0.0444363 22:-0.959114 23:0.0245896 24:0.187499 25:0.0819244 26:-0.0186077 27:-0.0327742 28:-0.920879 29:0.254759 30:0.210038 31:0.6004 32:0.419844 33:-0.192941 34:-0.990965 35:-0.831957 36:0.258826 37:0.573527 38:0.407694 39:-0.153311 40:-0.906285 41:-0.839427 42:0.353669 43:0.0510492 44:-0.00613994 45:-0.0580972 46:-0.990667 47:-0.191557 48:0.207384 49:0.841179 50:0.67941 51:-0.0251231 52:-0.9813 53:-0.378503 54:-0.487378 55:0.588874 56:0.536223 57:-0.102828 58:-0.990664 59:-0.911611 60:0.318051 61:0.588961 62:0.363196 63:-0.197825 64:-0.973761 65:-0.89908 66:0.256124 67:0.0549641 68:-0.047011 69:-0.314586 70:-0.971015 71:-0.116268 72:0.415149 73:0.36006 74:0.181218 75:-0.366169 76:-0.810255 77:-0.835678 78:0.365378 79:0.402207 80:0.2475 81:-0.351194 82:-0.986186 83:-0.124907 84:0.252411 85:-0.0876799 86:-0.150062 87:-0.40967 88:-0.978205 89:-0.0330462 90:-0.447097 91:0.264838 92:0.160184 93:-0.438751 94:-0.980187 95:-0.27036 96:0.24116 97:0.243219 98:0.0783948 99:-0.393444 100:-0.961049 101:-0.403413 102:0.172736 103:0.591976 104:0.492204 105:-0.373334 106:-0.979859 107:-0.802278 108:0.358236 109:0.580959 110:0.434656 111:-0.446715 112:-0.880034 113:-0.830765 114:0.259432 115:-0.0442379 116:-0.179894 117:-0.350144 118:-0.97327 119:-0.770213 120:-0.0392513 121:0.115783 122:-0.00959421 123:-0.385553 124:-0.9923 125:-0.541296 126:0.0250685 127:0.249867 128:0.103739 129:-0.441095 130:-0.988921 131:-0.318141 132:0.0776626 133:0.736542 134:0.494903 135:-0.37761 136:-0.994411 137:-0.699823 138:0.226437 139:0.215408 140:0.0381165 141:-0.417801 142:-0.975569 143:-0.471312 144:0.200793 145:0.0949393 146:0.00146968 147:-0.295615 148:-0.936002 149:-0.600878 150:0.0991912 151:0.278249 152:0.0831758 153:-0.209324 154:-0.991481 155:-0.60001 156:0.231208 157:0.93481 158:0.656491 159:-0.235809 160:-0.988326 161:-0.641642 162:-0.159024 163:0.80256 164:0.544356 165:-0.090426 166:-0.997569 167:-0.348927 168:0.162602 169:0.103539 170:-0.0290247 171:-0.0860035 172:-0.956629 173:-0.936242 174:0.188826 175:0.757891 176:0.503959 177:-0.0940885 178:-0.997733 179:-0.908739 180:0.193452 
-1152.076393035677 1:0.0490821 2:-0.299743 3:-0.542823 4:-0.993595 5:-1 7:0.142161 8:-0.283104 9:-0.453271 10:-0.987456 11:-0.853382 12:-0.837801 13:0.0890046 14:-0.293941 15:-0.405246 16:-0.95443 17:-0.957378 18:-0.927079 19:-0.0675096 20:-0.380553 21:-0.407678 22:-0.966656 23:-0.0197496 24:0.0101687 25:0.0599988 26:-0.249739 27:-0.388673 28:-0.961243 29:-0.126761 30:-0.0936255 31:0.128537 32:-0.219585 33:-0.37214 34:-0.989875 35:-0.777335 36:-0.781346 37:0.0185076 38:-0.295006 39:-0.238143 40:-0.958779 41:-0.968385 42:-0.988999 43:0.235704 44:-0.0939993 45:-0.185891 46:-0.991245 47:-0.062863 48:0.0497764 49:0.120956 50:-0.204434 51:-0.137065 52:-0.977079 53:-0.260532 54:-0.249466 55:0.230341 56:-0.0760991 57:-0.0814797 58:-0.990886 59:0.0565035 60:0.155163 61:0.338777 62:-0.10661 63:-0.11292 64:-1 65:-0.136534 66:-0.147739 67:0.162505 68:-0.184333 69:-0.116073 70:-0.997691 71:-0.134935 72:-0.112256 73:0.228437 74:-0.175893 75:-0.0642569 76:-0.947944 77:-0.212821 78:-0.147146 79:0.247562 80:-0.138158 81:-0.0139229 82:-1 83:-0.128312 84:-0.038254 85:0.0782789 86:-0.219413 87:-0.00243507 88:-0.969522 89:-0.000760682 90:-0.00967119 91:0.279903 92:-0.0890704 93:0.00726545 94:-0.999834 95:0.169974 96:0.109323 97:0.387516 98:-0.0619158 99:0.0780082 100:-0.995202 101:-0.290801 102:-0.259938 103:-0.11233 104:-0.354051 105:0.0120189 106:-0.999833 107:-0.924877 108:-0.934977 109:0.338844 110:-0.0523826 111:-0.00128696 112:-0.996558 113:-0.139257 114:-0.174051 115:0.246811 116:-0.170573 117:0.0773166 118:-0.976305 119:-0.413473 120:-0.388499 121:0.0141977 122:-0.301609 123:0.136318 124:-0.999836 125:-0.441377 126:-0.487228 127:-0.123349 128:-0.402414 129:0.137219 130:-0.984945 131:-0.794605 132:-0.779438 133:0.0417949 134:-0.303626 135:0.124843 136:-0.997265 137:-0.307911 138:-0.287693 139:0.362827 140:-0.0960084 141:0.0909647 142:-1 143:-0.175553 144:-0.152657 145:-0.161895 146:-0.405606 147:0.0706895 148:-0.842035 149:-0.619727 150:-0.627025 151:0.166964 152:-0.236337 153:0.0851646 154:-0.990273 155:-0.469121 156:-0.470583 157:0.0366843 158:-0.309091 159:-0.0247647 160:-0.999168 161:-0.259122 162:-0.275734 163:0.54629 164:0.0264256 165:0.117673 166:-0.0122723 167:0.243697 168:0.228497 169:-0.498254 170:-0.662877 171:-0.149952 172:-0.989251 173:-0.705806 174:-0.715232 175:-0.525799 176:-0.683835 177:-0.676505 178:0.0129321 179:-1 180:-0.97905 
8301.239376624886 1:-0.036902 2:-0.357137 3:-0.193343 4:-0.935991 5:0.0917919 7:0.0222782 8:-0.359291 9:-0.551619 10:-0.975002 11:-0.0633812 12:-0.845981 13:0.181611 14:-0.233899 15:-0.528871 16:-0.913749 17:-0.750855 18:-0.112812 19:0.400063 20:-0.0657479 21:-0.476678 22:-0.974512 23:0.149829 24:-0.899907 25:-0.118418 26:-0.376022 27:-0.426687 28:-0.232741 29:-0.563948 30:0.450208 31:0.43688 32:-0.00635795 33:-0.477991 34:-0.996877 35:-0.00210113 36:-0.908248 37:0.0745411 38:-0.25622 39:-0.42044 40:-0.971862 41:-0.886298 42:0.0631882 43:0.0126811 44:-0.257517 45:-0.426625 46:-0.99574 47:-0.964795 48:0.186077 49:0.0490795 50:-0.255446 51:-0.362439 52:-0.967267 53:-0.0981742 54:-0.81447 55:0.244899 56:-0.0651244 57:-0.426515 58:-0.995854 59:-0.536237 60:-0.318389 61:0.276609 62:-0.148353 63:-0.43843 64:-0.957047 65:-0.525814 66:-0.380784 67:0.197984 68:-0.15944 69:-0.450598 70:-0.961974 71:-0.0933433 72:-0.754197 73:0.24853 74:-0.162413 75:-0.452703 76:-0.859748 77:-0.605204 78:-0.223798 79:0.37656 80:-0.049043 81:-0.416431 82:-0.99177 83:-0.251244 84:-0.584458 85:0.280892 86:-0.0718012 87:-0.478616 88:-0.986528 89:-0.485981 90:-0.318824 91:0.293359 92:-0.0794932 93:-0.527325 94:-0.959594 95:-0.261598 96:-0.558843 97:0.0108443 98:-0.316579 99:-0.435859 100:-0.996794 101:-0.812521 102:0.0892414 103:0.47442 104:0.0729214 105:-0.391945 106:-0.997075 107:0.0646201 108:-0.945378 109:0.27252 110:-0.0994351 111:-0.425455 112:-0.938417 113:-0.521753 114:-0.286121 115:0.362986 116:-0.0932884 117:-0.31546 118:-0.993898 119:0.154121 120:-0.894109 121:0.329316 122:-0.0828896 123:-0.286853 124:-0.991715 125:-0.232135 126:-0.598869 127:0.0568361 128:-0.279587 129:-0.294187 130:-0.99674 131:-0.948322 132:0.123914 133:-0.49076 134:-0.659605 135:-0.321269 136:-0.992349 137:-0.65036 138:0.41859 139:0.371344 140:-0.0903588 141:-0.411013 142:-0.996932 143:-0.0347648 144:-0.81419 145:0.210871 146:-0.141236 147:-0.283226 148:-0.98002 149:-0.725653 150:-0.0529132 151:0.39916 152:-0.0821604 153:-0.185936 154:-0.999257 155:0.104242 156:-0.887081 157:0.540364 158:0.0265912 159:-0.199397 160:-0.22011 161:0.30894 162:-0.884038 163:0.145543 164:-0.23959 165:-0.232675 166:-0.997922 167:-0.806209 168:0.00209959 169:0.153726 170:-0.21759 171:-0.202383 172:-0.990909 173:-0.741283 174:-0.000899654 175:-0.511605 176:-0.674371 177:-0.34007 178:0.0442852 179:-1 180:0.101305 
-7633.759149046185 1:0.168508 2:-0.220027 3:-0.429977 4:-0.979432 5:0.278385 7:0.501709 8:-0.0546057 9:-0.31616 10:-0.98133 11:0.327403 12:-0.64341 13:-0.414102 14:-0.620131 15:-0.208594 16:-0.915467 17:0.0861631 18:-0.698475 19:0.594538 20:0.0651866 21:-0.17903 22:-0.989049 23:0.953196 24:-0.303568 25:0.574895 26:0.114701 27:-0.128964 28:-0.980767 29:-0.167383 30:-0.378331 31:0.788725 32:0.236952 33:-0.121057 34:-0.995413 35:0.692886 36:-0.579768 37:0.493811 38:0.0339916 39:-0.0272913 40:-0.912209 41:0.614245 42:-0.656345 43:0.554363 44:0.139636 45:0.0216187 46:-0.967454 47:-0.701924 48:0.0855166 49:0.304221 50:-0.074366 51:0.107455 52:-0.756529 53:0.757542 54:-0.523675 55:0.521204 56:0.143173 57:-0.057792 58:-0.901615 59:1 60:-0.187489 61:-0.366174 62:-0.579961 63:-0.0374432 64:-0.921867 65:0.0340454 66:-0.6733 67:-0.154633 68:-0.406852 69:-0.124288 70:-0.533712 71:0.290218 72:-0.849091 73:0.768044 74:0.186108 75:-0.0641305 76:-0.962859 77:-0.256816 78:-0.360753 79:0.864232 80:0.287851 81:-0.0178913 82:-0.987976 83:0.965051 84:-0.264056 85:0.741767 86:0.263966 87:-0.0126965 88:-0.987812 89:0.362787 90:-0.692192 91:0.0975186 92:-0.218876 93:-0.0870306 94:-0.993433 95:0.490372 96:-0.943471 97:-0.0801023 98:-0.378067 99:0.0345221 100:-0.994252 101:-0.105381 102:-0.518053 103:0.750858 104:0.274083 105:0.0443071 106:-0.988532 107:-0.682482 108:0.0721265 109:0.891459 110:0.339665 111:-0.0893474 112:-0.987268 113:0.8267 114:-0.504494 115:0.923742 116:0.279749 117:0.0512334 118:-0.990575 119:0.661459 120:-0.564558 121:0.880939 122:0.299983 123:0.0628383 124:-0.997558 125:-0.333679 126:-0.23541 127:0.0731538 128:-0.268464 129:0.0145806 130:-0.993431 131:-0.443855 132:-0.203798 133:0.502562 134:0.00436843 135:-0.0247129 136:-0.984762 137:-0.363592 138:-0.213845 139:0.0258038 140:-0.319563 141:-0.0529498 142:-0.995327 143:-0.0625158 144:-0.581522 145:-0.153212 146:-0.399448 147:0.00762199 148:-0.993082 149:0.135746 150:-0.765896 151:0.90846 152:0.256011 153:0.0668112 154:-0.997471 155:-0.0832663 156:-0.526641 157:-0.0619571 158:-0.374832 159:0.00152297 160:-0.995476 161:-0.0466186 162:-0.573492 163:-0.0300667 164:-0.356159 165:0.120783 166:-0.992005 167:-0.321428 168:-0.336202 169:0.646446 170:0.118926 171:-0.0595665 172:-0.99729 173:-0.165406 174:-0.356213 175:0.0373575 176:-0.30836 177:-0.0606967 178:-0.996956 179:-0.778814 180:0.0909116 
