svm_type c_svc
kernel_type rbf
gamma 0.00396825
nr_class 2
total_sv 415
rho -1.00618
label 0 1
nr_sv 247 168
SV
0.4011536340273802 1:0.608638 2:0.0909823 3:-0.316475 4:-0.98187 5:0.709459 7:-0.757432 8:-0.84576 9:-0.190918 10:-0.98985 11:0.579763 12:-0.733295 13:0.429839 14:-0.00954124 15:-0.23583 16:-0.95952 17:0.235428 18:-0.347087 19:0.673268 20:0.107533 21:-0.255028 22:-0.975195 23:0.05461 24:-0.171066 25:0.468912 26:0.0306859 27:-0.338963 28:-0.987193 29:0.491522 30:-0.647035 31:-0.257946 32:-0.477602 33:-0.365842 34:0.199 35:0.823044 36:-0.874056 37:0.0226897 38:-0.274397 39:-0.385722 40:-0.988425 41:0.432135 42:-0.557599 43:-0.111879 44:-0.402212 45:-0.377664 46:-0.98611 47:0.38784 48:-0.530187 49:-0.27497 50:-0.545572 51:-0.416106 52:-0.986636 53:0.643418 54:-0.779968 55:0.576738 56:0.131741 57:-0.327907 58:-0.987381 59:0.846919 60:-0.889311 61:-0.0528857 62:-0.381214 63:-0.337587 64:-0.921912 65:0.776237 66:-0.814935 67:-0.361252 68:-0.571702 69:-0.426686 70:-0.980896 71:0.290066 72:-0.529899 73:0.586136 74:0.0870773 75:-0.424138 76:-0.99782 77:0.158785 78:-0.298598 79:0.207175 80:-0.156299 81:-0.442189 82:-0.182229 83:0.37701 84:-0.617834 85:-0.634984 86:-0.755902 87:-0.429355 88:-0.977444 89:0.0738575 90:-0.314677 91:-0.154149 92:-0.442358 93:-0.401984 94:-0.981506 95:-0.975882 96:0.799512 97:0.206674 98:-0.162285 99:-0.380069 100:-0.987365 101:-0.884369 102:0.895094 103:0.946697 104:0.301035 105:-0.436352 106:-0.99578 107:-0.488198 108:0.365784 109:0.928952 110:0.291661 111:-0.406263 112:-0.959572 113:0.414491 114:-0.566494 115:0.275639 116:-0.145386 117:-0.404324 118:-0.99788 119:-0.407896 120:0.354921 121:0.67588 122:0.113847 123:-0.39791 124:-0.99618 125:-0.01951 126:-0.212362 127:-0.291501 128:-0.522385 129:-0.407431 130:-0.985853 131:0.112653 132:-0.340382 133:0.354046 134:-0.084896 135:-0.394253 136:-0.995986 137:-0.882499 138:0.82445 139:-0.206496 140:-0.447282 141:-0.392071 142:-0.997311 143:0.0313979 144:-0.189165 145:0.199763 146:-0.168233 147:-0.392053 148:-0.98454 149:-0.388479 150:0.341343 151:-0.208611 152:-0.470975 153:-0.387253 154:-0.996287 155:-0.383896 156:0.459493 157:0.440929 158:0.0115086 159:-0.380739 160:-0.994802 161:-0.670592 162:0.444878 163:0.123545 164:-0.250454 165:-0.399283 166:-0.99745 167:0.181518 168:-0.247385 169:-0.515558 170:-0.670499 171:-0.468637 172:-0.995367 173:-0.11006 174:-0.0836754 175:0.636391 176:0.104814 177:-0.477303 178:-0.925935 179:-0.926454 180:0.645282 181:0.867759 182:-0.640697 183:-0.46168 184:-0.46842 185:-0.411498 186:-0.421999 187:-0.454285 188:-0.460183 189:-0.550054 190:-0.570464 191:-0.485411 192:-0.630159 193:-0.607173 194:-0.548746 195:-0.519317 196:-0.583851 197:-0.694478 198:-0.891633 199:0.136658 200:-0.751452 201:-0.69865 202:-0.678141 203:-0.603718 204:-0.708722 205:-0.734726 206:-0.442438 207:-0.696255 208:-0.663492 209:-0.595232 210:-0.80866 211:-0.7429 212:-0.824483 213:-0.883947 214:-0.931325 215:-0.936539 216:-0.940336 217:1 218:-0.888569 219:-0.83985 220:-0.726011 221:-0.721293 222:-0.692197 223:-0.6724 224:-0.664479 225:-0.759147 226:-0.750927 227:-0.602948 228:-0.762026 229:-0.781224 230:-0.728126 231:-0.78735 232:-0.80887 233:-0.808822 234:-1 235:-0.453899 236:-0.804018 237:-0.751062 238:-0.758793 239:-0.689406 240:-0.729728 241:-0.687568 242:-0.54875 243:-0.684564 244:-0.645825 245:-0.563194 246:-0.653404 247:-0.572799 248:-0.523197 249:-0.471883 250:-0.46942 251:-0.633358 252:-0.732082 
0.1384064134700903 1:-0.0129921 2:-0.330609 3:-0.0158925 4:-0.612964 5:0.904341 7:0.606937 8:0.0426611 9:-0.071888 10:-0.990024 11:0.911249 12:-0.9782 13:0.586837 14:0.0992126 15:-0.158239 16:-0.985354 17:0.812841 18:-0.934229 19:-0.725771 20:-0.818489 21:-0.240507 22:-0.936914 23:-0.0205893 24:0.176922 25:-0.683793 26:-0.784745 27:-0.445037 28:-0.968697 29:-0.140361 30:0.310903 31:0.513129 32:0.071969 33:-0.482935 34:-0.951935 35:0.298454 36:-0.306989 37:0.390738 38:-0.0112035 39:-0.493014 40:-0.986818 41:0.0486972 42:0.032197 43:0.107378 44:-0.250751 45:-0.477757 46:-0.989246 47:0.119178 48:-0.0760459 49:0.377279 50:-0.136761 51:-0.477129 52:-0.825474 53:0.344505 54:-0.360746 55:0.730721 56:0.242775 57:-0.380619 58:-0.979378 59:0.680234 60:-0.70628 61:-0.763873 62:-0.852286 63:-0.462221 64:-0.920229 65:-0.309283 66:0.495781 67:0.635921 68:0.116597 69:-0.470677 70:-0.965608 71:0.00721012 72:0.185881 73:0.594588 74:0.0928697 75:-0.446012 76:-0.997425 77:-0.277761 78:0.36852 79:0.334203 80:-0.0675185 81:-0.587018 82:-0.992018 83:-0.0735741 84:0.0889236 85:-0.597575 86:-0.730886 87:-0.600364 88:-0.995674 89:-0.538661 90:0.667897 91:-0.0696027 92:-0.385509 93:-0.581274 94:-0.992782 95:0.232954 96:-0.117252 97:0.270784 98:-0.117778 99:-0.574791 100:-0.98859 101:0.441588 102:-0.300379 103:0.324131 104:-0.115045 105:-0.601164 106:-0.99075 107:-0.409482 108:0.441308 109:0.306984 110:-0.12482 111:-0.581654 112:-0.966129 113:0.690184 114:-0.622882 115:0.940405 116:0.299973 117:-0.575474 118:-0.998468 119:-0.932299 120:0.877649 121:0.602034 122:0.0647668 123:-0.577414 124:-0.99037 125:0.180083 126:-0.219666 127:-0.620062 128:-0.743875 129:-0.565696 130:-0.993352 131:0.0532651 132:-0.0872765 133:0.917827 134:0.296124 135:-0.560759 136:-0.994139 137:0.241476 138:-0.180783 139:-0.231917 140:-0.46523 141:-0.555521 142:-0.989564 143:0.362666 144:-0.349562 145:0.660108 146:0.153023 147:-0.55333 148:-0.991975 149:0.158532 150:-0.0615369 151:0.171977 152:-0.216562 153:-0.552746 154:-0.998753 155:-0.183268 156:0.409122 157:0.655049 158:0.161818 159:-0.618585 160:-0.997236 161:0.0417295 162:0.0247765 163:-0.465749 164:-0.64978 165:-0.64335 166:-0.997549 167:-0.589088 168:0.762418 169:-0.649648 170:-0.763652 171:-0.640951 172:-0.996242 173:-0.510754 174:0.570237 175:-0.702879 176:-0.799687 177:-0.643025 178:-0.989226 179:-0.273288 180:0.271318 181:1 182:0.0138066 183:-0.0278136 184:-0.25557 185:-0.32297 186:-0.359451 187:-0.389431 188:-0.434861 189:-0.554158 190:-0.522881 191:-0.50192 192:-0.550368 193:-0.588959 194:-0.636635 195:-0.579235 196:-0.648463 197:-0.677068 198:-0.74009 199:0.0179876 200:-0.737599 201:-0.760046 202:-0.77 203:-0.727063 204:-0.757797 205:-0.732805 206:-0.689456 207:-0.721076 208:-0.776801 209:-0.751956 210:-0.84784 211:-0.830786 212:-0.848336 213:-0.88834 214:-0.919947 215:-0.916215 216:-0.932751 217:0.196673 218:-0.847147 219:-0.852902 220:-0.8108 221:-0.813148 222:-0.811432 223:-0.818601 224:-0.823716 225:-0.88058 226:-0.835049 227:-0.778884 228:-0.865743 229:-0.86778 230:-0.840666 231:-0.874541 232:-0.855749 233:-0.870234 234:-1 235:-0.666744 236:-0.853782 237:-0.821011 238:-0.812037 239:-0.757043 240:-0.779486 241:-0.787795 242:-0.622446 243:-0.75679 244:-0.709396 245:-0.632477 246:-0.68876 247:-0.624976 248:-0.566583 249:-0.507622 250:-0.346352 251:-0.42668 252:-0.447702 
1 1:0.338936 2:-0.0919307 3:0.0406433 4:-0.938493 5:0.0802414 7:0.321605 8:-0.143136 9:-0.109584 10:-0.941942 11:0.116855 12:-0.929787 13:0.497132 14:0.0370728 15:-0.182202 16:-0.974798 17:0.451232 18:-0.313989 19:0.545849 20:0.0231949 21:-0.238018 22:-0.929056 23:0.550041 24:-0.13419 25:0.269777 26:-0.110183 27:-0.205764 28:-0.936682 29:-0.204037 30:-0.707779 31:0.181827 32:-0.164161 33:-0.234677 34:-0.941901 35:0.225426 36:-0.371415 37:0.532494 38:0.0901676 39:-0.34499 40:-0.988094 41:0.662956 42:-0.0187492 43:0.583724 44:0.0783044 45:-0.350601 46:-0.983565 47:0.205531 48:-0.58482 49:0.102496 50:-0.308987 51:-0.412376 52:-0.944565 53:0.0373771 54:-0.457109 55:0.0639232 56:-0.23804 57:-0.284305 58:-0.977984 59:-0.134871 60:-0.0288293 61:0.637062 62:0.0759189 63:-0.25398 64:-0.960899 65:0.468601 66:-0.437272 67:0.293199 68:-0.119967 69:-0.26578 70:-0.951079 71:-0.118126 72:-0.760566 73:0.389138 74:-0.0479381 75:-0.216944 76:-0.997483 77:0.151634 78:-0.416714 79:0.955402 80:0.366641 81:-0.29515 82:-0.989859 83:-0.256428 84:-0.0290446 85:0.361524 86:-0.0895067 87:-0.303555 88:-0.996394 89:-0.0779664 90:-0.612005 91:0.956992 92:0.304767 93:-0.271006 94:-0.996185 95:-0.380585 96:-0.0939802 97:0.0273715 98:-0.286763 99:-0.246544 100:-0.996139 101:-0.18552 102:-0.0630403 103:0.488675 104:-0.00507479 105:-0.229845 106:-0.995732 107:0.0163125 108:-0.615858 109:0.655769 110:0.108733 111:-0.315511 112:-0.996277 113:0.323832 114:-0.489556 115:0.0586535 116:-0.290755 117:-0.350589 118:-0.994879 119:-0.545347 120:0.0356195 121:0.394628 122:-0.0730822 123:-0.348462 124:-0.987781 125:-0.296473 126:-0.595951 127:0.398759 128:-0.0570652 129:-0.324902 130:-0.99824 131:-0.179766 132:-0.416526 133:0.304587 134:-0.118322 135:-0.337866 136:-0.974005 137:-0.0544567 138:-0.524107 139:0.409284 140:-0.0125283 141:-0.320443 142:-0.997077 143:-0.24847 144:-0.579272 145:0.68752 146:0.172153 147:-0.319928 148:-0.974579 149:-0.862023 150:0.230831 151:0.639613 152:0.0960419 153:-0.411619 154:-0.986422 155:-0.837551 156:0.348007 157:0.916827 158:0.345581 159:-0.462333 160:-0.996474 161:-0.238881 162:-0.571092 163:0.46955 164:-0.0159894 165:-0.501728 166:-0.987197 167:-0.901135 168:0.220384 169:0.674909 170:0.156521 171:-0.514177 172:-0.996762 173:-0.904152 174:0.119678 175:0.236586 176:-0.165201 177:-0.569485 178:-0.995895 179:-0.406128 180:-0.44183 181:0.388675 182:-0.883752 183:-0.84461 184:-0.889361 185:-0.879569 186:-0.888945 187:-0.839001 188:-0.916945 189:-0.89266 190:-0.84963 191:-0.949701 192:-0.871676 193:-0.880249 194:-0.926278 195:-0.883343 196:-0.874772 197:-0.852149 198:-0.918902 199:0.253259 200:-0.838773 201:-0.850385 202:-0.865741 203:-0.845031 204:-0.837898 205:-0.812817 206:-0.83317 207:-0.731721 208:-0.747525 209:-0.797586 210:-0.788644 211:-0.810975 212:-0.805514 213:-0.858083 214:-0.895762 215:-0.905133 216:-0.89222 217:1 218:-0.806877 219:-0.789017 220:-0.738727 221:-0.729859 222:-0.762518 223:-0.701824 224:-0.822352 225:-0.825811 226:-0.784736 227:-0.855184 228:-0.822604 229:-0.869786 230:-0.896851 231:-0.894605 232:-0.885505 233:-0.879044 234:-1 235:-0.89496 236:-0.897912 237:-0.911932 238:-0.945385 239:-0.944731 240:-0.917559 241:-0.902858 242:-0.94007 243:-0.908577 244:-0.914946 245:-0.947851 246:-0.913684 247:-0.930149 248:-0.917565 249:-0.902233 250:-0.887321 251:-0.903648 252:-0.963765 
1 1:0.205337 2:-0.182538 3:-0.179173 4:-0.936057 5:0.0601989 7:0.178196 8:-0.236518 9:-0.149492 10:-0.949182 11:0.119998 12:-0.921504 13:0.40553 14:-0.0263802 15:-0.366277 16:-0.968873 17:0.37253 18:-0.387361 19:0.486863 20:-0.0158477 21:-0.433163 22:-0.954 23:0.553973 24:-0.128874 25:0.401713 26:-0.0168513 27:-0.364409 28:-0.956386 29:0.745418 30:0.0635338 31:0.140561 32:-0.193572 33:-0.372445 34:-0.942635 35:-0.238911 36:-0.710855 37:0.0902495 38:-0.226085 39:-0.420064 40:-0.957802 41:0.189144 42:-0.404518 43:0.47802 44:0.0052849 45:-0.42516 46:-0.985925 47:0.37446 48:-0.459584 49:0.0993088 50:-0.310985 51:-0.456557 52:-0.930323 53:-0.115722 54:-0.784862 55:0.0739207 56:-0.230831 57:-0.504029 58:-0.973056 59:0.0661036 60:-0.410189 61:0.55266 62:0.0199976 63:-0.509129 64:-0.984373 65:0.186541 66:-0.613566 67:0.856532 68:0.268874 69:-0.518367 70:-0.960506 71:-0.216111 72:-0.0373022 73:0.357276 74:-0.0697745 75:-0.459318 76:-0.996715 77:-0.0674331 78:-0.651448 79:0.832338 80:0.280631 81:-0.461418 82:-0.995632 83:-0.494691 84:-0.0511566 85:-0.065204 86:-0.374873 87:-0.475315 88:-0.983967 89:-0.385687 90:0.0117625 91:0.293677 92:-0.141242 93:-0.449618 94:-0.985778 95:0.100787 96:-0.505955 97:0.316821 98:-0.0858175 99:-0.497542 100:-0.996456 101:-0.173947 102:-0.401442 103:0.536851 104:0.0271225 105:-0.521506 106:-0.997416 107:0.118084 108:-0.636889 109:0.44787 110:-0.0304797 111:-0.522524 112:-0.99103 113:0.336423 114:-0.469801 115:0.308925 116:-0.123086 117:-0.57778 118:-0.998386 119:-0.241956 120:-0.595622 121:0.550103 122:0.0302517 123:-0.560157 124:-0.978009 125:-0.845927 126:0.260735 127:0.876163 128:0.264763 129:-0.556424 130:-0.994692 131:-0.344823 132:-0.55288 133:0.266733 134:-0.143905 135:-0.559556 136:-0.988421 137:-0.212288 138:-0.53053 139:0.91392 140:0.343755 141:-0.551832 142:-0.99744 143:-0.354129 144:-0.477556 145:1 146:0.39022 147:-0.576917 148:-0.993515 149:-0.503672 150:-0.03255 151:0.195909 152:-0.200564 153:-0.571772 154:-0.976979 155:-0.333365 156:-0.447253 157:0.761604 158:0.236617 159:-0.562241 160:-0.997484 161:-0.242717 162:-0.596497 163:0.172889 164:-0.217017 165:-0.571007 166:-0.992361 167:-0.145093 168:-0.493646 169:0.023583 170:-0.295956 171:-0.611987 172:-0.997696 173:-0.696969 174:0.0103966 175:0.215871 176:-0.179191 177:-0.653633 178:-0.996598 179:-0.773058 180:-0.0243369 181:0.339059 182:-0.883552 183:-0.831625 184:-0.870888 185:-0.844126 186:-0.856829 187:-0.807159 188:-0.882223 189:-0.846513 190:-0.80954 191:-0.934334 192:-0.818692 193:-0.836284 194:-0.880894 195:-0.82105 196:-0.813946 197:-0.801553 198:-0.896028 199:0.230949 200:-0.787325 201:-0.784545 202:-0.766117 203:-0.777384 204:-0.723187 205:-0.695894 206:-0.762958 207:-0.564991 208:-0.595129 209:-0.656364 210:-0.671761 211:-0.673416 212:-0.670997 213:-0.759274 214:-0.834667 215:-0.869138 216:-0.873066 217:1 218:-0.758272 219:-0.719875 220:-0.663601 221:-0.653571 222:-0.679725 223:-0.639134 224:-0.776206 225:-0.771647 226:-0.723332 227:-0.842909 228:-0.772022 229:-0.825931 230:-0.864962 231:-0.870593 232:-0.851749 233:-0.867115 234:-1 235:-0.909517 236:-0.873123 237:-0.891349 238:-0.927813 239:-0.918469 240:-0.902623 241:-0.876646 242:-0.935228 243:-0.888227 244:-0.892821 245:-0.926401 246:-0.879827 247:-0.893721 248:-0.874245 249:-0.856155 250:-0.824506 251:-0.855715 252:-0.952379 
0.4445911529213443 1:0.496746 2:0.0150965 3:-0.152685 4:-0.977404 5:0.525137 7:-0.274618 8:-0.531372 9:-0.0337243 10:-0.97395 11:0.752331 12:-0.578631 13:0.0558961 14:-0.268574 15:-0.0357936 16:-0.978948 17:0.71296 18:-0.664462 19:0.198002 20:-0.207044 21:-0.107195 22:-0.962074 23:0.478482 24:-0.897552 25:-0.35763 26:-0.554015 27:-0.0175355 28:-0.923364 29:0.749653 30:-0.623913 31:0.508413 32:0.0686078 33:-0.0191083 34:-0.931676 35:0.87072 36:-0.502416 37:0.707462 38:0.215288 39:-0.0150017 40:-0.992332 41:0.041562 42:-0.413553 43:-0.193559 44:-0.458636 45:-0.00227107 46:-0.99342 47:0.80906 48:-0.584504 49:0.00237037 50:-0.371743 51:-0.0100867 52:-0.976105 53:0.517726 54:-0.863256 55:-0.214308 56:-0.438667 57:0.220194 58:-0.966072 59:0.541619 60:-0.809586 61:-0.848627 62:-0.908441 63:0.286393 64:-0.988774 65:0.321636 66:-0.592889 67:0.374034 68:-0.0641711 69:0.259692 70:-0.752908 71:1 72:-0.323424 73:-0.186153 74:-0.44222 75:0.389641 76:-0.956204 77:0.748708 78:-0.67361 79:0.0467624 80:-0.268412 81:0.39261 82:-0.996788 83:0.57123 84:-0.88075 85:-0.00109842 86:-0.332003 87:0.446384 88:-0.997673 89:0.875905 90:-0.510821 91:-0.124086 92:-0.422144 93:0.241497 94:-0.997251 95:0.695092 96:-0.831821 97:-0.507833 98:-0.658321 99:0.139225 100:-0.985867 101:0.628425 102:-0.74087 103:-0.161999 104:-0.439939 105:0.0585835 106:-0.981037 107:0.268316 108:-0.620262 109:0.40219 110:-0.0610681 111:0.0870848 112:-0.996074 113:0.214556 114:-0.566546 115:0.765134 116:0.182551 117:0.106948 118:-0.994742 119:0.649795 120:-0.478213 121:0.183813 122:-0.213197 123:0.0514563 124:-0.995607 125:0.317461 126:-0.692574 127:-0.513578 128:-0.672092 129:0.0573 130:-0.990311 131:0.390893 132:-0.644578 133:-0.0148278 134:-0.334192 135:0.0139716 136:-0.991293 137:0.17685 138:-0.437242 139:-0.132239 140:-0.394855 141:-0.0247 142:-0.997345 143:0.296641 144:-0.626746 145:-0.226498 146:-0.465703 147:-0.0801944 148:-0.991618 149:0.371166 150:-0.614037 151:-0.473505 152:-0.648051 153:-0.27607 154:-0.997622 155:0.243441 156:-0.427754 157:0.705501 158:0.197234 159:-0.33868 160:-0.995271 161:-0.394894 162:0.0395385 163:0.0463989 164:-0.302731 165:-0.340613 166:-0.985715 167:-0.0352429 168:-0.255968 169:-0.154853 170:-0.419916 171:-0.375386 172:-0.998264 173:0.0182442 174:-0.384243 175:-0.146314 176:-0.4238 177:-0.53586 178:-0.998291 179:-0.0880184 180:-0.285043 181:0.496794 182:-0.46481 183:-0.416203 184:-0.529874 185:-0.511215 186:-0.581148 187:-0.489303 188:-0.645502 189:-0.666833 190:-0.613295 191:-0.699082 192:-0.600826 193:-0.651469 194:-0.677534 195:-0.593827 196:-0.594893 197:-0.581913 198:-0.512495 199:0.2972 200:-0.580965 201:-0.553222 202:-0.525105 203:-0.440576 204:-0.470339 205:-0.476043 206:-0.308501 207:-0.302176 208:-0.348439 209:-0.388951 210:-0.557565 211:-0.554717 212:-0.588256 213:-0.743714 214:-0.834356 215:-0.847668 216:-0.778518 217:1 218:-0.713364 219:-0.723211 220:-0.643171 221:-0.615204 222:-0.642179 223:-0.549324 224:-0.695082 225:-0.69374 226:-0.653906 227:-0.741671 228:-0.693131 229:-0.77265 230:-0.821307 231:-0.838943 232:-0.826328 233:-0.817542 234:-1 235:-0.705194 236:-0.85679 237:-0.830077 238:-0.847307 239:-0.825358 240:-0.830529 241:-0.792304 242:-0.760475 243:-0.756111 244:-0.771837 245:-0.747114 246:-0.739652 247:-0.708453 248:-0.674834 249:-0.626659 250:-0.555128 251:-0.664326 252:-0.636874 
0.2760076833558382 1:-0.967049 2:-0.977653 3:0.0024954 4:-0.979468 5:0.029916 7:-0.198038 8:-0.481506 9:-0.112727 10:-0.974712 11:0.743083 12:0.225 13:-0.0716413 14:-0.35692 15:-0.102756 16:-0.933776 17:0.557477 18:-0.0763343 19:0.682253 20:0.113481 21:-0.0836294 22:-0.975519 23:0.392818 24:-0.297817 25:0.0124341 26:-0.292229 27:-0.0170482 28:-0.980922 29:0.809351 30:0.200188 31:0.270785 32:-0.100757 33:-0.0351616 34:-0.961343 35:0.543465 36:-0.123468 37:-0.161266 38:-0.405945 39:-0.0342783 40:-0.993435 41:0.432343 42:-0.19741 43:-0.0300386 44:-0.345677 45:-0.0239001 46:-0.991514 47:0.803209 48:0.159827 49:-0.291027 50:-0.555636 51:-0.0451546 52:-0.975802 53:0.651944 54:0.00678541 55:-0.194283 56:-0.424227 57:0.12842 58:-0.962844 59:0.687945 60:-0.0156558 61:0.244928 62:-0.183894 63:0.164344 64:-0.774142 65:0.886793 66:0.159053 67:0.188408 68:-0.192299 69:0.177941 70:-0.982344 71:0.547809 72:-0.0613679 73:-0.228837 74:-0.471474 75:0.242922 76:-0.998485 77:0.580795 78:-0.0938675 79:0.552063 80:0.0847451 81:0.205038 82:-0.913594 83:1 84:0.409196 85:0.920328 86:0.284183 87:0.234089 88:-0.996578 89:0.0117213 90:-0.761165 91:0.782435 92:0.187396 93:0.258015 94:-0.995753 95:0.142471 96:-0.775571 97:-0.0540468 98:-0.343287 99:0.231929 100:-0.996878 101:0.69547 102:-0.1451 103:0.0576813 104:-0.293121 105:0.262197 106:-0.989466 107:0.315305 108:-0.318057 109:-0.330949 110:-0.551991 111:0.110452 112:-0.977493 113:0.488789 114:-0.21194 115:0.166389 116:-0.218578 117:0.126122 118:-0.998604 119:0.329779 120:-0.391214 121:-0.111366 122:-0.409383 123:-0.0751583 124:-0.993998 125:0.228627 126:-0.321446 127:-0.0183016 128:-0.338215 129:-0.0450708 130:-0.99822 131:0.297664 132:-0.347021 133:0.930333 134:0.304576 135:-0.0355537 136:-0.995537 137:0.686556 138:0.0760388 139:0.175522 140:-0.177569 141:-0.0451584 142:-0.986569 143:0.0749403 144:-0.316299 145:-0.0236121 146:-0.324117 147:-0.042081 148:-0.993684 149:0.191589 150:-0.419419 151:-0.315951 152:-0.54273 153:-0.0959185 154:-0.994516 155:0.322527 156:-0.279914 157:-0.96808 158:-0.977592 159:-0.113644 160:-0.996965 161:-0.044796 162:-0.316853 163:0.389427 164:-0.0702834 165:-0.124721 166:-0.996414 167:0.366586 168:-0.447988 169:-0.11309 170:-0.390904 171:-0.143623 172:-0.998361 173:-0.188962 174:-0.565256 175:0.313865 176:-0.113009 177:-0.358474 178:-0.992405 179:-0.0238852 180:-0.36116 181:0.745678 182:-0.589001 183:-0.560432 184:-0.617373 185:-0.617241 186:-0.652948 187:-0.523371 188:-0.732449 189:-0.704587 190:-0.620043 191:-0.738215 192:-0.642713 193:-0.696835 194:-0.704439 195:-0.591485 196:-0.626617 197:-0.572133 198:-0.376249 199:0.526261 200:-0.662267 201:-0.604263 202:-0.562014 203:-0.495263 204:-0.419188 205:-0.41515 206:-0.362394 207:-0.316531 208:-0.368013 209:-0.454031 210:-0.588324 211:-0.576061 212:-0.613911 213:-0.750491 214:-0.850675 215:-0.875673 216:-0.823833 217:1 218:-0.779093 219:-0.762977 220:-0.696001 221:-0.676402 222:-0.67197 223:-0.593607 224:-0.739061 225:-0.738185 226:-0.708683 227:-0.780069 228:-0.749451 229:-0.81968 230:-0.82663 231:-0.859525 232:-0.829565 233:-0.827911 234:-1 235:-0.757719 236:-0.850634 237:-0.826841 238:-0.873154 239:-0.859239 240:-0.840888 241:-0.818655 242:-0.774956 243:-0.746521 244:-0.766383 245:-0.777173 246:-0.725889 247:-0.704381 248:-0.663757 249:-0.612972 250:-0.558241 251:-0.633428 252:-0.70366 
0.3374108316451829 1:0.877809 2:0.632615 3:0.411647 4:-0.967973 5:0.0251629 7:0.889446 8:0.574188 9:0.179812 10:-0.953324 11:-0.0153787 12:0.0481246 13:0.329737 14:0.184473 15:-0.0866536 16:-0.967168 17:0.687087 18:0.231163 19:0.686237 20:0.433131 21:-0.0798104 22:-0.94359 23:0.66089 24:0.223272 25:0.0668271 26:-0.0377742 27:0.0190513 28:-0.969409 29:0.175571 30:0.0374436 31:0.324938 32:0.207701 33:-0.0814653 34:-0.952493 35:0.143583 36:-0.00374213 37:0.656096 38:0.514969 39:-0.20555 40:-0.98427 41:0.633894 42:0.208173 43:0.530626 44:0.346497 45:-0.186969 46:-0.996256 47:0.0170386 48:0.112862 49:0.838149 50:0.498567 51:-0.255719 52:-0.965529 53:-0.408826 54:-0.0794897 55:0.673033 56:0.543346 57:-0.119535 58:-0.978754 59:0.4265 60:-0.00785254 61:0.594625 62:0.350969 63:-0.234981 64:-0.98918 65:-0.144222 66:0.0484747 67:0.319771 68:0.169841 69:-0.227026 70:-0.98994 71:-0.131083 72:-0.0047572 73:0.547925 74:0.367297 75:-0.243325 76:-0.995111 77:-0.339703 78:-0.273379 79:0.462265 80:0.3121 81:-0.263573 82:-0.993236 83:-0.0154176 84:-0.0371753 85:0.410398 86:0.226282 87:-0.385092 88:-0.996084 89:-0.306205 90:0.0523993 91:0.425514 92:0.225114 93:-0.351113 94:-0.996975 95:-0.086125 96:0.000784102 97:0.199455 98:0.094063 99:-0.35363 100:-0.995979 101:0.0946364 102:-0.255423 103:0.92302 104:0.651224 105:-0.440061 106:-0.991383 107:-0.0700202 108:-0.115819 109:0.767144 110:0.522835 111:-0.435685 112:-0.996154 113:-0.470642 114:-0.177747 115:0.860448 116:0.607828 117:-0.471176 118:-0.994603 119:-0.397012 120:-0.26156 121:0.859813 122:0.599714 123:-0.454401 124:-0.997763 125:0.0122685 126:-0.16413 127:0.411498 128:0.227228 129:-0.492667 130:-0.995015 131:-0.382919 132:-0.0562655 133:0.162006 134:0.0140545 135:-0.506011 136:-0.992834 137:-0.301092 138:-0.181556 139:0.430645 140:0.291682 141:-0.527164 142:-0.96604 143:-0.451433 144:0.00984107 145:0.890889 146:0.692305 147:-0.533066 148:-0.9812 149:0.166954 150:-0.12633 151:0.869802 152:0.605005 153:-0.53668 154:-0.997645 155:-0.121565 156:-0.163813 157:0.295422 158:0.179316 159:-0.521815 160:-0.998042 161:-0.266461 162:-0.219098 163:0.294569 164:0.117747 165:-0.562129 166:-0.997171 167:-0.231471 168:-0.29102 169:0.564941 170:0.388483 171:-0.567842 172:-0.995483 173:-0.631444 174:-0.171655 175:0.836071 176:0.599965 177:-0.614497 178:-0.992963 179:-0.0722188 180:-0.1344 181:0.171418 182:-0.863241 183:-0.864123 184:-0.871245 185:-0.866278 186:-0.869153 187:-0.873007 188:-0.867472 189:-0.90548 190:-0.912762 191:-0.922298 192:-0.926697 193:-0.940689 194:-0.949282 195:-0.948882 196:-0.951234 197:-0.942827 198:-0.922841 199:-0.190847 200:-0.913915 201:-0.925438 202:-0.943464 203:-0.934087 204:-0.928052 205:-0.890724 206:-0.942378 207:-0.862368 208:-0.892045 209:-0.90951 210:-0.887915 211:-0.913436 212:-0.895373 213:-0.927798 214:-0.950165 215:-0.939287 216:-0.866407 217:1 218:-0.807853 219:-0.843649 220:-0.840655 221:-0.838946 222:-0.865655 223:-0.834531 224:-0.921835 225:-0.920244 226:-0.880748 227:-0.943819 228:-0.900888 229:-0.952108 230:-0.963655 231:-0.96854 232:-0.946023 233:-0.956573 234:-1 235:-0.974801 236:-0.956551 237:-0.955931 238:-0.979487 239:-0.970878 240:-0.974988 241:-0.94279 242:-0.931565 243:-0.942833 244:-0.947887 245:-0.936529 246:-0.944568 247:-0.93053 248:-0.923641 249:-0.921063 250:-0.894106 251:-0.905482 252:-0.927037 
1 1:0.299567 2:-0.118631 3:0.34241 4:-0.970366 5:0.179988 7:0.520213 8:-0.0138102 9:0.451394 10:-0.986161 11:0.194137 12:-0.9772 13:0.293425 14:-0.104036 15:0.462031 16:-0.968001 17:0.115449 18:-0.972192 19:0.309513 20:-0.133236 21:0.436992 22:-0.922135 23:0.112655 24:-0.962834 25:0.267924 26:-0.111494 27:0.462314 28:-0.982533 29:0.110129 30:-0.92657 31:0.212314 32:-0.142432 33:0.241383 34:-0.940133 35:0.0159448 36:-0.840376 37:0.303881 38:-0.0733153 39:0.216514 40:-0.985794 41:0.0238001 42:-0.860687 43:0.38145 44:-0.0614248 45:0.131479 46:-0.971428 47:0.0215919 48:-0.833236 49:0.38713 50:-0.130587 51:0.113147 52:-0.687368 53:0.00713919 54:-0.794131 55:0.407843 56:0.00995406 57:0.36593 58:-0.975112 59:0.0388114 60:-0.820413 61:0.466276 62:-0.0372371 63:0.293612 64:-0.963423 65:0.0832309 66:-0.823006 67:-0.85435 68:-0.912064 69:0.309671 70:-0.987464 71:-0.249913 72:-0.520149 73:0.452036 74:-0.00482996 75:0.383735 76:-0.990462 77:-0.0471072 78:-0.779087 79:0.409828 80:-0.0146634 81:0.338745 82:-0.995131 83:-0.0107247 84:-0.772953 85:-0.456322 86:-0.636425 87:0.362952 88:-0.992434 89:-0.212944 90:-0.578059 91:0.278882 92:-0.15119 93:0.392014 94:-0.986148 95:0.0246664 96:-0.74333 97:0.4615 98:0.0146236 99:0.288984 100:-0.993606 101:0.128555 102:-0.821519 103:0.453553 104:-0.0285478 105:0.269275 106:-0.990947 107:-0.126764 108:-0.638933 109:0.397017 110:-0.0645321 111:0.239674 112:-0.995602 113:-0.14492 114:-0.577563 115:0.235624 116:-0.172194 117:0.241486 118:-0.981721 119:-0.118365 120:-0.585141 121:0.180186 122:-0.215608 123:0.141268 124:-0.988806 125:-0.204493 126:-0.598595 127:0.323788 128:-0.107605 129:0.0983496 130:-0.992556 131:-0.557937 132:-0.165821 133:0.3473 134:-0.089455 135:0.0335201 136:-0.932131 137:-0.123689 138:-0.594739 139:0.380206 140:-0.033058 141:-0.142407 142:-0.962467 143:-0.228771 144:-0.523324 145:0.301538 146:-0.0972084 147:-0.28852 148:-0.993937 149:-0.242828 150:-0.482311 151:0.498154 152:0.00147959 153:-0.309616 154:-0.995221 155:-0.235626 156:-0.42416 157:-0.766777 158:-0.836281 159:-0.291519 160:-0.996496 161:-0.52727 162:-0.228054 163:-0.201761 164:-0.470893 165:-0.354536 166:-0.979357 167:-0.359859 168:-0.381069 169:0.448884 170:-0.000498768 171:-0.392715 172:-0.995458 173:-0.259807 174:-0.49688 175:0.473126 176:-0.00544991 177:-0.517713 178:-0.99818 179:-0.306438 180:-0.437262 181:0.0149161 182:-0.666774 183:-0.704768 184:-0.751322 185:-0.774541 186:-0.831681 187:-0.80751 188:-0.850246 189:-0.877638 190:-0.872819 191:-0.741579 192:-0.887701 193:-0.914855 194:-0.912773 195:-0.918927 196:-0.94808 197:-0.961186 198:-1 199:-0.163587 200:-0.959214 201:-0.963746 202:-0.953475 203:-0.903871 204:-0.963167 205:-0.945569 206:-0.435194 207:-0.921307 208:-0.935162 209:-0.790894 210:-0.939497 211:-0.916342 212:-0.930338 213:-0.954904 214:-0.964632 215:-0.955032 216:-0.95559 217:1 218:-0.775715 219:-0.835068 220:-0.848894 221:-0.853393 222:-0.857691 223:-0.842536 224:-0.824115 225:-0.9075 226:-0.887456 227:-0.628975 228:-0.908356 229:-0.934851 230:-0.92051 231:-0.945546 232:-0.945048 233:-0.953399 234:-0.966737 235:-0.238229 236:-0.951793 237:-0.953607 238:-0.97216 239:-0.948789 240:-0.965402 241:-0.946638 242:-0.79428 243:-0.933041 244:-0.938526 245:-0.927852 246:-0.928867 247:-0.931498 248:-0.906618 249:-0.897638 250:-0.880563 251:-0.898916 252:-0.931317 
1 1:0.677885 2:0.137945 3:-0.115687 4:-0.971923 5:0.341145 7:0.820039 8:0.181424 9:-0.0157568 10:-0.979891 11:0.614633 12:-0.138369 13:0.520317 14:0.0531337 15:-0.303565 16:-0.944393 17:0.559663 18:-0.293101 19:0.592324 20:0.0539569 21:-0.295744 22:-0.659723 23:0.664413 24:-0.195244 25:0.680395 26:0.180291 27:-0.24155 28:-0.853292 29:0.731547 30:-0.157101 31:0.887681 32:0.338925 33:-0.234971 34:-0.945109 35:0.630031 36:-0.254835 37:0.330985 38:-0.0539328 39:-0.303186 40:-0.931353 41:0.67896 42:-0.179976 43:0.456754 44:-0.00940511 45:-0.282481 46:-0.994266 47:0.736632 48:-0.172126 49:0.101612 50:-0.309541 51:-0.274491 52:-0.984085 53:0.470709 54:-0.280385 55:0.585719 56:0.138217 57:-0.185261 58:-0.874959 59:0.81649 60:-0.139263 61:0.202783 62:-0.211817 63:-0.27559 64:-0.975398 65:0.503232 66:-0.301959 67:0.511671 68:0.0308333 69:-0.277216 70:-0.982145 71:0.383002 72:-0.189822 73:0.484862 74:0.0176682 75:-0.257901 76:-0.982641 77:0.57219 78:-0.290035 79:0.1414 80:-0.20227 81:-0.282112 82:-0.994886 83:0.397025 84:-0.295115 85:0.437716 86:-0.0385549 87:-0.279015 88:-0.994051 89:0.575601 90:-0.190037 91:0.181681 92:-0.216548 93:-0.258947 94:-0.985346 95:0.510546 96:-0.339352 97:0.738339 98:0.206815 99:-0.242491 100:-0.987633 101:1 102:-0.13212 103:0.71273 104:0.144667 105:-0.30832 106:-0.995562 107:-0.713552 108:0.454261 109:0.703993 110:0.141024 111:-0.330616 112:-0.992348 113:0.894814 114:-0.131123 115:0.170904 116:-0.215553 117:-0.340106 118:-0.99568 119:0.403669 120:-0.457145 121:0.502094 122:-0.00165691 123:-0.328598 124:-0.995072 125:0.271228 126:-0.394685 127:0.921374 128:0.295241 129:-0.3126 130:-0.996795 131:0.0627739 132:-0.352434 133:0.193382 134:-0.193478 135:-0.289051 136:-0.991216 137:0.45577 138:-0.377784 139:0.13621 140:-0.205324 141:-0.277555 142:-0.994656 143:0.101835 144:-0.354251 145:0.618993 146:0.124331 147:-0.304198 148:-0.984906 149:0.588649 150:-0.384242 151:0.274361 152:-0.148121 153:-0.308327 154:-0.992492 155:0.109495 156:-0.352049 157:0.172735 158:-0.176759 159:-0.35075 160:-0.996331 161:0.38029 162:-0.352644 163:0.199715 164:-0.198839 165:-0.37704 166:-0.996541 167:0.216838 168:-0.415609 169:0.672486 170:0.154838 171:-0.391174 172:-0.985259 173:0.602089 174:-0.391882 175:0.0524983 176:-0.289528 177:-0.385692 178:-0.99848 179:0.182079 180:-0.43646 181:0.734345 182:-0.00663912 183:0.23633 184:-0.0270183 185:-0.264917 186:-0.497333 187:-0.374932 188:-0.654954 189:-0.615182 190:-0.582875 191:-0.776199 192:-0.720351 193:-0.753164 194:-0.789742 195:-0.771385 196:-0.808388 197:-0.792335 198:-0.810725 199:0.054568 200:-0.779533 201:-0.764935 202:-0.752033 203:-0.688149 204:-0.716431 205:-0.691558 206:-0.595895 207:-0.565889 208:-0.565128 209:-0.536583 210:-0.636087 211:-0.584269 212:-0.557333 213:-0.66614 214:-0.750503 215:-0.732859 216:-0.57373 217:1 218:-0.63423 219:-0.689273 220:-0.627463 221:-0.616307 222:-0.633436 223:-0.650975 224:-0.676332 225:-0.771777 226:-0.758036 227:-0.712605 228:-0.810128 229:-0.82325 230:-0.817303 231:-0.864795 232:-0.858819 233:-0.857655 234:-1 235:-0.747929 236:-0.863089 237:-0.838413 238:-0.861579 239:-0.839744 240:-0.817572 241:-0.815133 242:-0.778101 243:-0.746448 244:-0.733287 245:-0.741152 246:-0.714158 247:-0.68242 248:-0.645583 249:-0.57432 250:-0.418172 251:-0.418996 252:-0.346793 
0.01318571016948 1:0.040894 2:0.0675571 3:0.0220042 4:-0.929832 5:-0.108244 7:-0.747716 8:-0.75077 9:-0.035078 10:-0.988361 11:-0.410879 12:-0.563498 13:-0.969295 14:-0.958136 15:-0.190555 16:-0.954528 17:-0.456553 18:0.48633 19:-0.0944269 20:-0.0892476 21:-0.163759 22:-0.895822 23:-0.304146 24:-0.817158 25:-0.46989 26:-0.43529 27:-0.0773868 28:-0.986474 29:-0.407316 30:-0.685043 31:-0.699711 32:-0.674344 33:-0.085128 34:-0.862634 35:-0.287237 36:0.680715 37:-0.498349 38:-0.456823 39:-0.0809823 40:-0.943372 41:-0.647691 42:-0.21624 43:-0.415137 44:-0.391388 45:-0.0832461 46:-0.980506 47:-0.416653 48:-0.681246 49:-0.928225 50:-0.889109 51:-0.0872851 52:-0.965752 53:-0.455624 54:-0.550872 55:-0.904604 56:-0.893714 57:0.0834269 58:-0.983405 59:-0.425533 60:-0.591138 61:-0.569092 62:-0.565545 63:0.0575254 64:-0.912958 65:-0.674355 66:-0.166342 67:-0.669498 68:-0.639443 69:0.0131336 70:-0.921425 71:-0.302165 72:0.748015 73:-0.349213 74:-0.311428 75:0.0767195 76:-0.975687 77:-0.370426 78:0.540087 79:0.422006 80:0.503771 81:-0.00136461 82:-0.997355 83:-0.469452 84:0.535918 85:-0.986074 86:-0.951621 87:-0.0160424 88:-0.99217 89:-0.410017 90:-0.600369 91:0.421205 92:0.444786 93:0.0135208 94:-0.995794 95:-0.721199 96:-0.239529 97:-0.741625 98:-0.67893 99:0.0491985 100:-0.995604 101:-0.582912 102:-0.457622 103:0.0492887 104:0.0671501 105:0.00288364 106:-0.883318 107:-0.332859 108:0.555828 109:0.380734 110:0.407094 111:-0.0141284 112:-0.984758 113:-0.780503 114:-0.154185 115:-0.778137 116:-0.753717 117:-0.0191631 118:-0.996564 119:-0.220183 120:0.638361 121:-0.445599 122:-0.413483 123:0.0189309 124:-0.989399 125:-0.369769 126:0.621767 127:-0.191081 128:-0.162062 129:0.059354 130:-0.99174 131:-0.422383 132:-0.649302 133:-0.619607 134:-0.596881 135:0.0490838 136:-0.801309 137:-0.178633 138:0.633641 139:-0.04387 140:0.0204319 141:0.0663778 142:-0.992823 143:-0.409595 144:-0.647515 145:-1 146:-0.989693 147:0.0212791 148:-0.984615 149:-0.420584 150:-0.558254 151:-0.595531 152:-0.583608 153:0.0188008 154:-0.992755 155:-0.354406 156:0.648112 157:-0.956894 158:-0.926739 159:0.00347412 160:-0.997705 161:-0.59606 162:-0.454294 163:-0.800153 164:-0.795807 165:-0.00960152 166:-0.993232 167:-0.298849 168:0.628593 169:-0.923493 170:-0.919869 171:-0.0275675 172:-0.995477 173:-0.683733 174:-0.0980081 175:0.464038 176:0.512255 177:-0.0521844 178:-0.993966 179:-0.415227 180:-0.632104 181:0.77188 182:0.301201 183:0.864805 184:0.877897 185:0.9696 186:1 187:0.97536 188:0.703603 189:0.75821 190:0.596901 191:0.520715 192:0.227525 193:0.464442 194:0.540589 195:0.815806 196:0.507674 197:-0.000102193 198:-0.685944 199:0.0497246 200:-0.136625 201:0.312174 202:0.412442 203:0.527503 204:0.32376 205:-0.130395 206:0.652807 207:0.283216 208:0.541304 209:0.581196 210:-0.0402569 211:0.355259 212:0.383815 213:0.0440967 214:-0.279719 215:-0.342567 216:-0.531215 217:1 218:-0.391467 219:-0.271763 220:0.0935834 221:0.202327 222:0.26342 223:0.0744067 224:0.194648 225:0.00698759 226:-0.0990075 227:0.246985 228:-0.206697 229:-0.140075 230:0.127531 231:-0.0242471 232:-0.145566 233:-0.371684 234:-1 235:0.311135 236:-0.361659 237:-0.07208 238:0.0173441 239:0.201718 240:-0.0524119 241:-0.285788 242:0.346809 243:-0.130616 244:0.135424 245:0.247694 246:-0.144543 247:0.197737 248:0.153206 249:0.294525 250:0.263688 251:-0.236992 252:-0.542287 
0.5023805739772073 1:0.447103 2:0.258719 3:0.728053 4:-0.977073 5:0.666994 7:0.452605 8:0.210088 9:0.869597 10:-0.987907 11:0.684229 12:-0.975314 13:0.705257 14:0.517434 15:0.850175 16:-0.969275 17:0.598414 18:-0.970043 19:-0.543121 20:-0.608418 21:0.498736 22:-0.896412 23:0.000519799 24:0.0893078 25:-0.613243 26:-0.653564 27:0.629205 28:-0.954358 29:-0.00293138 30:0.18704 31:-0.628244 32:-0.661886 33:0.343646 34:-0.984051 35:0.0672586 36:-0.0126759 37:0.135108 38:0.0380897 39:0.00574173 40:-0.980495 41:-0.176905 42:0.169227 43:-0.553956 44:-0.612506 45:-0.211096 46:-0.993149 47:-0.272918 48:0.179524 49:0.402814 50:0.149312 51:-0.394677 52:-0.985533 53:-0.183167 54:-0.0717166 55:0.838822 56:0.696367 57:-0.257013 58:-0.988698 59:-0.29549 60:0.0347702 61:0.471203 62:0.246298 63:-0.358946 64:-0.990833 65:-0.217221 66:-0.00312687 67:0.204366 68:0.0678778 69:-0.379202 70:-0.989056 71:-0.572991 72:0.524794 73:-0.89409 74:-0.897729 75:-0.312807 76:-0.996224 77:-0.542842 78:0.365801 79:0.466375 80:0.315777 81:-0.569728 82:-0.99691 83:-0.368757 84:0.143135 85:-0.893586 86:-0.889897 87:-0.815692 88:-0.991424 89:-0.580961 90:0.485601 91:0.618873 92:0.391532 93:-0.807558 94:-0.995493 95:-0.793842 96:0.926272 97:0.452172 98:0.318633 99:-0.79279 100:-0.978583 101:-0.64545 102:0.42031 103:0.526773 104:0.31225 105:-0.798819 106:-0.992512 107:-0.605417 108:0.31192 109:-0.516419 110:-0.577321 111:-0.826022 112:-0.996446 113:-0.677775 114:0.569411 115:-0.680623 116:-0.713695 117:-0.824492 118:-0.992495 119:-0.70713 120:0.503787 121:-0.669092 122:-0.700975 123:-0.81618 124:-0.796514 125:-0.862054 126:0.679576 127:0.370388 128:0.191756 129:-0.815358 130:-0.991051 131:-0.671684 132:0.381642 133:0.363734 134:0.188562 135:-0.815711 136:-0.994655 137:-0.664795 138:0.395809 139:-0.889858 140:-0.901666 141:-0.812075 142:-0.997654 143:-0.787984 144:0.645645 145:0.0854826 146:-0.0271321 147:-0.814413 148:-0.968163 149:-0.5874 150:0.35608 151:0.5164 152:0.302618 153:-0.809131 154:-0.992737 155:-0.574475 156:0.46172 157:0.829879 158:0.659546 159:-0.866197 160:-0.990261 161:-0.817568 162:0.603786 163:0.0320133 164:-0.109987 165:-0.884449 166:0.965533 167:-1 168:0.799256 169:-0.673454 170:-0.712722 171:-0.88466 172:-0.996755 173:-0.84676 174:0.567505 175:0.476436 176:0.289071 177:-0.904322 178:-0.993095 179:-0.877828 180:0.591492 181:-0.0158259 182:-0.811187 183:-0.782625 184:-0.749667 185:-0.65528 186:-0.576357 187:-0.249761 188:-0.545926 189:-0.467954 190:-0.360035 191:-0.622206 192:-0.668872 193:-0.739915 194:-0.792829 195:-0.749295 196:-0.811562 197:-0.864372 198:-1 199:0.282075 200:-0.870025 201:-0.763687 202:-0.780347 203:-0.716162 204:-0.82153 205:-0.833298 206:-0.309406 207:-0.852038 208:-0.879966 209:-0.773107 210:-0.931094 211:-0.897204 212:-0.927561 213:-0.949734 214:-0.964036 215:-0.97367 216:-0.989842 217:1 218:-0.924685 219:-0.917668 220:-0.87517 221:-0.886501 222:-0.847518 223:-0.854251 224:-0.820848 225:-0.879237 226:-0.85787 227:-0.667111 228:-0.845059 229:-0.87215 230:-0.826045 231:-0.85819 232:-0.864071 233:-0.924029 234:-0.969771 235:-0.226343 236:-0.956313 237:-0.918428 238:-0.881143 239:-0.849856 240:-0.889846 241:-0.925193 242:-0.722587 243:-0.820221 244:-0.772367 245:-0.767407 246:-0.707544 247:-0.713433 248:-0.605477 249:-0.638047 250:-0.633567 251:-0.81517 252:-0.878422 
1 1:0.688926 2:0.468646 3:0.435616 4:-0.900524 5:0.121043 7:-0.719672 8:-0.766986 9:0.560967 10:-0.979974 11:-0.0417147 12:-0.73426 13:-0.00152828 14:-0.109247 15:0.446219 16:-0.947069 17:0.668358 18:-0.0360439 19:0.435994 20:0.221117 21:0.379272 22:-0.903873 23:0.69383 24:0.0166008 25:0.0458743 26:-0.0567465 27:0.499366 28:-0.981458 29:0.626444 30:-0.0396944 31:0.335698 32:0.217517 33:0.488429 34:-0.958299 35:0.653726 36:-0.0492151 37:0.469466 38:0.34414 39:0.47028 40:-0.964422 41:0.142763 42:-0.91029 43:0.425853 44:0.253855 45:0.452654 46:-0.994314 47:0.413151 48:-0.18097 49:0.503666 50:0.230223 51:0.409761 52:-0.988456 53:-0.0490144 54:-0.792471 55:0.810039 56:0.6698 57:0.689277 58:-0.968229 59:-0.128453 60:-0.681646 61:-0.298109 62:-0.406139 63:0.771221 64:-0.952923 65:0.593821 66:-0.115999 67:-0.12858 68:-0.226287 69:0.799734 70:-0.965404 71:0.0954881 72:-0.860273 73:-0.390689 74:-0.456114 75:0.891669 76:-0.997308 77:-0.0897201 78:-0.778601 79:0.427746 80:0.281219 81:0.791183 82:-0.993994 83:-0.0445609 84:-0.800497 85:0.89594 86:0.641894 87:0.865251 88:-0.990191 89:-0.115393 90:-0.700715 91:-0.098915 92:-0.226244 93:0.955525 94:-0.997215 95:0.470275 96:-0.534226 97:-0.21764 98:-0.276576 99:0.986191 100:-0.993009 101:0.503553 102:-0.238952 103:0.34536 104:0.157058 105:1 106:-0.996403 107:0.520892 108:-0.358975 109:0.323253 110:0.142371 111:1 112:-0.995146 113:0.0677871 114:-0.841665 115:0.301287 116:0.128328 117:0.880222 118:-0.998716 119:0.347317 120:-0.628797 121:-0.0279762 122:-0.155557 123:0.875411 124:-0.996996 125:0.317859 126:-0.325602 127:-0.182186 128:-0.285048 129:0.778425 130:-0.997589 131:0.200398 132:-0.341655 133:-0.0835895 134:-0.1984 135:0.779353 136:-0.980312 137:-0.0270643 138:-0.683 139:-0.285995 140:-0.355951 141:0.820751 142:-0.996205 143:0.202202 144:-0.303354 145:0.583793 146:0.417988 147:0.819653 148:-0.977528 149:-0.229438 150:-0.540407 151:0.481154 152:0.272459 153:0.747937 154:-0.995408 155:0.416251 156:-0.354635 157:-0.213823 158:-0.278261 159:0.683487 160:-0.983621 161:-0.120339 162:-0.659707 163:-0.262272 164:-0.365242 165:0.606006 166:-0.994796 167:-0.00149255 168:-0.700608 169:0.0379879 170:-0.0800944 171:0.601797 172:-0.995457 173:0.253092 174:-0.42223 175:0.0756204 176:-0.0574226 177:0.572714 178:-0.998318 179:-0.199612 180:-0.519876 181:-0.466961 182:-0.831213 183:-0.766581 184:-0.799658 185:-0.792558 186:-0.804985 187:-0.741357 188:-0.80153 189:-0.789904 190:-0.798458 191:-0.787528 192:-0.838246 193:-0.816853 194:-0.833583 195:-0.787691 196:-0.810307 197:-0.82505 198:-0.931891 199:-0.150999 200:-0.789018 201:-0.755613 202:-0.732377 203:-0.710461 204:-0.737531 205:-0.743931 206:-0.472747 207:-0.662061 208:-0.714314 209:-0.640699 210:-0.817832 211:-0.760604 212:-0.787266 213:-0.86434 214:-0.90762 215:-0.906314 216:-0.935503 217:1 218:-0.794527 219:-0.781753 220:-0.695157 221:-0.663723 222:-0.697132 223:-0.680405 224:-0.732009 225:-0.809092 226:-0.738131 227:-0.705955 228:-0.78648 229:-0.834168 230:-0.843929 231:-0.857595 232:-0.837816 233:-0.84496 234:-0.954177 235:-0.625945 236:-0.843381 237:-0.863154 238:-0.896525 239:-0.871623 240:-0.870423 241:-0.877912 242:-0.823819 243:-0.84972 244:-0.864424 245:-0.862158 246:-0.878026 247:-0.873912 248:-0.861714 249:-0.841334 250:-0.845557 251:-0.904745 252:-1 
1 1:-0.128355 2:-0.408848 3:0.150371 4:-0.32707 5:-0.579768 7:-0.463056 8:-0.654075 9:-0.463239 10:-0.980199 11:-0.662971 12:-0.888573 13:0.177877 14:-0.184077 15:-0.625104 16:-0.951741 17:-0.766826 18:-0.314463 19:0.0807773 20:-0.284635 21:-0.593761 22:-0.993879 23:-0.928072 24:-0.417379 25:0.42406 26:-0.00104283 27:-0.545011 28:-0.957912 29:0.151066 30:0.491813 31:0.24478 32:-0.119292 33:-0.620296 34:-0.935585 35:-0.769098 36:-0.308963 37:0.0156297 38:-0.279446 39:-0.620309 40:-0.997142 41:-0.958761 42:-0.620117 43:-0.0495335 44:-0.359144 45:-0.625427 46:-0.976906 47:0.116264 48:0.435969 49:0.00133592 50:-0.372391 51:-0.616241 52:-0.971914 53:-0.955137 54:-0.476458 55:0.00496895 56:-0.28055 57:-0.536026 58:-0.98926 59:-0.824295 60:-0.355851 61:0.106202 62:-0.275808 63:-0.520783 64:-0.996485 65:-0.937056 66:-0.636791 67:0.143948 68:-0.222988 69:-0.59555 70:-0.988144 71:-0.812018 72:-0.33143 73:0.171607 74:-0.197025 75:-0.556465 76:-0.986768 77:-0.769336 78:-0.354781 79:-0.507191 80:-0.655573 81:-0.60426 82:1 83:-1 84:-0.541907 85:0.242657 86:-0.168996 87:-0.598303 88:-0.980489 89:-0.566617 90:-0.163252 91:0.380693 92:-0.0827327 93:-0.673512 94:-0.995029 95:0.153129 96:0.386052 97:0.321216 98:-0.0827661 99:-0.656166 100:-0.997104 101:0.297295 102:0.459121 103:0.299101 104:-0.131773 105:-0.648554 106:-0.986919 107:-0.529008 108:-0.162539 109:0.0335719 110:-0.307902 111:-0.630165 112:-0.991825 113:0.0454667 114:0.323775 115:0.231482 116:-0.174969 117:-0.640784 118:-1 119:-0.46265 120:-0.130712 121:0.243681 122:-0.173407 123:-0.641439 124:-0.994778 125:-0.511038 126:-0.121979 127:0.473382 128:-0.00676026 129:-0.663629 130:-0.99914 131:0.113964 132:0.343367 133:0.0710602 134:-0.276146 135:-0.67044 136:-0.99682 137:-0.943715 138:-0.525956 139:0.546729 140:0.0845107 141:-0.680991 142:0.248796 143:0.305705 144:0.623699 145:0.366631 146:-0.0517824 147:-0.695065 148:-0.996573 149:0.0278163 150:0.268188 151:0.351113 152:-0.096814 153:-0.715495 154:-0.998426 155:-0.154046 156:0.170016 157:-0.00798449 158:-0.303621 159:-0.739354 160:-0.995615 161:0.0234525 162:0.219859 163:0.418252 164:-0.0507508 165:-0.752827 166:-0.99906 167:0.199613 168:0.448955 169:0.322739 170:-0.0881323 171:-0.809189 172:-0.978507 173:-0.240258 174:-0.0141393 175:0.171878 176:-0.208903 177:-0.938383 178:-0.995239 179:-0.0208918 180:0.150946 181:-0.654213 182:-0.867784 183:-0.842756 184:-0.893373 185:-0.899895 186:-0.91676 187:-0.924958 188:-0.902769 189:-0.933703 190:-0.931168 191:-0.893322 192:-0.960347 193:-0.953628 194:-0.949085 195:-0.953025 196:-0.983743 197:-0.976378 198:-0.977938 199:-0.443476 200:-0.970616 201:-0.956681 202:-0.94156 203:-0.879312 204:-0.953431 205:-0.940721 206:-0.527563 207:-0.920498 208:-0.8824 209:-0.722233 210:-0.931002 211:-0.850572 212:-0.892166 213:-0.93503 214:-0.967951 215:-0.981196 216:-0.990574 217:1 218:-0.929236 219:-0.880782 220:-0.828325 221:-0.834475 222:-0.795433 223:-0.855564 224:-0.753111 225:-0.897577 226:-0.904901 227:-0.677034 228:-0.940789 229:-0.936795 230:-0.906477 231:-0.955511 232:-0.958653 233:-0.963575 234:-1 235:-0.619619 236:-0.983077 237:-0.977618 238:-0.971051 239:-0.960953 240:-0.979674 241:-0.975019 242:-0.916201 243:-0.972039 244:-0.958983 245:-0.963164 246:-0.975941 247:-0.969385 248:-0.955437 249:-0.946325 250:-0.928393 251:-0.944665 252:-0.954484 
1 1:0.510322 2:0.0243038 3:0.326142 4:-0.94928 5:0.613203 7:0.604847 8:0.0413003 9:0.486689 10:-0.984862 11:0.943887 12:-0.563986 13:0.319854 14:-0.0857289 15:0.439074 16:-0.821139 17:0.722653 18:-0.829338 19:0.561301 20:0.0334226 21:0.468278 22:-0.830114 23:1 24:-0.515455 25:0.807604 26:0.270278 27:0.620977 28:-0.986247 29:0.716361 30:-0.846608 31:0.157396 32:-0.181573 33:0.341143 34:-0.943154 35:0.314702 36:-0.711528 37:0.836897 38:0.307848 39:0.188594 40:-0.986708 41:0.910527 42:-0.615876 43:-0.156233 44:-0.432851 45:-0.14538 46:-0.851777 47:0.239927 48:-0.583478 49:0.750902 50:0.0974151 51:-0.224139 52:-0.983052 53:0.325122 54:-0.51855 55:0.5176 56:0.0890973 57:-0.0835559 58:-0.986549 59:0.395067 60:-0.539396 61:0.925964 62:0.267334 63:-0.0556298 64:-0.990124 65:0.842232 66:-0.720456 67:-0.450746 68:-0.633476 69:-0.0743104 70:-0.971405 71:0.113692 72:-0.3856 73:-0.155679 74:-0.421335 75:-0.0675949 76:-0.996377 77:0.0822633 78:-0.46179 79:0.938165 80:0.354594 81:-0.149639 82:-0.997323 83:0.452652 84:-0.667664 85:-0.429355 86:-0.618392 87:-0.16796 88:-0.988063 89:0.0346045 90:-0.339857 91:0.916724 92:0.277691 93:-0.256843 94:-0.996281 95:0.847293 96:-0.788495 97:-0.0320884 98:-0.328042 99:-0.309041 100:-0.996499 101:0.00808526 102:-0.25098 103:0.584704 104:0.0591042 105:-0.350602 106:-0.997632 107:-0.132214 108:-0.107673 109:-0.055605 110:-0.367616 111:-0.441888 112:-0.989657 113:-0.0195364 114:-0.225774 115:-0.129784 116:-0.416999 117:-0.449842 118:-0.995852 119:-0.0396169 120:-0.22948 121:0.770069 122:0.176448 123:-0.514924 124:-0.996924 125:-0.256217 126:-0.0436233 127:-0.0517829 128:-0.360786 129:-0.729401 130:-0.987882 131:-0.319444 132:-0.0141822 133:0.500603 134:0.0141513 135:-0.735772 136:-0.989093 137:-0.302984 138:0.0430623 139:0.562754 140:0.0958251 141:-0.766822 142:-0.994749 143:-0.22451 144:-0.042101 145:0.915877 146:0.331514 147:-0.789723 148:-0.994729 149:-0.00837135 150:-0.225879 151:0.650182 152:0.103107 153:-0.793982 154:-0.997064 155:-0.156043 156:0.0361905 157:0.905027 158:0.337298 159:-0.804302 160:-0.995284 161:-0.0192191 162:-0.22856 163:0.907443 164:0.280742 165:-0.826961 166:-0.998461 167:-0.304246 168:0.119764 169:0.10817 170:-0.237194 171:-0.854474 172:-0.996256 173:-0.403379 174:0.0752901 175:0.542035 176:0.0410892 177:-0.862213 178:-0.998084 179:-0.298984 180:-0.00575475 181:0.710935 182:-0.904591 183:-0.809341 184:-0.838115 185:-0.837453 186:-0.843264 187:-0.802806 188:-0.859591 189:-0.860349 190:-0.860684 191:-0.895683 192:-0.877211 193:-0.896362 194:-0.928786 195:-0.911166 196:-0.893591 197:-0.900211 198:-0.979874 199:0.612767 200:-0.889099 201:-0.91169 202:-0.901097 203:-0.808823 204:-0.883359 205:-0.870396 206:-0.655432 207:-0.794622 208:-0.780487 209:-0.751861 210:-0.829167 211:-0.853708 212:-0.873332 213:-0.928248 214:-0.955301 215:-0.958909 216:-0.963319 217:1 218:-0.888796 219:-0.895438 220:-0.869954 221:-0.861949 222:-0.882242 223:-0.825215 224:-0.903845 225:-0.895987 226:-0.873645 227:-0.905021 228:-0.886389 229:-0.91753 230:-0.948112 231:-0.943734 232:-0.920066 233:-0.925415 234:-1 235:-0.881346 236:-0.909397 237:-0.927143 238:-0.940984 239:-0.930138 240:-0.926876 241:-0.882241 242:-0.90824 243:-0.878486 244:-0.903396 245:-0.911681 246:-0.888824 247:-0.895693 248:-0.886848 249:-0.883643 250:-0.868542 251:-0.924426 252:-0.989385 
1 1:0.33217 2:-0.096519 3:-0.239921 4:-0.875104 5:0.898044 7:0.158981 8:-0.24903 9:-0.125011 10:-0.955969 11:0.440545 12:-0.413064 13:0.256556 14:-0.129575 15:-0.277842 16:-0.9775 17:0.231948 18:-0.228603 19:0.0381959 20:-0.31282 21:-0.441194 22:-0.924105 23:0.0149966 24:-0.0745045 25:-0.728531 26:-0.816393 27:-0.607511 28:-0.977282 29:0.0274702 30:0.0153063 31:0.0340417 32:-0.269492 33:-0.630768 34:-0.977801 35:-0.172863 36:0.107933 37:0.235508 38:-0.122209 39:-0.644873 40:-0.989999 41:-0.183075 42:0.253726 43:-0.160572 44:-0.435849 45:-0.632103 46:-0.996693 47:0.299889 48:-0.314592 49:-0.31929 50:-0.57335 51:-0.664408 52:-0.983656 53:0.34464 54:-0.318077 55:0.213108 56:-0.130466 57:-0.58169 58:-0.981374 59:-0.179248 60:0.231311 61:0.085308 62:-0.289652 63:-0.56629 64:-0.985825 65:-0.153123 66:0.214404 67:-0.102131 68:-0.392844 69:-0.680424 70:-0.987264 71:-0.241802 72:0.292874 73:-0.0300726 74:-0.335249 75:-0.658231 76:-0.998508 77:-0.1429 78:0.056342 79:0.414776 80:-0.0112055 81:-0.713367 82:-0.996246 83:-0.170133 84:0.172492 85:0.443001 86:-0.0350204 87:-0.734458 88:-0.997242 89:-0.332096 90:0.361594 91:0.0632884 92:-0.296154 93:-0.82042 94:-0.989958 95:-0.419554 96:0.476614 97:0.200067 98:-0.166872 99:-0.815403 100:-0.988756 101:-0.483375 102:0.515285 103:0.219899 104:-0.184706 105:-0.81088 106:-0.990286 107:-0.488014 108:0.46586 109:0.0366976 110:-0.305809 111:-0.816928 112:-0.992639 113:-0.339744 114:0.383198 115:-0.476486 116:-0.649272 117:-0.834997 118:-0.997687 119:-0.468154 120:0.438374 121:0.124533 122:-0.252597 123:-0.887463 124:-0.996755 125:-0.717216 126:0.743343 127:-0.0632313 128:-0.368503 129:-0.877785 130:-0.990122 131:-0.480946 132:0.418996 133:0.227618 134:-0.17034 135:-0.872727 136:-0.992264 137:-0.630874 138:0.609284 139:0.370225 140:-0.0401047 141:-0.938847 142:-0.997669 143:-0.667353 144:0.72289 145:0.443981 146:0.00219724 147:-0.941403 148:-0.993399 149:-0.605867 150:0.631294 151:0.0226438 152:-0.316387 153:-0.959895 154:-0.991709 155:-0.684165 156:0.834418 157:-0.199066 158:-0.437757 159:-0.959949 160:-0.998128 161:-0.674117 162:0.640118 163:-0.575535 164:-0.724175 165:-0.987963 166:-0.968933 167:-0.941802 168:1 169:-0.134898 170:-0.406053 171:-0.988473 172:-0.997463 173:-0.779199 174:0.698497 175:-0.0255106 176:-0.342213 177:-0.988379 178:0.835925 179:-1 180:0.898336 181:-0.0251676 182:-0.861367 183:-0.82119 184:-0.838407 185:-0.852585 186:-0.847206 187:-0.833854 188:-0.874206 189:-0.88092 190:-0.880017 191:-0.894171 192:-0.899748 193:-0.891466 194:-0.907114 195:-0.872603 196:-0.886039 197:-0.854533 198:-0.942863 199:-0.0757353 200:-0.837216 201:-0.830375 202:-0.818652 203:-0.781397 204:-0.771063 205:-0.708674 206:-0.59891 207:-0.673319 208:-0.69879 209:-0.641986 210:-0.774902 211:-0.743501 212:-0.75052 213:-0.826143 214:-0.884507 215:-0.913206 216:-0.903267 217:1 218:-0.809394 219:-0.779581 220:-0.728655 221:-0.673223 222:-0.725072 223:-0.711172 224:-0.752265 225:-0.841692 226:-0.829 227:-0.771303 228:-0.850704 229:-0.878729 230:-0.895432 231:-0.905291 232:-0.908853 233:-0.874006 234:-1 235:-0.779328 236:-0.906153 237:-0.926799 238:-0.933593 239:-0.931811 240:-0.926209 241:-0.907242 242:-0.891441 243:-0.892978 244:-0.903872 245:-0.910381 246:-0.893386 247:-0.879579 248:-0.879485 249:-0.857942 250:-0.845177 251:-0.902324 252:-0.950986 
1 1:-0.245681 2:-0.488419 3:-0.293053 4:-0.93578 5:0.717327 7:0.939981 8:0.259525 9:-0.327058 10:-0.907478 11:0.791853 12:-0.91789 13:-0.311953 14:-0.523386 15:-0.325323 16:-0.360611 17:0.784444 18:-0.900342 19:-0.138631 20:-0.429861 21:-0.317649 22:-0.916423 23:0.490405 24:-0.792912 25:0.160253 26:-0.187661 27:-0.338088 28:-0.983988 29:0.777996 30:-0.954064 31:0.5166 32:0.074443 33:-0.416348 34:-0.986966 35:0.543514 36:-0.834587 37:0.495391 38:0.0636348 39:-0.420322 40:-0.609502 41:0.842058 42:-0.912981 43:-0.0408268 44:-0.35313 45:-0.423302 46:-0.98944 47:0.158213 48:-0.413694 49:-0.460681 50:-0.66197 51:-0.411448 52:-0.954064 53:0.408761 54:-0.626921 55:0.211906 56:-0.131333 57:-0.443928 58:-0.843569 59:0.62294 60:-0.830965 61:0.0675023 62:-0.301449 63:-0.420812 64:-0.965589 65:0.732484 66:-0.819163 67:-0.00448874 68:-0.325447 69:-0.45502 70:-0.964245 71:0.347187 72:-0.578115 73:0.102191 74:-0.2446 75:-0.416658 76:-0.991844 77:-0.0608606 78:-0.20714 79:-0.190224 80:-0.434043 81:-0.590651 82:-0.977622 83:0.182678 84:-0.397997 85:0.128501 86:-0.245336 87:-0.603325 88:-0.992385 89:-0.247498 90:0.0503226 91:-0.134028 92:-0.428828 93:-0.615131 94:-0.995099 95:0.0928934 96:-0.232577 97:0.662531 98:0.154187 99:-0.63191 100:-0.9937 101:0.0410206 102:-0.147838 103:-0.375412 104:-0.58257 105:-0.629602 106:-0.986023 107:0.0114072 108:-0.233376 109:0.138886 110:-0.237381 111:-0.648156 112:-0.990156 113:0.414574 114:-0.528241 115:-0.00396098 116:-0.332704 117:-0.644471 118:-0.994027 119:-0.237402 120:0.0299191 121:-0.580251 122:-0.72102 123:-0.6497 124:-0.993865 125:-0.166095 126:-0.061263 127:0.385379 128:-0.0660851 129:-0.677144 130:-0.993189 131:-0.352707 132:0.122794 133:0.837215 134:0.241644 135:-0.685983 136:-0.997065 137:-0.358629 138:0.195538 139:0.48618 140:0.0417621 141:-0.79731 142:-0.990342 143:-0.085476 144:-0.0845473 145:0.873887 146:0.302211 147:-0.821531 148:-0.981804 149:-0.845599 150:0.687865 151:0.589359 152:0.0624482 153:-0.824668 154:-0.989384 155:-0.445147 156:0.396178 157:0.366219 158:-0.0409367 159:-0.822406 160:-0.995443 161:0.215228 162:-0.355944 163:0.670931 164:0.120474 165:-0.825594 166:-0.983983 167:-0.486426 168:0.352587 169:0.259265 170:-0.132228 171:-0.83363 172:-0.994776 173:-0.528562 174:0.292856 175:0.523885 176:0.0288314 177:-0.856583 178:-0.998191 179:-0.551974 180:0.314884 181:0.805658 182:-0.765368 183:-0.691114 184:-0.717904 185:-0.683072 186:-0.709336 187:-0.614957 188:-0.778545 189:-0.76073 190:-0.729893 191:-0.766716 192:-0.784197 193:-0.804242 194:-0.858117 195:-0.796344 196:-0.797747 197:-0.809692 198:-0.791985 199:0.548394 200:-0.855379 201:-0.863504 202:-0.864514 203:-0.82435 204:-0.847757 205:-0.811757 206:-0.670188 207:-0.78649 208:-0.781404 209:-0.774745 210:-0.826318 211:-0.821214 212:-0.82217 213:-0.872729 214:-0.911649 215:-0.921723 216:-0.931056 217:1 218:-0.805477 219:-0.779522 220:-0.72471 221:-0.69703 222:-0.675533 223:-0.602216 224:-0.687847 225:-0.712632 226:-0.683513 227:-0.652066 228:-0.717167 229:-0.748632 230:-0.752849 231:-0.789691 232:-0.790039 233:-0.837503 234:-1 235:-0.406709 236:-0.854521 237:-0.832825 238:-0.878359 239:-0.84063 240:-0.868754 241:-0.82659 242:-0.776496 243:-0.815973 244:-0.820906 245:-0.829534 246:-0.825632 247:-0.815582 248:-0.778844 249:-0.713329 250:-0.614648 251:-0.698641 252:-0.832204 
1 1:-0.90789 2:-0.901901 3:0.860676 4:-0.853416 5:0.796696 7:-0.86732 8:-0.868695 9:0.2598 10:-0.987198 11:0.607535 12:-0.768854 13:-0.80702 14:-0.789874 15:-0.299299 16:-0.953198 17:0.346102 18:-0.556836 19:0.147267 20:0.14653 21:-0.333605 22:-0.768568 23:0.716201 24:-0.936547 25:-0.0813082 26:-0.0257534 27:-0.258788 28:-0.926367 29:0.608683 30:-0.784373 31:-0.594299 32:-0.563247 33:-0.297337 34:-0.982689 35:0.558274 36:-0.730005 37:-0.594087 38:-0.561953 39:-0.326967 40:-0.973439 41:0.486659 42:-0.635167 43:0.931096 44:1 45:-0.368594 46:-0.99104 47:0.182262 48:-0.190081 49:-0.461946 50:-0.451809 51:-0.408355 52:0.486901 53:0.695809 54:-0.839501 55:-0.758941 56:-0.736798 57:-0.286645 58:-0.977558 59:-0.142571 60:0.190513 61:-0.794769 62:-0.791784 63:-0.308668 64:-0.947824 65:0.23268 66:-0.253063 67:-0.717157 68:-0.690661 69:-0.301048 70:-0.94942 71:0.313705 72:-0.397715 73:-0.804806 74:-0.782741 75:-0.33251 76:-0.975935 77:0.0795002 78:-0.202638 79:-0.589969 80:-0.56329 81:-0.37616 82:-0.986521 83:0.39939 84:-0.490274 85:0.632003 86:0.670164 87:-0.428035 88:-0.640818 89:0.70315 90:-0.881273 91:0.128325 92:0.142993 93:-0.425472 94:-0.97069 95:0.917913 96:-0.945762 97:0.697942 98:0.817582 99:-0.435989 100:-0.98313 101:0.74339 102:-0.748051 103:-0.278143 104:-0.265722 105:-0.462248 106:-0.99554 107:-0.569905 108:0.490748 109:-0.614659 110:-0.598527 111:-0.436405 112:-0.948315 113:0.22901 114:-0.211863 115:-0.150449 116:-0.124522 117:-0.434928 118:-0.89333 119:0.181026 120:-0.205656 121:-0.505692 122:-0.476215 123:-0.456568 124:-0.995339 125:0.212577 126:-0.394182 127:-0.0162409 128:0.0108215 129:-0.447538 130:-0.99601 131:-0.283898 132:0.164303 133:0.772934 134:0.812201 135:-0.426482 136:-0.984581 137:0.705949 138:-0.646266 139:-0.0560149 140:0.00296218 141:-0.415203 142:-0.992968 143:0.387669 144:-0.4336 145:0.29083 146:0.360668 147:-0.418407 148:-0.951633 149:0.699569 150:-0.731791 151:0.356211 152:0.368341 153:-0.42043 154:-0.858399 155:-0.3767 156:0.40778 157:-0.681617 158:-0.637583 159:-0.405158 160:-0.995729 161:-0.776409 162:0.644675 163:-0.212715 164:-0.200049 165:-0.446119 166:-0.984423 167:0.451014 168:-0.495861 169:0.830168 170:0.906202 171:-0.474196 172:-0.998003 173:-0.0442832 174:-0.0689391 175:0.952498 176:1 177:-0.474974 178:-0.991591 179:0.771384 180:-0.791795 181:0.440215 182:-0.589629 183:-0.235698 184:-0.2942 185:-0.168636 186:-0.204574 187:-0.056868 188:-0.280425 189:-0.348841 190:-0.399131 191:-0.255518 192:-0.532489 193:-0.579801 194:-0.497649 195:-0.440265 196:-0.516442 197:-0.578741 198:-0.596931 199:-0.0183445 200:-0.772954 201:-0.765079 202:-0.768973 203:-0.652928 204:-0.832575 205:-0.860412 206:-0.338749 207:-0.843003 208:-0.807665 209:-0.561099 210:-0.904497 211:-0.740512 212:-0.817653 213:-0.864723 214:-0.925212 215:-0.941097 216:-0.850644 217:1 218:-0.602822 219:-0.72453 220:-0.756035 221:-0.69457 222:-0.653809 223:-0.848967 224:-0.631721 225:-0.871973 226:-0.887624 227:-0.456863 228:-0.90128 229:-0.883045 230:-0.732487 231:-0.87855 232:-0.871557 233:-0.905237 234:-1 235:-0.134909 236:-0.908055 237:-0.879284 238:-0.847615 239:-0.741885 240:-0.872654 241:-0.862281 242:-0.454563 243:-0.821866 244:-0.782837 245:-0.679761 246:-0.841097 247:-0.737953 248:-0.755903 249:-0.730612 250:-0.697296 251:-0.799406 252:-0.892996 
0.2704470881488535 1:-0.720492 2:-0.711353 3:0.34831 4:-0.489027 5:0.832932 7:-0.831912 8:-0.834127 9:0.044132 10:-0.988578 11:0.543483 12:-0.663512 13:-0.637545 14:-0.613865 15:0.0603329 16:-0.932598 17:0.682006 18:-0.873506 19:-0.485713 20:-0.481616 21:-0.0190456 22:-0.883802 23:0.375251 24:-0.530495 25:-0.367158 26:-0.328924 27:0.00148803 28:-0.373414 29:0.90072 30:-0.96757 31:-0.630642 32:-0.602083 33:-0.202655 34:-0.969044 35:0.557679 36:-0.705294 37:-0.50619 38:-0.467716 39:-0.270816 40:-0.987664 41:0.171975 42:-0.268999 43:-0.646739 44:-0.634134 45:-0.309745 46:-0.985606 47:0.714842 48:-0.858325 49:-0.58927 50:-0.571456 51:-0.368316 52:-0.984887 53:0.0163164 54:0.0652954 55:-0.592425 56:-0.556778 57:-0.244176 58:-0.979165 59:0.440537 60:-0.469441 61:-0.138549 62:-0.139923 63:-0.222981 64:-0.909159 65:-0.277596 66:0.46467 67:-0.293823 68:-0.252564 69:-0.224462 70:-0.9108 71:-0.393704 72:0.589719 73:-0.406404 74:-0.373366 75:-0.174273 76:-0.98412 77:0.430198 78:-0.513591 79:-0.552902 80:-0.52445 81:-0.165325 82:-0.988528 83:0.667524 84:-0.788344 85:-0.582341 86:-0.547346 87:-0.215225 88:-0.934137 89:0.214068 90:-0.207333 91:0.0507926 92:0.0648317 93:-0.1829 94:-0.99345 95:-0.86191 96:0.850119 97:-0.56917 98:-0.501284 99:-0.153373 100:-0.98582 101:0.837909 102:-0.803242 103:0.625614 104:0.639846 105:-0.136533 106:-0.911619 107:0.947611 108:-0.965116 109:0.262575 110:0.282161 111:-0.15669 112:-0.996498 113:-0.633946 114:0.670636 115:-0.423915 116:-0.3992 117:-0.178712 118:-0.992241 119:0.242651 120:-0.160507 121:0.327262 122:0.353795 123:-0.146344 124:-0.99653 125:-0.525412 126:0.511193 127:0.0877514 128:0.115925 129:-0.119447 130:-0.987837 131:0.312543 132:-0.263999 133:0.135564 134:0.166387 135:-0.13911 136:-0.996338 137:0.363226 138:-0.232281 139:-0.411974 140:-0.373826 141:-0.141177 142:-0.989874 143:-0.334562 144:0.472663 145:-0.342281 146:-0.301743 147:-0.144246 148:-0.957017 149:0.494863 150:-0.387494 151:0.865443 152:0.878706 153:-0.159696 154:-0.995409 155:-0.156923 156:0.280023 157:-0.0551611 158:0.0217381 159:-0.163175 160:-0.972743 161:0.261309 162:-0.158999 163:0.286324 164:0.306953 165:-0.160463 166:-0.981009 167:-0.302325 168:0.294558 169:-0.391571 170:-0.366294 171:-0.161823 172:-0.988345 173:-0.560818 174:0.584952 175:0.146863 176:0.184248 177:-0.174067 178:-0.998428 179:-0.562948 180:0.493588 181:0.383264 182:-0.717522 183:-0.384807 184:-0.24924 185:-0.117347 186:-0.167019 187:-0.277663 188:-0.253688 189:-0.258208 190:-0.334756 191:-0.165619 192:-0.339389 193:-0.20875 194:-0.145051 195:-0.0877667 196:-0.249632 197:-0.4842 198:-0.931501 199:0.128222 200:-0.545517 201:-0.42793 202:-0.422683 203:-0.297119 204:-0.449958 205:-0.6151 206:-0.129195 207:-0.530773 208:-0.420617 209:-0.342325 210:-0.73119 211:-0.579011 212:-0.651704 213:-0.763701 214:-0.850757 215:-0.865973 216:-0.8478 217:1 218:-0.114401 219:-0.435887 220:-0.41219 221:-0.399331 222:-0.371753 223:-0.454045 224:-0.414001 225:-0.533242 226:-0.574461 227:-0.333716 228:-0.633572 229:-0.58343 230:-0.479589 231:-0.535393 232:-0.591457 233:-0.679829 234:-1 235:-0.174295 236:-0.53234 237:-0.464527 238:-0.353185 239:-0.226229 240:-0.291322 241:-0.255769 242:-0.180514 243:-0.335787 244:-0.246599 245:-0.247444 246:-0.486067 247:-0.352806 248:-0.398838 249:-0.399804 250:-0.477852 251:-0.687877 252:-0.981772 
0.1160272748914051 1:0.154479 2:-0.21703 3:0.0272657 4:-0.983283 5:0.240802 7:0.155983 8:-0.250982 9:0.195286 10:-0.986579 11:0.240144 12:-0.995017 13:0.381384 14:-0.043106 15:0.115787 16:-0.974039 17:0.190954 18:-0.411322 19:0.161684 20:-0.231083 21:-0.176015 22:-0.950243 23:0.4611 24:-0.508874 25:-0.209648 26:-0.449332 27:-0.256459 28:-0.983496 29:0.378751 30:-0.545938 31:0.911316 32:0.35577 33:-0.294604 34:-0.80789 35:0.637393 36:-0.414632 37:0.341064 38:-0.0467256 39:-0.288114 40:-0.978214 41:0.395319 42:-0.446596 43:0.0257094 44:-0.307167 45:-0.329567 46:-0.912386 47:0.31081 48:-0.635342 49:0.380902 50:-0.13449 51:-0.435648 52:-0.873873 53:0.473828 54:-0.444543 55:0.676486 56:0.203667 57:-0.321171 58:-0.990852 59:-0.608595 60:-0.0824599 61:0.636807 62:0.0757502 63:-0.334865 64:-0.9804 65:-0.406578 66:-0.251495 67:0.915046 68:0.309263 69:-0.336238 70:-0.952357 71:-0.57757 72:-0.0667153 73:0.668665 74:0.14364 75:-0.276981 76:-0.996544 77:-0.567631 78:-0.103781 79:-0.280606 80:-0.497212 81:-0.318614 82:-0.991336 83:0.186765 84:-0.614547 85:0.0630928 86:-0.289077 87:-0.356195 88:-0.995342 89:0.238 90:-0.674178 91:0.10047 92:-0.271153 93:-0.323774 94:-0.994612 95:0.386629 96:-0.699389 97:-0.23171 98:-0.466627 99:-0.32181 100:-0.988438 101:0.212981 102:-0.565957 103:0.44294 104:-0.0356408 105:-0.352604 106:-0.993947 107:0.224228 108:-0.523503 109:0.226534 110:-0.178691 111:-0.350523 112:-0.992142 113:0.402349 114:-0.576725 115:0.341373 116:-0.101347 117:-0.357567 118:-0.999054 119:0.170337 120:-0.496852 121:0.73238 122:0.151399 123:-0.406387 124:-0.992387 125:0.223283 126:-0.764891 127:0.26809 128:-0.145152 129:-0.396474 130:-0.997991 131:0.235546 132:-0.726499 133:0.382293 134:-0.0658061 135:-0.425701 136:-0.971763 137:-0.588885 138:-0.0887252 139:0.727237 140:0.211954 141:-0.410263 142:-0.995942 143:-0.306062 144:-0.334958 145:-0.322631 146:-0.532791 147:-0.408194 148:-0.995494 149:0.0332924 150:-0.46493 151:0.372035 152:-0.0828279 153:-0.419142 154:-0.595035 155:0.465123 156:-0.591571 157:0.0375308 158:-0.27167 159:-0.419898 160:-0.981469 161:0.445357 162:-0.642385 163:0.243014 164:-0.169498 165:-0.436896 166:-0.965292 167:0.577861 168:-0.616638 169:0.550021 170:0.0697613 171:-0.445222 172:-0.998465 173:0.456328 174:-0.778649 175:0.481624 176:0.000289529 177:-0.518832 178:-0.99844 179:-0.385639 180:-0.270162 181:-0.113023 182:-0.835084 183:-0.731007 184:-0.707091 185:-0.66546 186:-0.68954 187:-0.740087 188:-0.72022 189:-0.756557 190:-0.782094 191:-0.750392 192:-0.815608 193:-0.780621 194:-0.767146 195:-0.706681 196:-0.729813 197:-0.759427 198:-0.92964 199:-0.214027 200:-0.80135 201:-0.742516 202:-0.710946 203:-0.660848 204:-0.672036 205:-0.739561 206:-0.47526 207:-0.584742 208:-0.526239 209:-0.448623 210:-0.64937 211:-0.540632 212:-0.576059 213:-0.678536 214:-0.774645 215:-0.792653 216:-0.742564 217:1 218:-0.660172 219:-0.612774 220:-0.509912 221:-0.49644 222:-0.478581 223:-0.497685 224:-0.516272 225:-0.590683 226:-0.583712 227:-0.543658 228:-0.661404 229:-0.668627 230:-0.649308 231:-0.681234 232:-0.715217 233:-0.763782 234:-1 235:-0.589849 236:-0.785011 237:-0.751079 238:-0.765778 239:-0.757041 240:-0.781751 241:-0.811584 242:-0.704393 243:-0.818969 244:-0.807113 245:-0.770382 246:-0.845524 247:-0.800159 248:-0.795536 249:-0.779352 250:-0.762408 251:-0.843395 252:-0.948849 
1 1:0.414619 2:-0.0406024 3:0.00262803 4:-0.987527 5:0.527733 7:0.306679 8:-0.152855 9:-0.349718 10:-0.990121 11:0.147963 12:-0.455465 13:0.333968 14:-0.0759518 15:-0.589056 16:-0.969297 17:-0.429879 18:0.0369931 19:0.435341 20:-0.0499503 21:-0.648955 22:-0.961094 23:-0.185136 24:-0.291552 25:0.156418 26:-0.190374 27:-0.600401 28:-0.978131 29:-0.354681 30:0.0537693 31:0.332277 32:-0.0569303 33:-0.642462 34:-0.977212 35:-0.34896 36:-0.0742347 37:-0.0932302 38:-0.357292 39:-0.710865 40:-0.776603 41:-0.325644 42:-0.0688564 43:0.302175 44:-0.116187 45:-0.713844 46:-0.987763 47:-0.508956 48:0.169073 49:0.0872237 50:-0.31856 51:-0.706179 52:-0.942217 53:-0.525382 54:0.176111 55:0.401011 56:0.00502738 57:-0.651248 58:-0.991995 59:-0.235454 60:-0.17676 61:0.236154 62:-0.189707 63:-0.663327 64:-0.955012 65:-0.404576 66:0.0573 67:-0.116111 68:-0.402494 69:-0.677043 70:-0.961907 71:-0.388993 72:0.0673739 73:0.242775 74:-0.148249 75:-0.668942 76:-0.980621 77:-0.496605 78:0.0791741 79:-0.00548469 80:-0.304928 81:-0.707882 82:-0.997286 83:-0.463255 84:0.15061 85:0.271864 86:-0.149465 87:-0.694296 88:-0.993449 89:-0.605493 90:0.307691 91:0.156816 92:-0.233266 93:-0.726212 94:-0.997178 95:-0.607522 96:0.33459 97:-0.00694043 98:-0.310584 99:-0.795552 100:-0.994671 101:-0.380145 102:0.0549537 103:0.00453417 104:-0.32864 105:-0.7767 106:-0.956908 107:-0.50913 108:0.101298 109:0.495361 110:0.00132109 111:-0.778401 112:-0.997478 113:-0.56451 114:0.265765 115:0.395055 116:-0.0653835 117:-0.790458 118:-0.998201 119:-0.565738 120:0.18159 121:0.113659 122:-0.259824 123:-0.845473 124:-0.974258 125:-0.700521 126:0.332406 127:0.339771 128:-0.0968301 129:-0.843511 130:-0.997288 131:-0.728521 132:0.315929 133:0.437883 134:-0.0282365 135:-0.840829 136:-0.99493 137:-0.592811 138:0.175892 139:-0.0490914 140:-0.336151 141:-0.839006 142:-0.998625 143:-0.647656 144:0.317476 145:0.0188531 146:-0.294482 147:-0.867929 148:-0.970805 149:-0.883108 150:0.690533 151:0.420052 152:-0.0507297 153:-0.875219 154:-0.997842 155:-0.593037 156:0.32081 157:0.264882 158:-0.112073 159:-0.930531 160:-0.996748 161:-0.893269 162:0.481745 163:0.228008 164:-0.179667 165:-0.954209 166:-0.998438 167:-0.898655 168:0.546043 169:-0.0206435 170:-0.326681 171:-0.957969 172:0.821656 173:-1 174:0.526145 175:0.00220941 176:-0.323492 177:-0.960083 178:-0.939176 179:-0.867705 180:0.425931 181:0.453111 182:-0.842773 183:-0.78164 184:-0.777266 185:-0.77905 186:-0.811897 187:-0.759978 188:-0.845559 189:-0.846957 190:-0.832869 191:-0.899771 192:-0.867377 193:-0.85359 194:-0.900056 195:-0.866291 196:-0.877052 197:-0.928202 198:-0.982807 199:0.172348 200:-0.905104 201:-0.897129 202:-0.892145 203:-0.872396 204:-0.866398 205:-0.854833 206:-0.7975 207:-0.770105 208:-0.777511 209:-0.778832 210:-0.847838 211:-0.834202 212:-0.837371 213:-0.883359 214:-0.918289 215:-0.942155 216:-0.950957 217:1 218:-0.894748 219:-0.863562 220:-0.821419 221:-0.805463 222:-0.78824 223:-0.785574 224:-0.83009 225:-0.852232 226:-0.84159 227:-0.826025 228:-0.845676 229:-0.881178 230:-0.885581 231:-0.883696 232:-0.89083 233:-0.912786 234:-1 235:-0.844139 236:-0.907447 237:-0.910747 238:-0.927769 239:-0.92236 240:-0.923 241:-0.917846 242:-0.889432 243:-0.888498 244:-0.886252 245:-0.893872 246:-0.872228 247:-0.874043 248:-0.83887 249:-0.795929 250:-0.744236 251:-0.827965 252:-0.937175 
1 1:-0.971387 2:-0.971161 3:0.659712 4:-0.943019 5:-0.514816 7:-0.822857 8:-0.846251 9:0.689373 10:-0.901957 11:-0.477756 12:-0.969819 13:-0.457289 14:-0.492267 15:-0.299405 16:-0.972255 17:-0.895926 18:-0.657569 19:0.26711 20:0.123622 21:-0.267167 22:-0.734304 23:-0.593625 24:-0.952385 25:-0.934417 26:-0.941018 27:-0.278154 28:-0.938747 29:-0.525176 30:-0.997581 31:-0.00574755 32:-0.0551509 33:-0.35851 34:-0.969157 35:-0.761979 36:-0.727143 37:-0.326337 38:-0.357679 39:-0.366869 40:-0.98403 41:-0.828829 42:-0.69393 43:-0.192174 44:-0.261172 45:-0.345007 46:-0.993589 47:-0.788658 48:-0.727582 49:-0.0381445 50:-0.167752 51:-0.357153 52:-0.950229 53:-0.803116 54:-0.701621 55:-0.131311 56:-0.164808 57:-0.282966 58:-0.953119 59:-0.618528 60:-0.886585 61:-0.916809 62:-0.926507 63:-0.500886 64:-0.99083 65:-0.835185 66:-0.670696 67:0.821296 68:0.683119 69:-0.618291 70:-0.886196 71:-0.519435 72:-0.97829 73:0.529255 74:0.4086 75:-0.589717 76:-0.997407 77:-0.708574 78:-0.22662 79:-0.122936 80:-0.177974 81:-0.786369 82:-0.952932 83:-0.946234 84:-0.424543 85:-0.293913 86:-0.347786 87:-0.780531 88:-0.987399 89:-0.256629 90:0.302478 91:0.410805 92:0.264824 93:-0.864075 94:0.851257 95:-1 96:-0.496084 97:-0.670062 98:-0.661019 99:-0.873761 100:0.339478 101:-0.0212412 102:0.424947 103:0.176945 104:0.0561094 105:-0.861935 106:-0.990956 107:-0.915318 108:-0.581664 109:-0.783317 110:-0.796783 111:-0.875915 112:-0.75608 113:-0.0284428 114:0.492807 115:-0.411221 116:-0.459268 117:-0.870989 118:-0.988001 119:-0.970275 120:-0.473553 121:-0.434938 122:-0.478407 123:-0.889015 124:-0.971518 125:-0.607213 126:-0.0628093 127:-0.338812 128:-0.394658 129:-0.913935 130:-0.998282 131:-0.546806 132:-0.0691733 133:0.992709 134:0.806175 135:-0.945332 136:-0.989436 137:-0.661396 138:-0.812123 139:-0.375703 140:-0.412311 141:-0.95044 142:-0.95639 143:-0.56366 144:-0.028946 145:0.131385 146:0.0576459 147:-0.94258 148:-0.978279 149:-0.736426 150:-0.241354 151:-0.267017 152:-0.340607 153:-0.948502 154:-0.995139 155:-0.655838 156:-0.109967 157:-0.504441 158:-0.51792 159:-0.946963 160:-0.996999 161:-0.451305 162:0.00274028 163:-0.128173 164:-0.216148 165:-0.948765 166:-0.997477 167:-0.568464 168:-0.0947231 169:-0.577256 170:-0.610765 171:-0.956905 172:-0.993877 173:-0.339681 174:0.074807 175:-0.0923309 176:-0.167425 177:-0.951158 178:-0.998237 179:-0.567505 180:-0.124396 181:-0.0344261 182:-0.783893 183:-0.689372 184:-0.704536 185:-0.695969 186:-0.677693 187:-0.648667 188:-0.679636 189:-0.701096 190:-0.68377 191:-0.671505 192:-0.73199 193:-0.700802 194:-0.710741 195:-0.698503 196:-0.764195 197:-0.830982 198:-0.949583 199:-0.0311124 200:-0.822173 201:-0.772545 202:-0.726822 203:-0.59439 204:-0.697461 205:-0.767578 206:-0.250903 207:-0.655796 208:-0.57705 209:-0.38593 210:-0.767717 211:-0.602879 212:-0.704763 213:-0.809825 214:-0.900587 215:-0.929483 216:-0.959353 217:1 218:-0.879785 219:-0.840041 220:-0.754862 221:-0.701675 222:-0.667503 223:-0.720312 224:-0.654207 225:-0.756788 226:-0.747983 227:-0.595218 228:-0.749739 229:-0.791423 230:-0.750317 231:-0.788177 232:-0.784088 233:-0.830712 234:-1 235:-0.582998 236:-0.816486 237:-0.79577 238:-0.795534 239:-0.787055 240:-0.788897 241:-0.809292 242:-0.720874 243:-0.782505 244:-0.766464 245:-0.749388 246:-0.780039 247:-0.751081 248:-0.75074 249:-0.690019 250:-0.605267 251:-0.633482 252:-0.758581 
0.740393118858959 1:-0.691334 2:-0.717918 3:0.426739 4:-0.980976 5:0.517401 7:-0.0761477 8:-0.197949 9:0.488982 10:-0.947458 11:0.660927 12:-0.845089 13:0.178302 14:0.0947698 15:0.431858 16:-0.942857 17:0.61021 18:-0.878913 19:-0.446963 20:-0.50657 21:0.314088 22:-0.941754 23:0.52108 24:-0.977551 25:0.117338 26:0.0510071 27:-0.0466197 28:-0.986068 29:0.409676 30:-0.878899 31:0.213173 32:0.152892 33:-0.0627779 34:-0.966798 35:0.643657 36:-0.878603 37:0.566676 38:0.493788 39:-0.0579987 40:-0.924989 41:-0.60508 42:0.185327 43:0.164378 44:0.0672323 45:-0.104216 46:-0.984673 47:0.608192 48:-0.942049 49:0.663409 50:0.418532 51:-0.142156 52:-0.901732 53:-0.454536 54:0.0436823 55:0.482683 56:0.425511 57:0.0583231 58:-0.955932 59:-0.663334 60:0.243773 61:-0.101476 62:-0.206231 63:-0.00972253 64:-0.972128 65:0.243134 66:-0.617338 67:0.601591 68:0.480918 69:0.0056732 70:-0.965109 71:-0.512397 72:0.136244 73:-0.0319665 74:-0.104253 75:-0.0222595 76:-0.997275 77:0.199487 78:-0.687833 79:0.163175 80:0.0886457 81:-0.0250004 82:-0.984425 83:0.482844 84:-0.888928 85:0.435376 86:0.302478 87:-0.0378305 88:-0.918787 89:-0.625828 90:0.220155 91:0.12377 92:0.00748958 93:0.0146367 94:-0.997279 95:0.598509 96:-0.889686 97:0.0144991 98:-0.0273576 99:0.022227 100:-0.988419 101:0.479944 102:-0.77857 103:0.168833 104:0.0488804 105:0.0286491 106:-0.995259 107:0.527304 108:-0.938092 109:-0.0385009 110:-0.131793 111:0.0110615 112:-0.99091 113:0.356404 114:-0.713792 115:-0.124892 116:-0.2035 117:-0.00116279 118:-0.992642 119:0.396628 120:-0.763821 121:0.974205 122:0.770346 123:0.0376927 124:-0.995925 125:-0.184854 126:-0.265656 127:-0.698575 128:-0.718023 129:0.0715154 130:-0.995579 131:0.0217676 132:-0.446924 133:-0.105386 134:-0.183325 135:0.0976415 136:-0.997413 137:0.233401 138:-0.532728 139:0.519611 140:0.430503 141:0.0423682 142:-0.961423 143:0.729515 144:-0.902937 145:0.628258 146:0.519976 147:0.0302242 148:-0.589689 149:0.860043 150:-0.868016 151:0.172348 152:0.0509998 153:-0.130932 154:-0.979831 155:0.455537 156:-0.690861 157:0.0606464 158:0.0109897 159:-0.12378 160:-0.977095 161:0.149249 162:-0.461319 163:-0.562229 164:-0.608323 165:-0.130649 166:-0.991754 167:0.208914 168:-0.56949 169:-0.228205 170:-0.28745 171:-0.17769 172:-0.993425 173:-0.859488 174:0.387664 175:0.105062 176:0.0103251 177:-0.193797 178:-0.997659 179:0.396124 180:-0.735219 181:0.156439 182:-0.332119 183:-0.0241297 184:-0.116447 185:-0.131156 186:-0.273775 187:-0.047676 188:-0.445417 189:-0.345641 190:-0.291356 191:-0.568851 192:-0.445351 193:-0.458028 194:-0.540998 195:-0.432293 196:-0.469023 197:-0.493359 198:-0.895334 199:-0.0832869 200:-0.517202 201:-0.453798 202:-0.536341 203:-0.442491 204:-0.445831 205:-0.470951 206:-0.306489 207:-0.373128 208:-0.410701 209:-0.330807 210:-0.643223 211:-0.552373 212:-0.611313 213:-0.765142 214:-0.85301 215:-0.870803 216:-0.902791 217:1 218:-0.669798 219:-0.610995 220:-0.489437 221:-0.415391 222:-0.390286 223:-0.421692 224:-0.441218 225:-0.545802 226:-0.49885 227:-0.482375 228:-0.590224 229:-0.6347 230:-0.624051 231:-0.665039 232:-0.644241 233:-0.638556 234:-1 235:-0.529785 236:-0.651063 237:-0.609211 238:-0.654706 239:-0.647791 240:-0.60035 241:-0.600213 242:-0.579354 243:-0.56528 244:-0.522072 245:-0.564523 246:-0.56566 247:-0.536329 248:-0.536496 249:-0.490542 250:-0.445748 251:-0.607574 252:-0.779024 
0.696667976116914 1:0.0613558 2:-0.280186 3:0.866881 4:-0.984991 5:0.310479 7:0.00183381 8:-0.351357 9:0.230662 10:-0.974847 11:0.144372 12:-0.809145 13:0.606243 14:0.112655 15:0.000591768 16:-0.970737 17:-0.0747409 18:-0.657829 19:0.731683 20:0.146199 21:-0.0108503 22:-0.967925 23:-0.00952899 24:-0.703206 25:0.773701 26:0.246296 27:0.0342838 28:-0.982248 29:0.0374987 30:-0.714534 31:0.982177 32:0.406275 33:0.0371082 34:-0.956469 35:-0.00591201 36:-0.69431 37:0.877171 38:0.336648 39:-0.208171 40:-0.965716 41:-0.00235407 42:-0.689919 43:0.546255 44:0.0524211 45:-0.229974 46:-0.980141 47:-0.184614 48:-0.488898 49:-0.229479 50:-0.51706 51:-0.245216 52:-0.975025 53:-0.0988737 54:-0.54377 55:0.73408 56:0.245197 57:-0.17173 58:-0.990567 59:-0.0424018 60:-0.600674 61:0.0245551 62:-0.329904 63:-0.221393 64:-0.98424 65:-0.201695 66:-0.410278 67:0.0112303 68:-0.314597 69:-0.237964 70:-0.987537 71:-0.190675 72:-0.442166 73:-0.672721 74:-0.775695 75:-0.24198 76:-0.546357 77:0.499499 78:-0.866763 79:0.480812 80:0.0349474 81:-0.388417 82:-0.983654 83:-0.722578 84:0.717563 85:1 86:0.337462 87:-0.361837 88:-0.966859 89:-0.0506947 90:-0.609644 91:0.79755 92:0.19756 93:-0.356344 94:-0.991482 95:-0.432059 96:-0.158871 97:0.777828 98:0.23423 99:-0.34264 100:-0.996219 101:-0.200072 102:-0.378831 103:0.826815 104:0.220914 105:-0.3218 106:-0.988696 107:-0.294609 108:-0.349764 109:0.691779 110:0.132846 111:-0.292677 112:-0.994612 113:-0.32431 114:-0.267754 115:0.0575455 116:-0.291498 117:-0.309661 118:-0.998852 119:0.155308 120:-0.746437 121:-0.294613 122:-0.531175 123:-0.307291 124:-0.995222 125:0.276418 126:-0.977542 127:0.0993084 128:-0.258932 129:-0.281715 130:-0.973334 131:-0.705329 132:0.0491186 133:0.520069 134:0.0273074 135:-0.335856 136:-0.990331 137:-0.35986 138:-0.25347 139:0.823564 140:0.279962 141:-0.404572 142:-0.993284 143:-0.655719 144:0.0620567 145:0.949598 146:0.355046 147:-0.410581 148:-0.983408 149:0.0495228 150:-0.622385 151:0.786845 152:0.194462 153:-0.410229 154:-0.997528 155:0.0866263 156:-0.599959 157:0.883475 158:0.322169 159:-0.40448 160:-0.996472 161:0.112892 162:-0.682303 163:0.33087 164:-0.109964 165:-0.401317 166:-0.998263 167:-0.458761 168:-0.135328 169:0.627606 170:0.12366 171:-0.518078 172:-0.993389 173:-0.86397 174:0.430696 175:0.932517 176:0.304809 177:-0.514888 178:-0.996804 179:0.112016 180:-0.688415 181:-0.320758 182:-0.914636 183:-0.891023 184:-0.900727 185:-0.902046 186:-0.891465 187:-0.886849 188:-0.884237 189:-0.876813 190:-0.880304 191:-0.848604 192:-0.871248 193:-0.846255 194:-0.823355 195:-0.72506 196:-0.485128 197:0.137343 198:-0.372116 199:0.508963 200:-0.84506 201:-0.845483 202:-0.817092 203:-0.758049 204:-0.755975 205:-0.756981 206:-0.508661 207:-0.625661 208:-0.613716 209:-0.640841 210:-0.646736 211:-0.611305 212:-0.557583 213:-0.645235 214:-0.719721 215:-0.689412 216:-0.597008 217:1 218:-0.470004 219:-0.570212 220:-0.553878 221:-0.57916 222:-0.660067 223:-0.604787 224:-0.772242 225:-0.769875 226:-0.731407 227:-0.847841 228:-0.800695 229:-0.835134 230:-0.875281 231:-0.880814 232:-0.872269 233:-0.891611 234:-1 235:-0.894311 236:-0.905219 237:-0.894513 238:-0.920643 239:-0.918401 240:-0.919548 241:-0.901138 242:-0.930492 243:-0.909317 244:-0.910242 245:-0.939385 246:-0.92472 247:-0.922934 248:-0.924439 249:-0.920047 250:-0.89234 251:-0.885387 252:-0.900332 
1 1:0.53715 2:0.0424984 3:0.338639 4:-0.960185 5:-0.0666227 7:-0.771652 8:-0.855019 9:0.112654 10:-0.978206 11:-0.804559 12:-0.0235411 13:1 14:0.385413 15:-0.0274564 16:-0.904272 17:-0.119002 18:-0.961842 19:0.571372 20:0.0400886 21:-0.00739529 22:-0.924041 23:-0.173445 24:-0.921604 25:-0.116679 26:-0.383565 27:0.0802566 28:-0.970456 29:-0.68128 30:0.380027 31:0.585181 32:0.123323 33:-0.0064055 34:-0.973251 35:-0.374211 36:-0.703412 37:0.933672 38:0.377052 39:-0.0633907 40:-0.974434 41:-0.341551 42:-0.734768 43:0.320826 44:-0.103303 45:-0.0734842 46:-0.980835 47:-0.524248 48:0.481369 49:-0.0153101 50:-0.382825 51:-0.0588232 52:-0.945466 53:0.125081 54:-0.827533 55:-0.420424 56:-0.587293 57:0.143139 58:-0.977281 59:-0.890751 60:0.108225 61:0.32327 62:-0.131987 63:0.111257 64:-0.949988 65:-0.104086 66:-0.896854 67:-0.258116 68:-0.500513 69:0.132648 70:-0.959358 71:-0.749186 72:0.303641 73:0.360263 74:-0.0677272 75:0.252085 76:-0.989718 77:-0.509638 78:0.436977 79:0.268564 80:-0.113394 81:0.246392 82:-0.973855 83:-0.485001 84:0.560488 85:0.357403 86:-0.0922622 87:0.273642 88:-0.988989 89:-0.661863 90:0.349469 91:0.376258 92:-0.0857147 93:0.338277 94:-0.996861 95:-0.351972 96:0.613149 97:-0.0461304 98:-0.337791 99:0.374819 100:-0.958848 101:0.0947916 102:-0.994549 103:-0.87765 104:-0.91823 105:0.39082 106:-0.982473 107:-0.632421 108:-0.396867 109:0.494782 110:0.000932927 111:0.376921 112:-0.991983 113:-0.468706 114:-0.475611 115:-0.41495 116:-0.608046 117:0.2917 118:-0.992239 119:-0.797388 120:-0.0145827 121:0.0133945 122:-0.326463 123:0.257311 124:-0.984091 125:0.0440587 126:-0.770094 127:0.65755 128:0.117391 129:0.223831 130:-0.984075 131:-0.354652 132:-0.674006 133:-0.481826 134:-0.649803 135:0.255401 136:-0.989825 137:-0.958777 138:-0.0822268 139:0.319561 140:-0.0758748 141:0.173505 142:-0.989236 143:-0.356432 144:-0.657442 145:0.149041 146:-0.20363 147:0.162572 148:-0.80373 149:-0.618095 150:0.329395 151:0.207222 152:-0.193001 153:0.0344215 154:-0.933654 155:-0.693535 156:0.355938 157:0.221045 158:-0.142846 159:0.0420227 160:-0.988589 161:0.127394 162:-0.8965 163:0.894541 164:0.272 165:0.0506193 166:-0.991905 167:-0.436269 168:-0.581187 169:-0.199467 170:-0.45091 171:0.00866581 172:-0.970677 173:0.123967 174:-0.738977 175:0.403938 176:-0.052177 177:-0.0174705 178:-0.996162 179:-0.507745 180:0.372539 181:-0.392556 182:-0.0379833 183:0.0782308 184:-0.156509 185:-0.195961 186:-0.314647 187:-0.280047 188:-0.411182 189:-0.479225 190:-0.485242 191:-0.431952 192:-0.595872 193:-0.571991 194:-0.468225 195:-0.443062 196:-0.566781 197:-0.62746 198:-0.896667 199:-0.563748 200:-0.662634 201:-0.498404 202:-0.413325 203:-0.226973 204:-0.349104 205:-0.423522 206:0.0726163 207:-0.189431 208:-0.100357 209:0.0593812 210:-0.447781 211:-0.253024 212:-0.288814 213:-0.49193 214:-0.658567 215:-0.662409 216:-0.555322 217:1 218:-0.170235 219:-0.289572 220:-0.200368 221:-0.181039 222:-0.171871 223:-0.383501 224:-0.187591 225:-0.496208 226:-0.582223 227:-0.105762 228:-0.656602 229:-0.616693 230:-0.411554 231:-0.583674 232:-0.673568 233:-0.7445 234:-1 235:-0.172433 236:-0.739142 237:-0.657856 238:-0.63039 239:-0.491753 240:-0.671883 241:-0.695281 242:-0.357635 243:-0.622596 244:-0.578389 245:-0.457154 246:-0.574033 247:-0.437358 248:-0.359574 249:-0.268934 250:-0.054238 251:-0.233782 252:-0.558313 
1 1:-0.0372605 2:-0.347068 3:0.26364 4:-0.923821 5:0.577964 7:0.0232448 8:-0.337415 9:0.355184 10:-0.965798 11:0.883648 12:-0.470061 13:0.85479 14:0.284825 15:0.0923434 16:-0.974277 17:0.739773 18:-0.472013 19:0.101353 20:-0.271016 21:0.116023 22:-0.984178 23:0.190493 24:-0.558944 25:-0.362243 26:-0.557278 27:0.165866 28:-0.974853 29:0.615996 30:-0.852963 31:-0.215444 32:-0.447309 33:0.174959 34:-0.937259 35:0.488614 36:-0.876996 37:-0.331665 38:-0.527798 39:-0.0737834 40:-0.984496 41:0.300734 42:-0.698814 43:-0.0733385 44:-0.375588 45:-0.112658 46:-0.996497 47:-0.087404 48:-0.211996 49:-0.130847 50:-0.45524 51:-0.202227 52:-0.988608 53:-0.121306 54:-0.148496 55:-0.359257 56:-0.543187 57:-0.0656987 58:-0.961063 59:0.319353 60:-0.657204 61:0.202261 62:-0.212164 63:-0.153738 64:-0.986425 65:0.393123 66:-0.538983 67:0.869879 68:0.278087 69:-0.392449 70:-0.988131 71:0.0613445 72:-0.299086 73:-0.288821 74:-0.512585 75:-0.36833 76:-0.989285 77:-0.172307 78:-0.229361 79:0.838823 80:0.285163 81:-0.460108 82:-0.996079 83:-0.0490838 84:-0.209717 85:0.449412 86:-0.0307332 87:-0.435296 88:-0.989422 89:-0.138683 90:-0.199592 91:0.0775295 92:-0.286579 93:-0.440236 94:-0.993708 95:-0.268598 96:-0.0100437 97:0.0325055 98:-0.283199 99:-0.524774 100:-0.996131 101:-0.329417 102:0.0341381 103:0.96713 104:0.31469 105:-0.541448 106:-0.98067 107:-0.208366 108:-0.141871 109:0.120885 110:-0.249435 111:-0.533932 112:-0.995825 113:-0.484951 114:0.205866 115:-0.165237 116:-0.440751 117:-0.545469 118:-0.991692 119:-0.370379 120:0.0258429 121:-0.188526 122:-0.460666 123:-0.666846 124:-0.996857 125:-0.555049 126:0.230595 127:-0.00562951 128:-0.329673 129:-0.688215 130:-0.994499 131:-0.526719 132:0.150994 133:0.490093 134:0.00704873 135:-0.677066 136:-0.991651 137:-0.417737 138:0.0825731 139:-0.0538081 140:-0.339481 141:-0.690202 142:-0.988911 143:-0.625355 144:0.34923 145:-0.233811 146:-0.470806 147:-0.71557 148:-0.992394 149:-0.570828 150:0.276152 151:0.719165 152:0.14922 153:-0.760483 154:-0.997175 155:-0.53837 156:0.332862 157:-0.804792 158:-0.862967 159:-0.77324 160:-0.99152 161:-0.36593 162:0.0920648 163:0.0765523 164:-0.282298 165:-0.7897 166:-0.997308 167:-0.647518 168:0.350466 169:-0.851711 170:-0.904025 171:-0.80566 172:-0.997416 173:-0.448656 174:0.128957 175:-0.6219 176:-0.744996 177:-0.800026 178:-0.998145 179:-0.330946 180:0.0384792 181:-0.468629 182:-0.694013 183:-0.662704 184:-0.679304 185:-0.693305 186:-0.705347 187:-0.648014 188:-0.716155 189:-0.721029 190:-0.693129 191:-0.731331 192:-0.729211 193:-0.738503 194:-0.742904 195:-0.716064 196:-0.710114 197:-0.745721 198:-0.78069 199:-0.561922 200:-0.677608 201:-0.632227 202:-0.631428 203:-0.593816 204:-0.578653 205:-0.568653 206:-0.476169 207:-0.54084 208:-0.522573 209:-0.519804 210:-0.685927 211:-0.66117 212:-0.706134 213:-0.809111 214:-0.876306 215:-0.890506 216:-0.892867 217:1 218:-0.510387 219:-0.462372 220:-0.423866 221:-0.46079 222:-0.547041 223:-0.608614 224:-0.645379 225:-0.778217 226:-0.745022 227:-0.668412 228:-0.785915 229:-0.797042 230:-0.815081 231:-0.844091 232:-0.82824 233:-0.833397 234:-1 235:-0.653422 236:-0.854942 237:-0.854217 238:-0.857807 239:-0.843165 240:-0.83754 241:-0.851533 242:-0.752397 243:-0.828592 244:-0.81857 245:-0.785042 246:-0.83046 247:-0.798417 248:-0.773148 249:-0.750102 250:-0.712609 251:-0.829159 252:-0.908844 
1 1:0.329802 2:-0.0981253 3:0.192865 4:-0.976675 5:-0.25955 7:0.0658074 8:-0.3097 9:-0.0440456 10:-0.988681 11:0.232594 12:0.094391 13:-0.0708251 14:-0.356355 15:-0.0905896 16:-0.959037 17:-0.268223 18:-0.0566677 19:0.0525532 20:-0.303317 21:-0.0677713 22:-0.978006 23:0.107798 24:-0.0168912 25:0.0671017 26:-0.253557 27:-0.0686652 28:-0.969812 29:-0.0143343 30:-0.0690639 31:0.158569 32:-0.180737 33:-0.0997132 34:-0.979142 35:-0.0288251 36:-0.531549 37:0.108897 38:-0.21275 39:-0.175307 40:-0.980795 41:-0.16649 42:-0.811153 43:0.446556 44:-0.0164496 45:-0.243321 46:-0.979553 47:-0.560675 48:-0.695159 49:-0.253477 50:-0.532101 51:-0.389698 52:-0.924623 53:-0.215741 54:-0.172789 55:-0.0560075 56:-0.324519 57:-0.434097 58:-0.956224 59:-0.489409 60:-0.155354 61:-0.51856 62:-0.689752 63:-0.427839 64:-0.987628 65:-0.341441 66:-0.280288 67:-0.0943952 68:-0.387505 69:-0.565537 70:-0.967146 71:-0.545837 72:-0.124651 73:-0.0498112 74:-0.348777 75:-0.610352 76:-0.949445 77:-0.601075 78:-0.209427 79:0.628912 80:0.138456 81:-0.626576 82:-0.981659 83:-0.767996 84:-0.437507 85:0.394275 86:-0.0676051 87:-0.686846 88:-0.992881 89:-0.65778 90:-0.551774 91:0.329328 92:-0.117271 93:-0.703828 94:-0.995114 95:-0.531657 96:-0.141477 97:0.229426 98:-0.14649 99:-0.685117 100:-0.995241 101:-0.494703 102:-0.17494 103:-0.114344 104:-0.40809 105:-0.749971 106:-0.994447 107:-0.587934 108:-0.333894 109:0.339228 110:-0.103228 111:-0.733156 112:-0.995186 113:-0.657196 114:-0.0958503 115:0.429229 116:-0.0424886 117:-0.733028 118:-0.956225 119:-0.496971 120:-0.283737 121:-0.272047 122:-0.516177 123:-0.757265 124:-0.997419 125:-0.626869 126:-0.366717 127:0.153345 128:-0.222504 129:-0.755054 130:-0.987243 131:-0.64885 132:0.0750585 133:-0.0791773 134:-0.377681 135:-0.770316 136:-0.989172 137:-0.695931 138:-0.25703 139:0.0293624 140:-0.280761 141:-0.761896 142:-0.992851 143:-0.667194 144:0.123406 145:-0.245341 146:-0.478853 147:-0.75492 148:-0.979215 149:-0.441863 150:-0.560073 151:-0.070933 152:-0.378941 153:-0.755558 154:-0.977691 155:-0.70669 156:-0.171878 157:-0.0519037 158:-0.334452 159:-0.751564 160:-0.988866 161:-0.760586 162:-0.113788 163:-0.128585 164:-0.421306 165:-0.74794 166:-0.982948 167:-0.76728 168:-0.187554 169:-0.113539 170:-0.391215 171:-0.745881 172:-0.989421 173:-0.686785 174:-0.276055 175:-0.0824406 176:-0.380662 177:-0.738763 178:-0.993444 179:-0.769698 180:-0.252508 181:0.095447 182:-0.890733 183:-0.857633 184:-0.861631 185:-0.865792 186:-0.890174 187:-0.809394 188:-0.906149 189:-0.883164 190:-0.874859 191:-0.93591 192:-0.875292 193:-0.8888 194:-0.941648 195:-0.905557 196:-0.907541 197:-0.892972 198:-0.937635 199:0.0324552 200:-0.889531 201:-0.907055 202:-0.927654 203:-0.908346 204:-0.897532 205:-0.863777 206:-0.775899 207:-0.842943 208:-0.87244 209:-0.850009 210:-0.891991 211:-0.883753 212:-0.895497 213:-0.924306 214:-0.942256 215:-0.931653 216:-0.918918 217:1 218:-0.846804 219:-0.863014 220:-0.857775 221:-0.850787 222:-0.86039 223:-0.822054 224:-0.882774 225:-0.907727 226:-0.893485 227:-0.868345 228:-0.899311 229:-0.925208 230:-0.943949 231:-0.9511 232:-0.935903 233:-0.911309 234:-1 235:-0.827265 236:-0.927296 237:-0.938217 238:-0.95309 239:-0.966473 240:-0.944555 241:-0.921728 242:-0.953835 243:-0.925813 244:-0.942016 245:-0.959766 246:-0.927336 247:-0.946353 248:-0.932943 249:-0.918796 250:-0.882903 251:-0.920596 252:-0.984125 
1 1:1 2:0.356405 3:0.656559 4:-0.968692 5:-0.298134 7:0.265527 8:-0.179651 9:-0.265852 10:-0.968592 11:-0.245709 12:-0.590658 13:0.754884 14:0.215619 15:-0.289264 16:-0.917686 17:-0.920405 18:-0.218792 19:-0.026933 20:-0.355929 21:-0.301011 22:-0.429433 23:-0.701395 24:-0.0018815 25:0.277909 26:-0.104431 27:-0.215395 28:-0.772721 29:-0.778023 30:-0.072907 31:0.780652 32:0.262642 33:-0.242845 34:-0.985612 35:-0.817891 36:-0.130378 37:0.433026 38:0.0190372 39:-0.383228 40:-0.961959 41:-0.831003 42:-0.113288 43:0.92758 44:0.315838 45:-0.413252 46:-0.96391 47:0.497136 48:0.247623 49:0.117457 50:-0.29961 51:-0.418693 52:-0.954139 53:-0.890881 54:-0.127318 55:0.53635 56:0.102618 57:-0.300172 58:-0.976847 59:-0.963521 60:-0.229867 61:-0.321322 62:-0.559069 63:-0.301897 64:-0.989067 65:-0.762916 66:-0.323135 67:-0.717123 68:-0.817343 69:-0.287645 70:-0.986708 71:-0.574652 72:-0.376701 73:-0.431258 74:-0.610206 75:-0.213729 76:-0.994648 77:-0.64346 78:-0.0382864 79:0.588566 80:0.110257 81:-0.211134 82:-0.984236 83:0.389698 84:0.189144 85:0.963425 86:0.313003 87:-0.207633 88:-0.989299 89:-0.416655 90:-0.617678 91:0.854745 92:0.236017 93:-0.174267 94:-0.991084 95:-0.863028 96:-0.384146 97:0.380816 98:-0.04139 99:-0.174021 100:-0.982801 101:-0.716025 102:-0.331522 103:0.244833 104:-0.168042 105:-0.203529 106:-0.968086 107:-0.899544 108:-0.312098 109:0.241196 110:-0.168873 111:-0.180888 112:-0.964602 113:-0.446401 114:-0.640616 115:0.379606 116:-0.0757336 117:-0.190243 118:-0.999106 119:0.063387 120:-0.323538 121:-0.276691 122:-0.519264 123:-0.186569 124:-0.944682 125:-0.792312 126:-0.111414 127:-0.907028 128:-0.937325 129:-0.156585 130:-0.99498 131:-0.869677 132:-0.226482 133:1 134:0.351659 135:-0.154439 136:-0.992692 137:-0.6185 138:-0.436095 139:-0.295722 140:-0.510277 141:-0.142749 142:-0.989056 143:-0.833708 144:-0.292222 145:-0.979583 146:-0.99125 147:-0.145066 148:-0.979346 149:-0.922535 150:-0.286013 151:0.581859 152:0.0574345 153:-0.145081 154:-0.990966 155:0.198797 156:-0.0459854 157:-0.130424 158:-0.389572 159:-0.132816 160:-0.994613 161:-0.726019 162:-0.378181 163:-0.661593 164:-0.782491 165:-0.126302 166:-0.996065 167:-0.775065 168:-0.370963 169:0.249273 170:-0.139169 171:-0.131289 172:-0.99056 173:-0.707719 174:-0.565989 175:0.208733 176:-0.184012 177:-0.145604 178:-0.988496 179:-0.161465 180:-0.530007 181:0.933865 182:-0.886507 183:-0.540333 184:-0.329079 185:-0.24658 186:-0.153653 187:-0.511287 188:-0.0610612 189:-0.446382 190:-0.616281 191:-0.0282033 192:-0.679235 193:-0.618035 194:-0.338078 195:-0.4937 196:-0.713997 197:-0.884505 198:-0.971919 199:0.0048892 200:-0.890032 201:-0.781707 202:-0.648062 203:-0.325119 204:-0.778341 205:-0.900527 206:0.198811 207:-0.856615 208:-0.708008 209:-0.0757186 210:-0.888214 211:-0.526182 212:-0.657941 213:-0.768337 214:-0.87281 215:-0.930756 216:-0.999095 217:1 218:-0.979736 219:-0.916153 220:-0.787092 221:-0.716986 222:-0.559731 223:-0.836586 224:-0.29865 225:-0.719775 226:-0.850811 227:0.000874535 228:-0.843219 229:-0.752806 230:-0.400668 231:-0.660749 232:-0.751082 233:-0.840026 234:-0.939227 235:0.270483 236:-0.835608 237:-0.711893 238:-0.590794 239:-0.331276 240:-0.647933 241:-0.758929 242:0.113004 243:-0.725385 244:-0.51481 245:-0.1592 246:-0.686182 247:-0.325931 248:-0.403362 249:-0.342119 250:-0.401246 251:-0.873669 252:-1 
1 1:0.625997 2:0.102755 3:-0.0068418 4:-0.975494 5:-0.0573329 7:0.284624 8:-0.167216 9:-0.694195 10:-0.968161 11:-0.0889232 12:-0.787874 13:0.398311 14:-0.0313811 15:-0.672661 16:-0.0634835 17:-0.0171995 18:-0.71411 19:0.579694 20:0.0455971 21:-0.701931 22:-0.789039 23:-0.885454 24:-0.173266 25:0.667545 26:0.1712 27:-0.656232 28:-0.937907 29:-0.151126 30:-0.880519 31:0.222164 32:-0.135411 33:-0.688285 34:-0.945827 35:-0.874048 36:0.121874 37:0.958033 38:0.394473 39:-0.702493 40:-0.968813 41:-1 42:-0.00895823 43:0.293881 44:-0.121916 45:-0.692007 46:-0.894254 47:-0.887337 48:-0.0159059 49:0.422798 50:-0.108231 51:-0.702262 52:-0.92673 53:0.0882463 54:-0.672875 55:0.644875 56:0.180873 57:-0.673535 58:-0.991409 59:0.103142 60:-0.699826 61:-0.0693695 62:-0.392135 63:-0.672941 64:-0.822588 65:-0.852662 66:0.203073 67:-0.0690866 68:-0.370035 69:-0.713258 70:-0.979671 71:-0.330678 72:-0.675278 73:0.77645 74:0.217511 75:-0.683723 76:-0.964847 77:0.165057 78:-0.65964 79:0.748319 80:0.221909 81:-0.680642 82:-0.989953 83:0.227292 84:-0.575399 85:0.94435 86:0.300248 87:-0.677817 88:-0.985434 89:-0.706387 90:-0.296406 91:0.41995 92:-0.0563368 93:-0.67801 94:-0.996146 95:0.110724 96:-0.738383 97:-0.639551 98:-0.749764 99:-0.652162 100:-0.990444 101:-0.635912 102:0.327218 103:0.65588 104:0.106673 105:-0.635353 106:-0.923976 107:-0.0938043 108:-0.805446 109:0.626473 110:0.0891158 111:-0.616325 112:-0.994014 113:0.0188261 114:-0.69816 115:0.718871 116:0.151557 117:-0.619117 118:-0.99044 119:-0.533246 120:-0.444851 121:-0.28714 122:-0.526209 123:-0.613435 124:-0.89131 125:-0.834041 126:0.173346 127:0.312511 128:-0.115207 129:-0.598493 130:-0.992034 131:-0.867818 132:-0.146057 133:0.198313 134:-0.190145 135:-0.593951 136:-0.950774 137:-0.2287 138:-0.660738 139:0.245798 140:-0.127953 141:-0.608958 142:-0.992779 143:-0.851163 144:-0.0667634 145:-0.163192 146:-0.421524 147:-0.632329 148:-0.992045 149:-0.377438 150:-0.540319 151:0.814778 152:0.213135 153:-0.627654 154:-0.997974 155:-0.254115 156:-0.627829 157:0.789966 158:0.256527 159:-0.615324 160:-0.975766 161:-0.358093 162:-0.569879 163:0.851061 164:0.242536 165:-0.648318 166:-0.844 167:0.133644 168:-0.769711 169:0.507997 170:0.0405669 171:-0.660011 172:-0.983581 173:-0.00890723 174:-0.784998 175:0.0725911 176:-0.275958 177:-0.663487 178:-0.997385 179:-0.303661 180:-0.656431 181:0.0451157 182:-0.876037 183:-0.809902 184:-0.782291 185:-0.786531 186:-0.783807 187:-0.751888 188:-0.792682 189:-0.813751 190:-0.839881 191:-0.773203 192:-0.878359 193:-0.866238 194:-0.856421 195:-0.862485 196:-0.88621 197:-0.920144 198:-1 199:-0.0620626 200:-0.921433 201:-0.869884 202:-0.869432 203:-0.790264 204:-0.835407 205:-0.855901 206:-0.527205 207:-0.753913 208:-0.712486 209:-0.674418 210:-0.800691 211:-0.736921 212:-0.733168 213:-0.811136 214:-0.864622 215:-0.883622 216:-0.927729 217:1 218:-0.815117 219:-0.767494 220:-0.683794 221:-0.680915 222:-0.664966 223:-0.692277 224:-0.708245 225:-0.759502 226:-0.760981 227:-0.658878 228:-0.811824 229:-0.803478 230:-0.789594 231:-0.817951 232:-0.834482 233:-0.849488 234:-0.997407 235:-0.2466 236:-0.863543 237:-0.846017 238:-0.86268 239:-0.840148 240:-0.860435 241:-0.87279 242:-0.761877 243:-0.861941 244:-0.860287 245:-0.848006 246:-0.879776 247:-0.8549 248:-0.854695 249:-0.815045 250:-0.770492 251:-0.82061 252:-0.970692 
0.7446877418830118 1:-0.0160474 2:-0.332681 3:0.368795 4:-0.804282 5:0.669311 7:0.236134 8:-0.19879 9:0.166081 10:-0.902095 11:0.655192 12:-0.954594 13:0.233849 14:-0.145305 15:0.117846 16:-0.981148 17:0.621369 18:-0.970178 19:0.240408 20:-0.178976 21:0.064827 22:-0.443618 23:0.636933 24:-0.971211 25:0.224936 26:-0.141904 27:0.062082 28:-0.937397 29:0.552375 30:-0.826396 31:0.276908 32:-0.0963931 33:0.060814 34:-0.987143 35:0.595375 36:-0.925172 37:-0.00797633 38:-0.296327 39:-0.00464845 40:-0.887525 41:0.453136 42:-0.791467 43:0.245337 44:-0.15545 45:-0.0142699 46:-0.9954 47:0.587087 48:-0.897769 49:0.168969 50:-0.267324 51:-0.130536 52:-0.963175 53:0.463618 54:-0.678647 55:0.547423 56:0.110602 57:-0.0430246 58:-0.941955 59:0.784992 60:-0.958735 61:-0.018719 62:-0.358576 63:-0.054527 64:-0.943645 65:-0.872938 66:0.898955 67:0.208371 68:-0.17852 69:-0.03514 70:-0.990436 71:0.505555 72:-0.799383 73:0.345133 74:-0.0780974 75:-0.0506336 76:-0.990351 77:0.605955 78:-0.947138 79:0.160749 80:-0.188746 81:-0.0413518 82:-0.988585 83:0.407029 84:-0.688555 85:-0.0607809 86:-0.371915 87:-0.116981 88:-0.975509 89:-0.803921 90:0.701917 91:-0.113201 92:-0.414825 93:-0.125353 94:-0.987709 95:-0.853411 96:0.837394 97:-0.0600642 98:-0.347464 99:-0.0992702 100:-0.993789 101:-0.786184 102:0.649686 103:0.321927 104:-0.116517 105:-0.188891 106:-0.993376 107:0.441326 108:-0.703044 109:0.56353 110:0.0469677 111:-0.176886 112:-0.984895 113:0.744501 114:-0.90739 115:0.0846819 116:-0.273318 117:-0.187489 118:-0.996618 119:0.395229 120:-0.604543 121:-0.255319 122:-0.505059 123:-0.153948 124:-0.99194 125:-0.874707 126:0.794907 127:0.260266 128:-0.150427 129:-0.156619 130:-0.935024 131:0.45917 132:-0.71559 133:0.145101 134:-0.226107 135:-0.140519 136:-0.988027 137:0.420625 138:-0.582959 139:-0.0241215 140:-0.318522 141:-0.14292 142:-0.986974 143:0.263841 144:-0.503525 145:0.158423 146:-0.197082 147:-0.164062 148:-0.988545 149:-0.487825 150:0.342133 151:-0.166001 152:-0.442492 153:-0.166949 154:-0.998527 155:0.202253 156:-0.305333 157:-0.198621 158:-0.437445 159:-0.153656 160:-0.996672 161:0.163881 162:-0.360063 163:0.276512 164:-0.146798 165:-0.146786 166:-0.998488 167:0.396929 168:-0.585171 169:0.162913 170:-0.199164 171:-0.162208 172:-0.996112 173:0.336416 174:-0.548529 175:0.0633509 176:-0.282199 177:-0.188154 178:-0.998059 179:0.33977 180:-0.534047 181:-0.533837 182:-0.912845 183:-0.89403 184:-0.885414 185:-0.889013 186:-0.879686 187:-0.873469 188:-0.876055 189:-0.888128 190:-0.882425 191:-0.896963 192:-0.878389 193:-0.877643 194:-0.872731 195:-0.816183 196:-0.835374 197:-0.852941 198:-0.907586 199:-0.344307 200:-0.83488 201:-0.799934 202:-0.770689 203:-0.731664 204:-0.718603 205:-0.73358 206:-0.643065 207:-0.550207 208:-0.516622 209:-0.572993 210:-0.612015 211:-0.585062 212:-0.57572 213:-0.678364 214:-0.772682 215:-0.817993 216:-0.826607 217:1 218:-0.650608 219:-0.609709 220:-0.5272 221:-0.528128 222:-0.562538 223:-0.539917 224:-0.682565 225:-0.685022 226:-0.69004 227:-0.758798 228:-0.784647 229:-0.806512 230:-0.810136 231:-0.827322 232:-0.84283 233:-0.876772 234:-1 235:-0.806527 236:-0.892904 237:-0.885057 238:-0.906815 239:-0.902438 240:-0.914849 241:-0.923922 242:-0.90209 243:-0.923317 244:-0.934681 245:-0.928561 246:-0.939591 247:-0.942469 248:-0.944085 249:-0.926391 250:-0.890522 251:-0.859762 252:-0.78582 
