svm_type one_class
kernel_type rbf
gamma 0.00012207
nr_class 2
total_sv 697
rho 692.882
SV
1 1:-0.404487 2:-0.683849 3:-0.310242 4:-0.216291 5:-0.999973 7:-0.235815 8:-0.692649 9:-0.536098 10:-0.61759 11:-0.999973 12:-0.976563 13:0.716408 14:-0.117218 15:-0.495254 16:-0.979168 17:-0.99997 18:-0.818094 19:-0.798074 20:-0.90246 21:-0.466628 22:-0.977696 23:-0.999982 24:-0.494956 25:-0.690242 26:-0.848992 27:-0.476341 28:-0.990765 29:-0.99998 30:-0.598547 31:-0.533054 32:-0.767507 33:-0.465577 34:-0.986906 35:-0.999976 36:-0.815208 37:-0.0271869 38:-0.575736 39:-0.517438 40:-0.958248 41:-0.999975 42:-0.888633 43:0.630868 44:-0.0843142 45:-0.534357 46:-0.995305 47:-0.999984 48:-0.323385 49:-0.089439 50:-0.65356 51:-0.560704 52:-0.994738 53:-0.999976 54:-0.842836 55:0.654115 56:-0.15498 57:-0.491181 58:-0.995012 59:-0.99999 60:-0.00564138 61:0.0673515 62:-0.49805 63:-0.489713 64:-0.9909 65:-0.999974 66:-0.954883 67:0.951053 68:-0.173184 69:-0.501017 70:-0.986297 71:-0.999972 72:-0.914219 73:0.481573 74:-0.269685 75:-0.487273 76:-0.764432 77:-0.999972 78:-0.936882 79:0.546575 80:-0.235978 81:-0.50176 82:-0.987941 83:-0.999974 84:-0.969211 85:0.558398 86:-0.259059 87:-0.496482 88:-0.996629 89:-0.999972 90:-0.890632 91:0.260347 92:-0.42449 93:-0.480759 94:-0.952516 95:-0.999971 96:-0.874975 97:0.640219 98:-0.171817 99:-0.480682 100:-0.987428 101:-0.999994 102:0.278158 103:0.110412 104:-0.482266 105:-0.479354 106:-0.997738 107:-0.999975 108:-0.918092 109:-0.038804 110:-0.600464 111:-0.476897 112:-0.988584 113:-0.999992 114:0.173636 115:-0.215034 116:-0.530289 117:-0.475459 118:-0.989421 119:-0.999977 120:-0.804975 121:0.404713 122:-0.367382 123:-0.535201 124:-0.926479 125:-0.999992 126:0.10256 127:0.94022 128:-0.142324 129:-0.546993 130:-0.994893 131:-0.999974 132:-0.926374 133:0.139732 134:-0.40302 135:-0.555677 136:-0.994212 137:-0.999975 138:-0.887439 139:0.564793 140:-0.209293 141:-0.560395 142:-0.997007 143:-0.999993 144:0.159947 145:0.864459 146:-0.100213 147:-0.573822 148:-0.997639 149:-0.999974 150:-0.967485 151:0.964523 152:-0.04443 153:-0.580386 154:-0.993098 155:-0.999973 156:-0.986755 157:0.198889 158:-0.362562 159:-0.587342 160:-0.982818 161:-0.999993 162:0.192841 163:0.0953565 164:-0.430481 165:-0.587048 166:-0.992444 167:-0.999977 168:-0.830355 169:0.912732 170:-0.0258503 171:-0.581404 172:-0.997202 173:-0.999975 174:-0.897203 175:0.277894 176:-0.319524 177:-0.584686 178:-0.865656 179:-0.999993 180:0.16162 181:0.0144979 182:-0.596338 183:-0.656849 184:-0.692367 185:-0.734501 186:-0.74243 187:-0.7803 188:-0.712902 189:-0.768935 190:-0.760513 191:-0.706534 192:-0.764688 193:-0.764663 194:-0.731206 195:-0.751223 196:-0.763354 197:-0.795353 198:-0.919007 199:-0.504153 200:-0.748401 201:-0.724286 202:-0.802833 203:-0.83078 204:-0.851146 205:-0.881643 206:-0.829258 207:-0.890662 208:-0.871299 209:-0.805649 210:-0.793309 211:-0.747002 212:-0.811568 213:-0.783649 214:-0.685903 215:-0.730272 216:-0.829197 217:1 218:-0.672906 219:-0.534139 220:-0.536844 221:-0.566094 222:-0.545517 223:-0.617586 224:-0.469772 225:-0.577676 226:-0.633825 227:-0.591644 228:-0.69633 229:-0.633937 230:-0.658095 231:-0.669416 232:-0.654485 233:-0.705194 234:-1 235:-0.648381 236:-0.752227 237:-0.735822 238:-0.76146 239:-0.745065 240:-0.751851 241:-0.776324 242:-0.735731 243:-0.758895 244:-0.775433 245:-0.737948 246:-0.769014 247:-0.743175 248:-0.768933 249:-0.752247 250:-0.738606 251:-0.735936 252:-0.762887 
1 1:-0.641544 2:-0.8097 3:-0.597894 4:-0.941977 5:-0.999997 7:0.846616 8:-0.254639 9:-0.58405 10:-0.984356 11:-0.999992 12:-0.459702 13:-0.60202 14:-0.795311 15:-0.551209 16:-0.976853 17:-0.999997 18:-0.956817 19:-0.56709 20:-0.783444 21:-0.55567 22:-0.986148 23:-0.999997 24:-0.966316 25:-0.517835 26:-0.763099 27:-0.559816 28:-0.991249 29:-0.999997 30:-0.951378 31:-0.481911 32:-0.742043 33:-0.542376 34:-0.988109 35:-0.999996 36:-0.943806 37:-0.435489 38:-0.754359 39:-0.578651 40:-0.992041 41:-0.999997 42:-0.939653 43:0.196969 44:-0.327936 45:-0.56838 46:-0.995222 47:-0.999978 48:0.407975 49:-0.379646 50:-0.763975 51:-0.604788 52:-0.987952 53:-0.999997 54:-0.929575 55:-0.039607 56:-0.509374 57:-0.543506 58:-0.991344 59:-0.999976 60:0.577846 61:-0.746807 62:-0.880929 63:-0.565057 64:-0.960075 65:-0.999997 66:-0.672713 67:-0.021504 68:-0.585333 69:-0.560521 70:-0.973604 71:-0.999995 72:-0.778781 73:-0.0693998 74:-0.541277 75:-0.549581 76:-0.989743 77:-0.999996 78:-0.940468 79:-0.245258 80:-0.627151 81:-0.561112 82:-0.972245 83:-0.999996 84:-0.920261 85:-0.55034 86:-0.786209 87:-0.567401 88:-0.993614 89:-0.999998 90:-0.770398 91:0.0269416 92:-0.531069 93:-0.56098 94:-0.994015 95:-0.999994 96:-0.75698 97:-0.125667 98:-0.55853 99:-0.554651 100:-0.994328 101:-0.999996 102:-0.902542 103:-0.0399578 104:-0.553103 105:-0.596098 106:-0.996967 107:-0.999996 108:-0.897091 109:0.0170963 110:-0.577228 111:-0.633787 112:-0.994787 113:-0.999996 114:-0.906391 115:-0.0830407 116:-0.450376 117:-0.639092 118:-0.994706 119:-0.999996 120:-0.924203 121:0.239385 122:-0.441838 123:-0.658482 124:-0.982805 125:-0.999994 126:-0.740961 127:-0.204534 128:-0.650375 129:-0.669045 130:-0.986951 131:-0.999998 132:-0.883004 133:0.892599 134:-0.00867466 135:-0.737033 136:-0.997647 137:-0.999994 138:-0.521148 139:0.516454 140:-0.233719 141:-0.763188 142:-0.996723 143:-0.999991 144:-0.320249 145:-0.0793654 146:-0.555702 147:-0.785477 148:-0.98815 149:-0.99998 150:0.338798 151:0.341902 152:-0.347281 153:-0.805615 154:-0.992901 155:-0.999981 156:0.242433 157:-0.129108 158:-0.537815 159:-0.81756 160:-0.991447 161:-0.999976 162:0.557086 163:0.585596 164:-0.175586 165:-0.850598 166:-0.977599 167:-0.999994 168:-0.755583 169:0.00604468 170:-0.487624 171:-0.852146 172:-0.9942 173:-0.999979 174:0.356289 175:-0.255366 176:-0.604618 177:-0.865187 178:-0.995782 179:-0.999995 180:-0.607994 181:0.635246 182:-0.761962 183:-0.706005 184:-0.685425 185:-0.751178 186:-0.778962 187:-0.838966 188:-0.7649 189:-0.836533 190:-0.866769 191:-0.70162 192:-0.867805 193:-0.859176 194:-0.79588 195:-0.815723 196:-0.824916 197:-0.855146 198:-0.929477 199:-0.031398 200:-0.77428 201:-0.751149 202:-0.781946 203:-0.784003 204:-0.808979 205:-0.851554 206:-0.75491 207:-0.843823 208:-0.809577 209:-0.699063 210:-0.55921 211:-0.447473 212:-0.498913 213:-0.457992 214:-0.353819 215:-0.636685 216:-0.847049 217:1 218:-0.817577 219:-0.702413 220:-0.637193 221:-0.640843 222:-0.614004 223:-0.706831 224:-0.608395 225:-0.697943 226:-0.735244 227:-0.65678 228:-0.800452 229:-0.765479 230:-0.743129 231:-0.756104 232:-0.769405 233:-0.801668 234:-1 235:-0.457312 236:-0.836406 237:-0.82289 238:-0.830321 239:-0.788524 240:-0.839261 241:-0.877603 242:-0.726937 243:-0.830138 244:-0.815377 245:-0.77022 246:-0.800633 247:-0.749591 248:-0.756479 249:-0.727771 250:-0.707324 251:-0.703802 252:-0.729082 
1 1:0.990564 2:0.0567667 3:-0.668486 4:-0.96648 5:-0.999971 7:0.961811 8:-0.208026 9:-0.615527 10:-0.987804 11:-0.999978 12:-0.386268 13:0.905764 14:-0.0198287 15:-0.579879 16:-0.978164 17:-0.999989 18:0.300649 19:0.85923 20:-0.048521 21:-0.528428 22:-0.962349 23:-0.999997 24:0.614938 25:0.570338 26:-0.220979 27:-0.525836 28:-0.99153 29:-0.999996 30:0.479865 31:0.562211 32:-0.222174 33:-0.512318 34:-0.974937 35:-0.999995 36:0.431991 37:0.814045 38:-0.207715 39:-0.508201 40:-0.987652 41:-0.999994 42:0.403648 43:-0.0245887 44:-0.452334 45:-0.513766 46:-0.614841 47:-1 48:0.669807 49:0.249783 50:-0.524496 51:-0.545127 52:-0.965736 53:-0.999995 54:0.58333 55:-0.00838537 56:-0.493424 57:-0.475309 58:-0.97577 59:-0.999997 60:0.631567 61:0.942455 62:-0.0865093 63:-0.50043 64:-0.995779 65:-0.999978 66:-0.392801 67:0.694281 68:-0.281998 69:-0.492023 70:-0.983089 71:-0.99997 72:-0.924547 73:0.599906 74:-0.211355 75:-0.486407 76:-0.982149 77:-0.999996 78:0.530301 79:-0.966235 80:-0.98332 81:-0.474882 82:-0.992115 83:-0.999997 84:0.598854 85:0.429299 86:-0.320439 87:-0.494307 88:-0.997108 89:-0.999978 90:-0.595059 91:-0.122674 92:-0.599388 93:-0.472834 94:-0.995642 95:-0.999996 96:0.480707 97:0.47684 98:-0.254311 99:-0.460827 100:-0.994103 101:-0.999978 102:-0.604621 103:0.441836 104:-0.326138 105:-0.478384 106:-0.996474 107:-0.999978 108:-0.599963 109:-0.360572 110:-0.734212 111:-0.470075 112:-0.99372 113:-0.999972 114:-0.935636 115:0.0756111 116:-0.354323 117:-0.456933 118:-0.995332 119:-0.999994 120:0.446522 121:0.830761 122:-0.17551 123:-0.481312 124:-0.954254 125:-0.99997 126:-0.922056 127:0.442566 128:-0.363187 129:-0.490365 130:-0.995855 131:-0.999978 132:-0.62803 133:-1 134:-1 135:-0.488532 136:-0.988309 137:-0.999996 138:0.489432 139:0.617173 140:-0.182825 141:-0.507192 142:-0.992235 143:-0.999996 144:0.55285 145:0.861042 146:-0.101862 147:-0.525906 148:-0.997466 149:-0.999995 150:0.455174 151:0.279374 152:-0.377696 153:-0.523497 154:-0.995891 155:-0.999999 156:0.628629 157:0.645103 158:-0.124146 159:-0.534624 160:-0.997572 161:-0.999996 162:0.569362 163:-0.13665 164:-0.55111 165:-0.531114 166:-0.997784 167:-0.999996 168:0.552423 169:0.0913579 170:-0.444174 171:-0.525332 172:-0.971961 173:-0.999998 174:0.580781 175:0.422264 176:-0.24234 177:-0.526941 178:-0.993693 179:-0.999975 180:-0.779859 181:0.856109 182:-0.296807 183:-0.534411 184:-0.689917 185:-0.756873 186:-0.764634 187:-0.821846 188:-0.73183 189:-0.793013 190:-0.747067 191:-0.540473 192:-0.576264 193:-0.619623 194:-0.699611 195:-0.779505 196:-0.782065 197:-0.860473 198:-0.946591 199:-0.154584 200:-0.861315 201:-0.854174 202:-0.896741 203:-0.907963 204:-0.926093 205:-0.949575 206:-0.859333 207:-0.951651 208:-0.939382 209:-0.890073 210:-0.867884 211:-0.841906 212:-0.86619 213:-0.814824 214:-0.622264 215:-0.431338 216:-0.344047 217:1 218:-0.786961 219:-0.745301 220:-0.755443 221:-0.794134 222:-0.765476 223:-0.831972 224:-0.726887 225:-0.809803 226:-0.83519 227:-0.717023 228:-0.827346 229:-0.816466 230:-0.792315 231:-0.779686 232:-0.796861 233:-0.812604 234:-1 235:-0.466138 236:-0.819158 237:-0.809294 238:-0.825211 239:-0.806247 240:-0.818862 241:-0.813834 242:-0.730616 243:-0.832243 244:-0.83121 245:-0.789224 246:-0.833124 247:-0.813832 248:-0.83009 249:-0.818522 250:-0.761712 251:-0.638443 252:-0.645819 
1 1:-0.765099 2:-0.875294 3:0.0772607 4:-0.577931 5:-0.999998 7:-0.0585065 8:-0.6209 9:-0.259532 10:-0.974191 11:-0.999975 12:0.550336 13:-0.595529 14:-0.791973 15:-0.463787 16:-0.972761 17:-0.999999 18:-0.822936 19:0.992909 20:0.020358 21:-0.466279 22:-0.970963 23:-0.999982 24:0.200793 25:-0.356548 26:-0.682747 27:-0.479649 28:-0.939288 29:-0.999976 30:0.607561 31:-0.0412847 32:-0.522655 33:-0.457588 34:-0.941524 35:-0.999978 36:0.422177 37:-0.307968 38:-0.698572 39:-0.459075 40:-0.610474 41:-0.999998 42:-0.889193 43:-0.610883 44:-0.781522 45:-0.46407 46:-0.996702 47:-0.999998 48:-0.766408 49:0.806813 50:-0.312563 51:-0.475517 52:-0.991277 53:-0.999991 54:-0.34933 55:0.887109 56:-0.0359529 57:-0.446469 58:-0.995326 59:-0.999999 60:-0.925084 61:0.854021 62:-0.128098 63:-0.522131 64:-0.993522 65:-0.999998 66:-0.956896 67:-0.0331227 68:-0.590257 69:-0.544313 70:-0.982238 71:-0.999998 72:-0.972556 73:-0.74662 74:-0.875101 75:-0.589147 76:-0.816206 77:-0.999972 78:0.752311 79:-0.0794408 80:-0.545236 81:-0.626569 82:-0.98785 83:-0.999998 84:-0.768099 85:-0.617122 86:-0.81796 87:-0.625198 88:-0.663029 89:-0.999973 90:0.776558 91:0.21532 92:-0.44505 93:-0.607405 94:-0.829233 95:-0.999998 96:-0.907634 97:0.171152 98:-0.40866 99:-0.640684 100:-0.959729 101:-0.999999 102:-0.855674 103:0.925815 104:-0.0981438 105:-0.657183 106:-0.988081 107:-0.999983 108:0.0668842 109:0.518162 110:-0.368952 111:-0.696634 112:-0.995691 113:-0.999998 114:-0.950726 115:0.970391 116:0.187405 117:-0.694041 118:-0.995029 119:-0.999988 120:-0.213915 121:-0.684288 122:-0.857818 123:-0.696 124:-0.994089 125:-0.999976 126:0.557001 127:0.91398 128:-0.15397 129:-0.708359 130:-0.983559 131:-0.999999 132:-0.86472 133:1 134:0.0475808 135:-0.717447 136:-0.992941 137:-0.999995 138:-0.635156 139:0.648984 140:-0.166751 141:-0.715374 142:-0.9369 143:-0.999999 144:-0.971881 145:0.243999 146:-0.399647 147:-0.724329 148:-0.99767 149:-0.999999 150:-0.912241 151:0.400005 152:-0.319019 153:-0.735834 154:-0.99109 155:-0.999998 156:-0.822323 157:-0.668073 158:-0.82579 159:-0.734877 160:-0.9961 161:-0.999988 162:-0.204121 163:0.740985 164:-0.0947929 165:-0.733075 166:-0.989077 167:-0.999991 168:-0.373773 169:-0.446995 170:-0.718356 171:-0.732907 172:-0.997167 173:-0.99998 174:0.25915 175:0.517995 176:-0.191159 177:-0.744189 178:-0.609515 179:-1 180:-0.905925 181:0.327272 182:-0.723054 183:-0.736008 184:-0.699669 185:-0.734025 186:-0.709906 187:-0.797923 188:-0.669502 189:-0.774509 190:-0.817999 191:-0.609038 192:-0.759467 193:-0.718099 194:-0.633879 195:-0.700038 196:-0.729699 197:-0.745838 198:-0.770171 199:-0.379598 200:-0.738358 201:-0.755651 202:-0.813692 203:-0.840108 204:-0.877202 205:-0.905588 206:-0.812613 207:-0.911563 208:-0.90269 209:-0.832688 210:-0.82702 211:-0.797083 212:-0.844659 213:-0.800354 214:-0.686774 215:-0.727135 216:-0.734578 217:1 218:-0.712399 219:-0.581913 220:-0.596811 221:-0.647688 222:-0.605058 223:-0.725538 224:-0.511618 225:-0.677044 226:-0.744462 227:-0.559119 228:-0.762931 229:-0.719633 230:-0.665309 231:-0.70775 232:-0.700704 233:-0.822152 234:-1 235:-0.506227 236:-0.848089 237:-0.791981 238:-0.783771 239:-0.752202 240:-0.805985 241:-0.838317 242:-0.707314 243:-0.818749 244:-0.781633 245:-0.757255 246:-0.804611 247:-0.755787 248:-0.759179 249:-0.715633 250:-0.672524 251:-0.551234 252:-0.452094 
1 1:-0.404487 2:-0.683849 3:-0.310242 4:-0.216291 5:-0.999973 7:-0.235815 8:-0.692649 9:-0.536098 10:-0.61759 11:-0.999973 12:-0.976563 13:0.716408 14:-0.117218 15:-0.495254 16:-0.979168 17:-0.99997 18:-0.818094 19:-0.798074 20:-0.90246 21:-0.466628 22:-0.977696 23:-0.999982 24:-0.494956 25:-0.690242 26:-0.848992 27:-0.476341 28:-0.990765 29:-0.99998 30:-0.598547 31:-0.533054 32:-0.767507 33:-0.465577 34:-0.986906 35:-0.999976 36:-0.815208 37:-0.0271869 38:-0.575736 39:-0.517438 40:-0.958248 41:-0.999975 42:-0.888633 43:0.630868 44:-0.0843142 45:-0.534357 46:-0.995305 47:-0.999984 48:-0.323385 49:-0.089439 50:-0.65356 51:-0.560704 52:-0.994738 53:-0.999976 54:-0.842836 55:0.654115 56:-0.15498 57:-0.491181 58:-0.995012 59:-0.99999 60:-0.00564138 61:0.0673515 62:-0.49805 63:-0.489713 64:-0.9909 65:-0.999974 66:-0.954883 67:0.951053 68:-0.173184 69:-0.501017 70:-0.986297 71:-0.999972 72:-0.914219 73:0.481573 74:-0.269685 75:-0.487273 76:-0.764432 77:-0.999972 78:-0.936882 79:0.546575 80:-0.235978 81:-0.50176 82:-0.987941 83:-0.999974 84:-0.969211 85:0.558398 86:-0.259059 87:-0.496482 88:-0.996629 89:-0.999972 90:-0.890632 91:0.260347 92:-0.42449 93:-0.480759 94:-0.952516 95:-0.999971 96:-0.874975 97:0.640219 98:-0.171817 99:-0.480682 100:-0.987428 101:-0.999994 102:0.278158 103:0.110412 104:-0.482266 105:-0.479354 106:-0.997738 107:-0.999975 108:-0.918092 109:-0.038804 110:-0.600464 111:-0.476897 112:-0.988584 113:-0.999992 114:0.173636 115:-0.215034 116:-0.530289 117:-0.475459 118:-0.989421 119:-0.999977 120:-0.804975 121:0.404713 122:-0.367382 123:-0.535201 124:-0.926479 125:-0.999992 126:0.10256 127:0.94022 128:-0.142324 129:-0.546993 130:-0.994893 131:-0.999974 132:-0.926374 133:0.139732 134:-0.40302 135:-0.555677 136:-0.994212 137:-0.999975 138:-0.887439 139:0.564793 140:-0.209293 141:-0.560395 142:-0.997007 143:-0.999993 144:0.159947 145:0.864459 146:-0.100213 147:-0.573822 148:-0.997639 149:-0.999974 150:-0.967485 151:0.964523 152:-0.04443 153:-0.580386 154:-0.993098 155:-0.999973 156:-0.986755 157:0.198889 158:-0.362562 159:-0.587342 160:-0.982818 161:-0.999993 162:0.192841 163:0.0953565 164:-0.430481 165:-0.587048 166:-0.992444 167:-0.999977 168:-0.830355 169:0.912732 170:-0.0258503 171:-0.581404 172:-0.997202 173:-0.999975 174:-0.897203 175:0.277894 176:-0.319524 177:-0.584686 178:-0.865656 179:-0.999993 180:0.16162 181:0.0144979 182:-0.596338 183:-0.656849 184:-0.692367 185:-0.734501 186:-0.74243 187:-0.7803 188:-0.712902 189:-0.768935 190:-0.760513 191:-0.706534 192:-0.764688 193:-0.764663 194:-0.731206 195:-0.751223 196:-0.763354 197:-0.795353 198:-0.919007 199:-0.504153 200:-0.748401 201:-0.724286 202:-0.802833 203:-0.83078 204:-0.851146 205:-0.881643 206:-0.829258 207:-0.890662 208:-0.871299 209:-0.805649 210:-0.793309 211:-0.747002 212:-0.811568 213:-0.783649 214:-0.685903 215:-0.730272 216:-0.829197 217:1 218:-0.672906 219:-0.534139 220:-0.536844 221:-0.566094 222:-0.545517 223:-0.617586 224:-0.469772 225:-0.577676 226:-0.633825 227:-0.591644 228:-0.69633 229:-0.633937 230:-0.658095 231:-0.669416 232:-0.654485 233:-0.705194 234:-1 235:-0.648381 236:-0.752227 237:-0.735822 238:-0.76146 239:-0.745065 240:-0.751851 241:-0.776324 242:-0.735731 243:-0.758895 244:-0.775433 245:-0.737948 246:-0.769014 247:-0.743175 248:-0.768933 249:-0.752247 250:-0.738606 251:-0.735936 252:-0.762887 
1 1:-0.641544 2:-0.8097 3:-0.597894 4:-0.941977 5:-0.999997 7:0.846616 8:-0.254639 9:-0.58405 10:-0.984356 11:-0.999992 12:-0.459702 13:-0.60202 14:-0.795311 15:-0.551209 16:-0.976853 17:-0.999997 18:-0.956817 19:-0.56709 20:-0.783444 21:-0.55567 22:-0.986148 23:-0.999997 24:-0.966316 25:-0.517835 26:-0.763099 27:-0.559816 28:-0.991249 29:-0.999997 30:-0.951378 31:-0.481911 32:-0.742043 33:-0.542376 34:-0.988109 35:-0.999996 36:-0.943806 37:-0.435489 38:-0.754359 39:-0.578651 40:-0.992041 41:-0.999997 42:-0.939653 43:0.196969 44:-0.327936 45:-0.56838 46:-0.995222 47:-0.999978 48:0.407975 49:-0.379646 50:-0.763975 51:-0.604788 52:-0.987952 53:-0.999997 54:-0.929575 55:-0.039607 56:-0.509374 57:-0.543506 58:-0.991344 59:-0.999976 60:0.577846 61:-0.746807 62:-0.880929 63:-0.565057 64:-0.960075 65:-0.999997 66:-0.672713 67:-0.021504 68:-0.585333 69:-0.560521 70:-0.973604 71:-0.999995 72:-0.778781 73:-0.0693998 74:-0.541277 75:-0.549581 76:-0.989743 77:-0.999996 78:-0.940468 79:-0.245258 80:-0.627151 81:-0.561112 82:-0.972245 83:-0.999996 84:-0.920261 85:-0.55034 86:-0.786209 87:-0.567401 88:-0.993614 89:-0.999998 90:-0.770398 91:0.0269416 92:-0.531069 93:-0.56098 94:-0.994015 95:-0.999994 96:-0.75698 97:-0.125667 98:-0.55853 99:-0.554651 100:-0.994328 101:-0.999996 102:-0.902542 103:-0.0399578 104:-0.553103 105:-0.596098 106:-0.996967 107:-0.999996 108:-0.897091 109:0.0170963 110:-0.577228 111:-0.633787 112:-0.994787 113:-0.999996 114:-0.906391 115:-0.0830407 116:-0.450376 117:-0.639092 118:-0.994706 119:-0.999996 120:-0.924203 121:0.239385 122:-0.441838 123:-0.658482 124:-0.982805 125:-0.999994 126:-0.740961 127:-0.204534 128:-0.650375 129:-0.669045 130:-0.986951 131:-0.999998 132:-0.883004 133:0.892599 134:-0.00867466 135:-0.737033 136:-0.997647 137:-0.999994 138:-0.521148 139:0.516454 140:-0.233719 141:-0.763188 142:-0.996723 143:-0.999991 144:-0.320249 145:-0.0793654 146:-0.555702 147:-0.785477 148:-0.98815 149:-0.99998 150:0.338798 151:0.341902 152:-0.347281 153:-0.805615 154:-0.992901 155:-0.999981 156:0.242433 157:-0.129108 158:-0.537815 159:-0.81756 160:-0.991447 161:-0.999976 162:0.557086 163:0.585596 164:-0.175586 165:-0.850598 166:-0.977599 167:-0.999994 168:-0.755583 169:0.00604468 170:-0.487624 171:-0.852146 172:-0.9942 173:-0.999979 174:0.356289 175:-0.255366 176:-0.604618 177:-0.865187 178:-0.995782 179:-0.999995 180:-0.607994 181:0.635246 182:-0.761962 183:-0.706005 184:-0.685425 185:-0.751178 186:-0.778962 187:-0.838966 188:-0.7649 189:-0.836533 190:-0.866769 191:-0.70162 192:-0.867805 193:-0.859176 194:-0.79588 195:-0.815723 196:-0.824916 197:-0.855146 198:-0.929477 199:-0.031398 200:-0.77428 201:-0.751149 202:-0.781946 203:-0.784003 204:-0.808979 205:-0.851554 206:-0.75491 207:-0.843823 208:-0.809577 209:-0.699063 210:-0.55921 211:-0.447473 212:-0.498913 213:-0.457992 214:-0.353819 215:-0.636685 216:-0.847049 217:1 218:-0.817577 219:-0.702413 220:-0.637193 221:-0.640843 222:-0.614004 223:-0.706831 224:-0.608395 225:-0.697943 226:-0.735244 227:-0.65678 228:-0.800452 229:-0.765479 230:-0.743129 231:-0.756104 232:-0.769405 233:-0.801668 234:-1 235:-0.457312 236:-0.836406 237:-0.82289 238:-0.830321 239:-0.788524 240:-0.839261 241:-0.877603 242:-0.726937 243:-0.830138 244:-0.815377 245:-0.77022 246:-0.800633 247:-0.749591 248:-0.756479 249:-0.727771 250:-0.707324 251:-0.703802 252:-0.729082 
1 1:0.288725 2:-0.315831 3:-0.797165 4:-0.951722 5:-0.999988 7:0.33876 8:-0.460145 9:-0.785459 10:-0.749183 11:-0.999984 12:-0.620803 13:-0.0226699 14:-0.49734 15:-0.802651 16:-0.937752 17:-0.99999 18:-0.123637 19:0.323688 20:-0.324463 21:-0.762916 22:-0.984445 23:-0.999983 24:-0.397125 25:0.224817 26:-0.393115 27:-0.734344 28:-0.987694 29:-0.999983 30:-0.515914 31:0.450595 32:-0.277748 33:-0.736651 34:-0.93641 35:-0.999983 36:-0.40343 37:0.380602 38:-0.397337 39:-0.728956 40:-0.983685 41:-0.999983 42:-0.398013 43:0.0916674 44:-0.38706 45:-0.725395 46:-0.934476 47:-0.999991 48:-0.297088 49:0.0777481 50:-0.58995 51:-0.748805 52:-0.987929 53:-0.999994 54:-0.39788 55:-0.665856 56:-0.8293 57:-0.708543 58:-0.994465 59:-0.999993 60:-0.714835 61:0.157933 62:-0.455451 63:-0.715037 64:-0.810262 65:-0.999988 66:-0.788637 67:0.537957 68:-0.348245 69:-0.718834 70:-0.966722 71:-0.999983 72:-0.532336 73:-0.636714 74:-0.820924 75:-0.779328 76:-0.995156 77:-0.999987 78:-0.796059 79:0.249703 80:-0.382636 81:-0.81047 82:-0.860204 83:-0.999985 84:-0.634777 85:0.0181675 86:-0.515912 87:-0.810149 88:-0.994378 89:-0.999984 90:-0.5885 91:-0.0393716 92:-0.56135 93:-0.791891 94:-0.900594 95:-0.999988 96:-0.729083 97:0.410692 98:-0.287711 99:-0.795532 100:-0.97914 101:-0.99999 102:-0.573299 103:-0.47418 104:-0.757658 105:-0.80051 106:-0.995414 107:-0.999986 108:-0.683359 109:0.00423977 110:-0.582572 111:-0.828581 112:-0.937845 113:-0.999994 114:-0.612764 115:0.575961 116:-0.0513953 117:-0.844747 118:-0.993091 119:-0.999983 120:-0.546818 121:0.673365 122:-0.246393 123:-0.861349 124:-0.979932 125:-0.999989 126:-0.893663 127:-0.259801 128:-0.674904 129:-0.855762 130:-0.896151 131:-0.999999 132:-0.330079 133:-0.433809 134:-0.703435 135:-0.868976 136:-0.989814 137:-0.999991 138:-0.777276 139:-0.342584 140:-0.6678 141:-0.8682 142:-0.995736 143:-0.999988 144:-0.79045 145:0.226971 146:-0.407864 147:-0.869164 148:-0.994705 149:-0.999987 150:-0.729487 151:0.634097 152:-0.205154 153:-0.869939 154:-0.878487 155:-0.999986 156:-0.692859 157:0.519037 158:-0.191504 159:-0.876416 160:-0.995122 161:-0.999995 162:-0.576107 163:0.461569 164:-0.240072 165:-0.87631 166:-0.99236 167:-0.999991 168:-0.400237 169:-0.191848 170:-0.58841 171:-0.893058 172:-0.994796 173:-0.999987 174:-0.723524 175:0.717774 176:-0.0843525 177:-0.909955 178:-0.98472 179:-0.999985 180:-0.635655 181:-0.403145 182:-0.928501 183:-0.92431 184:-0.906249 185:-0.915137 186:-0.88898 187:-0.934453 188:-0.848662 189:-0.914442 190:-0.937333 191:-0.828308 192:-0.950863 193:-0.943878 194:-0.893721 195:-0.938244 196:-0.952857 197:-0.972568 198:-0.99341 199:-0.4687 200:-0.969702 201:-0.952577 202:-0.951194 203:-0.938232 204:-0.971637 205:-0.984858 206:-0.861925 207:-0.976547 208:-0.955648 209:-0.865176 210:-0.92797 211:-0.827602 212:-0.876794 213:-0.863806 214:-0.823254 215:-0.888988 216:-0.974902 217:1 218:-0.884652 219:-0.801835 220:-0.780441 221:-0.785866 222:-0.728366 223:-0.847789 224:-0.605564 225:-0.778066 226:-0.842047 227:-0.622283 228:-0.888086 229:-0.840156 230:-0.760918 231:-0.804076 232:-0.860051 233:-0.901716 234:-1 235:-0.652196 236:-0.907922 237:-0.891177 238:-0.880244 239:-0.851312 240:-0.910818 241:-0.939202 242:-0.798778 243:-0.945406 244:-0.928634 245:-0.86325 246:-0.946319 247:-0.898038 248:-0.917433 249:-0.909247 250:-0.91784 251:-0.918142 252:-0.908895 
1 1:0.390249 2:-0.0136577 3:0.546319 4:-0.713582 5:-0.99998 7:0.809076 8:-0.0235627 9:0.469797 10:-0.960853 11:-0.99998 12:-0.993744 13:0.870396 14:0.287331 15:0.301208 16:-0.965242 17:-0.999981 18:-0.975237 19:0.723513 20:0.181945 21:0.0527046 22:-0.967992 23:-0.999982 24:-0.902864 25:0.423339 26:-0.054 27:0.0873811 28:-0.988717 29:-0.999985 30:-0.729221 31:0.356912 32:-0.0946892 33:0.127064 34:-0.945585 35:-0.99998 36:-0.991263 37:0.908358 38:0.115642 39:0.131894 40:-0.988092 41:-0.999981 42:-0.951999 43:0.639448 44:0.231149 45:0.09629 46:-0.99677 47:-0.999983 48:-0.847896 49:0.118295 50:-0.428056 51:-0.165954 52:-0.972455 53:-0.999996 54:0.429968 55:-0.186649 56:-0.44356 57:-0.0307616 58:-0.997121 59:-0.999992 60:0.696692 61:0.400524 62:-0.12006 63:-0.0455592 64:-0.994461 65:-0.999986 66:-0.646552 67:-0.0202094 68:-0.441171 69:-0.0463862 70:-0.628979 71:-0.999991 72:0.717802 73:0.639706 74:0.0831612 75:-0.0260034 76:-0.983502 77:-0.99999 78:0.761532 79:0.413106 80:-0.0634903 81:-0.0452573 82:-0.958053 83:-0.999989 84:-0.454099 85:0.656816 86:0.057864 87:-0.0669088 88:-0.996796 89:-0.999984 90:-0.733863 91:0.574894 92:-0.0377561 93:-0.0301653 94:-0.994228 95:-0.999987 96:-0.585104 97:0.743975 98:0.177195 99:-0.0846555 100:-0.993355 101:-0.999992 102:0.161102 103:0.677554 104:0.0545697 105:-0.114381 106:-0.963635 107:-0.999991 108:0.687073 109:0.650641 110:-0.0833094 111:-0.120236 112:-0.988854 113:-0.999991 114:0.781913 115:-0.393182 116:-0.51199 117:-0.170224 118:-0.995287 119:-0.999987 120:-0.604168 121:0.833091 122:0.104065 123:-0.210548 124:-0.988067 125:-0.999991 126:0.761205 127:0.229319 128:-0.273274 129:-0.226223 130:-0.994199 131:-0.999993 132:-0.0609532 133:0.217931 134:-0.144538 135:-0.271636 136:-0.994179 137:-0.999994 138:0.54532 139:0.551531 140:0.0532276 141:-0.279436 142:-0.996127 143:-0.999989 144:-0.440279 145:-0.0901741 146:-0.412218 147:-0.294389 148:-0.779811 149:-0.999991 150:0.726856 151:0.63249 152:0.0625349 153:-0.302797 154:-0.997136 155:-0.999988 156:-0.491105 157:-0.0267714 158:-0.306658 159:-0.315005 160:-0.993033 161:-0.999994 162:0.436543 163:0.28306 164:-0.105867 165:-0.313991 166:-0.997731 167:-0.999996 168:0.418159 169:0.661479 170:0.12955 171:-0.361872 172:-0.99178 173:-0.999994 174:0.531681 175:0.590787 176:0.133925 177:-0.362272 178:-0.997185 179:-0.999992 180:-0.278288 181:0.0041626 182:-0.589549 183:-0.665582 184:-0.713569 185:-0.755839 186:-0.762457 187:-0.873168 188:-0.674473 189:-0.834481 190:-0.880915 191:-0.580844 192:-0.904481 193:-0.861981 194:-0.741454 195:-0.817465 196:-0.849002 197:-0.897768 198:-1 199:-0.56561 200:-0.884447 201:-0.83035 202:-0.865316 203:-0.856157 204:-0.907825 205:-0.93793 206:-0.792767 207:-0.940988 208:-0.910871 209:-0.780956 210:-0.834942 211:-0.692966 212:-0.71151 213:-0.600362 214:-0.489008 215:-0.66255 216:-0.793954 217:1 218:-0.559139 219:-0.383592 220:-0.287854 221:-0.338805 222:-0.333373 223:-0.58812 224:-0.301785 225:-0.559663 226:-0.673836 227:-0.420161 228:-0.76058 229:-0.709426 230:-0.648374 231:-0.698035 232:-0.731196 233:-0.805794 234:-0.978366 235:-0.431031 236:-0.848642 237:-0.800818 238:-0.793257 239:-0.747095 240:-0.80718 241:-0.867379 242:-0.626043 243:-0.853071 244:-0.81058 245:-0.747965 246:-0.857048 247:-0.776004 248:-0.818858 249:-0.822977 250:-0.848463 251:-0.900769 252:-0.97804 
1 1:0.665644 2:-0.115729 3:-0.551341 4:-0.965313 5:-0.999993 7:-0.00556729 8:-0.599478 9:-0.656293 10:-0.967278 11:-0.999985 12:-0.377129 13:0.0765755 14:-0.446296 15:-0.668202 16:-0.931091 17:-0.999987 18:-0.516303 19:-0.0543431 20:-0.519247 21:-0.666887 22:-0.907083 23:-0.999987 24:-0.506884 25:0.481579 26:-0.265198 27:-0.646053 28:-0.993738 29:-0.999992 30:-0.810704 31:-0.0835583 32:-0.543703 33:-0.637375 34:-0.920222 35:-0.999988 36:-0.53667 37:0.345793 38:-0.412565 39:-0.725648 40:-0.987896 41:-0.999991 42:-0.629201 43:0.618266 44:-0.0913897 45:-0.732341 46:-0.988817 47:-0.999995 48:-0.837483 49:0.5798 50:-0.398935 51:-0.829993 52:-0.994377 53:-0.999994 54:-0.679011 55:0.213995 56:-0.37982 57:-0.812837 58:-0.990667 59:-0.999993 60:-0.755722 61:-0.255597 62:-0.649925 63:-0.826042 64:-0.846234 65:-0.99999 66:-0.653727 67:-0.251703 68:-0.682887 69:-0.842393 70:-0.968037 71:-0.999991 72:-0.666459 73:0.163722 74:-0.426364 75:-0.889564 76:-0.982399 77:-0.999992 78:-0.801885 79:-0.10633 80:-0.558519 81:-0.886906 82:-0.976656 83:-0.999997 84:-0.556156 85:0.727219 86:-0.178793 87:-0.887481 88:-0.997233 89:-0.999994 90:-0.448269 91:0.755535 92:-0.198373 93:-0.875038 94:-0.993345 95:-0.999993 96:-0.429162 97:0.790861 98:-0.0957549 99:-0.877859 100:-0.992785 101:-0.999992 102:-0.374916 103:0.367519 104:-0.361148 105:-0.908532 106:-0.992375 107:-0.99999 108:-0.31461 109:-0.266481 110:-0.695101 111:-0.907758 112:0.764154 113:-1 114:-0.600469 115:0.780523 116:0.0724527 117:-0.913772 118:-0.991618 119:-0.999993 120:-0.438688 121:0.677749 122:-0.244419 123:-0.919978 124:-0.989295 125:-0.999994 126:-0.493522 127:0.48051 128:-0.346347 129:-0.915346 130:-0.987079 131:-0.999989 132:-0.133932 133:0.631764 134:-0.145298 135:-0.920704 136:-0.992723 137:-0.999985 138:0.0031278 139:0.614662 140:-0.184094 141:-0.920346 142:-0.997418 143:-0.999985 144:0.0452103 145:0.214848 146:-0.413715 147:-0.91857 148:-0.9086 149:-0.999992 150:-0.368289 151:0.256944 152:-0.388606 153:-0.920599 154:-0.996512 155:-0.999991 156:-0.317085 157:0.453641 158:-0.226446 159:-0.93873 160:-0.990939 161:-0.999994 162:-0.5635 163:0.574414 164:-0.1814 165:-0.937949 166:-0.853248 167:-0.999987 168:-0.148098 169:0.752171 170:-0.107624 171:-0.937937 172:-0.989345 173:-0.99999 174:-0.303905 175:0.2995 176:-0.307973 177:-0.932668 178:-0.968407 179:-0.999992 180:-0.346011 181:-0.0248217 182:-0.93743 183:-0.915236 184:-0.883324 185:-0.857346 186:-0.81321 187:-0.867343 188:-0.675182 189:-0.810013 190:-0.873294 191:-0.540123 192:-0.921283 193:-0.884106 194:-0.712617 195:-0.823314 196:-0.873527 197:-0.932696 198:-1 199:-0.219856 200:-0.930782 201:-0.861152 202:-0.827477 203:-0.769693 204:-0.903765 205:-0.954568 206:-0.69451 207:-0.946347 208:-0.893525 209:-0.731936 210:-0.859274 211:-0.740358 212:-0.855957 213:-0.864213 214:-0.856101 215:-0.897247 216:-0.711718 217:1 218:-0.899631 219:-0.86584 220:-0.842462 221:-0.832207 222:-0.774466 223:-0.904478 224:-0.627218 225:-0.850215 226:-0.907346 227:-0.549672 228:-0.913727 229:-0.871645 230:-0.760211 231:-0.833185 232:-0.882509 233:-0.886874 234:-0.970468 235:-0.381447 236:-0.910819 237:-0.878263 238:-0.851545 239:-0.800241 240:-0.871184 241:-0.882073 242:-0.67744 243:-0.866091 244:-0.849044 245:-0.776235 246:-0.86092 247:-0.816447 248:-0.857785 249:-0.866159 250:-0.899196 251:-0.930969 252:-0.967295 
1 1:0.374679 2:0.225656 3:0.500231 4:-0.947442 5:-0.999977 7:0.449781 8:-0.0157339 9:0.593167 10:-0.984752 11:-0.999978 12:-0.972137 13:0.451266 14:0.258374 15:0.528218 16:-0.97839 17:-0.99998 18:-0.852459 19:0.403174 20:0.212056 21:0.307729 22:-0.984274 23:-0.999982 24:-0.769387 25:0.52026 26:0.271714 27:0.162377 28:-0.987976 29:-0.99998 30:-0.843676 31:0.0997371 32:-0.0747305 33:0.058479 34:-0.987852 35:-0.999975 36:-0.882779 37:0.583444 38:0.165437 39:0.0653758 40:-0.987548 41:-0.999983 42:-0.645699 43:0.189957 44:0.125608 45:0.000961762 46:-0.994093 47:-0.999983 48:-0.65921 49:-0.0383434 50:-0.378433 51:-0.0891925 52:-0.989765 53:-0.999998 54:0.318138 55:0.597279 56:0.370215 57:0.0572598 58:-0.993181 59:-0.999982 60:-0.713795 61:0.0591355 62:-0.163042 63:0.0596593 64:-0.988131 65:-0.999976 66:-0.875826 67:0.376281 68:-0.0136017 69:0.0865342 70:-0.916781 71:-0.999981 72:-0.689643 73:0.328146 74:0.106481 75:0.105148 76:-0.987225 77:-0.999983 78:-0.671802 79:0.169028 80:-0.0221422 81:0.104511 82:-0.989807 83:-0.999998 84:0.473876 85:0.475429 86:0.188992 87:-0.0941595 88:-0.997463 89:-0.999997 90:0.562084 91:0.465691 92:0.126679 93:-0.0634876 94:-0.969566 95:-0.999984 96:-0.606357 97:0.266538 98:0.0762786 99:-0.0688654 100:-0.979416 101:-0.999998 102:0.459987 103:0.428927 104:0.13355 105:-0.109997 106:-0.994035 107:-0.999984 108:-0.630594 109:0.544278 110:0.0778125 111:-0.119923 112:-0.99233 113:-0.999997 114:0.575168 115:-0.0771826 116:-0.0632491 117:-0.0954439 118:-0.892096 119:-0.999998 120:0.360356 121:0.0957902 122:-0.167529 123:-0.113276 124:-0.986149 125:-0.999981 126:-0.758008 127:0.502634 128:0.117858 129:-0.123664 130:-0.994139 131:-0.999997 132:0.549704 133:-0.938226 134:-0.936016 135:-0.165963 136:-0.997547 137:-0.999995 138:0.108955 139:0.240707 140:0.0649312 141:-0.1793 142:-0.997526 143:-0.999997 144:0.514333 145:0.575223 146:0.276698 147:-0.290132 148:-0.995002 149:-0.999997 150:0.505503 151:-0.657823 152:-0.713875 153:-0.287987 154:-0.997248 155:-0.999976 156:-0.89311 157:0.299778 158:0.165219 159:-0.323056 160:-0.997183 161:-0.999998 162:0.486359 163:-0.279356 164:-0.363679 165:-0.324229 166:-0.987643 167:-0.999995 168:0.0777091 169:-0.27226 170:-0.377224 171:-0.312434 172:-0.968125 173:-0.999981 174:-0.792346 175:0.355178 176:0.214943 177:-0.33352 178:-0.997285 179:-0.999997 180:0.498297 181:0.221397 182:-0.265986 183:-0.388447 184:-0.504684 185:-0.566483 186:-0.56987 187:-0.685248 188:-0.463567 189:-0.654154 190:-0.73622 191:-0.321026 192:-0.776504 193:-0.710393 194:-0.495963 195:-0.644932 196:-0.682146 197:-0.759502 198:-0.981357 199:-0.528374 200:-0.663542 201:-0.5901 202:-0.584907 203:-0.560643 204:-0.644743 205:-0.702945 206:-0.448786 207:-0.585598 208:-0.460488 209:-0.176273 210:0.049071 211:0.101568 212:-0.209211 213:-0.225915 214:-0.085422 215:-0.325628 216:-0.369142 217:1 218:-0.249296 219:0.0482315 220:0.190527 221:0.133322 222:0.184642 223:-0.141173 224:0.229145 225:-0.114019 226:-0.24739 227:0.0680774 228:-0.410734 229:-0.302838 230:-0.183484 231:-0.277047 232:-0.355465 233:-0.614512 234:-1 235:-0.0823828 236:-0.715972 237:-0.581163 238:-0.554389 239:-0.472436 240:-0.656726 241:-0.789604 242:-0.316268 243:-0.744482 244:-0.677249 245:-0.512215 246:-0.702856 247:-0.534129 248:-0.57588 249:-0.515423 250:-0.406163 251:-0.379427 252:-0.434711 
1 1:0.15408 2:-0.177591 3:0.572195 4:-0.955214 5:-0.999988 7:-0.00348152 8:-0.459825 9:0.668488 10:-0.980491 11:-0.99999 12:-0.867236 13:0.0243496 14:-0.290025 15:0.675538 16:-0.942162 17:-0.999989 18:-0.943579 19:0.0144238 20:-0.302405 21:0.61459 22:-0.93056 23:-0.999986 24:-0.844039 25:0.402659 26:-0.0640225 27:0.525412 28:-0.957443 29:-0.999989 30:-0.901227 31:0.186375 32:-0.204743 33:0.591958 34:-0.992584 35:-0.999984 36:-0.663649 37:0.457432 38:-0.143992 39:0.592637 40:-0.976384 41:-0.999986 42:-0.891343 43:-0.117709 44:-0.333031 45:0.566021 46:-0.99187 47:-0.99999 48:-0.841896 49:-0.00484 50:-0.488469 51:0.557289 52:-0.996534 53:-0.999986 54:-0.851551 55:0.977974 56:0.35504 57:0.790095 58:-0.988948 59:-1 60:-0.242406 61:0.0354711 62:-0.346387 63:0.726944 64:-0.993272 65:-0.999986 66:-0.832389 67:0.0810618 68:-0.381471 69:0.782923 70:-0.876749 71:-0.999987 72:-0.977458 73:0.709047 74:0.133226 75:0.828747 76:-0.994094 77:-0.999986 78:-0.768264 79:-0.221967 80:-0.4797 81:0.771526 82:-0.990876 83:-0.999979 84:0.122616 85:-0.303137 86:-0.548832 87:0.756885 88:-0.997147 89:-0.999974 90:0.343214 91:-0.00267416 92:-0.386967 93:0.794563 94:-0.991358 95:-0.999986 96:-0.816892 97:-0.394045 98:-0.587305 99:0.816417 100:-0.99514 101:-0.999974 102:0.314687 103:0.0888532 104:-0.31242 105:0.702114 106:-0.995304 107:-0.999984 108:-0.676335 109:0.211093 110:-0.324255 111:0.683538 112:-0.984247 113:-0.999994 114:-0.00325245 115:-0.181476 116:-0.338443 117:0.605915 118:-0.991887 119:-0.999982 120:-0.0112433 121:0.262781 122:-0.235364 123:0.539289 124:-0.970012 125:-0.999986 126:-0.888379 127:0.126731 128:-0.331323 129:0.517467 130:-0.993957 131:-0.999984 132:-0.637752 133:-0.710572 134:-0.792123 135:0.462527 136:-0.994523 137:-0.999998 138:-0.186919 139:0.495564 140:0.0195951 141:0.467474 142:-0.996181 143:-0.999983 144:-0.551171 145:-0.184801 146:-0.471013 147:0.409144 148:-0.995187 149:-0.999978 150:0.0766031 151:-0.741201 152:-0.827656 153:0.418065 154:-0.969077 155:-0.999976 156:0.16437 157:-0.703535 158:-0.787917 159:0.32493 160:-0.994604 161:-0.999998 162:-0.20673 163:0.0882099 164:-0.237916 165:0.244269 166:-0.980121 167:-0.999979 168:-0.0208576 169:0.912408 170:0.30506 171:0.2502 172:-0.98717 173:-0.999976 174:0.154551 175:0.0195512 176:-0.27038 177:0.262483 178:-0.997965 179:-0.99998 180:-0.0568223 181:0.231843 182:-0.7938 183:-0.711369 184:-0.618232 185:-0.589502 186:-0.57967 187:-0.714635 188:-0.432487 189:-0.697221 190:-0.755495 191:-0.202828 192:-0.752265 193:-0.690626 194:-0.46697 195:-0.609134 196:-0.674802 197:-0.752347 198:-0.91044 199:-0.175097 200:-0.789701 201:-0.71759 202:-0.730371 203:-0.68535 204:-0.827088 205:-0.875057 206:-0.533544 207:-0.878081 208:-0.833372 209:-0.628621 210:-0.756559 211:-0.631761 212:-0.771822 213:-0.768902 214:-0.716949 215:-0.796775 216:-0.906265 217:1 218:-0.67166 219:-0.4585 220:-0.34478 221:-0.347216 222:-0.213004 223:-0.495382 224:0.0878643 225:-0.354084 226:-0.49853 227:0.249646 228:-0.572298 229:-0.403911 230:-0.143972 231:-0.293083 232:-0.399279 233:-0.547033 234:-1 235:0.508188 236:-0.601899 237:-0.576369 238:-0.513719 239:-0.340968 240:-0.613735 241:-0.718259 242:-0.0499716 243:-0.6925 244:-0.628699 245:-0.394073 246:-0.712885 247:-0.53474 248:-0.671483 249:-0.700697 250:-0.769489 251:-0.858708 252:-0.975653 
1 1:0.347605 2:-0.0400669 3:0.541326 4:-0.952964 5:-0.999986 7:0.401846 8:-0.240278 9:0.427281 10:-0.988306 11:-0.999981 12:-0.448521 13:0.299259 14:-0.100764 15:0.201548 16:-0.975307 17:-0.999982 18:-0.446586 19:-0.249 20:-0.484089 21:0.23953 22:-0.972742 23:-0.999979 24:0.0246904 25:0.890649 26:0.2614 27:0.238425 28:-0.992176 29:-0.999985 30:-0.291763 31:0.217955 32:-0.183696 33:0.198866 34:-0.957964 35:-0.999995 36:0.0732069 37:-0.220545 38:-0.541009 39:0.20973 40:-0.991427 41:-0.99998 42:0.0118427 43:0.274004 44:-0.0386326 45:0.244099 46:-0.996669 47:-0.999983 48:-0.546975 49:0.274486 50:-0.346213 51:0.110457 52:-0.990765 53:-0.999993 54:0.149737 55:0.197177 56:-0.178883 57:0.163139 58:-0.996409 59:-0.999998 60:-0.0362003 61:-0.0763111 62:-0.416754 63:0.10166 64:-0.975783 65:-0.99998 66:-0.0961438 67:0.255835 68:-0.28233 69:0.0973251 70:-0.98789 71:-0.999984 72:-0.416832 73:0.118327 74:-0.256543 75:0.122576 76:-0.951647 77:-0.999982 78:-0.319779 79:-0.400439 80:-0.597716 81:0.126753 82:-0.930668 83:-0.999979 84:-0.0608054 85:0.157667 86:-0.255568 87:0.112145 88:-0.991922 89:-0.999994 90:0.124839 91:-0.685841 92:-0.804536 93:0.0913992 94:-0.992395 95:-0.999987 96:0.235466 97:0.104234 98:-0.250533 99:0.0235308 100:-0.984067 101:-0.999982 102:-0.194098 103:0.108992 104:-0.299721 105:-0.00624944 106:-0.995374 107:-0.999982 108:-0.230379 109:0.0700906 110:-0.402707 111:-0.000869121 112:-0.99061 113:-0.999988 114:0.232922 115:0.876497 116:0.518947 117:-0.000284357 118:-0.99237 119:-0.999986 120:-0.242669 121:0.0346512 122:-0.372887 123:-0.00131504 124:-0.993943 125:-0.999982 126:-0.207321 127:-0.860618 128:-0.917872 129:-0.0485158 130:-0.978707 131:-0.999978 132:-0.0202187 133:-0.232167 134:-0.456701 135:-0.056375 136:-0.997057 137:-0.999983 138:-0.343367 139:0.0831854 140:-0.259334 141:-0.0544035 142:-0.996464 143:-0.999983 144:-0.233251 145:-0.309539 146:-0.551592 147:-0.0616427 148:-0.997375 149:-0.999982 150:-0.166355 151:-0.700046 152:-0.800861 153:-0.106318 154:-0.99752 155:-0.999985 156:-0.195141 157:0.0350456 158:-0.259677 159:-0.12033 160:-0.996749 161:-0.999985 162:-0.458641 163:-0.699815 164:-0.786359 165:-0.156308 166:-0.996953 167:-0.999987 168:0.16757 169:0.0291308 170:-0.297094 171:-0.146239 172:-0.991955 173:-0.999984 174:-0.261599 175:-0.822649 176:-0.873084 177:-0.140627 178:-0.995999 179:-0.999981 180:-0.144049 181:0.297302 182:-0.820147 183:-0.72294 184:-0.680768 185:-0.681649 186:-0.634947 187:-0.777607 188:-0.463059 189:-0.72897 190:-0.783581 191:-0.131681 192:-0.793408 193:-0.754258 194:-0.495803 195:-0.677318 196:-0.739565 197:-0.818364 198:-0.930459 199:-0.110285 200:-0.805622 201:-0.745686 202:-0.751759 203:-0.691033 204:-0.846312 205:-0.887084 206:-0.540094 207:-0.889718 208:-0.848026 209:-0.643268 210:-0.765452 211:-0.646424 212:-0.774946 213:-0.782852 214:-0.737686 215:-0.812577 216:-0.925437 217:1 218:-0.705554 219:-0.41814 220:-0.286151 221:-0.280273 222:-0.192493 223:-0.439202 224:0.0830771 225:-0.266829 226:-0.447988 227:0.210256 228:-0.507109 229:-0.366365 230:-0.153747 231:-0.307642 232:-0.380769 233:-0.548459 234:-0.748936 235:0.464795 236:-0.653869 237:-0.605002 238:-0.586946 239:-0.418865 240:-0.666451 241:-0.75301 242:-0.114478 243:-0.780087 244:-0.72757 245:-0.477877 246:-0.815632 247:-0.664909 248:-0.758375 249:-0.780222 250:-0.836104 251:-0.887179 252:-1 
1 1:-0.393601 2:-0.67807 3:0.16097 4:-0.928297 5:-0.999997 7:-0.293646 8:-0.71605 9:0.0378197 10:-0.989283 11:-0.999997 12:-0.983564 13:-0.579885 14:-0.783927 15:0.0116166 16:-0.977915 17:-0.999998 18:-0.694708 19:0.100875 20:-0.439269 21:0.030747 22:-0.960622 23:-0.99999 24:-0.241987 25:0.0172957 26:-0.496501 27:-0.0433002 28:-0.989932 29:-0.999989 30:-0.165051 31:0.109365 32:-0.447646 33:-0.00467822 34:-0.992714 35:-0.999995 36:-0.723363 37:-0.375521 38:-0.728124 39:-0.156246 40:-0.97836 41:-0.999972 42:0.828697 43:-0.024888 44:-0.452502 45:-0.140956 46:-0.882522 47:-0.999999 48:-0.92372 49:-0.339433 50:-0.748675 51:-0.133418 52:-0.996309 53:-0.999997 54:-0.639987 55:-0.324387 56:-0.654857 57:0.00556744 58:-0.985477 59:-0.999998 60:-0.729981 61:0.0660638 62:-0.498655 63:0.0105344 64:-0.995725 65:-0.999997 66:-0.875917 67:-0.0994621 68:-0.61837 69:0.0269792 70:-0.947813 71:-0.999998 72:-0.847503 73:-0.112065 74:-0.562308 75:0.0243508 76:-0.985153 77:-0.999975 78:0.674676 79:0.445065 80:-0.286125 81:-0.047713 82:-0.643097 83:-0.999992 84:-0.4057 85:0.392956 86:-0.337718 87:-0.0413887 88:-0.994302 89:-0.999997 90:-0.955803 91:0.241485 92:-0.433103 93:-0.0224386 94:-0.994745 95:-0.999997 96:-0.940318 97:-0.241711 98:-0.617123 99:-0.00174947 100:-0.976509 101:-0.999999 102:-0.788834 103:-0.260869 104:-0.657171 105:0.0017602 106:-0.994023 107:-0.999975 108:0.645709 109:0.282742 110:-0.466808 111:0.0178872 112:-0.969954 113:-0.999997 114:-0.862085 115:0.214107 116:-0.270473 117:0.0114253 118:-0.988983 119:-0.999997 120:-0.841674 121:-0.221411 122:-0.649359 123:-0.0922327 124:-0.980096 125:-0.999996 126:-0.632237 127:0.273711 128:-0.438126 129:-0.127005 130:-0.9965 131:-0.99998 132:0.388713 133:-0.192535 134:-0.577057 135:-0.205789 136:-0.991792 137:-0.999977 138:0.520601 139:-0.564364 140:-0.779869 141:-0.20079 142:-0.994103 143:-0.999997 144:-0.656502 145:-0.161066 146:-0.595131 147:-0.234946 148:-0.996755 149:-0.999997 150:-0.678413 151:0.16374 152:-0.433942 153:-0.24249 154:-0.990479 155:-0.99998 156:0.310305 157:-0.653525 158:-0.818017 159:-0.249309 160:-0.994967 161:-0.999972 162:0.872454 163:0.755096 164:-0.0874564 165:-0.269614 166:-0.99424 167:-0.999985 168:0.0439447 169:-0.603228 170:-0.797925 171:-0.268154 172:-0.997264 173:-0.999997 174:-0.667164 175:-0.0383436 176:-0.488593 177:-0.276633 178:-0.972125 179:-0.999998 180:-0.702352 181:0.448372 182:-0.894789 183:-0.850255 184:-0.811685 185:-0.790808 186:-0.721207 187:-0.827766 188:-0.482924 189:-0.729887 190:-0.829164 191:0.0503869 192:-0.832999 193:-0.76996 194:-0.432268 195:-0.603459 196:-0.682575 197:-0.772311 198:-0.93179 199:0.559131 200:-0.653982 201:-0.544822 202:-0.535598 203:-0.470698 204:-0.667125 205:-0.748137 206:-0.245957 207:-0.716432 208:-0.634909 209:-0.347648 210:-0.40697 211:-0.343026 212:-0.607546 213:-0.649474 214:-0.692393 215:-0.852936 216:-0.969816 217:1 218:-0.904827 219:-0.80632 220:-0.72415 221:-0.719986 222:-0.621396 223:-0.794315 224:-0.413812 225:-0.687917 226:-0.763604 227:-0.219229 228:-0.800727 229:-0.7165 230:-0.530528 231:-0.627588 232:-0.700822 233:-0.806207 234:-1 235:0.137664 236:-0.786676 237:-0.705564 238:-0.650608 239:-0.497478 240:-0.710656 241:-0.770483 242:-0.21299 243:-0.70893 244:-0.636168 245:-0.426106 246:-0.651095 247:-0.538476 248:-0.646416 249:-0.711507 250:-0.783836 251:-0.85825 252:-0.971356 
1 1:0.345284 2:-0.285805 3:-0.184927 4:-0.974322 5:-0.999984 7:-0.168319 8:-0.665336 9:-0.343611 10:-0.987202 11:-0.999973 12:0.209079 13:0.151572 14:-0.407724 15:-0.305955 16:-0.979116 17:-0.999973 18:0.236803 19:0.343351 20:-0.314332 21:-0.604899 22:-0.983316 23:-0.999989 24:-0.717932 25:0.811502 26:-0.100833 27:-0.619009 28:-0.989497 29:-0.999989 30:-0.447197 31:0.796747 32:-0.105399 33:-0.611917 34:-0.984346 35:-0.999989 36:-0.470991 37:0.527533 38:-0.333058 39:-0.611222 40:-0.986409 41:-0.999982 42:-0.143679 43:0.838567 44:0.0323034 45:-0.735189 46:-0.953341 47:-0.999992 48:-0.441909 49:0.364031 50:-0.481028 51:-0.76329 52:-0.995254 53:-0.999992 54:-0.534164 55:0.533473 56:-0.216611 57:-0.737129 58:-0.987207 59:-0.999986 60:-0.224044 61:0.43744 62:-0.324006 63:-0.753073 64:-0.991392 65:-0.999989 66:-0.46568 67:0.950749 68:-0.173312 69:-0.785952 70:-0.961675 71:-0.999987 72:-0.279644 73:0.424109 74:-0.298011 75:-0.792571 76:-0.987327 77:-0.999992 78:-0.47659 79:0.940428 80:-0.0414114 81:-0.806796 82:-0.98179 83:-0.99999 84:-0.425623 85:0.356693 86:-0.35496 87:-0.866778 88:-0.996837 89:-0.999994 90:-0.391228 91:0.268938 92:-0.420567 93:-0.881714 94:-0.993019 95:-0.999993 96:-0.385243 97:0.262243 98:-0.362666 99:-0.878466 100:-0.995975 101:-0.999993 102:-0.367848 103:0.372468 104:-0.358816 105:-0.875481 106:-0.996949 107:-0.999993 108:-0.377665 109:0.261473 110:-0.475649 111:-0.874946 112:-0.995689 113:-0.999993 114:-0.351617 115:0.350865 116:-0.187676 117:-0.886872 118:-0.995987 119:-0.999997 120:-0.21961 121:0.343014 122:-0.395168 123:-0.88736 124:-0.987184 125:-0.999996 126:-0.304116 127:0.915379 128:-0.153349 129:-0.892202 130:-0.995409 131:-0.999992 132:-0.340077 133:0.173561 134:-0.3853 135:-0.895934 136:-0.991838 137:-0.999993 138:-0.395718 139:0.95513 140:-0.0120518 141:-0.895906 142:-0.995404 143:-0.999996 144:-0.241483 145:0.169538 146:-0.435581 147:-0.908232 148:-0.995816 149:-0.999994 150:-0.38243 151:0.514211 152:-0.263468 153:-0.931606 154:-0.995657 155:-0.999999 156:-0.127995 157:0.712523 158:-0.0881221 159:-0.942966 160:-0.989815 161:-0.999998 162:-0.0485946 163:0.878745 164:-0.0231659 165:-0.951466 166:-0.997367 167:-0.999996 168:-0.30331 169:0.737726 170:-0.11498 171:-0.948988 172:-0.996777 173:-0.999998 174:-0.147436 175:0.861927 176:-0.0072845 177:-0.94984 178:-0.990869 179:-0.999997 180:-0.249786 181:1 182:-0.888883 183:-0.859411 184:-0.817147 185:-0.786724 186:-0.670631 187:-0.852835 188:-0.125094 189:-0.78822 190:-0.867493 191:0.756372 192:-0.888152 193:-0.83637 194:-0.29237 195:-0.763502 196:-0.865402 197:-0.913932 198:-0.949925 199:0.409277 200:-0.897012 201:-0.877774 202:-0.858761 203:-0.65585 204:-0.933621 205:-0.959271 206:-0.294384 207:-0.956061 208:-0.939184 209:-0.621066 210:-0.912228 211:-0.810221 212:-0.914436 213:-0.919396 214:-0.901115 215:-0.927197 216:-0.9339 217:0.97093 218:-0.904701 219:-0.836858 220:-0.809715 221:-0.816218 222:-0.719639 223:-0.85958 224:-0.26762 225:-0.820135 226:-0.853663 227:0.402884 228:-0.876972 229:-0.836367 230:-0.540237 231:-0.79075 232:-0.851641 233:-0.896166 234:-1 235:0.889075 236:-0.887525 237:-0.868465 238:-0.805943 239:-0.539178 240:-0.839333 241:-0.888728 242:0.386494 243:-0.866342 244:-0.819729 245:-0.381962 246:-0.854469 247:-0.696491 248:-0.793244 249:-0.809309 250:-0.84139 251:-0.901977 252:-0.940552 
1 1:-0.0262829 2:-0.483065 3:0.0843437 4:-0.612787 5:-0.99997 7:0.834434 8:-0.259569 9:0.213115 10:-0.753051 11:-0.999969 12:-0.917776 13:0.115649 14:-0.4262 15:0.15437 16:-0.985001 17:-0.99997 18:-0.951451 19:0.635173 20:-0.163968 21:0.11672 22:-0.981406 23:-0.999975 24:-0.670923 25:-0.792225 26:-0.899799 27:0.115673 28:-0.994611 29:-0.999978 30:-0.571997 31:0.0299189 32:-0.487203 33:-0.0153486 34:-0.975284 35:-0.999975 36:-0.746678 37:0.172623 38:-0.488323 39:-0.156598 40:-0.990185 41:-0.999975 42:-0.721085 43:-0.241473 44:-0.574109 45:-0.156087 46:-0.995274 47:-0.999978 48:-0.575605 49:-0.108278 50:-0.660727 51:-0.159877 52:-0.984471 53:-0.999978 54:-0.53953 55:0.609372 56:-0.177837 57:-0.153187 58:-0.997608 59:-0.999977 60:-0.603657 61:-0.12466 62:-0.588348 63:-0.274438 64:-0.994975 65:-0.999981 66:-0.349183 67:0.1512 68:-0.512145 69:-0.290811 70:-0.989716 71:-0.99998 72:-0.409644 73:0.847347 74:-0.0893827 75:-0.442731 76:-0.995535 77:-0.999978 78:-0.530888 79:-0.153671 80:-0.581906 81:-0.431193 82:-0.995637 83:-0.999984 84:-0.17401 85:0.430688 86:-0.319778 87:-0.575546 88:-0.99742 89:-0.999985 90:-0.111806 91:0.0294378 92:-0.52993 93:-0.642077 94:-0.991609 95:-0.999986 96:-0.0545811 97:0.264985 98:-0.361281 99:-0.682372 100:-0.996299 101:-0.999986 102:-0.0497069 103:-0.259064 104:-0.656321 105:-0.67267 106:-0.99796 107:-0.999988 108:0.0383762 109:0.075168 110:-0.553089 111:-0.709288 112:-0.996547 113:-0.99999 114:0.173595 115:-0.16375 116:-0.49924 117:-0.791676 118:-0.995703 119:-0.999991 120:0.230477 121:0.559135 122:-0.297837 123:-0.863718 124:-0.990819 125:-0.999989 126:0.105313 127:0.738245 128:-0.231962 129:-0.882848 130:-0.996231 131:-0.99999 132:0.164984 133:0.0100378 134:-0.470952 135:-0.880603 136:-0.979348 137:-0.999991 138:0.192262 139:-0.261089 140:-0.62662 141:-0.904799 142:-0.992993 143:-0.999993 144:0.353435 145:1 146:-0.0348009 147:-0.940715 148:-0.996579 149:-0.999994 150:0.44185 151:0.470904 152:-0.284533 153:-0.969844 154:-0.998283 155:-0.999994 156:0.360156 157:-0.0369342 158:-0.488565 159:-0.969593 160:0.890097 161:-1 162:0.775985 163:0.300151 164:-0.324 165:-0.97307 166:-0.993669 167:-0.999996 168:0.524447 169:0.268811 170:-0.353797 171:-0.97309 172:-0.995544 173:-0.999995 174:0.450755 175:0.975715 176:0.05355 177:-0.970118 178:-0.993321 179:-0.999998 180:0.615948 181:0.878715 182:-0.851045 183:-0.864817 184:-0.845958 185:-0.839235 186:-0.835627 187:-0.851194 188:-0.755237 189:-0.8398 190:-0.858869 191:-0.222035 192:-0.830907 193:-0.844329 194:-0.783487 195:-0.842658 196:-0.84087 197:-0.838262 198:-0.928243 199:0.367726 200:-0.848046 201:-0.864411 202:-0.900899 203:-0.888166 204:-0.926202 205:-0.940675 206:-0.659644 207:-0.951234 208:-0.949395 209:-0.878223 210:-0.911524 211:-0.901945 212:-0.934275 213:-0.921901 214:-0.904559 215:-0.918332 216:-1 217:1 218:-0.892973 219:-0.805373 220:-0.742347 221:-0.70618 222:-0.630424 223:-0.604434 224:-0.496672 225:-0.445784 226:-0.450789 227:-0.305955 228:-0.348277 229:-0.329574 230:-0.45146 231:-0.297228 232:-0.284934 233:-0.220584 234:0.167165 235:0.481129 236:-0.348431 237:-0.482568 238:-0.527908 239:-0.54653 240:-0.577277 241:-0.538661 242:-0.40956 243:-0.604159 244:-0.667392 245:-0.660769 246:-0.692152 247:-0.701731 248:-0.728665 249:-0.769482 250:-0.765711 251:-0.783338 252:-0.83608 
1 1:0.698619 2:-0.0982233 3:-0.429077 4:-0.18011 5:-0.999969 7:0.447069 8:-0.416317 9:-0.40103 10:-0.991651 11:-0.999976 12:-0.517055 13:0.627892 14:-0.162744 15:-0.441132 16:-0.992111 17:-0.99997 18:-0.908913 19:0.632101 20:-0.165551 21:-0.389653 22:-0.989596 23:-0.999971 24:-0.910108 25:0.828849 26:-0.0921903 27:-0.424067 28:-0.996816 29:-0.99997 30:-0.9475 31:0.410632 32:-0.297645 33:-0.448285 34:-0.993965 35:-0.999975 36:-0.628194 37:1 38:-0.126364 39:-0.593893 40:-0.997604 41:-0.999975 42:-0.583328 43:0.652468 44:-0.0721859 45:-0.680221 46:-0.998211 47:-0.999978 48:-0.494186 49:0.503129 50:-0.428106 51:-0.812659 52:-0.997698 53:-0.999984 54:-0.0713801 55:0.517085 56:-0.224983 57:-0.782068 58:-0.998312 59:-0.999986 60:0.0211071 61:0.165267 62:-0.452003 63:-0.792529 64:-0.994819 65:-0.999988 66:0.208988 67:0.538761 68:-0.347905 69:-0.904177 70:-0.994657 71:-0.999986 72:0.0474452 73:-0.470732 74:-0.739107 75:-0.899204 76:-0.997367 77:-0.999996 78:0.671454 79:0.844746 80:-0.0886789 81:-0.906699 82:-0.958015 83:-0.999997 84:0.728287 85:0.94098 86:-0.0771598 87:-0.904158 88:-0.998481 89:-0.999985 90:0.0173058 91:0.814311 92:-0.171534 93:-0.924983 94:-0.997081 95:-0.999993 96:0.493124 97:0.959711 98:-0.0104986 99:-0.929959 100:-0.996867 101:-0.999986 102:0.039248 103:0.0544975 104:-0.508607 105:-0.920772 106:-0.998738 107:-0.999992 108:0.385445 109:0.859628 110:-0.227016 111:-0.919282 112:-0.996572 113:-0.999996 114:0.698807 115:0.11314 116:-0.331602 117:-0.925852 118:-0.997015 119:-0.999993 120:0.452259 121:0.205452 122:-0.45712 123:-0.930917 124:-0.99412 125:-0.999993 126:0.484244 127:0.925069 128:-0.149049 129:-0.957325 130:-0.925683 131:-0.999999 132:0.930304 133:0.762519 134:-0.0768095 135:-0.971208 136:-0.991633 137:-0.999994 138:0.513957 139:0.947789 140:-0.0157614 141:-0.971431 142:-0.998528 143:-0.999992 144:0.430098 145:0.809495 146:-0.126739 147:-0.971796 148:-0.990946 149:-0.999994 150:0.513646 151:0.961837 152:-0.0457366 153:-0.973055 154:-0.998411 155:-0.999992 156:0.368065 157:0.281907 158:-0.318205 159:-0.987848 160:-0.996815 161:-0.999997 162:0.721802 163:0.121301 164:-0.416991 165:-0.988318 166:-0.998456 167:-0.999996 168:0.617013 169:-0.102401 170:-0.542855 171:-0.988679 172:0.917337 173:-1 174:0.840712 175:0.315336 176:-0.299506 177:-0.985785 178:-0.997641 179:-0.999996 180:0.629988 181:0.880935 182:-0.911484 183:-0.917782 184:-0.910968 185:-0.913902 186:-0.915098 187:-0.92117 188:-0.856103 189:-0.926203 190:-0.932679 191:-0.32162 192:-0.940892 193:-0.943243 194:-0.890187 195:-0.93674 196:-0.948011 197:-0.946512 198:-0.961625 199:0.402793 200:-0.958536 201:-0.951462 202:-0.960571 203:-0.950764 204:-0.98383 205:-0.985143 206:-0.700747 207:-0.9868 208:-0.986262 209:-0.940443 210:-0.979933 211:-0.97146 212:-0.982093 213:-0.97672 214:-0.974975 215:-0.984333 216:-1 217:1 218:-0.985634 219:-0.975562 220:-0.965931 221:-0.970811 222:-0.962091 223:-0.973188 224:-0.916079 225:-0.963853 226:-0.975017 227:-0.66895 228:-0.968257 229:-0.953625 230:-0.934946 231:-0.938564 232:-0.949282 233:-0.934812 234:-0.892312 235:0.199751 236:-0.942861 237:-0.940049 238:-0.936351 239:-0.920205 240:-0.92952 241:-0.921472 242:-0.664254 243:-0.922335 244:-0.907302 245:-0.873972 246:-0.905575 247:-0.900441 248:-0.894128 249:-0.889032 250:-0.870927 251:-0.879054 252:-0.88838 
1 1:0.262851 2:-0.329567 3:0.222923 4:-0.967795 5:-0.999985 7:0.0981356 8:-0.557515 9:-0.0408117 10:-0.990568 11:-0.999973 12:0.217496 13:-0.222134 14:-0.599928 15:-0.0846296 16:-0.97136 17:-0.999974 18:0.233477 19:0.332372 20:-0.319989 21:-0.352022 22:-0.979102 23:-0.999989 24:-0.698269 25:0.325946 26:-0.342733 27:-0.51388 28:-0.985177 29:-0.99999 30:-0.643814 31:0.263685 32:-0.370811 33:-0.50045 34:-0.987766 35:-0.999991 36:-0.634296 37:0.290084 38:-0.436937 39:-0.554169 40:-0.996076 41:-0.999985 42:-0.315581 43:0.14578 44:-0.356677 45:-0.677845 46:-0.991643 47:-0.999989 48:-0.511293 49:0.913316 50:-0.272042 51:-0.700452 52:-0.980473 53:-0.99999 54:-0.423394 55:0.304184 56:-0.333745 57:-0.695293 58:-0.992158 59:-0.999993 60:-0.495705 61:-0.0511631 62:-0.553784 63:-0.759697 64:-0.996611 65:-0.99999 66:-0.332465 67:0.909791 68:-0.190669 69:-0.768765 70:-0.978515 71:-0.999991 72:-0.360028 73:-0.0181255 74:-0.516002 75:-0.824547 76:-0.997709 77:-0.999992 78:-0.304516 79:0.313867 80:-0.350938 81:-0.856395 82:-0.996018 83:-0.999994 84:-0.331525 85:0.277615 86:-0.392557 87:-0.864398 88:-0.992128 89:-0.999996 90:-0.33443 91:0.845523 92:-0.157282 93:-0.854863 94:-0.993507 95:-0.999996 96:-0.303767 97:0.314678 98:-0.33619 99:-0.854548 100:-0.992968 101:-0.999995 102:-0.346361 103:0.916449 104:-0.102556 105:-0.851398 106:-0.996152 107:-0.999995 108:-0.372308 109:0.111965 110:-0.537794 111:-0.855714 112:-0.992951 113:-0.999994 114:-0.375271 115:0.0972681 116:-0.341211 117:-0.850751 118:-0.987896 119:-0.999994 120:-0.388999 121:0.094352 122:-0.507154 123:-0.872425 124:-0.986087 125:-0.999994 126:-0.3547 127:0.932142 128:-0.145909 129:-0.888767 130:-0.993219 131:-0.999995 132:-0.246234 133:-0.0302402 134:-0.492049 135:-0.930266 136:-0.996843 137:-0.999995 138:-0.299948 139:0.495244 140:-0.244437 141:-0.942745 142:-0.99419 143:-0.999995 144:-0.316875 145:0.339002 146:-0.353798 147:-0.945584 148:-0.997928 149:-0.999998 150:-0.211561 151:0.938693 152:-0.056994 153:-0.945291 154:-0.995568 155:-0.999998 156:-0.172098 157:0.804192 158:-0.0391422 159:-0.956938 160:-0.995971 161:-0.999998 162:-0.18556 163:0.65522 164:-0.139386 165:-0.966753 166:-0.99456 167:-0.999997 168:-0.239077 169:0.910602 170:-0.026935 171:-0.965035 172:-0.998694 173:-0.999998 174:-0.221675 175:-0.0334305 176:-0.485966 177:-0.985845 178:0.850046 179:-1 180:-0.107361 181:1 182:-0.899538 183:-0.869667 184:-0.818595 185:-0.784377 186:-0.619979 187:-0.877342 188:0.0147884 189:-0.786305 190:-0.898126 191:0.847586 192:-0.905777 193:-0.866473 194:-0.167786 195:-0.745266 196:-0.886199 197:-0.925854 198:-0.966766 199:0.39723 200:-0.92888 201:-0.89255 202:-0.8406 203:-0.574256 204:-0.935734 205:-0.964486 206:-0.259509 207:-0.961299 208:-0.928996 209:-0.540351 210:-0.914451 211:-0.745151 212:-0.88904 213:-0.894145 214:-0.881187 215:-0.908737 216:-0.943111 217:0.939327 218:-0.890489 219:-0.814157 220:-0.79708 221:-0.774137 222:-0.661029 223:-0.838533 224:-0.141912 225:-0.800123 226:-0.843617 227:0.510918 228:-0.877338 229:-0.829394 230:-0.422534 231:-0.75846 232:-0.845198 233:-0.908883 234:-1 235:0.896202 236:-0.909898 237:-0.886906 238:-0.805515 239:-0.44589 240:-0.865375 241:-0.913793 242:0.508467 243:-0.915478 244:-0.849844 245:-0.301759 246:-0.904671 247:-0.682346 248:-0.824646 249:-0.854651 250:-0.888769 251:-0.932527 252:-0.968155 
1 1:-0.968349 2:-0.983197 3:-0.356097 4:-0.978215 5:-0.999969 7:-0.732489 8:-0.893629 9:-0.267985 10:-0.982562 11:-0.999969 12:-0.954509 13:-0.605951 14:-0.797333 15:-0.297967 16:-0.93406 17:-0.999969 18:-0.980477 19:0.87414 20:-0.0408385 21:-0.295059 22:-0.979149 23:-0.999971 24:-0.859679 25:0.888787 26:-0.0623297 27:-0.276985 28:-0.988642 29:-0.999971 30:-0.912774 31:0.862982 32:-0.0724201 33:-0.258158 34:-0.99061 35:-0.999974 36:-0.516037 37:0.262909 38:-0.448825 39:-0.255297 40:-0.74042 41:-0.999969 42:-0.987016 43:-0.881167 44:-0.933278 45:-0.306379 46:-0.993824 47:-0.999969 48:-0.999091 49:0.501409 50:-0.42876 51:-0.311492 52:-0.990192 53:-0.999971 54:-0.872882 55:-0.72108 56:-0.857511 57:-0.258915 58:-0.994246 59:-0.999969 60:-1 61:0.385165 62:-0.34859 63:-0.294107 64:-0.990194 65:-0.999973 66:-0.67098 67:-0.167869 68:-0.64736 69:-0.307235 70:-0.989072 71:-0.999975 72:-0.558341 73:-0.786953 74:-0.894982 75:-0.379599 76:-0.993395 77:-0.999974 78:-0.67569 79:0.253511 80:-0.380755 81:-0.40812 82:-0.991316 83:-0.999982 84:0.0558367 85:0.563291 86:-0.256733 87:-0.464815 88:-0.995702 89:-0.99997 90:-0.830492 91:0.857338 92:-0.151887 93:-0.47106 94:-0.995112 95:-0.99998 96:-0.285809 97:0.395975 98:-0.295141 99:-0.534082 100:-0.995563 101:-0.999971 102:-0.793223 103:0.493565 104:-0.301769 105:-0.532876 106:-0.99616 107:-0.999973 108:-0.619244 109:0.538557 110:-0.360475 111:-0.558572 112:-0.992059 113:-0.999978 114:-0.425606 115:0.403575 116:-0.155764 117:-0.560901 118:-0.993622 119:-0.99998 120:-0.27482 121:-0.851287 122:-0.933027 123:-0.635964 124:-0.992349 125:-0.999981 126:-0.25075 127:0.752274 128:-0.225736 129:-0.647023 130:-0.990949 131:-0.999995 132:0.700809 133:0.610775 134:-0.156291 135:-0.711486 136:-0.993668 137:-0.999989 138:0.256348 139:0.434426 140:-0.275169 141:-0.723022 142:-0.994933 143:-0.999989 144:0.220781 145:-0.496635 146:-0.757076 147:-0.72622 148:-0.99595 149:-0.999982 150:-0.158366 151:0.179518 152:-0.426267 153:-0.727037 154:-0.992923 155:-0.999989 156:0.281516 157:-0.906709 158:-0.953295 159:-0.737629 160:-0.997469 161:-0.999979 162:-0.371991 163:0.982921 164:0.030999 165:-0.769746 166:-0.997678 167:-0.999987 168:0.0965057 169:0.0520231 170:-0.464207 171:-0.765292 172:-0.994425 173:-0.999987 174:0.186209 175:0.54771 176:-0.175273 177:-0.783353 178:-0.965492 179:-0.999998 180:0.821296 181:0.789126 182:-0.822805 183:-0.808466 184:-0.810411 185:-0.807702 186:-0.787947 187:-0.858392 188:-0.699298 189:-0.81901 190:-0.848517 191:-0.256515 192:-0.855659 193:-0.825474 194:-0.71025 195:-0.782568 196:-0.82332 197:-0.820837 198:-0.906323 199:0.272332 200:-0.853507 201:-0.841114 202:-0.863647 203:-0.849603 204:-0.910946 205:-0.939297 206:-0.664159 207:-0.9473 208:-0.93043 209:-0.841416 210:-0.890099 211:-0.847014 212:-0.901302 213:-0.897485 214:-0.856048 215:-0.872833 216:-0.910698 217:1 218:-0.831957 219:-0.69814 220:-0.680835 221:-0.675215 222:-0.631073 223:-0.736723 224:-0.542373 225:-0.693499 226:-0.759595 227:-0.440802 228:-0.762054 229:-0.734227 230:-0.664249 231:-0.713024 232:-0.768742 233:-0.803387 234:-1 235:0.283963 236:-0.805805 237:-0.8063 238:-0.794561 239:-0.709397 240:-0.778463 241:-0.832565 242:-0.493397 243:-0.811957 244:-0.788219 245:-0.67404 246:-0.793503 247:-0.742999 248:-0.777627 249:-0.78955 250:-0.806916 251:-0.867027 252:-0.912252 
1 1:0.110636 2:-0.410377 3:-0.248403 4:-0.978733 5:-0.999971 7:0.628269 8:-0.342994 9:-0.640789 10:-0.955176 11:-0.999981 12:-0.360919 13:0.108081 14:-0.430093 15:-0.68567 16:-0.9793 17:-0.999989 18:0.151315 19:0.379976 20:-0.295461 21:-0.644111 22:-0.980128 23:-0.999984 24:-0.201714 25:0.475378 26:-0.268287 27:-0.711572 28:-0.993344 29:-0.999987 30:-0.0602214 31:0.629249 32:-0.188796 33:-0.733513 34:-0.968306 35:-0.999985 36:-0.143696 37:0.427637 38:-0.37676 39:-0.734259 40:-0.989045 41:-0.999987 42:0.0190018 43:0.119619 44:-0.371366 45:-0.753992 46:-0.993692 47:-0.999994 48:0.440927 49:0.626241 50:-0.381265 51:-0.755392 52:-0.991399 53:-0.999985 54:-0.139434 55:0.891099 56:-0.0339142 57:-0.730664 58:-0.995712 59:-0.999988 60:0.0455181 61:0.209962 62:-0.430984 63:-0.803037 64:-0.992611 65:-0.999986 66:-0.0868756 67:0.700798 68:-0.279237 69:-0.820093 70:-0.955573 71:-0.999988 72:0.0475301 73:0.674409 74:-0.17463 75:-0.83396 76:-0.992368 77:-0.99999 78:0.136812 79:0.0523532 80:-0.480128 81:-0.852045 82:-0.987856 83:-0.999996 84:0.675878 85:0.622708 86:-0.228483 87:-0.854497 88:-0.996418 89:-0.999991 90:0.178676 91:0.471131 92:-0.32824 93:-0.885437 94:-0.996355 95:-0.999996 96:0.48852 97:0.458967 98:-0.263336 99:-0.931741 100:-0.995699 101:-0.999995 102:0.513698 103:0.939182 104:-0.0918464 105:-0.928428 106:-0.99526 107:-0.999995 108:0.436208 109:-0.336964 110:-0.724398 111:-0.936081 112:-0.995763 113:-0.999996 114:0.579039 115:0.624131 116:-0.0222319 117:-0.931972 118:-0.991029 119:-0.999993 120:0.255306 121:0.648357 122:-0.257656 123:-0.937731 124:-0.993638 125:-0.999994 126:0.363705 127:0.665847 128:-0.264093 129:-0.943078 130:-0.996281 131:-0.999994 132:0.421682 133:0.725447 134:-0.0962274 135:-0.941 136:-0.987209 137:-0.999994 138:0.391778 139:0.450096 140:-0.267251 141:-0.943196 142:-0.996589 143:-0.999999 144:0.791393 145:0.589922 146:-0.232704 147:-0.943072 148:-0.995567 149:-0.999997 150:0.540881 151:0.896357 152:-0.0775873 153:-0.942915 154:-0.99691 155:-0.999997 156:0.505854 157:0.000858576 158:-0.468372 159:-0.94191 160:-0.996388 161:-0.999994 162:0.342424 163:0.451138 164:-0.245496 165:-0.956965 166:-0.990689 167:-0.999998 168:0.577645 169:0.840956 170:-0.0624056 171:-0.954845 172:-0.996945 173:-0.999997 174:0.56253 175:0.532574 176:-0.183365 177:-0.949885 178:-0.997187 179:-1 180:0.691414 181:0.552715 182:-0.900221 183:-0.878663 184:-0.865278 185:-0.854919 186:-0.772173 187:-0.901592 188:-0.375423 189:-0.856115 190:-0.880909 191:0.415087 192:-0.875683 193:-0.830959 194:-0.437056 195:-0.772186 196:-0.830458 197:-0.849007 198:-0.930746 199:0.169772 200:-0.830296 201:-0.804377 202:-0.807645 203:-0.665273 204:-0.863474 205:-0.894454 206:-0.36243 207:-0.882896 208:-0.861353 209:-0.573818 210:-0.718987 211:-0.639641 212:-0.734324 213:-0.707853 214:-0.582679 215:-0.623299 216:-0.539613 217:1 218:-0.65754 219:-0.507119 220:-0.48817 221:-0.511784 222:-0.503354 223:-0.624909 224:-0.180324 225:-0.583324 226:-0.653447 227:0.270115 228:-0.729015 229:-0.708481 230:-0.487134 231:-0.680548 232:-0.708681 233:-0.747625 234:-1 235:0.591881 236:-0.81167 237:-0.806293 238:-0.81285 239:-0.628535 240:-0.850471 241:-0.864743 242:0.098445 243:-0.876783 244:-0.843817 245:-0.544077 246:-0.853647 247:-0.790844 248:-0.841639 249:-0.848035 250:-0.869036 251:-0.900541 252:-0.985799 
1 1:0.77825 2:-0.0559483 3:0.363053 4:-0.963857 5:-0.999969 7:0.299329 8:-0.476101 9:0.469589 10:-0.986544 11:-0.999973 12:-0.707762 13:0.732347 14:-0.10902 15:0.370086 16:-0.96162 17:-0.999972 18:-0.833431 19:0.986139 20:0.0168696 21:0.289676 22:-0.986456 23:-0.999977 24:-0.474227 25:0.651905 26:-0.180343 27:0.239062 28:-0.98865 29:-0.999984 30:0.145121 31:0.607315 32:-0.199717 33:0.204504 34:-0.980102 35:-0.99997 36:-0.882639 37:0.771163 38:-0.226475 39:0.22003 40:-0.988421 41:-0.99997 42:-0.896613 43:0.677236 44:-0.0582794 45:0.15367 46:-0.989597 47:-0.999983 48:0.00525156 49:0.786996 50:-0.320103 51:0.166094 52:-0.993535 53:-0.999972 54:-0.670377 55:0.656318 56:-0.153854 57:0.338561 58:-0.997059 59:-0.999984 60:0.146093 61:0.182525 62:-0.443886 63:0.269247 64:-0.773278 65:-0.999968 66:-0.967421 67:0.960442 68:-0.169205 69:0.12548 70:-0.976973 71:-0.999978 72:-0.176514 73:0.0307756 74:-0.491897 75:0.150497 76:-0.995371 77:-0.999973 78:-0.70724 79:0.282596 80:-0.366386 81:0.168838 82:-0.992103 83:-0.999974 84:-0.601883 85:0.726866 86:-0.17896 87:0.145149 88:-0.997474 89:-0.999979 90:-0.401546 91:0.821924 92:-0.168058 93:0.185382 94:-0.99481 95:-0.999979 96:-0.354682 97:0.700054 98:-0.141605 99:0.206081 100:-0.994483 101:-0.999975 102:-0.485122 103:-0.227097 104:-0.641262 105:0.132483 106:-0.997352 107:-0.99997 108:-0.86004 109:0.66454 110:-0.308108 111:0.0364742 112:-0.993229 113:-0.999975 114:-0.483037 115:0.404366 116:-0.155285 117:-0.0236641 118:-0.99052 119:-0.999974 120:-0.673393 121:-0.249433 122:-0.661979 123:-0.113033 124:-0.995148 125:-0.999975 126:-0.519835 127:0.302075 128:-0.425538 129:-0.109336 130:-0.994229 131:-0.999984 132:-0.0173403 133:0.670687 134:-0.12491 135:-0.238926 136:-0.993607 137:-0.99999 138:0.357454 139:0.662519 140:-0.159911 141:-0.353978 142:-0.992372 143:-0.999988 144:0.239682 145:0.777317 146:-0.142267 147:-0.406475 148:-0.993696 149:-0.999981 150:-0.274282 151:-0.94921 152:-0.975295 153:-0.434012 154:-0.995897 155:-0.999971 156:-0.851185 157:0.728184 158:-0.0797544 159:-0.448045 160:-0.991876 161:-0.999985 162:-0.00165374 163:0.760012 164:-0.0849003 165:-0.449195 166:-0.994756 167:-0.999982 168:-0.183151 169:0.970667 170:0.00365605 171:-0.446866 172:-0.995225 173:-0.999992 174:0.425176 175:-0.603074 176:-0.790512 177:-0.536269 178:-0.987228 179:-0.999973 180:-0.723479 181:1 182:-0.817094 183:-0.791643 184:-0.782622 185:-0.797316 186:-0.76265 187:-0.869848 188:-0.612958 189:-0.845276 190:-0.894142 191:-0.123772 192:-0.89928 193:-0.880346 194:-0.729727 195:-0.853907 196:-0.890294 197:-0.936328 198:-0.97956 199:0.208252 200:-0.944507 201:-0.920264 202:-0.922235 203:-0.886582 204:-0.958578 205:-0.973141 206:-0.65137 207:-0.97005 208:-0.961452 209:-0.865737 210:-0.943533 211:-0.901512 212:-0.947401 213:-0.946859 214:-0.941768 215:-0.968808 216:-1 217:0.753625 218:-0.969697 219:-0.931703 220:-0.897492 221:-0.882407 222:-0.807596 223:-0.885175 224:-0.601133 225:-0.775953 226:-0.783071 227:-0.247975 228:-0.701821 229:-0.579195 230:-0.409139 231:-0.315127 232:-0.315615 233:-0.271486 234:0.000165488 235:0.704751 236:-0.199173 237:-0.204973 238:-0.178562 239:-0.117256 240:-0.193101 241:-0.273848 242:0.0912345 243:-0.322385 244:-0.333835 245:-0.229716 246:-0.483068 247:-0.418283 248:-0.542525 249:-0.604565 250:-0.679695 251:-0.798871 252:-0.882343 
1 1:-0.464093 2:-0.715493 3:0.129633 4:-0.995545 5:-0.999975 7:-0.0195263 8:-0.605127 9:0.242745 10:-0.996429 11:-0.999974 12:-0.974275 13:0.826045 14:-0.0608298 15:0.220999 16:-0.455737 17:-0.99997 18:-0.678584 19:0.306989 20:-0.333067 21:0.168872 22:-0.995388 23:-0.999976 24:-0.977636 25:0.627323 26:-0.192589 27:0.170448 28:-0.99213 29:-0.999976 30:-0.820846 31:0.0346202 32:-0.484862 33:-0.0358006 34:-0.996652 35:-0.999978 36:-0.796432 37:-0.21653 38:-0.658569 39:-0.211656 40:-0.998307 41:-0.999979 42:-0.735858 43:-0.00652506 44:-0.442192 45:-0.427823 46:-0.99917 47:-0.999986 48:-0.330532 49:-0.13167 50:-0.669627 51:-0.427458 52:-0.998792 53:-0.999986 54:-0.316977 55:0.257379 56:-0.357656 57:-0.45305 58:-0.998955 59:-0.999988 60:-0.18512 61:0.149734 62:-0.459307 63:-0.505056 64:-0.9986 65:-0.999987 66:-0.259802 67:-0.478359 68:-0.778939 69:-0.585799 70:-0.997117 71:-0.99999 72:-0.0995706 73:-0.417039 74:-0.71264 75:-0.580775 76:-0.998417 77:-0.99999 78:-0.0668531 79:0.133717 80:-0.439934 81:-0.74505 82:-0.998531 83:-0.999988 84:-0.179598 85:0.26921 86:-0.396553 87:-0.770683 88:-0.998944 89:-0.999988 90:-0.199406 91:1 92:-0.0867433 93:-0.761885 94:-0.996383 95:-0.999982 96:-0.523061 97:0.537179 98:-0.223845 99:-0.759964 100:-0.998167 101:-0.999989 102:-0.120701 103:0.469204 104:-0.313245 105:-0.810841 106:-0.999233 107:-0.999991 108:-0.0393919 109:0.30636 110:-0.456991 111:-0.846867 112:-0.997871 113:-0.999992 114:0.0441856 115:0.981479 116:0.194118 117:-0.840574 118:-0.997334 119:-0.999992 120:0.00876995 121:1 122:-0.0992921 123:-0.850239 124:-0.994213 125:-0.999994 126:0.196609 127:0.974506 128:-0.127108 129:-0.857677 130:-0.989791 131:-0.999989 132:-0.0943622 133:0.435645 134:-0.248023 135:-0.868628 136:-0.999346 137:-0.999992 138:-0.00672059 139:-0.142214 140:-0.566552 141:-0.898949 142:-0.995967 143:-0.999995 144:0.230147 145:0.964912 146:-0.0517345 147:-0.899337 148:-0.995412 149:-0.999996 150:0.251999 151:0.915812 152:-0.0681239 153:-0.926124 154:-0.978908 155:-0.999993 156:0.0611713 157:0.987905 158:0.0590176 159:-0.929503 160:-0.99892 161:-0.99999 162:-0.104308 163:0.956058 164:0.0170321 165:-0.974384 166:-0.991233 167:-0.999999 168:0.4022 169:-0.0492769 170:-0.515799 171:-0.972551 172:1 173:-1 174:0.478423 175:0.998334 176:0.0656426 177:-0.966316 178:-0.994859 179:-0.999997 180:0.304821 181:0.751317 182:-0.965301 183:-0.975958 184:-0.974131 185:-0.963921 186:-0.938726 187:-0.971422 188:-0.846018 189:-0.934288 190:-0.949998 191:-0.292132 192:-0.930406 193:-0.918504 194:-0.836385 195:-0.882737 196:-0.885031 197:-0.872314 198:-0.885232 199:0.357977 200:-0.817512 201:-0.842996 202:-0.87088 203:-0.850734 204:-0.897936 205:-0.894873 206:-0.636946 207:-0.909737 208:-0.90212 209:-0.841524 210:-0.82779 211:-0.840684 212:-0.886539 213:-0.879077 214:-0.848356 215:-0.879295 216:-0.878514 217:1 218:-0.887929 219:-0.849348 220:-0.825713 221:-0.832859 222:-0.82585 223:-0.846942 224:-0.771487 225:-0.836152 226:-0.84487 227:-0.551377 228:-0.850929 229:-0.858021 230:-0.849639 231:-0.841872 232:-0.876882 233:-0.872867 234:-1 235:0.206591 236:-0.931676 237:-0.912118 238:-0.916972 239:-0.9017 240:-0.925995 241:-0.946671 242:-0.637451 243:-0.954339 244:-0.939587 245:-0.891926 246:-0.952309 247:-0.946368 248:-0.956868 249:-0.957778 250:-0.96367 251:-0.950916 252:-0.960557 
1 1:0.193839 2:-0.366205 3:-0.108662 4:-0.980624 5:-0.999972 7:0.653266 8:-0.332879 9:-0.148556 10:-0.98133 11:-0.99998 12:-0.373548 13:0.722152 14:-0.114264 15:-0.188508 16:-0.969398 17:-0.999973 18:-0.946282 19:0.7273 20:-0.116499 21:-0.259514 22:-0.980443 23:-0.999972 24:-0.962836 25:0.551972 26:-0.230129 27:-0.299687 28:-0.935645 29:-0.999972 30:-0.90977 31:0.00312942 32:-0.500541 33:-0.295859 34:-0.701097 35:-0.999971 36:-0.914558 37:-0.636415 38:-0.84226 39:-0.301955 40:-0.99444 41:-0.999972 42:-0.958817 43:-0.269378 44:-0.589776 45:-0.32398 46:-0.996641 47:-0.999973 48:-0.877177 49:0.745915 50:-0.335733 51:-0.378623 52:-0.993991 53:-0.999977 54:-0.596216 55:0.588391 56:-0.188556 57:-0.310098 58:-0.9969 59:-0.999975 60:-0.799945 61:-0.769203 62:-0.891461 63:-0.33301 64:-0.995168 65:-0.999972 66:-0.9784 67:0.359976 68:-0.42367 69:-0.347695 70:-0.987246 71:-0.999976 72:-0.783685 73:0.0988932 74:-0.45832 75:-0.325249 76:-0.992031 77:-0.999972 78:-0.943081 79:0.251344 80:-0.381825 81:-0.326353 82:-0.989473 83:-0.999979 84:-0.503051 85:0.703067 86:-0.190276 87:-0.386583 88:-0.99664 89:-0.999982 90:-0.410671 91:-0.292456 92:-0.676915 93:-0.378773 94:-0.996211 95:-0.999979 96:-0.493183 97:0.679245 98:-0.152112 99:-0.484326 100:-0.995234 101:-0.999977 102:-0.732048 103:0.238053 104:-0.422137 105:-0.523811 106:-0.997585 107:-0.999977 108:-0.740508 109:0.397794 110:-0.418985 111:-0.59605 112:-0.994747 113:-0.999982 114:-0.420852 115:0.803273 116:0.0862264 117:-0.582295 118:-0.993044 119:-0.999993 120:0.434366 121:-0.831173 122:-0.923968 123:-0.628112 124:-0.834111 125:-0.999971 126:-0.936804 127:0.594591 128:-0.295717 129:-0.623876 130:-0.995642 131:-0.999997 132:0.687299 133:-0.893056 134:-0.943984 135:-0.734864 136:-0.995534 137:-0.999978 138:-0.668697 139:0.558024 140:-0.212714 141:-0.747507 142:-0.997632 143:-0.999986 144:-0.188632 145:0.682269 146:-0.188138 147:-0.75887 148:-0.997049 149:-0.999991 150:0.0759223 151:0.601763 152:-0.220882 153:-0.77077 154:-0.995334 155:-0.999997 156:0.529368 157:0.834953 158:-0.0227065 159:-0.794803 160:-0.996866 161:-0.99999 162:0.0558245 163:0.820418 164:-0.0534924 165:-0.83246 166:-0.997488 167:-0.999992 168:0.216139 169:0.327402 170:-0.323957 171:-0.842047 172:-0.99529 173:-0.999984 174:-0.326299 175:-0.708342 176:-0.846792 177:-0.849004 178:-0.984501 179:-0.999978 180:-0.643684 181:0.700299 182:-0.912138 183:-0.888561 184:-0.868449 185:-0.871619 186:-0.819882 187:-0.906028 188:-0.642695 189:-0.839574 190:-0.88133 191:-0.0489099 192:-0.882864 193:-0.831875 194:-0.657151 195:-0.793092 196:-0.816495 197:-0.868045 198:-1 199:0.252503 200:-0.876655 201:-0.848154 202:-0.862257 203:-0.810264 204:-0.909508 205:-0.948701 206:-0.569727 207:-0.936936 208:-0.917053 209:-0.790365 210:-0.870818 211:-0.803568 212:-0.874111 213:-0.859023 214:-0.803733 215:-0.842792 216:-0.872377 217:1 218:-0.860145 219:-0.751213 220:-0.708524 221:-0.711717 222:-0.644536 223:-0.742223 224:-0.45485 225:-0.69152 226:-0.743734 227:-0.214809 228:-0.757934 229:-0.721908 230:-0.590537 231:-0.679509 232:-0.717284 233:-0.765491 234:-0.80277 235:0.441991 236:-0.788189 237:-0.776291 238:-0.771011 239:-0.656621 240:-0.794681 241:-0.835397 242:-0.287216 243:-0.828289 244:-0.80823 245:-0.654148 246:-0.848315 247:-0.769936 248:-0.826051 249:-0.83424 250:-0.864379 251:-0.902825 252:-0.93897 
1 1:0.627165 2:-0.136158 3:-0.242257 4:-0.283367 5:-0.99997 7:1 8:-0.192572 9:-0.153135 10:-0.989251 11:-0.99997 12:-0.974363 13:0.893577 14:-0.0260965 15:-0.278196 16:-0.97136 17:-0.999974 18:-0.696209 19:1 20:0.0240117 21:-0.229781 22:-0.979496 23:-0.999974 24:-0.756147 25:0.348272 26:-0.331611 27:-0.238504 28:-0.993748 29:-0.999977 30:-0.550407 31:0.0383447 32:-0.483008 33:-0.344004 34:-0.996207 35:-0.999976 36:-0.642033 37:0.93002 38:-0.156978 39:-0.478832 40:-0.994264 41:-0.999976 42:-0.547469 43:0.130102 44:-0.36548 45:-0.47082 46:-0.998562 47:-0.999976 48:-0.650903 49:-0.944815 50:-0.979004 51:-0.472645 52:-0.997368 53:-0.999985 54:-0.0791578 55:0.950857 56:-0.00338651 57:-0.442068 58:-0.994986 59:-0.999982 60:-0.255933 61:0.46435 62:-0.311351 63:-0.609756 64:-0.996918 65:-0.999981 66:-0.3085 67:-0.417276 68:-0.753053 69:-0.640798 70:-0.993538 71:-0.999987 72:0.0354057 73:-0.404114 74:-0.706269 75:-0.781117 76:-0.991809 77:-0.999991 78:0.375084 79:-0.411369 80:-0.709211 81:-0.778635 82:-0.996717 83:-0.999988 84:0.198031 85:0.0242302 86:-0.513029 87:-0.774319 88:-0.998605 89:-0.999989 90:0.177282 91:-0.00851284 92:-0.547259 93:-0.765062 94:-0.995629 95:-0.999986 96:0.0348163 97:0.118989 98:-0.434998 99:-0.773197 100:-0.997557 101:-0.999988 102:0.115525 103:0.944505 104:-0.0893389 105:-0.764698 106:-0.998747 107:-0.999986 108:-0.0407963 109:0.686504 110:-0.298978 111:-0.76788 112:-0.996304 113:-0.999993 114:0.456401 115:0.128148 116:-0.322516 117:-0.874455 118:-0.984663 119:-0.99999 120:0.206585 121:0.704264 122:-0.232478 123:-0.891343 124:-0.995719 125:-0.999994 126:0.52348 127:0.631739 128:-0.27923 129:-0.901087 130:-0.997393 131:-0.999991 132:0.289626 133:0.976197 134:0.035113 135:-0.924597 136:-0.998592 137:-0.999997 138:0.661179 139:0.811333 140:-0.0847141 141:-0.93101 142:-0.998828 143:-0.999997 144:0.659325 145:0.762454 146:-0.14944 147:-0.936553 148:-0.996609 149:-0.999998 150:0.693833 151:0.713564 152:-0.1665 153:-0.947315 154:-0.981093 155:-0.999998 156:0.696723 157:0.665806 158:-0.113083 159:-0.966838 160:-0.995754 161:-0.999993 162:0.38377 163:0.967123 164:0.022785 165:-0.970099 166:-0.997193 167:-0.999993 168:0.374611 169:-0.0501288 170:-0.516233 171:-0.973417 172:0.888743 173:-1 174:0.787417 175:0.896987 176:0.0114595 177:-0.990249 178:-0.992592 179:-0.999994 180:0.42211 181:0.84594 182:-0.903205 183:-0.877215 184:-0.879957 185:-0.842566 186:-0.814886 187:-0.828293 188:-0.640867 189:-0.748924 190:-0.736744 191:-0.00662496 192:-0.630537 193:-0.638572 194:-0.503745 195:-0.550754 196:-0.544738 197:-0.50473 198:-0.219392 199:0.526362 200:-0.421349 201:-0.559612 202:-0.677459 203:-0.718318 204:-0.791076 205:-0.84499 206:-0.571331 207:-0.881951 208:-0.881333 209:-0.800665 210:-0.822596 211:-0.833048 212:-0.876521 213:-0.885043 214:-0.841394 215:-0.896269 216:-0.976869 217:1 218:-0.915732 219:-0.869402 220:-0.837505 221:-0.834426 222:-0.805142 223:-0.860401 224:-0.712933 225:-0.817274 226:-0.861236 227:-0.464577 228:-0.873084 229:-0.821751 230:-0.783831 231:-0.847452 232:-0.839394 233:-0.860346 234:-1 235:0.290498 236:-0.873783 237:-0.844462 238:-0.869144 239:-0.82916 240:-0.867765 241:-0.848829 242:-0.485931 243:-0.85795 244:-0.856694 245:-0.781286 246:-0.85102 247:-0.828749 248:-0.851132 249:-0.848887 250:-0.843258 251:-0.831932 252:-0.872966 
1 1:-0.122761 2:-0.534284 3:0.869064 4:-0.922288 5:-0.999969 7:0.810665 8:-0.269187 9:0.469107 10:-0.734872 11:-0.999969 12:-0.968525 13:0.396309 14:-0.281851 15:0.446047 16:-0.989895 17:-0.99997 18:-0.954145 19:-0.0995361 20:-0.542533 21:0.426078 22:-0.960764 23:-0.999974 24:-0.730097 25:0.749258 26:-0.131842 27:0.397815 28:-0.993054 29:-0.99997 30:-0.976384 31:-0.101831 32:-0.552801 33:0.417751 34:-0.997505 35:-0.999974 36:-0.725094 37:0.596654 38:-0.302819 39:0.356442 40:-0.994882 41:-0.999977 42:-0.513199 43:-0.341666 44:-0.630364 45:0.2516 46:-0.999034 47:-0.999978 48:-0.498087 49:-0.038405 50:-0.634143 51:-0.0966036 52:-0.995167 53:-0.999982 54:-0.210809 55:0.764785 56:-0.0984433 57:-0.0187499 58:-0.997084 59:-0.999976 60:-0.601802 61:-0.136683 62:-0.594002 63:-0.369254 64:-0.997965 65:-0.999988 66:0.162672 67:-0.0463527 68:-0.595864 69:-0.363491 70:-0.994921 71:-0.999987 72:0.0494783 73:-0.251904 74:-0.631239 75:-0.398705 76:-0.99795 77:-0.999989 78:0.167118 79:-0.147358 80:-0.578787 81:-0.418201 82:-0.995818 83:-0.999988 84:0.161819 85:0.377897 86:-0.344878 87:-0.476572 88:-0.997325 89:-0.999986 90:0.0171851 91:0.341212 92:-0.387565 93:-0.593833 94:-0.99809 95:-0.999988 96:0.165859 97:0.0061781 98:-0.491959 99:-0.670371 100:-0.988769 101:-0.99999 102:0.260025 103:0.770042 104:-0.171526 105:-0.675598 106:-0.998227 107:-0.999987 108:0.0234055 109:0.985423 110:-0.174728 111:-0.813383 112:-0.998808 113:-0.999991 114:0.395266 115:0.991295 116:0.200061 117:-0.814517 118:-0.996386 119:-0.999991 120:0.31576 121:0.341049 122:-0.396053 123:-0.831974 124:-0.988532 125:-0.999991 126:0.343859 127:0.952321 128:-0.136954 129:-0.848742 130:-0.994202 131:-0.999994 132:0.52337 133:0.985488 134:0.0399798 135:-0.849038 136:-0.991162 137:-0.999996 138:0.575568 139:0.987331 140:0.00421987 141:-0.900536 142:-0.996346 143:-0.999999 144:0.897849 145:0.949962 146:-0.0589495 147:-0.910198 148:-0.999032 149:-0.999992 150:0.368429 151:0.712123 152:-0.167201 153:-0.911234 154:-0.995025 155:-0.999992 156:0.36153 157:0.956142 158:0.0420461 159:-0.928814 160:-0.996974 161:-0.999999 162:0.884523 163:0.924887 164:0.000824994 165:-0.962719 166:-0.995242 167:-0.999997 168:0.663357 169:0.978247 170:0.00751629 171:-0.963365 172:-0.995373 173:-0.999998 174:0.690672 175:-0.0533371 176:-0.496609 177:-0.970457 178:0.831323 179:-1 180:0.818132 181:0.880994 182:-0.940292 183:-0.945308 184:-0.946019 185:-0.939249 186:-0.938995 187:-0.933777 188:-0.877435 189:-0.938435 190:-0.943556 191:-0.43496 192:-0.944243 193:-0.94702 194:-0.900743 195:-0.938968 196:-0.937217 197:-0.954404 198:-0.946285 199:0.42313 200:-0.960044 201:-0.965254 202:-0.96712 203:-0.959053 204:-0.980932 205:-0.98445 206:-0.754088 207:-0.990762 208:-0.988595 209:-0.958462 210:-0.98376 211:-0.971815 212:-0.97976 213:-0.977952 214:-0.96784 215:-0.980059 216:-1 217:1 218:-0.986554 219:-0.97393 220:-0.972553 221:-0.969219 222:-0.967409 223:-0.974467 224:-0.937275 225:-0.966866 226:-0.972966 227:-0.765867 228:-0.972405 229:-0.97436 230:-0.950926 231:-0.961086 232:-0.964525 233:-0.964562 234:-0.979458 235:0.0441519 236:-0.973475 237:-0.961426 238:-0.967319 239:-0.956495 240:-0.95655 241:-0.961093 242:-0.761576 243:-0.951919 244:-0.950572 245:-0.927384 246:-0.947631 247:-0.934546 248:-0.935233 249:-0.934476 250:-0.929882 251:-0.921219 252:-0.902265 
1 1:-0.0742827 2:-0.339872 3:0.0308869 4:-0.946302 5:-0.999969 7:0.0288337 8:-0.442321 9:-0.136528 10:-0.984261 11:-0.999968 12:-0.907768 13:0.117222 14:-0.226087 15:-0.781529 16:-0.95765 17:-0.99998 18:-0.384747 19:0.654433 20:0.139012 21:-0.743185 22:-0.984941 23:-0.999986 24:-0.00186438 25:0.724486 26:0.150592 27:-0.720355 28:-0.992512 29:-0.999982 30:-0.244034 31:0.44835 32:-0.0301451 33:-0.737897 34:-0.99276 35:-0.99999 36:0.301869 37:-0.415501 38:-0.655174 39:-0.757599 40:-0.990809 41:-0.999983 42:-0.198325 43:0.305117 44:-0.0152492 45:-0.794768 46:-0.996373 47:-0.999988 48:0.077102 49:0.156164 50:-0.406472 51:-0.797311 52:-0.994307 53:-0.999988 54:0.173023 55:0.297938 56:-0.10998 57:-0.795632 58:-0.996915 59:-0.999989 60:0.212096 61:-0.183695 62:-0.484351 63:-0.80225 64:-0.994897 65:-0.999987 66:0.102568 67:-0.000594062 68:-0.427791 69:-0.846883 70:-0.973954 71:-0.999994 72:0.534032 73:0.230987 74:-0.182208 75:-0.854626 76:-0.990715 77:-0.999996 78:0.649554 79:-0.47867 80:-0.649447 81:-0.880184 82:-0.995632 83:-0.999995 84:0.631188 85:0.13497 86:-0.270012 87:-0.888356 88:-0.994378 89:-0.99999 90:0.274075 91:0.618824 92:-0.00709145 93:-0.8823 94:-0.992525 95:-0.999993 96:0.50036 97:0.21801 98:-0.173635 99:-0.881004 100:-0.994347 101:-0.999992 102:0.358479 103:0.187904 104:-0.249961 105:-0.890168 106:-0.989389 107:-0.999993 108:0.418349 109:0.251176 110:-0.301953 111:-0.887237 112:-0.99313 113:-0.999993 114:0.501879 115:-0.0616362 116:-0.241323 117:-0.894104 118:-0.990011 119:-0.999992 120:0.370892 121:0.606789 122:-0.0279867 123:-0.915554 124:-0.991808 125:-0.999996 126:0.614273 127:0.901624 128:0.129014 129:-0.923395 130:-0.995159 131:-1 132:0.859263 133:0.750593 134:0.232338 135:-0.931967 136:-0.994737 137:-0.999992 138:0.362685 139:0.153889 140:-0.21151 141:-0.946479 142:-0.991563 143:-0.999996 144:0.659071 145:0.684201 146:0.0903534 147:-0.944931 148:-0.997233 149:-0.999996 150:0.64098 151:0.785834 152:0.166587 153:-0.945776 154:-0.996654 155:-0.999996 156:0.632383 157:0.448494 158:0.0360243 159:-0.946134 160:-0.988545 161:-0.999999 162:0.790379 163:0.305477 164:-0.0867047 165:-0.949885 166:-0.997146 167:-0.999994 168:0.464611 169:0.881905 170:0.284265 171:-0.97261 172:-0.995894 173:-0.999997 174:0.678817 175:-0.0455836 176:-0.316992 177:-0.977488 178:0.775902 179:-1 180:0.810938 181:0.921979 182:-0.934058 183:-0.912301 184:-0.895415 185:-0.905795 186:-0.888167 187:-0.940321 188:-0.794062 189:-0.923034 190:-0.950951 191:-0.431917 192:-0.929999 193:-0.927042 194:-0.814886 195:-0.884214 196:-0.901477 197:-0.913013 198:-0.965788 199:0.217599 200:-0.926377 201:-0.898871 202:-0.899857 203:-0.87317 204:-0.928355 205:-0.947767 206:-0.759656 207:-0.932657 208:-0.90655 209:-0.816022 210:-0.833882 211:-0.807484 212:-0.866909 213:-0.850185 214:-0.812704 215:-0.85898 216:-0.770761 217:1 218:-0.814697 219:-0.755933 220:-0.754389 221:-0.770227 222:-0.732741 223:-0.819982 224:-0.631639 225:-0.769007 226:-0.842889 227:-0.549233 228:-0.867263 229:-0.779535 230:-0.738718 231:-0.740005 232:-0.776671 233:-0.883009 234:-1 235:-0.0596957 236:-0.907791 237:-0.84773 238:-0.848598 239:-0.807668 240:-0.887722 241:-0.940692 242:-0.599117 243:-0.927094 244:-0.904041 245:-0.819072 246:-0.923522 247:-0.872475 248:-0.891617 249:-0.89002 250:-0.890114 251:-0.932311 252:-0.989385 
1 1:-0.80636 2:-0.897199 3:0.104417 4:-0.793104 5:-0.999968 7:0.238081 8:-0.500885 9:-0.101649 10:-0.570304 11:-0.999968 12:-0.988639 13:0.809315 14:-0.0694345 15:-0.0973698 16:-0.978446 17:-0.999971 18:-0.738561 19:0.798909 20:-0.0796018 21:-0.0664049 22:-0.96613 23:-0.999979 24:-0.146159 25:-0.818291 26:-0.912785 27:-0.0498822 28:-0.993336 29:-0.999971 30:-0.797124 31:-0.174238 32:-0.588852 33:-0.00201721 34:-0.991583 35:-0.999972 36:-0.692766 37:0.700872 38:-0.257226 39:0.0319932 40:-0.99524 41:-0.99997 42:-0.84955 43:0.873825 44:0.0520995 45:0.0510819 46:-0.996193 47:-0.99997 48:-0.828717 49:0.85676 50:-0.29356 51:0.0208393 52:-0.993496 53:-0.99997 54:-0.85587 55:0.373373 56:-0.298399 57:0.0604575 58:-0.996481 59:-0.999984 60:0.154264 61:0.806488 62:-0.150451 63:0.0359806 64:-0.985225 65:-0.999975 66:-0.409643 67:0.880802 68:-0.202954 69:0.00334738 70:-0.982622 71:-0.99997 72:-0.905462 73:-0.716032 74:-0.860023 75:0.0296823 76:-0.995241 77:-0.99998 78:0.152229 79:0.881598 80:-0.0704737 81:0.0402711 82:-0.995867 83:-0.999969 84:-0.937343 85:0.34523 86:-0.36041 87:0.0451904 88:-0.994273 89:-0.999972 90:-0.692285 91:-0.704519 92:-0.865075 93:-0.0523187 94:-0.965133 95:-0.999984 96:0.367777 97:0.99288 98:0.00624865 99:-0.170641 100:-0.993897 101:-0.999982 102:0.075022 103:0.510664 104:-0.293714 105:-0.265423 106:-0.995076 107:-0.999976 108:-0.511928 109:-0.698763 110:-0.874786 111:-0.25426 112:-0.995024 113:-0.999978 114:-0.138107 115:0.854715 116:0.117371 117:-0.258296 118:-0.99482 119:-0.999977 120:-0.444877 121:-0.735387 122:-0.88083 123:-0.278589 124:-0.938821 125:-0.999981 126:0.217189 127:0.342602 128:-0.407552 129:-0.343827 130:-0.986761 131:-0.99998 132:0.131035 133:0.737729 134:-0.0897944 135:-0.354666 136:-0.994084 137:-0.999982 138:-0.109542 139:0.677477 140:-0.152353 141:-0.40181 142:-0.988323 143:-0.999981 144:0.122287 145:0.416747 146:-0.316279 147:-0.488574 148:-0.946058 149:-0.999982 150:0.235962 151:0.748051 152:-0.149725 153:-0.485541 154:-0.996381 155:-0.999996 156:0.752839 157:0.378996 158:-0.266329 159:-0.484392 160:-0.996151 161:-0.999979 162:-0.274625 163:-0.666893 164:-0.826805 165:-0.55185 166:-0.977492 167:-0.999985 168:0.338235 169:0.73204 170:-0.117876 171:-0.549611 172:-0.992331 173:-0.999995 174:0.662992 175:0.407479 176:-0.250244 177:-0.555126 178:-0.996411 179:-0.999993 180:0.545435 181:0.892025 182:-0.875958 183:-0.895525 184:-0.870576 185:-0.869067 186:-0.83526 187:-0.914635 188:-0.647228 189:-0.87979 190:-0.902963 191:-0.0439202 192:-0.916967 193:-0.881957 194:-0.691585 195:-0.86467 196:-0.893718 197:-0.923446 198:-0.997156 199:0.360245 200:-0.935595 201:-0.910495 202:-0.907137 203:-0.83974 204:-0.947891 205:-0.967966 206:-0.593754 207:-0.968646 208:-0.949122 209:-0.819684 210:-0.933909 211:-0.868571 212:-0.924746 213:-0.926075 214:-0.912807 215:-0.922352 216:-0.944373 217:1 218:-0.93263 219:-0.88925 220:-0.844879 221:-0.841509 222:-0.790448 223:-0.885955 224:-0.618287 225:-0.843217 226:-0.877945 227:-0.340112 228:-0.882932 229:-0.851187 230:-0.72405 231:-0.794733 232:-0.838733 233:-0.887097 234:-1 235:0.423938 236:-0.883229 237:-0.857336 238:-0.836982 239:-0.741462 240:-0.871119 241:-0.889693 242:-0.359031 243:-0.891285 244:-0.863874 245:-0.708322 246:-0.879519 247:-0.825554 248:-0.868024 249:-0.870157 250:-0.90144 251:-0.923196 252:-0.952342 
1 1:-0.848614 2:-0.919631 3:-0.00363176 4:-0.833547 5:-0.999969 7:0.175443 8:-0.526232 9:-0.0691824 10:-0.659565 11:-0.999969 12:-0.993495 13:0.805415 14:-0.07144 15:-0.105477 16:-0.974707 17:-0.999982 18:-0.0450447 19:-0.128601 20:-0.557509 21:-0.101566 22:-0.987119 23:-0.999973 24:-0.738496 25:0.880448 26:-0.0664841 27:-0.126847 28:-0.988139 29:-0.999972 30:-0.844902 31:-0.779993 32:-0.890458 33:-0.10808 34:-0.990138 35:-0.999973 36:-0.738569 37:0.516311 38:-0.337967 39:-0.0947287 40:-0.981469 41:-0.999969 42:-0.970464 43:0.841181 44:0.0337706 45:-0.0666291 46:-0.991427 47:-0.999969 48:-0.968797 49:0.750586 50:-0.333956 51:-0.0721689 52:-0.99521 53:-0.999975 54:-0.494395 55:0.902719 56:-0.0279781 57:0.0374454 58:-0.994116 59:-0.999971 60:-0.880181 61:0.390336 62:-0.346158 63:-0.0914566 64:-0.994434 65:-0.999974 66:-0.619961 67:0.511084 68:-0.359633 69:-0.0597257 70:-0.984881 71:-0.999973 72:-0.73327 73:-0.90635 74:-0.953837 75:-0.102615 76:-0.993993 77:-0.999985 78:0.340316 79:-0.666659 80:-0.835326 81:-0.136718 82:-0.980841 83:-0.999984 84:0.318458 85:0.369408 86:-0.348914 87:-0.19563 88:-0.994574 89:-0.999988 90:0.33244 91:0.369134 92:-0.374815 93:-0.306343 94:-0.995857 95:-0.999973 96:-0.740878 97:-0.860752 98:-0.929691 99:-0.344762 100:-0.982181 101:-0.999983 102:0.224116 103:0.816484 104:-0.149648 105:-0.337337 106:-0.995554 107:-0.999973 108:-0.657705 109:0.733894 110:-0.27928 111:-0.375573 112:-0.980027 113:-0.99998 114:-0.0783698 115:0.557349 116:-0.0626636 117:-0.363049 118:-0.985117 119:-0.999982 120:0.136502 121:0.746699 122:-0.213367 123:-0.385712 124:-0.995384 125:-0.999983 126:-0.0604241 127:0.418982 128:-0.373654 129:-0.424807 130:-0.995892 131:-0.99998 132:-0.258009 133:0.548731 134:-0.18879 135:-0.432937 136:-0.996869 137:-0.999979 138:-0.393238 139:0.675652 140:-0.153275 141:-0.452194 142:-0.989759 143:-0.999981 144:0.0106618 145:0.735339 146:-0.162526 147:-0.464407 148:-0.996954 149:-0.999976 150:-0.414206 151:-0.628422 152:-0.81926 153:-0.493391 154:-0.979286 155:-0.999989 156:0.425508 157:0.802599 158:-0.0399934 159:-0.500579 160:-0.997214 161:-0.999992 162:0.492045 163:-0.955368 164:-0.976794 165:-0.542384 166:-0.990292 167:-0.999986 168:0.343607 169:-0.883235 170:-0.940532 171:-0.537781 172:-0.994373 173:-0.999991 174:0.551577 175:0.9076 176:0.0171334 177:-0.581849 178:-0.997361 179:-0.999984 180:-0.130975 181:1 182:-0.802533 183:-0.795167 184:-0.790601 185:-0.790767 186:-0.766282 187:-0.8472 188:-0.631236 189:-0.828809 190:-0.849465 191:-0.089482 192:-0.850413 193:-0.839536 194:-0.684899 195:-0.806108 196:-0.857743 197:-0.908461 198:-0.972429 199:0.378124 200:-0.932854 201:-0.90569 202:-0.916868 203:-0.879602 204:-0.961654 205:-0.978413 206:-0.643342 207:-0.980194 208:-0.968825 209:-0.873458 210:-0.962298 211:-0.919243 212:-0.956693 213:-0.954566 214:-0.940872 215:-0.960734 216:-0.977523 217:0.938568 218:-0.969479 219:-0.934772 220:-0.917688 221:-0.916015 222:-0.876739 223:-0.94573 224:-0.754575 225:-0.906571 226:-0.940806 227:-0.486066 228:-0.943278 229:-0.917363 230:-0.811519 231:-0.870106 232:-0.896148 233:-0.922964 234:-1 235:0.3107 236:-0.931868 237:-0.886565 238:-0.859295 239:-0.798311 240:-0.874185 241:-0.888665 242:-0.465233 243:-0.869084 244:-0.843251 245:-0.717443 246:-0.827775 247:-0.779957 248:-0.793569 249:-0.794194 250:-0.810204 251:-0.845238 252:-0.872063 
1 1:-0.10727 2:-0.52606 3:0.39471 4:-0.987218 5:-0.999969 7:-0.0759964 8:-0.627978 9:0.502183 10:-0.989878 11:-0.99997 12:-0.996772 13:-0.197145 14:-0.587076 15:0.507817 16:-0.97653 17:-0.999971 18:-0.948131 19:-0.0344704 20:-0.509007 21:0.553744 22:-0.986598 23:-0.99997 24:-0.99213 25:-0.143308 26:-0.576513 27:0.588862 28:-0.996549 29:-0.99997 30:-0.980415 31:-0.141139 32:-0.572373 33:0.612091 34:-0.993251 35:-0.999971 36:-0.93284 37:0.123903 38:-0.509637 39:0.656006 40:-0.996167 41:-0.999969 42:-0.953488 43:0.0650758 44:-0.40199 45:0.659855 46:-0.996972 47:-0.999969 48:-0.990577 49:-0.0435023 50:-0.636082 51:0.67004 52:-0.997975 53:-0.99997 54:-0.958445 55:0.862833 56:-0.0483541 57:0.920057 58:-0.928675 59:-0.999969 60:-0.959579 61:0.211066 62:-0.430464 63:0.776198 64:-0.996017 65:-0.999969 66:-0.980517 67:0.142382 68:-0.515882 69:0.834329 70:-0.990867 71:-0.99997 72:-0.984372 73:0.312781 74:-0.352888 75:0.87436 76:-0.997641 77:-0.999969 78:-0.974913 79:-0.0305264 80:-0.521071 81:0.899739 82:-0.996458 83:-0.999973 84:-0.809981 85:0.231773 86:-0.414353 87:0.903977 88:-0.94263 89:-0.999969 90:-0.979812 91:0.308496 92:-0.402504 93:0.861481 94:-0.994368 95:-0.99997 96:-0.977953 97:0.693085 98:-0.145124 99:0.860718 100:-0.995342 101:-0.999975 102:-0.5855 103:0.0647483 104:-0.503778 105:0.830088 106:-0.992931 107:-0.999972 108:-0.829818 109:-0.164943 110:-0.652895 111:0.575204 112:-0.991855 113:-0.999976 114:-0.613693 115:0.0711491 116:-0.357025 117:0.476838 118:-0.989193 119:-0.999977 120:-0.580874 121:0.34938 122:-0.392301 123:0.0106536 124:-0.987986 125:-0.999976 126:-0.622889 127:-0.00476999 128:-0.561719 129:-0.065608 130:-0.994189 131:-0.999982 132:-0.238617 133:0.13984 134:-0.402963 135:-0.473492 136:-0.985703 137:-0.999983 138:-0.22154 139:0.377066 140:-0.304154 141:-0.518277 142:-0.996389 143:-0.999983 144:-0.213158 145:0.175751 146:-0.432583 147:-0.557705 148:-0.995834 149:-0.999986 150:-0.0176428 151:-0.106382 152:-0.565333 153:-0.809967 154:-0.99884 155:-0.999992 156:0.345852 157:0.967443 158:0.0480845 159:-0.886012 160:-0.996658 161:-0.999997 162:0.686216 163:0.35628 164:-0.294816 165:-0.901796 166:-0.987064 167:-0.999988 168:0.0640784 169:-0.0367043 170:-0.509396 171:-0.974067 172:0.941372 173:-1 174:0.80081 175:0.995429 176:0.0640896 177:-0.989421 178:-0.996663 179:-0.999997 180:0.649018 181:0.817928 182:-0.96335 183:-0.95373 184:-0.944768 185:-0.939174 186:-0.925693 187:-0.937815 188:-0.837309 189:-0.92047 190:-0.933145 191:-0.383928 192:-0.920458 193:-0.903735 194:-0.854312 195:-0.894242 196:-0.908195 197:-0.918551 198:-0.949235 199:0.393601 200:-0.919329 201:-0.917723 202:-0.943475 203:-0.925166 204:-0.965885 205:-0.974365 206:-0.71775 207:-0.973194 208:-0.972273 209:-0.920558 210:-0.964572 211:-0.945932 212:-0.973749 213:-0.966615 214:-0.957187 215:-0.973342 216:-1 217:1 218:-0.963896 219:-0.92996 220:-0.923994 221:-0.925918 222:-0.911037 223:-0.921727 224:-0.85324 225:-0.920616 226:-0.925997 227:-0.671756 228:-0.927047 229:-0.934963 230:-0.902834 231:-0.911215 232:-0.919163 233:-0.933933 234:-0.977247 235:0.121146 236:-0.928385 237:-0.949232 238:-0.936035 239:-0.916097 240:-0.940985 241:-0.948239 242:-0.687573 243:-0.948226 244:-0.934964 245:-0.900599 246:-0.936567 247:-0.929505 248:-0.938936 249:-0.941544 250:-0.93653 251:-0.92411 252:-0.928477 
1 1:-0.961939 2:-0.96164 3:0.360806 4:-0.963164 5:-0.999991 7:-0.588874 8:-0.718973 9:0.516944 10:-0.866512 11:-0.999989 12:-0.87572 13:-0.894478 14:-0.89972 15:0.239832 16:-0.96159 17:-0.999997 18:-0.25369 19:-0.392539 20:-0.473952 21:0.137479 22:-0.938791 23:-0.999992 24:-0.903235 25:-0.533012 26:-0.606271 27:0.174519 28:-0.955189 29:-0.999994 30:-0.0591049 31:-0.937296 32:-0.938671 33:0.225007 34:-0.973859 35:-0.999995 36:-0.758829 37:-0.637308 38:-0.728141 39:0.169368 40:-0.99239 41:-0.999994 42:-0.815085 43:-0.480612 44:-0.504361 45:0.163644 46:-0.989179 47:-0.999995 48:-0.170819 49:-0.638042 50:-0.760202 51:0.0680335 52:-0.97681 53:-0.999993 54:-0.852272 55:-0.833248 56:-0.852558 57:0.171059 58:-0.992108 59:-0.999991 60:-0.940843 61:-0.536275 62:-0.631551 63:0.0854913 64:-0.991682 65:-0.999996 66:-0.168804 67:-0.530789 68:-0.656777 69:0.115328 70:-0.989341 71:-0.999995 72:-0.274508 73:0.476422 74:0.228775 75:0.0721741 76:-0.883729 77:-0.999972 78:0.519239 79:0.0365323 80:-0.13166 81:0.0706187 82:-0.974759 83:-0.999972 84:0.537332 85:-0.155054 86:-0.312573 87:0.0615086 88:-0.981922 89:-0.999995 90:-0.100771 91:0.220172 92:-0.0609056 93:0.0408137 94:-0.978422 95:-0.999976 96:0.267494 97:0.0128062 98:-0.138083 99:0.00735649 100:-0.987502 101:-0.999995 102:-0.160638 103:0.753358 104:0.389272 105:0.0144502 106:-0.99142 107:-0.999976 108:0.259351 109:-0.494432 110:-0.644603 111:-0.0427841 112:-0.983367 113:-0.999991 114:-0.945363 115:0.540802 116:0.562776 117:-0.0452292 118:-0.886201 119:-0.999994 120:-0.121064 121:0.379613 122:0.0463405 123:-0.0569149 124:-0.974771 125:-0.999976 126:0.306271 127:0.874621 128:0.394088 129:-0.0822432 130:-0.985194 131:-0.999979 132:0.154576 133:-0.491417 134:-0.544429 135:-0.101898 136:-0.995813 137:-0.999995 138:-0.260536 139:0.154506 140:-0.00795083 141:-0.120817 142:-0.989517 143:-0.999974 144:0.386207 145:-0.432373 146:-0.536922 147:-0.173431 148:-0.995493 149:-0.999996 150:-0.286433 151:0.710225 152:0.399535 153:-0.219231 154:-0.992013 155:-0.999976 156:0.236109 157:0.0642014 158:-0.0453892 159:-0.217743 160:-0.989657 161:-0.99999 162:-0.694386 163:-0.693465 164:-0.723939 165:-0.220723 166:-0.997268 167:-0.999997 168:-0.627867 169:-0.115216 170:-0.243398 171:-0.205177 172:-0.95231 173:-0.999994 174:-0.7225 175:0.183143 176:0.061051 177:-0.231491 178:-0.986763 179:-0.999981 180:-0.0957912 181:0.925937 182:-0.613358 183:-0.507875 184:-0.388676 185:-0.387612 186:-0.240941 187:-0.397089 188:0.0427773 189:-0.278557 190:-0.367718 191:0.275275 192:-0.333494 193:-0.221122 194:0.0376177 195:-0.163735 196:-0.260118 197:-0.345813 198:-0.820324 199:0.0823343 200:-0.35121 201:-0.336093 202:-0.450435 203:-0.522838 204:-0.69826 205:-0.783187 206:-0.535245 207:-0.822795 208:-0.785898 209:-0.588832 210:-0.671985 211:-0.572066 212:-0.688519 213:-0.621367 214:-0.512024 215:-0.596803 216:-0.774134 217:1 218:-0.722367 219:-0.621357 220:-0.554783 221:-0.522583 222:-0.379858 223:-0.592853 224:-0.0992392 225:-0.470809 226:-0.43277 227:0.00218142 228:-0.453061 229:-0.260457 230:-0.134367 231:-0.124782 232:-0.214175 233:-0.250865 234:-1 235:0.345753 236:-0.256059 237:-0.198687 238:-0.188526 239:-0.0212119 240:-0.16145 241:-0.266127 242:0.17057 243:-0.293063 244:-0.17649 245:0.00385232 246:-0.283816 247:-0.162732 248:-0.228963 249:-0.259977 250:-0.272796 251:-0.38259 252:-0.405976 
