svm_type c_svc
kernel_type rbf
gamma 0.5
nr_class 2
total_sv 1368
rho -0.834995
label 0 1
nr_sv 1254 114
SV
0.1649538050359735 1:0.990564 2:0.0567667 3:-0.668486 4:-0.96648 5:-0.999971 7:0.961811 8:-0.208026 9:-0.615527 10:-0.987804 11:-0.999978 12:-0.386268 13:0.905764 14:-0.0198287 15:-0.579879 16:-0.978164 17:-0.999989 18:0.300649 19:0.85923 20:-0.048521 21:-0.528428 22:-0.962349 23:-0.999997 24:0.614938 25:0.570338 26:-0.220979 27:-0.525836 28:-0.99153 29:-0.999996 30:0.479865 31:0.562211 32:-0.222174 33:-0.512318 34:-0.974937 35:-0.999995 36:0.431991 37:0.814045 38:-0.207715 39:-0.508201 40:-0.987652 41:-0.999994 42:0.403648 43:-0.0245887 44:-0.452334 45:-0.513766 46:-0.614841 47:-1 48:0.669807 49:0.249783 50:-0.524496 51:-0.545127 52:-0.965736 53:-0.999995 54:0.58333 55:-0.00838537 56:-0.493424 57:-0.475309 58:-0.97577 59:-0.999997 60:0.631567 61:0.942455 62:-0.0865093 63:-0.50043 64:-0.995779 65:-0.999978 66:-0.392801 67:0.694281 68:-0.281998 69:-0.492023 70:-0.983089 71:-0.99997 72:-0.924547 73:0.599906 74:-0.211355 75:-0.486407 76:-0.982149 77:-0.999996 78:0.530301 79:-0.966235 80:-0.98332 81:-0.474882 82:-0.992115 83:-0.999997 84:0.598854 85:0.429299 86:-0.320439 87:-0.494307 88:-0.997108 89:-0.999978 90:-0.595059 91:-0.122674 92:-0.599388 93:-0.472834 94:-0.995642 95:-0.999996 96:0.480707 97:0.47684 98:-0.254311 99:-0.460827 100:-0.994103 101:-0.999978 102:-0.604621 103:0.441836 104:-0.326138 105:-0.478384 106:-0.996474 107:-0.999978 108:-0.599963 109:-0.360572 110:-0.734212 111:-0.470075 112:-0.99372 113:-0.999972 114:-0.935636 115:0.0756111 116:-0.354323 117:-0.456933 118:-0.995332 119:-0.999994 120:0.446522 121:0.830761 122:-0.17551 123:-0.481312 124:-0.954254 125:-0.99997 126:-0.922056 127:0.442566 128:-0.363187 129:-0.490365 130:-0.995855 131:-0.999978 132:-0.62803 133:-1 134:-1 135:-0.488532 136:-0.988309 137:-0.999996 138:0.489432 139:0.617173 140:-0.182825 141:-0.507192 142:-0.992235 143:-0.999996 144:0.55285 145:0.861042 146:-0.101862 147:-0.525906 148:-0.997466 149:-0.999995 150:0.455174 151:0.279374 152:-0.377696 153:-0.523497 154:-0.995891 155:-0.999999 156:0.628629 157:0.645103 158:-0.124146 159:-0.534624 160:-0.997572 161:-0.999996 162:0.569362 163:-0.13665 164:-0.55111 165:-0.531114 166:-0.997784 167:-0.999996 168:0.552423 169:0.0913579 170:-0.444174 171:-0.525332 172:-0.971961 173:-0.999998 174:0.580781 175:0.422264 176:-0.24234 177:-0.526941 178:-0.993693 179:-0.999975 180:-0.779859 
0.162409470318962 1:0.0446211 2:-0.445423 3:-0.301579 4:-0.923998 5:-0.999975 7:0.897051 8:-0.234231 9:-0.238827 10:-0.991516 11:-0.999973 12:-0.864354 13:0.699616 14:-0.125855 15:-0.22109 16:-0.94478 17:-0.999972 18:-0.821726 19:0.248652 20:-0.363126 21:-0.218331 22:-0.963041 23:-0.999976 24:-0.94578 25:0.307239 26:-0.352053 27:-0.202296 28:-0.981967 29:-0.999976 30:-0.920504 31:0.226777 32:-0.389187 33:-0.163079 34:-0.974725 35:-0.999977 36:-0.902263 37:0.297199 38:-0.433824 39:-0.146603 40:-0.892541 41:-0.999975 42:-0.957542 43:0.766357 44:-0.00824049 45:-0.2176 46:-0.988293 47:-0.999973 48:-0.852739 49:0.0319904 50:-0.607359 51:-0.216209 52:-0.996626 53:-0.999979 54:-0.77269 55:0.216731 56:-0.378421 57:-0.0895964 58:-0.995369 59:-0.999978 60:-0.791798 61:0.903501 62:-0.104829 63:-0.270023 64:-0.962684 65:-0.999975 66:-0.873958 67:0.98734 68:-0.157806 69:-0.400561 70:-0.991313 71:-0.999995 72:0.170076 73:0.77377 74:-0.125651 75:-0.555191 76:-0.989859 77:-0.999993 78:0.0814458 79:0.436845 80:-0.290186 81:-0.576278 82:-0.985371 83:-0.999977 84:-0.860655 85:0.964914 86:-0.0657805 87:-0.584247 88:-0.991212 89:-0.999993 90:0.113448 91:0.269513 92:-0.420305 93:-0.579934 94:-0.995007 95:-0.999983 96:-0.525934 97:0.617952 98:-0.183061 99:-0.615164 100:-0.989836 101:-0.999978 102:-0.820278 103:0.680481 104:-0.213716 105:-0.681924 106:-0.994858 107:-0.999991 108:-0.0740676 109:0.234349 110:-0.486923 111:-0.674519 112:-0.995108 113:-0.999981 114:-0.632967 115:0.347291 116:-0.18984 117:-0.679197 118:-0.995819 119:-0.999981 120:-0.666854 121:0.134003 122:-0.489297 123:-0.696633 124:-0.962304 125:-0.999984 126:-0.441961 127:0.243464 128:-0.45155 129:-0.697989 130:-0.990241 131:-0.999984 132:-0.434405 133:0.245168 134:-0.347793 135:-0.700839 136:-0.991309 137:-0.999984 138:-0.493889 139:0.612131 140:-0.185373 141:-0.740524 142:-0.993815 143:-0.999991 144:-0.0731006 145:0.0941692 146:-0.471954 147:-0.751638 148:-0.993579 149:-0.999996 150:0.261595 151:0.666102 152:-0.189586 153:-0.747341 154:-0.992638 155:-0.999976 156:-0.976735 157:0.520573 158:-0.190683 159:-0.768273 160:-0.940011 161:-0.999978 162:-0.842758 163:0.93496 164:0.00606248 165:-0.783224 166:-0.99337 167:-0.999993 168:0.0294603 169:0.152928 170:-0.412816 171:-0.846721 172:-0.996676 173:-0.999987 174:-0.322093 175:0.533408 176:-0.182919 177:-0.842332 178:-0.984316 179:-0.999989 180:-0.162689 
0.1659097546383246 1:-0.266943 2:-0.610829 3:-0.0015876 4:-0.984245 5:-0.999971 7:0.179771 8:-0.52448 9:-0.185587 10:-0.988144 11:-0.999972 12:-0.941906 13:-0.281026 14:-0.630218 15:-0.163899 16:-0.943511 17:-0.999981 18:-0.320724 19:0.489122 20:-0.239222 21:-0.118421 22:-0.963625 23:-0.999979 24:-0.392415 25:0.237509 26:-0.386792 27:-0.161434 28:-0.9914 29:-0.999986 30:0.256567 31:-0.146137 32:-0.574861 33:-0.153779 34:-0.98959 35:-0.999973 36:-0.885224 37:0.442205 38:-0.370387 39:-0.144153 40:-0.988025 41:-0.999972 42:-0.825456 43:0.49705 44:-0.159449 45:-0.169285 46:-0.990052 47:-0.99998 48:-0.297433 49:0.433562 50:-0.454574 51:-0.175579 52:-0.993305 53:-0.999981 54:0.0984054 55:0.78827 56:-0.0864455 57:-0.0428818 58:-0.984115 59:-0.999982 60:0.188134 61:0.0921093 62:-0.486407 63:-0.0389094 64:-0.992411 65:-0.999976 66:-0.71121 67:0.507795 68:-0.361027 69:-0.0049345 70:-0.964926 71:-0.999982 72:-0.0264046 73:0.809772 74:-0.107905 75:-0.00134445 76:-0.99228 77:-0.999983 78:0.284369 79:0.406387 80:-0.305232 81:-0.0542036 82:-0.993529 83:-0.999979 84:-0.205283 85:0.33516 86:-0.365197 87:-0.106121 88:-0.996806 89:-0.999975 90:-0.699511 91:0.514023 92:-0.308654 93:-0.147451 94:-0.996065 95:-0.999981 96:-0.0738547 97:0.452577 98:-0.266562 99:-0.14119 100:-0.991834 101:-0.999976 102:-0.644479 103:0.221028 104:-0.430157 105:-0.200666 106:-0.996748 107:-0.999979 108:-0.432467 109:0.147538 110:-0.523008 111:-0.243299 112:-0.992507 113:-0.999978 114:-0.590697 115:0.458443 116:-0.122545 117:-0.246043 118:-0.996078 119:-0.999983 120:0.0221295 121:0.054647 122:-0.525036 123:-0.26928 124:-0.992518 125:-0.99998 126:-0.475314 127:0.117669 128:-0.507379 129:-0.275067 130:-0.992701 131:-0.999979 132:-0.509339 133:0.387221 134:-0.273387 135:-0.359377 136:-0.996326 137:-0.999978 138:-0.600063 139:0.519645 140:-0.232107 141:-0.423337 142:-0.99059 143:-0.999985 144:0.0742479 145:0.100855 146:-0.468728 147:-0.454225 148:-0.997422 149:-0.999982 150:-0.357322 151:0.856588 152:-0.0969311 153:-0.533729 154:-0.997646 155:-0.999987 156:0.294303 157:-0.355042 158:-0.658534 159:-0.530602 160:-0.99424 161:-0.999989 162:0.125708 163:0.977057 164:0.0279503 165:-0.543859 166:-0.996953 167:-0.999987 168:0.380276 169:0.856702 170:-0.0543863 171:-0.561382 172:-0.997247 173:-0.999987 174:0.32692 175:0.432704 176:-0.236758 177:-0.564773 178:-0.995086 179:-0.999985 180:0.0397039 
0.1646009853902711 1:-0.404487 2:-0.683849 3:-0.310242 4:-0.216291 5:-0.999973 7:-0.235815 8:-0.692649 9:-0.536098 10:-0.61759 11:-0.999973 12:-0.976563 13:0.716408 14:-0.117218 15:-0.495254 16:-0.979168 17:-0.99997 18:-0.818094 19:-0.798074 20:-0.90246 21:-0.466628 22:-0.977696 23:-0.999982 24:-0.494956 25:-0.690242 26:-0.848992 27:-0.476341 28:-0.990765 29:-0.99998 30:-0.598547 31:-0.533054 32:-0.767507 33:-0.465577 34:-0.986906 35:-0.999976 36:-0.815208 37:-0.0271869 38:-0.575736 39:-0.517438 40:-0.958248 41:-0.999975 42:-0.888633 43:0.630868 44:-0.0843142 45:-0.534357 46:-0.995305 47:-0.999984 48:-0.323385 49:-0.089439 50:-0.65356 51:-0.560704 52:-0.994738 53:-0.999976 54:-0.842836 55:0.654115 56:-0.15498 57:-0.491181 58:-0.995012 59:-0.99999 60:-0.00564138 61:0.0673515 62:-0.49805 63:-0.489713 64:-0.9909 65:-0.999974 66:-0.954883 67:0.951053 68:-0.173184 69:-0.501017 70:-0.986297 71:-0.999972 72:-0.914219 73:0.481573 74:-0.269685 75:-0.487273 76:-0.764432 77:-0.999972 78:-0.936882 79:0.546575 80:-0.235978 81:-0.50176 82:-0.987941 83:-0.999974 84:-0.969211 85:0.558398 86:-0.259059 87:-0.496482 88:-0.996629 89:-0.999972 90:-0.890632 91:0.260347 92:-0.42449 93:-0.480759 94:-0.952516 95:-0.999971 96:-0.874975 97:0.640219 98:-0.171817 99:-0.480682 100:-0.987428 101:-0.999994 102:0.278158 103:0.110412 104:-0.482266 105:-0.479354 106:-0.997738 107:-0.999975 108:-0.918092 109:-0.038804 110:-0.600464 111:-0.476897 112:-0.988584 113:-0.999992 114:0.173636 115:-0.215034 116:-0.530289 117:-0.475459 118:-0.989421 119:-0.999977 120:-0.804975 121:0.404713 122:-0.367382 123:-0.535201 124:-0.926479 125:-0.999992 126:0.10256 127:0.94022 128:-0.142324 129:-0.546993 130:-0.994893 131:-0.999974 132:-0.926374 133:0.139732 134:-0.40302 135:-0.555677 136:-0.994212 137:-0.999975 138:-0.887439 139:0.564793 140:-0.209293 141:-0.560395 142:-0.997007 143:-0.999993 144:0.159947 145:0.864459 146:-0.100213 147:-0.573822 148:-0.997639 149:-0.999974 150:-0.967485 151:0.964523 152:-0.04443 153:-0.580386 154:-0.993098 155:-0.999973 156:-0.986755 157:0.198889 158:-0.362562 159:-0.587342 160:-0.982818 161:-0.999993 162:0.192841 163:0.0953565 164:-0.430481 165:-0.587048 166:-0.992444 167:-0.999977 168:-0.830355 169:0.912732 170:-0.0258503 171:-0.581404 172:-0.997202 173:-0.999975 174:-0.897203 175:0.277894 176:-0.319524 177:-0.584686 178:-0.865656 179:-0.999993 180:0.16162 
0.166552063828785 1:0.14628 2:-0.391454 3:0.324646 4:-0.974648 5:-0.999972 7:0.627472 8:-0.343317 9:0.0181326 10:-0.814762 11:-0.999969 12:-0.81372 13:-0.563118 14:-0.775303 15:-0.0356715 16:-0.938886 17:-0.999971 18:-0.886241 19:0.0239805 20:-0.47889 21:-0.119779 22:-0.959755 23:-0.999974 24:-0.866647 25:0.961315 26:-0.0261966 27:-0.163444 28:-0.987592 29:-0.999979 30:-0.427867 31:0.0365162 32:-0.483918 33:-0.180783 34:-0.989503 35:-0.999972 36:-0.901266 37:0.727956 38:-0.245377 39:-0.161755 40:-0.992274 41:-0.999971 42:-0.882565 43:0.371986 44:-0.229669 45:-0.152374 46:-0.9946 47:-0.999972 48:-0.89547 49:0.89141 50:-0.280377 51:-0.176375 52:-0.993118 53:-0.999978 54:-0.490662 55:-0.333752 56:-0.659641 57:-0.0440472 58:-0.98186 59:-0.999975 60:-0.805695 61:0.0268798 62:-0.517083 63:-0.096197 64:-0.982413 65:-0.999974 66:-0.813777 67:0.38154 68:-0.414532 69:-0.108828 70:-0.921095 71:-0.999969 72:-0.837632 73:0.697949 74:-0.163026 75:-0.122155 76:-0.989356 77:-0.999973 78:-0.912083 79:0.0680604 80:-0.472369 81:-0.119457 82:-0.995945 83:-0.999973 84:-0.88593 85:0.949337 86:-0.0731866 87:-0.108581 88:-0.996617 89:-0.999974 90:-0.851609 91:-0.568011 92:-0.802742 93:-0.109143 94:-0.981042 95:-0.999975 96:-0.802699 97:-0.236053 98:-0.614266 99:-0.114511 100:-0.978286 101:-0.999972 102:-0.915418 103:0.122369 104:-0.476634 105:-0.115082 106:-0.974539 107:-0.999972 108:-0.913586 109:-0.0014181 110:-0.584924 111:-0.146189 112:-0.989664 113:-0.999996 114:0.508297 115:0.112637 116:-0.331907 117:-0.12228 118:-0.992283 119:-0.999982 120:-0.397681 121:-0.0191848 122:-0.558286 123:-0.164543 124:-0.988941 125:-0.999977 126:-0.645308 127:0.0427026 128:-0.54065 129:-0.163393 130:-0.994347 131:-0.999976 132:-0.752551 133:0.475088 134:-0.227363 135:-0.162936 136:-0.994734 137:-0.999971 138:-0.906671 139:-0.130791 140:-0.560779 141:-0.177779 142:-0.996792 143:-0.999975 144:-0.835177 145:0.0234372 146:-0.50609 147:-0.223132 148:-0.991447 149:-0.999976 150:-0.75615 151:0.94286 152:-0.0549673 153:-0.274859 154:-0.994718 155:-0.999996 156:0.440136 157:0.677684 158:-0.106737 159:-0.27887 160:-0.991016 161:-0.999995 162:0.401446 163:0.454735 164:-0.243626 165:-0.279259 166:-0.997406 167:-0.999994 168:0.328696 169:0.301426 170:-0.337187 171:-0.270549 172:-0.997206 173:-0.999996 174:0.447154 175:-0.36448 176:-0.662954 177:-0.297857 178:-0.997794 179:-0.999974 180:-0.822685 
0.1659505196800156 1:-0.641544 2:-0.8097 3:-0.597894 4:-0.941977 5:-0.999997 7:0.846616 8:-0.254639 9:-0.58405 10:-0.984356 11:-0.999992 12:-0.459702 13:-0.60202 14:-0.795311 15:-0.551209 16:-0.976853 17:-0.999997 18:-0.956817 19:-0.56709 20:-0.783444 21:-0.55567 22:-0.986148 23:-0.999997 24:-0.966316 25:-0.517835 26:-0.763099 27:-0.559816 28:-0.991249 29:-0.999997 30:-0.951378 31:-0.481911 32:-0.742043 33:-0.542376 34:-0.988109 35:-0.999996 36:-0.943806 37:-0.435489 38:-0.754359 39:-0.578651 40:-0.992041 41:-0.999997 42:-0.939653 43:0.196969 44:-0.327936 45:-0.56838 46:-0.995222 47:-0.999978 48:0.407975 49:-0.379646 50:-0.763975 51:-0.604788 52:-0.987952 53:-0.999997 54:-0.929575 55:-0.039607 56:-0.509374 57:-0.543506 58:-0.991344 59:-0.999976 60:0.577846 61:-0.746807 62:-0.880929 63:-0.565057 64:-0.960075 65:-0.999997 66:-0.672713 67:-0.021504 68:-0.585333 69:-0.560521 70:-0.973604 71:-0.999995 72:-0.778781 73:-0.0693998 74:-0.541277 75:-0.549581 76:-0.989743 77:-0.999996 78:-0.940468 79:-0.245258 80:-0.627151 81:-0.561112 82:-0.972245 83:-0.999996 84:-0.920261 85:-0.55034 86:-0.786209 87:-0.567401 88:-0.993614 89:-0.999998 90:-0.770398 91:0.0269416 92:-0.531069 93:-0.56098 94:-0.994015 95:-0.999994 96:-0.75698 97:-0.125667 98:-0.55853 99:-0.554651 100:-0.994328 101:-0.999996 102:-0.902542 103:-0.0399578 104:-0.553103 105:-0.596098 106:-0.996967 107:-0.999996 108:-0.897091 109:0.0170963 110:-0.577228 111:-0.633787 112:-0.994787 113:-0.999996 114:-0.906391 115:-0.0830407 116:-0.450376 117:-0.639092 118:-0.994706 119:-0.999996 120:-0.924203 121:0.239385 122:-0.441838 123:-0.658482 124:-0.982805 125:-0.999994 126:-0.740961 127:-0.204534 128:-0.650375 129:-0.669045 130:-0.986951 131:-0.999998 132:-0.883004 133:0.892599 134:-0.00867466 135:-0.737033 136:-0.997647 137:-0.999994 138:-0.521148 139:0.516454 140:-0.233719 141:-0.763188 142:-0.996723 143:-0.999991 144:-0.320249 145:-0.0793654 146:-0.555702 147:-0.785477 148:-0.98815 149:-0.99998 150:0.338798 151:0.341902 152:-0.347281 153:-0.805615 154:-0.992901 155:-0.999981 156:0.242433 157:-0.129108 158:-0.537815 159:-0.81756 160:-0.991447 161:-0.999976 162:0.557086 163:0.585596 164:-0.175586 165:-0.850598 166:-0.977599 167:-0.999994 168:-0.755583 169:0.00604468 170:-0.487624 171:-0.852146 172:-0.9942 173:-0.999979 174:0.356289 175:-0.255366 176:-0.604618 177:-0.865187 178:-0.995782 179:-0.999995 180:-0.607994 
0.165293015650933 1:0.165551 2:-0.381223 3:0.0598063 4:-0.98029 5:-0.999967 7:0.302343 8:-0.474881 9:0.0661402 10:-0.954771 11:-0.999968 12:-0.978012 13:0.131922 14:-0.417831 15:-0.132308 16:-0.957425 17:-0.999972 18:-0.756112 19:-0.0145439 20:-0.49874 21:-0.225023 22:-0.980804 23:-0.999973 24:-0.633763 25:0.373846 26:-0.31887 27:-0.240133 28:-0.864489 29:-0.999968 30:-0.979466 31:0.350691 32:-0.32749 33:-0.221811 34:-0.98858 35:-0.999967 36:-0.978877 37:0.0250081 38:-0.552902 39:-0.200119 40:-0.959717 41:-0.999974 42:-0.597361 43:0.87137 44:0.050721 45:-0.21902 46:-0.97684 47:-0.999981 48:-0.0671555 49:0.0373705 50:-0.605312 51:-0.287843 52:-0.975672 53:-0.999973 54:-0.611141 55:0.330338 56:-0.320384 57:-0.193913 58:-0.996143 59:-0.999987 60:0.182161 61:0.11575 62:-0.475289 63:-0.210106 64:-0.991011 65:-0.99997 66:-0.852182 67:0.385371 68:-0.412908 69:-0.183843 70:-0.970091 71:-0.999967 72:-0.984325 73:-0.00153258 74:-0.507823 75:-0.235652 76:-0.994712 77:-0.999971 78:-0.780804 79:-0.665036 80:-0.834525 81:-0.248603 82:-0.985761 83:-0.999976 84:-0.448367 85:-0.318788 86:-0.676117 87:-0.284414 88:-0.994469 89:-0.999988 90:0.252272 91:-0.520289 92:-0.78095 93:-0.347409 94:-0.993445 95:-0.999995 96:0.68893 97:-0.0382603 98:-0.514397 99:-0.339115 100:-0.948185 101:-0.999973 102:-0.654507 103:0.0173629 104:-0.5261 105:-0.332066 106:-0.993928 107:-0.999972 108:-0.748824 109:0.37336 110:-0.429141 111:-0.382289 112:-0.961634 113:-0.999969 114:-0.916997 115:-0.173383 116:-0.505072 117:-0.371064 118:-0.954349 119:-0.999979 120:-0.310763 121:-0.0449276 122:-0.569879 123:-0.383552 124:-0.982942 125:-0.999971 126:-0.788307 127:-0.722483 128:-0.880246 129:-0.417675 130:-0.995525 131:-0.999974 132:-0.597395 133:0.221708 134:-0.360081 135:-0.429064 136:-0.795323 137:-0.999968 138:-0.943657 139:0.401081 140:-0.292019 141:-0.42537 142:-0.980274 143:-0.999971 144:-0.782357 145:-0.105045 146:-0.568095 147:-0.492677 148:-0.930132 149:-0.999979 150:-0.26174 151:-0.8138 152:-0.90943 153:-0.496011 154:-0.985105 155:-0.999981 156:-0.195344 157:0.388006 158:-0.261515 159:-0.537442 160:-0.997004 161:-0.999974 162:-0.600869 163:-0.167744 164:-0.567277 165:-0.538595 166:-0.992235 167:-0.999985 168:0.0599055 169:-0.389186 170:-0.688914 171:-0.543359 172:-0.989448 173:-0.999976 174:-0.464079 175:-0.71065 176:-0.848025 177:-0.532909 178:-0.997971 179:-0.999977 180:-0.43728 
0.1650125734501854 1:0.390249 2:-0.0136577 3:0.546319 4:-0.713582 5:-0.99998 7:0.809076 8:-0.0235627 9:0.469797 10:-0.960853 11:-0.99998 12:-0.993744 13:0.870396 14:0.287331 15:0.301208 16:-0.965242 17:-0.999981 18:-0.975237 19:0.723513 20:0.181945 21:0.0527046 22:-0.967992 23:-0.999982 24:-0.902864 25:0.423339 26:-0.054 27:0.0873811 28:-0.988717 29:-0.999985 30:-0.729221 31:0.356912 32:-0.0946892 33:0.127064 34:-0.945585 35:-0.99998 36:-0.991263 37:0.908358 38:0.115642 39:0.131894 40:-0.988092 41:-0.999981 42:-0.951999 43:0.639448 44:0.231149 45:0.09629 46:-0.99677 47:-0.999983 48:-0.847896 49:0.118295 50:-0.428056 51:-0.165954 52:-0.972455 53:-0.999996 54:0.429968 55:-0.186649 56:-0.44356 57:-0.0307616 58:-0.997121 59:-0.999992 60:0.696692 61:0.400524 62:-0.12006 63:-0.0455592 64:-0.994461 65:-0.999986 66:-0.646552 67:-0.0202094 68:-0.441171 69:-0.0463862 70:-0.628979 71:-0.999991 72:0.717802 73:0.639706 74:0.0831612 75:-0.0260034 76:-0.983502 77:-0.99999 78:0.761532 79:0.413106 80:-0.0634903 81:-0.0452573 82:-0.958053 83:-0.999989 84:-0.454099 85:0.656816 86:0.057864 87:-0.0669088 88:-0.996796 89:-0.999984 90:-0.733863 91:0.574894 92:-0.0377561 93:-0.0301653 94:-0.994228 95:-0.999987 96:-0.585104 97:0.743975 98:0.177195 99:-0.0846555 100:-0.993355 101:-0.999992 102:0.161102 103:0.677554 104:0.0545697 105:-0.114381 106:-0.963635 107:-0.999991 108:0.687073 109:0.650641 110:-0.0833094 111:-0.120236 112:-0.988854 113:-0.999991 114:0.781913 115:-0.393182 116:-0.51199 117:-0.170224 118:-0.995287 119:-0.999987 120:-0.604168 121:0.833091 122:0.104065 123:-0.210548 124:-0.988067 125:-0.999991 126:0.761205 127:0.229319 128:-0.273274 129:-0.226223 130:-0.994199 131:-0.999993 132:-0.0609532 133:0.217931 134:-0.144538 135:-0.271636 136:-0.994179 137:-0.999994 138:0.54532 139:0.551531 140:0.0532276 141:-0.279436 142:-0.996127 143:-0.999989 144:-0.440279 145:-0.0901741 146:-0.412218 147:-0.294389 148:-0.779811 149:-0.999991 150:0.726856 151:0.63249 152:0.0625349 153:-0.302797 154:-0.997136 155:-0.999988 156:-0.491105 157:-0.0267714 158:-0.306658 159:-0.315005 160:-0.993033 161:-0.999994 162:0.436543 163:0.28306 164:-0.105867 165:-0.313991 166:-0.997731 167:-0.999996 168:0.418159 169:0.661479 170:0.12955 171:-0.361872 172:-0.99178 173:-0.999994 174:0.531681 175:0.590787 176:0.133925 177:-0.362272 178:-0.997185 179:-0.999992 180:-0.278288 
0.1655740013229938 1:0.285298 2:-0.31765 3:0.13408 4:-0.971233 5:-0.999978 7:-0.19163 8:-0.674769 9:0.00903067 10:-0.981204 11:-0.999973 12:-0.606824 13:0.344532 14:-0.308481 15:0.00953391 16:-0.966967 17:-0.99998 18:-0.862896 19:0.690534 20:-0.135443 21:-0.157649 22:-0.976748 23:-0.99999 24:-0.261063 25:-0.926557 26:-0.966722 27:-0.14677 28:-0.978416 29:-0.999982 30:-0.22792 31:0.662999 32:-0.171992 33:-0.189616 34:-0.97203 35:-0.999976 36:-0.730332 37:0.777979 38:-0.223493 39:-0.256556 40:-0.986498 41:-0.999979 42:-0.406938 43:0.184763 44:-0.334789 45:-0.282583 46:-0.988767 47:-0.999973 48:-0.579611 49:0.335917 50:-0.491725 51:-0.339008 52:-0.990451 53:-0.999985 54:-0.197566 55:-0.922755 56:-0.960539 57:-0.230489 58:-0.992157 59:-0.999983 60:-0.342748 61:-0.0831497 62:-0.568827 63:-0.228682 64:-0.983442 65:-0.999981 66:-0.341857 67:-0.42399 68:-0.755899 69:-0.1995 70:0.374586 71:-0.999979 72:-0.513636 73:-0.227579 74:-0.619249 75:-0.204748 76:-0.996244 77:-0.999976 78:-0.703237 79:0.573049 80:-0.2229 81:-0.187131 82:-0.699401 83:-0.999994 84:0.0273739 85:0.607703 86:-0.235617 87:-0.176792 88:-0.994927 89:-0.999982 90:-0.288052 91:0.715312 92:-0.21674 93:-0.156678 94:-0.993282 95:-0.999975 96:-0.695223 97:0.990528 98:0.00506145 99:-0.181098 100:-0.989261 101:-0.999979 102:-0.917436 103:1 104:-0.0631962 105:-0.176611 106:-0.996375 107:-0.999981 108:-0.796623 109:0.805006 110:-0.249721 111:-0.260686 112:-0.99248 113:-0.999978 114:-0.687997 115:0.261824 116:-0.241584 117:-0.288769 118:-0.992863 119:-0.99999 120:-0.221297 121:-0.0181652 122:-0.557827 123:-0.297434 124:-0.993829 125:-0.999984 126:-0.169068 127:-0.571178 128:-0.813095 129:-0.307819 130:-0.995766 131:-0.999983 132:-0.480023 133:0.86081 134:-0.0253253 135:-0.349277 136:-0.997011 137:-0.999977 138:-0.844749 139:0.628206 140:-0.17725 141:-0.352268 142:-0.981281 143:-0.999989 144:-0.288516 145:0.526285 146:-0.263415 147:-0.384094 148:-0.908724 149:-0.999974 150:-0.587706 151:0.205503 152:-0.413628 153:-0.384752 154:-0.990574 155:-0.999984 156:-0.294219 157:0.289628 158:-0.31408 159:-0.410691 160:-0.880942 161:-0.999976 162:-0.53824 163:0.674262 164:-0.129485 165:-0.414272 166:-0.994378 167:-0.999981 168:-0.735952 169:0.135073 170:-0.42191 171:-0.43959 172:-0.980216 173:-0.99998 174:-0.57342 175:0.841933 176:-0.0179735 177:-0.465606 178:-0.99498 179:-0.999975 180:-0.581932 
0.1718191059638196 1:-0.861787 2:-0.926624 3:-0.167393 4:-0.984724 5:-0.999978 7:0.272801 8:-0.486836 9:-0.521546 10:-0.991974 11:-0.999982 12:-0.64549 13:-0.127728 14:-0.551374 15:-0.480847 16:-0.957601 17:-0.999989 18:0.462065 19:0.0184758 20:-0.481726 21:-0.469306 22:-0.980841 23:-0.999977 24:-0.359503 25:0.148407 26:-0.431182 27:-0.466622 28:-0.942837 29:-0.999973 30:0.0430881 31:0.361345 32:-0.322185 33:-0.461325 34:-0.945126 35:-0.999972 36:0.105184 37:0.527379 38:-0.333125 39:-0.488846 40:-0.980863 41:-0.999975 42:0.0596473 43:0.649823 44:-0.0736713 45:-0.50082 46:-0.995615 47:-0.999985 48:-0.559277 49:0.23348 50:-0.530699 51:-0.494478 52:-0.990864 53:-0.999976 54:-0.106035 55:0.670996 56:-0.146356 57:-0.412406 58:-0.994284 59:-0.999981 60:0.268607 61:0.667068 62:-0.216017 63:-0.418675 64:-0.995899 65:-0.999987 66:0.45617 67:0.514773 68:-0.35807 69:-0.416699 70:-0.990575 71:-0.999981 72:-0.702178 73:-0.116141 74:-0.564318 75:-0.460407 76:-0.993679 77:-0.999975 78:0.110115 79:0.608316 80:-0.205478 81:-0.488533 82:-0.995385 83:-0.999984 84:0.258706 85:-0.306024 86:-0.670049 87:-0.490805 88:-0.997189 89:-0.999975 90:0.0246725 91:-0.114635 92:-0.595717 93:-0.480975 94:-0.99385 95:-0.999985 96:0.209641 97:0.0758681 98:-0.456771 99:-0.513249 100:-0.993505 101:-0.999992 102:-0.139016 103:0.0360802 104:-0.517283 105:-0.512525 106:-0.996235 107:-0.999991 108:-0.229694 109:0.453548 110:-0.39581 111:-0.527994 112:-0.996056 113:-0.999982 114:-0.3918 115:0.438417 116:-0.134669 117:-0.513664 118:-0.996123 119:-0.999982 120:-0.674413 121:-0.186589 122:-0.633677 123:-0.536989 124:-0.986215 125:-0.999995 126:0.397195 127:0.0899078 128:-0.5197 129:-0.542073 130:-0.995665 131:-0.999981 132:-0.0270258 133:0.265658 134:-0.337061 135:-0.598872 136:-0.98905 137:-0.999988 138:-0.417597 139:0.147885 140:-0.419961 141:-0.616102 142:-0.997339 143:-0.999983 144:-0.298317 145:0.260719 146:-0.391578 147:-0.635214 148:-0.997455 149:-0.999991 150:-0.22629 151:0.355401 152:-0.340715 153:-0.63205 154:-0.994393 155:-0.999983 156:-0.282521 157:0.174499 158:-0.375594 159:-0.655108 160:-0.99457 161:-0.999992 162:-0.121984 163:0.480461 164:-0.23025 165:-0.685211 166:-0.997441 167:-0.999985 168:-0.245865 169:0.0201688 170:-0.480431 171:-0.683539 172:-0.991531 173:-0.999993 174:-0.102808 175:0.509296 176:-0.19581 177:-0.719489 178:-0.997559 179:-0.999988 180:0.0875754 
0.1650222007557714 1:0.374679 2:0.225656 3:0.500231 4:-0.947442 5:-0.999977 7:0.449781 8:-0.0157339 9:0.593167 10:-0.984752 11:-0.999978 12:-0.972137 13:0.451266 14:0.258374 15:0.528218 16:-0.97839 17:-0.99998 18:-0.852459 19:0.403174 20:0.212056 21:0.307729 22:-0.984274 23:-0.999982 24:-0.769387 25:0.52026 26:0.271714 27:0.162377 28:-0.987976 29:-0.99998 30:-0.843676 31:0.0997371 32:-0.0747305 33:0.058479 34:-0.987852 35:-0.999975 36:-0.882779 37:0.583444 38:0.165437 39:0.0653758 40:-0.987548 41:-0.999983 42:-0.645699 43:0.189957 44:0.125608 45:0.000961762 46:-0.994093 47:-0.999983 48:-0.65921 49:-0.0383434 50:-0.378433 51:-0.0891925 52:-0.989765 53:-0.999998 54:0.318138 55:0.597279 56:0.370215 57:0.0572598 58:-0.993181 59:-0.999982 60:-0.713795 61:0.0591355 62:-0.163042 63:0.0596593 64:-0.988131 65:-0.999976 66:-0.875826 67:0.376281 68:-0.0136017 69:0.0865342 70:-0.916781 71:-0.999981 72:-0.689643 73:0.328146 74:0.106481 75:0.105148 76:-0.987225 77:-0.999983 78:-0.671802 79:0.169028 80:-0.0221422 81:0.104511 82:-0.989807 83:-0.999998 84:0.473876 85:0.475429 86:0.188992 87:-0.0941595 88:-0.997463 89:-0.999997 90:0.562084 91:0.465691 92:0.126679 93:-0.0634876 94:-0.969566 95:-0.999984 96:-0.606357 97:0.266538 98:0.0762786 99:-0.0688654 100:-0.979416 101:-0.999998 102:0.459987 103:0.428927 104:0.13355 105:-0.109997 106:-0.994035 107:-0.999984 108:-0.630594 109:0.544278 110:0.0778125 111:-0.119923 112:-0.99233 113:-0.999997 114:0.575168 115:-0.0771826 116:-0.0632491 117:-0.0954439 118:-0.892096 119:-0.999998 120:0.360356 121:0.0957902 122:-0.167529 123:-0.113276 124:-0.986149 125:-0.999981 126:-0.758008 127:0.502634 128:0.117858 129:-0.123664 130:-0.994139 131:-0.999997 132:0.549704 133:-0.938226 134:-0.936016 135:-0.165963 136:-0.997547 137:-0.999995 138:0.108955 139:0.240707 140:0.0649312 141:-0.1793 142:-0.997526 143:-0.999997 144:0.514333 145:0.575223 146:0.276698 147:-0.290132 148:-0.995002 149:-0.999997 150:0.505503 151:-0.657823 152:-0.713875 153:-0.287987 154:-0.997248 155:-0.999976 156:-0.89311 157:0.299778 158:0.165219 159:-0.323056 160:-0.997183 161:-0.999998 162:0.486359 163:-0.279356 164:-0.363679 165:-0.324229 166:-0.987643 167:-0.999995 168:0.0777091 169:-0.27226 170:-0.377224 171:-0.312434 172:-0.968125 173:-0.999981 174:-0.792346 175:0.355178 176:0.214943 177:-0.33352 178:-0.997285 179:-0.999997 180:0.498297 
0.1674048330580941 1:0.162929 2:-0.382615 3:-0.370219 4:-0.974727 5:-0.999975 7:0.280625 8:-0.48367 9:-0.296576 10:-0.972478 11:-0.999975 12:-0.949386 13:0.316321 14:-0.322991 15:-0.335867 16:-0.916737 17:-0.999975 18:-0.929252 19:0.308052 20:-0.33252 21:-0.301389 22:-0.979059 23:-0.999976 24:-0.960977 25:0.265066 26:-0.373063 27:-0.432048 28:-0.991733 29:-0.99998 30:-0.736378 31:0.294141 32:-0.355646 33:-0.424299 34:-0.934851 35:-0.999977 36:-0.901365 37:0.0702098 38:-0.533127 39:-0.461154 40:-0.984832 41:-0.999981 42:-0.685342 43:-0.31586 44:-0.615875 45:-0.587228 46:-0.996654 47:-0.999985 48:-0.449847 49:0.301718 50:-0.504737 51:-0.60145 52:-0.992315 53:-0.999979 54:-0.765477 55:0.316142 56:-0.327637 57:-0.564824 58:-0.99511 59:-0.99998 60:-0.705528 61:-0.141414 62:-0.596227 63:-0.565353 64:-0.92663 65:-0.999984 66:-0.451176 67:0.349087 68:-0.428284 69:-0.551375 70:-0.990672 71:-0.999979 72:-0.765129 73:0.261866 74:-0.377985 75:-0.563937 76:-0.994942 77:-0.999997 78:0.593182 79:0.237074 80:-0.388874 81:-0.563288 82:-0.996079 83:-0.999996 84:0.677345 85:0.278874 86:-0.391959 87:-0.595442 88:-0.995184 89:-0.999984 90:-0.452625 91:0.25955 92:-0.424854 93:-0.587279 94:-0.993143 95:-0.999997 96:0.548849 97:0.326292 98:-0.330326 99:-0.634204 100:-0.994674 101:-0.999981 102:-0.674041 103:0.204013 104:-0.438173 105:-0.637244 106:-0.997908 107:-0.999984 108:-0.458897 109:0.0914801 110:-0.546309 111:-0.628688 112:-0.995266 113:-0.999995 114:0.801204 115:0.338806 116:-0.194977 117:-0.619198 118:-0.994321 119:-0.999981 120:-0.65723 121:-0.0430386 122:-0.569029 123:-0.643835 124:-0.951625 125:-0.999985 126:-0.410503 127:-0.0348962 128:-0.575089 129:-0.727141 130:-0.967221 131:-0.999998 132:0.619436 133:-0.298834 134:-0.632736 135:-0.729322 136:-0.995086 137:-0.999988 138:-0.231395 139:-0.0549126 140:-0.522437 141:-0.735151 142:-0.979975 143:-0.999998 144:0.572263 145:0.000450143 146:-0.517183 147:-0.744678 148:-0.969139 149:-0.999986 150:-0.385409 151:0.348479 152:-0.344082 153:-0.748147 154:-0.995319 155:-0.999983 156:-0.540191 157:0.21653 158:-0.353136 159:-0.839803 160:-0.996871 161:-0.999996 162:0.278858 163:0.185867 164:-0.383421 165:-0.865436 166:-0.984141 167:-0.999989 168:-0.184846 169:0.207015 170:-0.38527 171:-0.883075 172:-0.996687 173:-0.999995 174:0.213251 175:-0.463653 176:-0.715974 177:-0.953047 178:0.0483171 179:-1 180:0.444239 
0.1666889984111182 1:-0.553478 2:-0.62266 3:0.116911 4:-0.951552 5:-0.999976 7:0.141051 8:-0.270591 9:-0.370787 10:-0.991143 11:-0.999988 12:-0.200818 13:-0.336991 14:-0.454701 15:-0.51226 16:-0.954892 17:-0.999977 18:-0.923147 19:-0.478942 20:-0.575989 21:-0.483434 22:-0.96704 23:-0.999982 24:-0.654856 25:0.177228 26:-0.0727278 27:-0.4982 28:-0.992694 29:-0.999974 30:-0.806157 31:-0.7662 32:-0.808841 33:-0.505393 34:-0.989429 35:-0.99998 36:-0.719368 37:-0.0892388 38:-0.367052 39:-0.518529 40:-0.985439 41:-0.999984 42:-0.521905 43:-0.396396 44:-0.459513 45:-0.502941 46:-0.995547 47:-0.999975 48:-0.961329 49:-0.0480363 50:-0.421395 51:-0.534666 52:-0.98998 53:-0.999998 54:0.453557 55:0.0756029 56:-0.130161 57:-0.47339 58:-0.997168 59:-0.999998 60:0.339622 61:-0.299327 62:-0.477854 63:-0.483509 64:-0.98916 65:-0.999977 66:-0.924707 67:-0.552292 68:-0.692112 69:-0.481137 70:-0.989993 71:-0.999978 72:-0.850453 73:0.453076 74:0.13785 75:-0.541969 76:-0.768921 77:-0.999976 78:-0.926265 79:-0.0844281 80:-0.277567 81:-0.533636 82:-0.995154 83:-0.999985 84:-0.406325 85:0.227142 86:-0.0678142 87:-0.525729 88:-0.9942 89:-0.999983 90:-0.541701 91:-0.116976 92:-0.358933 93:-0.514351 94:-0.977453 95:-0.999984 96:-0.486269 97:0.203227 98:-0.0375465 99:-0.55709 100:-0.989495 101:-0.999997 102:0.305526 103:-0.645817 104:-0.731736 105:-0.581582 106:-0.996822 107:-0.999982 108:-0.605679 109:0.0916003 110:-0.281954 111:-0.580357 112:-0.991212 113:-0.999981 114:-0.66685 115:0.127759 116:0.0764863 117:-0.58724 118:-0.995077 119:-0.999993 120:0.063861 121:-0.0506452 122:-0.320677 123:-0.587303 124:-0.989792 125:-0.999981 126:-0.666467 127:0.0449253 128:-0.268181 129:-0.60163 130:-0.996451 131:-0.999993 132:0.0975065 133:-0.0884804 134:-0.239426 135:-0.602813 136:-0.995142 137:-0.99998 138:-0.779647 139:0.636758 140:0.31657 141:-0.603713 142:-0.996741 143:-0.999978 144:-0.870507 145:-0.0250311 146:-0.254711 147:-0.605502 148:-0.993459 149:-0.999999 150:0.479852 151:0.140536 152:-0.119493 153:-0.622122 154:-0.993373 155:-0.999985 156:-0.47052 157:0.618113 158:0.364321 159:-0.643123 160:-0.99441 161:-0.999999 162:0.418001 163:-0.308624 164:-0.425668 165:-0.660003 166:-0.991131 167:-0.999998 168:0.389227 169:0.0303105 170:-0.171097 171:-0.654213 172:-0.997722 173:-0.999987 174:-0.36122 175:-0.0111434 176:-0.165244 177:-0.647012 178:-0.997012 179:-0.999987 180:-0.36113 
0.164097503278704 1:0.0405725 2:-0.447572 3:0.144294 4:-0.969928 5:-0.999986 7:0.0948561 8:-0.558842 9:0.196009 10:-0.986059 11:-0.999986 12:-0.959379 13:0.0829314 14:-0.443027 15:0.144926 16:-0.948351 17:-0.999988 18:-0.903251 19:0.113689 20:-0.432667 21:-0.0726459 22:-0.975127 23:-0.999977 24:-0.16995 25:0.0353525 26:-0.487505 27:-0.209479 28:-0.970326 29:-0.999993 30:-0.638862 31:0.172811 32:-0.416057 33:-0.359788 34:-0.972499 35:-0.999975 36:0.502094 37:0.112561 38:-0.514599 39:-0.335427 40:-0.995077 41:-0.999992 42:-0.6653 43:0.120373 44:-0.370942 45:-0.31365 46:-0.990053 47:-0.999977 48:0.48475 49:0.214171 50:-0.538045 51:-0.39447 52:-0.993339 53:-0.999968 54:0.615516 55:0.668447 56:-0.147658 57:-0.309224 58:-0.997042 59:-0.999969 60:0.633397 61:0.265558 62:-0.404838 63:-0.322671 64:-0.953061 65:-0.999967 66:0.722956 67:0.524425 68:-0.35398 69:-0.3097 70:-0.983347 71:-0.999977 72:0.0137819 73:1 74:-0.0141353 75:-0.329116 76:-0.993005 77:-0.999998 78:-0.121891 79:0.927809 80:-0.0476452 81:-0.326092 82:-0.976767 83:-0.999998 84:-0.094049 85:0.109056 86:-0.472699 87:-0.318978 88:-0.99625 89:-0.999973 90:0.358476 91:0.688553 92:-0.228959 93:-0.298703 94:-0.993739 95:-0.999975 96:0.623336 97:0.127648 98:-0.430626 99:-0.307783 100:-0.994774 101:-0.999978 102:0.467416 103:0.183511 104:-0.447831 105:-0.316315 106:-0.996705 107:-0.99998 108:0.167098 109:0.218459 110:-0.493528 111:-0.324976 112:-0.978134 113:-0.99997 114:0.569168 115:0.0828508 116:-0.34994 117:-0.324181 118:-0.995539 119:-0.999986 120:-0.471791 121:0.171081 122:-0.472599 123:-0.350485 124:-0.993293 125:-0.999973 126:0.489789 127:0.63296 128:-0.278689 129:-0.347629 130:-0.994796 131:-0.999978 132:0.608751 133:0.249971 134:-0.345277 135:-0.380793 136:-0.996177 137:-0.999974 138:0.234683 139:0.632506 140:-0.175077 141:-0.41321 142:-0.99735 143:-0.999998 144:-0.123839 145:0.45612 146:-0.297277 147:-0.523915 148:-0.987445 149:-0.999999 150:-0.161839 151:0.682367 152:-0.181675 153:-0.530854 154:-0.987311 155:-0.999977 156:0.596826 157:0.240774 158:-0.340183 159:-0.527994 160:-0.993484 161:-0.999982 162:0.108351 163:0.215039 164:-0.368253 165:-0.523963 166:-0.990986 167:-0.999983 168:0.25243 169:-0.652364 170:-0.82295 171:-0.519099 172:-0.997728 173:-0.999992 174:-0.619709 175:0.305941 176:-0.304529 177:-0.522072 178:-0.996625 179:-0.999976 180:0.322664 
0.1651227748789424 1:0.15408 2:-0.177591 3:0.572195 4:-0.955214 5:-0.999988 7:-0.00348152 8:-0.459825 9:0.668488 10:-0.980491 11:-0.99999 12:-0.867236 13:0.0243496 14:-0.290025 15:0.675538 16:-0.942162 17:-0.999989 18:-0.943579 19:0.0144238 20:-0.302405 21:0.61459 22:-0.93056 23:-0.999986 24:-0.844039 25:0.402659 26:-0.0640225 27:0.525412 28:-0.957443 29:-0.999989 30:-0.901227 31:0.186375 32:-0.204743 33:0.591958 34:-0.992584 35:-0.999984 36:-0.663649 37:0.457432 38:-0.143992 39:0.592637 40:-0.976384 41:-0.999986 42:-0.891343 43:-0.117709 44:-0.333031 45:0.566021 46:-0.99187 47:-0.99999 48:-0.841896 49:-0.00484 50:-0.488469 51:0.557289 52:-0.996534 53:-0.999986 54:-0.851551 55:0.977974 56:0.35504 57:0.790095 58:-0.988948 59:-1 60:-0.242406 61:0.0354711 62:-0.346387 63:0.726944 64:-0.993272 65:-0.999986 66:-0.832389 67:0.0810618 68:-0.381471 69:0.782923 70:-0.876749 71:-0.999987 72:-0.977458 73:0.709047 74:0.133226 75:0.828747 76:-0.994094 77:-0.999986 78:-0.768264 79:-0.221967 80:-0.4797 81:0.771526 82:-0.990876 83:-0.999979 84:0.122616 85:-0.303137 86:-0.548832 87:0.756885 88:-0.997147 89:-0.999974 90:0.343214 91:-0.00267416 92:-0.386967 93:0.794563 94:-0.991358 95:-0.999986 96:-0.816892 97:-0.394045 98:-0.587305 99:0.816417 100:-0.99514 101:-0.999974 102:0.314687 103:0.0888532 104:-0.31242 105:0.702114 106:-0.995304 107:-0.999984 108:-0.676335 109:0.211093 110:-0.324255 111:0.683538 112:-0.984247 113:-0.999994 114:-0.00325245 115:-0.181476 116:-0.338443 117:0.605915 118:-0.991887 119:-0.999982 120:-0.0112433 121:0.262781 122:-0.235364 123:0.539289 124:-0.970012 125:-0.999986 126:-0.888379 127:0.126731 128:-0.331323 129:0.517467 130:-0.993957 131:-0.999984 132:-0.637752 133:-0.710572 134:-0.792123 135:0.462527 136:-0.994523 137:-0.999998 138:-0.186919 139:0.495564 140:0.0195951 141:0.467474 142:-0.996181 143:-0.999983 144:-0.551171 145:-0.184801 146:-0.471013 147:0.409144 148:-0.995187 149:-0.999978 150:0.0766031 151:-0.741201 152:-0.827656 153:0.418065 154:-0.969077 155:-0.999976 156:0.16437 157:-0.703535 158:-0.787917 159:0.32493 160:-0.994604 161:-0.999998 162:-0.20673 163:0.0882099 164:-0.237916 165:0.244269 166:-0.980121 167:-0.999979 168:-0.0208576 169:0.912408 170:0.30506 171:0.2502 172:-0.98717 173:-0.999976 174:0.154551 175:0.0195512 176:-0.27038 177:0.262483 178:-0.997965 179:-0.99998 180:-0.0568223 
0.168846684405051 1:0.347605 2:-0.0400669 3:0.541326 4:-0.952964 5:-0.999986 7:0.401846 8:-0.240278 9:0.427281 10:-0.988306 11:-0.999981 12:-0.448521 13:0.299259 14:-0.100764 15:0.201548 16:-0.975307 17:-0.999982 18:-0.446586 19:-0.249 20:-0.484089 21:0.23953 22:-0.972742 23:-0.999979 24:0.0246904 25:0.890649 26:0.2614 27:0.238425 28:-0.992176 29:-0.999985 30:-0.291763 31:0.217955 32:-0.183696 33:0.198866 34:-0.957964 35:-0.999995 36:0.0732069 37:-0.220545 38:-0.541009 39:0.20973 40:-0.991427 41:-0.99998 42:0.0118427 43:0.274004 44:-0.0386326 45:0.244099 46:-0.996669 47:-0.999983 48:-0.546975 49:0.274486 50:-0.346213 51:0.110457 52:-0.990765 53:-0.999993 54:0.149737 55:0.197177 56:-0.178883 57:0.163139 58:-0.996409 59:-0.999998 60:-0.0362003 61:-0.0763111 62:-0.416754 63:0.10166 64:-0.975783 65:-0.99998 66:-0.0961438 67:0.255835 68:-0.28233 69:0.0973251 70:-0.98789 71:-0.999984 72:-0.416832 73:0.118327 74:-0.256543 75:0.122576 76:-0.951647 77:-0.999982 78:-0.319779 79:-0.400439 80:-0.597716 81:0.126753 82:-0.930668 83:-0.999979 84:-0.0608054 85:0.157667 86:-0.255568 87:0.112145 88:-0.991922 89:-0.999994 90:0.124839 91:-0.685841 92:-0.804536 93:0.0913992 94:-0.992395 95:-0.999987 96:0.235466 97:0.104234 98:-0.250533 99:0.0235308 100:-0.984067 101:-0.999982 102:-0.194098 103:0.108992 104:-0.299721 105:-0.00624944 106:-0.995374 107:-0.999982 108:-0.230379 109:0.0700906 110:-0.402707 111:-0.000869121 112:-0.99061 113:-0.999988 114:0.232922 115:0.876497 116:0.518947 117:-0.000284357 118:-0.99237 119:-0.999986 120:-0.242669 121:0.0346512 122:-0.372887 123:-0.00131504 124:-0.993943 125:-0.999982 126:-0.207321 127:-0.860618 128:-0.917872 129:-0.0485158 130:-0.978707 131:-0.999978 132:-0.0202187 133:-0.232167 134:-0.456701 135:-0.056375 136:-0.997057 137:-0.999983 138:-0.343367 139:0.0831854 140:-0.259334 141:-0.0544035 142:-0.996464 143:-0.999983 144:-0.233251 145:-0.309539 146:-0.551592 147:-0.0616427 148:-0.997375 149:-0.999982 150:-0.166355 151:-0.700046 152:-0.800861 153:-0.106318 154:-0.99752 155:-0.999985 156:-0.195141 157:0.0350456 158:-0.259677 159:-0.12033 160:-0.996749 161:-0.999985 162:-0.458641 163:-0.699815 164:-0.786359 165:-0.156308 166:-0.996953 167:-0.999987 168:0.16757 169:0.0291308 170:-0.297094 171:-0.146239 172:-0.991955 173:-0.999984 174:-0.261599 175:-0.822649 176:-0.873084 177:-0.140627 178:-0.995999 179:-0.999981 180:-0.144049 
0.1649901957231293 1:-0.393601 2:-0.67807 3:0.16097 4:-0.928297 5:-0.999997 7:-0.293646 8:-0.71605 9:0.0378197 10:-0.989283 11:-0.999997 12:-0.983564 13:-0.579885 14:-0.783927 15:0.0116166 16:-0.977915 17:-0.999998 18:-0.694708 19:0.100875 20:-0.439269 21:0.030747 22:-0.960622 23:-0.99999 24:-0.241987 25:0.0172957 26:-0.496501 27:-0.0433002 28:-0.989932 29:-0.999989 30:-0.165051 31:0.109365 32:-0.447646 33:-0.00467822 34:-0.992714 35:-0.999995 36:-0.723363 37:-0.375521 38:-0.728124 39:-0.156246 40:-0.97836 41:-0.999972 42:0.828697 43:-0.024888 44:-0.452502 45:-0.140956 46:-0.882522 47:-0.999999 48:-0.92372 49:-0.339433 50:-0.748675 51:-0.133418 52:-0.996309 53:-0.999997 54:-0.639987 55:-0.324387 56:-0.654857 57:0.00556744 58:-0.985477 59:-0.999998 60:-0.729981 61:0.0660638 62:-0.498655 63:0.0105344 64:-0.995725 65:-0.999997 66:-0.875917 67:-0.0994621 68:-0.61837 69:0.0269792 70:-0.947813 71:-0.999998 72:-0.847503 73:-0.112065 74:-0.562308 75:0.0243508 76:-0.985153 77:-0.999975 78:0.674676 79:0.445065 80:-0.286125 81:-0.047713 82:-0.643097 83:-0.999992 84:-0.4057 85:0.392956 86:-0.337718 87:-0.0413887 88:-0.994302 89:-0.999997 90:-0.955803 91:0.241485 92:-0.433103 93:-0.0224386 94:-0.994745 95:-0.999997 96:-0.940318 97:-0.241711 98:-0.617123 99:-0.00174947 100:-0.976509 101:-0.999999 102:-0.788834 103:-0.260869 104:-0.657171 105:0.0017602 106:-0.994023 107:-0.999975 108:0.645709 109:0.282742 110:-0.466808 111:0.0178872 112:-0.969954 113:-0.999997 114:-0.862085 115:0.214107 116:-0.270473 117:0.0114253 118:-0.988983 119:-0.999997 120:-0.841674 121:-0.221411 122:-0.649359 123:-0.0922327 124:-0.980096 125:-0.999996 126:-0.632237 127:0.273711 128:-0.438126 129:-0.127005 130:-0.9965 131:-0.99998 132:0.388713 133:-0.192535 134:-0.577057 135:-0.205789 136:-0.991792 137:-0.999977 138:0.520601 139:-0.564364 140:-0.779869 141:-0.20079 142:-0.994103 143:-0.999997 144:-0.656502 145:-0.161066 146:-0.595131 147:-0.234946 148:-0.996755 149:-0.999997 150:-0.678413 151:0.16374 152:-0.433942 153:-0.24249 154:-0.990479 155:-0.99998 156:0.310305 157:-0.653525 158:-0.818017 159:-0.249309 160:-0.994967 161:-0.999972 162:0.872454 163:0.755096 164:-0.0874564 165:-0.269614 166:-0.99424 167:-0.999985 168:0.0439447 169:-0.603228 170:-0.797925 171:-0.268154 172:-0.997264 173:-0.999997 174:-0.667164 175:-0.0383436 176:-0.488593 177:-0.276633 178:-0.972125 179:-0.999998 180:-0.702352 
0.1679888392417742 1:0.135573 2:-0.397138 3:0.690188 4:-0.946093 5:-0.999983 7:0.119871 8:-0.548719 9:0.370319 10:-0.971142 11:-0.999985 12:-0.773733 13:0.227729 14:-0.368555 15:0.0795365 16:-0.967771 17:-0.999985 18:-0.663076 19:-0.339238 20:-0.666041 21:0.0943223 22:-0.982113 23:-0.999987 24:-0.645537 25:0.0893436 26:-0.460607 27:0.0505303 28:-0.973612 29:-0.999988 30:-0.566883 31:-0.13715 32:-0.570386 33:-0.0278991 34:-0.985369 35:-0.999988 36:-0.441193 37:-0.0932083 38:-0.604619 39:-0.236117 40:-0.985854 41:-0.999989 42:-0.321387 43:0.182093 44:-0.336288 45:-0.400612 46:-0.987647 47:-0.999989 48:-0.325183 49:0.217666 50:-0.536716 51:-0.44608 52:-0.989637 53:-0.99999 54:-0.415181 55:-0.201042 56:-0.591845 57:-0.375748 58:-0.989371 59:-0.999989 60:-0.128793 61:-0.312179 62:-0.676534 63:-0.408214 64:-0.989967 65:-0.999989 66:-0.0335712 67:-0.29629 68:-0.701782 69:-0.41228 70:-0.942324 71:-0.999986 72:0.348651 73:0.298169 74:-0.36009 75:-0.407195 76:-0.989867 77:-0.999989 78:-0.179328 79:0.170674 80:-0.421676 81:-0.68635 82:-0.983215 83:-0.999994 84:-0.273046 85:0.319162 86:-0.372804 87:-0.685601 88:-0.995897 89:-0.999988 90:0.0878593 91:0.0470151 92:-0.521903 93:-0.682041 94:-0.986814 95:-0.999995 96:-0.273737 97:0.026647 98:-0.481623 99:-0.673588 100:-0.983987 101:-0.999996 102:-0.229153 103:0.199996 104:-0.440065 105:-0.673651 106:-0.990642 107:-0.999994 108:-0.322478 109:0.458068 110:-0.393931 111:-0.673361 112:-0.994158 113:-0.999988 114:0.0965717 115:0.136851 116:-0.317247 117:-0.745061 118:-0.980793 119:-0.999995 120:-0.296431 121:0.425611 122:-0.35797 123:-0.768439 124:-0.988174 125:-0.999987 126:0.154966 127:-0.150185 128:-0.626255 129:-0.778687 130:-0.982452 131:-0.999997 132:-0.113496 133:-0.13478 134:-0.546806 135:-0.792638 136:-0.98672 137:-0.999997 138:-0.15709 139:0.557798 140:-0.212828 141:-0.824498 142:-0.144641 143:-0.999988 144:0.215706 145:0.243562 146:-0.399858 147:-0.828533 148:-0.989808 149:-0.999994 150:-0.223896 151:-0.464289 152:-0.739423 153:-0.909459 154:0.0465409 155:-1 156:-0.0259631 157:0.303391 158:-0.306726 159:-0.914227 160:-0.996548 161:-0.999991 162:0.108389 163:-0.290898 164:-0.63131 165:-0.920425 166:-0.961449 167:-0.999979 168:0.172386 169:0.415329 170:-0.279176 171:-0.928463 172:-0.976712 173:-0.99998 174:0.14737 175:0.605782 176:-0.144226 177:-0.974509 178:-0.987605 179:-0.99999 180:0.121196 
0.1656536435594345 1:-0.140255 2:-0.543571 3:-0.379966 4:-0.804409 5:-0.999973 7:-0.570923 8:-0.828251 9:-0.456116 10:-0.975408 11:-0.999972 12:-0.930621 13:-0.0445723 14:-0.508605 15:-0.417039 16:-0.978868 17:-0.999973 18:-0.990071 19:-0.532729 20:-0.765738 21:-0.419987 22:-0.985184 23:-0.99998 24:-0.590204 25:-0.51786 26:-0.763112 27:-0.42518 28:-0.990295 29:-0.999981 30:-0.548668 31:-0.027874 32:-0.515978 33:-0.410332 34:-0.984398 35:-0.999974 36:-0.967156 37:0.0840057 38:-0.527091 39:-0.399635 40:-0.968156 41:-0.999973 42:-0.981597 43:-0.0850367 44:-0.486274 45:-0.40933 46:-0.989328 47:-0.999975 48:-0.890043 49:-0.531646 50:-0.821806 51:-0.411332 52:-0.994453 53:-0.999981 54:-0.513322 55:-0.396614 56:-0.691754 57:-0.38607 58:-0.991271 59:-0.999997 60:0.446515 61:0.583327 62:-0.255398 63:-0.388885 64:-0.990543 65:-0.99999 66:0.0295557 67:0.181323 68:-0.499379 69:-0.368649 70:-0.56558 71:-0.999972 72:-0.933792 73:-0.634001 74:-0.819587 75:-0.371842 76:-0.981841 77:-0.999986 78:-0.243438 79:0.891788 80:-0.0654399 81:-0.357578 82:-0.975739 83:-0.99997 84:-0.783651 85:-0.363579 86:-0.697413 87:-0.398614 88:-0.983154 89:-0.999999 90:0.601468 91:-0.0614408 92:-0.571427 93:-0.390322 94:-0.990131 95:-0.999975 96:-0.886939 97:-0.215519 98:-0.603898 99:-0.455587 100:-0.973061 101:-0.999996 102:0.36168 103:-0.14259 104:-0.601452 105:-0.473941 106:-0.993569 107:-0.999996 108:0.330799 109:-0.163658 110:-0.652361 111:-0.488839 112:-0.978333 113:-0.999996 114:0.391674 115:0.117015 116:-0.329256 117:-0.479909 118:-0.993156 119:-0.999975 120:-0.923906 121:-0.280265 122:-0.675864 123:-0.524749 124:-0.984017 125:-0.999995 126:0.312995 127:-0.00765419 128:-0.562999 129:-0.530889 130:-0.992129 131:-0.999978 132:-0.741959 133:0.358113 134:-0.288634 135:-0.560883 136:-0.632204 137:-0.999974 138:-0.964824 139:-0.134133 140:-0.562468 141:-0.565491 142:-0.988862 143:-0.999977 144:-0.774632 145:0.964981 146:-0.0517012 147:-0.575165 148:-0.980256 149:-0.99997 150:-0.824598 151:-0.328572 152:-0.673408 153:-0.587438 154:-0.986152 155:-0.999997 156:0.375902 157:0.298971 158:-0.309087 159:-0.592238 160:-0.995919 161:-0.999988 162:-0.114801 163:0.953265 164:0.0155799 165:-0.589883 166:-0.996266 167:-0.999974 168:-0.86324 169:0.11225 170:-0.433534 171:-0.612565 172:-0.972421 173:-0.999977 174:-0.795668 175:0.578788 176:-0.158658 177:-0.624362 178:-0.996704 179:-0.999985 180:-0.285405 
0.1617787598987674 1:-0.515141 2:-0.742594 3:0.499335 4:-0.987803 5:-0.999972 7:-0.359645 8:-0.742757 9:0.464141 10:-0.992097 11:-0.999971 12:-0.961398 13:0.793165 14:-0.0777405 15:0.463548 16:-0.470371 17:-0.999969 18:-0.839463 19:0.265474 20:-0.354459 21:0.429542 22:-0.842407 23:-0.999969 24:-0.852623 25:-0.00560803 26:-0.507911 27:0.350094 28:-0.993756 29:-0.999972 30:-0.974414 31:0.733185 32:-0.137046 33:0.276839 34:-0.992112 35:-0.999976 36:-0.680922 37:0.44552 38:-0.368937 39:0.118167 40:-0.987809 41:-0.999972 42:-0.947567 43:0.217267 44:-0.316539 45:-0.0923853 46:-0.997196 47:-0.999974 48:-0.862096 49:-0.102713 50:-0.65861 51:-0.109683 52:-0.996274 53:-0.999977 54:-0.668765 55:0.422017 56:-0.273549 57:-0.123871 58:-0.993758 59:-0.999977 60:-0.691635 61:-0.408397 62:-0.721783 63:-0.190641 64:-0.994246 65:-0.999982 66:-0.378519 67:0.140944 68:-0.516491 69:-0.211867 70:-0.984807 71:-0.99998 72:-0.524806 73:0.317958 74:-0.350336 75:-0.46045 76:-0.996759 77:-0.999983 78:-0.33498 79:-0.00839474 80:-0.510138 81:-0.45539 82:-0.977972 83:-0.999983 84:-0.287141 85:0.0522287 86:-0.499717 87:-0.519806 88:-0.99209 89:-0.999985 90:-0.202032 91:0.17603 92:-0.462991 93:-0.527665 94:-0.996462 95:-0.999982 96:-0.343733 97:0.267622 98:-0.35995 99:-0.557854 100:-0.989923 101:-0.999982 102:-0.341998 103:-0.20432 104:-0.630532 105:-0.614186 106:-0.992665 107:-0.999986 108:-0.12721 109:-0.046273 110:-0.603568 111:-0.662057 112:-0.995138 113:-0.999987 114:-0.0597056 115:0.477945 116:-0.110737 117:-0.651256 118:-0.993518 119:-0.999985 120:-0.225369 121:0.0272942 122:-0.537354 123:-0.709931 124:-0.985994 125:-0.999987 126:-0.0706265 127:0.381646 128:-0.390224 129:-0.845419 130:-0.995887 131:-0.999989 132:0.0325774 133:0.275924 134:-0.331683 135:-0.868551 136:-0.993402 137:-0.999987 138:-0.0822944 139:0.114955 140:-0.436601 141:-0.881034 142:-0.994502 143:-0.999989 144:0.0416766 145:0.467748 146:-0.291666 147:-0.917091 148:-0.995879 149:-0.99999 150:0.119042 151:0.430699 152:-0.304089 153:-0.953528 154:-0.995568 155:-0.999989 156:0.0407516 157:0.549081 158:-0.175451 159:-0.966329 160:-0.993718 161:-0.999991 162:0.169236 163:-0.0501206 164:-0.50612 165:-0.966639 166:0.787827 167:-1 168:0.673946 169:0.521028 170:-0.225344 171:-0.983984 172:-0.994271 173:-0.999993 174:0.280577 175:0.62328 176:-0.134871 177:-0.987699 178:-0.997667 179:-0.999993 180:0.281173 
0.1583636851944512 1:0.345284 2:-0.285805 3:-0.184927 4:-0.974322 5:-0.999984 7:-0.168319 8:-0.665336 9:-0.343611 10:-0.987202 11:-0.999973 12:0.209079 13:0.151572 14:-0.407724 15:-0.305955 16:-0.979116 17:-0.999973 18:0.236803 19:0.343351 20:-0.314332 21:-0.604899 22:-0.983316 23:-0.999989 24:-0.717932 25:0.811502 26:-0.100833 27:-0.619009 28:-0.989497 29:-0.999989 30:-0.447197 31:0.796747 32:-0.105399 33:-0.611917 34:-0.984346 35:-0.999989 36:-0.470991 37:0.527533 38:-0.333058 39:-0.611222 40:-0.986409 41:-0.999982 42:-0.143679 43:0.838567 44:0.0323034 45:-0.735189 46:-0.953341 47:-0.999992 48:-0.441909 49:0.364031 50:-0.481028 51:-0.76329 52:-0.995254 53:-0.999992 54:-0.534164 55:0.533473 56:-0.216611 57:-0.737129 58:-0.987207 59:-0.999986 60:-0.224044 61:0.43744 62:-0.324006 63:-0.753073 64:-0.991392 65:-0.999989 66:-0.46568 67:0.950749 68:-0.173312 69:-0.785952 70:-0.961675 71:-0.999987 72:-0.279644 73:0.424109 74:-0.298011 75:-0.792571 76:-0.987327 77:-0.999992 78:-0.47659 79:0.940428 80:-0.0414114 81:-0.806796 82:-0.98179 83:-0.99999 84:-0.425623 85:0.356693 86:-0.35496 87:-0.866778 88:-0.996837 89:-0.999994 90:-0.391228 91:0.268938 92:-0.420567 93:-0.881714 94:-0.993019 95:-0.999993 96:-0.385243 97:0.262243 98:-0.362666 99:-0.878466 100:-0.995975 101:-0.999993 102:-0.367848 103:0.372468 104:-0.358816 105:-0.875481 106:-0.996949 107:-0.999993 108:-0.377665 109:0.261473 110:-0.475649 111:-0.874946 112:-0.995689 113:-0.999993 114:-0.351617 115:0.350865 116:-0.187676 117:-0.886872 118:-0.995987 119:-0.999997 120:-0.21961 121:0.343014 122:-0.395168 123:-0.88736 124:-0.987184 125:-0.999996 126:-0.304116 127:0.915379 128:-0.153349 129:-0.892202 130:-0.995409 131:-0.999992 132:-0.340077 133:0.173561 134:-0.3853 135:-0.895934 136:-0.991838 137:-0.999993 138:-0.395718 139:0.95513 140:-0.0120518 141:-0.895906 142:-0.995404 143:-0.999996 144:-0.241483 145:0.169538 146:-0.435581 147:-0.908232 148:-0.995816 149:-0.999994 150:-0.38243 151:0.514211 152:-0.263468 153:-0.931606 154:-0.995657 155:-0.999999 156:-0.127995 157:0.712523 158:-0.0881221 159:-0.942966 160:-0.989815 161:-0.999998 162:-0.0485946 163:0.878745 164:-0.0231659 165:-0.951466 166:-0.997367 167:-0.999996 168:-0.30331 169:0.737726 170:-0.11498 171:-0.948988 172:-0.996777 173:-0.999998 174:-0.147436 175:0.861927 176:-0.0072845 177:-0.94984 178:-0.990869 179:-0.999997 180:-0.249786 
0.1638157381026972 1:-0.0262829 2:-0.483065 3:0.0843437 4:-0.612787 5:-0.99997 7:0.834434 8:-0.259569 9:0.213115 10:-0.753051 11:-0.999969 12:-0.917776 13:0.115649 14:-0.4262 15:0.15437 16:-0.985001 17:-0.99997 18:-0.951451 19:0.635173 20:-0.163968 21:0.11672 22:-0.981406 23:-0.999975 24:-0.670923 25:-0.792225 26:-0.899799 27:0.115673 28:-0.994611 29:-0.999978 30:-0.571997 31:0.0299189 32:-0.487203 33:-0.0153486 34:-0.975284 35:-0.999975 36:-0.746678 37:0.172623 38:-0.488323 39:-0.156598 40:-0.990185 41:-0.999975 42:-0.721085 43:-0.241473 44:-0.574109 45:-0.156087 46:-0.995274 47:-0.999978 48:-0.575605 49:-0.108278 50:-0.660727 51:-0.159877 52:-0.984471 53:-0.999978 54:-0.53953 55:0.609372 56:-0.177837 57:-0.153187 58:-0.997608 59:-0.999977 60:-0.603657 61:-0.12466 62:-0.588348 63:-0.274438 64:-0.994975 65:-0.999981 66:-0.349183 67:0.1512 68:-0.512145 69:-0.290811 70:-0.989716 71:-0.99998 72:-0.409644 73:0.847347 74:-0.0893827 75:-0.442731 76:-0.995535 77:-0.999978 78:-0.530888 79:-0.153671 80:-0.581906 81:-0.431193 82:-0.995637 83:-0.999984 84:-0.17401 85:0.430688 86:-0.319778 87:-0.575546 88:-0.99742 89:-0.999985 90:-0.111806 91:0.0294378 92:-0.52993 93:-0.642077 94:-0.991609 95:-0.999986 96:-0.0545811 97:0.264985 98:-0.361281 99:-0.682372 100:-0.996299 101:-0.999986 102:-0.0497069 103:-0.259064 104:-0.656321 105:-0.67267 106:-0.99796 107:-0.999988 108:0.0383762 109:0.075168 110:-0.553089 111:-0.709288 112:-0.996547 113:-0.99999 114:0.173595 115:-0.16375 116:-0.49924 117:-0.791676 118:-0.995703 119:-0.999991 120:0.230477 121:0.559135 122:-0.297837 123:-0.863718 124:-0.990819 125:-0.999989 126:0.105313 127:0.738245 128:-0.231962 129:-0.882848 130:-0.996231 131:-0.99999 132:0.164984 133:0.0100378 134:-0.470952 135:-0.880603 136:-0.979348 137:-0.999991 138:0.192262 139:-0.261089 140:-0.62662 141:-0.904799 142:-0.992993 143:-0.999993 144:0.353435 145:1 146:-0.0348009 147:-0.940715 148:-0.996579 149:-0.999994 150:0.44185 151:0.470904 152:-0.284533 153:-0.969844 154:-0.998283 155:-0.999994 156:0.360156 157:-0.0369342 158:-0.488565 159:-0.969593 160:0.890097 161:-1 162:0.775985 163:0.300151 164:-0.324 165:-0.97307 166:-0.993669 167:-0.999996 168:0.524447 169:0.268811 170:-0.353797 171:-0.97309 172:-0.995544 173:-0.999995 174:0.450755 175:0.975715 176:0.05355 177:-0.970118 178:-0.993321 179:-0.999998 180:0.615948 
0.1646393045556963 1:0.698619 2:-0.0982233 3:-0.429077 4:-0.18011 5:-0.999969 7:0.447069 8:-0.416317 9:-0.40103 10:-0.991651 11:-0.999976 12:-0.517055 13:0.627892 14:-0.162744 15:-0.441132 16:-0.992111 17:-0.99997 18:-0.908913 19:0.632101 20:-0.165551 21:-0.389653 22:-0.989596 23:-0.999971 24:-0.910108 25:0.828849 26:-0.0921903 27:-0.424067 28:-0.996816 29:-0.99997 30:-0.9475 31:0.410632 32:-0.297645 33:-0.448285 34:-0.993965 35:-0.999975 36:-0.628194 37:1 38:-0.126364 39:-0.593893 40:-0.997604 41:-0.999975 42:-0.583328 43:0.652468 44:-0.0721859 45:-0.680221 46:-0.998211 47:-0.999978 48:-0.494186 49:0.503129 50:-0.428106 51:-0.812659 52:-0.997698 53:-0.999984 54:-0.0713801 55:0.517085 56:-0.224983 57:-0.782068 58:-0.998312 59:-0.999986 60:0.0211071 61:0.165267 62:-0.452003 63:-0.792529 64:-0.994819 65:-0.999988 66:0.208988 67:0.538761 68:-0.347905 69:-0.904177 70:-0.994657 71:-0.999986 72:0.0474452 73:-0.470732 74:-0.739107 75:-0.899204 76:-0.997367 77:-0.999996 78:0.671454 79:0.844746 80:-0.0886789 81:-0.906699 82:-0.958015 83:-0.999997 84:0.728287 85:0.94098 86:-0.0771598 87:-0.904158 88:-0.998481 89:-0.999985 90:0.0173058 91:0.814311 92:-0.171534 93:-0.924983 94:-0.997081 95:-0.999993 96:0.493124 97:0.959711 98:-0.0104986 99:-0.929959 100:-0.996867 101:-0.999986 102:0.039248 103:0.0544975 104:-0.508607 105:-0.920772 106:-0.998738 107:-0.999992 108:0.385445 109:0.859628 110:-0.227016 111:-0.919282 112:-0.996572 113:-0.999996 114:0.698807 115:0.11314 116:-0.331602 117:-0.925852 118:-0.997015 119:-0.999993 120:0.452259 121:0.205452 122:-0.45712 123:-0.930917 124:-0.99412 125:-0.999993 126:0.484244 127:0.925069 128:-0.149049 129:-0.957325 130:-0.925683 131:-0.999999 132:0.930304 133:0.762519 134:-0.0768095 135:-0.971208 136:-0.991633 137:-0.999994 138:0.513957 139:0.947789 140:-0.0157614 141:-0.971431 142:-0.998528 143:-0.999992 144:0.430098 145:0.809495 146:-0.126739 147:-0.971796 148:-0.990946 149:-0.999994 150:0.513646 151:0.961837 152:-0.0457366 153:-0.973055 154:-0.998411 155:-0.999992 156:0.368065 157:0.281907 158:-0.318205 159:-0.987848 160:-0.996815 161:-0.999997 162:0.721802 163:0.121301 164:-0.416991 165:-0.988318 166:-0.998456 167:-0.999996 168:0.617013 169:-0.102401 170:-0.542855 171:-0.988679 172:0.917337 173:-1 174:0.840712 175:0.315336 176:-0.299506 177:-0.985785 178:-0.997641 179:-0.999996 180:0.629988 
0.1640455358060274 1:-0.161023 2:-0.554597 3:0.0890795 4:-0.963429 5:-0.99997 7:-0.089357 8:-0.633384 9:0.229813 10:-0.986756 11:-0.99997 12:-0.996485 13:-0.211612 14:-0.594517 15:0.216423 16:-0.968729 17:-0.99997 18:-0.991219 19:0.00296459 20:-0.489718 21:0.213318 22:-0.980538 23:-0.999971 24:-0.968242 25:0.591197 26:-0.210587 27:0.0896586 28:-0.987871 29:-0.999972 30:-0.829846 31:0.813329 32:-0.0971425 33:0.101139 34:-0.980427 35:-0.999971 36:-0.918609 37:0.147057 38:-0.499508 39:0.124463 40:-0.674314 41:-0.99997 42:-0.982538 43:0.863414 44:0.046254 45:0.0853204 46:-0.979573 47:-0.99997 48:-0.960758 49:0.0969076 50:-0.58266 51:0.0493587 52:-0.992016 53:-0.999976 54:-0.533434 55:0.97896 56:0.0109702 57:0.155288 58:-0.995539 59:-0.999969 60:-0.968656 61:-0.292618 62:-0.667335 63:-0.0352667 64:-0.970668 65:-0.999979 66:-0.217374 67:0.651225 68:-0.300245 69:-0.00513885 70:-0.983149 71:-0.999976 72:-0.504282 73:-0.130505 74:-0.571398 75:0.0163851 76:-0.992908 77:-0.999975 78:-0.486252 79:0.749056 80:-0.135951 81:0.0125311 82:-0.990925 83:-0.99997 84:-0.990125 85:0.623893 86:-0.227919 87:-0.208645 88:-0.997226 89:-0.999976 90:-0.57406 91:-0.382734 92:-0.718139 93:-0.192469 94:-0.951881 95:-0.999983 96:-0.00351438 97:0.870023 98:-0.0557842 99:-0.21565 100:-0.996201 101:-0.999978 102:-0.299502 103:-0.268502 104:-0.660767 105:-0.238292 106:-0.99748 107:-0.999976 108:-0.415509 109:-0.0641436 110:-0.610997 111:-0.249903 112:-0.994429 113:-0.999975 114:-0.458304 115:0.045883 116:-0.372322 117:-0.297565 118:-0.993857 119:-0.999975 120:-0.512606 121:-0.200861 122:-0.640105 123:-0.36687 124:-0.98898 125:-0.99998 126:-0.169163 127:0.208206 128:-0.467198 129:-0.374696 130:-0.996236 131:-0.999973 132:-0.631671 133:-0.0252543 134:-0.489438 135:-0.377912 136:-0.99578 137:-0.999983 138:-0.0870026 139:0.266131 140:-0.360211 141:-0.394665 142:-0.990863 143:-0.999977 144:-0.345212 145:0.778783 146:-0.14156 147:-0.430731 148:-0.993313 149:-0.999981 150:-0.35344 151:0.760948 152:-0.143452 153:-0.432854 154:-0.99723 155:-0.999982 156:-0.0713914 157:0.631847 158:-0.131228 159:-0.456848 160:-0.996283 161:-0.999974 162:-0.69389 163:0.668921 164:-0.132262 165:-0.461318 166:-0.99594 167:-0.999983 168:-0.134092 169:-0.48739 170:-0.738929 171:-0.472021 172:-0.986672 173:-0.999986 174:0.0928899 175:-0.327244 176:-0.643047 177:-0.481934 178:-0.984883 179:-0.999989 180:0.275645 
0.1663545156674298 1:0.925925 2:0.0224507 3:-0.369518 4:-0.963271 5:-0.999969 7:0.703873 8:-0.312401 9:-0.374785 10:-0.972113 11:-0.999969 12:-0.893286 13:0.448108 14:-0.25521 15:-0.384239 16:-0.950217 17:-0.99997 18:-0.868352 19:0.0483335 20:-0.466342 21:-0.339914 22:-0.974525 23:-0.999971 24:-0.783493 25:0.737788 26:-0.137556 27:-0.332185 28:-0.97895 29:-0.999974 30:-0.653852 31:0.863797 32:-0.0720147 33:-0.335625 34:-0.983281 35:-0.999971 36:-0.774245 37:0.0693828 38:-0.533489 39:-0.316295 40:-0.714795 41:-0.999968 42:-0.922176 43:0.916783 44:0.0762194 45:-0.329595 46:-0.994983 47:-0.999978 48:-0.351202 49:0.735434 50:-0.339721 51:-0.338055 52:-0.985661 53:-0.999975 54:-0.507805 55:0.560222 56:-0.202946 57:-0.332035 58:-0.990685 59:-0.999975 60:-0.595027 61:0.867989 62:-0.121529 63:-0.335881 64:-0.993168 65:-0.999979 66:-0.35349 67:0.020982 68:-0.567329 69:-0.476253 70:-0.985926 71:-0.999977 72:-0.419224 73:-0.358328 74:-0.683699 75:-0.523876 76:-0.994952 77:-0.99997 78:-0.942421 79:0.985793 80:-0.0190003 81:-0.5766 82:-0.992074 83:-0.999982 84:0.0140615 85:-0.198676 86:-0.61901 87:-0.591608 88:-0.995553 89:-0.99997 90:-0.921007 91:-0.0242542 92:-0.554447 93:-0.570217 94:-0.989059 95:-0.999978 96:-0.320549 97:0.146154 98:-0.421281 99:-0.566443 100:-0.991809 101:-0.999974 102:-0.524542 103:0.70941 104:-0.200088 105:-0.560331 106:-0.99711 107:-0.999982 108:-0.187852 109:-0.348965 110:-0.729387 111:-0.573058 112:-0.995352 113:-0.999981 114:-0.15256 115:0.579879 116:-0.0490236 117:-0.573157 118:-0.992196 119:-0.999982 120:-0.181745 121:-0.42532 122:-0.741191 123:-0.592797 124:-0.988748 125:-0.999976 126:-0.47647 127:-0.486602 128:-0.77556 129:-0.612081 130:-0.993572 131:-0.999977 132:-0.401092 133:0.623191 134:-0.149788 135:-0.651859 136:-0.995231 137:-0.999977 138:-0.497211 139:0.508199 140:-0.237891 141:-0.649529 142:-0.997343 143:-0.999974 144:-0.706909 145:-0.478265 146:-0.748211 147:-0.649016 148:-0.997545 149:-0.999981 150:-0.181568 151:0.723145 152:-0.16184 153:-0.643918 154:-0.995947 155:-0.999982 156:-0.234549 157:-0.0364958 158:-0.488331 159:-0.64884 160:-0.996866 161:-0.999988 162:0.275707 163:-0.266808 164:-0.618784 165:-0.661019 166:-0.997402 167:-0.999975 168:-0.521143 169:-0.293931 170:-0.640401 171:-0.669092 172:-0.993183 173:-0.999986 174:0.0970042 175:-0.832488 176:-0.913163 177:-0.68859 178:-0.996601 179:-0.999982 180:-0.17509 
0.1597809022198662 1:-0.37196 2:-0.666581 3:0.228153 4:-0.971936 5:-0.999972 7:-0.0921752 8:-0.634524 9:0.15652 10:-0.985407 11:-0.999972 12:-0.983755 13:0.403077 14:-0.278371 15:0.183403 16:0.431595 17:-0.999971 18:-0.890713 19:-0.304658 20:-0.648223 21:0.172428 22:-0.982306 23:-0.999972 24:-0.948979 25:-0.469738 26:-0.739138 27:0.143165 28:-0.993855 29:-0.999975 30:-0.84762 31:0.556272 32:-0.225131 33:0.00260194 34:-0.991963 35:-0.999975 36:-0.800728 37:-0.00807597 38:-0.567375 39:-0.0497196 40:-0.986742 41:-0.999974 42:-0.8591 43:-0.42224 44:-0.675604 45:-0.0463426 46:-0.993892 47:-0.999979 48:-0.616504 49:-0.207626 50:-0.698526 51:-0.0454779 52:-0.990414 53:-0.999977 54:-0.678419 55:0.183558 56:-0.395368 57:-0.136578 58:-0.994069 59:-0.999976 60:-0.738754 61:0.291379 62:-0.392695 63:-0.149744 64:-0.970054 65:-0.999976 66:-0.775779 67:0.381128 68:-0.414706 69:-0.156692 70:-0.987193 71:-0.999976 72:-0.761947 73:-0.149041 74:-0.580535 75:-0.230773 76:-0.995877 77:-0.99998 78:-0.535548 79:0.854248 80:-0.0839851 81:-0.263414 82:-0.994713 83:-0.999979 84:-0.597747 85:0.109555 86:-0.472462 87:-0.331874 88:-0.991954 89:-0.999978 90:-0.629615 91:0.0590801 92:-0.516394 93:-0.311138 94:-0.988705 95:-0.999981 96:-0.462989 97:-0.383473 98:-0.688702 99:-0.390239 100:-0.993475 101:-0.999984 102:-0.272457 103:-0.14821 104:-0.604099 105:-0.444035 106:-0.994882 107:-0.999982 108:-0.404881 109:-0.253547 110:-0.689725 111:-0.439084 112:-0.994285 113:-0.999984 114:-0.252085 115:0.126942 116:-0.323246 117:-0.423364 118:-0.995358 119:-0.999982 120:-0.429884 121:0.281314 122:-0.422955 123:-0.445726 124:-0.994568 125:-0.999979 126:-0.586111 127:0.348748 128:-0.404824 129:-0.481011 130:-0.996307 131:-0.99998 132:-0.54045 133:0.380009 134:-0.277165 135:-0.664832 136:-0.996234 137:-0.999983 138:-0.348405 139:0.317896 140:-0.334053 141:-0.701794 142:-0.990205 143:-0.999982 144:-0.413326 145:0.138962 146:-0.450337 147:-0.770938 148:-0.991709 149:-0.999985 150:-0.266403 151:0.780141 152:-0.134116 153:-0.767245 154:-0.996654 155:-0.999986 156:-0.164324 157:-0.148508 158:-0.54818 159:-0.775059 160:-0.981834 161:-0.999987 162:-0.0919943 163:0.0423702 164:-0.45803 165:-0.805136 166:-0.986788 167:-0.999988 168:-0.0643214 169:-0.2078 170:-0.596534 171:-0.827474 172:-0.994097 173:-0.99999 174:0.0335944 175:0.862358 176:-0.00705405 177:-0.8362 178:-0.993061 179:-0.999994 180:0.269791 
0.1590032232306972 1:0.262851 2:-0.329567 3:0.222923 4:-0.967795 5:-0.999985 7:0.0981356 8:-0.557515 9:-0.0408117 10:-0.990568 11:-0.999973 12:0.217496 13:-0.222134 14:-0.599928 15:-0.0846296 16:-0.97136 17:-0.999974 18:0.233477 19:0.332372 20:-0.319989 21:-0.352022 22:-0.979102 23:-0.999989 24:-0.698269 25:0.325946 26:-0.342733 27:-0.51388 28:-0.985177 29:-0.99999 30:-0.643814 31:0.263685 32:-0.370811 33:-0.50045 34:-0.987766 35:-0.999991 36:-0.634296 37:0.290084 38:-0.436937 39:-0.554169 40:-0.996076 41:-0.999985 42:-0.315581 43:0.14578 44:-0.356677 45:-0.677845 46:-0.991643 47:-0.999989 48:-0.511293 49:0.913316 50:-0.272042 51:-0.700452 52:-0.980473 53:-0.99999 54:-0.423394 55:0.304184 56:-0.333745 57:-0.695293 58:-0.992158 59:-0.999993 60:-0.495705 61:-0.0511631 62:-0.553784 63:-0.759697 64:-0.996611 65:-0.99999 66:-0.332465 67:0.909791 68:-0.190669 69:-0.768765 70:-0.978515 71:-0.999991 72:-0.360028 73:-0.0181255 74:-0.516002 75:-0.824547 76:-0.997709 77:-0.999992 78:-0.304516 79:0.313867 80:-0.350938 81:-0.856395 82:-0.996018 83:-0.999994 84:-0.331525 85:0.277615 86:-0.392557 87:-0.864398 88:-0.992128 89:-0.999996 90:-0.33443 91:0.845523 92:-0.157282 93:-0.854863 94:-0.993507 95:-0.999996 96:-0.303767 97:0.314678 98:-0.33619 99:-0.854548 100:-0.992968 101:-0.999995 102:-0.346361 103:0.916449 104:-0.102556 105:-0.851398 106:-0.996152 107:-0.999995 108:-0.372308 109:0.111965 110:-0.537794 111:-0.855714 112:-0.992951 113:-0.999994 114:-0.375271 115:0.0972681 116:-0.341211 117:-0.850751 118:-0.987896 119:-0.999994 120:-0.388999 121:0.094352 122:-0.507154 123:-0.872425 124:-0.986087 125:-0.999994 126:-0.3547 127:0.932142 128:-0.145909 129:-0.888767 130:-0.993219 131:-0.999995 132:-0.246234 133:-0.0302402 134:-0.492049 135:-0.930266 136:-0.996843 137:-0.999995 138:-0.299948 139:0.495244 140:-0.244437 141:-0.942745 142:-0.99419 143:-0.999995 144:-0.316875 145:0.339002 146:-0.353798 147:-0.945584 148:-0.997928 149:-0.999998 150:-0.211561 151:0.938693 152:-0.056994 153:-0.945291 154:-0.995568 155:-0.999998 156:-0.172098 157:0.804192 158:-0.0391422 159:-0.956938 160:-0.995971 161:-0.999998 162:-0.18556 163:0.65522 164:-0.139386 165:-0.966753 166:-0.99456 167:-0.999997 168:-0.239077 169:0.910602 170:-0.026935 171:-0.965035 172:-0.998694 173:-0.999998 174:-0.221675 175:-0.0334305 176:-0.485966 177:-0.985845 178:0.850046 179:-1 180:-0.107361 
0.1653460797682048 1:-0.968349 2:-0.983197 3:-0.356097 4:-0.978215 5:-0.999969 7:-0.732489 8:-0.893629 9:-0.267985 10:-0.982562 11:-0.999969 12:-0.954509 13:-0.605951 14:-0.797333 15:-0.297967 16:-0.93406 17:-0.999969 18:-0.980477 19:0.87414 20:-0.0408385 21:-0.295059 22:-0.979149 23:-0.999971 24:-0.859679 25:0.888787 26:-0.0623297 27:-0.276985 28:-0.988642 29:-0.999971 30:-0.912774 31:0.862982 32:-0.0724201 33:-0.258158 34:-0.99061 35:-0.999974 36:-0.516037 37:0.262909 38:-0.448825 39:-0.255297 40:-0.74042 41:-0.999969 42:-0.987016 43:-0.881167 44:-0.933278 45:-0.306379 46:-0.993824 47:-0.999969 48:-0.999091 49:0.501409 50:-0.42876 51:-0.311492 52:-0.990192 53:-0.999971 54:-0.872882 55:-0.72108 56:-0.857511 57:-0.258915 58:-0.994246 59:-0.999969 60:-1 61:0.385165 62:-0.34859 63:-0.294107 64:-0.990194 65:-0.999973 66:-0.67098 67:-0.167869 68:-0.64736 69:-0.307235 70:-0.989072 71:-0.999975 72:-0.558341 73:-0.786953 74:-0.894982 75:-0.379599 76:-0.993395 77:-0.999974 78:-0.67569 79:0.253511 80:-0.380755 81:-0.40812 82:-0.991316 83:-0.999982 84:0.0558367 85:0.563291 86:-0.256733 87:-0.464815 88:-0.995702 89:-0.99997 90:-0.830492 91:0.857338 92:-0.151887 93:-0.47106 94:-0.995112 95:-0.99998 96:-0.285809 97:0.395975 98:-0.295141 99:-0.534082 100:-0.995563 101:-0.999971 102:-0.793223 103:0.493565 104:-0.301769 105:-0.532876 106:-0.99616 107:-0.999973 108:-0.619244 109:0.538557 110:-0.360475 111:-0.558572 112:-0.992059 113:-0.999978 114:-0.425606 115:0.403575 116:-0.155764 117:-0.560901 118:-0.993622 119:-0.99998 120:-0.27482 121:-0.851287 122:-0.933027 123:-0.635964 124:-0.992349 125:-0.999981 126:-0.25075 127:0.752274 128:-0.225736 129:-0.647023 130:-0.990949 131:-0.999995 132:0.700809 133:0.610775 134:-0.156291 135:-0.711486 136:-0.993668 137:-0.999989 138:0.256348 139:0.434426 140:-0.275169 141:-0.723022 142:-0.994933 143:-0.999989 144:0.220781 145:-0.496635 146:-0.757076 147:-0.72622 148:-0.99595 149:-0.999982 150:-0.158366 151:0.179518 152:-0.426267 153:-0.727037 154:-0.992923 155:-0.999989 156:0.281516 157:-0.906709 158:-0.953295 159:-0.737629 160:-0.997469 161:-0.999979 162:-0.371991 163:0.982921 164:0.030999 165:-0.769746 166:-0.997678 167:-0.999987 168:0.0965057 169:0.0520231 170:-0.464207 171:-0.765292 172:-0.994425 173:-0.999987 174:0.186209 175:0.54771 176:-0.175273 177:-0.783353 178:-0.965492 179:-0.999998 180:0.821296 
0.1794405703408459 1:0.636643 2:-0.131126 3:-0.290921 4:-0.981614 5:-0.999982 7:0.715393 8:-0.307739 9:-0.297494 10:-0.986002 11:-0.999973 12:-0.303407 13:0.735885 14:-0.107201 15:-0.325891 16:-0.979508 17:-0.999972 18:-0.175403 19:0.640313 20:-0.16132 21:-0.295339 22:-0.98109 23:-0.999983 24:-0.956476 25:0.735295 26:-0.138798 27:-0.301082 28:-0.989467 29:-0.999972 30:-0.207441 31:0.715406 32:-0.145898 33:-0.474796 34:-0.983206 35:-0.999976 36:-0.344833 37:0.0224288 38:-0.55403 39:-0.511819 40:-0.471533 41:-0.999971 42:-0.173047 43:0.718091 44:-0.0353408 45:-0.588455 46:-0.996045 47:-0.999982 48:-0.628775 49:0.532139 50:-0.417068 51:-0.611007 52:-0.992793 53:-0.999985 54:-0.400379 55:0.254995 56:-0.358874 57:-0.599353 58:-0.996066 59:-0.999974 60:-0.32709 61:0.460731 62:-0.313053 63:-0.637266 64:-0.990397 65:-0.999975 66:-0.31725 67:0.592058 68:-0.325318 69:-0.720929 70:-0.987827 71:-0.999996 72:-0.0113273 73:-0.25735 74:-0.633924 75:-0.715874 76:-0.992137 77:-0.999986 78:-0.475651 79:-0.490634 80:-0.748369 81:-0.723244 82:-0.980929 83:-0.999979 84:-0.441447 85:0.598583 86:-0.239953 87:-0.726096 88:-0.992182 89:-0.999986 90:-0.443128 91:0.116174 92:-0.490323 93:-0.705886 94:-0.991995 95:-0.999981 96:-0.455214 97:0.405745 98:-0.290209 99:-0.708315 100:-0.974909 101:-0.999986 102:-0.459066 103:0.39592 104:-0.347769 105:-0.702435 106:-0.961539 107:-0.999991 108:-0.285924 109:0.628925 110:-0.322912 111:-0.704023 112:-0.995605 113:-0.999983 114:-0.548633 115:0.282255 116:-0.229215 117:-0.724599 118:-0.993647 119:-0.999975 120:-0.315185 121:0.0915175 122:-0.508431 123:-0.73696 124:-0.991518 125:-0.999985 126:-0.523921 127:-0.558652 128:-0.807536 129:-0.734848 130:-0.990703 131:-0.999977 132:-0.351318 133:0.79335 134:-0.0606607 135:-0.738705 136:-0.997315 137:-0.999984 138:-0.563196 139:-0.533164 140:-0.764103 141:-0.739686 142:-0.985578 143:-0.999984 144:-0.538735 145:0.0243631 146:-0.505643 147:-0.744702 148:-0.962142 149:-0.999978 150:-0.380305 151:-0.288315 152:-0.653827 153:-0.747238 154:-0.987433 155:-0.999975 156:-0.312524 157:0.846132 158:-0.0167335 159:-0.756349 160:-0.996082 161:-0.99999 162:-0.397163 163:0.663402 164:-0.135131 165:-0.759018 166:-0.996886 167:-0.999984 168:-0.608043 169:0.654433 170:-0.157402 171:-0.777528 172:-0.99676 173:-0.99999 174:-0.529529 175:0.341061 176:-0.285753 177:-0.772106 178:-0.97933 179:-0.99999 180:-0.417842 
0.155909763910897 1:0.110636 2:-0.410377 3:-0.248403 4:-0.978733 5:-0.999971 7:0.628269 8:-0.342994 9:-0.640789 10:-0.955176 11:-0.999981 12:-0.360919 13:0.108081 14:-0.430093 15:-0.68567 16:-0.9793 17:-0.999989 18:0.151315 19:0.379976 20:-0.295461 21:-0.644111 22:-0.980128 23:-0.999984 24:-0.201714 25:0.475378 26:-0.268287 27:-0.711572 28:-0.993344 29:-0.999987 30:-0.0602214 31:0.629249 32:-0.188796 33:-0.733513 34:-0.968306 35:-0.999985 36:-0.143696 37:0.427637 38:-0.37676 39:-0.734259 40:-0.989045 41:-0.999987 42:0.0190018 43:0.119619 44:-0.371366 45:-0.753992 46:-0.993692 47:-0.999994 48:0.440927 49:0.626241 50:-0.381265 51:-0.755392 52:-0.991399 53:-0.999985 54:-0.139434 55:0.891099 56:-0.0339142 57:-0.730664 58:-0.995712 59:-0.999988 60:0.0455181 61:0.209962 62:-0.430984 63:-0.803037 64:-0.992611 65:-0.999986 66:-0.0868756 67:0.700798 68:-0.279237 69:-0.820093 70:-0.955573 71:-0.999988 72:0.0475301 73:0.674409 74:-0.17463 75:-0.83396 76:-0.992368 77:-0.99999 78:0.136812 79:0.0523532 80:-0.480128 81:-0.852045 82:-0.987856 83:-0.999996 84:0.675878 85:0.622708 86:-0.228483 87:-0.854497 88:-0.996418 89:-0.999991 90:0.178676 91:0.471131 92:-0.32824 93:-0.885437 94:-0.996355 95:-0.999996 96:0.48852 97:0.458967 98:-0.263336 99:-0.931741 100:-0.995699 101:-0.999995 102:0.513698 103:0.939182 104:-0.0918464 105:-0.928428 106:-0.99526 107:-0.999995 108:0.436208 109:-0.336964 110:-0.724398 111:-0.936081 112:-0.995763 113:-0.999996 114:0.579039 115:0.624131 116:-0.0222319 117:-0.931972 118:-0.991029 119:-0.999993 120:0.255306 121:0.648357 122:-0.257656 123:-0.937731 124:-0.993638 125:-0.999994 126:0.363705 127:0.665847 128:-0.264093 129:-0.943078 130:-0.996281 131:-0.999994 132:0.421682 133:0.725447 134:-0.0962274 135:-0.941 136:-0.987209 137:-0.999994 138:0.391778 139:0.450096 140:-0.267251 141:-0.943196 142:-0.996589 143:-0.999999 144:0.791393 145:0.589922 146:-0.232704 147:-0.943072 148:-0.995567 149:-0.999997 150:0.540881 151:0.896357 152:-0.0775873 153:-0.942915 154:-0.99691 155:-0.999997 156:0.505854 157:0.000858576 158:-0.468372 159:-0.94191 160:-0.996388 161:-0.999994 162:0.342424 163:0.451138 164:-0.245496 165:-0.956965 166:-0.990689 167:-0.999998 168:0.577645 169:0.840956 170:-0.0624056 171:-0.954845 172:-0.996945 173:-0.999997 174:0.56253 175:0.532574 176:-0.183365 177:-0.949885 178:-0.997187 179:-1 180:0.691414 
0.1671303025446828 1:-0.398639 2:-0.680744 3:0.180833 4:-0.974164 5:-0.999969 7:-0.307848 8:-0.721797 9:0.330379 10:-0.982508 11:-0.999969 12:-0.996492 13:-0.227404 14:-0.602639 15:0.341618 16:-0.958388 17:-0.999969 18:-1 19:0.24329 20:-0.365889 21:0.127671 22:-0.461516 23:-0.999969 24:-0.99098 25:0.792897 26:-0.110101 27:0.157938 28:-0.983071 29:-0.99997 30:-0.872164 31:0.814835 32:-0.0963928 33:0.150083 34:-0.947966 35:-0.999969 36:-0.925644 37:0.550142 38:-0.323167 39:0.184091 40:-0.989688 41:-0.99997 42:-0.878751 43:-0.42586 44:-0.677637 45:0.0605636 46:-0.989885 47:-0.999981 48:-0.00610808 49:0.942729 50:-0.260851 51:0.0385044 52:-0.996374 53:-0.999976 54:-0.387174 55:-0.575573 56:-0.783178 57:0.14157 58:-0.99452 59:-0.999983 60:0.141845 61:0.0597553 62:-0.501622 63:0.0966456 64:-0.99346 65:-0.999976 66:-0.428687 67:0.182773 68:-0.498765 69:0.110088 70:-0.991268 71:-0.999972 72:-0.778411 73:0.495365 74:-0.262886 75:0.0577447 76:-0.993573 77:-0.999969 78:-1 79:0.700138 80:-0.160117 81:-0.00674028 82:-0.989747 83:-0.99997 84:-0.879241 85:0.57809 86:-0.249696 87:-0.0335978 88:-0.99306 89:-0.999975 90:-0.537274 91:-0.139411 92:-0.607031 93:-0.0426067 94:-0.990855 95:-0.999977 96:-0.33944 97:0.708288 98:-0.137448 99:-0.0398286 100:-0.995971 101:-0.999976 102:-0.544888 103:0.815972 104:-0.149889 105:-0.0320921 106:-0.99701 107:-0.999987 108:0.203227 109:-0.252662 110:-0.689357 111:-0.0454756 112:-0.993918 113:-0.99998 114:-0.12979 115:0.0796819 116:-0.351859 117:-0.0439683 118:-0.995528 119:-0.999973 120:-0.57773 121:0.894744 122:-0.146694 123:-0.073725 124:-0.995763 125:-0.999982 126:-0.193687 127:-0.251324 128:-0.671141 129:-0.0830699 130:-0.984844 131:-0.999987 132:0.293402 133:-0.429713 134:-0.701289 135:-0.0844584 136:-0.99493 137:-0.999984 138:0.0494638 139:-0.308246 140:-0.650449 141:-0.124403 142:-0.995285 143:-0.999981 144:-0.123007 145:0.286629 146:-0.379073 147:-0.167741 148:-0.990174 149:-0.999978 150:-0.139952 151:0.17433 152:-0.42879 153:-0.167643 154:-0.991704 155:-0.999976 156:-0.365402 157:-0.0568762 158:-0.499221 159:-0.184531 160:-0.997277 161:-0.999979 162:-0.15833 163:-0.285729 164:-0.628622 165:-0.270791 166:-0.995228 167:-0.999981 168:-0.137175 169:0.528152 170:-0.221716 171:-0.311844 172:-0.967989 173:-0.999981 174:0.0348445 175:0.921349 176:0.0244844 177:-0.351535 178:-0.995905 179:-0.999984 180:-0.0279038 
0.1712475002227491 1:0.847556 2:-0.0191547 3:-0.304195 4:-0.984922 5:-0.99998 7:0.644469 8:-0.336439 9:-0.302959 10:-0.981202 11:-0.99997 12:-0.228407 13:0.919857 14:-0.0125806 15:-0.321024 16:-0.970737 17:-0.999974 18:-0.252218 19:0.949006 20:-0.00226344 21:-0.336824 22:-0.977745 23:-0.999972 24:-0.293406 25:0.931998 26:-0.0408019 27:-0.342136 28:-0.990619 29:-0.999973 30:-0.335304 31:0.402203 32:-0.301842 33:-0.331015 34:-0.986802 35:-0.999972 36:-0.371039 37:0.572645 38:-0.313322 39:-0.307452 40:-0.984433 41:-0.99997 42:-0.20057 43:-0.197911 44:-0.54965 45:-0.291598 46:-0.996629 47:-0.99997 48:-0.222941 49:-0.186453 50:-0.690471 51:-0.310893 52:-0.995132 53:-0.99997 54:-0.183388 55:0.0125189 56:-0.482745 57:-0.232608 58:-0.839365 59:-0.99997 60:-0.177233 61:0.70262 62:-0.199298 63:-0.231857 64:-0.980538 65:-0.999974 66:-0.283873 67:0.0686694 68:-0.54712 69:-0.261706 70:-0.991775 71:-0.99997 72:-0.191134 73:-0.31795 74:-0.663796 75:-0.290731 76:-0.992344 77:-0.99997 78:-0.191482 79:0.569623 80:-0.224592 81:-0.35552 82:-0.991424 83:-0.999975 84:-0.391333 85:0.692256 86:-0.195416 87:-0.403689 88:-0.996555 89:-0.99998 90:-0.564163 91:0.557031 92:-0.289015 93:-0.378441 94:-0.9936 95:-0.999978 96:-0.377484 97:-0.0935882 98:-0.542333 99:-0.374211 100:-0.994296 101:-0.999976 102:-0.677693 103:0.446218 104:-0.324074 105:-0.417589 106:-0.993184 107:-0.999977 108:-0.685053 109:0.422001 110:-0.408923 111:-0.476299 112:-0.992153 113:-0.999977 114:-0.402321 115:0.847158 116:0.112796 117:-0.528733 118:-0.99449 119:-0.999991 120:-0.328039 121:-0.368404 122:-0.715558 123:-0.532801 124:-0.995512 125:-0.999977 126:-0.424736 127:-0.638532 128:-0.842987 129:-0.542156 130:-0.996111 131:-0.999977 132:-0.486426 133:0.815735 134:-0.0489352 135:-0.542384 136:-0.994699 137:-0.999992 138:-0.0503618 139:-0.0878753 140:-0.539094 141:-0.571361 142:-0.995852 143:-0.999983 144:-0.493209 145:0.918008 146:-0.0743701 147:-0.580621 148:-0.995929 149:-0.999984 150:-0.556904 151:0.5976 152:-0.222906 153:-0.627083 154:-0.996501 155:-0.999981 156:-0.628874 157:-0.71561 158:-0.851189 159:-0.624144 160:-0.99619 161:-0.999978 162:-0.531914 163:-0.432404 164:-0.704884 165:-0.652381 166:-0.996972 167:-0.999973 168:-0.335585 169:0.0903396 170:-0.444693 171:-0.645568 172:-0.997634 173:-0.999976 174:-0.465965 175:-0.0117702 176:-0.474386 177:-0.646448 178:-0.993855 179:-0.999974 180:-0.333873 
0.1649000162798388 1:0.77825 2:-0.0559483 3:0.363053 4:-0.963857 5:-0.999969 7:0.299329 8:-0.476101 9:0.469589 10:-0.986544 11:-0.999973 12:-0.707762 13:0.732347 14:-0.10902 15:0.370086 16:-0.96162 17:-0.999972 18:-0.833431 19:0.986139 20:0.0168696 21:0.289676 22:-0.986456 23:-0.999977 24:-0.474227 25:0.651905 26:-0.180343 27:0.239062 28:-0.98865 29:-0.999984 30:0.145121 31:0.607315 32:-0.199717 33:0.204504 34:-0.980102 35:-0.99997 36:-0.882639 37:0.771163 38:-0.226475 39:0.22003 40:-0.988421 41:-0.99997 42:-0.896613 43:0.677236 44:-0.0582794 45:0.15367 46:-0.989597 47:-0.999983 48:0.00525156 49:0.786996 50:-0.320103 51:0.166094 52:-0.993535 53:-0.999972 54:-0.670377 55:0.656318 56:-0.153854 57:0.338561 58:-0.997059 59:-0.999984 60:0.146093 61:0.182525 62:-0.443886 63:0.269247 64:-0.773278 65:-0.999968 66:-0.967421 67:0.960442 68:-0.169205 69:0.12548 70:-0.976973 71:-0.999978 72:-0.176514 73:0.0307756 74:-0.491897 75:0.150497 76:-0.995371 77:-0.999973 78:-0.70724 79:0.282596 80:-0.366386 81:0.168838 82:-0.992103 83:-0.999974 84:-0.601883 85:0.726866 86:-0.17896 87:0.145149 88:-0.997474 89:-0.999979 90:-0.401546 91:0.821924 92:-0.168058 93:0.185382 94:-0.99481 95:-0.999979 96:-0.354682 97:0.700054 98:-0.141605 99:0.206081 100:-0.994483 101:-0.999975 102:-0.485122 103:-0.227097 104:-0.641262 105:0.132483 106:-0.997352 107:-0.99997 108:-0.86004 109:0.66454 110:-0.308108 111:0.0364742 112:-0.993229 113:-0.999975 114:-0.483037 115:0.404366 116:-0.155285 117:-0.0236641 118:-0.99052 119:-0.999974 120:-0.673393 121:-0.249433 122:-0.661979 123:-0.113033 124:-0.995148 125:-0.999975 126:-0.519835 127:0.302075 128:-0.425538 129:-0.109336 130:-0.994229 131:-0.999984 132:-0.0173403 133:0.670687 134:-0.12491 135:-0.238926 136:-0.993607 137:-0.99999 138:0.357454 139:0.662519 140:-0.159911 141:-0.353978 142:-0.992372 143:-0.999988 144:0.239682 145:0.777317 146:-0.142267 147:-0.406475 148:-0.993696 149:-0.999981 150:-0.274282 151:-0.94921 152:-0.975295 153:-0.434012 154:-0.995897 155:-0.999971 156:-0.851185 157:0.728184 158:-0.0797544 159:-0.448045 160:-0.991876 161:-0.999985 162:-0.00165374 163:0.760012 164:-0.0849003 165:-0.449195 166:-0.994756 167:-0.999982 168:-0.183151 169:0.970667 170:0.00365605 171:-0.446866 172:-0.995225 173:-0.999992 174:0.425176 175:-0.603074 176:-0.790512 177:-0.536269 178:-0.987228 179:-0.999973 180:-0.723479 
0.1645897386160393 1:0.84874 2:-0.0185258 3:0.0769327 4:-0.52355 5:-0.999969 7:0.152667 8:-0.535448 9:0.0481668 10:-0.50465 11:-0.99997 12:-0.970238 13:0.681718 14:-0.13506 15:0.0439693 16:-0.970091 17:-0.999975 18:-0.561017 19:0.0243508 20:-0.478699 21:0.0218915 22:-0.971022 23:-0.999973 24:-0.771078 25:-0.00255962 26:-0.506393 27:0.0412922 28:-0.994343 29:-0.999973 30:-0.802932 31:-0.333001 32:-0.667901 33:0.0275344 34:-0.99276 35:-0.999972 36:-0.840186 37:-0.202607 38:-0.652478 39:-0.189997 40:-0.974087 41:-0.999975 42:-0.625648 43:0.0480802 44:-0.411533 45:-0.280615 46:-0.995706 47:-0.999978 48:-0.447833 49:-0.149118 50:-0.676266 51:-0.361968 52:-0.99406 53:-0.99998 54:-0.345434 55:0.142335 56:-0.416427 57:-0.31451 58:-0.978362 59:-0.999975 60:-0.617728 61:0.510056 62:-0.289856 63:-0.330831 64:-0.991965 65:-0.999975 66:-0.632483 67:-0.312137 68:-0.708498 69:-0.530446 70:-0.984184 71:-0.999981 72:-0.280526 73:-0.210259 74:-0.610711 75:-0.605289 76:-0.992913 77:-0.999984 78:-0.0848735 79:0.118452 80:-0.447475 81:-0.639221 82:-0.977816 83:-0.99998 84:-0.300732 85:0.554833 86:-0.260754 87:-0.652017 88:-0.996719 89:-0.999985 90:0.0196448 91:-0.330472 92:-0.694275 93:-0.709429 94:-0.993805 95:-0.999987 96:0.0862714 97:-0.106411 98:-0.548807 99:-0.765169 100:-0.992729 101:-0.999988 102:0.154481 103:-0.358711 104:-0.703263 105:-0.75469 106:-0.998158 107:-0.999989 108:0.197538 109:-0.203967 110:-0.669116 111:-0.790974 112:-0.99254 113:-0.999985 114:-0.00619746 115:0.282703 116:-0.228943 117:-0.855629 118:-0.975864 119:-0.999984 120:-0.0799943 121:-0.265085 122:-0.669028 123:-0.912703 124:-0.991173 125:-0.999991 126:0.344804 127:0.396183 128:-0.383772 129:-0.914995 130:-0.985139 131:-0.999996 132:0.62298 133:-0.195813 134:-0.578775 135:-0.924939 136:-0.996575 137:-0.999993 138:0.432885 139:0.566778 140:-0.20829 141:-0.930272 142:-0.997609 143:-0.999987 144:0.0700246 145:0.444103 146:-0.303077 147:-0.928649 148:-0.99399 149:-0.999991 150:0.334685 151:0.343988 152:-0.346267 153:-0.937035 154:-0.975528 155:-0.999988 156:0.150176 157:0.0619469 158:-0.435732 159:-0.942483 160:-0.996103 161:-0.999992 162:0.359209 163:0.514554 164:-0.212523 165:-0.946248 166:-0.99714 167:-0.999992 168:0.340454 169:-0.0535077 170:-0.517954 171:-0.963904 172:0.687543 173:-1 174:0.817724 175:0.99575 176:0.0642609 177:-0.966505 178:-0.995975 179:-0.999996 180:0.576204 
0.1679275465808518 1:0.887077 2:0.00182684 3:-0.520706 4:-0.980961 5:-0.999978 7:0.891093 8:-0.236642 9:-0.466125 10:-0.979344 11:-0.999972 12:-0.365588 13:0.752785 14:-0.0985089 15:-0.451778 16:-0.912986 17:-0.999969 18:-0.297066 19:0.170769 20:-0.403256 21:-0.461565 22:-0.441079 23:-0.999969 24:-0.308123 25:0.594235 26:-0.209073 27:-0.432369 28:-0.977416 29:-0.999969 30:-0.294656 31:0.971392 32:-0.0184427 33:-0.403869 34:-0.986922 35:-0.99997 36:-0.349288 37:0.638331 38:-0.284586 39:-0.455568 40:-0.98213 41:-0.999972 42:-0.447926 43:0.980728 44:0.112122 45:-0.447567 46:-0.99398 47:-0.999971 48:-0.423845 49:-0.382549 50:-0.765079 51:-0.448007 52:-0.995883 53:-0.999969 54:-0.303288 55:0.474855 56:-0.246557 57:-0.438165 58:-0.993639 59:-0.999974 60:-0.69399 61:-0.0719375 62:-0.563554 63:-0.440882 64:-0.99509 65:-0.999975 66:-0.758627 67:-0.255646 68:-0.684558 69:-0.425425 70:-0.98903 71:-0.999969 72:-0.304551 73:0.594376 74:-0.214081 75:-0.480927 76:-0.995227 77:-0.99998 78:-0.388815 79:-0.374561 80:-0.691028 81:-0.485141 82:-0.992792 83:-0.999969 84:-0.29238 85:0.608221 86:-0.235371 87:-0.51606 88:-0.994394 89:-0.999975 90:-0.412055 91:0.464168 92:-0.331419 93:-0.52999 94:-0.994233 95:-0.999981 96:-0.416535 97:-0.286454 98:-0.639715 99:-0.562046 100:-0.9959 101:-0.999973 102:-0.494131 103:0.836239 104:-0.140341 105:-0.624344 106:-0.996349 107:-0.999983 108:-0.395211 109:0.822662 110:-0.242382 111:-0.632613 112:-0.996061 113:-0.999996 114:0.321504 115:0.500075 116:-0.0973396 117:-0.632517 118:-0.995059 119:-0.999981 120:-0.779591 121:0.611908 122:-0.274071 123:-0.63916 124:-0.995851 125:-0.99998 126:-0.686728 127:0.491173 128:-0.341615 129:-0.633742 130:-0.995239 131:-0.999973 132:-0.432687 133:0.951929 134:0.0224017 135:-0.6766 136:-0.996092 137:-0.999982 138:-0.577603 139:-0.287161 140:-0.639795 141:-0.677914 142:-0.995074 143:-0.999976 144:-0.580289 145:-0.88279 146:-0.943434 147:-0.715485 148:-0.990774 149:-0.999979 150:-0.681407 151:-0.158188 152:-0.590532 153:-0.713052 154:-0.995468 155:-0.999986 156:-0.389579 157:-0.106091 158:-0.525516 159:-0.723119 160:-0.996559 161:-0.999975 162:-0.528846 163:-0.246781 164:-0.608372 165:-0.72182 166:-0.997626 167:-0.999981 168:-0.604279 169:0.0366024 170:-0.472061 171:-0.720633 172:-0.98915 173:-0.999981 174:-0.550956 175:-0.675099 176:-0.829019 177:-0.724654 178:-0.996759 179:-0.999981 180:-0.655451 
0.1650278786032707 1:-0.464093 2:-0.715493 3:0.129633 4:-0.995545 5:-0.999975 7:-0.0195263 8:-0.605127 9:0.242745 10:-0.996429 11:-0.999974 12:-0.974275 13:0.826045 14:-0.0608298 15:0.220999 16:-0.455737 17:-0.99997 18:-0.678584 19:0.306989 20:-0.333067 21:0.168872 22:-0.995388 23:-0.999976 24:-0.977636 25:0.627323 26:-0.192589 27:0.170448 28:-0.99213 29:-0.999976 30:-0.820846 31:0.0346202 32:-0.484862 33:-0.0358006 34:-0.996652 35:-0.999978 36:-0.796432 37:-0.21653 38:-0.658569 39:-0.211656 40:-0.998307 41:-0.999979 42:-0.735858 43:-0.00652506 44:-0.442192 45:-0.427823 46:-0.99917 47:-0.999986 48:-0.330532 49:-0.13167 50:-0.669627 51:-0.427458 52:-0.998792 53:-0.999986 54:-0.316977 55:0.257379 56:-0.357656 57:-0.45305 58:-0.998955 59:-0.999988 60:-0.18512 61:0.149734 62:-0.459307 63:-0.505056 64:-0.9986 65:-0.999987 66:-0.259802 67:-0.478359 68:-0.778939 69:-0.585799 70:-0.997117 71:-0.99999 72:-0.0995706 73:-0.417039 74:-0.71264 75:-0.580775 76:-0.998417 77:-0.99999 78:-0.0668531 79:0.133717 80:-0.439934 81:-0.74505 82:-0.998531 83:-0.999988 84:-0.179598 85:0.26921 86:-0.396553 87:-0.770683 88:-0.998944 89:-0.999988 90:-0.199406 91:1 92:-0.0867433 93:-0.761885 94:-0.996383 95:-0.999982 96:-0.523061 97:0.537179 98:-0.223845 99:-0.759964 100:-0.998167 101:-0.999989 102:-0.120701 103:0.469204 104:-0.313245 105:-0.810841 106:-0.999233 107:-0.999991 108:-0.0393919 109:0.30636 110:-0.456991 111:-0.846867 112:-0.997871 113:-0.999992 114:0.0441856 115:0.981479 116:0.194118 117:-0.840574 118:-0.997334 119:-0.999992 120:0.00876995 121:1 122:-0.0992921 123:-0.850239 124:-0.994213 125:-0.999994 126:0.196609 127:0.974506 128:-0.127108 129:-0.857677 130:-0.989791 131:-0.999989 132:-0.0943622 133:0.435645 134:-0.248023 135:-0.868628 136:-0.999346 137:-0.999992 138:-0.00672059 139:-0.142214 140:-0.566552 141:-0.898949 142:-0.995967 143:-0.999995 144:0.230147 145:0.964912 146:-0.0517345 147:-0.899337 148:-0.995412 149:-0.999996 150:0.251999 151:0.915812 152:-0.0681239 153:-0.926124 154:-0.978908 155:-0.999993 156:0.0611713 157:0.987905 158:0.0590176 159:-0.929503 160:-0.99892 161:-0.99999 162:-0.104308 163:0.956058 164:0.0170321 165:-0.974384 166:-0.991233 167:-0.999999 168:0.4022 169:-0.0492769 170:-0.515799 171:-0.972551 172:1 173:-1 174:0.478423 175:0.998334 176:0.0656426 177:-0.966316 178:-0.994859 179:-0.999997 180:0.304821 
0.1650408214402505 1:0.193839 2:-0.366205 3:-0.108662 4:-0.980624 5:-0.999972 7:0.653266 8:-0.332879 9:-0.148556 10:-0.98133 11:-0.99998 12:-0.373548 13:0.722152 14:-0.114264 15:-0.188508 16:-0.969398 17:-0.999973 18:-0.946282 19:0.7273 20:-0.116499 21:-0.259514 22:-0.980443 23:-0.999972 24:-0.962836 25:0.551972 26:-0.230129 27:-0.299687 28:-0.935645 29:-0.999972 30:-0.90977 31:0.00312942 32:-0.500541 33:-0.295859 34:-0.701097 35:-0.999971 36:-0.914558 37:-0.636415 38:-0.84226 39:-0.301955 40:-0.99444 41:-0.999972 42:-0.958817 43:-0.269378 44:-0.589776 45:-0.32398 46:-0.996641 47:-0.999973 48:-0.877177 49:0.745915 50:-0.335733 51:-0.378623 52:-0.993991 53:-0.999977 54:-0.596216 55:0.588391 56:-0.188556 57:-0.310098 58:-0.9969 59:-0.999975 60:-0.799945 61:-0.769203 62:-0.891461 63:-0.33301 64:-0.995168 65:-0.999972 66:-0.9784 67:0.359976 68:-0.42367 69:-0.347695 70:-0.987246 71:-0.999976 72:-0.783685 73:0.0988932 74:-0.45832 75:-0.325249 76:-0.992031 77:-0.999972 78:-0.943081 79:0.251344 80:-0.381825 81:-0.326353 82:-0.989473 83:-0.999979 84:-0.503051 85:0.703067 86:-0.190276 87:-0.386583 88:-0.99664 89:-0.999982 90:-0.410671 91:-0.292456 92:-0.676915 93:-0.378773 94:-0.996211 95:-0.999979 96:-0.493183 97:0.679245 98:-0.152112 99:-0.484326 100:-0.995234 101:-0.999977 102:-0.732048 103:0.238053 104:-0.422137 105:-0.523811 106:-0.997585 107:-0.999977 108:-0.740508 109:0.397794 110:-0.418985 111:-0.59605 112:-0.994747 113:-0.999982 114:-0.420852 115:0.803273 116:0.0862264 117:-0.582295 118:-0.993044 119:-0.999993 120:0.434366 121:-0.831173 122:-0.923968 123:-0.628112 124:-0.834111 125:-0.999971 126:-0.936804 127:0.594591 128:-0.295717 129:-0.623876 130:-0.995642 131:-0.999997 132:0.687299 133:-0.893056 134:-0.943984 135:-0.734864 136:-0.995534 137:-0.999978 138:-0.668697 139:0.558024 140:-0.212714 141:-0.747507 142:-0.997632 143:-0.999986 144:-0.188632 145:0.682269 146:-0.188138 147:-0.75887 148:-0.997049 149:-0.999991 150:0.0759223 151:0.601763 152:-0.220882 153:-0.77077 154:-0.995334 155:-0.999997 156:0.529368 157:0.834953 158:-0.0227065 159:-0.794803 160:-0.996866 161:-0.99999 162:0.0558245 163:0.820418 164:-0.0534924 165:-0.83246 166:-0.997488 167:-0.999992 168:0.216139 169:0.327402 170:-0.323957 171:-0.842047 172:-0.99529 173:-0.999984 174:-0.326299 175:-0.708342 176:-0.846792 177:-0.849004 178:-0.984501 179:-0.999978 180:-0.643684 
0.1646266410853247 1:0.627165 2:-0.136158 3:-0.242257 4:-0.283367 5:-0.99997 7:1 8:-0.192572 9:-0.153135 10:-0.989251 11:-0.99997 12:-0.974363 13:0.893577 14:-0.0260965 15:-0.278196 16:-0.97136 17:-0.999974 18:-0.696209 19:1 20:0.0240117 21:-0.229781 22:-0.979496 23:-0.999974 24:-0.756147 25:0.348272 26:-0.331611 27:-0.238504 28:-0.993748 29:-0.999977 30:-0.550407 31:0.0383447 32:-0.483008 33:-0.344004 34:-0.996207 35:-0.999976 36:-0.642033 37:0.93002 38:-0.156978 39:-0.478832 40:-0.994264 41:-0.999976 42:-0.547469 43:0.130102 44:-0.36548 45:-0.47082 46:-0.998562 47:-0.999976 48:-0.650903 49:-0.944815 50:-0.979004 51:-0.472645 52:-0.997368 53:-0.999985 54:-0.0791578 55:0.950857 56:-0.00338651 57:-0.442068 58:-0.994986 59:-0.999982 60:-0.255933 61:0.46435 62:-0.311351 63:-0.609756 64:-0.996918 65:-0.999981 66:-0.3085 67:-0.417276 68:-0.753053 69:-0.640798 70:-0.993538 71:-0.999987 72:0.0354057 73:-0.404114 74:-0.706269 75:-0.781117 76:-0.991809 77:-0.999991 78:0.375084 79:-0.411369 80:-0.709211 81:-0.778635 82:-0.996717 83:-0.999988 84:0.198031 85:0.0242302 86:-0.513029 87:-0.774319 88:-0.998605 89:-0.999989 90:0.177282 91:-0.00851284 92:-0.547259 93:-0.765062 94:-0.995629 95:-0.999986 96:0.0348163 97:0.118989 98:-0.434998 99:-0.773197 100:-0.997557 101:-0.999988 102:0.115525 103:0.944505 104:-0.0893389 105:-0.764698 106:-0.998747 107:-0.999986 108:-0.0407963 109:0.686504 110:-0.298978 111:-0.76788 112:-0.996304 113:-0.999993 114:0.456401 115:0.128148 116:-0.322516 117:-0.874455 118:-0.984663 119:-0.99999 120:0.206585 121:0.704264 122:-0.232478 123:-0.891343 124:-0.995719 125:-0.999994 126:0.52348 127:0.631739 128:-0.27923 129:-0.901087 130:-0.997393 131:-0.999991 132:0.289626 133:0.976197 134:0.035113 135:-0.924597 136:-0.998592 137:-0.999997 138:0.661179 139:0.811333 140:-0.0847141 141:-0.93101 142:-0.998828 143:-0.999997 144:0.659325 145:0.762454 146:-0.14944 147:-0.936553 148:-0.996609 149:-0.999998 150:0.693833 151:0.713564 152:-0.1665 153:-0.947315 154:-0.981093 155:-0.999998 156:0.696723 157:0.665806 158:-0.113083 159:-0.966838 160:-0.995754 161:-0.999993 162:0.38377 163:0.967123 164:0.022785 165:-0.970099 166:-0.997193 167:-0.999993 168:0.374611 169:-0.0501288 170:-0.516233 171:-0.973417 172:0.888743 173:-1 174:0.787417 175:0.896987 176:0.0114595 177:-0.990249 178:-0.992592 179:-0.999994 180:0.42211 
0.1625828515436828 1:0.359239 2:-0.278396 3:0.0903295 4:-0.651429 5:-0.99997 7:0.845121 8:-0.255244 9:0.126548 10:-0.772271 11:-0.99997 12:-0.986627 13:0.664309 14:-0.144014 15:-0.0637237 16:-0.976784 17:-0.999976 18:-0.52121 19:0.310194 20:-0.331416 21:-0.130838 22:-0.970217 23:-0.999973 24:-0.782796 25:0.122767 26:-0.443956 27:-0.144285 28:-0.989444 29:-0.999976 30:-0.597527 31:0.490071 32:-0.258093 33:-0.113373 34:-0.993678 35:-0.999972 36:-0.853467 37:0.572237 38:-0.313501 39:-0.161214 40:-0.995743 41:-0.999974 42:-0.743289 43:0.360625 44:-0.236048 45:-0.196818 46:-0.994631 47:-0.999976 48:-0.636085 49:0.283488 50:-0.511672 51:-0.466324 52:-0.989502 53:-0.999979 54:-0.4375 55:0.531448 56:-0.217645 57:-0.438131 58:-0.9937 59:-0.999977 60:-0.522071 61:0.0122121 62:-0.523981 63:-0.477816 64:-0.983376 65:-0.999984 66:-0.0541738 67:0.166307 68:-0.505743 69:-0.554228 70:-0.893071 71:-0.999983 72:-0.213962 73:0.574678 74:-0.223791 75:-0.556045 76:-0.995039 77:-0.999981 78:-0.322762 79:-0.11564 80:-0.563118 81:-0.597333 82:-0.993257 83:-0.999988 84:0.233659 85:-0.183534 86:-0.611811 87:-0.6524 88:-0.995455 89:-0.999989 90:0.255999 91:-0.0487295 92:-0.565623 93:-0.665621 94:-0.975868 95:-0.999988 96:0.140079 97:0.170034 98:-0.409224 99:-0.68068 100:-0.987056 101:-0.999985 102:-0.020864 103:0.00312516 104:-0.532808 105:-0.77536 106:-0.99551 107:-0.999989 108:0.122251 109:0.563349 110:-0.350169 111:-0.787581 112:-0.983801 113:-0.999984 114:-0.103622 115:0.972874 116:0.188908 117:-0.846572 118:-0.994056 119:-0.999997 120:0.598817 121:0.344902 122:-0.394318 123:-0.893734 124:-0.986805 125:-0.999988 126:0.127956 127:0.687361 128:-0.254545 129:-0.941681 130:-0.993988 131:-0.999989 132:0.198367 133:0.367417 134:-0.28376 135:-0.940998 136:-0.995962 137:-0.999988 138:0.0718881 139:0.0922144 140:-0.448092 141:-0.964118 142:-0.985684 143:-0.999993 144:0.418035 145:0.394785 146:-0.326877 147:-0.971284 148:-0.994121 149:-0.999994 150:0.446047 151:0.869424 152:-0.0906874 153:-0.970543 154:-0.992753 155:-0.999995 156:0.480306 157:-0.0761351 158:-0.509511 159:-0.973479 160:0.886078 161:-1 162:0.826907 163:0.621601 164:-0.156865 165:-0.97494 166:-0.996158 167:-0.999989 168:0.153129 169:0.53958 170:-0.215896 171:-0.984533 172:-0.994507 173:-0.99999 174:0.178096 175:0.518949 176:-0.19065 177:-0.978003 178:-0.994172 179:-0.999992 180:0.344616 
0.1637154319506374 1:-0.122761 2:-0.534284 3:0.869064 4:-0.922288 5:-0.999969 7:0.810665 8:-0.269187 9:0.469107 10:-0.734872 11:-0.999969 12:-0.968525 13:0.396309 14:-0.281851 15:0.446047 16:-0.989895 17:-0.99997 18:-0.954145 19:-0.0995361 20:-0.542533 21:0.426078 22:-0.960764 23:-0.999974 24:-0.730097 25:0.749258 26:-0.131842 27:0.397815 28:-0.993054 29:-0.99997 30:-0.976384 31:-0.101831 32:-0.552801 33:0.417751 34:-0.997505 35:-0.999974 36:-0.725094 37:0.596654 38:-0.302819 39:0.356442 40:-0.994882 41:-0.999977 42:-0.513199 43:-0.341666 44:-0.630364 45:0.2516 46:-0.999034 47:-0.999978 48:-0.498087 49:-0.038405 50:-0.634143 51:-0.0966036 52:-0.995167 53:-0.999982 54:-0.210809 55:0.764785 56:-0.0984433 57:-0.0187499 58:-0.997084 59:-0.999976 60:-0.601802 61:-0.136683 62:-0.594002 63:-0.369254 64:-0.997965 65:-0.999988 66:0.162672 67:-0.0463527 68:-0.595864 69:-0.363491 70:-0.994921 71:-0.999987 72:0.0494783 73:-0.251904 74:-0.631239 75:-0.398705 76:-0.99795 77:-0.999989 78:0.167118 79:-0.147358 80:-0.578787 81:-0.418201 82:-0.995818 83:-0.999988 84:0.161819 85:0.377897 86:-0.344878 87:-0.476572 88:-0.997325 89:-0.999986 90:0.0171851 91:0.341212 92:-0.387565 93:-0.593833 94:-0.99809 95:-0.999988 96:0.165859 97:0.0061781 98:-0.491959 99:-0.670371 100:-0.988769 101:-0.99999 102:0.260025 103:0.770042 104:-0.171526 105:-0.675598 106:-0.998227 107:-0.999987 108:0.0234055 109:0.985423 110:-0.174728 111:-0.813383 112:-0.998808 113:-0.999991 114:0.395266 115:0.991295 116:0.200061 117:-0.814517 118:-0.996386 119:-0.999991 120:0.31576 121:0.341049 122:-0.396053 123:-0.831974 124:-0.988532 125:-0.999991 126:0.343859 127:0.952321 128:-0.136954 129:-0.848742 130:-0.994202 131:-0.999994 132:0.52337 133:0.985488 134:0.0399798 135:-0.849038 136:-0.991162 137:-0.999996 138:0.575568 139:0.987331 140:0.00421987 141:-0.900536 142:-0.996346 143:-0.999999 144:0.897849 145:0.949962 146:-0.0589495 147:-0.910198 148:-0.999032 149:-0.999992 150:0.368429 151:0.712123 152:-0.167201 153:-0.911234 154:-0.995025 155:-0.999992 156:0.36153 157:0.956142 158:0.0420461 159:-0.928814 160:-0.996974 161:-0.999999 162:0.884523 163:0.924887 164:0.000824994 165:-0.962719 166:-0.995242 167:-0.999997 168:0.663357 169:0.978247 170:0.00751629 171:-0.963365 172:-0.995373 173:-0.999998 174:0.690672 175:-0.0533371 176:-0.496609 177:-0.970457 178:0.831323 179:-1 180:0.818132 
0.1608454094040964 1:-0.0742827 2:-0.339872 3:0.0308869 4:-0.946302 5:-0.999969 7:0.0288337 8:-0.442321 9:-0.136528 10:-0.984261 11:-0.999968 12:-0.907768 13:0.117222 14:-0.226087 15:-0.781529 16:-0.95765 17:-0.99998 18:-0.384747 19:0.654433 20:0.139012 21:-0.743185 22:-0.984941 23:-0.999986 24:-0.00186438 25:0.724486 26:0.150592 27:-0.720355 28:-0.992512 29:-0.999982 30:-0.244034 31:0.44835 32:-0.0301451 33:-0.737897 34:-0.99276 35:-0.99999 36:0.301869 37:-0.415501 38:-0.655174 39:-0.757599 40:-0.990809 41:-0.999983 42:-0.198325 43:0.305117 44:-0.0152492 45:-0.794768 46:-0.996373 47:-0.999988 48:0.077102 49:0.156164 50:-0.406472 51:-0.797311 52:-0.994307 53:-0.999988 54:0.173023 55:0.297938 56:-0.10998 57:-0.795632 58:-0.996915 59:-0.999989 60:0.212096 61:-0.183695 62:-0.484351 63:-0.80225 64:-0.994897 65:-0.999987 66:0.102568 67:-0.000594062 68:-0.427791 69:-0.846883 70:-0.973954 71:-0.999994 72:0.534032 73:0.230987 74:-0.182208 75:-0.854626 76:-0.990715 77:-0.999996 78:0.649554 79:-0.47867 80:-0.649447 81:-0.880184 82:-0.995632 83:-0.999995 84:0.631188 85:0.13497 86:-0.270012 87:-0.888356 88:-0.994378 89:-0.99999 90:0.274075 91:0.618824 92:-0.00709145 93:-0.8823 94:-0.992525 95:-0.999993 96:0.50036 97:0.21801 98:-0.173635 99:-0.881004 100:-0.994347 101:-0.999992 102:0.358479 103:0.187904 104:-0.249961 105:-0.890168 106:-0.989389 107:-0.999993 108:0.418349 109:0.251176 110:-0.301953 111:-0.887237 112:-0.99313 113:-0.999993 114:0.501879 115:-0.0616362 116:-0.241323 117:-0.894104 118:-0.990011 119:-0.999992 120:0.370892 121:0.606789 122:-0.0279867 123:-0.915554 124:-0.991808 125:-0.999996 126:0.614273 127:0.901624 128:0.129014 129:-0.923395 130:-0.995159 131:-1 132:0.859263 133:0.750593 134:0.232338 135:-0.931967 136:-0.994737 137:-0.999992 138:0.362685 139:0.153889 140:-0.21151 141:-0.946479 142:-0.991563 143:-0.999996 144:0.659071 145:0.684201 146:0.0903534 147:-0.944931 148:-0.997233 149:-0.999996 150:0.64098 151:0.785834 152:0.166587 153:-0.945776 154:-0.996654 155:-0.999996 156:0.632383 157:0.448494 158:0.0360243 159:-0.946134 160:-0.988545 161:-0.999999 162:0.790379 163:0.305477 164:-0.0867047 165:-0.949885 166:-0.997146 167:-0.999994 168:0.464611 169:0.881905 170:0.284265 171:-0.97261 172:-0.995894 173:-0.999997 174:0.678817 175:-0.0455836 176:-0.316992 177:-0.977488 178:0.775902 179:-1 180:0.810938 
0.1649284032611005 1:-0.80636 2:-0.897199 3:0.104417 4:-0.793104 5:-0.999968 7:0.238081 8:-0.500885 9:-0.101649 10:-0.570304 11:-0.999968 12:-0.988639 13:0.809315 14:-0.0694345 15:-0.0973698 16:-0.978446 17:-0.999971 18:-0.738561 19:0.798909 20:-0.0796018 21:-0.0664049 22:-0.96613 23:-0.999979 24:-0.146159 25:-0.818291 26:-0.912785 27:-0.0498822 28:-0.993336 29:-0.999971 30:-0.797124 31:-0.174238 32:-0.588852 33:-0.00201721 34:-0.991583 35:-0.999972 36:-0.692766 37:0.700872 38:-0.257226 39:0.0319932 40:-0.99524 41:-0.99997 42:-0.84955 43:0.873825 44:0.0520995 45:0.0510819 46:-0.996193 47:-0.99997 48:-0.828717 49:0.85676 50:-0.29356 51:0.0208393 52:-0.993496 53:-0.99997 54:-0.85587 55:0.373373 56:-0.298399 57:0.0604575 58:-0.996481 59:-0.999984 60:0.154264 61:0.806488 62:-0.150451 63:0.0359806 64:-0.985225 65:-0.999975 66:-0.409643 67:0.880802 68:-0.202954 69:0.00334738 70:-0.982622 71:-0.99997 72:-0.905462 73:-0.716032 74:-0.860023 75:0.0296823 76:-0.995241 77:-0.99998 78:0.152229 79:0.881598 80:-0.0704737 81:0.0402711 82:-0.995867 83:-0.999969 84:-0.937343 85:0.34523 86:-0.36041 87:0.0451904 88:-0.994273 89:-0.999972 90:-0.692285 91:-0.704519 92:-0.865075 93:-0.0523187 94:-0.965133 95:-0.999984 96:0.367777 97:0.99288 98:0.00624865 99:-0.170641 100:-0.993897 101:-0.999982 102:0.075022 103:0.510664 104:-0.293714 105:-0.265423 106:-0.995076 107:-0.999976 108:-0.511928 109:-0.698763 110:-0.874786 111:-0.25426 112:-0.995024 113:-0.999978 114:-0.138107 115:0.854715 116:0.117371 117:-0.258296 118:-0.99482 119:-0.999977 120:-0.444877 121:-0.735387 122:-0.88083 123:-0.278589 124:-0.938821 125:-0.999981 126:0.217189 127:0.342602 128:-0.407552 129:-0.343827 130:-0.986761 131:-0.99998 132:0.131035 133:0.737729 134:-0.0897944 135:-0.354666 136:-0.994084 137:-0.999982 138:-0.109542 139:0.677477 140:-0.152353 141:-0.40181 142:-0.988323 143:-0.999981 144:0.122287 145:0.416747 146:-0.316279 147:-0.488574 148:-0.946058 149:-0.999982 150:0.235962 151:0.748051 152:-0.149725 153:-0.485541 154:-0.996381 155:-0.999996 156:0.752839 157:0.378996 158:-0.266329 159:-0.484392 160:-0.996151 161:-0.999979 162:-0.274625 163:-0.666893 164:-0.826805 165:-0.55185 166:-0.977492 167:-0.999985 168:0.338235 169:0.73204 170:-0.117876 171:-0.549611 172:-0.992331 173:-0.999995 174:0.662992 175:0.407479 176:-0.250244 177:-0.555126 178:-0.996411 179:-0.999993 180:0.545435 
