svm_type epsilon_svr
kernel_type rbf
gamma 8
nr_class 2
total_sv 647
rho -8.97895
SV
-8807.359968442095 1:-0.142857 2:-0.2 3:0.207547 4:-0.045045 5:-1 6:-1 7:-1 8:-1 9:-1 10:0.519336 11:0.518294 12:0.518286 13:-1 
32768 1:-0.142857 2:-0.2 3:0.207547 4:-0.045045 5:-1 6:-1 7:-1 8:-1 9:-1 10:0.516577 11:0.515536 12:0.515528 13:-1 
-0.0007895134626453469 1:-0.142857 2:-0.6 3:0.0188679 4:-0.045045 5:-1 6:-1 7:-1 8:-1 9:-1 10:0.667132 11:0.661839 12:0.664596 13:-0.636364 
-0.0008389445244870149 1:-0.142857 2:0.2 3:0.396226 4:-0.045045 5:-1 6:-1 7:-1 8:-1 9:-1 10:0.330115 11:0.326435 12:0.32781 13:-0.636364 
-0.1814642741425612 1:-0.0714286 2:0.2 3:0.132075 4:0.459459 5:-1 6:-1 7:-1 8:1 9:-1 10:0.654693 11:0.642509 12:0.648025 13:-0.0909091 
-15118.68255963588 1:0.5 2:0.2 3:-0.132075 4:-0.045045 5:-1 6:-1 7:-1 8:-1 9:-1 10:-0.0483415 11:-0.0489938 12:-0.0490021 13:0.818182 
15472.33347258907 1:0.5 2:0.2 3:-0.132075 4:-0.045045 5:-1 6:-1 7:-1 8:-1 9:-1 10:-0.0469575 11:-0.0476108 12:-0.047619 13:0.818182 
-32600.11000903996 1:-0.142857 2:-0.2 3:0.207547 4:-0.045045 5:-1 6:-1 7:-1 8:-1 9:-1 10:0.519336 11:0.518294 12:0.518286 13:-1 
32768 1:-0.142857 2:-0.2 3:0.207547 4:-0.045045 5:-1 6:-1 7:-1 8:-1 9:-1 10:0.516577 11:0.515536 12:0.515528 13:-1 
-1.892149706417778 1:-0.142857 2:-0.6 3:0.0188679 4:-0.045045 5:-1 6:-1 7:-1 8:-1 9:-1 10:0.667132 11:0.661839 12:0.664596 13:-0.636364 
-61.125334833629 1:-0.142857 2:0.2 3:0.396226 4:-0.045045 5:-1 6:-1 7:-1 8:-1 9:-1 10:0.330115 11:0.326435 12:0.32781 13:-0.636364 
44.15537155858838 1:-0.142857 2:0.6 3:0.584906 4:-0.045045 5:-1 6:-1 7:-1 8:-1 9:-1 10:-0.383977 11:-0.391304 12:-0.388544 13:-0.272727 
32460.30147792218 1:-0.357143 2:0.2 3:0.584906 4:-0.045045 5:-1 6:-1 7:-1 8:-1 9:-1 10:0.863259 11:0.863354 12:0.863354 13:-1 
-32768 1:-0.357143 2:0.2 3:0.584906 4:-0.045045 5:-1 6:-1 7:-1 8:-1 9:-1 10:0.861875 11:0.861971 12:0.861971 13:-1 
-53.60217909347978 1:-0.357143 2:0.6 3:0.773585 4:-0.045045 5:-1 6:-1 7:-1 8:-1 9:-1 10:-0.447513 11:-0.454791 12:-0.452036 13:-0.272727 
-4.032524746064375 1:-0.0714286 2:0.644444 3:0.471698 4:0.63964 5:-1 6:-1 7:-1 8:1 9:-1 10:-0.341159 11:-0.348513 12:-0.344378 13:-0.454545 
-0.01864161384474412 1:-0.785714 2:-0.2 3:0.773585 4:-0.153153 5:-1 6:-0.333333 7:-1 8:-1 9:-1 10:-0.0386702 11:-0.044853 12:-0.0420952 13:-0.454545 
-1.61194665526664 1:-0.785714 2:-0.6 3:0.584906 4:-0.045045 5:-1 6:-1 7:-1 8:-1 9:-1 10:0.707185 11:0.697723 12:0.701863 13:0.0909091 
4.857838845734674 1:0.928571 2:0.2 3:-0.396226 4:-0.603604 5:-1 6:-1 7:-1 8:1 9:-1 10:0.0662968 11:0.0545176 12:0.0600331 13:-0.0909091 
-5.546831261511181 1:-0.0714286 2:0.2 3:0.0943396 4:0.459459 5:-1 6:-1 7:-1 8:1 9:-1 10:0.624312 11:0.613524 12:0.617665 13:0.0909091 
-238.3565623602784 1:0.285714 2:0.2 3:0.0188679 4:-0.045045 5:-1 6:-1 7:-1 8:-1 9:-1 10:-0.00413951 11:-0.0062029 12:-0.00482816 13:-0.818182 
258.5836161950144 1:0.285714 2:0.2 3:0.0188679 4:-0.045045 5:-1 6:-1 7:-1 8:-1 9:-1 10:-0.00137984 11:-0.00344513 12:-0.00207039 13:-0.818182 
59.72915405734174 1:0.5 2:-0.2 3:-0.283019 4:-0.045045 5:-1 6:-1 7:-1 8:-1 9:-1 10:0.0331534 11:0.0310642 12:0.0324389 13:-0.818182 
-5.318200530079664 1:0.0714286 2:-0.2 3:0.0188679 4:-0.045045 5:-1 6:-1 7:-1 8:-1 9:-1 10:0.563541 11:0.554178 12:0.558319 13:0.0909091 
-7.244382934692426 1:-0.190476 2:-0.0222222 3:0.132075 4:0.63964 5:-1 6:-1 7:-1 8:1 9:-1 10:0.642262 11:0.63147 12:0.635602 13:0.0909091 
8.926516988593075 1:0.0714286 2:-0.2 3:0.0188679 4:-0.261261 5:-1 6:-1 7:-1 8:-1 9:-1 10:0.400552 11:0.389921 12:0.395437 13:-0.272727 
3.469474160853279 1:0.285714 2:-0.6 3:-0.283019 4:-0.045045 5:-1 6:-1 7:-0.5 8:-1 9:-1 10:0.711328 11:0.70048 12:0.704621 13:-0.0909091 
4.395238419185745 1:-0.0714286 2:-0.466667 3:-0.207547 4:0.0990991 5:-1 6:-1 7:-1 8:1 9:-1 10:0.40746 11:0.402352 12:0.403727 13:0.454545 
3.334022715152769 1:1 2:-0.466667 3:-1 4:0.63964 5:-1 6:-1 7:-1 8:1 9:-1 10:0.154695 11:0.142857 12:0.148373 13:-0.0909091 
-12932.75224770528 1:-0.357143 2:0.6 3:0.773585 4:-0.045045 5:-1 6:-1 7:-1 8:-1 9:-1 10:-0.379834 11:-0.391304 12:-0.385789 13:-0.0909091 
-32768 1:-0.357143 2:0.6 3:0.773585 4:-0.045045 5:-1 6:-1 7:-1 8:-1 9:-1 10:-0.395027 11:-0.406484 12:-0.400971 13:-0.0909091 
32768 1:-0.357143 2:0.6 3:0.773585 4:-0.045045 5:-1 6:-1 7:-1 8:-1 9:-1 10:-0.389502 11:-0.400969 12:-0.395451 13:-0.0909091 
12530.85223060517 1:-0.357143 2:0.6 3:0.773585 4:-0.045045 5:-1 6:-1 7:-1 8:-1 9:-1 10:-0.392265 11:-0.403727 12:-0.398211 13:-0.0909091 
-36.81762647163082 1:-0.571429 2:0.2 3:0.773585 4:-0.153153 5:-1 6:-1 7:-1 8:-1 9:-1 10:0.970994 11:0.959975 12:0.965491 13:-0.272727 
-10.28349612967402 1:0.285714 2:0.2 3:0.0188679 4:-0.261261 5:-1 6:-1 7:-1 8:-1 9:-1 10:0.598074 11:0.587304 12:0.59282 13:-0.272727 
-4.493392398260164 1:-0.142857 2:0.6 3:0.584906 4:-0.81982 5:-1 6:-1 7:-1 8:-1 9:-1 10:0.197518 11:0.191172 12:0.19393 13:-0.454545 
-751.8214960702353 1:-0.357143 2:0.6 3:0.773585 4:-0.045045 5:-1 6:-1 7:-1 8:-1 9:-1 10:-0.690608 11:-0.69634 12:-0.693582 13:-0.454545 
784.2653069220252 1:-0.357143 2:0.6 3:0.773585 4:-0.045045 5:-1 6:-1 7:-1 8:-1 9:-1 10:-0.680939 11:-0.686675 12:-0.68392 13:-0.454545 
-5.200360645378193 1:0.0714286 2:0.6 3:0.396226 4:-0.045045 5:1 6:-1 7:-1 8:-1 9:-1 10:0.552494 11:0.541756 12:0.547271 13:-0.272727 
-15333.57880680914 1:-0.785714 2:0.2 3:1 4:-0.603604 6:0.333333 7:-1 8:-1 9:-1 10:0.215472 11:0.206352 12:0.210484 13:-0.272727 
-17456.28534740116 1:-0.785714 2:0.2 3:1 4:-0.603604 6:0.333333 7:-1 8:-1 9:-1 10:0.226519 11:0.217391 12:0.221524 13:-0.272727 
2.655552802241073 1:-0.571429 2:0.2 3:0.773585 4:-0.153153 5:-1 6:0.333333 7:-1 8:-1 9:-1 10:0.314919 11:0.305731 12:0.309863 13:-0.272727 
32768 1:-0.785714 2:0.2 3:1 4:-0.603604 6:0.333333 7:-1 8:-1 9:-1 10:0.220999 11:0.211876 12:0.216008 13:-0.272727 
-2.054651223420858 1:-0.357143 2:1 3:1 4:-0.045045 5:-1 6:-1 7:-1 8:-1 9:-1 10:-0.437844 11:-0.446509 12:-0.442379 13:-0.272727 
38.67267733675081 1:0.5 2:-0.2 3:-0.283019 4:-0.045045 5:-1 6:-1 7:-1 8:-1 9:-1 10:0.180943 11:0.177366 12:0.178741 13:-0.636364 
-62.42480774830327 1:0.5 2:-0.2 3:-0.283019 4:-0.045045 5:-1 6:-1 7:-1 8:-1 9:-1 10:0.0580095 11:0.0545176 12:0.0558923 13:-0.636364 
-23.18335652937552 1:0.285714 2:0.2 3:0.0188679 4:-0.045045 5:-1 6:-1 7:-1 8:-1 9:-1 10:0.0386752 11:0.0351967 12:0.0365714 13:-0.636364 
-16.43914696659317 1:-0.357143 2:-0.2 3:0.396226 4:-0.045045 5:-1 6:-1 7:-1 8:-1 9:-1 10:0.723759 11:0.722576 12:0.722567 13:0.818182 
-32768 1:-0.357143 2:0.2 3:0.584906 4:-0.045045 5:-1 6:-1 7:-1 8:-1 9:-1 10:-0.603591 11:-0.610766 12:-0.606625 13:-0.454545 
13775.42599302171 1:-0.357143 2:0.2 3:0.584906 4:-0.045045 5:-1 6:-1 7:-1 8:-1 9:-1 10:-0.607735 11:-0.614907 12:-0.610766 13:-0.454545 
18998.09784780031 1:-0.357143 2:0.2 3:0.584906 4:-0.045045 5:-1 6:-1 7:-1 8:-1 9:-1 10:-0.600829 11:-0.608008 12:-0.603865 13:-0.454545 
-32716.68256568061 1:0.0714286 2:0.2 3:0.207547 4:-0.045045 5:-1 6:-1 7:-1 8:-1 9:-1 10:0.370167 11:0.36646 12:0.367834 13:-0.636364 
32768 1:0.0714286 2:0.2 3:0.207547 4:-0.045045 5:-1 6:-1 7:-1 8:-1 9:-1 10:0.370167 11:0.36646 12:0.367834 13:-0.636364 
5.857173806755468 1:0.285714 2:-0.2 3:-0.132075 4:-0.045045 5:-1 6:-1 7:-1 8:-1 9:-1 10:0.341159 11:0.333333 12:0.337466 13:-0.272727 
2.916588135357657 1:0.047619 2:-0.0222222 3:-0.132075 4:-0.261261 6:0.333333 7:-1 8:-1 9:-1 10:0.39917 11:0.394062 12:0.395437 13:-0.636364 
-12.58208206019885 1:-0.357143 2:0.2 3:0.584906 4:-0.045045 5:-1 6:-1 7:-1 8:-1 9:-1 10:-0.937845 11:-0.944787 12:-0.940654 13:-0.454545 
-5.841335087491536 1:-0.571429 2:-0.6 3:0.358491 4:-0.045045 5:-1 6:-1 7:-1 8:-1 9:-1 10:0.97929 11:0.971023 12:0.975155 13:-0.454545 
4.773520542325031 1:-0.785714 2:-0.2 3:0.773585 4:-0.657658 5:-1 6:-1 8:-1 9:-1 10:-0.214088 11:-0.222913 12:-0.218772 13:-0.454545 
3.545488362493029 1:0.0714286 2:-0.2 3:0.0188679 4:-0.045045 5:-1 6:-0.333333 7:-1 8:-1 9:-1 10:0.139507 11:0.131818 12:0.135959 13:-0.454545 
3.050738181081437 1:0.285714 2:-1 3:-0.433962 4:-0.045045 5:-1 6:-1 7:-1 8:-1 9:-1 10:0.0662968 11:0.06694 12:0.0655569 13:-1 
1.88013071287078 1:-0.571429 2:0.2 3:0.773585 4:-0.045045 5:-1 6:-1 7:-1 8:-1 9:-1 10:0.896417 11:0.895106 12:0.895097 13:0.818182 
-24111.41042069422 1:-0.142857 2:-0.2 3:0.207547 4:-0.045045 5:-1 6:-1 7:-1 8:-1 9:-1 10:0.511057 11:0.510012 12:0.510004 13:-1 
4.157070970534498 1:0.0714286 2:-0.2 3:0.0188679 4:-0.045045 5:-1 6:-0.333333 7:-0.5 8:-1 9:-1 10:0.453046 11:0.445143 12:0.449275 13:-0.454545 
32768 1:-0.0714286 2:-0.0222222 3:-0.0188679 4:0.63964 5:-1 6:-0.333333 7:-1 8:-1 9:-1 10:0.410223 11:0.402352 12:0.406484 13:-0.454545 
-776.4922186924903 1:-0.0714286 2:-0.0222222 3:-0.0188679 4:0.63964 5:-1 6:-0.333333 7:-1 8:-1 9:-1 10:0.407464 11:0.399594 12:0.403727 13:-0.454545 
8434.659843597363 1:-0.0714286 2:-0.0222222 3:-0.0188679 4:0.63964 5:-1 6:-0.333333 7:-1 8:-1 9:-1 10:0.417127 11:0.409251 12:0.413383 13:-0.454545 
-32768 1:-0.0714286 2:-0.0222222 3:-0.0188679 4:0.63964 5:-1 6:-0.333333 7:-1 8:-1 9:-1 10:0.414367 11:0.406493 12:0.410625 13:-0.454545 
-7674.060557362947 1:-0.0714286 2:-0.0222222 3:-0.0188679 4:0.63964 5:-1 6:-0.333333 7:-1 8:-1 9:-1 10:0.400552 11:0.392687 12:0.39682 13:-0.454545 
6.314467767135535 1:0.0714286 2:-0.2 3:0.0188679 4:-0.045045 5:-1 6:-1 7:-1 8:-1 9:-1 10:0.421273 11:0.413391 12:0.417524 13:-0.454545 
17.97288305926935 1:-0.357143 2:0.2 3:0.584906 4:-0.045045 5:-1 6:-1 7:-1 8:-1 9:-1 10:0.683698 11:0.677019 12:0.679776 13:-0.454545 
2.146573520337107 1:0.714286 2:0.2 3:-0.283019 4:-0.153153 5:-1 6:-1 7:-1 8:-1 9:-1 10:0.0635346 11:0.0586584 12:0.0614161 13:-0.636364 
2.321538586390024 1:0.0714286 2:0.6 3:0.396226 4:-0.045045 5:-1 6:-1 7:-1 8:-1 9:-1 10:-0.26243 11:-0.267081 12:-0.26432 13:-0.636364 
-10.17667178017353 1:0.0714286 2:0.2 3:0.207547 4:-0.045045 5:-1 6:-1 7:-1 8:-1 9:-1 10:0.585643 11:0.579023 12:0.581781 13:-0.636364 
461.859189450782 1:-0.142857 2:0.6 3:0.584906 4:-0.045045 5:-1 6:-1 7:-0.5 8:-1 9:-1 10:0.774859 11:0.770874 12:0.772248 13:-0.636364 
-462.3871265137111 1:-0.142857 2:0.6 3:0.584906 4:-0.045045 5:-1 6:-1 7:-0.5 8:-1 9:-1 10:0.763812 11:0.759834 12:0.761209 13:-0.636364 
4.767164278610704 1:-0.142857 2:0.2 3:0.396226 4:-0.045045 6:-0.333333 7:-1 8:-1 9:-1 10:0.296961 11:0.293308 12:0.294683 13:-0.636364 
1.089531752151528 1:-0.0714286 2:0.2 3:0.207547 4:0.63964 6:0.333333 7:-1 8:-1 9:-1 10:0.382602 11:0.37889 12:0.380265 13:-0.636364 
-4.884941210690118 1:-0.571429 2:0.2 3:0.773585 4:-0.387387 5:-1 6:0.333333 7:-1 8:-1 9:-1 10:0.182319 11:0.178741 12:0.180116 13:-0.636364 
11.92416398547076 1:-0.0714286 2:-0.244444 3:-0.0943396 4:-0.441441 5:-1 6:-1 7:-1 8:-1 9:-1 10:0.327347 11:0.325052 12:0.326427 13:-0.818182 
-397.790979740246 1:0.0714286 2:0.6 3:0.396226 4:-0.045045 5:-1 6:-1 7:-1 8:-1 9:-1 10:0.84255 11:0.832994 12:0.837126 13:-0.272727 
106.0637223061584 1:0.0714286 2:0.6 3:0.396226 4:-0.045045 5:-1 6:-1 7:-1 8:-1 9:-1 10:0.874315 11:0.864737 12:0.86887 13:-0.272727 
-3.040521866819806 1:-0.357143 2:0.2 3:0.584906 4:-0.045045 5:-1 6:-1 7:-1 8:-1 9:-1 10:0.744478 11:0.740513 12:0.741888 13:-0.636364 
-31686.66753603282 1:-0.357143 2:0.2 3:0.584906 4:-0.045045 5:-1 6:-1 7:-1 8:-1 9:-1 10:0.744478 11:0.740513 12:0.741888 13:-0.636364 
5.50903259316706 1:-0.142857 2:-0.2 3:0.207547 4:-0.045045 5:-1 6:-0.333333 7:-1 8:-1 9:-1 10:0.207181 11:0.204969 12:0.206344 13:-0.818182 
-32768 1:0.285714 2:0.2 3:0.0188679 4:-0.045045 5:-1 6:-1 7:-1 8:-1 9:-1 10:0.0469658 11:0.0476273 12:0.047619 13:1 
11.80447777034692 1:-0.357143 2:0.2 3:0.584906 4:-0.045045 5:-1 6:-1 7:-1 8:-1 9:-1 10:0.937854 11:0.936513 12:0.936505 13:0.818182 
615.7117051634328 1:-0.357143 2:-0.2 3:0.396226 4:-0.045045 5:-1 6:-1 7:-1 8:-1 9:-1 10:0.638118 11:0.635611 12:0.636986 13:-0.818182 
-658.6006250438518 1:-0.357143 2:-0.2 3:0.396226 4:-0.045045 5:-1 6:-1 7:-1 8:-1 9:-1 10:0.640886 11:0.638377 12:0.639752 13:-0.818182 
-57.48303729575159 1:-0.142857 2:-0.2 3:0.207547 4:-0.045045 5:-1 6:-1 7:-1 8:-1 9:-1 10:0.570444 11:0.567983 12:0.567975 13:-0.818182 
5.681995632639791 1:0.0714286 2:-0.6 3:-0.132075 4:-0.045045 5:-1 6:-1 7:-1 8:-1 9:-1 10:-0.106353 11:-0.109731 12:-0.108356 13:0.454545 
538.7469365887424 1:-0.357143 2:0.2 3:0.584906 4:-0.045045 5:-1 6:-1 7:-1 8:-1 9:-1 10:0.832878 11:0.831611 12:0.831602 13:-0.818182 
18.39743148590667 1:-0.142857 2:0.2 3:0.396226 4:-0.045045 5:-1 6:-1 7:-1 8:-1 9:-1 10:0.697522 11:0.696348 12:0.69634 13:0.818182 
22.4198162486846 1:0.285714 2:-0.6 3:-0.283019 4:-0.045045 5:-1 6:-1 7:-1 8:-1 9:-1 10:0.24448 11:0.243619 12:0.243619 13:-1 
4.128288940463374 1:0.5 2:-0.6 3:-0.433962 4:-0.045045 5:-1 6:-1 7:-1 8:-1 9:-1 10:0.269342 11:0.268464 12:0.268464 13:-1 
-32768 1:-0.357143 2:-0.2 3:0.396226 4:-0.045045 5:-1 6:-1 7:-1 8:-1 9:-1 10:-0.232044 11:-0.232569 12:-0.232577 13:-1 
32768 1:-0.357143 2:-0.2 3:0.396226 4:-0.045045 5:-1 6:-1 7:-1 8:-1 9:-1 10:-0.23895 11:-0.23947 12:-0.239478 13:-1 
28493.32510822753 1:-0.357143 2:-0.2 3:0.396226 4:-0.045045 5:-1 6:-1 7:-1 8:-1 9:-1 10:-0.234806 11:-0.235329 12:-0.235337 13:-1 
-28525.63133003819 1:-0.357143 2:-0.2 3:0.396226 4:-0.045045 5:-1 6:-1 7:-1 8:-1 9:-1 10:-0.243093 11:-0.243611 12:-0.243619 13:-1 
158.1509162592457 1:-0.571429 2:-0.2 3:0.584906 4:-0.045045 5:-1 6:-1 7:-1 8:-1 9:-1 10:-0.245855 11:-0.246369 12:-0.246379 13:-1 
-0.1061577712361507 1:-0.357143 2:-0.2 3:0.396226 4:-0.045045 5:-1 6:-1 7:-0.5 8:-1 9:-1 10:0.751381 11:0.750178 12:0.75017 13:-1 
0.1490127970679335 1:-1 2:-0.2 3:1 4:-0.261261 5:-1 6:-1 7:-1 8:-1 9:-1 10:0.549726 11:0.550037 12:0.550029 13:-1 
4.649035372247665 1:0.0714286 2:-0.6 3:-0.132075 4:-0.045045 5:-1 6:-1 7:-0.5 8:-1 9:-1 10:0.0718244 11:0.0724638 12:0.0724638 13:-1 
-4.894743044785949 1:-0.142857 2:-0.2 3:0.207547 4:-0.261261 5:-1 6:-1 7:-1 8:-1 9:-1 10:0.81492 11:0.810907 12:0.812282 13:0.636364 
-4.39533787842409 1:0.0714286 2:-0.2 3:0.0188679 4:-0.387387 5:-1 6:-1 7:-0.5 8:-1 9:-1 10:0.74171 11:0.737747 12:0.739122 13:0.636364 
93.2311008555038 1:-0.142857 2:0.2 3:0.396226 4:-0.045045 5:-1 6:-1 7:-1 8:-1 9:-1 10:-0.176797 11:-0.175983 12:-0.177366 13:-1 
-2.306605158859819 1:0.285714 2:0.2 3:0.0188679 4:-0.045045 5:-1 6:-0.333333 7:-1 8:-1 9:-1 10:0.236187 11:0.235337 12:0.235329 13:0.818182 
-71.48545878462089 1:-0.785714 2:-0.2 3:0.773585 4:-0.045045 5:-1 6:-1 7:-0.5 8:-1 9:-1 10:-0.546961 11:-0.545896 12:-0.545894 13:-1 
7.289578822356518 1:-1 2:-0.2 3:1 4:-0.045045 5:-1 6:-1 7:-1 8:-1 9:-1 10:-0.386739 11:-0.385781 12:-0.385783 13:-1 
-15.71788637591395 1:-1 2:-0.2 3:1 4:-0.045045 5:-1 6:-1 7:-1 8:-1 9:-1 10:-0.379834 11:-0.378882 12:-0.378882 13:-1 
6.260136674835631 1:0.5 2:-0.2 3:-0.283019 4:-0.045045 5:-1 6:-1 7:-1 8:-1 9:-1 10:0.0635404 11:0.0586667 12:0.0600414 13:0.454545 
32768 1:0.285714 2:0.2 3:0.0188679 4:-0.045045 5:-1 6:-1 7:-1 8:-1 9:-1 10:0.0441979 11:0.0448613 12:0.044853 13:1 
1515.855732277914 1:0.285714 2:0.2 3:0.0188679 4:-0.045045 5:-1 6:-1 7:-1 8:-1 9:-1 10:0.0455818 11:0.0462443 12:0.046236 13:1 
-0.7184155565796986 1:-0.571429 2:-0.2 3:0.584906 4:0.63964 5:-1 6:-1 7:-1 8:-1 9:-1 10:-0.506905 11:-0.505863 12:-0.507252 13:1 
-5.667915487341302 1:-0.785714 2:-0.2 3:0.773585 4:0.63964 5:-1 6:-1 7:-1 8:-1 9:-1 10:-0.517955 11:-0.516903 12:-0.518294 13:1 
-1324.280678601994 1:-0.357143 2:0.6 3:0.773585 4:-0.045045 5:-1 6:1 7:-1 8:-1 9:-1 10:0.113264 11:0.112497 12:0.112489 13:0.818182 
1328.334743555731 1:-0.357143 2:0.6 3:0.773585 4:-0.045045 5:-1 6:1 7:-1 8:-1 9:-1 10:0.11188 11:0.111114 12:0.111106 13:0.818182 
-32768 1:-0.785714 2:-0.2 3:0.773585 4:-0.045045 5:-1 6:-1 7:-1 8:-1 9:-1 10:-0.899172 11:-0.897863 12:-0.897863 13:1 
-3.6973550975016 1:-0.785714 2:-0.0222222 3:0.811321 4:-0.0810811 5:-1 6:-0.333333 7:-1 8:-1 9:-1 10:0.90884 11:0.908903 12:0.90752 13:1 
32768 1:-0.785714 2:-0.2 3:0.773585 4:-0.045045 5:-1 6:-1 7:-1 8:-1 9:-1 10:-0.899172 11:-0.897863 12:-0.897863 13:1 
-6.091602037407347 1:-0.785714 2:-0.2 3:0.773585 4:-0.045045 5:-1 6:-1 7:-1 8:-1 9:-1 10:-0.899172 11:-0.897863 12:-0.897863 13:1 
1.737873377859259 1:0.0714286 2:0.2 3:0.207547 4:-0.045045 5:-1 6:-1 7:-1 8:-1 9:-1 10:-0.005521 11:-0.0117267 12:-0.00896894 13:0.272727 
-57.34075590347372 1:-0.142857 2:0.2 3:0.396226 4:-0.045045 5:-1 6:-1 7:-1 8:-1 9:-1 10:0.73619 11:0.73499 12:0.734981 13:0.818182 
-32768 1:-0.571429 2:0.2 3:0.773585 4:-0.153153 5:-1 6:-0.333333 7:-1 8:-1 9:-1 10:-0.595303 11:-0.595578 12:-0.595588 13:0.818182 
32768 1:-0.571429 2:0.2 3:0.773585 4:-0.153153 5:-1 6:-0.333333 7:-1 8:-1 9:-1 10:-0.593922 11:-0.594203 12:-0.594209 13:0.818182 
3.285211556206881 1:-0.571429 2:0.6 3:1 4:-0.261261 5:-1 6:-0.333333 7:-1 8:-1 9:-1 10:-0.535911 11:-0.536232 12:-0.536238 13:0.818182 
-4334.565945765845 1:-0.571429 2:0.2 3:0.773585 4:-0.153153 5:-1 6:-0.333333 7:-1 8:-1 9:-1 10:-0.591159 11:-0.591437 12:-0.591448 13:0.818182 
4342.743010702342 1:-0.571429 2:0.2 3:0.773585 4:-0.153153 5:-1 6:-0.333333 7:-1 8:-1 9:-1 10:-0.602209 11:-0.602484 12:-0.60249 13:0.818182 
305.5828541484331 1:0.0714286 2:0.6 3:0.396226 4:-0.045045 5:-1 6:-1 7:-1 8:-1 9:-1 10:0.820447 11:0.810907 12:0.815039 13:-0.272727 
3.297716780756507 1:-1 2:-0.2 3:1 4:-0.261261 5:-1 6:-0.333333 7:-1 8:-1 9:-1 10:0.972378 11:0.972398 12:0.972389 13:1 
-29.02239340087125 1:0.5 2:0.2 3:-0.132075 4:-0.045045 5:-1 6:-1 7:-1 8:-1 9:-1 10:0.39917 11:0.399586 12:0.399578 13:0.818182 
-969.3390691558789 1:-0.142857 2:-0.6 3:0.0188679 4:-0.387387 5:-1 6:1 7:-1 8:-1 9:-1 10:0.321823 11:0.319528 12:0.319528 13:0.636364 
-32768 1:-0.571429 2:-0.2 3:0.584906 4:-0.495495 5:-1 6:0.333333 7:-1 8:-1 9:-1 10:0.348068 11:0.345756 12:0.345756 13:0.636364 
28971.43441636774 1:-0.571429 2:-0.2 3:0.584906 4:-0.495495 5:-1 6:0.333333 7:-1 8:-1 9:-1 10:0.350828 11:0.348513 12:0.348513 13:0.636364 
974.5042475720322 1:-0.142857 2:-0.6 3:0.0188679 4:-0.387387 5:-1 6:1 7:-1 8:-1 9:-1 10:0.325966 11:0.323669 12:0.323669 13:0.636364 
3846.978886420496 1:-0.571429 2:-0.2 3:0.584906 4:-0.495495 5:-1 6:0.333333 7:-1 8:-1 9:-1 10:0.32735 11:0.325052 12:0.325052 13:0.636364 
-7.308390068475253 1:-0.785714 2:0.2 3:1 4:-0.153153 5:-1 6:-1 7:-1 8:-1 9:-1 10:-0.529005 11:-0.529325 12:-0.529333 13:0.818182 
5.168391471821225 1:0.52381 2:0.2 3:-0.433962 4:0.63964 5:-1 6:-1 7:-1 8:1 9:-1 10:0.378455 11:0.377507 12:0.377499 13:-0.818182 
-197.6040082509667 1:0.0714286 2:-0.2 3:0.0188679 4:-0.045045 5:-1 6:-1 7:-1 8:-1 9:-1 10:0.61464 11:0.613532 12:0.613524 13:0.818182 
-0.1496535992988105 1:0.0714286 2:-0.2 3:0.0188679 4:-0.045045 5:-1 6:-1 7:-1 8:-1 9:-1 10:0.408839 11:0.406484 12:0.407859 13:0.636364 
14.57076959848501 1:-0.142857 2:-0.2 3:0.207547 4:-0.045045 5:-1 6:-1 7:-1 8:-1 9:-1 10:-0.21823 11:-0.218769 12:-0.218777 13:0.636364 
32768 1:-0.357143 2:0.2 3:0.584906 4:-0.261261 5:-1 6:-1 7:-1 8:-1 9:-1 10:-0.9779 11:-0.979296 12:-0.979296 13:0.636364 
-32768 1:-0.357143 2:0.2 3:0.584906 4:-0.261261 5:-1 6:-1 7:-1 8:-1 9:-1 10:-0.9779 11:-0.979296 12:-0.979296 13:0.636364 
32768 1:-0.357143 2:0.2 3:0.584906 4:-0.261261 5:-1 6:-1 7:-1 8:-1 9:-1 10:-0.9779 11:-0.979296 12:-0.979296 13:0.636364 
59.66938634311099 1:0.0714286 2:-0.2 3:0.0188679 4:-0.045045 5:-1 6:-1 7:-1 8:-1 9:-1 10:0.567676 11:0.565217 12:0.565209 13:0.636364 
-32768 1:-0.357143 2:0.2 3:0.584906 4:-0.261261 5:-1 6:-1 7:-1 8:-1 9:-1 10:-0.9779 11:-0.979296 12:-0.979296 13:0.636364 
32768 1:-0.357143 2:0.2 3:0.584906 4:-0.261261 5:-1 6:-1 7:-1 8:-1 9:-1 10:-0.9779 11:-0.979296 12:-0.979296 13:0.636364 
-32768 1:-0.357143 2:0.2 3:0.584906 4:-0.261261 5:-1 6:-1 7:-1 8:-1 9:-1 10:-0.9779 11:-0.979296 12:-0.979296 13:0.636364 
32768 1:-0.357143 2:0.2 3:0.584906 4:-0.261261 5:-1 6:-1 7:-1 8:-1 9:-1 10:-0.9779 11:-0.979296 12:-0.979296 13:0.636364 
-32768 1:-0.357143 2:0.2 3:0.584906 4:-0.261261 5:-1 6:-1 7:-1 8:-1 9:-1 10:-0.9779 11:-0.979296 12:-0.979296 13:0.636364 
-32768 1:-0.357143 2:0.2 3:0.584906 4:-0.261261 5:-1 6:-1 7:-1 8:-1 9:-1 10:-0.9779 11:-0.979296 12:-0.979296 13:0.636364 
-32768 1:-0.357143 2:0.2 3:0.584906 4:-0.261261 5:-1 6:-1 7:-1 8:-1 9:-1 10:-0.9779 11:-0.979296 12:-0.979296 13:0.636364 
-32768 1:-0.357143 2:0.2 3:0.584906 4:-0.261261 5:-1 6:-1 7:-1 8:-1 9:-1 10:-0.9779 11:-0.979296 12:-0.979296 13:0.636364 
32768 1:-0.357143 2:0.2 3:0.584906 4:-0.261261 5:-1 6:-1 7:-1 8:-1 9:-1 10:-0.9779 11:-0.979296 12:-0.979296 13:0.636364 
32768 1:-0.357143 2:0.2 3:0.584906 4:-0.261261 5:-1 6:-1 7:-1 8:-1 9:-1 10:-0.9779 11:-0.979296 12:-0.979296 13:0.636364 
32768 1:-0.357143 2:0.2 3:0.584906 4:-0.261261 5:-1 6:-1 7:-1 8:-1 9:-1 10:-0.9779 11:-0.979296 12:-0.979296 13:0.636364 
32768 1:-0.357143 2:0.2 3:0.584906 4:-0.261261 5:-1 6:-1 7:-1 8:-1 9:-1 10:-0.9779 11:-0.979296 12:-0.979296 13:0.636364 
-32768 1:-0.357143 2:0.2 3:0.584906 4:-0.261261 5:-1 6:-1 7:-1 8:-1 9:-1 10:-0.9779 11:-0.979296 12:-0.979296 13:0.636364 
-32768 1:-0.357143 2:0.2 3:0.584906 4:-0.261261 5:-1 6:-1 7:-1 8:-1 9:-1 10:-0.9779 11:-0.979296 12:-0.979296 13:0.636364 
32768 1:-0.357143 2:0.2 3:0.584906 4:-0.261261 5:-1 6:-1 7:-1 8:-1 9:-1 10:-0.9779 11:-0.979296 12:-0.979296 13:0.636364 
-4.800947216214662 1:-0.785714 2:0.2 3:1 4:-0.495495 5:-1 6:-0.333333 7:-1 8:-1 9:-1 10:-0.519336 11:-0.519669 12:-0.519675 13:0.636364 
32768 1:-0.357143 2:0.2 3:0.584906 4:-0.261261 5:-1 6:-1 7:-1 8:-1 9:-1 10:-0.9779 11:-0.979296 12:-0.979296 13:0.636364 
-32761.08000325517 1:-0.357143 2:0.2 3:0.584906 4:-0.261261 5:-1 6:-1 7:-1 8:-1 9:-1 10:-0.9779 11:-0.979296 12:-0.979296 13:0.636364 
-5.549713112463138 1:-1 2:-0.6 3:0.773585 4:-0.045045 5:-1 6:-0.333333 7:-1 8:-1 9:-1 10:-0.871547 11:-0.8813 12:-0.877159 13:0.0909091 
-32768 1:-0.142857 2:0.2 3:0.396226 4:-0.045045 5:-1 6:-1 7:-1 8:-1 9:-1 10:-0.9779 11:-0.980671 12:-0.979296 13:0.636364 
-32768 1:-0.142857 2:0.2 3:0.396226 4:-0.045045 5:-1 6:-1 7:-1 8:-1 9:-1 10:-0.9779 11:-0.980671 12:-0.979296 13:0.636364 
-32768 1:-0.142857 2:0.2 3:0.396226 4:-0.045045 5:-1 6:-1 7:-1 8:-1 9:-1 10:-0.9779 11:-0.980671 12:-0.979296 13:0.636364 
-32768 1:-0.142857 2:0.2 3:0.396226 4:-0.045045 5:-1 6:-1 7:-1 8:-1 9:-1 10:-0.9779 11:-0.980671 12:-0.979296 13:0.636364 
32768 1:-0.142857 2:0.2 3:0.396226 4:-0.045045 5:-1 6:-1 7:-1 8:-1 9:-1 10:-0.9779 11:-0.980671 12:-0.979296 13:0.636364 
32768 1:-0.142857 2:0.2 3:0.396226 4:-0.045045 5:-1 6:-1 7:-1 8:-1 9:-1 10:-0.9779 11:-0.980671 12:-0.979296 13:0.636364 
32768 1:-0.142857 2:0.2 3:0.396226 4:-0.045045 5:-1 6:-1 7:-1 8:-1 9:-1 10:-0.9779 11:-0.980671 12:-0.979296 13:0.636364 
32768 1:-0.142857 2:0.2 3:0.396226 4:-0.045045 5:-1 6:-1 7:-1 8:-1 9:-1 10:-0.9779 11:-0.980671 12:-0.979296 13:0.636364 
-32768 1:-0.142857 2:0.2 3:0.396226 4:-0.045045 5:-1 6:-1 7:-1 8:-1 9:-1 10:-0.9779 11:-0.980671 12:-0.979296 13:0.636364 
32768 1:-0.142857 2:0.2 3:0.396226 4:-0.045045 5:-1 6:-1 7:-1 8:-1 9:-1 10:-0.9779 11:-0.980671 12:-0.979296 13:0.636364 
32768 1:-0.142857 2:0.2 3:0.396226 4:-0.045045 5:-1 6:-1 7:-1 8:-1 9:-1 10:-0.9779 11:-0.980671 12:-0.979296 13:0.636364 
-32768 1:-0.142857 2:0.2 3:0.396226 4:-0.045045 5:-1 6:-1 7:-1 8:-1 9:-1 10:-0.9779 11:-0.980671 12:-0.979296 13:0.636364 
-32768 1:-0.142857 2:0.2 3:0.396226 4:-0.045045 5:-1 6:-1 7:-1 8:-1 9:-1 10:-0.9779 11:-0.980671 12:-0.979296 13:0.636364 
32768 1:-0.142857 2:0.2 3:0.396226 4:-0.045045 5:-1 6:-1 7:-1 8:-1 9:-1 10:-0.9779 11:-0.980671 12:-0.979296 13:0.636364 
-3.186793532066012 1:-0.142857 2:0.2 3:0.396226 4:-0.045045 5:-1 6:-1 7:-1 8:-1 9:-1 10:-0.9779 11:-0.980671 12:-0.979296 13:0.636364 
125.1434626841147 1:0.0714286 2:0.2 3:0.207547 4:-0.045045 5:-1 6:-1 7:-1 8:-1 9:-1 10:0.52072 11:0.521052 12:0.519669 13:0.818182 
5.208694784954988 1:-0.357143 2:-0.2 3:0.396226 4:-0.603604 6:-1 7:-1 8:-1 9:-1 10:0.245861 11:0.243619 12:0.243619 13:0.636364 
32768 1:0.5 2:-0.6 3:-0.433962 4:-0.045045 5:-1 6:-1 7:-1 8:-1 9:-1 10:0.0966896 11:0.0945507 12:0.0945507 13:0.636364 
32768 1:0.5 2:-0.6 3:-0.433962 4:-0.045045 5:-1 6:-1 7:-1 8:-1 9:-1 10:0.080115 11:0.0779876 12:0.0779876 13:0.636364 
-32768 1:0.5 2:-0.6 3:-0.433962 4:-0.045045 5:-1 6:-1 7:-1 8:-1 9:-1 10:0.0953057 11:0.0931677 12:0.0931677 13:0.636364 
-27351.41266635765 1:0.5 2:-0.6 3:-0.433962 4:-0.045045 5:-1 6:-1 7:-1 8:-1 9:-1 10:0.0828747 11:0.0807453 12:0.0807453 13:0.636364 
-5390.652042716089 1:0.5 2:-0.6 3:-0.433962 4:-0.045045 5:-1 6:-1 7:-1 8:-1 9:-1 10:0.0745874 11:0.0724638 12:0.0724638 13:0.636364 
-3.050186151347247 1:0.714286 2:-0.2 3:-0.433962 4:-0.045045 5:-1 6:-1 7:-1 8:-1 9:-1 10:0.0428222 11:0.0393458 12:0.0407205 13:-0.636364 
-373.2097158106963 1:0.0714286 2:0.2 3:0.207547 4:-0.045045 5:-1 6:-1 7:-1 8:-1 9:-1 10:0.846685 11:0.834369 12:0.839884 13:-0.0909091 
30708.81885282824 1:0.0714286 2:0.2 3:0.207547 4:-0.045045 5:-1 6:-1 7:-1 8:-1 9:-1 10:0.120168 11:0.108356 12:0.113872 13:-0.0909091 
-32768 1:0.0714286 2:0.2 3:0.207547 4:-0.045045 5:-1 6:-1 7:-1 8:-1 9:-1 10:0.120168 11:0.108356 12:0.113872 13:-0.0909091 
16388.26055842518 1:0.0714286 2:0.2 3:0.207547 4:-0.045045 5:-1 6:-1 7:-1 8:-1 9:-1 10:0.705801 11:0.694965 12:0.699097 13:-0.0909091 
-66.9428971786482 1:0.285714 2:0.2 3:0.0188679 4:-0.045045 5:-1 6:-1 7:-0.5 8:-1 9:-1 10:0.245861 11:0.239478 12:0.242236 13:-0.454545 
-1510.85046609396 1:0.285714 2:0.2 3:0.0188679 4:-0.045045 5:-1 6:-1 7:-0.5 8:-1 9:-1 10:0.245861 11:0.239478 12:0.242236 13:-0.454545 
1577.509018709713 1:0.285714 2:0.2 3:0.0188679 4:-0.045045 5:-1 6:-1 7:-0.5 8:-1 9:-1 10:0.244477 11:0.238095 12:0.240853 13:-0.454545 
24.7863261474841 1:-0.357143 2:-0.2 3:0.396226 4:-0.045045 5:-1 6:-1 7:-1 8:-1 9:-1 10:0.835638 11:0.830228 12:0.831602 13:-0.636364 
108.1060598060079 1:-0.357143 2:-0.6 3:0.207547 4:-0.261261 5:-1 6:-1 7:-1 8:-1 9:-1 10:0.524864 11:0.518286 12:0.521043 13:0.454545 
-113.7823143595034 1:-0.357143 2:-0.6 3:0.207547 4:-0.261261 5:-1 6:-1 7:-1 8:-1 9:-1 10:0.542823 11:0.536232 12:0.53899 13:0.454545 
4.182336905730444 1:-0.357143 2:0.2 3:0.584906 4:-0.045045 5:-1 6:-0.333333 7:-1 8:-1 9:-1 10:0.165744 11:0.158037 12:0.160795 13:0.272727 
-4.535032744689492 1:0.714286 2:-0.6 3:-0.54717 4:-0.045045 5:-1 6:-1 7:-1 8:-1 9:-1 10:0.240333 11:0.231197 12:0.235329 13:0.272727 
5508.118369129052 1:-0.309524 2:-0.0222222 3:0.320755 4:0.459459 5:-1 6:-1 7:-1 8:1 9:-1 10:0.885362 11:0.875776 12:0.879917 13:0.272727 
-32768 1:-0.309524 2:-0.0222222 3:0.320755 4:0.459459 5:-1 6:-1 7:-1 8:1 9:-1 10:0.892265 11:0.882675 12:0.886816 13:0.272727 
27273.82607139027 1:-0.309524 2:-0.0222222 3:0.320755 4:0.459459 5:-1 6:-1 7:-1 8:1 9:-1 10:0.893649 11:0.884058 12:0.888199 13:0.272727 
-4.749080680271586 1:0.285714 2:0.6 3:0.207547 4:-0.045045 5:-1 6:-1 7:-1 8:-1 9:-1 10:-0.0745841 11:-0.0793623 12:-0.0779876 13:-0.454545 
7.60769599864814 1:0.285714 2:0.6 3:0.207547 4:-0.045045 5:-1 6:-1 7:-1 8:-1 9:-1 10:-0.178175 11:-0.188406 12:-0.18289 13:-0.272727 
-6.222077913794696 1:-0.142857 2:0.2 3:0.396226 4:-0.045045 5:-1 6:-1 7:-1 8:-1 9:-1 10:0.0690623 11:0.0572836 12:0.0627992 13:0.0909091 
2065.932556312833 1:0.0714286 2:0.2 3:0.207547 4:-0.045045 5:-1 6:-1 7:-1 8:-1 9:-1 10:0.118784 11:0.106973 12:0.112489 13:-0.0909091 
12.84994476648236 1:0.285714 2:0.2 3:0.0188679 4:-0.045045 5:-1 6:-1 7:-1 8:-1 9:-1 10:0.439231 11:0.429954 12:0.434087 13:-0.272727 
5.531919125758342 1:0.5 2:-0.2 3:-0.283019 4:-0.045045 5:-1 6:-1 7:-0.5 8:-1 9:-1 10:0.44751 11:0.436853 12:0.442369 13:-0.0909091 
6.872003847105642 1:0.047619 2:0.422222 3:0.207547 4:0.459459 5:-1 6:-1 7:-1 8:1 9:-1 10:-0.341159 11:-0.35128 12:-0.347136 13:-0.272727 
1.565418160505731 1:0.0714286 2:-0.6 3:-0.132075 4:-0.045045 5:-1 6:-1 7:-1 8:-1 9:-1 10:-0.0179569 11:-0.0172505 12:-0.0172588 13:1 
-1.694076132534741 1:0.0714286 2:0.6 3:0.396226 4:-0.045045 5:-1 6:-1 7:-1 8:-1 9:-1 10:-0.223756 11:-0.233954 12:-0.228439 13:-0.272727 
-32768 1:-0.142857 2:0.2 3:0.396226 4:-0.045045 5:-1 6:-1 7:-1 8:-1 9:-1 10:0.838406 11:0.828853 12:0.832986 13:-0.272727 
-12734.6879273724 1:-0.142857 2:0.2 3:0.396226 4:-0.045045 5:-1 6:-1 7:-1 8:-1 9:-1 10:0.839782 11:0.830228 12:0.83436 13:-0.272727 
32768 1:-0.142857 2:0.2 3:0.396226 4:-0.045045 5:-1 6:-1 7:-1 8:-1 9:-1 10:0.84255 11:0.832994 12:0.837126 13:-0.272727 
12956.99049208683 1:-0.142857 2:0.2 3:0.396226 4:-0.045045 5:-1 6:-1 7:-1 8:-1 9:-1 10:0.827351 11:0.817805 12:0.821938 13:-0.272727 
-304.6973251059417 1:-0.142857 2:0.2 3:0.396226 4:-0.045045 5:-1 6:-1 7:-1 8:-1 9:-1 10:0.698897 11:0.689441 12:0.693573 13:-0.272727 
32768 1:-0.142857 2:0.2 3:0.396226 4:-0.045045 5:-1 6:-1 7:-1 8:-1 9:-1 10:0.700281 11:0.690824 12:0.694957 13:-0.272727 
-7.428382859464136 1:-0.666667 2:0.2 3:0.773585 4:0.0990991 5:-1 6:-0.333333 7:-1 8:-1 9:-1 10:-0.107733 11:-0.116629 12:-0.112497 13:0.272727 
-7.576213936627695 1:-0.785714 2:-0.2 3:0.773585 4:-0.153153 5:-1 6:0.333333 7:-0.5 8:-1 9:-1 10:-0.109117 11:-0.118012 12:-0.11388 13:0.272727 
-2.306326933204504 1:-0.571429 2:0.6 3:1 4:-0.045045 5:-1 6:-1 7:-1 8:-1 9:-1 10:0.828726 11:0.828845 12:0.827462 13:-1 
-32768 1:-0.142857 2:0.2 3:0.396226 4:-0.045045 5:-1 6:-1 7:-1 8:-1 9:-1 10:0.701665 11:0.692207 12:0.69634 13:-0.272727 
32768 1:-0.571429 2:0.2 3:0.773585 4:-0.045045 5:-1 6:-1 7:-0.5 8:-1 9:-1 10:0.723759 11:0.717043 12:0.719801 13:-0.454545 
-32768 1:-0.571429 2:0.2 3:0.773585 4:-0.045045 5:-1 6:-1 7:-0.5 8:-1 9:-1 10:0.704425 11:0.697723 12:0.70048 13:-0.454545 
-32768 1:-0.571429 2:0.2 3:0.773585 4:-0.045045 5:-1 6:-1 7:-0.5 8:-1 9:-1 10:0.693378 11:0.686683 12:0.689441 13:-0.454545 
32768 1:-0.571429 2:0.2 3:0.773585 4:-0.045045 5:-1 6:-1 7:-0.5 8:-1 9:-1 10:0.698897 11:0.692199 12:0.694957 13:-0.454545 
30553.2845722252 1:-0.571429 2:0.2 3:0.773585 4:-0.045045 5:-1 6:-1 7:-0.5 8:-1 9:-1 10:0.704425 11:0.697723 12:0.70048 13:-0.454545 
-32768 1:-0.571429 2:0.2 3:0.773585 4:-0.045045 5:-1 6:-1 7:-0.5 8:-1 9:-1 10:0.700281 11:0.693582 12:0.69634 13:-0.454545 
32768 1:-0.571429 2:0.2 3:0.773585 4:-0.045045 5:-1 6:-1 7:-0.5 8:-1 9:-1 10:0.69061 11:0.683917 12:0.686675 13:-0.454545 
-32768 1:-0.571429 2:0.2 3:0.773585 4:-0.045045 5:-1 6:-1 7:-0.5 8:-1 9:-1 10:0.722384 11:0.715669 12:0.718427 13:-0.454545 
32750.27851292586 1:-0.571429 2:0.2 3:0.773585 4:-0.045045 5:-1 6:-1 7:-0.5 8:-1 9:-1 10:0.68785 11:0.681159 12:0.683917 13:-0.454545 
32768 1:-0.571429 2:0.2 3:0.773585 4:-0.045045 5:-1 6:-1 7:-0.5 8:-1 9:-1 10:0.697522 11:0.690824 12:0.693582 13:-0.454545 
-30537.72322543758 1:-0.571429 2:0.2 3:0.773585 4:-0.045045 5:-1 6:-1 7:-0.5 8:-1 9:-1 10:0.723759 11:0.717043 12:0.719801 13:-0.454545 
-39.78474394766165 1:-0.571429 2:0.2 3:0.773585 4:-0.045045 5:-1 6:-1 7:-1 8:-1 9:-1 10:0.727903 11:0.721184 12:0.723942 13:-0.454545 
-32768 1:-0.571429 2:0.2 3:0.773585 4:-0.045045 5:-1 6:-1 7:-1 8:-1 9:-1 10:0.729287 11:0.722567 12:0.725325 13:-0.454545 
-32768 1:-0.571429 2:0.2 3:0.773585 4:-0.045045 5:-1 6:-1 7:-0.5 8:-1 9:-1 10:0.69061 11:0.683917 12:0.686675 13:-0.454545 
-32768 1:-0.571429 2:0.2 3:0.773585 4:-0.045045 5:-1 6:-1 7:-0.5 8:-1 9:-1 10:0.69061 11:0.683917 12:0.686675 13:-0.454545 
32768 1:-0.571429 2:0.2 3:0.773585 4:-0.045045 5:-1 6:-1 7:-1 8:-1 9:-1 10:0.729287 11:0.722567 12:0.725325 13:-0.454545 
32768 1:-0.571429 2:0.2 3:0.773585 4:-0.045045 5:-1 6:-1 7:-0.5 8:-1 9:-1 10:0.721 11:0.714286 12:0.717043 13:-0.454545 
219.3628566395673 1:-0.142857 2:0.2 3:0.396226 4:-0.045045 5:-1 6:-1 7:-1 8:-1 9:-1 10:0.870163 11:0.863354 12:0.866112 13:-0.454545 
-86.44915172095908 1:-0.142857 2:0.2 3:0.396226 4:-0.045045 5:-1 6:-1 7:-1 8:-1 9:-1 10:-0.186464 11:-0.18702 12:-0.187029 13:-1 
32768 1:-0.357143 2:0.2 3:0.584906 4:-0.045045 5:-1 6:-1 7:-1 8:-1 9:-1 10:0.738958 11:0.734998 12:0.736373 13:-0.636364 
-2.55396890664864 1:-0.571429 2:0.2 3:0.773585 4:-0.045045 5:-1 6:-1 7:-0.5 8:-1 9:-1 10:0.490339 11:0.483785 12:0.486542 13:-0.636364 
-3.659533191498072 1:-0.142857 2:0.2 3:0.396226 4:-0.045045 5:-1 6:-0.333333 7:-1 8:-1 9:-1 10:0.679555 11:0.674261 12:0.67701 13:-0.636364 
-159.370807045877 1:-0.357143 2:0.2 3:0.584906 4:-0.045045 5:-1 6:-1 7:-1 8:-1 9:-1 10:0.61464 11:0.613532 12:0.613524 13:-0.818182 
-9.057923562971128 1:-0.142857 2:-0.2 3:0.207547 4:-0.045045 5:-1 6:-1 7:-1 8:-1 9:-1 10:0.676795 11:0.672878 12:0.674253 13:-0.636364 
-32768 1:0.285714 2:0.2 3:0.0188679 4:-0.045045 5:-1 6:-1 7:-1 8:-1 9:-1 10:0.037297 11:0.0365797 12:0.0365797 13:0.818182 
2764.727095732916 1:-0.785714 2:-0.2 3:0.773585 4:-0.045045 5:-1 6:-1 7:-1 8:-1 9:-1 10:-0.446132 11:-0.445135 12:-0.44514 13:0.818182 
29374.23196227325 1:0.285714 2:0.2 3:0.0188679 4:-0.045045 5:-1 6:-1 7:-1 8:-1 9:-1 10:0.0303854 11:0.0296729 12:0.0296729 13:0.818182 
-2743.302157179971 1:-0.785714 2:-0.2 3:0.773585 4:-0.045045 5:-1 6:-1 7:-1 8:-1 9:-1 10:-0.444751 11:-0.443752 12:-0.44376 13:0.818182 
-21.85375131365615 1:-0.142857 2:0.2 3:0.396226 4:-0.261261 5:-1 6:-1 7:-1 8:-1 9:-1 10:-0.229281 11:-0.228433 12:-0.228433 13:0.818182 
-1.713856735359568 1:0.5 2:0.6 3:0.0566038 4:-0.045045 5:-1 6:-1 7:-1 8:-1 9:-1 10:-0.0276257 11:-0.0282981 12:-0.0282981 13:0.818182 
-5.016150988984138 1:-0.142857 2:0.2 3:0.396226 4:-0.045045 5:-1 6:-0.333333 7:-1 8:-1 9:-1 10:0.201662 11:0.199453 12:0.200828 13:-0.818182 
5.109045796731492 1:0.166667 2:-0.466667 3:-0.396226 4:0.63964 5:-1 6:-1 7:-1 8:1 9:-1 10:-0.106355 11:-0.106973 12:-0.106973 13:-1 
3.748830392829435 1:-0.357143 2:-0.2 3:0.396226 4:-0.045045 5:-1 6:-0.333333 7:-1 8:-1 9:-1 10:-0.0704437 11:-0.0724638 12:-0.071089 13:-0.818182 
-16490.8924402747 1:0.047619 2:0.2 3:0.0188679 4:0.81982 5:-1 6:-1 7:-1 8:1 9:-1 10:-0.113256 11:-0.115246 12:-0.113872 13:-0.818182 
16496.9102590354 1:0.047619 2:0.2 3:0.0188679 4:0.81982 5:-1 6:-1 7:-1 8:1 9:-1 10:-0.11188 11:-0.113872 12:-0.112497 13:-0.818182 
-3.74163035250379 1:-0.428571 2:-0.0222222 3:0.320755 4:-0.0810811 5:-1 6:-1 7:-1 8:1 9:-1 10:0.639511 11:0.63976 12:0.638369 13:-1 
-18948.81330291831 1:-0.357143 2:-0.2 3:0.396226 4:-0.261261 5:-1 6:-1 7:-1 8:-1 9:-1 10:-0.244475 11:-0.244994 12:-0.245 13:-0.818182 
32768 1:-0.357143 2:-0.2 3:0.396226 4:-0.261261 5:-1 6:-1 7:-1 8:-1 9:-1 10:-0.245855 11:-0.246369 12:-0.246379 13:-0.818182 
-13820.68510441968 1:-0.357143 2:-0.2 3:0.396226 4:-0.261261 5:-1 6:-1 7:-1 8:-1 9:-1 10:-0.247237 11:-0.247752 12:-0.24776 13:-0.818182 
6.887217348552514 1:-0.666667 2:0.2 3:0.849057 4:-0.0810811 5:-1 6:-1 7:-1 8:-1 9:1 10:-0.359115 11:-0.359553 12:-0.359564 13:-0.818182 
20201.85589651543 1:-0.785714 2:0.2 3:1 4:-0.153153 5:-1 6:-1 7:-1 8:-1 9:-1 10:-0.377071 11:-0.377499 12:-0.377507 13:-0.818182 
-29727.03685881972 1:-0.785714 2:0.2 3:1 4:-0.153153 5:-1 6:-1 7:-1 8:-1 9:-1 10:-0.386739 11:-0.387164 12:-0.387169 13:-0.818182 
-32768 1:-0.785714 2:0.2 3:1 4:-0.153153 5:-1 6:-1 7:-1 8:-1 9:-1 10:-0.412982 11:-0.413383 12:-0.413394 13:-0.818182 
9548.870001188388 1:-0.785714 2:0.2 3:1 4:-0.153153 5:-1 6:-1 7:-1 8:-1 9:-1 10:-0.453038 11:-0.453416 12:-0.453422 13:-0.818182 
32768 1:-0.785714 2:0.2 3:1 4:-0.153153 5:-1 6:-1 7:-1 8:-1 9:-1 10:-0.430938 11:-0.431329 12:-0.431337 13:-0.818182 
32768 1:-0.785714 2:0.2 3:1 4:-0.153153 5:-1 6:-1 7:-1 8:-1 9:-1 10:-0.411601 11:-0.412008 12:-0.412014 13:-0.818182 
-32768 1:-0.785714 2:0.2 3:1 4:-0.153153 5:-1 6:-1 7:-1 8:-1 9:-1 10:-0.443369 11:-0.443752 12:-0.44376 13:-0.818182 
3.042299712798245 1:-0.571429 2:0.2 3:0.773585 4:-0.153153 5:-1 6:-1 7:-1 8:-1 9:-1 10:-0.47928 11:-0.479636 12:-0.479646 13:-0.818182 
3091.017613925907 1:-0.142857 2:0.6 3:0.584906 4:-0.045045 5:-1 6:-1 7:-1 8:-1 9:-1 10:-0.256906 11:-0.258799 12:-0.257422 13:0.636364 
-3084.204372969884 1:-0.142857 2:0.6 3:0.584906 4:-0.045045 5:-1 6:-1 7:-1 8:-1 9:-1 10:-0.255524 11:-0.257416 12:-0.256041 13:0.636364 
4.404794808432571 1:-0.142857 2:0.2 3:0.396226 4:-0.045045 5:-1 6:-1 7:-1 8:-1 9:-1 10:-0.247237 11:-0.249135 12:-0.24776 13:0.636364 
-3.557635534669137 1:-0.357143 2:-0.6 3:0.207547 4:-0.045045 5:-1 6:-1 7:-0.5 8:-1 9:-1 10:0.758292 11:0.75846 12:0.758451 13:-1 
-0.8667519122741539 1:0.166667 2:0.2 3:-0.0566038 4:0.63964 5:-1 6:-1 7:-1 8:1 9:-1 10:-0.0842504 11:-0.0890186 12:-0.0862692 13:0.454545 
32768 1:0.0714286 2:-0.2 3:0.0188679 4:-0.045045 5:-1 6:-1 7:-1 8:-1 9:-1 10:-0.0994493 11:-0.104207 12:-0.101458 13:0.454545 
-12919.49515238745 1:0.0714286 2:-0.2 3:0.0188679 4:-0.045045 5:-1 6:-1 7:-1 8:-1 9:-1 10:-0.091162 11:-0.0959255 12:-0.093176 13:0.454545 
-19901.7791554277 1:0.0714286 2:-0.2 3:0.0188679 4:-0.045045 5:-1 6:-1 7:-1 8:-1 9:-1 10:-0.104969 11:-0.109723 12:-0.106973 13:0.454545 
-4.29480374784259 1:-0.428571 2:-0.0222222 3:0.471698 4:0.459459 5:-1 6:-1 7:-1 8:1 9:-1 10:0.640886 11:0.63976 12:0.639752 13:-0.818182 
-28732.65491994586 1:-0.571429 2:-0.2 3:0.584906 4:-0.261261 5:-1 6:-1 7:-1 8:-1 9:-1 10:-0.287292 11:-0.286402 12:-0.286404 13:1 
32768 1:-0.571429 2:-0.2 3:0.584906 4:-0.261261 5:-1 6:-1 7:-1 8:-1 9:-1 10:-0.294198 11:-0.293308 12:-0.293306 13:1 
-32768 1:-0.571429 2:-0.2 3:0.584906 4:-0.261261 5:-1 6:-1 7:-1 8:-1 9:-1 10:-0.294198 11:-0.293308 12:-0.293306 13:1 
21897.42658326775 1:-0.571429 2:-0.2 3:0.584906 4:-0.261261 5:-1 6:-1 7:-1 8:-1 9:-1 10:-0.294198 11:-0.293308 12:-0.293306 13:1 
32768 1:-0.571429 2:-0.2 3:0.584906 4:-0.261261 5:-1 6:-1 7:-1 8:-1 9:-1 10:-0.296961 11:-0.296066 12:-0.296066 13:1 
-29.75221340800735 1:-0.357143 2:0.2 3:0.584906 4:-0.045045 5:-1 6:-1 7:-1 8:-1 9:-1 10:0.853588 11:0.850932 12:0.852306 13:0.636364 
32768 1:0.285714 2:-0.2 3:-0.132075 4:-0.045045 5:-1 6:-1 7:-1 8:-1 9:-1 10:0.371551 11:0.363702 12:0.367843 13:0.272727 
-485.029805803527 1:0.5 2:-0.2 3:-0.283019 4:-0.045045 5:-1 6:-1 7:-1 8:-1 9:-1 10:0.448894 11:0.449275 12:0.447892 13:-1 
3.065327258797899 1:0.285714 2:0.6 3:0.207547 4:-0.045045 5:-1 6:-1 7:-0.5 8:-1 9:-1 10:-0.131217 11:-0.142857 12:-0.137342 13:0.0909091 
1.394693896432001 1:0.52381 2:0.644444 3:-0.207547 4:0.63964 5:-1 6:-1 7:-1 8:1 9:-1 10:0.172651 11:0.173226 12:0.171834 13:0.818182 
32768 1:0.285714 2:0.2 3:0.0188679 4:-0.045045 5:-1 6:-1 7:-0.5 8:-1 9:-1 10:0.225143 11:0.225681 12:0.22429 13:0.818182 
-34.04434665142404 1:0.285714 2:0.2 3:0.0188679 4:-0.045045 5:-1 6:-1 7:-0.5 8:-1 9:-1 10:0.237574 11:0.238104 12:0.236712 13:0.818182 
-32744.23595249503 1:0.285714 2:0.2 3:0.0188679 4:-0.045045 5:-1 6:-1 7:-0.5 8:-1 9:-1 10:0.225143 11:0.225681 12:0.22429 13:0.818182 
2.084283769763684 1:0.5 2:0.6 3:0.0566038 4:-0.045045 5:-1 6:-1 7:-0.5 8:-1 9:-1 10:0.198897 11:0.199453 12:0.198062 13:0.818182 
-10.74358823299701 1:-0.571429 2:0.2 3:0.773585 4:-0.045045 5:-1 6:-1 7:-1 8:-1 9:-1 10:0.87845 11:0.878534 12:0.878534 13:1 
-26034.10116739792 1:-0.571429 2:-0.2 3:0.584906 4:-0.261261 5:-1 6:-1 7:-1 8:-1 9:-1 10:-0.305248 11:-0.304348 12:-0.304348 13:1 
-5.880539380004381 1:-0.785714 2:0.2 3:1 4:-0.387387 5:-1 6:0.333333 7:-1 8:-1 9:-1 10:0.93647 11:0.936513 12:0.936505 13:1 
164.9391162770698 1:0.0714286 2:-0.2 3:0.0188679 4:-0.045045 5:-1 6:-1 7:-1 8:-1 9:-1 10:0.656077 11:0.65494 12:0.654932 13:0.818182 
577.9203975564209 1:0.0714286 2:0.6 3:0.396226 4:-0.045045 5:-1 6:-1 7:-1 8:-1 9:-1 10:0.763812 11:0.754311 12:0.758451 13:-0.454545 
-575.4760733632636 1:0.0714286 2:0.6 3:0.396226 4:-0.045045 5:-1 6:-1 7:-1 8:-1 9:-1 10:0.758292 11:0.748795 12:0.752936 13:-0.454545 
-675.0742257666615 1:-0.571429 2:0.2 3:0.773585 4:-0.045045 5:-1 6:-1 7:-1 8:-1 9:-1 10:0.932318 11:0.924083 12:0.928224 13:-0.454545 
815.8214255376151 1:-0.571429 2:0.2 3:0.773585 4:-0.045045 5:-1 6:-1 7:-1 8:-1 9:-1 10:0.92403 11:0.915801 12:0.919942 13:-0.454545 
-9.841376960266313 1:-0.142857 2:0.2 3:0.396226 4:-0.045045 5:-1 6:-0.333333 7:-1 8:-1 9:-1 10:0.500002 11:0.500348 12:0.50034 13:0.818182 
32768 1:-0.357143 2:0.2 3:0.584906 4:-0.045045 5:-1 6:-1 7:-1 8:-1 9:-1 10:0.545582 11:0.545896 12:0.545888 13:0.818182 
-116.7246914140911 1:-0.357143 2:0.6 3:0.773585 4:-0.045045 5:-1 6:-1 7:-1 8:-1 9:-1 10:0.64227 11:0.642518 12:0.642509 13:0.818182 
92.56803405676852 1:-0.357143 2:0.6 3:0.773585 4:-0.045045 5:-1 6:-1 7:-1 8:-1 9:-1 10:0.628455 11:0.628712 12:0.628704 13:0.818182 
-21483.14612276058 1:-0.357143 2:0.2 3:0.584906 4:-0.045045 5:-1 6:-1 7:-1 8:-1 9:-1 10:0.542823 11:0.543139 12:0.54313 13:0.818182 
17796.7990234051 1:-0.357143 2:0.2 3:0.584906 4:-0.045045 5:-1 6:-1 7:-1 8:-1 9:-1 10:0.571828 11:0.572124 12:0.572116 13:0.818182 
-29007.80153069365 1:-0.357143 2:0.2 3:0.584906 4:-0.045045 5:-1 6:-1 7:-1 8:-1 9:-1 10:0.563541 11:0.563843 12:0.563834 13:0.818182 
52.10372263979632 1:-0.571429 2:-0.2 3:0.584906 4:-0.045045 5:-1 6:-1 7:-1 8:-1 9:-1 10:0.809392 11:0.808149 12:0.808141 13:0.818182 
3632.658089462905 1:0.285714 2:0.2 3:0.0188679 4:-0.045045 5:-1 6:-1 7:-1 8:-1 9:-1 10:0.091162 11:0.0904099 12:0.0904017 13:0.818182 
3.042670503073378 1:0.0714286 2:0.6 3:0.396226 4:-0.045045 5:-1 6:-1 7:-0.5 8:-1 9:-1 10:0.207184 11:0.206352 12:0.206344 13:0.818182 
-3.539782390574209 1:-0.785714 2:0.2 3:1 4:-0.045045 6:-1 7:-1 8:-1 9:-1 10:0.102214 11:0.101458 12:0.101449 13:0.818182 
-8.078670269368869 1:-0.142857 2:0.2 3:0.396226 4:-0.045045 5:-1 6:-1 7:-1 8:-1 9:-1 10:0.629839 11:0.621814 12:0.624563 13:0.272727 
1.619822165822085 1:0.285714 2:0.6 3:0.207547 4:-0.045045 5:-1 6:-1 7:-0.5 8:-1 9:-1 10:0.28177 11:0.279503 12:0.279503 13:0.636364 
-3.419209272670987 1:0.285714 2:1 3:0.396226 4:-0.045045 5:-1 6:-1 7:-1 8:-1 9:-1 10:0.62708 11:0.617673 12:0.621805 13:-0.272727 
5.084044540719074 1:0.285714 2:-0.2 3:-0.132075 4:-0.045045 5:-1 6:-1 7:-0.5 8:-1 9:-1 10:0.321825 11:0.318153 12:0.319528 13:0.636364 
-5.901096467412633 1:0.5 2:-0.6 3:-0.433962 4:-0.045045 5:-1 6:-1 7:-1 8:-1 9:-1 10:0.316297 11:0.312629 12:0.314004 13:0.454545 
2.047370755788744 1:0.0714286 2:0.2 3:0.207547 4:-0.045045 5:-1 6:-0.333333 7:-1 8:-1 9:-1 10:0.337016 11:0.330576 12:0.333325 13:0.454545 
-0.1022470473051653 1:0.285714 2:-0.2 3:-0.132075 4:-0.045045 5:1 6:-1 7:-1 8:-1 9:-1 10:0.459941 11:0.456174 12:0.457549 13:0.454545 
11.8403171775507 1:-0.357143 2:-0.2 3:0.396226 4:-0.045045 5:-1 6:-1 7:-1 8:-1 9:-1 10:0.647798 11:0.642518 12:0.645275 13:0.454545 
-3.418416301877359 1:-0.142857 2:0.2 3:0.396226 4:-0.045045 5:-1 6:-1 7:-0.5 8:-1 9:-1 10:0.787298 11:0.781921 12:0.783296 13:0.454545 
-7.491721554111979 1:0.285714 2:0.6 3:0.207547 4:-0.045045 5:-1 6:-1 7:-1 8:-1 9:-1 10:-0.122927 11:-0.129052 12:-0.126294 13:0.454545 
-32766.80140084116 1:0.0714286 2:0.2 3:0.207547 4:-0.261261 5:-1 6:-1 7:1 8:-1 9:-1 10:0.54835 11:0.541756 12:0.544513 13:0.272727 
32768 1:0.0714286 2:0.2 3:0.207547 4:-0.261261 5:-1 6:-1 7:1 8:-1 9:-1 10:0.54835 11:0.541756 12:0.544513 13:0.272727 
-3.512107455599939 1:-0.142857 2:0.2 3:0.396226 4:-0.045045 5:-1 6:-1 7:-1 8:-1 9:-1 10:-0.895027 11:-0.903379 12:-0.899238 13:0.272727 
-24466.01715824948 1:0.285714 2:-0.2 3:-0.132075 4:-0.045045 5:-1 6:-1 7:-1 8:-1 9:-1 10:0.368783 11:0.360936 12:0.365077 13:0.272727 
-8294.462103226904 1:0.285714 2:-0.2 3:-0.132075 4:-0.045045 5:-1 6:-1 7:-1 8:-1 9:-1 10:0.379839 11:0.371983 12:0.376124 13:0.272727 
32768 1:0.0714286 2:0.2 3:0.207547 4:-0.045045 5:-1 6:-1 7:-1 8:-1 9:-1 10:0.584259 11:0.574882 12:0.579014 13:0.272727 
-32768 1:0.0714286 2:0.2 3:0.207547 4:-0.045045 5:-1 6:-1 7:-1 8:-1 9:-1 10:0.588403 11:0.579023 12:0.583155 13:0.272727 
32768 1:0.0714286 2:0.2 3:0.207547 4:-0.045045 5:-1 6:-1 7:-1 8:-1 9:-1 10:0.587019 11:0.57764 12:0.581772 13:0.272727 
32768 1:0.0714286 2:0.2 3:0.207547 4:-0.045045 5:-1 6:-1 7:-1 8:-1 9:-1 10:0.555254 11:0.545896 12:0.550029 13:0.272727 
-1817.442393857124 1:0.285714 2:0.2 3:0.0188679 4:-0.045045 5:-1 6:-1 7:-1 8:-1 9:-1 10:0.435088 11:0.425814 12:0.429946 13:0.272727 
-19808.8827172093 1:0.0714286 2:0.2 3:0.207547 4:-0.045045 5:-1 6:-1 7:-1 8:-1 9:-1 10:0.558013 11:0.548654 12:0.552787 13:0.272727 
-3.559262798930485 1:0.285714 2:0.6 3:0.207547 4:-0.045045 5:-1 6:-1 7:-0.5 8:-1 9:-1 10:0.270723 11:0.261565 12:0.265698 13:0.272727 
9.229188545652143 1:0.285714 2:0.6 3:0.207547 4:-0.045045 5:-1 6:-1 7:-0.5 8:-1 9:-1 10:0.294201 11:0.285027 12:0.289159 13:0.272727 
-9.700220711743849 1:0.285714 2:0.6 3:0.207547 4:-0.045045 5:-1 6:-1 7:-1 8:-1 9:-1 10:0.240333 11:0.231197 12:0.235329 13:0.272727 
65.47516851360692 1:0.0714286 2:0.2 3:0.207547 4:-0.045045 5:-1 6:-1 7:-1 8:-1 9:-1 10:0.55387 11:0.544513 12:0.548654 13:0.0909091 
-10.8075651167828 1:-0.0714286 2:0.2 3:0.132075 4:0.459459 5:-1 6:-1 7:-1 8:1 9:-1 10:0.654693 11:0.642509 12:0.648025 13:-0.0909091 
-34.02715204117401 1:0.0714286 2:-0.2 3:0.0188679 4:-0.045045 5:-1 6:-1 7:-1 8:-1 9:-1 10:0.618784 11:0.609383 12:0.613524 13:0.0909091 
-32768 1:-1 2:-0.6 3:0.773585 4:-0.261261 5:-1 6:-0.333333 7:-0.5 8:-1 9:-1 10:-0.54558 11:-0.554178 12:-0.550035 13:0.0909091 
23700.87465896279 1:-1 2:-0.6 3:0.773585 4:-0.261261 5:-1 6:-0.333333 7:-0.5 8:-1 9:-1 10:-0.538673 11:-0.547271 12:-0.543133 13:0.0909091 
32768 1:-1 2:-0.6 3:0.773585 4:-0.261261 5:-1 6:-0.333333 7:-0.5 8:-1 9:-1 10:-0.549723 11:-0.558319 12:-0.554176 13:0.0909091 
-32768 1:-1 2:-0.6 3:0.773585 4:-0.261261 5:-1 6:-0.333333 7:-0.5 8:-1 9:-1 10:-0.54558 11:-0.554178 12:-0.550035 13:0.0909091 
9112.783116757488 1:-1 2:-0.6 3:0.773585 4:-0.261261 5:-1 6:-0.333333 7:-0.5 8:-1 9:-1 10:-0.548342 11:-0.556936 12:-0.552795 13:0.0909091 
32768 1:0.285714 2:-0.2 3:-0.132075 4:-0.045045 5:-1 6:-1 7:-1 8:-1 9:-1 10:0.47514 11:0.464455 12:0.468596 13:0.0909091 
-3627.279249248477 1:0.285714 2:-0.2 3:-0.132075 4:-0.045045 5:-1 6:-1 7:-1 8:-1 9:-1 10:0.483427 11:0.472737 12:0.476878 13:0.0909091 
-29129.9352885986 1:0.285714 2:-0.2 3:-0.132075 4:-0.045045 5:-1 6:-1 7:-1 8:-1 9:-1 10:0.473764 11:0.463081 12:0.467222 13:0.0909091 
-5057.639413652268 1:0.5 2:0.2 3:-0.132075 4:-0.045045 5:-1 6:-1 7:-1 8:-1 9:-1 10:0.462709 11:0.450658 12:0.456174 13:0.0909091 
5068.656563891216 1:0.5 2:0.2 3:-0.132075 4:-0.045045 5:-1 6:-1 7:-1 8:-1 9:-1 10:0.457182 11:0.445135 12:0.45065 13:0.0909091 
-770.266117361899 1:0.0714286 2:0.2 3:0.207547 4:-0.045045 5:-1 6:-1 7:-1 8:-1 9:-1 10:0.562157 11:0.55142 12:0.555553 13:-0.0909091 
32768 1:0.5 2:-0.2 3:-0.283019 4:-0.045045 5:-1 6:-1 7:-1 8:-1 9:-1 10:0.50553 11:0.493449 12:0.498965 13:0.0909091 
3.423835408558712 1:0.285714 2:0.2 3:0.0188679 4:-0.045045 5:-1 6:-1 7:-1 8:-1 9:-1 10:0.52072 11:0.508629 12:0.514145 13:0.0909091 
724.5206452110523 1:0.0714286 2:0.6 3:0.396226 4:-0.045045 5:-1 6:-1 7:-1 8:-1 9:-1 10:0.613265 11:0.60111 12:0.606625 13:0.0909091 
-6238.928708000385 1:0.5 2:-0.2 3:-0.283019 4:-0.045045 5:-1 6:-1 7:-1 8:-1 9:-1 10:0.515193 11:0.503106 12:0.508621 13:0.0909091 
-32768 1:0.5 2:-0.2 3:-0.283019 4:-0.045045 5:-1 6:-1 7:-1 8:-1 9:-1 10:0.506905 11:0.494824 12:0.50034 13:0.0909091 
-26534.29455963157 1:0.5 2:-0.2 3:-0.283019 4:-0.045045 5:-1 6:-1 7:-1 8:-1 9:-1 10:0.508289 11:0.496207 12:0.501723 13:0.0909091 
32768 1:0.5 2:-0.2 3:-0.283019 4:-0.045045 5:-1 6:-1 7:-1 8:-1 9:-1 10:0.511049 11:0.498965 12:0.50448 13:0.0909091 
32070.37559108866 1:0.0714286 2:0.6 3:0.396226 4:-0.045045 5:-1 6:-1 7:-1 8:-1 9:-1 10:0.617408 11:0.605251 12:0.610766 13:0.0909091 
-32768 1:0.0714286 2:0.6 3:0.396226 4:-0.045045 5:-1 6:-1 7:-1 8:-1 9:-1 10:0.617408 11:0.605251 12:0.610766 13:0.0909091 
46.08403297321002 1:0.5 2:0.2 3:-0.132075 4:-0.045045 5:-1 6:-1 7:-1 8:-1 9:-1 10:0.00552349 11:-0.00621118 12:-0.000695652 13:0.0909091 
-5.921639849633737 1:0.166667 2:0.422222 3:-0.0188679 4:0.63964 5:-1 6:-1 7:-0.5 8:-1 9:-1 10:0.64779 11:0.635611 12:0.641126 13:-0.0909091 
-32768 1:-0.142857 2:0.2 3:0.396226 4:-0.045045 5:-1 6:-1 7:-1 8:-1 9:-1 10:0.685082 11:0.672878 12:0.678393 13:-0.0909091 
32768 1:0.0714286 2:0.2 3:0.207547 4:-0.045045 5:-1 6:-1 7:-1 8:-1 9:-1 10:0.675411 11:0.663213 12:0.668729 13:-0.0909091 
32768 1:0.0714286 2:0.2 3:0.207547 4:-0.045045 5:-1 6:-1 7:-1 8:-1 9:-1 10:0.668508 11:0.656315 12:0.66183 13:-0.0909091 
-32768 1:0.0714286 2:0.2 3:0.207547 4:-0.045045 5:-1 6:-1 7:-1 8:-1 9:-1 10:0.680939 11:0.668737 12:0.674253 13:-0.0909091 
-15311.31102070891 1:0.0714286 2:0.2 3:0.207547 4:-0.045045 5:-1 6:-1 7:-1 8:-1 9:-1 10:0.668508 11:0.656315 12:0.66183 13:-0.0909091 
32648.52771485455 1:-0.142857 2:0.2 3:0.396226 4:-0.045045 5:-1 6:-1 7:-1 8:-1 9:-1 10:0.686466 11:0.674261 12:0.679776 13:-0.0909091 
-32768 1:0.0714286 2:0.2 3:0.207547 4:-0.045045 5:-1 6:-1 7:-1 8:-1 9:-1 10:0.683698 11:0.671495 12:0.67701 13:-0.0909091 
-32768 1:0.0714286 2:0.2 3:0.207547 4:-0.045045 5:-1 6:-1 7:-1 8:-1 9:-1 10:0.668508 11:0.656315 12:0.66183 13:-0.0909091 
32768 1:0.0714286 2:0.2 3:0.207547 4:-0.045045 5:-1 6:-1 7:-1 8:-1 9:-1 10:0.669892 11:0.657698 12:0.663213 13:-0.0909091 
337.0241939783632 1:-0.0714286 2:0.2 3:0.132075 4:0.459459 5:-1 6:-1 7:-1 8:1 9:-1 10:0.651933 11:0.639752 12:0.645267 13:-0.0909091 
-322.8886630191144 1:-0.0714286 2:0.2 3:0.132075 4:0.459459 5:-1 6:-1 7:-1 8:1 9:-1 10:0.654693 11:0.642509 12:0.648025 13:-0.0909091 
-26.73113425761492 1:0.0714286 2:0.6 3:0.396226 4:-0.045045 5:-1 6:-1 7:-1 8:-1 9:-1 10:0.604969 11:0.59282 12:0.598335 13:-0.0909091 
-45.87224066794757 1:-0.142857 2:0.6 3:0.584906 4:-0.045045 5:-1 6:-1 7:-1 8:-1 9:-1 10:-0.441988 11:-0.452033 12:-0.44652 13:-0.272727 
-15.46889275212854 1:-0.357143 2:-0.2 3:0.396226 4:-0.045045 5:-1 6:-1 7:-1 8:-1 9:-1 10:0.701657 11:0.689441 12:0.694957 13:-0.0909091 
3.978876711468149 1:-0.571429 2:-0.6 3:0.358491 4:-0.045045 5:-1 6:-1 7:-1 8:-1 9:-1 10:-0.893647 11:-0.904762 12:-0.899246 13:-0.0909091 
2.748067936862808 1:-0.571429 2:-0.2 3:0.584906 4:-0.045045 5:-1 6:-1 7:-1 8:-1 9:-1 10:-0.883978 11:-0.895097 12:-0.889582 13:-0.0909091 
-2.034640705199035 1:-0.0714286 2:0.2 3:0.0943396 4:0.63964 5:-1 6:-1 7:-1 8:1 9:-1 10:0.651933 11:0.641135 12:0.645267 13:-0.0909091 
8.227103274245685 1:-0.142857 2:-0.2 3:0.207547 4:-0.045045 5:-1 6:-1 7:-1 8:-1 9:-1 10:-0.0359105 11:-0.0365714 12:-0.0365797 13:-0.818182 
-16.82777207646471 1:-0.357143 2:0.2 3:0.584906 4:-0.045045 5:-1 6:-1 7:-1 8:-1 9:-1 10:0.772099 11:0.759834 12:0.76535 13:-0.0909091 
2.625649423285816 1:0.0714286 2:-0.2 3:0.0188679 4:-0.045045 5:-1 6:-1 7:-1 8:-1 9:-1 10:0.816295 11:0.805383 12:0.810899 13:-0.0909091 
35.77204136098176 1:-0.142857 2:0.6 3:0.584906 4:-0.045045 5:-1 6:-1 7:-1 8:-1 9:-1 10:-0.381214 11:-0.392679 12:-0.387166 13:-0.0909091 
-34.41968409246089 1:-0.142857 2:0.6 3:0.584906 4:-0.045045 5:-1 6:-1 7:-1 8:-1 9:-1 10:-0.390883 11:-0.402344 12:-0.396828 13:-0.0909091 
0.05978099271506375 1:-0.142857 2:0.6 3:0.584906 4:-0.045045 5:-1 6:-0.333333 7:-1 8:-1 9:-1 10:0.424041 11:0.414774 12:0.418907 13:-0.272727 
10.49570239574841 1:-0.142857 2:-0.6 3:0.0188679 4:-0.045045 5:-1 6:-1 7:-1 8:-1 9:-1 10:0.516577 11:0.515528 12:0.51552 13:-0.818182 
2528.949899992248 1:-0.571429 2:0.2 3:0.773585 4:-0.657658 5:-1 6:-1 7:-1 8:1 9:-1 10:-0.368783 11:-0.377499 12:-0.373361 13:-0.454545 
-27917.5181813071 1:-0.571429 2:0.2 3:0.773585 4:-0.657658 5:-1 6:-1 7:-1 8:1 9:-1 10:-0.390883 11:-0.399586 12:-0.395445 13:-0.454545 
25378.53165763042 1:-0.571429 2:0.2 3:0.773585 4:-0.657658 5:-1 6:-1 7:-1 8:1 9:-1 10:-0.426795 11:-0.43547 12:-0.431332 13:-0.454545 
-32768 1:-0.571429 2:0.2 3:0.773585 4:-0.657658 5:-1 6:-1 7:-1 8:1 9:-1 10:-0.424032 11:-0.432712 12:-0.428571 13:-0.454545 
32768 1:-0.571429 2:0.2 3:0.773585 4:-0.657658 5:-1 6:-1 7:-1 8:1 9:-1 10:-0.397789 11:-0.406484 12:-0.402346 13:-0.454545 
22080.22107397708 1:-0.142857 2:0.6 3:0.584906 4:-0.045045 5:-1 6:-1 7:-1 8:-1 9:-1 10:0.581499 11:0.576265 12:0.57764 13:-0.454545 
32768 1:-0.142857 2:0.6 3:0.584906 4:-0.045045 5:-1 6:-1 7:-1 8:-1 9:-1 10:0.549726 11:0.544513 12:0.545888 13:-0.454545 
32768 1:-0.142857 2:0.6 3:0.584906 4:-0.045045 5:-1 6:-1 7:-1 8:-1 9:-1 10:0.540063 11:0.534857 12:0.536232 13:-0.454545 
-32768 1:-0.142857 2:0.6 3:0.584906 4:-0.045045 5:-1 6:-1 7:-1 8:-1 9:-1 10:0.580115 11:0.574882 12:0.576257 13:-0.454545 
-32768 1:-0.142857 2:0.6 3:0.584906 4:-0.045045 5:-1 6:-1 7:-1 8:-1 9:-1 10:0.534535 11:0.529333 12:0.530708 13:-0.454545 
32768 1:-0.142857 2:0.6 3:0.584906 4:-0.045045 5:-1 6:-1 7:-1 8:-1 9:-1 10:0.538679 11:0.533474 12:0.534849 13:-0.454545 
-32768 1:-0.142857 2:0.6 3:0.584906 4:-0.045045 5:-1 6:-1 7:-1 8:-1 9:-1 10:0.534535 11:0.529333 12:0.530708 13:-0.454545 
32768 1:-0.142857 2:0.6 3:0.584906 4:-0.045045 5:-1 6:-1 7:-1 8:-1 9:-1 10:0.534535 11:0.529333 12:0.530708 13:-0.454545 
32768 1:-0.142857 2:0.6 3:0.584906 4:-0.045045 5:-1 6:-1 7:-1 8:-1 9:-1 10:0.534535 11:0.529333 12:0.530708 13:-0.454545 
-32768 1:-0.142857 2:0.6 3:0.584906 4:-0.045045 5:-1 6:-1 7:-1 8:-1 9:-1 10:0.531776 11:0.526576 12:0.52795 13:-0.454545 
-32768 1:-0.142857 2:0.6 3:0.584906 4:-0.045045 5:-1 6:-1 7:-1 8:-1 9:-1 10:0.531776 11:0.526576 12:0.52795 13:-0.454545 
-32768 1:-0.142857 2:0.6 3:0.584906 4:-0.045045 5:-1 6:-1 7:-1 8:-1 9:-1 10:0.531776 11:0.526576 12:0.52795 13:-0.454545 
-32768 1:-0.142857 2:0.6 3:0.584906 4:-0.045045 5:-1 6:-1 7:-1 8:-1 9:-1 10:0.533151 11:0.52795 12:0.529325 13:-0.454545 
-32768 1:-0.142857 2:0.6 3:0.584906 4:-0.045045 5:-1 6:-1 7:-1 8:-1 9:-1 10:0.530392 11:0.525193 12:0.526567 13:-0.454545 
31288.19433242227 1:-0.142857 2:0.6 3:0.584906 4:-0.045045 5:-1 6:-1 7:-1 8:-1 9:-1 10:0.530392 11:0.525193 12:0.526567 13:-0.454545 
-32768 1:-0.142857 2:0.6 3:0.584906 4:-0.045045 5:-1 6:-1 7:-1 8:-1 9:-1 10:0.531776 11:0.526576 12:0.52795 13:-0.454545 
32768 1:-0.142857 2:0.6 3:0.584906 4:-0.045045 5:-1 6:-1 7:-1 8:-1 9:-1 10:0.531776 11:0.526576 12:0.52795 13:-0.454545 
32768 1:-0.142857 2:0.6 3:0.584906 4:-0.045045 5:-1 6:-1 7:-1 8:-1 9:-1 10:0.519345 11:0.514153 12:0.515528 13:-0.454545 
0.4342456483369994 1:-0.142857 2:0.6 3:0.584906 4:-0.045045 5:-1 6:-1 7:-1 8:-1 9:-1 10:0.517961 11:0.51277 12:0.514145 13:-0.454545 
12165.15146395778 1:-0.142857 2:0.6 3:0.584906 4:-0.045045 5:-1 6:-1 7:-1 8:-1 9:-1 10:0.517961 11:0.51277 12:0.514145 13:-0.454545 
-72.39250981788483 1:-0.142857 2:0.2 3:0.396226 4:-0.045045 5:-1 6:-1 7:-1 8:-1 9:-1 10:0.491715 11:0.486542 12:0.487917 13:-0.454545 
26780.1976739105 1:-0.142857 2:0.2 3:0.396226 4:-0.045045 5:-1 6:-1 7:-1 8:-1 9:-1 10:-0.212706 11:-0.217389 12:-0.216014 13:-0.454545 
32768 1:-0.142857 2:0.2 3:0.396226 4:-0.045045 5:-1 6:-1 7:-1 8:-1 9:-1 10:-0.215468 11:-0.220149 12:-0.218774 13:-0.454545 
-32768 1:-0.142857 2:0.2 3:0.396226 4:-0.045045 5:-1 6:-1 7:-1 8:-1 9:-1 10:-0.214087 11:-0.218769 12:-0.217394 13:-0.454545 
32768 1:-0.142857 2:0.2 3:0.396226 4:-0.045045 5:-1 6:-1 7:-1 8:-1 9:-1 10:-0.220993 11:-0.22567 12:-0.224296 13:-0.454545 
-32768 1:-0.142857 2:0.2 3:0.396226 4:-0.045045 5:-1 6:-1 7:-1 8:-1 9:-1 10:-0.21823 11:-0.222909 12:-0.221535 13:-0.454545 
-32768 1:-0.142857 2:0.2 3:0.396226 4:-0.045045 5:-1 6:-1 7:-1 8:-1 9:-1 10:-0.219612 11:-0.22429 12:-0.222915 13:-0.454545 
6035.13629351841 1:-0.142857 2:0.2 3:0.396226 4:-0.045045 5:-1 6:-1 7:-1 8:-1 9:-1 10:-0.227899 11:-0.232571 12:-0.231197 13:-0.454545 
0.03646016099815984 1:-0.357143 2:0.6 3:0.773585 4:-0.81982 6:0.333333 7:-1 8:-1 9:-1 10:0.523488 11:0.516911 12:0.519669 13:-0.636364 
-32768 1:-0.357143 2:0.6 3:0.773585 4:-0.81982 6:0.333333 7:-1 8:-1 9:-1 10:0.523488 11:0.516911 12:0.519669 13:-0.636364 
24187.56366531058 1:-0.357143 2:0.6 3:0.773585 4:-0.81982 6:0.333333 7:-1 8:-1 9:-1 10:0.523488 11:0.516911 12:0.519669 13:-0.636364 
-32768 1:-0.357143 2:0.6 3:0.773585 4:-0.81982 6:0.333333 7:-1 8:-1 9:-1 10:0.522104 11:0.515528 12:0.518286 13:-0.636364 
32768 1:-0.357143 2:0.6 3:0.773585 4:-0.81982 6:0.333333 7:-1 8:-1 9:-1 10:0.523488 11:0.516911 12:0.519669 13:-0.636364 
-32768 1:-0.357143 2:0.6 3:0.773585 4:-0.81982 6:0.333333 7:-1 8:-1 9:-1 10:0.52072 11:0.514145 12:0.516903 13:-0.636364 
-32768 1:-0.357143 2:0.6 3:0.773585 4:-0.81982 6:0.333333 7:-1 8:-1 9:-1 10:0.517961 11:0.511387 12:0.514145 13:-0.636364 
8581.378138317841 1:-0.357143 2:0.6 3:0.773585 4:-0.81982 6:0.333333 7:-1 8:-1 9:-1 10:0.519345 11:0.51277 12:0.515528 13:-0.636364 
32768 1:-0.357143 2:0.6 3:0.773585 4:-0.81982 6:0.333333 7:-1 8:-1 9:-1 10:0.519345 11:0.51277 12:0.515528 13:-0.636364 
32768 1:-0.357143 2:0.6 3:0.773585 4:-0.81982 6:0.333333 7:-1 8:-1 9:-1 10:0.519345 11:0.51277 12:0.515528 13:-0.636364 
-4130.755233624995 1:-0.357143 2:0.2 3:0.584906 4:-0.045045 6:-1 7:-1 8:-1 9:-1 10:0.501386 11:0.494824 12:0.497582 13:-0.636364 
4132.707096591198 1:-0.357143 2:0.2 3:0.584906 4:-0.045045 6:-1 7:-1 8:-1 9:-1 10:0.500002 11:0.493441 12:0.496199 13:-0.636364 
-0.2073974594401583 1:-0.785714 2:-0.2 3:0.773585 4:-0.045045 6:0.333333 7:-1 8:-1 9:-1 10:0.585635 11:0.580406 12:0.583155 13:-0.636364 
3.773928248022177 1:-0.785714 2:-0.6 3:0.584906 4:-0.045045 5:-1 6:-1 7:-1 8:-1 9:-1 10:0.077352 11:0.0779876 12:0.0766046 13:1 
-0.006901658431644364 1:-0.666667 2:0.2 3:0.849057 4:0.459459 5:-1 6:-1 7:-1 8:-1 9:1 10:0.81492 11:0.809524 12:0.810899 13:-0.636364 
-2446.552334010417 1:-0.357143 2:0.2 3:0.584906 4:-0.045045 5:-1 6:-1 7:-1 8:-1 9:-1 10:0.621544 11:0.61629 12:0.619039 13:-0.636364 
3.613958392442012 1:-0.904762 2:-0.0222222 3:1 4:-0.801802 5:1 6:-1 7:-1 8:-1 9:-1 10:0.348065 11:0.344373 12:0.345747 13:-0.636364 
3.589616239223888 1:-0.142857 2:0.2 3:0.396226 4:-0.045045 5:-1 6:-1 7:-0.5 8:-1 9:-1 10:0.451654 11:0.450658 12:0.45065 13:1 
1920.372356784542 1:0.714286 2:0.6 3:-0.132075 4:-0.045045 5:-1 6:-1 7:-1 8:-1 9:-1 10:0.193369 11:0.182882 12:0.188398 13:-0.0909091 
-55.24578569730465 1:0.285714 2:-0.2 3:-0.132075 4:-0.045045 5:-1 6:-1 7:-1 8:-1 9:-1 10:-0.0110511 11:-0.0144928 12:-0.013118 13:-0.636364 
69.06077348324609 1:0.285714 2:-0.2 3:-0.132075 4:-0.045045 5:-1 6:-1 7:-1 8:-1 9:-1 10:-0.0193384 11:-0.0227743 12:-0.0213996 13:-0.636364 
-22.90782680649539 1:-0.785714 2:0.2 3:1 4:-0.045045 5:-1 6:-1 7:-1 8:-1 9:-1 10:0.780386 11:0.776398 12:0.777772 13:-0.636364 
1081.418552611107 1:-0.357143 2:0.2 3:0.584906 4:-0.045045 5:-1 6:-1 7:-1 8:-1 9:-1 10:0.540063 11:0.537615 12:0.537615 13:-0.636364 
36.93526341915855 1:-0.357143 2:-0.2 3:0.396226 4:-0.045045 5:-1 6:-1 7:-1 8:-1 9:-1 10:0.549726 11:0.547271 12:0.547271 13:-0.636364 
-15.34697484278706 1:0.285714 2:-0.2 3:-0.132075 4:-0.045045 5:-1 6:-1 7:-1 8:-1 9:-1 10:-0.0497197 11:-0.0517516 12:-0.0517598 13:-0.818182 
-32755.41047246953 1:-0.142857 2:-0.2 3:0.207547 4:-0.045045 5:-1 6:-1 7:-1 8:-1 9:-1 10:-0.117405 11:-0.116629 12:-0.118021 13:1 
32768 1:-0.142857 2:-0.2 3:0.207547 4:-0.045045 5:-1 6:-1 7:-1 8:-1 9:-1 10:-0.117405 11:-0.116629 12:-0.118021 13:1 
-3.215261793536922 1:-0.142857 2:-1 3:-0.132075 4:-0.045045 5:-1 6:-1 7:-1 8:-1 9:-1 10:0.476516 11:0.475503 12:0.475495 13:-1 
-21.83051296544776 1:-0.142857 2:0.2 3:0.396226 4:-0.045045 5:-1 6:-1 7:-1 8:-1 9:-1 10:-0.328728 11:-0.338857 12:-0.333339 13:-0.272727 
2.936559526666974 1:-0.190476 2:0.2 3:0.245283 4:0.0990991 5:-1 6:-1 7:-1 8:1 9:-1 10:-0.356352 11:-0.36646 12:-0.360944 13:-0.272727 
8.755557627589246 1:-0.357143 2:0.2 3:0.584906 4:-0.045045 5:-1 6:-1 7:-1 8:-1 9:-1 10:-0.414364 11:-0.424431 12:-0.418915 13:-0.272727 
-18.18499834405749 1:0.285714 2:-0.6 3:-0.283019 4:-0.045045 5:-1 6:-1 7:-1 8:-1 9:-1 10:0.414367 11:0.413391 12:0.413383 13:-1 
-66.7147036650363 1:0.5 2:0.2 3:-0.132075 4:-0.045045 5:-1 6:-1 7:-1 8:-1 9:-1 10:0.116021 11:0.104207 12:0.109723 13:0.0909091 
-2003.29127064826 1:-0.357143 2:0.2 3:0.584906 4:-0.045045 5:-1 6:-1 7:-1 8:-1 9:-1 10:-0.16851 11:-0.169085 12:-0.169085 13:-1 
-30797.72906387084 1:-0.357143 2:0.2 3:0.584906 4:-0.045045 5:-1 6:-1 7:-1 8:-1 9:-1 10:-0.190606 11:-0.191166 12:-0.191166 13:-1 
-161.1167670814196 1:-0.571429 2:-0.2 3:0.584906 4:-0.045045 5:-1 6:-1 7:-1 8:-1 9:-1 10:-0.201657 11:-0.202209 12:-0.202209 13:-1 
32768 1:-0.357143 2:0.2 3:0.584906 4:-0.045045 5:-1 6:-1 7:-1 8:-1 9:-1 10:-0.189226 11:-0.189786 12:-0.189786 13:-1 
-21399.05944979792 1:0.285714 2:-0.2 3:-0.132075 4:-0.045045 5:-1 6:-1 7:-1 8:-1 9:-1 10:0.0414407 11:0.0421035 12:0.0420952 13:1 
-32768 1:0.285714 2:-0.2 3:-0.132075 4:-0.045045 5:-1 6:-1 7:-1 8:-1 9:-1 10:0.0524876 11:0.0531429 12:0.0531346 13:1 
32768 1:0.285714 2:-0.2 3:-0.132075 4:-0.045045 5:-1 6:-1 7:-1 8:-1 9:-1 10:0.04696 11:0.047619 12:0.0476108 13:1 
21356.34666940881 1:0.285714 2:-0.2 3:-0.132075 4:-0.045045 5:-1 6:-1 7:-1 8:-1 9:-1 10:0.049728 11:0.0503851 12:0.0503768 13:1 
-1917.687666091291 1:0.714286 2:0.6 3:-0.132075 4:-0.045045 5:-1 6:-1 7:-1 8:-1 9:-1 10:0.196137 11:0.185648 12:0.191164 13:-0.0909091 
-32768 1:-0.0714286 2:0.2 3:0.169811 4:-0.621622 5:1 6:-0.333333 7:-1 8:-1 9:-1 10:0.397792 11:0.398211 12:0.39682 13:-1 
10755.1158272662 1:-0.0714286 2:0.2 3:0.169811 4:-0.621622 5:1 6:-0.333333 7:-1 8:-1 9:-1 10:0.399176 11:0.399594 12:0.398203 13:-1 
-10769.91790814109 1:-0.0714286 2:0.2 3:0.169811 4:-0.621622 5:1 6:-0.333333 7:-1 8:-1 9:-1 10:0.386745 11:0.387172 12:0.385781 13:-1 
32768 1:-0.0714286 2:0.2 3:0.169811 4:-0.621622 5:1 6:-0.333333 7:-1 8:-1 9:-1 10:0.393649 11:0.39407 12:0.392679 13:-1 
72.15302671303181 1:-0.785714 2:-0.2 3:0.773585 4:-0.045045 5:-1 6:-1 7:-0.5 8:-1 9:-1 10:-0.494474 11:-0.493441 12:-0.493443 13:-1 
7.895904169440867 1:-0.357143 2:0.2 3:0.584906 4:-0.387387 5:-1 6:-1 7:-1 8:-1 9:-1 10:-0.215468 11:-0.214625 12:-0.216017 13:1 
5.550289773479792 1:0.285714 2:-0.2 3:-0.132075 4:-0.045045 5:-1 6:-1 7:-0.5 8:-1 9:-1 10:0.319065 11:0.319536 12:0.318153 13:-1 
-2.573887825214626 1:-0.785714 2:-0.2 3:0.773585 4:-0.045045 5:-1 6:-0.333333 7:-1 8:-1 9:-1 10:-0.277624 11:-0.285027 12:-0.282267 13:0.272727 
-32768 1:-0.142857 2:0.2 3:0.396226 4:-0.045045 5:-1 6:-0.333333 7:-1 8:-1 9:-1 10:0.339784 11:0.338857 12:0.338857 13:0.818182 
-122.8093810276971 1:0.0714286 2:0.2 3:0.207547 4:-0.045045 5:-1 6:-1 7:-1 8:-1 9:-1 10:0.400554 11:0.399586 12:0.399586 13:0.818182 
2706.164763257005 1:-0.142857 2:0.2 3:0.396226 4:-0.045045 5:-1 6:-0.333333 7:-1 8:-1 9:-1 10:0.354974 11:0.354037 12:0.354037 13:0.818182 
30087.4486905856 1:-0.142857 2:0.2 3:0.396226 4:-0.045045 5:-1 6:-0.333333 7:-1 8:-1 9:-1 10:0.3384 11:0.337474 12:0.337474 13:0.818182 
-73.10143299747919 1:-0.571429 2:-0.2 3:0.584906 4:-0.045045 5:-1 6:-1 7:-1 8:-1 9:-1 10:0.918511 11:0.917184 12:0.917184 13:1 
12.01032245044015 1:-0.357143 2:0.2 3:0.584906 4:-0.495495 5:-1 6:-1 7:-1 8:-1 9:-1 10:0.856356 11:0.856455 12:0.856447 13:1 
-2.189870587522474 1:-0.309524 2:0.2 3:0.358491 4:-0.441441 5:-1 6:-1 7:-1 8:1 9:-1 10:0.881218 11:0.8813 12:0.881292 13:1 
-17.17562811371566 1:-0.357143 2:0.2 3:0.584906 4:-0.495495 5:-1 6:-1 7:-1 8:-1 9:-1 10:0.81492 11:0.815048 12:0.815039 13:1 
-18749.68775575958 1:-0.357143 2:-0.2 3:0.396226 4:-0.045045 5:-1 6:-1 7:-1 8:-1 9:-1 10:-0.254143 11:-0.254658 12:-0.254664 13:1 
32768 1:-0.357143 2:-0.2 3:0.396226 4:-0.045045 5:-1 6:-1 7:-1 8:-1 9:-1 10:-0.249999 11:-0.250518 12:-0.250523 13:1 
-14048.01495466452 1:-0.357143 2:-0.2 3:0.396226 4:-0.045045 5:-1 6:-1 7:-1 8:-1 9:-1 10:-0.244474 11:-0.244994 12:-0.245002 13:1 
8.450160625651634 1:-0.571429 2:-0.2 3:0.584906 4:-0.045045 5:-1 6:-1 7:-1 8:-1 9:-1 10:-0.267954 11:-0.268455 12:-0.268466 13:1 
-1.399101269309409 1:0.5 2:0.6 3:0.0566038 4:-0.045045 5:-1 6:-1 7:-1 8:-1 9:-1 10:0.0814957 11:0.0766128 12:0.0793623 13:-0.636364 
7.711928820351294 1:0.285714 2:-0.2 3:-0.132075 4:-0.045045 5:-1 6:-1 7:-1 8:-1 9:-1 10:0.0276232 11:0.0269151 12:0.0269068 13:0.818182 
6.310477918929704 1:0.5 2:0.2 3:-0.132075 4:-0.603604 5:-1 6:-1 7:-1 8:1 9:-1 10:0.383982 11:0.383031 12:0.383023 13:0.818182 
1735.042675051545 1:-0.142857 2:0.2 3:0.396226 4:-0.963964 5:-1 6:-1 7:-1 8:1 9:-1 10:0.636743 11:0.634228 12:0.635602 13:0.636364 
21837.50193262481 1:-0.142857 2:0.2 3:0.396226 4:-0.963964 5:-1 6:-1 7:-1 8:1 9:-1 10:0.636743 11:0.634228 12:0.635602 13:0.636364 
-32768 1:-0.142857 2:0.2 3:0.396226 4:-0.963964 5:-1 6:-1 7:-1 8:1 9:-1 10:0.633983 11:0.63147 12:0.632845 13:0.636364 
-25600.45594637324 1:0.0714286 2:0.2 3:0.207547 4:-1 5:-1 6:-1 7:-1 8:1 9:-1 10:0.611881 11:0.609383 12:0.610758 13:0.636364 
-32768 1:0.0714286 2:0.2 3:0.207547 4:-1 5:-1 6:-1 7:-1 8:1 9:-1 10:0.620168 11:0.617665 12:0.619039 13:0.636364 
4170.085442126573 1:-0.142857 2:0.2 3:0.396226 4:-0.963964 5:-1 6:-1 7:-1 8:1 9:-1 10:0.631223 11:0.628712 12:0.630087 13:0.636364 
5043.247092854673 1:-0.142857 2:0.2 3:0.396226 4:-0.963964 5:-1 6:-1 7:-1 8:1 9:-1 10:0.624312 11:0.621805 12:0.62318 13:0.636364 
32768 1:0.0714286 2:0.2 3:0.207547 4:-1 5:-1 6:-1 7:-1 8:1 9:-1 10:0.616024 11:0.613524 12:0.614899 13:0.636364 
16257.55014062835 1:0.0714286 2:0.2 3:0.207547 4:-1 5:-1 6:-1 7:-1 8:1 9:-1 10:0.59945 11:0.596961 12:0.598335 13:0.636364 
-32768 1:0.0714286 2:0.2 3:0.207547 4:-1 5:-1 6:-1 7:-1 8:1 9:-1 10:0.59393 11:0.591445 12:0.59282 13:0.636364 
-32768 1:0.0714286 2:0.2 3:0.207547 4:-1 5:-1 6:-1 7:-1 8:1 9:-1 10:0.595306 11:0.59282 12:0.594195 13:0.636364 
32768 1:0.0714286 2:0.2 3:0.207547 4:-1 5:-1 6:-1 7:-1 8:1 9:-1 10:0.604977 11:0.602484 12:0.603859 13:0.636364 
32768 1:0.0714286 2:0.2 3:0.207547 4:-1 5:-1 6:-1 7:-1 8:1 9:-1 10:0.609121 11:0.606625 12:0.608 13:0.636364 
-32768 1:0.0714286 2:0.2 3:0.207547 4:-1 5:-1 6:-1 7:-1 8:1 9:-1 10:0.59945 11:0.596961 12:0.598335 13:0.636364 
-32768 1:0.0714286 2:0.2 3:0.207547 4:-1 5:-1 6:-1 7:-1 8:1 9:-1 10:0.59669 11:0.594203 12:0.595578 13:0.636364 
32768 1:0.0714286 2:0.2 3:0.207547 4:-1 5:-1 6:-1 7:-1 8:1 9:-1 10:0.59669 11:0.594203 12:0.595578 13:0.636364 
32768 1:0.0714286 2:0.2 3:0.207547 4:-1 5:-1 6:-1 7:-1 8:1 9:-1 10:0.588403 11:0.585921 12:0.587296 13:0.636364 
-32768 1:0.0714286 2:0.2 3:0.207547 4:-1 5:-1 6:-1 7:-1 8:1 9:-1 10:0.584259 11:0.581781 12:0.583155 13:0.636364 
32768 1:0.0714286 2:0.2 3:0.207547 4:-1 5:-1 6:-1 7:-1 8:1 9:-1 10:0.582875 11:0.580398 12:0.581772 13:0.636364 
-32768 1:0.0714286 2:0.2 3:0.207547 4:-1 5:-1 6:-1 7:-1 8:1 9:-1 10:0.584259 11:0.581781 12:0.583155 13:0.636364 
32768 1:0.0714286 2:0.2 3:0.207547 4:-1 5:-1 6:-1 7:-1 8:1 9:-1 10:0.589787 11:0.587304 12:0.588679 13:0.636364 
9260.788354867618 1:0.0714286 2:0.2 3:0.207547 4:-1 5:-1 6:-1 7:-1 8:1 9:-1 10:0.584259 11:0.581781 12:0.583155 13:0.636364 
-1.724642189510265 1:-0.357143 2:-0.2 3:0.396226 4:-0.045045 5:-1 6:-1 7:-1 8:-1 9:-1 10:0.733431 11:0.729474 12:0.730849 13:0.454545 
-7.690063911326594 1:-0.357143 2:0.2 3:0.584906 4:-0.711712 5:-1 6:-1 7:-1 8:1 9:-1 10:0.756909 11:0.754311 12:0.755685 13:0.636364 
-35.95158525616576 1:0.0714286 2:-0.2 3:0.0188679 4:-0.045045 5:-1 6:-1 7:-1 8:-1 9:-1 10:0.640886 11:0.636994 12:0.638369 13:0.454545 
1.618745068208191 1:0.52381 2:0.422222 3:-0.358491 4:0.81982 5:-1 6:-1 7:-1 8:1 9:-1 10:0.14227 11:0.131818 12:0.137333 13:0.0909091 
2.69879902501368 1:0.5 2:-1 3:-0.584906 4:-0.045045 5:-1 6:-1 7:-1 8:-1 9:-1 10:0.558013 11:0.552803 12:0.555553 13:0.454545 
32768 1:0.714286 2:0.2 3:-0.283019 4:-0.045045 5:-1 6:-1 7:-1 8:-1 9:-1 10:0.33564 11:0.330576 12:0.333333 13:0.454545 
-1584.212021540221 1:0.714286 2:0.2 3:-0.283019 4:-0.045045 5:-1 6:-1 7:-1 8:-1 9:-1 10:0.343927 11:0.338857 12:0.341615 13:0.454545 
-32768 1:0.714286 2:0.2 3:-0.283019 4:-0.045045 5:-1 6:-1 7:-1 8:-1 9:-1 10:0.334256 11:0.329193 12:0.33195 13:0.454545 
1563.637067560545 1:0.714286 2:0.2 3:-0.283019 4:-0.045045 5:-1 6:-1 7:-1 8:-1 9:-1 10:0.317681 11:0.312629 12:0.315387 13:0.454545 
8.394567253238609 1:-0.357143 2:0.6 3:0.773585 4:-0.045045 5:-1 6:-1 7:-1 8:-1 9:-1 10:0.669892 11:0.660455 12:0.664588 13:-0.272727 
-32768 1:0.285714 2:0.2 3:0.0188679 4:-0.045045 5:-1 6:-1 7:-1 8:-1 9:-1 10:0.495858 11:0.486542 12:0.490683 13:0.272727 
23920.00346211432 1:0.285714 2:0.2 3:0.0188679 4:-0.045045 5:-1 6:-1 7:-1 8:-1 9:-1 10:0.494474 11:0.485159 12:0.4893 13:0.272727 
32768 1:0.285714 2:0.2 3:0.0188679 4:-0.045045 5:-1 6:-1 7:-1 8:-1 9:-1 10:0.487571 11:0.478261 12:0.482402 13:0.272727 
-23596.34414737428 1:0.285714 2:0.2 3:0.0188679 4:-0.045045 5:-1 6:-1 7:-1 8:-1 9:-1 10:0.482043 11:0.472737 12:0.476878 13:0.272727 
-0.2011074073008703 1:0.0714286 2:0.6 3:0.396226 4:-0.045045 5:-1 6:-1 7:-1 8:-1 9:-1 10:0.917127 11:0.90752 12:0.91166 13:0.272727 
-21968.80419822155 1:0.0714286 2:0.2 3:0.207547 4:-0.045045 5:-1 6:-1 7:-1 8:-1 9:-1 10:0.585635 11:0.57764 12:0.580398 13:0.272727 
5.727232299147365 1:0.0714286 2:-0.2 3:0.0188679 4:-0.045045 5:-1 6:-1 7:-1 8:-1 9:-1 10:0.806632 11:0.798484 12:0.801234 13:0.272727 
6.875402806199484 1:0.166667 2:0.644444 3:0.132075 4:0.63964 5:-1 6:-1 7:-1 8:1 9:-1 10:-0.088399 11:-0.0959255 12:-0.093176 13:0.272727 
-23701.03830810962 1:0.0714286 2:0.2 3:0.207547 4:-0.045045 5:-1 6:-1 7:-1 8:-1 9:-1 10:0.562157 11:0.554178 12:0.556936 13:0.272727 
4.193772679079045 1:-0.0714286 2:0.2 3:0.0943396 4:1 5:-1 6:-1 7:-1 8:-1 9:-1 10:-0.103587 11:-0.111106 12:-0.108348 13:0.272727 
-3.373726196121118 1:-0.357143 2:0.2 3:0.584906 4:-0.495495 5:-1 6:-1 7:-1 8:-1 9:-1 10:-0.377071 11:-0.384398 12:-0.380265 13:0.272727 
-1.148494133577253 1:-0.357143 2:0.6 3:0.773585 4:-0.045045 5:-1 6:-1 7:-0.5 8:-1 9:-1 10:-0.31906 11:-0.32781 12:-0.323677 13:0.272727 
-127.4683860656599 1:0.0714286 2:0.2 3:0.207547 4:-0.045045 5:-1 6:-1 7:-1 8:-1 9:-1 10:0.683707 11:0.672886 12:0.678402 13:0.0909091 
1513.269417858597 1:0.285714 2:0.2 3:0.0188679 4:-0.045045 5:-1 6:-1 7:-1 8:-1 9:-1 10:0.415745 11:0.406484 12:0.410625 13:0.272727 
-0.8900790730722096 1:-0.571429 2:-0.2 3:0.584906 4:-0.045045 5:-1 6:-1 7:-1 8:-1 9:-1 10:0.618784 11:0.609383 12:0.613524 13:0.0909091 
69.3306891602859 1:-0.142857 2:0.2 3:0.396226 4:-0.045045 5:-1 6:-1 7:-1 8:-1 9:-1 10:0.657461 11:0.646658 12:0.652174 13:0.0909091 
6607.693837623883 1:-0.142857 2:0.6 3:0.584906 4:-0.045045 5:-1 6:-1 7:-1 8:-1 9:-1 10:0.976522 11:0.965491 12:0.971006 13:0.0909091 
27254.84761775175 1:-0.142857 2:0.6 3:0.584906 4:-0.045045 5:-1 6:-1 7:-1 8:-1 9:-1 10:0.926798 11:0.915801 12:0.921317 13:0.0909091 
-32768 1:-0.142857 2:0.6 3:0.584906 4:-0.045045 5:-1 6:-1 7:-1 8:-1 9:-1 10:0.944757 11:0.933747 12:0.939263 13:0.0909091 
-1101.638556042369 1:-0.142857 2:0.6 3:0.584906 4:-0.045045 5:-1 6:-1 7:-1 8:-1 9:-1 10:0.878458 11:0.867495 12:0.87301 13:0.0909091 
32768 1:-0.142857 2:0.6 3:0.584906 4:-0.045045 5:-1 6:-1 7:-1 8:-1 9:-1 10:0.924039 11:0.913043 12:0.918559 13:0.0909091 
-32768 1:-0.142857 2:0.6 3:0.584906 4:-0.045045 5:-1 6:-1 7:-1 8:-1 9:-1 10:0.917135 11:0.906145 12:0.91166 13:0.0909091 
-5235.775470470583 1:-0.357143 2:1 3:1 4:-0.045045 5:-1 6:-1 7:-1 8:-1 9:-1 10:0.556638 11:0.54728 12:0.551412 13:-0.272727 
32381.24406794055 1:0.5 2:0.2 3:-0.132075 4:-0.045045 5:-1 6:-1 7:-1 8:-1 9:-1 10:-0.0469575 11:-0.0476108 12:-0.047619 13:0.818182 
24.88389891003249 1:-0.142857 2:0.6 3:0.584906 4:-0.045045 5:-1 6:-1 7:-1 8:-1 9:-1 10:0.588403 11:0.576265 12:0.581781 13:-0.0909091 
161.2679957571907 1:-0.142857 2:0.2 3:0.396226 4:-0.045045 5:-1 6:-1 7:-1 8:-1 9:-1 10:0.537295 11:0.525193 12:0.530708 13:-0.0909091 
-8.599136706882573 1:0.285714 2:-0.2 3:-0.132075 4:-0.045045 5:-1 6:-1 7:-1 8:-1 9:-1 10:0.578731 11:0.569358 12:0.573499 13:-0.272727 
-6.537466911993962 1:-0.571429 2:0.2 3:0.773585 4:-0.045045 5:-1 6:-1 7:-1 8:-1 9:-1 10:-0.404696 11:-0.416149 12:-0.410631 13:-0.0909091 
-10875.29891165877 1:-0.357143 2:0.6 3:0.773585 4:-0.045045 5:-1 6:-1 7:-1 8:-1 9:-1 10:-0.515193 11:-0.526567 12:-0.521049 13:-0.0909091 
-29.72507699237707 1:-0.571429 2:-0.2 3:0.584906 4:-0.045045 5:-1 6:-1 7:-1 8:-1 9:-1 10:0.773483 11:0.770874 12:0.770874 13:0.636364 
11253.16338549325 1:-0.357143 2:0.6 3:0.773585 4:-0.045045 5:-1 6:-1 7:-1 8:-1 9:-1 10:-0.51243 11:-0.523801 12:-0.518288 13:-0.0909091 
29.53456476682826 1:-0.142857 2:-0.2 3:0.207547 4:-0.045045 5:-1 6:-1 7:-1 8:-1 9:-1 10:0.624312 11:0.614907 12:0.619048 13:0.0909091 
26.34171099474748 1:0.285714 2:0.2 3:0.0188679 4:-0.045045 5:-1 6:-1 7:-1 8:-1 9:-1 10:0.665748 11:0.653557 12:0.659072 13:-0.0909091 
-32768 1:-0.357143 2:0.6 3:0.773585 4:-0.045045 5:-1 6:-0.333333 7:-1 8:-1 9:-1 10:0.464093 11:0.454799 12:0.458932 13:-0.272727 
32768 1:-0.357143 2:0.6 3:0.773585 4:-0.045045 5:-1 6:-0.333333 7:-1 8:-1 9:-1 10:0.469621 11:0.460323 12:0.464455 13:-0.272727 
-32768 1:-0.357143 2:0.6 3:0.773585 4:-0.045045 5:-1 6:-0.333333 7:-1 8:-1 9:-1 10:0.476524 11:0.467222 12:0.471354 13:-0.272727 
32768 1:-0.357143 2:0.6 3:0.773585 4:-0.045045 5:-1 6:-0.333333 7:-1 8:-1 9:-1 10:0.466853 11:0.457557 12:0.461689 13:-0.272727 
32479.36040773401 1:-0.357143 2:0.6 3:0.773585 4:-0.045045 5:-1 6:-0.333333 7:-1 8:-1 9:-1 10:0.470997 11:0.461698 12:0.46583 13:-0.272727 
-32537.18776115499 1:-0.357143 2:0.6 3:0.773585 4:-0.045045 5:-1 6:-0.333333 7:-1 8:-1 9:-1 10:0.466853 11:0.457557 12:0.461689 13:-0.272727 
3519.302738481094 1:-0.357143 2:1 3:1 4:-0.045045 5:-1 6:-1 7:-1 8:-1 9:-1 10:0.566301 11:0.556936 12:0.561068 13:-0.272727 
32768 1:-0.357143 2:1 3:1 4:-0.045045 5:-1 6:-1 7:-1 8:-1 9:-1 10:0.560781 11:0.55142 12:0.555553 13:-0.272727 
-31054.02480614852 1:-0.357143 2:1 3:1 4:-0.045045 5:-1 6:-1 7:-1 8:-1 9:-1 10:0.562157 11:0.552795 12:0.556928 13:-0.272727 
-3.626516507518668 1:0.714286 2:0.6 3:-0.132075 4:-0.045045 5:-1 6:-1 7:-1 8:-1 9:-1 10:0.0552531 11:0.0476273 12:0.0503768 13:-0.454545 
-3.989924159068423 1:-1 2:-0.2 3:1 4:-0.261261 5:-1 6:-0.333333 7:-1 8:-1 9:-1 10:0.747246 11:0.74742 12:0.747412 13:-1 
-32768 1:-0.571429 2:-0.2 3:0.584906 4:-0.045045 5:-1 6:-1 7:-1 8:-1 9:-1 10:-0.998619 11:-0.998617 12:-0.998617 13:-1 
-32768 1:-0.571429 2:-0.2 3:0.584906 4:-0.045045 5:-1 6:-1 7:-1 8:-1 9:-1 10:-1 11:-1 12:-1 13:-1 
-8.15898097110799 1:-0.357143 2:-0.2 3:0.396226 4:-0.045045 5:-1 6:-1 7:-1 8:-1 9:-1 10:0.915751 11:0.91581 12:0.914427 13:1 
10.2485257090376 1:-0.357143 2:-0.2 3:0.396226 4:-0.045045 5:-1 6:-1 7:-1 8:-1 9:-1 10:0.809392 11:0.809524 12:0.808141 13:1 
-32768 1:-0.571429 2:-0.2 3:0.584906 4:-0.045045 5:-1 6:-1 7:-1 8:-1 9:-1 10:-0.990331 11:-0.990335 12:-0.990335 13:-1 
-4.818781868017873 1:-0.357143 2:0.2 3:0.584906 4:-0.045045 5:-1 6:-0.333333 7:-1 8:-1 9:-1 10:0.930942 11:0.93099 12:0.929607 13:1 
32768 1:-0.571429 2:-0.2 3:0.584906 4:-0.045045 5:-1 6:-1 7:-1 8:-1 9:-1 10:-1 11:-1 12:-1 13:-1 
-32768 1:-0.571429 2:-0.2 3:0.584906 4:-0.045045 5:-1 6:-1 7:-1 8:-1 9:-1 10:-0.994475 11:-0.994476 12:-0.994476 13:-1 
32768 1:-0.571429 2:-0.2 3:0.584906 4:-0.045045 5:-1 6:-1 7:-1 8:-1 9:-1 10:-0.998619 11:-0.998617 12:-0.998617 13:-1 
9704.635759698125 1:-0.571429 2:-0.2 3:0.584906 4:-0.045045 5:-1 6:-1 7:-1 8:-1 9:-1 10:-0.998619 11:-0.998617 12:-0.998617 13:-1 
23023.92703648765 1:-0.571429 2:-0.2 3:0.584906 4:-0.045045 5:-1 6:-1 7:-1 8:-1 9:-1 10:-0.994475 11:-0.994476 12:-0.994476 13:-1 
32768 1:-0.571429 2:-0.2 3:0.584906 4:-0.045045 5:-1 6:-1 7:-1 8:-1 9:-1 10:-0.993094 11:-0.993101 12:-0.993101 13:-1 
-32768 1:-0.571429 2:-0.2 3:0.584906 4:-0.045045 5:-1 6:-1 7:-1 8:-1 9:-1 10:-0.991713 11:-0.991718 12:-0.991718 13:-1 
32768 1:-0.571429 2:-0.2 3:0.584906 4:-0.045045 5:-1 6:-1 7:-1 8:-1 9:-1 10:-0.994475 11:-0.994476 12:-0.994476 13:-1 
-32768 1:-0.571429 2:-0.2 3:0.584906 4:-0.045045 5:-1 6:-1 7:-1 8:-1 9:-1 10:-1 11:-1 12:-1 13:-1 
32768 1:-0.571429 2:-0.2 3:0.584906 4:-0.045045 5:-1 6:-1 7:-1 8:-1 9:-1 10:-1 11:-1 12:-1 13:-1 
-32768 1:-0.571429 2:-0.2 3:0.584906 4:-0.045045 5:-1 6:-1 7:-1 8:-1 9:-1 10:-1 11:-1 12:-1 13:-1 
32768 1:-0.571429 2:-0.2 3:0.584906 4:-0.045045 5:-1 6:-1 7:-1 8:-1 9:-1 10:-0.993094 11:-0.993101 12:-0.993101 13:-1 
0.6050191028214609 1:-0.571429 2:0.2 3:0.773585 4:-0.045045 5:-1 6:-1 7:-1 8:-1 9:-1 10:-0.944751 11:-0.947545 12:-0.94617 13:-0.636364 
-4.369528508212162 1:-0.309524 2:-0.466667 3:-0.0566038 4:0.459459 5:-1 6:-1 7:-1 8:1 9:-1 10:0.676795 11:0.677019 12:0.675636 13:0.818182 
-6.627333424968387 1:0.0714286 2:0.2 3:0.207547 4:-0.045045 5:-1 6:-1 7:-0.5 8:-1 9:-1 10:0.697513 11:0.694965 12:0.694957 13:-0.818182 
-8335.230417841371 1:0.285714 2:0.2 3:0.0188679 4:-0.045045 5:-1 6:-1 7:-1 8:-1 9:-1 10:-0.0455785 11:-0.044853 12:-0.0462443 13:1 
6715.756135323288 1:0.285714 2:0.2 3:0.0188679 4:-0.045045 5:-1 6:-1 7:-1 8:-1 9:-1 10:-0.0524818 11:-0.0517516 12:-0.0531429 13:1 
32768 1:-0.142857 2:0.2 3:0.396226 4:-0.261261 5:-1 6:-1 7:-1 8:-1 9:-1 10:-0.149173 11:-0.148381 12:-0.149764 13:1 
-15028.00720641592 1:-0.142857 2:0.2 3:0.396226 4:-0.261261 5:-1 6:-1 7:-1 8:-1 9:-1 10:-0.146405 11:-0.145615 12:-0.146998 13:1 
-32768 1:-0.142857 2:0.2 3:0.396226 4:-0.261261 5:-1 6:-1 7:-1 8:-1 9:-1 10:-0.150549 11:-0.149756 12:-0.151139 13:1 
-4942.827116410374 1:-0.142857 2:0.2 3:0.396226 4:-0.261261 5:-1 6:-1 7:-1 8:-1 9:-1 10:-0.151933 11:-0.151139 12:-0.152522 13:1 
32768 1:-0.142857 2:0.2 3:0.396226 4:-0.261261 5:-1 6:-1 7:-1 8:-1 9:-1 10:-0.151933 11:-0.151139 12:-0.152522 13:1 
-12790.00959930006 1:-0.142857 2:0.2 3:0.396226 4:-0.261261 5:-1 6:-1 7:-1 8:-1 9:-1 10:-0.154692 11:-0.153896 12:-0.15528 13:1 
6.222962059788221 1:0.5 2:0.6 3:0.0566038 4:-0.045045 5:-1 6:-1 7:-1 8:-1 9:-1 10:0.0538716 11:0.0490021 12:0.0517598 13:0.454545 
6.015421602474103 1:-0.571429 2:0.6 3:1 4:-0.045045 5:-1 6:-1 7:-1 8:-1 9:-1 10:-0.429557 11:-0.428571 12:-0.428577 13:-1 
7.881660568357871 1:-0.571429 2:0.2 3:0.773585 4:-0.045045 5:-1 6:-1 7:-1 8:-1 9:-1 10:-0.696133 11:-0.703246 12:-0.699103 13:0.272727 
216.1565402139636 1:-0.357143 2:0.2 3:0.584906 4:-0.045045 5:-1 6:-1 7:-1 8:-1 9:-1 10:0.669892 11:0.67012 12:0.670112 13:-1 
32768 1:-0.309524 2:-0.911111 3:-0.207547 4:0.0990991 5:-1 6:-1 7:-1 8:1 9:-1 10:0.640886 11:0.639752 12:0.639752 13:-1 
-27697.33271253606 1:-0.309524 2:-0.911111 3:-0.207547 4:0.0990991 5:-1 6:-1 7:-1 8:1 9:-1 10:0.638127 11:0.636994 12:0.636994 13:-1 
27730.48406734108 1:-0.309524 2:-0.911111 3:-0.207547 4:0.0990991 5:-1 6:-1 7:-1 8:1 9:-1 10:0.629839 11:0.628712 12:0.628712 13:-1 
-90.82112504611101 1:-0.357143 2:-1 3:0.0188679 4:-0.045045 5:-1 6:-1 7:-1 8:-1 9:-1 10:0.627071 11:0.625946 12:0.625946 13:-1 
-32768 1:-0.309524 2:-0.911111 3:-0.207547 4:0.0990991 5:-1 6:-1 7:-1 8:1 9:-1 10:0.633983 11:0.632853 12:0.632853 13:-1 
88.40465280787647 1:-0.357143 2:-1 3:0.0188679 4:-0.045045 5:-1 6:-1 7:-1 8:-1 9:-1 10:0.606353 11:0.605242 12:0.605242 13:-1 
7.079021218850886 1:0.285714 2:-0.6 3:-0.283019 4:-0.045045 5:-1 6:-1 7:-1 8:-1 9:-1 10:0.147789 11:0.146998 12:0.14699 13:0.636364 
32768 1:0.5 2:-0.2 3:-0.283019 4:-0.045045 5:-1 6:-1 7:-1 8:-1 9:-1 10:0.360502 11:0.360944 12:0.360936 13:-1 
-32369.72308447358 1:0.5 2:-0.2 3:-0.283019 4:-0.045045 5:-1 6:-1 7:-1 8:-1 9:-1 10:0.359118 11:0.359561 12:0.359553 13:-1 
23154.89418399366 1:0.285714 2:-0.6 3:-0.283019 4:-0.045045 5:-1 6:-1 7:-1 8:-1 9:-1 10:0.435079 11:0.43547 12:0.43547 13:1 
-23132.71703789852 1:0.285714 2:-0.6 3:-0.283019 4:-0.045045 5:-1 6:-1 7:-1 8:-1 9:-1 10:0.430936 11:0.431329 12:0.431329 13:1 
-32768 1:0.285714 2:-0.6 3:-0.283019 4:-0.045045 5:-1 6:-1 7:-1 8:-1 9:-1 10:0.430936 11:0.431329 12:0.431329 13:1 
32768 1:0.285714 2:-0.6 3:-0.283019 4:-0.045045 5:-1 6:-1 7:-1 8:-1 9:-1 10:0.428176 11:0.428571 12:0.428571 13:1 
-494.4086626324874 1:-1 2:-0.6 3:0.773585 4:-0.045045 5:-1 6:1 7:-1 8:-1 9:-1 10:0.595306 11:0.595586 12:0.595578 13:0.818182 
488.3038779098345 1:-1 2:-0.6 3:0.773585 4:-0.045045 5:-1 6:1 7:-1 8:-1 9:-1 10:0.602209 11:0.602484 12:0.602476 13:0.818182 
57.16429354045036 1:-0.571429 2:-0.2 3:0.584906 4:-0.045045 5:-1 6:-1 7:-1 8:-1 9:-1 10:1 11:1 12:1 13:1 
13.50579541805234 1:-0.785714 2:0.2 3:1 4:-0.603604 5:-1 6:-1 7:-1 8:-1 9:-1 10:-0.552486 11:-0.551412 12:-0.552801 13:1 
-15.67288615687955 1:-0.785714 2:0.2 3:1 4:-0.603604 5:-1 6:-1 7:-1 8:-1 9:-1 10:-0.504142 11:-0.503097 12:-0.504491 13:1 
4.235952120913565 1:-0.357143 2:-0.6 3:0.207547 4:-0.045045 5:-1 6:-1 7:-1 8:-1 9:-1 10:-0.888121 11:-0.88819 12:-0.888199 13:0.818182 
1.909212746983932 1:-0.142857 2:-0.2 3:0.207547 4:-0.045045 5:-1 6:-1 7:-1 8:-1 9:-1 10:0.254148 11:0.253284 12:0.253275 13:0.818182 
11.17789173274098 1:-0.357143 2:-0.2 3:0.396226 4:-0.045045 5:-1 6:-1 7:-1 8:-1 9:-1 10:0.131215 11:0.130435 12:0.130427 13:0.818182 
-32768 1:0.5 2:0.2 3:-0.132075 4:-0.045045 5:-1 6:-1 7:-1 8:-1 9:-1 10:-0.0469575 11:-0.0476108 12:-0.047619 13:0.818182 
-26745.02498175668 1:0.928571 2:0.2 3:-0.396226 4:-0.045045 5:-1 6:-1 7:-1 8:-1 9:-1 10:0.0179602 11:0.0172588 12:0.0172505 13:0.636364 
32768 1:0.928571 2:0.2 3:-0.396226 4:-0.045045 5:-1 6:-1 7:-1 8:-1 9:-1 10:0.0165763 11:0.0158758 12:0.0158675 13:0.636364 
32768 1:0.928571 2:0.2 3:-0.396226 4:-0.045045 5:-1 6:-1 7:-1 8:-1 9:-1 10:0.0138166 11:0.013118 12:0.0131097 13:0.636364 
-6029.539012177125 1:0.928571 2:0.2 3:-0.396226 4:-0.045045 5:-1 6:-1 7:-1 8:-1 9:-1 10:0.0110486 11:0.010352 12:0.0103437 13:0.636364 
-32768 1:0.928571 2:0.2 3:-0.396226 4:-0.045045 5:-1 6:-1 7:-1 8:-1 9:-1 10:0.0138166 11:0.013118 12:0.0131097 13:0.636364 
2921.034625696683 1:0.0714286 2:0.2 3:0.207547 4:-0.045045 5:-1 6:-1 7:-1 8:-1 9:-1 10:0.436463 11:0.435478 12:0.43547 13:0.636364 
-2931.030215249669 1:0.0714286 2:0.2 3:0.207547 4:-0.045045 5:-1 6:-1 7:-1 8:-1 9:-1 10:0.440607 11:0.439619 12:0.439611 13:0.636364 
36.4941675197518 1:-0.785714 2:-0.2 3:0.773585 4:-0.261261 5:-1 6:-1 7:-1 8:-1 9:-1 10:0.788674 11:0.783304 12:0.784679 13:0.454545 
-35.37654429894832 1:-0.785714 2:-0.2 3:0.773585 4:-0.261261 5:-1 6:-1 7:-1 8:-1 9:-1 10:0.773483 11:0.768124 12:0.769499 13:0.454545 
1.185731215934149 1:0.714286 2:0.2 3:-0.283019 4:-0.045045 5:-1 6:-1 7:-1 8:-1 9:-1 10:0.2058 11:0.203586 12:0.203586 13:0.636364 
0.528953398379741 1:0.928571 2:-0.2 3:-0.54717 4:-0.045045 5:-1 6:-1 7:-1 8:-1 9:-1 10:0.207184 11:0.204969 12:0.204969 13:0.636364 
32768 1:-0.357143 2:0.2 3:0.584906 4:-0.045045 5:-1 6:-1 7:-1 8:-1 9:-1 10:-0.911602 11:-0.913035 12:-0.913043 13:0.636364 
-32768 1:-0.357143 2:0.2 3:0.584906 4:-0.045045 5:-1 6:-1 7:-1 8:-1 9:-1 10:-0.912983 11:-0.914418 12:-0.914427 13:0.636364 
-32768 1:-0.357143 2:0.2 3:0.584906 4:-0.045045 5:-1 6:-1 7:-1 8:-1 9:-1 10:-0.917127 11:-0.918559 12:-0.918567 13:0.636364 
32768 1:-0.357143 2:0.2 3:0.584906 4:-0.045045 5:-1 6:-1 7:-1 8:-1 9:-1 10:-0.914365 11:-0.915801 12:-0.91581 13:0.636364 
23960.38199411445 1:-0.357143 2:0.2 3:0.584906 4:-0.045045 5:-1 6:-1 7:-1 8:-1 9:-1 10:-0.918508 11:-0.919942 12:-0.91995 13:0.636364 
-1766.003444910345 1:-0.357143 2:0.6 3:0.773585 4:-0.045045 5:-1 6:-1 7:-1 8:-1 9:-1 10:0.976522 11:0.972398 12:0.973772 13:0.636364 
-26503.47923888708 1:-0.357143 2:0.6 3:0.773585 4:-0.045045 5:-1 6:-1 7:-1 8:-1 9:-1 10:0.976522 11:0.972398 12:0.973772 13:0.636364 
-19.88359119396056 1:-0.571429 2:0.2 3:0.773585 4:-0.045045 5:-1 6:-1 7:-1 8:-1 9:-1 10:0.737574 11:0.733615 12:0.73499 13:0.636364 
32768 1:-0.357143 2:0.6 3:0.773585 4:-0.045045 5:-1 6:-1 7:-1 8:-1 9:-1 10:0.973762 11:0.96964 12:0.971014 13:0.636364 
32768 1:-0.357143 2:0.6 3:0.773585 4:-0.045045 5:-1 6:-1 7:-1 8:-1 9:-1 10:0.957188 11:0.953077 12:0.954451 13:0.636364 
-32768 1:-0.357143 2:0.6 3:0.773585 4:-0.045045 5:-1 6:-1 7:-1 8:-1 9:-1 10:0.966851 11:0.962733 12:0.964108 13:0.636364 
32768 1:-0.357143 2:0.6 3:0.773585 4:-0.045045 5:-1 6:-1 7:-1 8:-1 9:-1 10:0.973762 11:0.96964 12:0.971014 13:0.636364 
-32768 1:-0.357143 2:0.6 3:0.773585 4:-0.045045 5:-1 6:-1 7:-1 8:-1 9:-1 10:0.966851 11:0.962733 12:0.964108 13:0.636364 
32768 1:-0.357143 2:0.6 3:0.773585 4:-0.045045 5:-1 6:-1 7:-1 8:-1 9:-1 10:0.975138 11:0.971014 12:0.972389 13:0.636364 
-10682.62156082843 1:-0.357143 2:0.6 3:0.773585 4:-0.045045 5:-1 6:-1 7:-1 8:-1 9:-1 10:0.955804 11:0.951694 12:0.953068 13:0.636364 
15.50208956317459 1:0.714286 2:0.2 3:-0.283019 4:-0.045045 5:-1 6:-1 7:-1 8:-1 9:-1 10:0.2058 11:0.203586 12:0.203586 13:0.636364 
7.969622766053462 1:0.928571 2:-0.2 3:-0.54717 4:-0.045045 5:-1 6:-1 7:-1 8:-1 9:-1 10:0.207184 11:0.204969 12:0.204969 13:0.636364 
1148.867998511812 1:-0.357143 2:0.2 3:0.584906 4:-0.045045 5:-1 6:-1 7:-1 8:-1 9:-1 10:-0.911602 11:-0.913035 12:-0.913043 13:0.636364 
-32768 1:-0.357143 2:0.2 3:0.584906 4:-0.045045 5:-1 6:-1 7:-1 8:-1 9:-1 10:-0.912983 11:-0.914418 12:-0.914427 13:0.636364 
-32768 1:-0.357143 2:0.2 3:0.584906 4:-0.045045 5:-1 6:-1 7:-1 8:-1 9:-1 10:-0.917127 11:-0.918559 12:-0.918567 13:0.636364 
32768 1:-0.357143 2:0.2 3:0.584906 4:-0.045045 5:-1 6:-1 7:-1 8:-1 9:-1 10:-0.914365 11:-0.915801 12:-0.91581 13:0.636364 
26822.18521851611 1:-0.357143 2:0.2 3:0.584906 4:-0.045045 5:-1 6:-1 7:-1 8:-1 9:-1 10:-0.918508 11:-0.919942 12:-0.91995 13:0.636364 
-19160.0301948048 1:-0.357143 2:0.2 3:0.584906 4:-0.045045 5:-1 6:-1 7:-1 8:-1 9:-1 10:-0.915745 11:-0.917176 12:-0.917184 13:0.636364 
-26534.72931260769 1:-0.357143 2:0.6 3:0.773585 4:-0.045045 5:-1 6:-1 7:-1 8:-1 9:-1 10:0.976522 11:0.972398 12:0.973772 13:0.636364 
